~o
<STREAMINFO> 1 39
<VECSIZE> 39<NULLD><MFCC_D_A_0><DIAGC>
~v "varFloor1"
<VARIANCE> 39
 4.212869e-01 2.792749e-01 5.652618e-01 3.201803e-01 5.349968e-01 2.984013e-01 3.884946e-01 3.061316e-01 2.457366e-01 2.251308e-01 2.008276e-01 2.060557e-01 4.219971e-01 1.010767e-02 1.121628e-02 1.395409e-02 1.439542e-02 1.810081e-02 1.614172e-02 1.911339e-02 1.873454e-02 1.709788e-02 1.609177e-02 1.512661e-02 1.310961e-02 6.930705e-03 1.225248e-03 1.686406e-03 1.897202e-03 2.236560e-03 2.848979e-03 2.748586e-03 3.343082e-03 3.388935e-03 3.203923e-03 3.006778e-03 2.851899e-03 2.447462e-03 8.023740e-04
~h "ZERO"
<BEGINHMM>
<NUMSTATES> 12
<STATE> 2
<MEAN> 39
 -9.492993e-01 -8.569355e-01 1.584796e+01 -3.366396e+00 -1.138147e+01 -8.180623e+00 -5.830920e+00 -1.452281e+00 -6.148858e-01 -3.809296e+00 2.710447e+00 -3.208195e+00 7.416169e+01 3.041676e-01 -1.699798e-01 -1.031914e-01 5.269372e-02 -2.032648e-01 5.875310e-02 1.585683e-01 -2.724428e-01 6.781359e-02 -1.526554e-02 1.467500e-02 5.410404e-02 4.633978e-02 -1.094093e-02 5.577430e-03 -5.743414e-02 -3.056140e-03 4.449649e-02 3.505104e-02 4.491118e-02 -5.071982e-03 1.897605e-02 2.217881e-02 5.398789e-03 9.427389e-03 -4.325478e-02
<VARIANCE> 39
 3.281351e+01 3.695452e+01 4.982689e+01 2.201382e+01 7.437228e+01 3.898269e+01 5.010633e+01 4.419641e+01 2.495444e+01 2.335723e+01 1.566377e+01 1.320856e+01 2.863737e+01 1.240358e+00 2.361363e+00 1.927049e+00 2.279693e+00 3.195040e+00 2.379648e+00 2.581442e+00 2.144846e+00 1.778237e+00 1.622591e+00 1.704747e+00 1.089673e+00 6.693300e-01 1.917895e-01 3.281826e-01 2.398292e-01 4.609847e-01 4.292375e-01 4.129117e-01 4.291185e-01 3.512033e-01 3.027675e-01 2.681817e-01 3.159763e-01 1.995118e-01 5.397216e-02
<GCONST> 1.072953e+02
<STATE> 3
<MEAN> 39
 1.030154e-01 -1.406957e+00 1.478008e+01 -3.180351e+00 -1.160357e+01 -7.489931e+00 -4.674943e+00 -2.608599e+00 -1.758156e-01 -3.620788e+00 2.805962e+00 -2.880229e+00 7.379858e+01 2.240605e-01 -1.088501e-01 -3.096382e-01 3.010691e-02 1.334527e-02 2.018742e-01 3.173142e-01 -2.558752e-01 1.319196e-01 7.571335e-02 2.341333e-02 8.617838e-02 -1.254094e-01 -2.178179e-02 1.451889e-02 -4.411372e-02 -4.092099e-03 5.064832e-02 3.201375e-02 3.489717e-02 7.755783e-03 1.363955e-02 1.915146e-02 2.604755e-03 6.884154e-03 -3.964075e-02
<VARIANCE> 39
 2.854783e+01 3.241846e+01 5.621458e+01 2.260072e+01 7.098923e+01 4.279161e+01 5.886274e+01 4.467931e+01 2.557431e+01 2.400032e+01 1.557883e+01 1.397679e+01 2.993024e+01 1.147621e+00 2.120646e+00 1.670261e+00 2.465566e+00 3.170666e+00 2.435941e+00 2.633180e+00 2.200632e+00 1.790064e+00 1.640317e+00 1.784840e+00 1.118703e+00 5.621020e-01 1.731224e-01 3.013684e-01 2.212356e-01 5.023385e-01 4.334744e-01 4.269697e-01 4.464076e-01 3.456833e-01 3.109351e-01 2.746384e-01 3.377810e-01 2.047147e-01 4.588556e-02
<GCONST> 1.071292e+02
<STATE> 4
<MEAN> 39
 6.818013e-01 -1.607130e+00 1.305628e+01 -3.103503e+00 -1.089557e+01 -6.296023e+00 -3.014989e+00 -3.520585e+00 4.527955e-01 -3.111397e+00 2.896414e+00 -2.449895e+00 7.281735e+01 1.061977e-01 -3.366136e-02 -4.398050e-01 1.225906e-02 2.204955e-01 3.047656e-01 4.171785e-01 -1.855673e-01 1.689022e-01 1.359090e-01 2.417252e-02 1.061272e-01 -2.616797e-01 -2.995064e-02 1.592866e-02 -2.521458e-02 -2.063672e-03 4.668483e-02 2.053035e-02 1.857587e-02 1.939086e-02 6.799923e-03 9.997125e-03 3.160854e-04 3.957107e-03 -3.017895e-02
<VARIANCE> 39
 2.499275e+01 2.751074e+01 6.207181e+01 2.285678e+01 7.304232e+01 4.543219e+01 6.656485e+01 4.249757e+01 2.590214e+01 2.409819e+01 1.560997e+01 1.445430e+01 3.394401e+01 1.042369e+00 1.815641e+00 1.412413e+00 2.543757e+00 2.971454e+00 2.375610e+00 2.664831e+00 2.219348e+00 1.763526e+00 1.643765e+00 1.814760e+00 1.129569e+00 4.467151e-01 1.512796e-01 2.607156e-01 2.028495e-01 5.198593e-01 4.244740e-01 4.273561e-01 4.589582e-01 3.362812e-01 3.146115e-01 2.836888e-01 3.509718e-01 2.066408e-01 4.056391e-02
<GCONST> 1.062246e+02
<STATE> 5
<MEAN> 39
 7.039065e-01 -1.518849e+00 1.103254e+01 -3.078138e+00 -9.454268e+00 -4.861902e+00 -1.142112e+00 -4.024817e+00 1.146032e+00 -2.458424e+00 2.977664e+00 -1.979899e+00 7.141675e+01 -2.694304e-02 2.255241e-02 -4.897673e-01 8.557816e-03 3.763357e-01 3.415749e-01 4.448358e-01 -8.533935e-02 1.771742e-01 1.532293e-01 2.273692e-02 1.118109e-01 -3.490951e-01 -3.235837e-02 1.069019e-02 -7.431510e-03 5.660772e-04 3.319273e-02 4.619359e-03 1.157013e-03 2.403913e-02 1.023385e-04 3.044584e-04 -6.555119e-04 7.650389e-04 -1.807958e-02
<VARIANCE> 39
 2.404340e+01 2.320208e+01 6.280863e+01 2.273578e+01 7.746458e+01 4.448573e+01 6.885708e+01 3.925138e+01 2.545354e+01 2.318224e+01 1.547001e+01 1.441298e+01 3.760244e+01 9.085634e-01 1.497113e+00 1.202534e+00 2.508718e+00 2.666902e+00 2.232093e+00 2.643333e+00 2.168630e+00 1.725386e+00 1.638028e+00 1.787368e+00 1.113599e+00 3.458869e-01 1.275646e-01 2.150214e-01 1.838884e-01 5.123301e-01 4.019087e-01 4.105113e-01 4.580167e-01 3.243669e-01 3.163238e-01 2.916660e-01 3.530357e-01 2.040340e-01 3.655138e-02
<GCONST> 1.043444e+02
<STATE> 6
<MEAN> 39
 1.951246e-01 -1.301397e+00 9.010111e+00 -3.033718e+00 -7.594542e+00 -3.490385e+00 6.447754e-01 -4.100628e+00 1.800133e+00 -1.827639e+00 3.062979e+00 -1.534040e+00 6.981165e+01 -1.487844e-01 4.122391e-02 -4.778829e-01 1.657605e-02 4.555372e-01 3.110722e-01 4.071053e-01 8.765297e-03 1.627118e-01 1.381675e-01 2.269366e-02 1.043831e-01 -3.860208e-01 -2.803237e-02 1.767827e-03 4.929289e-03 1.690325e-03 1.390161e-02 -9.929589e-03 -1.215685e-02 1.981949e-02 -5.291714e-03 -5.251392e-03 -6.072561e-04 -1.914490e-03 -6.108533e-03
<VARIANCE> 39
 2.550311e+01 1.964270e+01 5.781016e+01 2.220330e+01 7.919361e+01 3.964172e+01 6.445451e+01 3.607210e+01 2.430127e+01 2.153292e+01 1.503614e+01 1.395585e+01 3.861734e+01 7.477733e-01 1.209209e+00 1.045281e+00 2.374366e+00 2.345482e+00 2.059130e+00 2.545806e+00 2.054729e+00 1.697661e+00 1.624420e+00 1.716094e+00 1.082555e+00 2.727938e-01 1.037912e-01 1.719436e-01 1.656314e-01 4.836755e-01 3.684518e-01 3.809018e-01 4.402534e-01 3.121681e-01 3.189523e-01 2.967433e-01 3.455992e-01 1.995804e-01 3.275330e-02
<GCONST> 1.015380e+02
<STATE> 7
<MEAN> 39
 -7.234969e-01 -1.130490e+00 7.176421e+00 -2.932765e+00 -5.658704e+00 -2.417751e+00 2.121049e+00 -3.861338e+00 2.352000e+00 -1.306866e+00 3.164610e+00 -1.158004e+00 6.819526e+01 -2.366855e-01 2.161387e-02 -4.317332e-01 2.613693e-02 4.535404e-01 2.340841e-01 3.285378e-01 6.867356e-02 1.339112e-01 1.116499e-01 2.420172e-02 8.812548e-02 -3.791234e-01 -1.842554e-02 -6.276096e-03 1.100028e-02 4.023543e-04 -5.713076e-03 -1.906803e-02 -1.867974e-02 1.057920e-02 -8.871187e-03 -5.747199e-03 -2.389135e-04 -3.814358e-03 3.897020e-03
<VARIANCE> 39
 2.750944e+01 1.680401e+01 4.927667e+01 2.129982e+01 7.510450e+01 3.272686e+01 5.532053e+01 3.313355e+01 2.282265e+01 1.976990e+01 1.444185e+01 1.337772e+01 3.628386e+01 5.832719e-01 9.722704e-01 9.276770e-01 2.170209e+00 2.060710e+00 1.886132e+00 2.372604e+00 1.919169e+00 1.685983e+00 1.600626e+00 1.627852e+00 1.060468e+00 2.268021e-01 8.173992e-02 1.359283e-01 1.498089e-01 4.411974e-01 3.291093e-01 3.469322e-01 4.089236e-01 3.015137e-01 3.231338e-01 2.977491e-01 3.331015e-01 1.978100e-01 2.882093e-02
<GCONST> 9.803107e+01
<STATE> 8
<MEAN> 39
 -1.871450e+00 -1.128284e+00 5.603255e+00 -2.790781e+00 -3.938568e+00 -1.752063e+00 3.190345e+00 -3.478961e+00 2.773799e+00 -9.026796e-01 3.282573e+00 -8.735994e-01 6.671613e+01 -2.785619e-01 -1.951759e-02 -3.744757e-01 2.642864e-02 3.862089e-01 1.403883e-01 2.390870e-01 8.929238e-02 9.843604e-02 8.963216e-02 2.526039e-02 6.678723e-02 -3.400369e-01 -6.836973e-03 -9.062160e-03 1.311088e-02 -2.293292e-03 -1.977392e-02 -2.171666e-02 -1.933635e-02 2.705423e-03 -1.020419e-02 -3.679770e-03 -1.069034e-04 -5.445187e-03 1.073832e-02
<VARIANCE> 39
 2.808179e+01 1.467475e+01 3.978069e+01 2.014786e+01 6.571944e+01 2.602443e+01 4.460283e+01 3.036540e+01 2.138168e+01 1.824720e+01 1.396360e+01 1.293737e+01 3.130365e+01 4.429687e-01 7.842273e-01 8.390290e-01 1.934085e+00 1.819865e+00 1.718683e+00 2.152634e+00 1.798154e+00 1.678563e+00 1.566346e+00 1.548517e+00 1.067098e+00 1.978636e-01 6.283222e-02 1.082285e-01 1.369468e-01 3.925980e-01 2.901039e-01 3.156659e-01 3.711864e-01 2.933291e-01 3.263718e-01 2.943569e-01 3.202536e-01 2.017963e-01 2.482260e-02
<GCONST> 9.411681e+01
<STATE> 9
<MEAN> 39
 -3.058508e+00 -1.318642e+00 4.289437e+00 -2.661374e+00 -2.615111e+00 -1.475013e+00 3.877167e+00 -3.091037e+00 3.062667e+00 -5.825246e-01 3.402844e+00 -6.880043e-01 6.546635e+01 -2.763908e-01 -5.654744e-02 -3.164527e-01 1.460731e-02 2.864341e-01 5.595727e-02 1.602416e-01 8.684862e-02 6.388103e-02 7.597677e-02 2.361536e-02 4.182639e-02 -2.832960e-01 2.934007e-03 -5.683247e-03 1.453101e-02 -3.672976e-03 -2.382334e-02 -1.893011e-02 -1.696732e-02 7.287791e-05 -8.999751e-03 -1.980038e-03 -2.708205e-04 -6.954064e-03 1.378267e-02
<VARIANCE> 39
 2.643685e+01 1.307084e+01 3.086948e+01 1.890560e+01 5.403551e+01 2.085623e+01 3.466410e+01 2.797342e+01 2.019993e+01 1.695543e+01 1.378819e+01 1.272424e+01 2.510727e+01 3.400548e-01 6.352495e-01 7.695853e-01 1.698363e+00 1.612729e+00 1.560665e+00 1.925587e+00 1.700997e+00 1.654319e+00 1.523682e+00 1.488925e+00 1.101945e+00 1.745423e-01 4.794065e-02 8.783860e-02 1.263256e-01 3.433977e-01 2.570385e-01 2.909545e-01 3.342118e-01 2.873502e-01 3.242858e-01 2.881062e-01 3.092945e-01 2.107735e-01 2.090322e-02
<GCONST> 9.002871e+01
<STATE> 10
<MEAN> 39
 -4.135087e+00 -1.630952e+00 3.214808e+00 -2.592593e+00 -1.720936e+00 -1.485093e+00 4.272845e+00 -2.746857e+00 3.238711e+00 -3.173165e-01 3.504682e+00 -6.009318e-01 6.447810e+01 -2.441240e-01 -7.058227e-02 -2.572572e-01 -6.799782e-04 1.945318e-01 -3.139579e-03 1.003034e-01 8.288194e-02 3.724151e-02 6.660056e-02 1.927359e-02 1.571444e-02 -2.234696e-01 8.445872e-03 3.566744e-04 1.646982e-02 -1.813446e-03 -1.774588e-02 -1.269128e-02 -1.366810e-02 1.444791e-03 -6.108073e-03 -1.604627e-03 -1.395270e-04 -7.105633e-03 1.348160e-02
<VARIANCE> 39
 2.312037e+01 1.167344e+01 2.317624e+01 1.765963e+01 4.302974e+01 1.741442e+01 2.663889e+01 2.619394e+01 1.933008e+01 1.575757e+01 1.385960e+01 1.267679e+01 1.908236e+01 2.697803e-01 5.174584e-01 7.068363e-01 1.480041e+00 1.443578e+00 1.426096e+00 1.714873e+00 1.622200e+00 1.595928e+00 1.476100e+00 1.440610e+00 1.142999e+00 1.508935e-01 3.727024e-02 7.282373e-02 1.169653e-01 2.963342e-01 2.329622e-01 2.746401e-01 3.021895e-01 2.823692e-01 3.131678e-01 2.819548e-01 2.987490e-01 2.205974e-01 1.718346e-02
<GCONST> 8.588672e+01
<STATE> 11
<MEAN> 39
 -5.022192e+00 -1.953794e+00 2.369345e+00 -2.588082e+00 -1.148800e+00 -1.648019e+00 4.479485e+00 -2.423191e+00 3.339349e+00 -9.570469e-02 3.577108e+00 -5.960737e-01 6.373302e+01 -2.001438e-01 -6.031501e-02 -1.953191e-01 -7.130562e-03 1.405876e-01 -3.077611e-02 5.940179e-02 8.675551e-02 2.129087e-02 5.802010e-02 1.624453e-02 -4.099143e-03 -1.710060e-01 9.677351e-03 4.397509e-03 1.748673e-02 1.763257e-03 -7.142444e-03 -5.254677e-03 -9.954121e-03 2.396361e-03 -3.373609e-03 -1.598697e-03 9.517223e-04 -4.249813e-03 1.136055e-02
<VARIANCE> 39
 1.917300e+01 1.034280e+01 1.703534e+01 1.635617e+01 3.409241e+01 1.531508e+01 2.086076e+01 2.495152e+01 1.868062e+01 1.457155e+01 1.394081e+01 1.265735e+01 1.406203e+01 2.215189e-01 4.240883e-01 6.414579e-01 1.282484e+00 1.327853e+00 1.334618e+00 1.524204e+00 1.556892e+00 1.501424e+00 1.428164e+00 1.384525e+00 1.164413e+00 1.271425e-01 3.031627e-02 6.169451e-02 1.085023e-01 2.526223e-01 2.178859e-01 2.676849e-01 2.758732e-01 2.779168e-01 2.927682e-01 2.783651e-01 2.848301e-01 2.267101e-01 1.383260e-02
<GCONST> 8.177042e+01
<TRANSP> 12
 0.000000e+00 1.000000e+00 0.000000e+00 0.000000e+00 0.000000e+00 0.000000e+00 0.000000e+00 0.000000e+00 0.000000e+00 0.000000e+00 0.000000e+00 0.000000e+00
 0.000000e+00 7.541976e-01 2.458024e-01 0.000000e+00 0.000000e+00 0.000000e+00 0.000000e+00 0.000000e+00 0.000000e+00 0.000000e+00 0.000000e+00 0.000000e+00
 0.000000e+00 0.000000e+00 7.541975e-01 2.458024e-01 0.000000e+00 0.000000e+00 0.000000e+00 0.000000e+00 0.000000e+00 0.000000e+00 0.000000e+00 0.000000e+00
 0.000000e+00 0.000000e+00 0.000000e+00 7.541976e-01 2.458024e-01 0.000000e+00 0.000000e+00 0.000000e+00 0.000000e+00 0.000000e+00 0.000000e+00 0.000000e+00
 0.000000e+00 0.000000e+00 0.000000e+00 0.000000e+00 7.541974e-01 2.458026e-01 0.000000e+00 0.000000e+00 0.000000e+00 0.000000e+00 0.000000e+00 0.000000e+00
 0.000000e+00 0.000000e+00 0.000000e+00 0.000000e+00 0.000000e+00 7.541975e-01 2.458025e-01 0.000000e+00 0.000000e+00 0.000000e+00 0.000000e+00 0.000000e+00
 0.000000e+00 0.000000e+00 0.000000e+00 0.000000e+00 0.000000e+00 0.000000e+00 7.541975e-01 2.458024e-01 0.000000e+00 0.000000e+00 0.000000e+00 0.000000e+00
 0.000000e+00 0.000000e+00 0.000000e+00 0.000000e+00 0.000000e+00 0.000000e+00 0.000000e+00 7.541973e-01 2.458027e-01 0.000000e+00 0.000000e+00 0.000000e+00
 0.000000e+00 0.000000e+00 0.000000e+00 0.000000e+00 0.000000e+00 0.000000e+00 0.000000e+00 0.000000e+00 7.541974e-01 2.458026e-01 0.000000e+00 0.000000e+00
 0.000000e+00 0.000000e+00 0.000000e+00 0.000000e+00 0.000000e+00 0.000000e+00 0.000000e+00 0.000000e+00 0.000000e+00 7.541978e-01 2.458022e-01 0.000000e+00
 0.000000e+00 0.000000e+00 0.000000e+00 0.000000e+00 0.000000e+00 0.000000e+00 0.000000e+00 0.000000e+00 0.000000e+00 0.000000e+00 7.541987e-01 2.458013e-01
 0.000000e+00 0.000000e+00 0.000000e+00 0.000000e+00 0.000000e+00 0.000000e+00 0.000000e+00 0.000000e+00 0.000000e+00 0.000000e+00 0.000000e+00 0.000000e+00
<ENDHMM>
~h "SEVEN"
<BEGINHMM>
<NUMSTATES> 12
<STATE> 2
<MEAN> 39
 -2.317632e+00 -5.027292e+00 7.382963e+00 -4.927439e+00 -5.708346e+00 -8.855565e+00 -6.695698e+00 8.358836e-02 5.942576e+00 3.157778e+00 -1.179719e+00 -5.491951e+00 7.330441e+01 8.749659e-01 -1.820043e-01 3.351513e-01 9.859084e-02 -3.622832e-01 1.002508e-03 -2.839365e-01 3.465383e-02 1.751778e-01 -2.626384e-02 1.937300e-02 -3.736217e-01 1.457800e-01 -3.295007e-02 3.567167e-02 -2.319912e-02 1.611855e-02 3.034640e-02 1.324772e-02 4.988662e-02 7.739291e-03 -1.097030e-02 -1.495064e-02 1.074553e-02 3.857059e-02 -4.526885e-02
<VARIANCE> 39
 1.164123e+02 3.930953e+01 2.287402e+01 1.882588e+01 3.678572e+01 1.135448e+01 5.407354e+01 1.888301e+01 1.833623e+01 1.664112e+01 1.534756e+01 3.991905e+01 2.397160e+01 4.528172e+00 2.468595e+00 1.529758e+00 1.947919e+00 2.403091e+00 9.531640e-01 4.175760e+00 2.091871e+00 1.299093e+00 1.294737e+00 1.372397e+00 2.820447e+00 1.812409e+00 6.150048e-01 2.884056e-01 2.438988e-01 3.646314e-01 3.937949e-01 1.815613e-01 6.625110e-01 4.282239e-01 2.437890e-01 2.544039e-01 2.372165e-01 4.199891e-01 2.549875e-01
<GCONST> 1.089195e+02
<STATE> 3
<MEAN> 39
 1.761131e-01 -5.312851e+00 8.298856e+00 -4.504171e+00 -6.608384e+00 -8.762356e+00 -7.243917e+00 2.308071e-01 6.407877e+00 2.967146e+00 -1.093428e+00 -6.416721e+00 7.344831e+01 6.985433e-01 -3.209952e-02 2.450939e-01 1.614036e-01 -2.302463e-01 4.673475e-02 -8.779806e-02 4.765572e-02 1.220969e-01 -7.933411e-02 3.047799e-02 -2.318336e-01 -1.432206e-02 -6.654873e-02 5.182510e-02 -3.059515e-02 2.050825e-02 4.656747e-02 1.388713e-02 6.573607e-02 3.011690e-03 -1.976543e-02 -1.636309e-02 -1.136669e-03 4.705848e-02 -5.174201e-02
<VARIANCE> 39
 8.621452e+01 3.902497e+01 1.809803e+01 2.010293e+01 3.104186e+01 1.136400e+01 4.767575e+01 1.873681e+01 1.679054e+01 1.695325e+01 1.498824e+01 3.084050e+01 2.317407e+01 3.920487e+00 2.470921e+00 1.436083e+00 1.931288e+00 2.278389e+00 9.130647e-01 3.859200e+00 2.093060e+00 1.243759e+00 1.239980e+00 1.343986e+00 2.473949e+00 1.702450e+00 5.272588e-01 2.881252e-01 2.289098e-01 3.521309e-01 3.569981e-01 1.751381e-01 6.114331e-01 4.222472e-01 2.294899e-01 2.447821e-01 2.371434e-01 3.624244e-01 2.301618e-01
<GCONST> 1.062341e+02
<STATE> 4
<MEAN> 39
 1.954757e+00 -5.046285e+00 8.906963e+00 -3.868241e+00 -7.014412e+00 -8.528084e+00 -7.117408e+00 3.708253e-01 6.650633e+00 2.612424e+00 -1.041272e+00 -6.879386e+00 7.306924e+01 4.558285e-01 1.462325e-01 1.483401e-01 2.264576e-01 -6.692541e-02 8.584896e-02 1.232000e-01 3.998113e-02 4.542296e-02 -1.261748e-01 7.361061e-03 -8.868555e-02 -1.761367e-01 -7.780735e-02 5.503623e-02 -2.871105e-02 1.839354e-02 5.223723e-02 1.011512e-02 6.254702e-02 -4.135639e-03 -2.515999e-02 -1.272167e-02 -1.082143e-02 4.194692e-02 -4.806460e-02
<VARIANCE> 39
 5.502449e+01 3.947982e+01 1.371870e+01 2.102071e+01 2.675255e+01 1.180276e+01 4.266364e+01 1.914183e+01 1.577007e+01 1.689758e+01 1.451530e+01 2.277355e+01 2.359761e+01 3.129280e+00 2.265375e+00 1.278051e+00 1.855697e+00 2.018117e+00 9.054159e-01 3.288538e+00 2.081077e+00 1.203591e+00 1.170262e+00 1.325236e+00 2.030951e+00 1.460010e+00 4.196403e-01 2.722185e-01 2.067285e-01 3.301384e-01 3.100194e-01 1.754808e-01 5.334982e-01 4.091138e-01 2.178459e-01 2.315540e-01 2.410861e-01 2.990822e-01 1.961336e-01
<GCONST> 1.025588e+02
<STATE> 5
<MEAN> 39
 2.946135e+00 -4.229964e+00 9.236929e+00 -3.049026e+00 -6.899701e+00 -8.194489e+00 -6.377780e+00 4.323723e-01 6.622456e+00 2.141759e+00 -1.102896e+00 -6.940997e+00 7.222380e+01 2.196434e-01 3.037756e-01 7.138301e-02 2.729802e-01 9.147622e-02 1.099080e-01 2.928443e-01 1.064263e-02 -3.816395e-02 -1.548892e-01 -3.474079e-02 2.082645e-02 -3.067831e-01 -6.731392e-02 4.248373e-02 -1.999759e-02 9.535896e-03 4.660768e-02 5.713913e-03 4.381388e-02 -1.038219e-02 -2.480859e-02 -6.764797e-03 -1.442040e-02 2.757916e-02 -3.439532e-02
<VARIANCE> 39
 3.156162e+01 4.007888e+01 1.056506e+01 2.112327e+01 2.523949e+01 1.271994e+01 3.935105e+01 2.021157e+01 1.592811e+01 1.636694e+01 1.405125e+01 1.718671e+01 2.451452e+01 2.286367e+00 1.904726e+00 1.088408e+00 1.743009e+00 1.689963e+00 9.244605e-01 2.620651e+00 2.076780e+00 1.192775e+00 1.103849e+00 1.309392e+00 1.609008e+00 1.147857e+00 3.182987e-01 2.437844e-01 1.814036e-01 3.051193e-01 2.636754e-01 1.802321e-01 4.486872e-01 3.947172e-01 2.135403e-01 2.172391e-01 2.469922e-01 2.445942e-01 1.593830e-01
<GCONST> 9.839637e+01
<STATE> 6
<MEAN> 39
 3.277967e+00 -3.019001e+00 9.376509e+00 -2.133672e+00 -6.340944e+00 -7.804568e+00 -5.223600e+00 3.614683e-01 6.339851e+00 1.622428e+00 -1.296856e+00 -6.739140e+00 7.105681e+01 4.131456e-02 3.988573e-01 2.425076e-02 2.848869e-01 2.163595e-01 1.243722e-01 3.900615e-01 -3.286777e-02 -1.098315e-01 -1.637604e-01 -7.512525e-02 8.102551e-02 -3.841824e-01 -4.597775e-02 2.037238e-02 -1.128348e-02 -2.474459e-03 3.378852e-02 4.359672e-03 2.018421e-02 -1.430135e-02 -1.973282e-02 -1.203132e-03 -1.154432e-02 1.165126e-02 -1.674801e-02
<VARIANCE> 39
 1.800745e+01 3.920139e+01 8.704491e+00 2.008354e+01 2.598744e+01 1.406633e+01 3.625819e+01 2.187405e+01 1.715493e+01 1.545525e+01 1.365312e+01 1.411800e+01 2.474726e+01 1.559097e+00 1.512274e+00 9.076915e-01 1.610276e+00 1.396468e+00 9.562082e-01 2.033231e+00 2.091258e+00 1.216028e+00 1.054536e+00 1.281717e+00 1.291718e+00 8.460326e-01 2.357726e-01 2.073463e-01 1.558268e-01 2.799627e-01 2.281718e-01 1.862918e-01 3.726647e-01 3.836069e-01 2.170073e-01 2.045078e-01 2.500339e-01 2.057238e-01 1.241801e-01
<GCONST> 9.416563e+01
<STATE> 7
<MEAN> 39
 3.167329e+00 -1.651493e+00 9.404835e+00 -1.237755e+00 -5.472619e+00 -7.369243e+00 -3.889469e+00 1.351657e-01 5.870138e+00 1.113015e+00 -1.583419e+00 -6.419076e+00 6.974386e+01 -6.897737e-02 4.190480e-01 -4.639724e-03 2.611536e-01 2.958309e-01 1.403936e-01 4.179811e-01 -8.274294e-02 -1.590600e-01 -1.567336e-01 -9.754628e-02 9.955794e-02 -4.091601e-01 -2.683237e-02 -1.418412e-03 -8.282424e-03 -1.178273e-02 1.913960e-02 6.013861e-03 1.317832e-03 -1.645407e-02 -1.286603e-02 3.425222e-03 -4.531405e-03 1.074294e-03 -2.575103e-03
<VARIANCE> 39
 1.191911e+01 3.591707e+01 7.907682e+00 1.803151e+01 2.746320e+01 1.558991e+01 3.231665e+01 2.377771e+01 1.866997e+01 1.439139e+01 1.332531e+01 1.296583e+01 2.369688e+01 1.032888e+00 1.190690e+00 7.626883e-01 1.460787e+00 1.205967e+00 9.853692e-01 1.615434e+00 2.121286e+00 1.261012e+00 1.022933e+00 1.231405e+00 1.093758e+00 6.053515e-01 1.723608e-01 1.686419e-01 1.325885e-01 2.537923e-01 2.084961e-01 1.910828e-01 3.133119e-01 3.774513e-01 2.242513e-01 1.949437e-01 2.453484e-01 1.817898e-01 9.322546e-02
<GCONST> 9.018035e+01
<STATE> 8
<MEAN> 39
 2.799103e+00 -3.513148e-01 9.341201e+00 -4.562860e-01 -4.437771e+00 -6.871841e+00 -2.558174e+00 -2.484217e-01 5.295815e+00 6.561513e-01 -1.888195e+00 -6.074114e+00 6.842347e+01 -1.329053e-01 3.785923e-01 -3.612927e-02 2.157124e-01 3.310217e-01 1.625944e-01 3.993829e-01 -1.339004e-01 -1.845166e-01 -1.368102e-01 -9.434485e-02 9.882015e-02 -4.000895e-01 -1.648311e-02 -1.693940e-02 -1.132203e-02 -1.528809e-02 5.830310e-03 7.490097e-03 -9.957932e-03 -1.662738e-02 -5.713001e-03 7.803620e-03 3.875387e-03 -1.306311e-03 4.857357e-03
<VARIANCE> 39
 9.992905e+00 3.078666e+01 8.057461e+00 1.553434e+01 2.818754e+01 1.684675e+01 2.775240e+01 2.538230e+01 1.957149e+01 1.336841e+01 1.315755e+01 1.311747e+01 2.160624e+01 6.873859e-01 9.706068e-01 6.631329e-01 1.292914e+00 1.122831e+00 1.005272e+00 1.357600e+00 2.147827e+00 1.299775e+00 1.002200e+00 1.160248e+00 9.828840e-01 4.339999e-01 1.237087e-01 1.335651e-01 1.141199e-01 2.248841e-01 2.031682e-01 1.938474e-01 2.708232e-01 3.745935e-01 2.297429e-01 1.891586e-01 2.316321e-01 1.684299e-01 6.808802e-02
<GCONST> 8.658583e+01
<STATE> 9
<MEAN> 39
 2.269913e+00 7.267103e-01 9.146992e+00 1.630924e-01 -3.365097e+00 -6.301180e+00 -1.337130e+00 -7.758672e-01 4.692960e+00 2.860030e-01 -2.127253e+00 -5.724686e+00 6.716916e+01 -1.777748e-01 3.001027e-01 -8.334748e-02 1.638316e-01 3.276627e-01 1.842308e-01 3.550799e-01 -1.781630e-01 -1.862500e-01 -1.051600e-01 -6.512368e-02 1.019410e-01 -3.762827e-01 -1.311619e-02 -2.616105e-02 -1.631176e-02 -1.519402e-02 -5.298217e-03 5.590606e-03 -1.637237e-02 -1.238379e-02 2.618243e-03 1.166438e-02 1.168239e-02 2.854243e-03 7.670303e-03
<VARIANCE> 39
 1.003452e+01 2.512629e+01 9.183062e+00 1.320335e+01 2.731894e+01 1.740019e+01 2.331857e+01 2.611547e+01 1.931927e+01 1.248754e+01 1.339781e+01 1.410204e+01 1.896473e+01 4.636653e-01 8.323313e-01 6.059189e-01 1.115023e+00 1.110861e+00 1.019328e+00 1.210340e+00 2.142129e+00 1.305875e+00 9.886212e-01 1.084471e+00 9.229139e-01 3.183015e-01 8.627167e-02 1.056989e-01 1.018615e-01 1.933040e-01 2.063449e-01 1.955339e-01 2.409428e-01 3.706906e-01 2.298454e-01 1.876831e-01 2.126452e-01 1.617322e-01 4.906371e-02
<GCONST> 8.331614e+01
<STATE> 10
<MEAN> 39
 1.610314e+00 1.496018e+00 8.767372e+00 6.036725e-01 -2.365564e+00 -5.681797e+00 -2.867801e-01 -1.400932e+00 4.136909e+00 3.064281e-02 -2.226191e+00 -5.336867e+00 6.600885e+01 -2.166359e-01 2.009269e-01 -1.443456e-01 1.103011e-01 2.926541e-01 1.923679e-01 2.946622e-01 -1.989665e-01 -1.605523e-01 -6.506739e-02 -1.500530e-02 1.216728e-01 -3.463308e-01 -1.121601e-02 -3.133630e-02 -1.880471e-02 -1.545659e-02 -1.385245e-02 -2.535548e-04 -2.078464e-02 -1.628330e-03 1.264740e-02 1.357051e-02 1.726693e-02 9.090694e-03 9.685125e-03
<VARIANCE> 39
 1.093296e+01 2.006838e+01 1.126061e+01 1.143451e+01 2.480048e+01 1.706960e+01 1.947202e+01 2.550073e+01 1.792789e+01 1.181390e+01 1.434162e+01 1.551171e+01 1.602406e+01 3.181299e-01 7.406854e-01 5.768538e-01 9.445871e-01 1.124988e+00 1.033277e+00 1.128602e+00 2.081741e+00 1.274654e+00 9.859642e-01 1.026584e+00 8.927675e-01 2.412488e-01 5.877112e-02 8.548498e-02 9.547111e-02 1.614604e-01 2.107971e-01 1.968680e-01 2.192811e-01 3.605308e-01 2.250688e-01 1.911696e-01 1.953670e-01 1.600817e-01 3.543284e-02
<GCONST> 8.025128e+01
<STATE> 11
<MEAN> 39
 8.385568e-01 1.916961e+00 8.174807e+00 8.507681e-01 -1.525681e+00 -5.077216e+00 5.486627e-01 -2.022216e+00 3.711626e+00 -9.643514e-02 -2.137462e+00 -4.862395e+00 6.495908e+01 -2.468054e-01 9.303100e-02 -2.066678e-01 5.284880e-02 2.358730e-01 1.774525e-01 2.227729e-01 -1.784139e-01 -1.054929e-01 -2.350413e-02 4.560412e-02 1.562884e-01 -3.098584e-01 -7.254043e-03 -3.317390e-02 -1.700179e-02 -1.678649e-02 -1.889960e-02 -7.792233e-03 -2.311002e-02 1.286703e-02 2.141620e-02 1.286258e-02 1.919736e-02 1.270646e-02 1.240544e-02
<VARIANCE> 39
 1.204648e+01 1.628606e+01 1.401245e+01 1.045180e+01 2.126300e+01 1.604985e+01 1.635146e+01 2.340239e+01 1.591644e+01 1.140290e+01 1.607148e+01 1.692614e+01 1.290621e+01 2.276409e-01 6.614865e-01 5.573220e-01 7.965431e-01 1.125120e+00 1.045176e+00 1.081077e+00 1.961149e+00 1.226142e+00 1.001950e+00 1.003138e+00 8.816707e-01 1.873350e-01 4.059019e-02 7.148997e-02 9.285474e-02 1.328090e-01 2.103586e-01 1.968372e-01 2.038608e-01 3.406146e-01 2.200033e-01 1.996643e-01 1.862716e-01 1.632081e-01 2.596395e-02
<GCONST> 7.734484e+01
<TRANSP> 12
 0.000000e+00 1.000000e+00 0.000000e+00 0.000000e+00 0.000000e+00 0.000000e+00 0.000000e+00 0.000000e+00 0.000000e+00 0.000000e+00 0.000000e+00 0.000000e+00
 0.000000e+00 6.929362e-01 3.070638e-01 0.000000e+00 0.000000e+00 0.000000e+00 0.000000e+00 0.000000e+00 0.000000e+00 0.000000e+00 0.000000e+00 0.000000e+00
 0.000000e+00 0.000000e+00 6.929364e-01 3.070636e-01 0.000000e+00 0.000000e+00 0.000000e+00 0.000000e+00 0.000000e+00 0.000000e+00 0.000000e+00 0.000000e+00
 0.000000e+00 0.000000e+00 0.000000e+00 6.929363e-01 3.070637e-01 0.000000e+00 0.000000e+00 0.000000e+00 0.000000e+00 0.000000e+00 0.000000e+00 0.000000e+00
 0.000000e+00 0.000000e+00 0.000000e+00 0.000000e+00 6.929368e-01 3.070632e-01 0.000000e+00 0.000000e+00 0.000000e+00 0.000000e+00 0.000000e+00 0.000000e+00
 0.000000e+00 0.000000e+00 0.000000e+00 0.000000e+00 0.000000e+00 6.929365e-01 3.070635e-01 0.000000e+00 0.000000e+00 0.000000e+00 0.000000e+00 0.000000e+00
 0.000000e+00 0.000000e+00 0.000000e+00 0.000000e+00 0.000000e+00 0.000000e+00 6.929364e-01 3.070637e-01 0.000000e+00 0.000000e+00 0.000000e+00 0.000000e+00
 0.000000e+00 0.000000e+00 0.000000e+00 0.000000e+00 0.000000e+00 0.000000e+00 0.000000e+00 6.929365e-01 3.070635e-01 0.000000e+00 0.000000e+00 0.000000e+00
 0.000000e+00 0.000000e+00 0.000000e+00 0.000000e+00 0.000000e+00 0.000000e+00 0.000000e+00 0.000000e+00 6.929367e-01 3.070633e-01 0.000000e+00 0.000000e+00
 0.000000e+00 0.000000e+00 0.000000e+00 0.000000e+00 0.000000e+00 0.000000e+00 0.000000e+00 0.000000e+00 0.000000e+00 6.929364e-01 3.070636e-01 0.000000e+00
 0.000000e+00 0.000000e+00 0.000000e+00 0.000000e+00 0.000000e+00 0.000000e+00 0.000000e+00 0.000000e+00 0.000000e+00 0.000000e+00 6.929371e-01 3.070629e-01
 0.000000e+00 0.000000e+00 0.000000e+00 0.000000e+00 0.000000e+00 0.000000e+00 0.000000e+00 0.000000e+00 0.000000e+00 0.000000e+00 0.000000e+00 0.000000e+00
<ENDHMM>
~h "THREE"
<BEGINHMM>
<NUMSTATES> 12
<STATE> 2
<MEAN> 39
 -3.910115e+00 -6.265057e+00 1.261883e+01 -2.405882e-03 -1.028599e+01 -8.402500e+00 -5.795220e+00 -1.876151e+00 2.390982e+00 -4.699411e+00 2.521996e+00 -1.491886e+00 6.910393e+01 4.081279e-01 2.100876e-01 5.988537e-01 2.467602e-01 -4.264626e-01 -8.459955e-02 -1.234702e-01 -2.668711e-01 -1.885863e-01 -2.580122e-01 2.252171e-02 -3.677200e-02 1.298382e-01 -3.450979e-02 1.875363e-02 -2.732048e-02 -2.056470e-02 2.757635e-02 3.244027e-02 4.898503e-02 -1.273972e-02 -8.822466e-04 2.689569e-02 1.178029e-02 1.501606e-02 -3.344411e-02
<VARIANCE> 39
 5.245532e+01 2.464749e+01 1.153788e+02 3.614571e+01 9.314435e+01 5.261906e+01 5.724783e+01 3.913484e+01 3.946545e+01 4.987463e+01 2.243288e+01 1.648486e+01 2.002283e+01 2.322645e+00 1.674040e+00 3.404776e+00 2.507149e+00 4.505841e+00 3.440933e+00 4.156900e+00 2.838163e+00 2.809052e+00 3.379682e+00 2.519001e+00 1.869770e+00 1.101285e+00 2.950422e-01 2.897625e-01 4.334415e-01 4.346950e-01 6.893560e-01 5.330470e-01 7.439085e-01 5.513641e-01 5.398390e-01 5.622177e-01 5.042228e-01 3.691223e-01 1.739653e-01
<GCONST> 1.218487e+02
<STATE> 3
<MEAN> 39
 -2.779040e+00 -5.352136e+00 1.443733e+01 6.157799e-01 -1.141193e+01 -8.426228e+00 -5.892388e+00 -2.876203e+00 1.744142e+00 -5.324709e+00 2.604466e+00 -1.609282e+00 6.925357e+01 2.847937e-01 2.580274e-01 4.524436e-01 1.747860e-01 -2.847488e-01 4.800181e-02 4.727767e-02 -3.002587e-01 -1.654022e-01 -1.342445e-01 3.604963e-02 -1.615704e-02 6.901091e-04 -4.259022e-02 1.100918e-02 -5.256014e-02 -2.609550e-02 5.248050e-02 3.840756e-02 4.635773e-02 -4.943696e-03 6.307177e-03 4.095326e-02 5.246935e-03 5.316741e-03 -4.100127e-02
<VARIANCE> 39
 4.701013e+01 2.680235e+01 1.117046e+02 3.396674e+01 9.173466e+01 5.605621e+01 5.589168e+01 4.234063e+01 4.061969e+01 4.745348e+01 2.248002e+01 1.723255e+01 2.028999e+01 2.043692e+00 1.532418e+00 3.673034e+00 2.323610e+00 4.462946e+00 3.450425e+00 4.004354e+00 2.855450e+00 2.817653e+00 3.293089e+00 2.454847e+00 1.824225e+00 1.045595e+00 2.545522e-01 2.524005e-01 4.285985e-01 4.007526e-01 6.594671e-01 5.191650e-01 7.217107e-01 5.477905e-01 5.370163e-01 5.538194e-01 4.771993e-01 3.577301e-01 1.557537e-01
<GCONST> 1.207871e+02
<STATE> 4
<MEAN> 39
 -2.105384e+00 -4.323787e+00 1.560077e+01 9.885917e-01 -1.195140e+01 -7.983166e+00 -5.427601e+00 -3.925478e+00 1.249408e+00 -5.452672e+00 2.669788e+00 -1.725247e+00 6.894089e+01 1.448501e-01 2.812505e-01 2.371919e-01 9.133842e-02 -8.952267e-02 1.715030e-01 1.843818e-01 -2.992401e-01 -1.187383e-01 1.498069e-02 3.022622e-02 -2.080453e-02 -1.348459e-01 -4.199848e-02 5.780857e-03 -6.717996e-02 -2.922949e-02 6.319535e-02 3.214522e-02 3.097501e-02 5.000612e-03 1.198511e-02 4.469210e-02 -1.295123e-03 -4.471906e-03 -3.890053e-02
<VARIANCE> 39
 3.892798e+01 2.849936e+01 1.041834e+02 3.089386e+01 8.542123e+01 5.809639e+01 5.607733e+01 4.336574e+01 3.998967e+01 4.476070e+01 2.182370e+01 1.829427e+01 2.187287e+01 1.707167e+00 1.379022e+00 3.750745e+00 2.085348e+00 4.122634e+00 3.377913e+00 3.709169e+00 2.818863e+00 2.734743e+00 3.051246e+00 2.320290e+00 1.764322e+00 9.211713e-01 2.024796e-01 2.145600e-01 4.043705e-01 3.571310e-01 5.965045e-01 5.031887e-01 6.803558e-01 5.314699e-01 5.173988e-01 5.213392e-01 4.373567e-01 3.414598e-01 1.325068e-01
<GCONST> 1.184543e+02
<STATE> 5
<MEAN> 39
 -1.918407e+00 -3.279598e+00 1.594221e+01 1.085955e+00 -1.182397e+01 -7.192630e+00 -4.569711e+00 -4.886745e+00 9.735219e-01 -5.072185e+00 2.681649e+00 -1.878538e+00 6.820090e+01 9.696357e-03 2.787685e-01 -2.880014e-03 4.213191e-03 1.066599e-01 2.465604e-01 2.631845e-01 -2.579442e-01 -5.927989e-02 1.523518e-01 1.678985e-02 -3.635827e-02 -2.477769e-01 -3.745955e-02 -5.759057e-04 -6.825911e-02 -2.837163e-02 5.648165e-02 1.572176e-02 1.458324e-02 1.640015e-02 1.475356e-02 3.812122e-02 -3.703119e-03 -7.900175e-03 -2.937369e-02
<VARIANCE> 39
 3.102503e+01 2.891608e+01 9.797211e+01 2.741211e+01 7.743680e+01 5.749030e+01 5.703307e+01 4.178482e+01 3.808205e+01 4.328653e+01 2.079071e+01 1.928733e+01 2.446736e+01 1.372334e+00 1.213315e+00 3.602190e+00 1.819879e+00 3.586297e+00 3.229113e+00 3.362730e+00 2.743316e+00 2.605341e+00 2.733597e+00 2.146183e+00 1.704148e+00 7.609266e-01 1.534891e-01 1.798702e-01 3.675984e-01 3.124617e-01 5.186658e-01 4.808804e-01 6.261731e-01 5.063520e-01 4.916697e-01 4.767808e-01 3.967408e-01 3.252001e-01 1.081729e-01
<GCONST> 1.151829e+02
<STATE> 6
<MEAN> 39
 -2.174679e+00 -2.329033e+00 1.545471e+01 9.149003e-01 -1.111289e+01 -6.274002e+00 -3.527893e+00 -5.627231e+00 9.290497e-01 -4.289088e+00 2.661024e+00 -2.050515e+00 6.714540e+01 -1.056865e-01 2.476826e-01 -2.236046e-01 -7.270168e-02 2.577895e-01 2.538864e-01 2.887179e-01 -1.811510e-01 -1.557661e-03 2.504377e-01 1.206614e-02 -4.423304e-02 -3.218484e-01 -3.040724e-02 -7.878061e-03 -5.814680e-02 -2.283022e-02 3.812693e-02 -3.545684e-03 3.536560e-03 2.513122e-02 1.436123e-02 2.539062e-02 -1.497998e-03 -4.821472e-03 -1.738438e-02
<VARIANCE> 39
 2.500945e+01 2.761002e+01 9.581335e+01 2.398656e+01 6.946446e+01 5.321460e+01 5.711179e+01 3.807448e+01 3.553355e+01 4.268311e+01 1.963966e+01 1.974893e+01 2.699354e+01 1.058746e+00 1.042083e+00 3.249137e+00 1.549963e+00 2.981866e+00 2.994803e+00 2.990227e+00 2.613119e+00 2.461327e+00 2.405996e+00 1.957296e+00 1.637921e+00 5.966024e-01 1.144646e-01 1.484371e-01 3.236935e-01 2.709950e-01 4.379940e-01 4.442054e-01 5.598076e-01 4.718468e-01 4.649468e-01 4.279267e-01 3.611983e-01 3.080410e-01 8.429605e-02
<GCONST> 1.110613e+02
<STATE> 7
<MEAN> 39
 -2.772200e+00 -1.568341e+00 1.426647e+01 5.307164e-01 -1.000921e+01 -5.458123e+00 -2.479327e+00 -6.060396e+00 1.076864e+00 -3.273907e+00 2.668792e+00 -2.187490e+00 6.591751e+01 -1.893843e-01 1.942210e-01 -3.946182e-01 -1.279032e-01 3.432761e-01 2.031439e-01 2.783580e-01 -8.702157e-02 4.455278e-02 2.993931e-01 2.346742e-02 -3.547405e-02 -3.552603e-01 -2.101610e-02 -1.270542e-02 -4.220594e-02 -1.511992e-02 1.781926e-02 -1.681668e-02 -2.389936e-03 2.722420e-02 1.286837e-02 1.218077e-02 1.766587e-03 1.127390e-03 -6.736714e-03
<VARIANCE> 39
 2.100951e+01 2.477465e+01 9.694308e+01 2.094479e+01 6.167195e+01 4.596973e+01 5.513614e+01 3.340683e+01 3.264926e+01 4.163810e+01 1.850256e+01 1.948339e+01 2.828627e+01 7.768440e-01 8.807876e-01 2.768178e+00 1.303977e+00 2.411889e+00 2.673887e+00 2.596076e+00 2.417910e+00 2.307185e+00 2.103703e+00 1.781019e+00 1.556195e+00 4.460587e-01 8.533546e-02 1.204937e-01 2.768859e-01 2.347231e-01 3.623619e-01 3.934387e-01 4.832922e-01 4.290923e-01 4.350307e-01 3.795036e-01 3.319971e-01 2.876953e-01 6.177197e-02
<GCONST> 1.060919e+02
<STATE> 8
<MEAN> 39
 -3.574029e+00 -1.043704e+00 1.258463e+01 1.383185e-02 -8.727594e+00 -4.898587e+00 -1.538788e+00 -6.170997e+00 1.357608e+00 -2.198396e+00 2.760274e+00 -2.238173e+00 6.465125e+01 -2.349912e-01 1.350597e-01 -5.041632e-01 -1.597577e-01 3.690899e-01 1.254889e-01 2.486869e-01 1.473853e-03 7.878473e-02 3.069828e-01 4.445389e-02 -1.178412e-02 -3.556131e-01 -1.039166e-02 -1.258605e-02 -2.558873e-02 -8.173179e-03 2.655532e-03 -2.003678e-02 -5.662268e-03 2.263161e-02 1.196972e-02 2.871642e-03 2.242706e-03 6.602761e-03 9.620711e-04
<VARIANCE> 39
 1.813767e+01 2.099529e+01 9.843562e+01 1.847325e+01 5.389954e+01 3.781458e+01 5.091811e+01 2.896157e+01 2.941862e+01 3.921642e+01 1.744753e+01 1.865472e+01 2.769963e+01 5.422630e-01 7.443805e-01 2.255409e+00 1.107126e+00 1.928133e+00 2.302689e+00 2.209963e+00 2.187364e+00 2.126940e+00 1.844287e+00 1.636941e+00 1.456449e+00 3.189619e-01 6.345236e-02 9.737358e-02 2.315382e-01 2.055441e-01 2.979440e-01 3.390364e-01 4.045188e-01 3.850837e-01 3.969624e-01 3.358144e-01 3.086812e-01 2.645448e-01 4.208733e-02
<GCONST> 1.003939e+02
<STATE> 9
<MEAN> 39
 -4.441335e+00 -7.346318e-01 1.063533e+01 -5.632598e-01 -7.440316e+00 -4.633806e+00 -7.599291e-01 -6.007581e+00 1.723053e+00 -1.184345e+00 2.949186e+00 -2.172750e+00 6.344722e+01 -2.440322e-01 8.785092e-02 -5.549543e-01 -1.730425e-01 3.553284e-01 5.258146e-02 2.106341e-01 6.804762e-02 1.053941e-01 2.906796e-01 6.158017e-02 2.083910e-02 -3.338329e-01 -5.658088e-04 -8.836857e-03 -1.073050e-02 -2.405354e-03 -5.547352e-03 -1.603899e-02 -8.066216e-03 1.470060e-02 1.086705e-02 -2.079257e-03 -7.502888e-04 9.934218e-03 5.955550e-03
<VARIANCE> 39
 1.546187e+01 1.685163e+01 9.734509e+01 1.662640e+01 4.629355e+01 3.051398e+01 4.503507e+01 2.539344e+01 2.585540e+01 3.538668e+01 1.646931e+01 1.755026e+01 2.526295e+01 3.672165e-01 6.385084e-01 1.787225e+00 9.668486e-01 1.543956e+00 1.951421e+00 1.879726e+00 1.980573e+00 1.907526e+00 1.643803e+00 1.526711e+00 1.347219e+00 2.225575e-01 4.676251e-02 8.023096e-02 1.916582e-01 1.844886e-01 2.479443e-01 2.932386e-01 3.342400e-01 3.496407e-01 3.493854e-01 3.009636e-01 2.896403e-01 2.412575e-01 2.684411e-02
<GCONST> 9.428766e+01
<STATE> 10
<MEAN> 39
 -5.262672e+00 -5.720854e-01 8.623325e+00 -1.148596e+00 -6.251047e+00 -4.613483e+00 -1.561685e-01 -5.653383e+00 2.144928e+00 -2.872358e-01 3.203976e+00 -1.982588e+00 6.236637e+01 -2.251576e-01 6.048995e-02 -5.549357e-01 -1.714841e-01 3.225729e-01 1.035295e-03 1.689553e-01 1.075480e-01 1.261198e-01 2.643408e-01 6.483106e-02 5.537789e-02 -2.990767e-01 6.515478e-03 -5.315703e-03 2.376654e-03 2.889679e-03 -8.282373e-03 -9.835691e-03 -1.037573e-02 6.840184e-03 7.908910e-03 -6.112692e-03 -4.845773e-03 1.016164e-02 9.449950e-03
<VARIANCE> 39
 1.260898e+01 1.278722e+01 9.204256e+01 1.534132e+01 3.916728e+01 2.466578e+01 3.834271e+01 2.275290e+01 2.224287e+01 3.067168e+01 1.550020e+01 1.633903e+01 2.147929e+01 2.505548e-01 5.542969e-01 1.403922e+00 8.697201e-01 1.256227e+00 1.679242e+00 1.636078e+00 1.841686e+00 1.661101e+00 1.512167e+00 1.438573e+00 1.242608e+00 1.589918e-01 3.445855e-02 6.888961e-02 1.594095e-01 1.698450e-01 2.116460e-01 2.624248e-01 2.792788e-01 3.287455e-01 2.979224e-01 2.769176e-01 2.722434e-01 2.203125e-01 1.664663e-02
<GCONST> 8.818690e+01
<STATE> 11
<MEAN> 39
 -5.969837e+00 -4.782808e-01 6.719563e+00 -1.704283e+00 -5.202694e+00 -4.748771e+00 2.754436e-01 -5.197838e+00 2.605220e+00 4.789954e-01 3.469128e+00 -1.681250e+00 6.143908e+01 -1.907744e-01 4.839035e-02 -5.125055e-01 -1.572830e-01 2.858618e-01 -2.551575e-02 1.252126e-01 1.225781e-01 1.389521e-01 2.297939e-01 5.314564e-02 8.282217e-02 -2.565701e-01 9.988360e-03 -4.752503e-03 1.300328e-02 6.852705e-03 -7.302861e-03 -3.764417e-03 -1.234961e-02 8.104055e-04 3.342544e-03 -1.229477e-02 -6.737054e-03 6.933155e-03 1.220168e-02
<VARIANCE> 39
 9.743942e+00 9.182541e+00 8.246811e+01 1.449489e+01 3.273936e+01 2.015732e+01 3.165880e+01 2.076006e+01 1.904187e+01 2.570273e+01 1.451519e+01 1.505886e+01 1.704486e+01 1.794643e-01 4.752924e-01 1.115374e+00 7.926655e-01 1.056716e+00 1.498775e+00 1.471544e+00 1.771771e+00 1.428102e+00 1.437024e+00 1.357701e+00 1.152643e+00 1.219539e-01 2.622193e-02 6.172190e-02 1.350760e-01 1.575350e-01 1.863098e-01 2.458111e-01 2.394917e-01 3.209926e-01 2.528356e-01 2.621225e-01 2.546365e-01 2.028105e-01 1.078799e-02
<GCONST> 8.241772e+01
<TRANSP> 12
 0.000000e+00 1.000000e+00 0.000000e+00 0.000000e+00 0.000000e+00 0.000000e+00 0.000000e+00 0.000000e+00 0.000000e+00 0.000000e+00 0.000000e+00 0.000000e+00
 0.000000e+00 7.102835e-01 2.897165e-01 0.000000e+00 0.000000e+00 0.000000e+00 0.000000e+00 0.000000e+00 0.000000e+00 0.000000e+00 0.000000e+00 0.000000e+00
 0.000000e+00 0.000000e+00 7.102835e-01 2.897165e-01 0.000000e+00 0.000000e+00 0.000000e+00 0.000000e+00 0.000000e+00 0.000000e+00 0.000000e+00 0.000000e+00
 0.000000e+00 0.000000e+00 0.000000e+00 7.102832e-01 2.897168e-01 0.000000e+00 0.000000e+00 0.000000e+00 0.000000e+00 0.000000e+00 0.000000e+00 0.000000e+00
 0.000000e+00 0.000000e+00 0.000000e+00 0.000000e+00 7.102833e-01 2.897167e-01 0.000000e+00 0.000000e+00 0.000000e+00 0.000000e+00 0.000000e+00 0.000000e+00
 0.000000e+00 0.000000e+00 0.000000e+00 0.000000e+00 0.000000e+00 7.102835e-01 2.897166e-01 0.000000e+00 0.000000e+00 0.000000e+00 0.000000e+00 0.000000e+00
 0.000000e+00 0.000000e+00 0.000000e+00 0.000000e+00 0.000000e+00 0.000000e+00 7.102832e-01 2.897168e-01 0.000000e+00 0.000000e+00 0.000000e+00 0.000000e+00
 0.000000e+00 0.000000e+00 0.000000e+00 0.000000e+00 0.000000e+00 0.000000e+00 0.000000e+00 7.102832e-01 2.897168e-01 0.000000e+00 0.000000e+00 0.000000e+00
 0.000000e+00 0.000000e+00 0.000000e+00 0.000000e+00 0.000000e+00 0.000000e+00 0.000000e+00 0.000000e+00 7.102834e-01 2.897166e-01 0.000000e+00 0.000000e+00
 0.000000e+00 0.000000e+00 0.000000e+00 0.000000e+00 0.000000e+00 0.000000e+00 0.000000e+00 0.000000e+00 0.000000e+00 7.102835e-01 2.897165e-01 0.000000e+00
 0.000000e+00 0.000000e+00 0.000000e+00 0.000000e+00 0.000000e+00 0.000000e+00 0.000000e+00 0.000000e+00 0.000000e+00 0.000000e+00 7.102842e-01 2.897159e-01
 0.000000e+00 0.000000e+00 0.000000e+00 0.000000e+00 0.000000e+00 0.000000e+00 0.000000e+00 0.000000e+00 0.000000e+00 0.000000e+00 0.000000e+00 0.000000e+00
<ENDHMM>
~h "ONE"
<BEGINHMM>
<NUMSTATES> 12
<STATE> 2
<MEAN> 39
 2.376280e+00 -4.115750e+00 6.707577e+00 -8.085020e+00 -9.398364e+00 2.992030e+00 -3.707461e+00 -7.146545e+00 2.856159e+00 -1.918760e+00 2.290096e-01 -7.048406e+00 7.128098e+01 -4.477725e-02 2.466613e-01 1.399756e-01 3.915471e-01 2.424753e-01 -9.086378e-02 5.618840e-02 -2.593179e-01 -1.041804e-01 1.934427e-01 -1.298708e-01 -9.739731e-03 -2.063022e-01 -4.805937e-02 2.153448e-02 -2.147857e-02 3.821246e-02 5.150284e-02 -1.678267e-02 4.308672e-02 3.713791e-02 -2.277402e-03 -4.249171e-03 2.074248e-02 3.273361e-02 -6.307007e-02
<VARIANCE> 39
 1.855870e+01 5.323871e+01 1.940212e+01 5.800093e+01 5.884762e+01 3.309349e+01 4.611799e+01 5.279830e+01 1.487588e+01 2.721189e+01 2.841107e+01 2.735273e+01 5.471712e+01 1.012760e+00 2.621407e+00 1.044336e+00 2.520922e+00 3.645382e+00 2.385240e+00 3.225157e+00 4.910659e+00 1.541725e+00 2.174130e+00 1.552822e+00 1.822323e+00 1.578557e+00 1.218082e-01 2.720028e-01 1.555481e-01 3.230754e-01 5.234988e-01 3.271670e-01 5.187766e-01 8.692110e-01 3.032815e-01 3.938174e-01 2.589958e-01 2.635379e-01 9.450151e-02
<GCONST> 1.110802e+02
<STATE> 3
<MEAN> 39
 1.761896e+00 -3.023108e+00 6.810889e+00 -6.560255e+00 -8.031653e+00 2.413045e+00 -3.129078e+00 -7.520905e+00 2.585565e+00 -1.372917e+00 -1.697087e-02 -6.805476e+00 7.004478e+01 -1.840967e-01 2.883240e-01 6.677841e-02 4.552685e-01 3.724983e-01 -1.474494e-01 1.620971e-01 -9.913241e-02 -8.128112e-02 1.558924e-01 -5.878091e-02 8.289426e-02 -3.587156e-01 -4.315209e-02 1.247725e-02 -2.355053e-02 1.808538e-02 4.407985e-02 -1.919077e-02 3.313654e-02 5.494130e-02 8.656797e-03 -1.238023e-02 1.592485e-02 2.274965e-02 -4.726770e-02
<VARIANCE> 39
 1.879379e+01 5.287281e+01 1.905310e+01 5.022904e+01 5.844744e+01 3.141253e+01 4.459889e+01 5.272713e+01 1.477304e+01 2.424906e+01 2.823395e+01 2.417250e+01 5.388395e+01 6.729217e-01 2.125514e+00 1.008815e+00 1.890180e+00 2.983334e+00 1.944743e+00 2.873851e+00 4.705728e+00 1.481506e+00 1.946598e+00 1.458541e+00 1.651889e+00 1.144580e+00 7.961702e-02 2.140756e-01 1.515211e-01 2.629912e-01 4.418223e-01 2.645805e-01 4.522645e-01 8.247354e-01 2.856831e-01 3.733720e-01 2.463569e-01 2.409837e-01 7.135616e-02
<GCONST> 1.064245e+02
<STATE> 4
<MEAN> 39
 7.866702e-01 -1.944829e+00 6.697954e+00 -5.057512e+00 -6.436235e+00 1.724705e+00 -2.325665e+00 -7.346638e+00 2.476471e+00 -9.750140e-01 -9.408236e-03 -6.293818e+00 6.851451e+01 -2.879162e-01 2.874362e-01 -4.616273e-04 4.450359e-01 4.498213e-01 -1.859152e-01 2.292885e-01 5.823983e-02 -3.207590e-02 1.209609e-01 -7.374230e-03 1.401035e-01 -4.449435e-01 -3.277886e-02 7.990411e-03 -2.550765e-02 -4.501310e-03 3.104738e-02 -1.778214e-02 2.515179e-02 4.649531e-02 1.675951e-02 -5.935331e-03 6.934072e-03 1.362925e-02 -3.059167e-02
<VARIANCE> 39
 2.110738e+01 5.030633e+01 1.964939e+01 4.010138e+01 5.813471e+01 2.918060e+01 4.369708e+01 5.217661e+01 1.499372e+01 2.122692e+01 2.766681e+01 2.250276e+01 5.345705e+01 4.096152e-01 1.634780e+00 9.408774e-01 1.407667e+00 2.441457e+00 1.640790e+00 2.472841e+00 4.333229e+00 1.407862e+00 1.719104e+00 1.377701e+00 1.496036e+00 7.666982e-01 5.004606e-02 1.616918e-01 1.429727e-01 2.107251e-01 3.791007e-01 2.314662e-01 3.835311e-01 7.655731e-01 2.690801e-01 3.404054e-01 2.361940e-01 2.262346e-01 5.253819e-02
<GCONST> 1.013953e+02
<STATE> 5
<MEAN> 39
 -3.983560e-01 -1.034067e+00 6.418521e+00 -3.784269e+00 -4.829992e+00 1.019991e+00 -1.443937e+00 -6.776312e+00 2.563657e+00 -6.528332e-01 1.808164e-01 -5.632700e+00 6.691605e+01 -3.497525e-01 2.634873e-01 -6.171180e-02 3.766477e-01 4.681230e-01 -2.064285e-01 2.637597e-01 1.530982e-01 2.606943e-02 1.157731e-01 2.138540e-02 1.754100e-01 -4.767446e-01 -2.023143e-02 3.750814e-03 -2.549516e-02 -2.211832e-02 1.372908e-02 -1.205222e-02 1.560391e-02 2.347779e-02 1.907123e-02 3.521669e-03 2.293562e-03 1.115139e-02 -1.557442e-02
<VARIANCE> 39
 2.352736e+01 4.513549e+01 2.058176e+01 2.966532e+01 5.593019e+01 2.610205e+01 4.223589e+01 5.088992e+01 1.582681e+01 1.859089e+01 2.651736e+01 2.202006e+01 5.134526e+01 2.462341e-01 1.218256e+00 8.588583e-01 1.104873e+00 2.071378e+00 1.475191e+00 2.109629e+00 3.922868e+00 1.365555e+00 1.520000e+00 1.333644e+00 1.375613e+00 4.936026e-01 3.170766e-02 1.186425e-01 1.314039e-01 1.709942e-01 3.351633e-01 2.223083e-01 3.292731e-01 6.983527e-01 2.641026e-01 3.016876e-01 2.279339e-01 2.190452e-01 3.826192e-02
<GCONST> 9.638067e+01
<STATE> 6
<MEAN> 39
 -1.656060e+00 -3.457992e-01 6.014894e+00 -2.848045e+00 -3.395944e+00 3.510542e-01 -5.996985e-01 -6.065796e+00 2.816957e+00 -3.141433e-01 4.867580e-01 -4.885480e+00 6.539471e+01 -3.735303e-01 2.279179e-01 -1.137729e-01 2.786727e-01 4.351186e-01 -2.095538e-01 2.644106e-01 1.733105e-01 7.466769e-02 1.309144e-01 4.155163e-02 2.048708e-01 -4.704973e-01 -9.084617e-03 -2.381954e-03 -2.205474e-02 -3.012149e-02 -1.730676e-03 -2.910904e-03 3.764847e-03 3.106461e-03 1.584521e-02 5.752752e-03 5.288139e-03 1.146631e-02 -3.534734e-03
<VARIANCE> 39
 2.485189e+01 3.768709e+01 2.127063e+01 2.095762e+01 5.115215e+01 2.243269e+01 3.927701e+01 4.840505e+01 1.705267e+01 1.662079e+01 2.481892e+01 2.214457e+01 4.699503e+01 1.687201e-01 9.173031e-01 7.825203e-01 9.419526e-01 1.852763e+00 1.395430e+00 1.811441e+00 3.528039e+00 1.377478e+00 1.364375e+00 1.314060e+00 1.275314e+00 3.276059e-01 2.221096e-02 8.634332e-02 1.198537e-01 1.467541e-01 3.037638e-01 2.240870e-01 2.906347e-01 6.249893e-01 2.738639e-01 2.670353e-01 2.211079e-01 2.145693e-01 2.787981e-02
<GCONST> 9.175269e+01
<STATE> 7
<MEAN> 39
 -2.883386e+00 1.314347e-01 5.526893e+00 -2.258740e+00 -2.238993e+00 -2.581501e-01 1.163665e-01 -5.427691e+00 3.165132e+00 6.941295e-02 8.730443e-01 -4.083145e+00 6.402258e+01 -3.687656e-01 1.872544e-01 -1.525073e-01 1.811674e-01 3.747877e-01 -1.957102e-01 2.363204e-01 1.480316e-01 1.038804e-01 1.415751e-01 6.622963e-02 2.277242e-01 -4.413522e-01 -4.463649e-04 -9.239571e-03 -1.629050e-02 -2.843268e-02 -1.011574e-02 6.760478e-03 -5.395162e-03 -3.880398e-03 1.043959e-02 6.307138e-05 1.177893e-02 8.447993e-03 5.506753e-03
<VARIANCE> 39
 2.473377e+01 2.902944e+01 2.141651e+01 1.494130e+01 4.447521e+01 1.880960e+01 3.476762e+01 4.505611e+01 1.819198e+01 1.533482e+01 2.294205e+01 2.218679e+01 4.085910e+01 1.431725e-01 7.261170e-01 7.217733e-01 8.544416e-01 1.713570e+00 1.331544e+00 1.568558e+00 3.131487e+00 1.438367e+00 1.258225e+00 1.285690e+00 1.179427e+00 2.430618e-01 1.851134e-02 6.441133e-02 1.111549e-01 1.356716e-01 2.775900e-01 2.248333e-01 2.615865e-01 5.467356e-01 2.937376e-01 2.442891e-01 2.150567e-01 2.087318e-01 2.077446e-02
<GCONST> 8.768914e+01
<STATE> 8
<MEAN> 39
 -4.013149e+00 4.421570e-01 4.991083e+00 -1.949929e+00 -1.363898e+00 -7.974060e-01 6.640241e-01 -4.944591e+00 3.535100e+00 4.607353e-01 1.321583e+00 -3.270249e+00 6.282259e+01 -3.441343e-01 1.453216e-01 -1.775105e-01 1.069177e-01 3.154292e-01 -1.690793e-01 1.973779e-01 1.215533e-01 1.152699e-01 1.327666e-01 9.615535e-02 2.328511e-01 -3.991503e-01 6.330230e-03 -1.532820e-02 -1.061486e-02 -2.056034e-02 -1.126204e-02 1.261942e-02 -8.452884e-03 2.650147e-03 5.832857e-03 -7.823992e-03 1.593658e-02 1.788768e-03 1.270272e-02
<VARIANCE> 39
 2.334805e+01 2.065385e+01 2.101056e+01 1.145555e+01 3.717866e+01 1.588610e+01 2.943374e+01 4.154678e+01 1.884217e+01 1.463067e+01 2.131969e+01 2.157381e+01 3.377538e+01 1.397713e-01 6.031989e-01 6.743468e-01 7.964920e-01 1.589215e+00 1.240557e+00 1.371984e+00 2.721287e+00 1.518500e+00 1.205303e+00 1.229028e+00 1.090025e+00 2.057688e-01 1.771395e-02 5.143049e-02 1.061676e-01 1.318755e-01 2.522568e-01 2.189776e-01 2.376812e-01 4.667082e-01 3.151356e-01 2.363552e-01 2.103960e-01 2.009599e-01 1.634895e-02
<GCONST> 8.407785e+01
<STATE> 9
<MEAN> 39
 -5.004872e+00 6.331828e-01 4.434413e+00 -1.812541e+00 -6.965213e-01 -1.265384e+00 1.067885e+00 -4.569117e+00 3.878250e+00 8.042113e-01 1.810506e+00 -2.512189e+00 6.179667e+01 -3.058063e-01 1.024742e-01 -1.914933e-01 6.451692e-02 2.738118e-01 -1.384488e-01 1.651364e-01 1.242057e-01 1.146997e-01 1.057927e-01 1.239917e-01 2.166267e-01 -3.475134e-01 1.133684e-02 -1.976365e-02 -5.711137e-03 -1.222052e-02 -1.001112e-02 1.246392e-02 -8.223590e-03 1.339467e-02 2.008800e-03 -1.333413e-02 1.549287e-02 -3.537219e-03 1.875520e-02
<VARIANCE> 39
 2.107928e+01 1.383556e+01 2.017664e+01 9.815950e+00 3.041110e+01 1.398803e+01 2.422597e+01 3.823505e+01 1.880945e+01 1.448358e+01 2.016871e+01 2.016231e+01 2.659634e+01 1.415198e-01 5.061471e-01 6.316928e-01 7.494533e-01 1.456524e+00 1.127131e+00 1.223848e+00 2.315510e+00 1.581378e+00 1.206162e+00 1.160585e+00 1.019646e+00 1.860727e-01 1.788156e-02 4.509605e-02 1.033305e-01 1.299714e-01 2.275478e-01 2.078793e-01 2.186334e-01 3.927971e-01 3.305287e-01 2.419171e-01 2.098319e-01 1.934033e-01 1.374231e-02
<GCONST> 8.075028e+01
<STATE> 10
<MEAN> 39
 -5.837685e+00 7.325082e-01 3.876062e+00 -1.743024e+00 -1.424665e-01 -1.664897e+00 1.386763e+00 -4.199962e+00 4.169782e+00 1.062797e+00 2.312511e+00 -1.862904e+00 6.094580e+01 -2.602085e-01 5.844561e-02 -1.950354e-01 4.536308e-02 2.462620e-01 -1.115546e-01 1.424616e-01 1.537898e-01 1.052312e-01 6.902161e-02 1.438001e-01 1.896267e-01 -2.881826e-01 1.351156e-02 -2.115973e-02 -3.907431e-04 -8.349074e-03 -1.208021e-02 8.432300e-03 -9.520249e-03 1.678669e-02 -2.369509e-03 -1.529372e-02 1.206670e-02 -3.890047e-03 2.258200e-02
<VARIANCE> 39
 1.835227e+01 9.152505e+00 1.902971e+01 9.369846e+00 2.482296e+01 1.302192e+01 1.989828e+01 3.497548e+01 1.812646e+01 1.490714e+01 1.944035e+01 1.826776e+01 2.005566e+01 1.415165e-01 4.160460e-01 5.876865e-01 7.080411e-01 1.318401e+00 1.027235e+00 1.124848e+00 1.946466e+00 1.608731e+00 1.258079e+00 1.122239e+00 9.777805e-01 1.652688e-01 1.822333e-02 4.255561e-02 1.000519e-01 1.275485e-01 2.059483e-01 1.970887e-01 2.063000e-01 3.343731e-01 3.376461e-01 2.576210e-01 2.172163e-01 1.887668e-01 1.204785e-02
<GCONST> 7.769747e+01
<STATE> 11
<MEAN> 39
 -6.510599e+00 7.514615e-01 3.338194e+00 -1.689590e+00 3.493905e-01 -1.995836e+00 1.662873e+00 -3.777771e+00 4.396985e+00 1.224629e+00 2.806916e+00 -1.334701e+00 6.027172e+01 -2.157187e-01 1.683185e-02 -1.856059e-01 3.164065e-02 2.158116e-01 -9.016915e-02 1.206659e-01 1.832472e-01 8.772185e-02 3.257924e-02 1.563054e-01 1.668953e-01 -2.263376e-01 1.204446e-02 -1.850625e-02 5.304196e-03 -9.019052e-03 -1.811603e-02 4.692474e-03 -1.279056e-02 9.278221e-03 -6.850956e-03 -1.219186e-02 8.708328e-03 -1.012234e-03 2.225755e-02
<VARIANCE> 39
 1.552831e+01 6.441059e+00 1.765868e+01 9.668039e+00 2.052066e+01 1.267035e+01 1.679393e+01 3.138732e+01 1.703519e+01 1.578577e+01 1.895881e+01 1.630002e+01 1.467541e+01 1.396688e-01 3.360796e-01 5.436280e-01 6.753201e-01 1.185910e+00 9.778929e-01 1.069355e+00 1.646873e+00 1.611107e+00 1.352500e+00 1.147148e+00 9.662672e-01 1.385365e-01 1.864420e-02 4.151383e-02 9.500605e-02 1.249174e-01 1.894289e-01 1.929190e-01 2.015715e-01 2.944962e-01 3.403897e-01 2.799702e-01 2.354880e-01 1.884783e-01 1.077469e-02
<GCONST> 7.509573e+01
<TRANSP> 12
 0.000000e+00 1.000000e+00 0.000000e+00 0.000000e+00 0.000000e+00 0.000000e+00 0.000000e+00 0.000000e+00 0.000000e+00 0.000000e+00 0.000000e+00 0.000000e+00
 0.000000e+00 6.818645e-01 3.181355e-01 0.000000e+00 0.000000e+00 0.000000e+00 0.000000e+00 0.000000e+00 0.000000e+00 0.000000e+00 0.000000e+00 0.000000e+00
 0.000000e+00 0.000000e+00 6.818646e-01 3.181354e-01 0.000000e+00 0.000000e+00 0.000000e+00 0.000000e+00 0.000000e+00 0.000000e+00 0.000000e+00 0.000000e+00
 0.000000e+00 0.000000e+00 0.000000e+00 6.818647e-01 3.181353e-01 0.000000e+00 0.000000e+00 0.000000e+00 0.000000e+00 0.000000e+00 0.000000e+00 0.000000e+00
 0.000000e+00 0.000000e+00 0.000000e+00 0.000000e+00 6.818648e-01 3.181352e-01 0.000000e+00 0.000000e+00 0.000000e+00 0.000000e+00 0.000000e+00 0.000000e+00
 0.000000e+00 0.000000e+00 0.000000e+00 0.000000e+00 0.000000e+00 6.818647e-01 3.181353e-01 0.000000e+00 0.000000e+00 0.000000e+00 0.000000e+00 0.000000e+00
 0.000000e+00 0.000000e+00 0.000000e+00 0.000000e+00 0.000000e+00 0.000000e+00 6.818646e-01 3.181354e-01 0.000000e+00 0.000000e+00 0.000000e+00 0.000000e+00
 0.000000e+00 0.000000e+00 0.000000e+00 0.000000e+00 0.000000e+00 0.000000e+00 0.000000e+00 6.818646e-01 3.181354e-01 0.000000e+00 0.000000e+00 0.000000e+00
 0.000000e+00 0.000000e+00 0.000000e+00 0.000000e+00 0.000000e+00 0.000000e+00 0.000000e+00 0.000000e+00 6.818646e-01 3.181354e-01 0.000000e+00 0.000000e+00
 0.000000e+00 0.000000e+00 0.000000e+00 0.000000e+00 0.000000e+00 0.000000e+00 0.000000e+00 0.000000e+00 0.000000e+00 6.818645e-01 3.181354e-01 0.000000e+00
 0.000000e+00 0.000000e+00 0.000000e+00 0.000000e+00 0.000000e+00 0.000000e+00 0.000000e+00 0.000000e+00 0.000000e+00 0.000000e+00 6.818652e-01 3.181348e-01
 0.000000e+00 0.000000e+00 0.000000e+00 0.000000e+00 0.000000e+00 0.000000e+00 0.000000e+00 0.000000e+00 0.000000e+00 0.000000e+00 0.000000e+00 0.000000e+00
<ENDHMM>
~h "SIL"
<BEGINHMM>
<NUMSTATES> 12
<STATE> 2
<MEAN> 39
 -6.973012e+00 -2.006177e+00 2.220987e+00 -2.982931e+00 -9.928308e-01 -4.107075e+00 5.093372e-01 -1.895274e+00 4.319520e+00 5.115221e-01 2.597759e+00 -2.915116e-01 6.153202e+01 -9.654611e-02 -3.635049e-02 -9.444273e-02 -5.790308e-02 5.267132e-02 2.604908e-02 -1.409104e-02 5.456755e-02 2.166331e-02 5.721624e-02 -2.086638e-03 -3.851012e-04 -3.194098e-02 -2.763041e-03 -1.300510e-03 4.323169e-03 3.263528e-03 -4.011708e-03 -1.182356e-03 -5.466031e-03 6.149854e-04 -1.239606e-02 -8.440831e-03 1.502558e-03 1.081988e-02 1.847127e-02
<VARIANCE> 39
 1.932684e+01 1.784605e+01 2.664336e+01 1.717126e+01 2.176534e+01 1.604273e+01 2.236562e+01 2.114448e+01 1.885072e+01 1.731069e+01 1.800048e+01 1.557897e+01 1.490224e+01 4.356754e-01 6.459749e-01 8.778266e-01 9.248262e-01 1.145709e+00 1.185900e+00 1.342138e+00 1.580461e+00 1.591257e+00 1.510598e+00 1.459894e+00 1.233313e+00 3.208148e-01 4.670063e-02 1.008025e-01 1.313598e-01 1.413827e-01 1.767616e-01 2.061480e-01 2.207206e-01 2.628835e-01 2.779972e-01 2.588444e-01 2.388964e-01 2.115956e-01 3.426358e-02
<GCONST> 8.520300e+01
<STATE> 3
<MEAN> 39
 -7.292961e+00 -2.144194e+00 1.938605e+00 -3.150171e+00 -8.866091e-01 -4.045973e+00 4.394121e-01 -1.706553e+00 4.316763e+00 6.277001e-01 2.610062e+00 -2.326339e-01 6.154374e+01 -9.339917e-02 -3.906851e-02 -7.082362e-02 -4.620145e-02 2.355355e-02 9.343684e-03 -2.412955e-02 5.441745e-02 -1.367752e-02 2.587026e-02 6.611254e-03 2.366920e-02 2.117156e-02 2.476899e-03 -1.856959e-03 7.024385e-03 2.583782e-03 -1.120602e-02 -3.897762e-03 -2.981149e-03 -2.893941e-03 -8.743769e-03 -7.584253e-03 3.327523e-03 3.991176e-03 1.506323e-02
<VARIANCE> 39
 1.937144e+01 1.906520e+01 2.326059e+01 1.746650e+01 2.111615e+01 1.615473e+01 2.226388e+01 2.031435e+01 1.797847e+01 1.673783e+01 1.781340e+01 1.476426e+01 1.481635e+01 5.260429e-01 6.990343e-01 8.804317e-01 9.265073e-01 1.168422e+00 1.201631e+00 1.351706e+00 1.500253e+00 1.538192e+00 1.466797e+00 1.360676e+00 1.170580e+00 3.768473e-01 6.172728e-02 1.210794e-01 1.468136e-01 1.580607e-01 2.055110e-01 2.338088e-01 2.535228e-01 2.844935e-01 3.000097e-01 2.845382e-01 2.634321e-01 2.376199e-01 3.868113e-02
<GCONST> 8.685387e+01
<STATE> 4
<MEAN> 39
 -7.530909e+00 -2.284582e+00 1.763693e+00 -3.297752e+00 -9.006445e-01 -4.026412e+00 3.447814e-01 -1.583368e+00 4.239051e+00 6.444201e-01 2.628999e+00 -1.775450e-01 6.169073e+01 -6.435402e-02 -4.550227e-02 -3.747230e-02 -5.171916e-02 -2.069382e-02 6.723806e-03 -3.695566e-02 2.792364e-02 -2.556533e-02 6.998329e-03 8.379302e-03 1.269009e-02 6.218665e-02 1.012400e-02 -3.086379e-03 1.009536e-02 -3.500155e-03 -1.470714e-02 2.687702e-03 -4.417070e-03 -1.072918e-02 -1.244165e-03 -4.909641e-03 1.405097e-04 -5.680878e-03 1.220538e-02
<VARIANCE> 39
 2.077769e+01 2.015106e+01 2.194372e+01 1.806324e+01 2.201782e+01 1.690155e+01 2.292201e+01 1.970469e+01 1.703544e+01 1.638090e+01 1.757741e+01 1.437234e+01 1.687066e+01 6.224297e-01 7.447676e-01 9.037250e-01 9.330969e-01 1.219236e+00 1.237135e+00 1.381313e+00 1.440857e+00 1.461180e+00 1.456006e+00 1.319493e+00 1.162462e+00 4.181405e-01 7.599778e-02 1.256747e-01 1.521148e-01 1.622604e-01 2.161776e-01 2.412100e-01 2.627326e-01 2.787279e-01 2.922190e-01 2.876315e-01 2.626318e-01 2.355487e-01 4.304272e-02
<GCONST> 8.786323e+01
<STATE> 5
<MEAN> 39
 -7.606514e+00 -2.439397e+00 1.765359e+00 -3.502641e+00 -1.085682e+00 -3.993815e+00 1.664972e-01 -1.562116e+00 4.160231e+00 6.152123e-01 2.627748e+00 -2.030568e-01 6.198640e+01 -1.032637e-02 -5.193182e-02 1.660236e-02 -6.989487e-02 -7.631488e-02 1.669711e-02 -6.036223e-02 -6.499614e-03 -2.338376e-02 -1.086020e-02 2.068371e-03 -1.317665e-02 1.053022e-01 1.881165e-02 -2.295743e-03 1.664963e-02 -5.482689e-03 -1.813495e-02 3.735352e-03 -7.582846e-03 -1.119768e-02 1.520323e-03 -7.493625e-03 -2.532391e-03 -8.854964e-03 1.257216e-02
<VARIANCE> 39
 2.343646e+01 2.129723e+01 2.342963e+01 1.969181e+01 2.511003e+01 1.855638e+01 2.420435e+01 1.954448e+01 1.666939e+01 1.674301e+01 1.746775e+01 1.425947e+01 2.104680e+01 7.766594e-01 8.203455e-01 1.004993e+00 1.009423e+00 1.332309e+00 1.312217e+00 1.448065e+00 1.455227e+00 1.439905e+00 1.495700e+00 1.341623e+00 1.176166e+00 4.790622e-01 9.613654e-02 1.317189e-01 1.635464e-01 1.726099e-01 2.357312e-01 2.519700e-01 2.744653e-01 2.813946e-01 2.881311e-01 2.933962e-01 2.655588e-01 2.346343e-01 5.381438e-02
<GCONST> 9.038931e+01
<STATE> 6
<MEAN> 39
 -7.453932e+00 -2.599648e+00 2.016001e+00 -3.766345e+00 -1.486126e+00 -3.946060e+00 -1.179308e-01 -1.624510e+00 4.084651e+00 5.198756e-01 2.603534e+00 -3.119354e-01 6.244925e+01 6.442048e-02 -5.476259e-02 8.871058e-02 -8.536237e-02 -1.422929e-01 2.062573e-02 -9.301005e-02 -3.239333e-02 -2.018449e-02 -3.651512e-02 -7.693453e-03 -4.114696e-02 1.513992e-01 2.472086e-02 -9.202753e-04 2.145346e-02 -3.527942e-03 -1.950126e-02 8.553547e-04 -1.021662e-02 -7.693931e-03 1.679853e-03 -9.173409e-03 -3.659754e-03 -9.115288e-03 1.268079e-02
<VARIANCE> 39
 2.747489e+01 2.270940e+01 2.841758e+01 2.279917e+01 3.109374e+01 2.139343e+01 2.649466e+01 1.997285e+01 1.707006e+01 1.787584e+01 1.768934e+01 1.482664e+01 2.719976e+01 9.751702e-01 9.223025e-01 1.155975e+00 1.159030e+00 1.507315e+00 1.425297e+00 1.564518e+00 1.519665e+00 1.456609e+00 1.543715e+00 1.387140e+00 1.207501e+00 5.737877e-01 1.209667e-01 1.456244e-01 1.793262e-01 1.926275e-01 2.668493e-01 2.670086e-01 2.934064e-01 2.940018e-01 2.892239e-01 2.998100e-01 2.719296e-01 2.371492e-01 6.997342e-02
<GCONST> 9.419716e+01
<STATE> 7
<MEAN> 39
 -7.051652e+00 -2.764473e+00 2.524065e+00 -4.061503e+00 -2.106634e+00 -3.901751e+00 -5.246785e-01 -1.748351e+00 4.012283e+00 3.532102e-01 2.552433e+00 -5.123574e-01 6.306876e+01 1.410407e-01 -5.649472e-02 1.603582e-01 -9.098379e-02 -2.021487e-01 1.907156e-02 -1.301648e-01 -5.097171e-02 -1.695076e-02 -6.012346e-02 -1.799795e-02 -6.954365e-02 1.916489e-01 2.404179e-02 -2.885575e-05 1.989890e-02 3.073834e-04 -1.502733e-02 -1.972621e-03 -1.101060e-02 -5.208944e-03 1.386157e-03 -5.845634e-03 -3.313053e-03 -7.971736e-03 9.833996e-03
<VARIANCE> 39
 3.243818e+01 2.439463e+01 3.671869e+01 2.716073e+01 3.942381e+01 2.535703e+01 2.994940e+01 2.103923e+01 1.817081e+01 1.942966e+01 1.816772e+01 1.608420e+01 3.475977e+01 1.164100e+00 1.046577e+00 1.301647e+00 1.346573e+00 1.713610e+00 1.550893e+00 1.723208e+00 1.618592e+00 1.488361e+00 1.583261e+00 1.437905e+00 1.256389e+00 6.835024e-01 1.450991e-01 1.642879e-01 1.951215e-01 2.179224e-01 3.008913e-01 2.824193e-01 3.172428e-01 3.123416e-01 2.924066e-01 3.046983e-01 2.794225e-01 2.428065e-01 8.689141e-02
<GCONST> 9.830879e+01
<STATE> 8
<MEAN> 39
 -6.445800e+00 -2.941807e+00 3.225968e+00 -4.348035e+00 -2.884539e+00 -3.865472e+00 -1.047424e+00 -1.929327e+00 3.949900e+00 1.365337e-01 2.474062e+00 -7.988360e-01 6.379206e+01 2.003055e-01 -5.714358e-02 2.085439e-01 -8.211733e-02 -2.356870e-01 1.056510e-02 -1.615063e-01 -6.681024e-02 -1.404420e-02 -6.868589e-02 -2.494458e-02 -8.948644e-02 2.127742e-01 1.750625e-02 1.351752e-03 1.069868e-02 5.371671e-03 -5.540902e-03 -5.991092e-03 -5.940765e-03 -3.951314e-03 -1.404371e-03 3.445267e-04 -8.884890e-04 -2.862432e-03 2.543498e-03
<VARIANCE> 39
 3.726735e+01 2.608633e+01 4.695849e+01 3.189099e+01 4.843400e+01 2.981586e+01 3.421842e+01 2.278028e+01 1.975193e+01 2.097149e+01 1.874347e+01 1.769615e+01 4.257921e+01 1.294475e+00 1.173924e+00 1.414062e+00 1.524891e+00 1.903968e+00 1.661173e+00 1.898092e+00 1.736151e+00 1.527775e+00 1.613012e+00 1.489182e+00 1.314836e+00 7.772844e-01 1.626816e-01 1.823900e-01 2.067843e-01 2.415764e-01 3.284632e-01 2.940864e-01 3.429890e-01 3.323932e-01 2.974569e-01 3.072212e-01 2.869406e-01 2.515576e-01 1.001653e-01
<GCONST> 1.018919e+02
<STATE> 9
<MEAN> 39
 -5.717782e+00 -3.123600e+00 3.997067e+00 -4.568823e+00 -3.702621e+00 -3.866936e+00 -1.630989e+00 -2.166265e+00 3.896049e+00 -8.106187e-02 2.387908e+00 -1.116977e+00 6.452168e+01 2.320563e-01 -5.143224e-02 2.142650e-01 -5.569014e-02 -2.311278e-01 -1.229082e-02 -1.625049e-01 -7.902322e-02 -2.439435e-02 -6.177628e-02 -2.094269e-02 -8.419177e-02 2.009415e-01 6.843631e-03 3.971430e-03 -3.046614e-03 9.954038e-03 6.184524e-03 -7.918569e-03 6.124806e-03 -1.678381e-03 -7.732958e-03 3.080464e-03 4.053495e-03 6.263140e-03 -8.142056e-03
<VARIANCE> 39
 4.086919e+01 2.735737e+01 5.724472e+01 3.592653e+01 5.612612e+01 3.378831e+01 3.850618e+01 2.511041e+01 2.162236e+01 2.228132e+01 1.931209e+01 1.927168e+01 4.926682e+01 1.342078e+00 1.271720e+00 1.491755e+00 1.653456e+00 2.043368e+00 1.739530e+00 2.059874e+00 1.845418e+00 1.576214e+00 1.628277e+00 1.526706e+00 1.372870e+00 8.344374e-01 1.705576e-01 1.958098e-01 2.127665e-01 2.585025e-01 3.440042e-01 2.995709e-01 3.678214e-01 3.513131e-01 3.060986e-01 3.078875e-01 2.945517e-01 2.615684e-01 1.069035e-01
<GCONST> 1.045043e+02
<STATE> 10
<MEAN> 39
 -4.960354e+00 -3.272616e+00 4.684921e+00 -4.674963e+00 -4.421369e+00 -3.955805e+00 -2.124837e+00 -2.433121e+00 3.780317e+00 -2.815852e-01 2.329135e+00 -1.360723e+00 6.512920e+01 2.289043e-01 -3.402677e-02 1.757017e-01 -1.758342e-02 -1.838255e-01 -3.380910e-02 -1.185980e-01 -7.956532e-02 -5.453625e-02 -5.363819e-02 3.034502e-04 -4.676429e-02 1.517608e-01 -7.039019e-03 5.665791e-03 -1.454792e-02 1.043824e-02 1.577656e-02 8.373528e-04 1.394929e-02 1.762867e-03 -2.836414e-03 6.771119e-03 8.610069e-03 1.221176e-02 -1.680050e-02
<VARIANCE> 39
 4.264235e+01 2.786755e+01 6.604465e+01 3.841144e+01 6.130671e+01 3.644080e+01 4.217650e+01 2.766423e+01 2.376359e+01 2.337626e+01 1.978659e+01 2.066234e+01 5.395670e+01 1.311542e+00 1.319505e+00 1.537535e+00 1.711287e+00 2.114726e+00 1.786123e+00 2.179891e+00 1.929420e+00 1.661505e+00 1.638587e+00 1.554751e+00 1.429412e+00 8.458345e-01 1.681965e-01 2.003388e-01 2.121846e-01 2.651260e-01 3.444845e-01 2.963347e-01 3.869397e-01 3.625435e-01 3.184910e-01 3.106345e-01 3.000083e-01 2.662777e-01 1.059164e-01
<GCONST> 1.060054e+02
<STATE> 11
<MEAN> 39
 -4.281929e+00 -3.344749e+00 5.149592e+00 -4.649135e+00 -4.897988e+00 -4.072623e+00 -2.409650e+00 -2.695405e+00 3.594741e+00 -4.285738e-01 2.361914e+00 -1.433143e+00 6.550239e+01 1.857542e-01 -1.408247e-02 1.091834e-01 1.362095e-02 -1.147718e-01 -1.394105e-02 -6.244388e-02 -6.862510e-02 -3.410039e-02 -1.470501e-02 2.864883e-02 -5.910514e-03 8.323172e-02 -1.897167e-02 3.473114e-03 -2.131770e-02 5.942083e-03 1.557365e-02 1.110491e-02 1.296775e-02 4.443115e-03 2.623675e-02 2.300639e-02 8.207015e-03 9.026101e-03 -1.926576e-02
<VARIANCE> 39
 4.261068e+01 2.750023e+01 7.268469e+01 3.865429e+01 6.400569e+01 3.726148e+01 4.415289e+01 3.002530e+01 2.592859e+01 2.427498e+01 2.001357e+01 2.205169e+01 5.656928e+01 1.222072e+00 1.316875e+00 1.536875e+00 1.710542e+00 2.099848e+00 1.795151e+00 2.238437e+00 1.985404e+00 1.813343e+00 1.733606e+00 1.625396e+00 1.454625e+00 8.054686e-01 1.550347e-01 1.891709e-01 1.965734e-01 2.483516e-01 3.163673e-01 2.692297e-01 3.708721e-01 3.381567e-01 3.027133e-01 2.877363e-01 2.723044e-01 2.417935e-01 9.772060e-02
<GCONST> 1.056966e+02
<TRANSP> 12
 0.000000e+00 1.000000e+00 0.000000e+00 0.000000e+00 0.000000e+00 0.000000e+00 0.000000e+00 0.000000e+00 0.000000e+00 0.000000e+00 0.000000e+00 0.000000e+00
 0.000000e+00 7.054953e-01 2.945047e-01 0.000000e+00 0.000000e+00 0.000000e+00 0.000000e+00 0.000000e+00 0.000000e+00 0.000000e+00 0.000000e+00 0.000000e+00
 0.000000e+00 0.000000e+00 7.054957e-01 2.945044e-01 0.000000e+00 0.000000e+00 0.000000e+00 0.000000e+00 0.000000e+00 0.000000e+00 0.000000e+00 0.000000e+00
 0.000000e+00 0.000000e+00 0.000000e+00 7.054969e-01 2.945031e-01 0.000000e+00 0.000000e+00 0.000000e+00 0.000000e+00 0.000000e+00 0.000000e+00 0.000000e+00
 0.000000e+00 0.000000e+00 0.000000e+00 0.000000e+00 7.054940e-01 2.945060e-01 0.000000e+00 0.000000e+00 0.000000e+00 0.000000e+00 0.000000e+00 0.000000e+00
 0.000000e+00 0.000000e+00 0.000000e+00 0.000000e+00 0.000000e+00 7.054954e-01 2.945046e-01 0.000000e+00 0.000000e+00 0.000000e+00 0.000000e+00 0.000000e+00
 0.000000e+00 0.000000e+00 0.000000e+00 0.000000e+00 0.000000e+00 0.000000e+00 7.054945e-01 2.945055e-01 0.000000e+00 0.000000e+00 0.000000e+00 0.000000e+00
 0.000000e+00 0.000000e+00 0.000000e+00 0.000000e+00 0.000000e+00 0.000000e+00 0.000000e+00 7.054943e-01 2.945058e-01 0.000000e+00 0.000000e+00 0.000000e+00
 0.000000e+00 0.000000e+00 0.000000e+00 0.000000e+00 0.000000e+00 0.000000e+00 0.000000e+00 0.000000e+00 7.054956e-01 2.945044e-01 0.000000e+00 0.000000e+00
 0.000000e+00 0.000000e+00 0.000000e+00 0.000000e+00 0.000000e+00 0.000000e+00 0.000000e+00 0.000000e+00 0.000000e+00 7.054949e-01 2.945051e-01 0.000000e+00
 0.000000e+00 0.000000e+00 0.000000e+00 0.000000e+00 0.000000e+00 0.000000e+00 0.000000e+00 0.000000e+00 0.000000e+00 0.000000e+00 7.054949e-01 2.945050e-01
 0.000000e+00 0.000000e+00 0.000000e+00 0.000000e+00 0.000000e+00 0.000000e+00 0.000000e+00 0.000000e+00 0.000000e+00 0.000000e+00 0.000000e+00 0.000000e+00
<ENDHMM>
~h "SIX"
<BEGINHMM>
<NUMSTATES> 12
<STATE> 2
<MEAN> 39
 -5.787804e+00 -4.820229e+00 1.145451e+01 -4.279230e+00 -6.371877e+00 -9.764375e+00 -9.038131e+00 -1.903274e-01 4.437005e+00 -7.092555e-01 1.826689e+00 4.325801e-01 6.895118e+01 -8.874470e-02 3.958680e-02 -1.303311e-01 1.026756e-01 4.501945e-02 -1.394998e-02 2.163382e-01 4.376102e-02 -8.003773e-02 4.623815e-02 1.537317e-01 1.232242e-01 -1.845219e-01 -1.342808e-01 2.163851e-02 -5.859151e-02 -4.237712e-02 8.532628e-02 2.821465e-02 4.571739e-02 4.870808e-02 -2.778918e-02 3.059278e-02 3.058382e-05 1.509911e-02 -2.201297e-02
<VARIANCE> 39
 7.427233e+01 2.773876e+01 3.433019e+01 1.883129e+01 3.727519e+01 1.851639e+01 5.218043e+01 3.285894e+01 2.544563e+01 1.859394e+01 1.663462e+01 1.803079e+01 2.877105e+01 4.777972e+00 3.203665e+00 3.044724e+00 1.509043e+00 2.702412e+00 1.970094e+00 4.748853e+00 3.080754e+00 3.118067e+00 1.939718e+00 1.715235e+00 2.081626e+00 2.660512e+00 5.476812e-01 5.746192e-01 4.432032e-01 2.750745e-01 3.824007e-01 3.711403e-01 8.102047e-01 5.678622e-01 6.695629e-01 3.716400e-01 3.488031e-01 4.463754e-01 3.882478e-01
<GCONST> 1.174587e+02
<STATE> 3
<MEAN> 39
 -6.713212e+00 -4.612072e+00 1.080816e+01 -4.188136e+00 -5.813068e+00 -9.682657e+00 -8.228334e+00 2.183726e-01 4.063720e+00 -4.595843e-01 2.284410e+00 8.637269e-01 6.833509e+01 -4.459087e-01 8.694605e-02 -2.642983e-01 -3.139287e-02 2.785303e-01 5.956356e-02 2.901587e-01 1.901434e-01 -1.488224e-01 1.075670e-01 1.397974e-01 1.446186e-01 -2.092962e-01 -1.026981e-01 1.120090e-02 -3.157310e-02 -4.498795e-02 6.815741e-02 2.311065e-02 1.040757e-02 4.664173e-02 -1.966281e-02 1.529705e-02 -6.457001e-03 -1.111515e-04 1.150198e-03
<VARIANCE> 39
 7.353882e+01 2.919203e+01 3.446019e+01 1.928886e+01 3.558700e+01 1.883275e+01 4.596932e+01 3.775311e+01 2.575304e+01 1.875771e+01 1.637682e+01 1.778226e+01 2.830424e+01 3.809375e+00 3.507928e+00 3.026088e+00 1.437797e+00 2.409368e+00 1.973941e+00 3.920031e+00 3.170502e+00 2.885540e+00 1.913312e+00 1.724113e+00 1.929506e+00 2.657075e+00 4.649624e-01 6.490387e-01 4.631525e-01 2.454131e-01 3.663500e-01 3.826201e-01 6.953896e-01 5.559370e-01 6.266753e-01 3.786584e-01 3.561363e-01 4.093192e-01 3.928261e-01
<GCONST> 1.164557e+02
<STATE> 4
<MEAN> 39
 -8.505898e+00 -4.303477e+00 9.910471e+00 -4.501239e+00 -4.673642e+00 -9.403765e+00 -7.373299e+00 1.019205e+00 3.539704e+00 -1.224288e-01 2.665754e+00 1.281920e+00 6.774603e+01 -6.678132e-01 1.062217e-01 -3.040679e-01 -1.591634e-01 4.323882e-01 1.206133e-01 2.661747e-01 3.038973e-01 -1.853679e-01 1.200408e-01 1.094566e-01 1.176504e-01 -1.761821e-01 -4.938358e-02 2.309110e-03 1.280357e-04 -3.778722e-02 3.672542e-02 1.855264e-02 -1.761488e-02 3.002672e-02 -7.442833e-03 -1.138587e-03 -1.108892e-02 -1.536610e-02 1.652497e-02
<VARIANCE> 39
 7.616059e+01 2.934080e+01 3.208283e+01 2.083010e+01 3.505436e+01 1.964095e+01 3.778329e+01 4.182580e+01 2.636057e+01 1.893336e+01 1.602851e+01 1.738168e+01 2.557080e+01 3.040184e+00 3.677761e+00 2.858082e+00 1.332894e+00 2.072577e+00 1.964956e+00 3.133047e+00 3.229505e+00 2.726808e+00 1.876102e+00 1.740933e+00 1.844031e+00 2.514714e+00 4.085061e-01 6.948119e-01 4.581385e-01 2.165521e-01 3.506322e-01 3.925546e-01 5.744289e-01 5.494044e-01 5.917556e-01 3.787944e-01 3.649130e-01 3.836284e-01 3.783465e-01
<GCONST> 1.149290e+02
<STATE> 5
<MEAN> 39
 -1.068188e+01 -3.965809e+00 9.036327e+00 -5.155843e+00 -3.235828e+00 -8.947271e+00 -6.700822e+00 2.043269e+00 2.976840e+00 1.698425e-01 2.928001e+00 1.545205e+00 6.730047e+01 -7.158089e-01 1.059239e-01 -2.620209e-01 -2.501322e-01 4.866905e-01 1.744360e-01 1.877258e-01 3.467651e-01 -1.821376e-01 9.107992e-02 6.821331e-02 5.105965e-02 -1.208665e-01 8.731867e-03 -2.244822e-03 2.208666e-02 -2.133310e-02 4.254634e-03 1.575543e-02 -2.847100e-02 2.817643e-03 5.975268e-03 -1.353005e-02 -1.349080e-02 -2.507804e-02 1.816367e-02
<VARIANCE> 39
 7.448045e+01 2.824726e+01 2.734205e+01 2.266014e+01 3.363045e+01 2.088854e+01 2.971783e+01 4.307972e+01 2.699649e+01 1.916642e+01 1.563472e+01 1.704489e+01 2.160511e+01 2.636840e+00 3.664453e+00 2.609180e+00 1.245333e+00 1.828762e+00 1.961637e+00 2.530950e+00 3.246619e+00 2.697326e+00 1.860283e+00 1.756919e+00 1.820408e+00 2.240771e+00 3.664754e-01 7.000086e-01 4.330252e-01 1.979983e-01 3.375009e-01 4.012585e-01 4.763986e-01 5.451681e-01 5.769125e-01 3.780684e-01 3.727689e-01 3.709727e-01 3.455830e-01
<GCONST> 1.130590e+02
<STATE> 6
<MEAN> 39
 -1.271610e+01 -3.641486e+00 8.361506e+00 -5.996253e+00 -1.783785e+00 -8.327470e+00 -6.279510e+00 3.037850e+00 2.498759e+00 3.304056e-01 3.048414e+00 1.563648e+00 6.699536e+01 -5.996906e-01 9.838829e-02 -1.821811e-01 -2.787670e-01 4.545040e-01 2.212142e-01 1.079350e-01 3.009685e-01 -1.388866e-01 3.925509e-02 2.431604e-02 -3.260266e-02 -8.344172e-02 5.711908e-02 -2.226185e-03 2.765480e-02 1.334078e-03 -2.052260e-02 1.239785e-02 -2.350446e-02 -2.633378e-02 1.868601e-02 -1.907162e-02 -1.291758e-02 -2.662123e-02 7.579579e-03
<VARIANCE> 39
 6.602654e+01 2.630654e+01 2.198784e+01 2.373517e+01 3.042883e+01 2.226546e+01 2.381486e+01 4.086443e+01 2.750523e+01 1.971581e+01 1.526827e+01 1.700162e+01 1.783873e+01 2.516515e+00 3.461552e+00 2.320904e+00 1.232092e+00 1.699742e+00 1.960611e+00 2.155646e+00 3.195730e+00 2.792089e+00 1.888164e+00 1.761155e+00 1.815701e+00 1.877808e+00 3.263642e-01 6.632852e-01 3.975809e-01 1.940953e-01 3.252780e-01 4.057626e-01 4.147974e-01 5.357809e-01 5.842911e-01 3.834856e-01 3.763922e-01 3.655890e-01 2.981596e-01
<GCONST> 1.110232e+02
<STATE> 7
<MEAN> 39
 -1.417901e+01 -3.341258e+00 7.919879e+00 -6.804823e+00 -5.346360e-01 -7.578625e+00 -6.041242e+00 3.748605e+00 2.217583e+00 3.353491e-01 3.035392e+00 1.327155e+00 6.673170e+01 -3.668725e-01 9.348438e-02 -1.097431e-01 -2.337954e-01 3.634168e-01 2.528526e-01 6.164726e-02 1.790497e-01 -6.200552e-02 -1.433465e-02 -1.207956e-02 -1.079108e-01 -8.811854e-02 8.616638e-02 3.328370e-04 2.006634e-02 2.470043e-02 -3.555581e-02 6.264851e-03 -1.049771e-02 -4.731636e-02 2.850198e-02 -1.782506e-02 -9.472254e-03 -2.080148e-02 -7.994695e-03
<VARIANCE> 39
 5.470254e+01 2.398616e+01 1.776577e+01 2.388768e+01 2.607967e+01 2.323870e+01 2.086090e+01 3.663496e+01 2.793725e+01 2.065770e+01 1.497816e+01 1.719776e+01 1.524385e+01 2.452663e+00 3.119139e+00 2.035669e+00 1.314752e+00 1.634487e+00 1.950279e+00 2.003696e+00 3.038123e+00 2.959103e+00 1.966356e+00 1.740726e+00 1.796687e+00 1.496026e+00 2.833397e-01 5.947914e-01 3.599042e-01 2.039044e-01 3.109173e-01 4.024267e-01 3.889509e-01 5.153044e-01 6.077667e-01 3.976984e-01 3.719474e-01 3.611888e-01 2.428024e-01
<GCONST> 1.089542e+02
<STATE> 8
<MEAN> 39
 -1.482604e+01 -3.055250e+00 7.643161e+00 -7.360560e+00 3.780913e-01 -6.769198e+00 -5.859643e+00 4.007790e+00 2.209909e+00 2.142081e-01 2.928830e+00 8.980793e-01 6.638122e+01 -8.473647e-02 9.486900e-02 -7.060191e-02 -1.240291e-01 2.405972e-01 2.592375e-01 5.797635e-02 1.827556e-02 3.377995e-02 -5.364150e-02 -3.342737e-02 -1.555390e-01 -1.347096e-01 9.221612e-02 2.646727e-03 6.558737e-03 4.230846e-02 -4.212566e-02 -2.314880e-03 3.297887e-03 -5.443016e-02 3.220469e-02 -1.168300e-02 -4.669524e-03 -1.008983e-02 -2.046260e-02
<VARIANCE> 39
 4.623418e+01 2.172948e+01 1.543615e+01 2.419610e+01 2.180908e+01 2.341868e+01 2.059992e+01 3.273476e+01 2.834728e+01 2.171498e+01 1.478836e+01 1.732080e+01 1.410062e+01 2.262242e+00 2.715771e+00 1.796326e+00 1.453855e+00 1.582538e+00 1.930674e+00 2.029349e+00 2.762779e+00 3.117486e+00 2.078561e+00 1.686970e+00 1.764749e+00 1.152900e+00 2.395657e-01 5.110500e-01 3.252304e-01 2.227291e-01 2.934630e-01 3.914348e-01 3.898816e-01 4.826033e-01 6.357687e-01 4.161801e-01 3.572167e-01 3.563573e-01 1.880102e-01
<GCONST> 1.069730e+02
<STATE> 9
<MEAN> 39
 -1.462558e+01 -2.768701e+00 7.423257e+00 -7.503675e+00 8.958397e-01 -5.991675e+00 -5.618238e+00 3.776554e+00 2.491070e+00 2.695984e-02 2.783734e+00 3.832450e-01 6.585114e+01 1.785163e-01 1.002840e-01 -7.158812e-02 2.291954e-02 1.097166e-01 2.359428e-01 8.974880e-02 -1.393456e-01 1.251033e-01 -6.969349e-02 -3.893470e-02 -1.652383e-01 -2.046105e-01 7.748146e-02 2.984845e-03 -7.266916e-03 4.902523e-02 -4.106446e-02 -1.099278e-02 1.429399e-02 -4.870673e-02 2.734700e-02 -2.554864e-03 -6.303292e-04 2.697400e-03 -2.501804e-02
<VARIANCE> 39
 4.310379e+01 1.992457e+01 1.493446e+01 2.595971e+01 1.859046e+01 2.288295e+01 2.234741e+01 3.053607e+01 2.850999e+01 2.247785e+01 1.473864e+01 1.704497e+01 1.407943e+01 1.913258e+00 2.317339e+00 1.627508e+00 1.569294e+00 1.520087e+00 1.916102e+00 2.148364e+00 2.420020e+00 3.190072e+00 2.185127e+00 1.603112e+00 1.736405e+00 8.728781e-01 1.986473e-01 4.274061e-01 2.973871e-01 2.435742e-01 2.750514e-01 3.781187e-01 4.051196e-01 4.414018e-01 6.549234e-01 4.293582e-01 3.340926e-01 3.526765e-01 1.406795e-01
<GCONST> 1.051349e+02
<STATE> 10
<MEAN> 39
 -1.373041e+01 -2.473810e+00 7.151618e+00 -7.182240e+00 1.029171e+00 -5.337014e+00 -5.239138e+00 3.123955e+00 3.001933e+00 -1.543358e-01 2.646301e+00 -9.670222e-02 6.511543e+01 3.702628e-01 1.054945e-01 -1.086192e-01 1.688419e-01 -5.807351e-03 1.874353e-01 1.447333e-01 -2.633409e-01 1.876530e-01 -5.790581e-02 -3.403686e-02 -1.367450e-01 -2.733945e-01 4.893843e-02 1.787620e-03 -1.787266e-02 4.316528e-02 -3.225178e-02 -1.722319e-02 2.101505e-02 -3.409093e-02 1.540682e-02 8.158316e-03 1.579708e-03 1.383150e-02 -2.112386e-02
<VARIANCE> 39
 4.322910e+01 1.879595e+01 1.582598e+01 2.919453e+01 1.678444e+01 2.204179e+01 2.520592e+01 2.978260e+01 2.793653e+01 2.270815e+01 1.485392e+01 1.622865e+01 1.443976e+01 1.497905e+00 1.957294e+00 1.530904e+00 1.595473e+00 1.442234e+00 1.916797e+00 2.267461e+00 2.094264e+00 3.136956e+00 2.236635e+00 1.505345e+00 1.708084e+00 6.575671e-01 1.620521e-01 3.531595e-01 2.787432e-01 2.586578e-01 2.585296e-01 3.688789e-01 4.225372e-01 3.987780e-01 6.541491e-01 4.279213e-01 3.084419e-01 3.489420e-01 1.036531e-01
<GCONST> 1.032816e+02
<STATE> 11
<MEAN> 39
 -1.240990e+01 -2.169531e+00 6.739058e+00 -6.463180e+00 8.600106e-01 -4.867055e+00 -4.683961e+00 2.182172e+00 3.628776e+00 -2.530693e-01 2.539911e+00 -4.402634e-01 6.421141e+01 4.644759e-01 1.092634e-01 -1.691336e-01 2.780290e-01 -8.311732e-02 1.257612e-01 2.087305e-01 -3.347954e-01 2.093118e-01 -1.726568e-02 -2.483637e-02 -8.213209e-02 -3.205515e-01 1.631409e-02 7.312921e-04 -2.186061e-02 2.746157e-02 -1.719435e-02 -1.953919e-02 2.152093e-02 -1.356741e-02 2.021007e-03 1.808304e-02 3.015923e-03 1.922936e-02 -1.102582e-02
<VARIANCE> 39
 4.248669e+01 1.825148e+01 1.747922e+01 3.226957e+01 1.609716e+01 2.118339e+01 2.803009e+01 2.919867e+01 2.629929e+01 2.241832e+01 1.505232e+01 1.498652e+01 1.434699e+01 1.131651e+00 1.641906e+00 1.487342e+00 1.523509e+00 1.350993e+00 1.918872e+00 2.316795e+00 1.849445e+00 2.960568e+00 2.197764e+00 1.414640e+00 1.650921e+00 4.990769e-01 1.296580e-01 2.910427e-01 2.688079e-01 2.621006e-01 2.441394e-01 3.650627e-01 4.326845e-01 3.619128e-01 6.284819e-01 4.083148e-01 2.867215e-01 3.398066e-01 7.612940e-02
<GCONST> 1.010721e+02
<TRANSP> 12
 0.000000e+00 1.000000e+00 0.000000e+00 0.000000e+00 0.000000e+00 0.000000e+00 0.000000e+00 0.000000e+00 0.000000e+00 0.000000e+00 0.000000e+00 0.000000e+00
 0.000000e+00 6.735572e-01 3.264428e-01 0.000000e+00 0.000000e+00 0.000000e+00 0.000000e+00 0.000000e+00 0.000000e+00 0.000000e+00 0.000000e+00 0.000000e+00
 0.000000e+00 0.000000e+00 6.735575e-01 3.264425e-01 0.000000e+00 0.000000e+00 0.000000e+00 0.000000e+00 0.000000e+00 0.000000e+00 0.000000e+00 0.000000e+00
 0.000000e+00 0.000000e+00 0.000000e+00 6.735570e-01 3.264430e-01 0.000000e+00 0.000000e+00 0.000000e+00 0.000000e+00 0.000000e+00 0.000000e+00 0.000000e+00
 0.000000e+00 0.000000e+00 0.000000e+00 0.000000e+00 6.735572e-01 3.264428e-01 0.000000e+00 0.000000e+00 0.000000e+00 0.000000e+00 0.000000e+00 0.000000e+00
 0.000000e+00 0.000000e+00 0.000000e+00 0.000000e+00 0.000000e+00 6.735572e-01 3.264428e-01 0.000000e+00 0.000000e+00 0.000000e+00 0.000000e+00 0.000000e+00
 0.000000e+00 0.000000e+00 0.000000e+00 0.000000e+00 0.000000e+00 0.000000e+00 6.735572e-01 3.264427e-01 0.000000e+00 0.000000e+00 0.000000e+00 0.000000e+00
 0.000000e+00 0.000000e+00 0.000000e+00 0.000000e+00 0.000000e+00 0.000000e+00 0.000000e+00 6.735570e-01 3.264430e-01 0.000000e+00 0.000000e+00 0.000000e+00
 0.000000e+00 0.000000e+00 0.000000e+00 0.000000e+00 0.000000e+00 0.000000e+00 0.000000e+00 0.000000e+00 6.735574e-01 3.264426e-01 0.000000e+00 0.000000e+00
 0.000000e+00 0.000000e+00 0.000000e+00 0.000000e+00 0.000000e+00 0.000000e+00 0.000000e+00 0.000000e+00 0.000000e+00 6.735572e-01 3.264429e-01 0.000000e+00
 0.000000e+00 0.000000e+00 0.000000e+00 0.000000e+00 0.000000e+00 0.000000e+00 0.000000e+00 0.000000e+00 0.000000e+00 0.000000e+00 6.735578e-01 3.264422e-01
 0.000000e+00 0.000000e+00 0.000000e+00 0.000000e+00 0.000000e+00 0.000000e+00 0.000000e+00 0.000000e+00 0.000000e+00 0.000000e+00 0.000000e+00 0.000000e+00
<ENDHMM>
~h "TWO"
<BEGINHMM>
<NUMSTATES> 12
<STATE> 2
<MEAN> 39
 -2.087183e+00 -4.985081e+00 9.780559e+00 -3.154904e+00 -7.177094e+00 -1.730933e-01 -8.059437e+00 -9.361364e+00 1.680591e+00 -4.531196e+00 4.286667e+00 -9.112395e-01 6.796416e+01 5.619868e-01 2.023923e-01 2.584725e-01 -9.555441e-02 -2.550393e-01 -3.744313e-02 -4.200680e-01 -4.078041e-01 -3.189452e-01 -2.351493e-01 1.500989e-01 4.603264e-02 3.861969e-01 -2.700714e-02 6.558061e-02 -4.782197e-02 1.221179e-02 5.823804e-02 -2.607010e-02 7.863729e-02 3.923715e-02 -1.364430e-02 1.389349e-02 -1.072114e-02 1.091165e-02 -6.768879e-02
<VARIANCE> 39
 5.346331e+01 4.984068e+01 4.365572e+01 2.618460e+01 4.766852e+01 2.877958e+01 7.903203e+01 6.476374e+01 3.862412e+01 3.248541e+01 2.520926e+01 1.799429e+01 4.090935e+01 2.079753e+00 3.882388e+00 1.873250e+00 1.682366e+00 2.937089e+00 2.251647e+00 4.463028e+00 2.783705e+00 2.325602e+00 1.890716e+00 2.495032e+00 2.069407e+00 1.981545e+00 3.091753e-01 7.306174e-01 2.362615e-01 2.890045e-01 4.719870e-01 3.830131e-01 6.218466e-01 4.580514e-01 4.010724e-01 3.096846e-01 4.686743e-01 4.298441e-01 2.491106e-01
<GCONST> 1.185700e+02
<STATE> 3
<MEAN> 39
 -4.663100e-01 -3.976941e+00 1.030132e+01 -3.340359e+00 -7.614704e+00 -4.492903e-01 -8.897395e+00 -1.045383e+01 6.003668e-01 -5.151484e+00 4.666807e+00 -7.345564e-01 6.877661e+01 4.249640e-01 3.864130e-01 8.646280e-02 -4.093049e-02 -4.662321e-02 -1.088794e-01 -1.232591e-01 -2.482652e-01 -3.267408e-01 -1.640854e-01 9.280304e-02 6.904004e-02 1.394860e-01 -5.451508e-02 4.790778e-02 -5.426332e-02 1.901860e-02 6.757621e-02 -1.745673e-02 9.509408e-02 5.652712e-02 6.344084e-03 2.773778e-02 -2.268304e-02 2.844875e-03 -7.970051e-02
<VARIANCE> 39
 4.379295e+01 5.397284e+01 3.978107e+01 2.857962e+01 4.467514e+01 2.972059e+01 7.176009e+01 5.717038e+01 3.927892e+01 3.289227e+01 2.409947e+01 1.753462e+01 3.258096e+01 1.926566e+00 3.098697e+00 1.765439e+00 1.553199e+00 2.696237e+00 1.848968e+00 4.238693e+00 2.611283e+00 2.242183e+00 1.843361e+00 2.261032e+00 1.840470e+00 1.754063e+00 2.695788e-01 5.737640e-01 2.192898e-01 2.615208e-01 4.202569e-01 3.122605e-01 5.643781e-01 4.146964e-01 3.794057e-01 2.862556e-01 4.134823e-01 3.740585e-01 2.020266e-01
<GCONST> 1.150048e+02
<STATE> 4
<MEAN> 39
 5.719695e-01 -2.511374e+00 1.025879e+01 -3.327225e+00 -7.363810e+00 -8.779850e-01 -8.723439e+00 -1.095987e+01 -3.802910e-01 -5.472459e+00 4.824779e+00 -5.244920e-01 6.876863e+01 2.192052e-01 4.930442e-01 -8.136939e-02 2.445966e-02 1.666224e-01 -1.355075e-01 1.802032e-01 -5.959756e-02 -2.704500e-01 -5.691971e-02 1.742850e-02 6.744721e-02 -1.098228e-01 -6.802816e-02 2.067553e-02 -4.748223e-02 2.145495e-02 6.320327e-02 -2.147740e-03 8.662022e-02 5.850495e-02 2.497866e-02 3.649593e-02 -2.387226e-02 -4.645298e-03 -7.212053e-02
<VARIANCE> 39
 3.254679e+01 5.558485e+01 3.658111e+01 3.057905e+01 4.528125e+01 2.975459e+01 6.898192e+01 4.823132e+01 3.711313e+01 3.313148e+01 2.178093e+01 1.683976e+01 2.873893e+01 1.589296e+00 2.291360e+00 1.523697e+00 1.355009e+00 2.312614e+00 1.464902e+00 3.614466e+00 2.313569e+00 2.097872e+00 1.800565e+00 1.936504e+00 1.562667e+00 1.369687e+00 2.052687e-01 4.102148e-01 1.929939e-01 2.238431e-01 3.579118e-01 2.506618e-01 4.827615e-01 3.576907e-01 3.502620e-01 2.739105e-01 3.452879e-01 3.108962e-01 1.504945e-01
<GCONST> 1.097497e+02
<STATE> 5
<MEAN> 39
 8.968353e-01 -8.656921e-01 9.736016e+00 -3.112123e+00 -6.483552e+00 -1.297760e+00 -7.662275e+00 -1.086626e+01 -1.082135e+00 -5.422627e+00 4.761034e+00 -3.448787e-01 6.803463e+01 -2.042001e-03 5.107844e-01 -2.111332e-01 8.776944e-02 3.453959e-01 -1.149874e-01 4.199790e-01 1.157207e-01 -1.671797e-01 6.207467e-02 -4.533857e-02 5.001574e-02 -3.095397e-01 -6.564312e-02 -6.790568e-03 -3.312879e-02 1.987158e-02 4.825363e-02 1.054305e-02 6.162714e-02 4.975457e-02 3.582118e-02 3.680620e-02 -1.634770e-02 -7.651169e-03 -5.191145e-02
<VARIANCE> 39
 2.499809e+01 5.232012e+01 3.338461e+01 3.195238e+01 4.826528e+01 2.866474e+01 6.923079e+01 4.126336e+01 3.346580e+01 3.358726e+01 1.897474e+01 1.600326e+01 2.873294e+01 1.159954e+00 1.665264e+00 1.233673e+00 1.163025e+00 1.888089e+00 1.211617e+00 2.864854e+00 1.992777e+00 1.928073e+00 1.763463e+00 1.609436e+00 1.319887e+00 9.428886e-01 1.389574e-01 2.752447e-01 1.633654e-01 1.885952e-01 2.966217e-01 2.117659e-01 4.051354e-01 3.077241e-01 3.221829e-01 2.755560e-01 2.832873e-01 2.575715e-01 1.040058e-01
<GCONST> 1.037256e+02
<STATE> 6
<MEAN> 39
 5.451164e-01 6.903532e-01 8.888070e+00 -2.724067e+00 -5.136318e+00 -1.588904e+00 -6.000310e+00 -1.026231e+01 -1.405538e+00 -5.021065e+00 4.551324e+00 -2.181510e-01 6.678817e+01 -1.945716e-01 4.492941e-01 -2.892648e-01 1.395373e-01 4.641927e-01 -6.721444e-02 5.639522e-01 2.548280e-01 -4.585820e-02 1.641001e-01 -7.801080e-02 3.135801e-02 -4.349741e-01 -5.285646e-02 -2.922148e-02 -1.720470e-02 1.529797e-02 2.769831e-02 1.575314e-02 3.150028e-02 3.611305e-02 3.696644e-02 2.819217e-02 -5.822198e-03 -5.928061e-03 -2.798900e-02
<VARIANCE> 39
 2.281265e+01 4.412498e+01 2.942768e+01 3.228761e+01 5.081914e+01 2.659309e+01 6.810727e+01 3.708162e+01 2.984183e+01 3.385498e+01 1.627149e+01 1.504902e+01 2.956853e+01 7.634991e-01 1.259519e+00 9.775423e-01 1.022410e+00 1.535796e+00 1.114297e+00 2.256730e+00 1.729112e+00 1.753847e+00 1.736630e+00 1.356292e+00 1.152707e+00 5.862980e-01 8.690909e-02 1.812943e-01 1.367896e-01 1.630932e-01 2.461691e-01 1.985043e-01 3.493117e-01 2.759951e-01 2.998944e-01 2.878371e-01 2.404251e-01 2.217207e-01 6.728701e-02
<GCONST> 9.779131e+01
<STATE> 7
<MEAN> 39
 -3.427310e-01 1.942435e+00 7.880559e+00 -2.214067e+00 -3.532330e+00 -1.708256e+00 -4.059055e+00 -9.280002e+00 -1.344178e+00 -4.370154e+00 4.294691e+00 -1.286439e-01 6.527292e+01 -3.370916e-01 3.305805e-01 -3.191571e-01 1.727584e-01 5.152650e-01 -1.630687e-02 6.121145e-01 3.491856e-01 6.530723e-02 2.257199e-01 -8.102968e-02 2.158177e-02 -4.871587e-01 -3.649105e-02 -4.333127e-02 -4.172305e-03 8.169819e-03 6.639339e-03 1.383852e-02 3.285710e-03 2.088147e-02 3.055343e-02 1.344146e-02 2.212333e-03 -1.845711e-03 -7.097741e-03
<VARIANCE> 39
 2.424257e+01 3.340199e+01 2.478720e+01 3.119987e+01 5.061692e+01 2.381046e+01 6.264919e+01 3.466933e+01 2.696736e+01 3.293340e+01 1.404294e+01 1.398346e+01 2.877360e+01 4.805173e-01 1.009395e+00 7.938241e-01 9.390286e-01 1.319632e+00 1.129795e+00 1.895413e+00 1.547895e+00 1.594910e+00 1.717321e+00 1.205416e+00 1.062336e+00 3.499075e-01 5.409001e-02 1.239620e-01 1.174138e-01 1.478560e-01 2.121592e-01 2.043710e-01 3.198576e-01 2.621192e-01 2.842561e-01 3.017236e-01 2.196220e-01 2.030116e-01 4.167283e-02
<GCONST> 9.247432e+01
<STATE> 8
<MEAN> 39
 -1.593972e+00 2.761389e+00 6.846291e+00 -1.650644e+00 -1.877083e+00 -1.677858e+00 -2.118263e+00 -8.063475e+00 -9.671173e-01 -3.620487e+00 4.064772e+00 -4.644573e-02 6.369776e+01 -4.263149e-01 1.842432e-01 -3.152553e-01 1.807662e-01 5.044275e-01 2.057884e-02 5.799701e-01 3.968988e-01 1.485921e-01 2.379760e-01 -6.695594e-02 2.251378e-02 -4.822848e-01 -2.048590e-02 -4.742696e-02 3.515835e-03 -1.358606e-03 -1.146749e-02 7.890541e-03 -1.977613e-02 6.158958e-03 2.111781e-02 -1.738333e-03 5.382153e-03 1.628970e-03 7.752064e-03
<VARIANCE> 39
 2.633498e+01 2.336222e+01 2.022831e+01 2.856744e+01 4.684386e+01 2.059645e+01 5.292262e+01 3.252831e+01 2.474648e+01 3.007624e+01 1.246057e+01 1.288130e+01 2.566081e+01 3.186765e-01 8.286321e-01 6.792340e-01 8.944995e-01 1.227227e+00 1.185624e+00 1.737966e+00 1.435724e+00 1.472014e+00 1.686480e+00 1.137467e+00 1.031891e+00 2.211521e-01 3.715890e-02 9.168548e-02 1.059561e-01 1.391009e-01 1.935395e-01 2.176687e-01 3.105418e-01 2.586347e-01 2.744420e-01 3.074279e-01 2.152984e-01 1.979304e-01 2.593748e-02
<GCONST> 8.786913e+01
<STATE> 9
<MEAN> 39
 -3.042717e+00 3.114577e+00 5.863081e+00 -1.118489e+00 -3.437526e-01 -1.556901e+00 -3.877320e-01 -6.754461e+00 -3.779540e-01 -2.914614e+00 3.890760e+00 5.084109e-02 6.220978e+01 -4.664069e-01 4.075785e-02 -2.956214e-01 1.581422e-01 4.439808e-01 3.649835e-02 4.897193e-01 4.018848e-01 2.006522e-01 2.113463e-01 -4.941051e-02 2.912647e-02 -4.403581e-01 -6.004024e-03 -4.234058e-02 6.164230e-03 -1.195730e-02 -2.497139e-02 1.386711e-03 -3.512289e-02 -5.500246e-03 1.267140e-02 -1.126927e-02 4.942475e-03 2.358314e-03 1.663722e-02
<VARIANCE> 39
 2.677431e+01 1.610188e+01 1.649121e+01 2.466202e+01 4.004481e+01 1.730851e+01 4.113783e+01 2.970812e+01 2.280793e+01 2.554737e+01 1.148112e+01 1.187566e+01 2.089912e+01 2.429648e-01 6.645075e-01 6.101075e-01 8.626241e-01 1.194530e+00 1.217636e+00 1.678918e+00 1.362775e+00 1.393167e+00 1.618612e+00 1.111236e+00 1.040661e+00 1.599907e-01 2.978235e-02 7.304258e-02 1.002078e-01 1.322937e-01 1.835206e-01 2.273374e-01 3.101057e-01 2.567841e-01 2.689640e-01 3.005331e-01 2.177400e-01 2.020922e-01 1.730747e-02
<GCONST> 8.373012e+01
<STATE> 10
<MEAN> 39
 -4.542003e+00 3.053236e+00 4.955885e+00 -7.103255e-01 9.355979e-01 -1.413033e+00 1.002302e+00 -5.475111e+00 3.266225e-01 -2.333182e+00 3.769713e+00 1.659563e-01 6.089622e+01 -4.635716e-01 -7.631452e-02 -2.733414e-01 1.056715e-01 3.490351e-01 3.325760e-02 3.686911e-01 3.753227e-01 2.273822e-01 1.698681e-01 -3.483756e-02 3.333982e-02 -3.783813e-01 6.459306e-03 -3.115276e-02 6.573144e-03 -2.024860e-02 -3.308256e-02 -3.494441e-03 -4.065232e-02 -1.231455e-02 5.970614e-03 -1.269406e-02 3.782104e-03 2.659098e-04 2.092936e-02
<VARIANCE> 39
 2.465139e+01 1.185925e+01 1.376898e+01 2.013268e+01 3.164635e+01 1.436277e+01 3.000937e+01 2.612067e+01 2.090421e+01 2.053262e+01 1.090537e+01 1.106539e+01 1.559870e+01 2.129487e-01 5.092111e-01 5.618553e-01 8.194707e-01 1.154661e+00 1.196102e+00 1.623881e+00 1.295914e+00 1.343694e+00 1.507032e+00 1.089035e+00 1.067536e+00 1.295971e-01 2.659960e-02 6.045404e-02 9.672397e-02 1.247379e-01 1.748132e-01 2.277390e-01 3.078822e-01 2.502488e-01 2.649205e-01 2.838006e-01 2.180964e-01 2.102563e-01 1.281446e-02
<GCONST> 7.958389e+01
<STATE> 11
<MEAN> 39
 -5.969849e+00 2.682339e+00 4.121055e+00 -5.019166e-01 1.877895e+00 -1.301162e+00 2.005597e+00 -4.309662e+00 1.073184e+00 -1.877665e+00 3.691563e+00 2.822813e-01 5.979740e+01 -4.262872e-01 -1.545505e-01 -2.514853e-01 3.557002e-02 2.369811e-01 1.680744e-02 2.454404e-01 3.309242e-01 2.330513e-01 1.355996e-01 -2.255777e-02 2.996989e-02 -3.088464e-01 1.591592e-02 -1.767824e-02 7.755077e-03 -2.239289e-02 -3.547173e-02 -6.556134e-03 -3.695671e-02 -1.552047e-02 -1.020791e-03 -8.890195e-03 3.406750e-03 -2.502299e-03 2.193312e-02
<VARIANCE> 39
 2.040805e+01 9.617712e+00 1.173350e+01 1.579710e+01 2.346721e+01 1.205581e+01 2.139427e+01 2.223786e+01 1.891009e+01 1.631439e+01 1.053953e+01 1.047326e+01 1.070756e+01 1.993814e-01 3.780943e-01 5.182960e-01 7.519568e-01 1.075821e+00 1.128978e+00 1.526686e+00 1.214382e+00 1.297001e+00 1.373843e+00 1.051907e+00 1.092324e+00 1.080633e-01 2.471676e-02 5.066656e-02 9.276932e-02 1.162814e-01 1.647513e-01 2.196277e-01 2.970275e-01 2.371235e-01 2.582171e-01 2.634654e-01 2.121325e-01 2.172066e-01 1.030463e-02
<GCONST> 7.504678e+01
<TRANSP> 12
 0.000000e+00 1.000000e+00 0.000000e+00 0.000000e+00 0.000000e+00 0.000000e+00 0.000000e+00 0.000000e+00 0.000000e+00 0.000000e+00 0.000000e+00 0.000000e+00
 0.000000e+00 6.902415e-01 3.097585e-01 0.000000e+00 0.000000e+00 0.000000e+00 0.000000e+00 0.000000e+00 0.000000e+00 0.000000e+00 0.000000e+00 0.000000e+00
 0.000000e+00 0.000000e+00 6.902413e-01 3.097586e-01 0.000000e+00 0.000000e+00 0.000000e+00 0.000000e+00 0.000000e+00 0.000000e+00 0.000000e+00 0.000000e+00
 0.000000e+00 0.000000e+00 0.000000e+00 6.902413e-01 3.097587e-01 0.000000e+00 0.000000e+00 0.000000e+00 0.000000e+00 0.000000e+00 0.000000e+00 0.000000e+00
 0.000000e+00 0.000000e+00 0.000000e+00 0.000000e+00 6.902415e-01 3.097585e-01 0.000000e+00 0.000000e+00 0.000000e+00 0.000000e+00 0.000000e+00 0.000000e+00
 0.000000e+00 0.000000e+00 0.000000e+00 0.000000e+00 0.000000e+00 6.902415e-01 3.097585e-01 0.000000e+00 0.000000e+00 0.000000e+00 0.000000e+00 0.000000e+00
 0.000000e+00 0.000000e+00 0.000000e+00 0.000000e+00 0.000000e+00 0.000000e+00 6.902413e-01 3.097587e-01 0.000000e+00 0.000000e+00 0.000000e+00 0.000000e+00
 0.000000e+00 0.000000e+00 0.000000e+00 0.000000e+00 0.000000e+00 0.000000e+00 0.000000e+00 6.902417e-01 3.097583e-01 0.000000e+00 0.000000e+00 0.000000e+00
 0.000000e+00 0.000000e+00 0.000000e+00 0.000000e+00 0.000000e+00 0.000000e+00 0.000000e+00 0.000000e+00 6.902417e-01 3.097583e-01 0.000000e+00 0.000000e+00
 0.000000e+00 0.000000e+00 0.000000e+00 0.000000e+00 0.000000e+00 0.000000e+00 0.000000e+00 0.000000e+00 0.000000e+00 6.902415e-01 3.097585e-01 0.000000e+00
 0.000000e+00 0.000000e+00 0.000000e+00 0.000000e+00 0.000000e+00 0.000000e+00 0.000000e+00 0.000000e+00 0.000000e+00 0.000000e+00 6.902424e-01 3.097576e-01
 0.000000e+00 0.000000e+00 0.000000e+00 0.000000e+00 0.000000e+00 0.000000e+00 0.000000e+00 0.000000e+00 0.000000e+00 0.000000e+00 0.000000e+00 0.000000e+00
<ENDHMM>
~h "NINE"
<BEGINHMM>
<NUMSTATES> 12
<STATE> 2
<MEAN> 39
 4.079251e+00 -5.377476e+00 9.866120e+00 -8.132061e+00 -8.108276e+00 -1.055446e-01 -3.705075e+00 -2.457232e+00 3.877318e+00 -8.812760e-01 -3.732724e+00 -7.694695e+00 7.304086e+01 2.380171e-01 -3.250965e-01 2.898320e-01 -2.504042e-01 -3.908062e-01 8.438176e-02 -1.312151e-02 2.355247e-01 5.157105e-02 -1.195323e-01 2.634524e-03 -4.588113e-02 4.368395e-01 -3.936647e-02 1.556096e-02 -2.047669e-03 3.200742e-02 -1.278720e-03 -4.389004e-02 2.392457e-02 6.315073e-03 -7.261696e-04 -7.469441e-03 2.637182e-02 3.923289e-02 -4.936145e-02
<VARIANCE> 39
 1.606185e+01 3.996897e+01 5.364651e+01 4.922427e+01 4.420868e+01 4.781583e+01 2.700383e+01 3.879179e+01 2.242916e+01 1.429042e+01 2.411993e+01 2.024496e+01 3.868000e+01 7.336660e-01 1.712144e+00 3.352342e+00 2.931589e+00 2.656363e+00 3.097942e+00 2.459106e+00 3.342307e+00 2.130721e+00 1.402534e+00 2.085968e+00 1.499209e+00 9.169745e-01 1.058382e-01 2.024109e-01 3.983553e-01 4.225086e-01 4.784762e-01 4.083444e-01 4.603597e-01 6.318151e-01 3.851662e-01 2.778130e-01 3.546349e-01 2.363643e-01 9.042352e-02
<GCONST> 1.095127e+02
<STATE> 3
<MEAN> 39
 4.593904e+00 -6.277890e+00 1.095644e+01 -8.698027e+00 -9.473856e+00 -2.044086e-01 -3.580875e+00 -1.623996e+00 3.974040e+00 -1.371019e+00 -3.526365e+00 -7.569864e+00 7.413519e+01 1.003274e-01 -2.115790e-01 3.050294e-01 -9.129308e-02 -3.729303e-01 -8.653130e-02 6.114943e-02 2.139453e-01 2.124294e-02 -1.322368e-01 7.930066e-02 6.697362e-02 2.356758e-01 -3.822828e-02 4.020183e-02 7.939545e-03 4.868522e-02 8.335012e-03 -5.019830e-02 2.024637e-02 -1.032075e-02 -1.339471e-02 -2.790252e-03 1.898682e-02 2.716187e-02 -5.882235e-02
<VARIANCE> 39
 1.081042e+01 3.819576e+01 5.633305e+01 4.402914e+01 4.588078e+01 5.158167e+01 2.735073e+01 3.755243e+01 2.591992e+01 1.444473e+01 2.501842e+01 1.826697e+01 2.837611e+01 5.715728e-01 1.567279e+00 3.067282e+00 2.677155e+00 2.466007e+00 3.148548e+00 2.364402e+00 3.081622e+00 2.332594e+00 1.353291e+00 2.038332e+00 1.436678e+00 8.602729e-01 7.709437e-02 1.627046e-01 3.403357e-01 3.704837e-01 4.056017e-01 3.933340e-01 4.411826e-01 5.734302e-01 4.049174e-01 2.668250e-01 3.386394e-01 2.357596e-01 7.304787e-02
<GCONST> 1.066916e+02
<STATE> 4
<MEAN> 39
 4.666625e+00 -6.619128e+00 1.211733e+01 -8.598015e+00 -1.067897e+01 -8.958876e-01 -3.245913e+00 -1.017161e+00 3.870474e+00 -1.850921e+00 -3.121117e+00 -7.173349e+00 7.447993e+01 -1.823997e-02 -3.513328e-02 3.300150e-01 9.699400e-02 -3.143842e-01 -2.501027e-01 1.158921e-01 1.406837e-01 -5.028969e-02 -1.271071e-01 1.252618e-01 1.242490e-01 2.605839e-02 -3.155482e-02 5.423229e-02 8.607589e-03 5.122706e-02 1.986252e-02 -4.349111e-02 1.351731e-02 -2.286964e-02 -2.458040e-02 1.702467e-03 1.085058e-02 1.085418e-02 -5.765637e-02
<VARIANCE> 39
 7.870811e+00 3.758060e+01 5.880797e+01 3.998363e+01 4.733493e+01 5.537959e+01 2.660813e+01 3.510359e+01 2.945589e+01 1.449927e+01 2.672342e+01 1.715226e+01 2.261009e+01 4.135858e-01 1.394976e+00 2.780914e+00 2.260138e+00 2.342427e+00 3.010312e+00 2.147312e+00 2.808009e+00 2.459918e+00 1.314309e+00 2.057117e+00 1.382391e+00 7.302068e-01 5.329848e-02 1.269814e-01 2.847560e-01 3.049275e-01 3.357298e-01 3.663740e-01 4.011969e-01 5.081451e-01 4.124314e-01 2.570584e-01 3.336486e-01 2.361385e-01 5.607460e-02
<GCONST> 1.032945e+02
<STATE> 5
<MEAN> 39
 4.396858e+00 -6.286550e+00 1.328760e+01 -7.844596e+00 -1.156200e+01 -2.054024e+00 -2.774140e+00 -7.682086e-01 3.469387e+00 -2.261694e+00 -2.636557e+00 -6.711172e+00 7.412386e+01 -1.069986e-01 1.586166e-01 3.306200e-01 2.622322e-01 -2.117767e-01 -3.614160e-01 1.474494e-01 3.879634e-02 -1.425749e-01 -1.076338e-01 1.415144e-01 1.272221e-01 -1.598849e-01 -2.261669e-02 5.435611e-02 -1.290021e-03 3.960034e-02 3.227535e-02 -2.356522e-02 6.072341e-03 -2.875194e-02 -2.748804e-02 5.355344e-03 3.207532e-03 -3.138595e-03 -4.844872e-02
<VARIANCE> 39
 6.667175e+00 3.995390e+01 5.904821e+01 3.812192e+01 4.914467e+01 5.634133e+01 2.481360e+01 3.283989e+01 3.237230e+01 1.460891e+01 2.822769e+01 1.624555e+01 2.203380e+01 2.877159e-01 1.184173e+00 2.545170e+00 1.771273e+00 2.283570e+00 2.740668e+00 1.872841e+00 2.549763e+00 2.478772e+00 1.296571e+00 2.127242e+00 1.336258e+00 5.591712e-01 3.630612e-02 1.004152e-01 2.387388e-01 2.404499e-01 2.788525e-01 3.331576e-01 3.503318e-01 4.476218e-01 4.073596e-01 2.518759e-01 3.398671e-01 2.327922e-01 4.200793e-02
<GCONST> 9.976326e+01
<STATE> 6
<MEAN> 39
 3.893812e+00 -5.330065e+00 1.431491e+01 -6.613697e+00 -1.197043e+01 -3.422705e+00 -2.237080e+00 -9.096897e-01 2.781009e+00 -2.561707e+00 -2.175354e+00 -6.335424e+00 7.320358e+01 -1.646860e-01 3.233506e-01 2.804328e-01 3.658882e-01 -6.819351e-02 -3.874417e-01 1.567808e-01 -6.535773e-02 -2.195807e-01 -7.784039e-02 1.315503e-01 9.507465e-02 -3.017689e-01 -1.355063e-02 4.184256e-02 -1.886889e-02 2.042978e-02 4.375578e-02 3.208240e-03 -5.789708e-04 -2.777000e-02 -1.898091e-02 8.308818e-03 -4.533570e-03 -1.101218e-02 -3.485638e-02
<VARIANCE> 39
 6.266518e+00 4.374938e+01 5.649853e+01 3.686102e+01 5.218043e+01 5.192186e+01 2.231308e+01 3.138123e+01 3.355296e+01 1.483784e+01 2.870669e+01 1.538889e+01 2.448872e+01 2.032315e-01 9.641621e-01 2.370916e+00 1.328926e+00 2.243203e+00 2.417062e+00 1.601897e+00 2.310178e+00 2.381000e+00 1.301924e+00 2.189816e+00 1.274887e+00 3.948274e-01 2.573181e-02 8.377002e-02 2.042916e-01 1.869439e-01 2.391089e-01 2.966338e-01 2.986280e-01 3.981437e-01 3.897529e-01 2.529071e-01 3.495351e-01 2.227133e-01 3.168541e-02
<GCONST> 9.613049e+01
<STATE> 7
<MEAN> 39
 3.253687e+00 -3.935182e+00 1.500727e+01 -5.160628e+00 -1.179340e+01 -4.691023e+00 -1.696732e+00 -1.383696e+00 1.937097e+00 -2.726491e+00 -1.817710e+00 -6.106705e+00 7.189835e+01 -1.949828e-01 4.247283e-01 1.690306e-01 3.992807e-01 1.035514e-01 -3.252769e-01 1.483003e-01 -1.494112e-01 -2.472933e-01 -4.094447e-02 9.748235e-02 5.297792e-02 -3.920731e-01 -5.654955e-03 2.117075e-02 -3.816194e-02 2.802721e-03 5.062088e-02 2.625890e-02 -4.991409e-03 -2.124293e-02 -1.853130e-03 1.076846e-02 -1.234450e-02 -1.198377e-02 -2.032746e-02
<VARIANCE> 39
 6.035202e+00 4.540323e+01 5.254398e+01 3.441819e+01 5.673824e+01 4.256216e+01 1.957469e+01 3.032808e+01 3.209357e+01 1.516227e+01 2.788404e+01 1.471870e+01 2.701597e+01 1.547312e-01 7.897053e-01 2.225953e+00 1.010555e+00 2.164476e+00 2.086654e+00 1.369177e+00 2.092100e+00 2.193771e+00 1.326473e+00 2.184185e+00 1.186159e+00 2.723393e-01 2.004302e-02 7.489018e-02 1.806029e-01 1.487111e-01 2.156758e-01 2.601191e-01 2.528562e-01 3.615334e-01 3.606655e-01 2.598102e-01 3.526253e-01 2.065789e-01 2.495174e-02
<GCONST> 9.238588e+01
<STATE> 8
<MEAN> 39
 2.550757e+00 -2.363732e+00 1.519102e+01 -3.713736e+00 -1.099738e+01 -5.606302e+00 -1.197845e+00 -2.071434e+00 1.143967e+00 -2.746277e+00 -1.622961e+00 -5.999260e+00 7.038829e+01 -2.043831e-01 4.475130e-01 6.804898e-03 3.807209e-01 2.779685e-01 -2.059603e-01 1.298392e-01 -1.993296e-01 -2.117011e-01 3.466556e-04 4.444024e-02 2.260300e-02 -4.336419e-01 -2.811014e-05 -1.704880e-03 -5.163090e-02 -7.813471e-03 4.857922e-02 3.690660e-02 -6.444165e-03 -1.138168e-02 1.646822e-02 1.251284e-02 -1.754796e-02 -7.265250e-03 -7.243918e-03
<VARIANCE> 39
 5.811039e+00 4.239061e+01 4.938297e+01 3.054939e+01 6.164790e+01 3.159533e+01 1.704020e+01 2.888345e+01 2.831417e+01 1.549958e+01 2.607729e+01 1.432226e+01 2.757706e+01 1.311624e-01 6.957468e-01 2.055548e+00 8.254296e-01 2.018312e+00 1.762507e+00 1.187115e+00 1.908541e+00 1.960805e+00 1.362480e+00 2.086515e+00 1.087666e+00 2.014729e-01 1.757037e-02 7.121252e-02 1.663178e-01 1.257369e-01 2.050325e-01 2.285301e-01 2.166178e-01 3.372748e-01 3.245050e-01 2.705976e-01 3.436554e-01 1.889623e-01 2.126212e-02
<GCONST> 8.877579e+01
<STATE> 9
<MEAN> 39
 1.832695e+00 -8.844740e-01 1.476846e+01 -2.412581e+00 -9.655386e+00 -6.064127e+00 -7.622117e-01 -2.832119e+00 5.967462e-01 -2.623006e+00 -1.614875e+00 -5.932335e+00 6.882643e+01 -2.017118e-01 3.965873e-01 -1.756959e-01 3.359964e-01 4.211158e-01 -7.798357e-02 1.091011e-01 -2.111313e-01 -1.258200e-01 4.280174e-02 -1.248901e-02 1.729631e-02 -4.350425e-01 2.512236e-03 -2.113832e-02 -5.337273e-02 -1.235957e-02 3.603175e-02 3.360697e-02 -5.926929e-03 -7.761196e-04 2.825456e-02 1.281065e-02 -1.635697e-02 8.902304e-04 3.273234e-03
<VARIANCE> 39
 5.755100e+00 3.513035e+01 4.816107e+01 2.611707e+01 6.431157e+01 2.250397e+01 1.501917e+01 2.661412e+01 2.380304e+01 1.571212e+01 2.391878e+01 1.419927e+01 2.563565e+01 1.220823e-01 6.721174e-01 1.823457e+00 7.452471e-01 1.822903e+00 1.464438e+00 1.061806e+00 1.774282e+00 1.719938e+00 1.398241e+00 1.920242e+00 1.012432e+00 1.717704e-01 1.701540e-02 7.126229e-02 1.598479e-01 1.152855e-01 2.023298e-01 2.057337e-01 1.921009e-01 3.238045e-01 2.889729e-01 2.820159e-01 3.242843e-01 1.761070e-01 1.995401e-02
<GCONST> 8.564046e+01
<STATE> 10
<MEAN> 39
 1.118702e+00 2.872226e-01 1.375877e+01 -1.319531e+00 -7.946517e+00 -6.120587e+00 -3.966941e-01 -3.539279e+00 4.019923e-01 -2.369147e+00 -1.755276e+00 -5.808109e+00 6.732881e+01 -1.964893e-01 2.926342e-01 -3.382933e-01 2.796907e-01 5.035303e-01 1.890693e-02 8.899850e-02 -1.893270e-01 -2.123687e-02 8.135957e-02 -5.006618e-02 4.084578e-02 -4.065421e-01 1.957734e-03 -3.333259e-02 -4.273646e-02 -1.536312e-02 1.631020e-02 2.203584e-02 -5.228692e-03 8.540880e-03 2.983980e-02 1.078265e-02 -7.815973e-03 9.538457e-03 1.077466e-02
<VARIANCE> 39
