~o
<STREAMINFO> 1 39
<VECSIZE> 39<NULLD><MFCC_D_A_0><DIAGC>
~v varFloor1
<Variance> 39
 1.800114e-01 1.519127e-01 2.852846e-01 2.534797e-01 2.821024e-01 3.016612e-01 2.945425e-01 2.471487e-01 2.122073e-01 3.196048e-01 2.418761e-01 1.749120e-01 1.015027e+00 6.487466e-03 6.143028e-03 8.516928e-03 1.009298e-02 1.354946e-02 1.454864e-02 1.663765e-02 1.798384e-02 1.697595e-02 1.681930e-02 1.677035e-02 1.442426e-02 5.849039e-03 9.357015e-04 9.690709e-04 1.357299e-03 1.794185e-03 2.409799e-03 2.700560e-03 3.104459e-03 3.466015e-03 3.343903e-03 3.279697e-03 3.262125e-03 2.850542e-03 6.436716e-04
~h "ZERO"
<BEGINHMM>
<NUMSTATES> 12
<STATE> 2
<MEAN> 39
 -8.731349e+00 -6.690251e+00 -4.176391e+00 2.419755e+00 -2.747134e+00 -5.364809e+00 -1.505039e+00 -2.198910e+00 -8.051297e+00 -5.184391e+00 -4.151244e+00 -5.794719e+00 5.352144e+01 3.085542e-02 -2.590285e-02 2.399924e-02 3.857618e-03 5.277826e-03 -2.289191e-02 3.448874e-03 -6.205200e-03 -2.229751e-02 -2.240016e-03 -1.527910e-02 -1.541140e-02 5.271469e-02 -1.182792e-03 6.876257e-04 4.667711e-04 7.380514e-04 -5.207618e-04 4.746236e-04 -5.579826e-05 2.248049e-04 7.190169e-04 7.612044e-04 -7.061200e-04 2.623339e-04 -2.120852e-03
<VARIANCE> 39
 1.800114e+01 1.519127e+01 2.852846e+01 2.534797e+01 2.821024e+01 3.016612e+01 2.945425e+01 2.471487e+01 2.122073e+01 3.196048e+01 2.418761e+01 1.749120e+01 1.015027e+02 6.487466e-01 6.143028e-01 8.516928e-01 1.009298e+00 1.354946e+00 1.454864e+00 1.663765e+00 1.798384e+00 1.697595e+00 1.681930e+00 1.677035e+00 1.442426e+00 5.849039e-01 9.357016e-02 9.690709e-02 1.357299e-01 1.794185e-01 2.409799e-01 2.700560e-01 3.104460e-01 3.466015e-01 3.343903e-01 3.279697e-01 3.262125e-01 2.850542e-01 6.436716e-02
<GCONST> 9.578694e+01
<STATE> 3
<MEAN> 39
 -8.731349e+00 -6.690251e+00 -4.176391e+00 2.419755e+00 -2.747134e+00 -5.364809e+00 -1.505039e+00 -2.198910e+00 -8.051297e+00 -5.184391e+00 -4.151244e+00 -5.794719e+00 5.352144e+01 3.085542e-02 -2.590285e-02 2.399924e-02 3.857618e-03 5.277826e-03 -2.289191e-02 3.448874e-03 -6.205200e-03 -2.229751e-02 -2.240016e-03 -1.527910e-02 -1.541140e-02 5.271469e-02 -1.182792e-03 6.876257e-04 4.667711e-04 7.380514e-04 -5.207618e-04 4.746236e-04 -5.579826e-05 2.248049e-04 7.190169e-04 7.612044e-04 -7.061200e-04 2.623339e-04 -2.120852e-03
<VARIANCE> 39
 1.800114e+01 1.519127e+01 2.852846e+01 2.534797e+01 2.821024e+01 3.016612e+01 2.945425e+01 2.471487e+01 2.122073e+01 3.196048e+01 2.418761e+01 1.749120e+01 1.015027e+02 6.487466e-01 6.143028e-01 8.516928e-01 1.009298e+00 1.354946e+00 1.454864e+00 1.663765e+00 1.798384e+00 1.697595e+00 1.681930e+00 1.677035e+00 1.442426e+00 5.849039e-01 9.357016e-02 9.690709e-02 1.357299e-01 1.794185e-01 2.409799e-01 2.700560e-01 3.104460e-01 3.466015e-01 3.343903e-01 3.279697e-01 3.262125e-01 2.850542e-01 6.436716e-02
<GCONST> 9.578694e+01
<STATE> 4
<MEAN> 39
 -8.731349e+00 -6.690251e+00 -4.176391e+00 2.419755e+00 -2.747134e+00 -5.364809e+00 -1.505039e+00 -2.198910e+00 -8.051297e+00 -5.184391e+00 -4.151244e+00 -5.794719e+00 5.352144e+01 3.085542e-02 -2.590285e-02 2.399924e-02 3.857618e-03 5.277826e-03 -2.289191e-02 3.448874e-03 -6.205200e-03 -2.229751e-02 -2.240016e-03 -1.527910e-02 -1.541140e-02 5.271469e-02 -1.182792e-03 6.876257e-04 4.667711e-04 7.380514e-04 -5.207618e-04 4.746236e-04 -5.579826e-05 2.248049e-04 7.190169e-04 7.612044e-04 -7.061200e-04 2.623339e-04 -2.120852e-03
<VARIANCE> 39
 1.800114e+01 1.519127e+01 2.852846e+01 2.534797e+01 2.821024e+01 3.016612e+01 2.945425e+01 2.471487e+01 2.122073e+01 3.196048e+01 2.418761e+01 1.749120e+01 1.015027e+02 6.487466e-01 6.143028e-01 8.516928e-01 1.009298e+00 1.354946e+00 1.454864e+00 1.663765e+00 1.798384e+00 1.697595e+00 1.681930e+00 1.677035e+00 1.442426e+00 5.849039e-01 9.357016e-02 9.690709e-02 1.357299e-01 1.794185e-01 2.409799e-01 2.700560e-01 3.104460e-01 3.466015e-01 3.343903e-01 3.279697e-01 3.262125e-01 2.850542e-01 6.436716e-02
<GCONST> 9.578694e+01
<STATE> 5
<MEAN> 39
 -8.731349e+00 -6.690251e+00 -4.176391e+00 2.419755e+00 -2.747134e+00 -5.364809e+00 -1.505039e+00 -2.198910e+00 -8.051297e+00 -5.184391e+00 -4.151244e+00 -5.794719e+00 5.352144e+01 3.085542e-02 -2.590285e-02 2.399924e-02 3.857618e-03 5.277826e-03 -2.289191e-02 3.448874e-03 -6.205200e-03 -2.229751e-02 -2.240016e-03 -1.527910e-02 -1.541140e-02 5.271469e-02 -1.182792e-03 6.876257e-04 4.667711e-04 7.380514e-04 -5.207618e-04 4.746236e-04 -5.579826e-05 2.248049e-04 7.190169e-04 7.612044e-04 -7.061200e-04 2.623339e-04 -2.120852e-03
<VARIANCE> 39
 1.800114e+01 1.519127e+01 2.852846e+01 2.534797e+01 2.821024e+01 3.016612e+01 2.945425e+01 2.471487e+01 2.122073e+01 3.196048e+01 2.418761e+01 1.749120e+01 1.015027e+02 6.487466e-01 6.143028e-01 8.516928e-01 1.009298e+00 1.354946e+00 1.454864e+00 1.663765e+00 1.798384e+00 1.697595e+00 1.681930e+00 1.677035e+00 1.442426e+00 5.849039e-01 9.357016e-02 9.690709e-02 1.357299e-01 1.794185e-01 2.409799e-01 2.700560e-01 3.104460e-01 3.466015e-01 3.343903e-01 3.279697e-01 3.262125e-01 2.850542e-01 6.436716e-02
<GCONST> 9.578694e+01
<STATE> 6
<MEAN> 39
 -8.731349e+00 -6.690251e+00 -4.176391e+00 2.419755e+00 -2.747134e+00 -5.364809e+00 -1.505039e+00 -2.198910e+00 -8.051297e+00 -5.184391e+00 -4.151244e+00 -5.794719e+00 5.352144e+01 3.085542e-02 -2.590285e-02 2.399924e-02 3.857618e-03 5.277826e-03 -2.289191e-02 3.448874e-03 -6.205200e-03 -2.229751e-02 -2.240016e-03 -1.527910e-02 -1.541140e-02 5.271469e-02 -1.182792e-03 6.876257e-04 4.667711e-04 7.380514e-04 -5.207618e-04 4.746236e-04 -5.579826e-05 2.248049e-04 7.190169e-04 7.612044e-04 -7.061200e-04 2.623339e-04 -2.120852e-03
<VARIANCE> 39
 1.800114e+01 1.519127e+01 2.852846e+01 2.534797e+01 2.821024e+01 3.016612e+01 2.945425e+01 2.471487e+01 2.122073e+01 3.196048e+01 2.418761e+01 1.749120e+01 1.015027e+02 6.487466e-01 6.143028e-01 8.516928e-01 1.009298e+00 1.354946e+00 1.454864e+00 1.663765e+00 1.798384e+00 1.697595e+00 1.681930e+00 1.677035e+00 1.442426e+00 5.849039e-01 9.357016e-02 9.690709e-02 1.357299e-01 1.794185e-01 2.409799e-01 2.700560e-01 3.104460e-01 3.466015e-01 3.343903e-01 3.279697e-01 3.262125e-01 2.850542e-01 6.436716e-02
<GCONST> 9.578694e+01
<STATE> 7
<MEAN> 39
 -8.731349e+00 -6.690251e+00 -4.176391e+00 2.419755e+00 -2.747134e+00 -5.364809e+00 -1.505039e+00 -2.198910e+00 -8.051297e+00 -5.184391e+00 -4.151244e+00 -5.794719e+00 5.352144e+01 3.085542e-02 -2.590285e-02 2.399924e-02 3.857618e-03 5.277826e-03 -2.289191e-02 3.448874e-03 -6.205200e-03 -2.229751e-02 -2.240016e-03 -1.527910e-02 -1.541140e-02 5.271469e-02 -1.182792e-03 6.876257e-04 4.667711e-04 7.380514e-04 -5.207618e-04 4.746236e-04 -5.579826e-05 2.248049e-04 7.190169e-04 7.612044e-04 -7.061200e-04 2.623339e-04 -2.120852e-03
<VARIANCE> 39
 1.800114e+01 1.519127e+01 2.852846e+01 2.534797e+01 2.821024e+01 3.016612e+01 2.945425e+01 2.471487e+01 2.122073e+01 3.196048e+01 2.418761e+01 1.749120e+01 1.015027e+02 6.487466e-01 6.143028e-01 8.516928e-01 1.009298e+00 1.354946e+00 1.454864e+00 1.663765e+00 1.798384e+00 1.697595e+00 1.681930e+00 1.677035e+00 1.442426e+00 5.849039e-01 9.357016e-02 9.690709e-02 1.357299e-01 1.794185e-01 2.409799e-01 2.700560e-01 3.104460e-01 3.466015e-01 3.343903e-01 3.279697e-01 3.262125e-01 2.850542e-01 6.436716e-02
<GCONST> 9.578694e+01
<STATE> 8
<MEAN> 39
 -8.731349e+00 -6.690251e+00 -4.176391e+00 2.419755e+00 -2.747134e+00 -5.364809e+00 -1.505039e+00 -2.198910e+00 -8.051297e+00 -5.184391e+00 -4.151244e+00 -5.794719e+00 5.352144e+01 3.085542e-02 -2.590285e-02 2.399924e-02 3.857618e-03 5.277826e-03 -2.289191e-02 3.448874e-03 -6.205200e-03 -2.229751e-02 -2.240016e-03 -1.527910e-02 -1.541140e-02 5.271469e-02 -1.182792e-03 6.876257e-04 4.667711e-04 7.380514e-04 -5.207618e-04 4.746236e-04 -5.579826e-05 2.248049e-04 7.190169e-04 7.612044e-04 -7.061200e-04 2.623339e-04 -2.120852e-03
<VARIANCE> 39
 1.800114e+01 1.519127e+01 2.852846e+01 2.534797e+01 2.821024e+01 3.016612e+01 2.945425e+01 2.471487e+01 2.122073e+01 3.196048e+01 2.418761e+01 1.749120e+01 1.015027e+02 6.487466e-01 6.143028e-01 8.516928e-01 1.009298e+00 1.354946e+00 1.454864e+00 1.663765e+00 1.798384e+00 1.697595e+00 1.681930e+00 1.677035e+00 1.442426e+00 5.849039e-01 9.357016e-02 9.690709e-02 1.357299e-01 1.794185e-01 2.409799e-01 2.700560e-01 3.104460e-01 3.466015e-01 3.343903e-01 3.279697e-01 3.262125e-01 2.850542e-01 6.436716e-02
<GCONST> 9.578694e+01
<STATE> 9
<MEAN> 39
 -8.731349e+00 -6.690251e+00 -4.176391e+00 2.419755e+00 -2.747134e+00 -5.364809e+00 -1.505039e+00 -2.198910e+00 -8.051297e+00 -5.184391e+00 -4.151244e+00 -5.794719e+00 5.352144e+01 3.085542e-02 -2.590285e-02 2.399924e-02 3.857618e-03 5.277826e-03 -2.289191e-02 3.448874e-03 -6.205200e-03 -2.229751e-02 -2.240016e-03 -1.527910e-02 -1.541140e-02 5.271469e-02 -1.182792e-03 6.876257e-04 4.667711e-04 7.380514e-04 -5.207618e-04 4.746236e-04 -5.579826e-05 2.248049e-04 7.190169e-04 7.612044e-04 -7.061200e-04 2.623339e-04 -2.120852e-03
<VARIANCE> 39
 1.800114e+01 1.519127e+01 2.852846e+01 2.534797e+01 2.821024e+01 3.016612e+01 2.945425e+01 2.471487e+01 2.122073e+01 3.196048e+01 2.418761e+01 1.749120e+01 1.015027e+02 6.487466e-01 6.143028e-01 8.516928e-01 1.009298e+00 1.354946e+00 1.454864e+00 1.663765e+00 1.798384e+00 1.697595e+00 1.681930e+00 1.677035e+00 1.442426e+00 5.849039e-01 9.357016e-02 9.690709e-02 1.357299e-01 1.794185e-01 2.409799e-01 2.700560e-01 3.104460e-01 3.466015e-01 3.343903e-01 3.279697e-01 3.262125e-01 2.850542e-01 6.436716e-02
<GCONST> 9.578694e+01
<STATE> 10
<MEAN> 39
 -8.731349e+00 -6.690251e+00 -4.176391e+00 2.419755e+00 -2.747134e+00 -5.364809e+00 -1.505039e+00 -2.198910e+00 -8.051297e+00 -5.184391e+00 -4.151244e+00 -5.794719e+00 5.352144e+01 3.085542e-02 -2.590285e-02 2.399924e-02 3.857618e-03 5.277826e-03 -2.289191e-02 3.448874e-03 -6.205200e-03 -2.229751e-02 -2.240016e-03 -1.527910e-02 -1.541140e-02 5.271469e-02 -1.182792e-03 6.876257e-04 4.667711e-04 7.380514e-04 -5.207618e-04 4.746236e-04 -5.579826e-05 2.248049e-04 7.190169e-04 7.612044e-04 -7.061200e-04 2.623339e-04 -2.120852e-03
<VARIANCE> 39
 1.800114e+01 1.519127e+01 2.852846e+01 2.534797e+01 2.821024e+01 3.016612e+01 2.945425e+01 2.471487e+01 2.122073e+01 3.196048e+01 2.418761e+01 1.749120e+01 1.015027e+02 6.487466e-01 6.143028e-01 8.516928e-01 1.009298e+00 1.354946e+00 1.454864e+00 1.663765e+00 1.798384e+00 1.697595e+00 1.681930e+00 1.677035e+00 1.442426e+00 5.849039e-01 9.357016e-02 9.690709e-02 1.357299e-01 1.794185e-01 2.409799e-01 2.700560e-01 3.104460e-01 3.466015e-01 3.343903e-01 3.279697e-01 3.262125e-01 2.850542e-01 6.436716e-02
<GCONST> 9.578694e+01
<STATE> 11
<MEAN> 39
 -8.731349e+00 -6.690251e+00 -4.176391e+00 2.419755e+00 -2.747134e+00 -5.364809e+00 -1.505039e+00 -2.198910e+00 -8.051297e+00 -5.184391e+00 -4.151244e+00 -5.794719e+00 5.352144e+01 3.085542e-02 -2.590285e-02 2.399924e-02 3.857618e-03 5.277826e-03 -2.289191e-02 3.448874e-03 -6.205200e-03 -2.229751e-02 -2.240016e-03 -1.527910e-02 -1.541140e-02 5.271469e-02 -1.182792e-03 6.876257e-04 4.667711e-04 7.380514e-04 -5.207618e-04 4.746236e-04 -5.579826e-05 2.248049e-04 7.190169e-04 7.612044e-04 -7.061200e-04 2.623339e-04 -2.120852e-03
<VARIANCE> 39
 1.800114e+01 1.519127e+01 2.852846e+01 2.534797e+01 2.821024e+01 3.016612e+01 2.945425e+01 2.471487e+01 2.122073e+01 3.196048e+01 2.418761e+01 1.749120e+01 1.015027e+02 6.487466e-01 6.143028e-01 8.516928e-01 1.009298e+00 1.354946e+00 1.454864e+00 1.663765e+00 1.798384e+00 1.697595e+00 1.681930e+00 1.677035e+00 1.442426e+00 5.849039e-01 9.357016e-02 9.690709e-02 1.357299e-01 1.794185e-01 2.409799e-01 2.700560e-01 3.104460e-01 3.466015e-01 3.343903e-01 3.279697e-01 3.262125e-01 2.850542e-01 6.436716e-02
<GCONST> 9.578694e+01
<TRANSP> 12
 0.000000e+00 1.000000e+00 0.000000e+00 0.000000e+00 0.000000e+00 0.000000e+00 0.000000e+00 0.000000e+00 0.000000e+00 0.000000e+00 0.000000e+00 0.000000e+00
 0.000000e+00 6.000000e-01 4.000000e-01 0.000000e+00 0.000000e+00 0.000000e+00 0.000000e+00 0.000000e+00 0.000000e+00 0.000000e+00 0.000000e+00 0.000000e+00
 0.000000e+00 0.000000e+00 6.000000e-01 4.000000e-01 0.000000e+00 0.000000e+00 0.000000e+00 0.000000e+00 0.000000e+00 0.000000e+00 0.000000e+00 0.000000e+00
 0.000000e+00 0.000000e+00 0.000000e+00 6.000000e-01 4.000000e-01 0.000000e+00 0.000000e+00 0.000000e+00 0.000000e+00 0.000000e+00 0.000000e+00 0.000000e+00
 0.000000e+00 0.000000e+00 0.000000e+00 0.000000e+00 6.000000e-01 4.000000e-01 0.000000e+00 0.000000e+00 0.000000e+00 0.000000e+00 0.000000e+00 0.000000e+00
 0.000000e+00 0.000000e+00 0.000000e+00 0.000000e+00 0.000000e+00 6.000000e-01 4.000000e-01 0.000000e+00 0.000000e+00 0.000000e+00 0.000000e+00 0.000000e+00
 0.000000e+00 0.000000e+00 0.000000e+00 0.000000e+00 0.000000e+00 0.000000e+00 6.000000e-01 4.000000e-01 0.000000e+00 0.000000e+00 0.000000e+00 0.000000e+00
 0.000000e+00 0.000000e+00 0.000000e+00 0.000000e+00 0.000000e+00 0.000000e+00 0.000000e+00 6.000000e-01 4.000000e-01 0.000000e+00 0.000000e+00 0.000000e+00
 0.000000e+00 0.000000e+00 0.000000e+00 0.000000e+00 0.000000e+00 0.000000e+00 0.000000e+00 0.000000e+00 6.000000e-01 4.000000e-01 0.000000e+00 0.000000e+00
 0.000000e+00 0.000000e+00 0.000000e+00 0.000000e+00 0.000000e+00 0.000000e+00 0.000000e+00 0.000000e+00 0.000000e+00 6.000000e-01 4.000000e-01 0.000000e+00
 0.000000e+00 0.000000e+00 0.000000e+00 0.000000e+00 0.000000e+00 0.000000e+00 0.000000e+00 0.000000e+00 0.000000e+00 0.000000e+00 6.000000e-01 4.000000e-01
 0.000000e+00 0.000000e+00 0.000000e+00 0.000000e+00 0.000000e+00 0.000000e+00 0.000000e+00 0.000000e+00 0.000000e+00 0.000000e+00 0.000000e+00 0.000000e+00
<ENDHMM>
~h "ONE"
<BEGINHMM>
<NUMSTATES> 12
<STATE> 2
<MEAN> 39
 -8.731349e+00 -6.690251e+00 -4.176391e+00 2.419755e+00 -2.747134e+00 -5.364809e+00 -1.505039e+00 -2.198910e+00 -8.051297e+00 -5.184391e+00 -4.151244e+00 -5.794719e+00 5.352144e+01 3.085542e-02 -2.590285e-02 2.399924e-02 3.857618e-03 5.277826e-03 -2.289191e-02 3.448874e-03 -6.205200e-03 -2.229751e-02 -2.240016e-03 -1.527910e-02 -1.541140e-02 5.271469e-02 -1.182792e-03 6.876257e-04 4.667711e-04 7.380514e-04 -5.207618e-04 4.746236e-04 -5.579826e-05 2.248049e-04 7.190169e-04 7.612044e-04 -7.061200e-04 2.623339e-04 -2.120852e-03
<VARIANCE> 39
 1.800114e+01 1.519127e+01 2.852846e+01 2.534797e+01 2.821024e+01 3.016612e+01 2.945425e+01 2.471487e+01 2.122073e+01 3.196048e+01 2.418761e+01 1.749120e+01 1.015027e+02 6.487466e-01 6.143028e-01 8.516928e-01 1.009298e+00 1.354946e+00 1.454864e+00 1.663765e+00 1.798384e+00 1.697595e+00 1.681930e+00 1.677035e+00 1.442426e+00 5.849039e-01 9.357016e-02 9.690709e-02 1.357299e-01 1.794185e-01 2.409799e-01 2.700560e-01 3.104460e-01 3.466015e-01 3.343903e-01 3.279697e-01 3.262125e-01 2.850542e-01 6.436716e-02
<GCONST> 9.578694e+01
<STATE> 3
<MEAN> 39
 -8.731349e+00 -6.690251e+00 -4.176391e+00 2.419755e+00 -2.747134e+00 -5.364809e+00 -1.505039e+00 -2.198910e+00 -8.051297e+00 -5.184391e+00 -4.151244e+00 -5.794719e+00 5.352144e+01 3.085542e-02 -2.590285e-02 2.399924e-02 3.857618e-03 5.277826e-03 -2.289191e-02 3.448874e-03 -6.205200e-03 -2.229751e-02 -2.240016e-03 -1.527910e-02 -1.541140e-02 5.271469e-02 -1.182792e-03 6.876257e-04 4.667711e-04 7.380514e-04 -5.207618e-04 4.746236e-04 -5.579826e-05 2.248049e-04 7.190169e-04 7.612044e-04 -7.061200e-04 2.623339e-04 -2.120852e-03
<VARIANCE> 39
 1.800114e+01 1.519127e+01 2.852846e+01 2.534797e+01 2.821024e+01 3.016612e+01 2.945425e+01 2.471487e+01 2.122073e+01 3.196048e+01 2.418761e+01 1.749120e+01 1.015027e+02 6.487466e-01 6.143028e-01 8.516928e-01 1.009298e+00 1.354946e+00 1.454864e+00 1.663765e+00 1.798384e+00 1.697595e+00 1.681930e+00 1.677035e+00 1.442426e+00 5.849039e-01 9.357016e-02 9.690709e-02 1.357299e-01 1.794185e-01 2.409799e-01 2.700560e-01 3.104460e-01 3.466015e-01 3.343903e-01 3.279697e-01 3.262125e-01 2.850542e-01 6.436716e-02
<GCONST> 9.578694e+01
<STATE> 4
<MEAN> 39
 -8.731349e+00 -6.690251e+00 -4.176391e+00 2.419755e+00 -2.747134e+00 -5.364809e+00 -1.505039e+00 -2.198910e+00 -8.051297e+00 -5.184391e+00 -4.151244e+00 -5.794719e+00 5.352144e+01 3.085542e-02 -2.590285e-02 2.399924e-02 3.857618e-03 5.277826e-03 -2.289191e-02 3.448874e-03 -6.205200e-03 -2.229751e-02 -2.240016e-03 -1.527910e-02 -1.541140e-02 5.271469e-02 -1.182792e-03 6.876257e-04 4.667711e-04 7.380514e-04 -5.207618e-04 4.746236e-04 -5.579826e-05 2.248049e-04 7.190169e-04 7.612044e-04 -7.061200e-04 2.623339e-04 -2.120852e-03
<VARIANCE> 39
 1.800114e+01 1.519127e+01 2.852846e+01 2.534797e+01 2.821024e+01 3.016612e+01 2.945425e+01 2.471487e+01 2.122073e+01 3.196048e+01 2.418761e+01 1.749120e+01 1.015027e+02 6.487466e-01 6.143028e-01 8.516928e-01 1.009298e+00 1.354946e+00 1.454864e+00 1.663765e+00 1.798384e+00 1.697595e+00 1.681930e+00 1.677035e+00 1.442426e+00 5.849039e-01 9.357016e-02 9.690709e-02 1.357299e-01 1.794185e-01 2.409799e-01 2.700560e-01 3.104460e-01 3.466015e-01 3.343903e-01 3.279697e-01 3.262125e-01 2.850542e-01 6.436716e-02
<GCONST> 9.578694e+01
<STATE> 5
<MEAN> 39
 -8.731349e+00 -6.690251e+00 -4.176391e+00 2.419755e+00 -2.747134e+00 -5.364809e+00 -1.505039e+00 -2.198910e+00 -8.051297e+00 -5.184391e+00 -4.151244e+00 -5.794719e+00 5.352144e+01 3.085542e-02 -2.590285e-02 2.399924e-02 3.857618e-03 5.277826e-03 -2.289191e-02 3.448874e-03 -6.205200e-03 -2.229751e-02 -2.240016e-03 -1.527910e-02 -1.541140e-02 5.271469e-02 -1.182792e-03 6.876257e-04 4.667711e-04 7.380514e-04 -5.207618e-04 4.746236e-04 -5.579826e-05 2.248049e-04 7.190169e-04 7.612044e-04 -7.061200e-04 2.623339e-04 -2.120852e-03
<VARIANCE> 39
 1.800114e+01 1.519127e+01 2.852846e+01 2.534797e+01 2.821024e+01 3.016612e+01 2.945425e+01 2.471487e+01 2.122073e+01 3.196048e+01 2.418761e+01 1.749120e+01 1.015027e+02 6.487466e-01 6.143028e-01 8.516928e-01 1.009298e+00 1.354946e+00 1.454864e+00 1.663765e+00 1.798384e+00 1.697595e+00 1.681930e+00 1.677035e+00 1.442426e+00 5.849039e-01 9.357016e-02 9.690709e-02 1.357299e-01 1.794185e-01 2.409799e-01 2.700560e-01 3.104460e-01 3.466015e-01 3.343903e-01 3.279697e-01 3.262125e-01 2.850542e-01 6.436716e-02
<GCONST> 9.578694e+01
<STATE> 6
<MEAN> 39
 -8.731349e+00 -6.690251e+00 -4.176391e+00 2.419755e+00 -2.747134e+00 -5.364809e+00 -1.505039e+00 -2.198910e+00 -8.051297e+00 -5.184391e+00 -4.151244e+00 -5.794719e+00 5.352144e+01 3.085542e-02 -2.590285e-02 2.399924e-02 3.857618e-03 5.277826e-03 -2.289191e-02 3.448874e-03 -6.205200e-03 -2.229751e-02 -2.240016e-03 -1.527910e-02 -1.541140e-02 5.271469e-02 -1.182792e-03 6.876257e-04 4.667711e-04 7.380514e-04 -5.207618e-04 4.746236e-04 -5.579826e-05 2.248049e-04 7.190169e-04 7.612044e-04 -7.061200e-04 2.623339e-04 -2.120852e-03
<VARIANCE> 39
 1.800114e+01 1.519127e+01 2.852846e+01 2.534797e+01 2.821024e+01 3.016612e+01 2.945425e+01 2.471487e+01 2.122073e+01 3.196048e+01 2.418761e+01 1.749120e+01 1.015027e+02 6.487466e-01 6.143028e-01 8.516928e-01 1.009298e+00 1.354946e+00 1.454864e+00 1.663765e+00 1.798384e+00 1.697595e+00 1.681930e+00 1.677035e+00 1.442426e+00 5.849039e-01 9.357016e-02 9.690709e-02 1.357299e-01 1.794185e-01 2.409799e-01 2.700560e-01 3.104460e-01 3.466015e-01 3.343903e-01 3.279697e-01 3.262125e-01 2.850542e-01 6.436716e-02
<GCONST> 9.578694e+01
<STATE> 7
<MEAN> 39
 -8.731349e+00 -6.690251e+00 -4.176391e+00 2.419755e+00 -2.747134e+00 -5.364809e+00 -1.505039e+00 -2.198910e+00 -8.051297e+00 -5.184391e+00 -4.151244e+00 -5.794719e+00 5.352144e+01 3.085542e-02 -2.590285e-02 2.399924e-02 3.857618e-03 5.277826e-03 -2.289191e-02 3.448874e-03 -6.205200e-03 -2.229751e-02 -2.240016e-03 -1.527910e-02 -1.541140e-02 5.271469e-02 -1.182792e-03 6.876257e-04 4.667711e-04 7.380514e-04 -5.207618e-04 4.746236e-04 -5.579826e-05 2.248049e-04 7.190169e-04 7.612044e-04 -7.061200e-04 2.623339e-04 -2.120852e-03
<VARIANCE> 39
 1.800114e+01 1.519127e+01 2.852846e+01 2.534797e+01 2.821024e+01 3.016612e+01 2.945425e+01 2.471487e+01 2.122073e+01 3.196048e+01 2.418761e+01 1.749120e+01 1.015027e+02 6.487466e-01 6.143028e-01 8.516928e-01 1.009298e+00 1.354946e+00 1.454864e+00 1.663765e+00 1.798384e+00 1.697595e+00 1.681930e+00 1.677035e+00 1.442426e+00 5.849039e-01 9.357016e-02 9.690709e-02 1.357299e-01 1.794185e-01 2.409799e-01 2.700560e-01 3.104460e-01 3.466015e-01 3.343903e-01 3.279697e-01 3.262125e-01 2.850542e-01 6.436716e-02
<GCONST> 9.578694e+01
<STATE> 8
<MEAN> 39
 -8.731349e+00 -6.690251e+00 -4.176391e+00 2.419755e+00 -2.747134e+00 -5.364809e+00 -1.505039e+00 -2.198910e+00 -8.051297e+00 -5.184391e+00 -4.151244e+00 -5.794719e+00 5.352144e+01 3.085542e-02 -2.590285e-02 2.399924e-02 3.857618e-03 5.277826e-03 -2.289191e-02 3.448874e-03 -6.205200e-03 -2.229751e-02 -2.240016e-03 -1.527910e-02 -1.541140e-02 5.271469e-02 -1.182792e-03 6.876257e-04 4.667711e-04 7.380514e-04 -5.207618e-04 4.746236e-04 -5.579826e-05 2.248049e-04 7.190169e-04 7.612044e-04 -7.061200e-04 2.623339e-04 -2.120852e-03
<VARIANCE> 39
 1.800114e+01 1.519127e+01 2.852846e+01 2.534797e+01 2.821024e+01 3.016612e+01 2.945425e+01 2.471487e+01 2.122073e+01 3.196048e+01 2.418761e+01 1.749120e+01 1.015027e+02 6.487466e-01 6.143028e-01 8.516928e-01 1.009298e+00 1.354946e+00 1.454864e+00 1.663765e+00 1.798384e+00 1.697595e+00 1.681930e+00 1.677035e+00 1.442426e+00 5.849039e-01 9.357016e-02 9.690709e-02 1.357299e-01 1.794185e-01 2.409799e-01 2.700560e-01 3.104460e-01 3.466015e-01 3.343903e-01 3.279697e-01 3.262125e-01 2.850542e-01 6.436716e-02
<GCONST> 9.578694e+01
<STATE> 9
<MEAN> 39
 -8.731349e+00 -6.690251e+00 -4.176391e+00 2.419755e+00 -2.747134e+00 -5.364809e+00 -1.505039e+00 -2.198910e+00 -8.051297e+00 -5.184391e+00 -4.151244e+00 -5.794719e+00 5.352144e+01 3.085542e-02 -2.590285e-02 2.399924e-02 3.857618e-03 5.277826e-03 -2.289191e-02 3.448874e-03 -6.205200e-03 -2.229751e-02 -2.240016e-03 -1.527910e-02 -1.541140e-02 5.271469e-02 -1.182792e-03 6.876257e-04 4.667711e-04 7.380514e-04 -5.207618e-04 4.746236e-04 -5.579826e-05 2.248049e-04 7.190169e-04 7.612044e-04 -7.061200e-04 2.623339e-04 -2.120852e-03
<VARIANCE> 39
 1.800114e+01 1.519127e+01 2.852846e+01 2.534797e+01 2.821024e+01 3.016612e+01 2.945425e+01 2.471487e+01 2.122073e+01 3.196048e+01 2.418761e+01 1.749120e+01 1.015027e+02 6.487466e-01 6.143028e-01 8.516928e-01 1.009298e+00 1.354946e+00 1.454864e+00 1.663765e+00 1.798384e+00 1.697595e+00 1.681930e+00 1.677035e+00 1.442426e+00 5.849039e-01 9.357016e-02 9.690709e-02 1.357299e-01 1.794185e-01 2.409799e-01 2.700560e-01 3.104460e-01 3.466015e-01 3.343903e-01 3.279697e-01 3.262125e-01 2.850542e-01 6.436716e-02
<GCONST> 9.578694e+01
<STATE> 10
<MEAN> 39
 -8.731349e+00 -6.690251e+00 -4.176391e+00 2.419755e+00 -2.747134e+00 -5.364809e+00 -1.505039e+00 -2.198910e+00 -8.051297e+00 -5.184391e+00 -4.151244e+00 -5.794719e+00 5.352144e+01 3.085542e-02 -2.590285e-02 2.399924e-02 3.857618e-03 5.277826e-03 -2.289191e-02 3.448874e-03 -6.205200e-03 -2.229751e-02 -2.240016e-03 -1.527910e-02 -1.541140e-02 5.271469e-02 -1.182792e-03 6.876257e-04 4.667711e-04 7.380514e-04 -5.207618e-04 4.746236e-04 -5.579826e-05 2.248049e-04 7.190169e-04 7.612044e-04 -7.061200e-04 2.623339e-04 -2.120852e-03
<VARIANCE> 39
 1.800114e+01 1.519127e+01 2.852846e+01 2.534797e+01 2.821024e+01 3.016612e+01 2.945425e+01 2.471487e+01 2.122073e+01 3.196048e+01 2.418761e+01 1.749120e+01 1.015027e+02 6.487466e-01 6.143028e-01 8.516928e-01 1.009298e+00 1.354946e+00 1.454864e+00 1.663765e+00 1.798384e+00 1.697595e+00 1.681930e+00 1.677035e+00 1.442426e+00 5.849039e-01 9.357016e-02 9.690709e-02 1.357299e-01 1.794185e-01 2.409799e-01 2.700560e-01 3.104460e-01 3.466015e-01 3.343903e-01 3.279697e-01 3.262125e-01 2.850542e-01 6.436716e-02
<GCONST> 9.578694e+01
<STATE> 11
<MEAN> 39
 -8.731349e+00 -6.690251e+00 -4.176391e+00 2.419755e+00 -2.747134e+00 -5.364809e+00 -1.505039e+00 -2.198910e+00 -8.051297e+00 -5.184391e+00 -4.151244e+00 -5.794719e+00 5.352144e+01 3.085542e-02 -2.590285e-02 2.399924e-02 3.857618e-03 5.277826e-03 -2.289191e-02 3.448874e-03 -6.205200e-03 -2.229751e-02 -2.240016e-03 -1.527910e-02 -1.541140e-02 5.271469e-02 -1.182792e-03 6.876257e-04 4.667711e-04 7.380514e-04 -5.207618e-04 4.746236e-04 -5.579826e-05 2.248049e-04 7.190169e-04 7.612044e-04 -7.061200e-04 2.623339e-04 -2.120852e-03
<VARIANCE> 39
 1.800114e+01 1.519127e+01 2.852846e+01 2.534797e+01 2.821024e+01 3.016612e+01 2.945425e+01 2.471487e+01 2.122073e+01 3.196048e+01 2.418761e+01 1.749120e+01 1.015027e+02 6.487466e-01 6.143028e-01 8.516928e-01 1.009298e+00 1.354946e+00 1.454864e+00 1.663765e+00 1.798384e+00 1.697595e+00 1.681930e+00 1.677035e+00 1.442426e+00 5.849039e-01 9.357016e-02 9.690709e-02 1.357299e-01 1.794185e-01 2.409799e-01 2.700560e-01 3.104460e-01 3.466015e-01 3.343903e-01 3.279697e-01 3.262125e-01 2.850542e-01 6.436716e-02
<GCONST> 9.578694e+01
<TRANSP> 12
 0.000000e+00 1.000000e+00 0.000000e+00 0.000000e+00 0.000000e+00 0.000000e+00 0.000000e+00 0.000000e+00 0.000000e+00 0.000000e+00 0.000000e+00 0.000000e+00
 0.000000e+00 6.000000e-01 4.000000e-01 0.000000e+00 0.000000e+00 0.000000e+00 0.000000e+00 0.000000e+00 0.000000e+00 0.000000e+00 0.000000e+00 0.000000e+00
 0.000000e+00 0.000000e+00 6.000000e-01 4.000000e-01 0.000000e+00 0.000000e+00 0.000000e+00 0.000000e+00 0.000000e+00 0.000000e+00 0.000000e+00 0.000000e+00
 0.000000e+00 0.000000e+00 0.000000e+00 6.000000e-01 4.000000e-01 0.000000e+00 0.000000e+00 0.000000e+00 0.000000e+00 0.000000e+00 0.000000e+00 0.000000e+00
 0.000000e+00 0.000000e+00 0.000000e+00 0.000000e+00 6.000000e-01 4.000000e-01 0.000000e+00 0.000000e+00 0.000000e+00 0.000000e+00 0.000000e+00 0.000000e+00
 0.000000e+00 0.000000e+00 0.000000e+00 0.000000e+00 0.000000e+00 6.000000e-01 4.000000e-01 0.000000e+00 0.000000e+00 0.000000e+00 0.000000e+00 0.000000e+00
 0.000000e+00 0.000000e+00 0.000000e+00 0.000000e+00 0.000000e+00 0.000000e+00 6.000000e-01 4.000000e-01 0.000000e+00 0.000000e+00 0.000000e+00 0.000000e+00
 0.000000e+00 0.000000e+00 0.000000e+00 0.000000e+00 0.000000e+00 0.000000e+00 0.000000e+00 6.000000e-01 4.000000e-01 0.000000e+00 0.000000e+00 0.000000e+00
 0.000000e+00 0.000000e+00 0.000000e+00 0.000000e+00 0.000000e+00 0.000000e+00 0.000000e+00 0.000000e+00 6.000000e-01 4.000000e-01 0.000000e+00 0.000000e+00
 0.000000e+00 0.000000e+00 0.000000e+00 0.000000e+00 0.000000e+00 0.000000e+00 0.000000e+00 0.000000e+00 0.000000e+00 6.000000e-01 4.000000e-01 0.000000e+00
 0.000000e+00 0.000000e+00 0.000000e+00 0.000000e+00 0.000000e+00 0.000000e+00 0.000000e+00 0.000000e+00 0.000000e+00 0.000000e+00 6.000000e-01 4.000000e-01
 0.000000e+00 0.000000e+00 0.000000e+00 0.000000e+00 0.000000e+00 0.000000e+00 0.000000e+00 0.000000e+00 0.000000e+00 0.000000e+00 0.000000e+00 0.000000e+00
<ENDHMM>
~h "TWO"
<BEGINHMM>
<NUMSTATES> 12
<STATE> 2
<MEAN> 39
 -8.731349e+00 -6.690251e+00 -4.176391e+00 2.419755e+00 -2.747134e+00 -5.364809e+00 -1.505039e+00 -2.198910e+00 -8.051297e+00 -5.184391e+00 -4.151244e+00 -5.794719e+00 5.352144e+01 3.085542e-02 -2.590285e-02 2.399924e-02 3.857618e-03 5.277826e-03 -2.289191e-02 3.448874e-03 -6.205200e-03 -2.229751e-02 -2.240016e-03 -1.527910e-02 -1.541140e-02 5.271469e-02 -1.182792e-03 6.876257e-04 4.667711e-04 7.380514e-04 -5.207618e-04 4.746236e-04 -5.579826e-05 2.248049e-04 7.190169e-04 7.612044e-04 -7.061200e-04 2.623339e-04 -2.120852e-03
<VARIANCE> 39
 1.800114e+01 1.519127e+01 2.852846e+01 2.534797e+01 2.821024e+01 3.016612e+01 2.945425e+01 2.471487e+01 2.122073e+01 3.196048e+01 2.418761e+01 1.749120e+01 1.015027e+02 6.487466e-01 6.143028e-01 8.516928e-01 1.009298e+00 1.354946e+00 1.454864e+00 1.663765e+00 1.798384e+00 1.697595e+00 1.681930e+00 1.677035e+00 1.442426e+00 5.849039e-01 9.357016e-02 9.690709e-02 1.357299e-01 1.794185e-01 2.409799e-01 2.700560e-01 3.104460e-01 3.466015e-01 3.343903e-01 3.279697e-01 3.262125e-01 2.850542e-01 6.436716e-02
<GCONST> 9.578694e+01
<STATE> 3
<MEAN> 39
 -8.731349e+00 -6.690251e+00 -4.176391e+00 2.419755e+00 -2.747134e+00 -5.364809e+00 -1.505039e+00 -2.198910e+00 -8.051297e+00 -5.184391e+00 -4.151244e+00 -5.794719e+00 5.352144e+01 3.085542e-02 -2.590285e-02 2.399924e-02 3.857618e-03 5.277826e-03 -2.289191e-02 3.448874e-03 -6.205200e-03 -2.229751e-02 -2.240016e-03 -1.527910e-02 -1.541140e-02 5.271469e-02 -1.182792e-03 6.876257e-04 4.667711e-04 7.380514e-04 -5.207618e-04 4.746236e-04 -5.579826e-05 2.248049e-04 7.190169e-04 7.612044e-04 -7.061200e-04 2.623339e-04 -2.120852e-03
<VARIANCE> 39
 1.800114e+01 1.519127e+01 2.852846e+01 2.534797e+01 2.821024e+01 3.016612e+01 2.945425e+01 2.471487e+01 2.122073e+01 3.196048e+01 2.418761e+01 1.749120e+01 1.015027e+02 6.487466e-01 6.143028e-01 8.516928e-01 1.009298e+00 1.354946e+00 1.454864e+00 1.663765e+00 1.798384e+00 1.697595e+00 1.681930e+00 1.677035e+00 1.442426e+00 5.849039e-01 9.357016e-02 9.690709e-02 1.357299e-01 1.794185e-01 2.409799e-01 2.700560e-01 3.104460e-01 3.466015e-01 3.343903e-01 3.279697e-01 3.262125e-01 2.850542e-01 6.436716e-02
<GCONST> 9.578694e+01
<STATE> 4
<MEAN> 39
 -8.731349e+00 -6.690251e+00 -4.176391e+00 2.419755e+00 -2.747134e+00 -5.364809e+00 -1.505039e+00 -2.198910e+00 -8.051297e+00 -5.184391e+00 -4.151244e+00 -5.794719e+00 5.352144e+01 3.085542e-02 -2.590285e-02 2.399924e-02 3.857618e-03 5.277826e-03 -2.289191e-02 3.448874e-03 -6.205200e-03 -2.229751e-02 -2.240016e-03 -1.527910e-02 -1.541140e-02 5.271469e-02 -1.182792e-03 6.876257e-04 4.667711e-04 7.380514e-04 -5.207618e-04 4.746236e-04 -5.579826e-05 2.248049e-04 7.190169e-04 7.612044e-04 -7.061200e-04 2.623339e-04 -2.120852e-03
<VARIANCE> 39
 1.800114e+01 1.519127e+01 2.852846e+01 2.534797e+01 2.821024e+01 3.016612e+01 2.945425e+01 2.471487e+01 2.122073e+01 3.196048e+01 2.418761e+01 1.749120e+01 1.015027e+02 6.487466e-01 6.143028e-01 8.516928e-01 1.009298e+00 1.354946e+00 1.454864e+00 1.663765e+00 1.798384e+00 1.697595e+00 1.681930e+00 1.677035e+00 1.442426e+00 5.849039e-01 9.357016e-02 9.690709e-02 1.357299e-01 1.794185e-01 2.409799e-01 2.700560e-01 3.104460e-01 3.466015e-01 3.343903e-01 3.279697e-01 3.262125e-01 2.850542e-01 6.436716e-02
<GCONST> 9.578694e+01
<STATE> 5
<MEAN> 39
 -8.731349e+00 -6.690251e+00 -4.176391e+00 2.419755e+00 -2.747134e+00 -5.364809e+00 -1.505039e+00 -2.198910e+00 -8.051297e+00 -5.184391e+00 -4.151244e+00 -5.794719e+00 5.352144e+01 3.085542e-02 -2.590285e-02 2.399924e-02 3.857618e-03 5.277826e-03 -2.289191e-02 3.448874e-03 -6.205200e-03 -2.229751e-02 -2.240016e-03 -1.527910e-02 -1.541140e-02 5.271469e-02 -1.182792e-03 6.876257e-04 4.667711e-04 7.380514e-04 -5.207618e-04 4.746236e-04 -5.579826e-05 2.248049e-04 7.190169e-04 7.612044e-04 -7.061200e-04 2.623339e-04 -2.120852e-03
<VARIANCE> 39
 1.800114e+01 1.519127e+01 2.852846e+01 2.534797e+01 2.821024e+01 3.016612e+01 2.945425e+01 2.471487e+01 2.122073e+01 3.196048e+01 2.418761e+01 1.749120e+01 1.015027e+02 6.487466e-01 6.143028e-01 8.516928e-01 1.009298e+00 1.354946e+00 1.454864e+00 1.663765e+00 1.798384e+00 1.697595e+00 1.681930e+00 1.677035e+00 1.442426e+00 5.849039e-01 9.357016e-02 9.690709e-02 1.357299e-01 1.794185e-01 2.409799e-01 2.700560e-01 3.104460e-01 3.466015e-01 3.343903e-01 3.279697e-01 3.262125e-01 2.850542e-01 6.436716e-02
<GCONST> 9.578694e+01
<STATE> 6
<MEAN> 39
 -8.731349e+00 -6.690251e+00 -4.176391e+00 2.419755e+00 -2.747134e+00 -5.364809e+00 -1.505039e+00 -2.198910e+00 -8.051297e+00 -5.184391e+00 -4.151244e+00 -5.794719e+00 5.352144e+01 3.085542e-02 -2.590285e-02 2.399924e-02 3.857618e-03 5.277826e-03 -2.289191e-02 3.448874e-03 -6.205200e-03 -2.229751e-02 -2.240016e-03 -1.527910e-02 -1.541140e-02 5.271469e-02 -1.182792e-03 6.876257e-04 4.667711e-04 7.380514e-04 -5.207618e-04 4.746236e-04 -5.579826e-05 2.248049e-04 7.190169e-04 7.612044e-04 -7.061200e-04 2.623339e-04 -2.120852e-03
<VARIANCE> 39
 1.800114e+01 1.519127e+01 2.852846e+01 2.534797e+01 2.821024e+01 3.016612e+01 2.945425e+01 2.471487e+01 2.122073e+01 3.196048e+01 2.418761e+01 1.749120e+01 1.015027e+02 6.487466e-01 6.143028e-01 8.516928e-01 1.009298e+00 1.354946e+00 1.454864e+00 1.663765e+00 1.798384e+00 1.697595e+00 1.681930e+00 1.677035e+00 1.442426e+00 5.849039e-01 9.357016e-02 9.690709e-02 1.357299e-01 1.794185e-01 2.409799e-01 2.700560e-01 3.104460e-01 3.466015e-01 3.343903e-01 3.279697e-01 3.262125e-01 2.850542e-01 6.436716e-02
<GCONST> 9.578694e+01
<STATE> 7
<MEAN> 39
 -8.731349e+00 -6.690251e+00 -4.176391e+00 2.419755e+00 -2.747134e+00 -5.364809e+00 -1.505039e+00 -2.198910e+00 -8.051297e+00 -5.184391e+00 -4.151244e+00 -5.794719e+00 5.352144e+01 3.085542e-02 -2.590285e-02 2.399924e-02 3.857618e-03 5.277826e-03 -2.289191e-02 3.448874e-03 -6.205200e-03 -2.229751e-02 -2.240016e-03 -1.527910e-02 -1.541140e-02 5.271469e-02 -1.182792e-03 6.876257e-04 4.667711e-04 7.380514e-04 -5.207618e-04 4.746236e-04 -5.579826e-05 2.248049e-04 7.190169e-04 7.612044e-04 -7.061200e-04 2.623339e-04 -2.120852e-03
<VARIANCE> 39
 1.800114e+01 1.519127e+01 2.852846e+01 2.534797e+01 2.821024e+01 3.016612e+01 2.945425e+01 2.471487e+01 2.122073e+01 3.196048e+01 2.418761e+01 1.749120e+01 1.015027e+02 6.487466e-01 6.143028e-01 8.516928e-01 1.009298e+00 1.354946e+00 1.454864e+00 1.663765e+00 1.798384e+00 1.697595e+00 1.681930e+00 1.677035e+00 1.442426e+00 5.849039e-01 9.357016e-02 9.690709e-02 1.357299e-01 1.794185e-01 2.409799e-01 2.700560e-01 3.104460e-01 3.466015e-01 3.343903e-01 3.279697e-01 3.262125e-01 2.850542e-01 6.436716e-02
<GCONST> 9.578694e+01
<STATE> 8
<MEAN> 39
 -8.731349e+00 -6.690251e+00 -4.176391e+00 2.419755e+00 -2.747134e+00 -5.364809e+00 -1.505039e+00 -2.198910e+00 -8.051297e+00 -5.184391e+00 -4.151244e+00 -5.794719e+00 5.352144e+01 3.085542e-02 -2.590285e-02 2.399924e-02 3.857618e-03 5.277826e-03 -2.289191e-02 3.448874e-03 -6.205200e-03 -2.229751e-02 -2.240016e-03 -1.527910e-02 -1.541140e-02 5.271469e-02 -1.182792e-03 6.876257e-04 4.667711e-04 7.380514e-04 -5.207618e-04 4.746236e-04 -5.579826e-05 2.248049e-04 7.190169e-04 7.612044e-04 -7.061200e-04 2.623339e-04 -2.120852e-03
<VARIANCE> 39
 1.800114e+01 1.519127e+01 2.852846e+01 2.534797e+01 2.821024e+01 3.016612e+01 2.945425e+01 2.471487e+01 2.122073e+01 3.196048e+01 2.418761e+01 1.749120e+01 1.015027e+02 6.487466e-01 6.143028e-01 8.516928e-01 1.009298e+00 1.354946e+00 1.454864e+00 1.663765e+00 1.798384e+00 1.697595e+00 1.681930e+00 1.677035e+00 1.442426e+00 5.849039e-01 9.357016e-02 9.690709e-02 1.357299e-01 1.794185e-01 2.409799e-01 2.700560e-01 3.104460e-01 3.466015e-01 3.343903e-01 3.279697e-01 3.262125e-01 2.850542e-01 6.436716e-02
<GCONST> 9.578694e+01
<STATE> 9
<MEAN> 39
 -8.731349e+00 -6.690251e+00 -4.176391e+00 2.419755e+00 -2.747134e+00 -5.364809e+00 -1.505039e+00 -2.198910e+00 -8.051297e+00 -5.184391e+00 -4.151244e+00 -5.794719e+00 5.352144e+01 3.085542e-02 -2.590285e-02 2.399924e-02 3.857618e-03 5.277826e-03 -2.289191e-02 3.448874e-03 -6.205200e-03 -2.229751e-02 -2.240016e-03 -1.527910e-02 -1.541140e-02 5.271469e-02 -1.182792e-03 6.876257e-04 4.667711e-04 7.380514e-04 -5.207618e-04 4.746236e-04 -5.579826e-05 2.248049e-04 7.190169e-04 7.612044e-04 -7.061200e-04 2.623339e-04 -2.120852e-03
<VARIANCE> 39
 1.800114e+01 1.519127e+01 2.852846e+01 2.534797e+01 2.821024e+01 3.016612e+01 2.945425e+01 2.471487e+01 2.122073e+01 3.196048e+01 2.418761e+01 1.749120e+01 1.015027e+02 6.487466e-01 6.143028e-01 8.516928e-01 1.009298e+00 1.354946e+00 1.454864e+00 1.663765e+00 1.798384e+00 1.697595e+00 1.681930e+00 1.677035e+00 1.442426e+00 5.849039e-01 9.357016e-02 9.690709e-02 1.357299e-01 1.794185e-01 2.409799e-01 2.700560e-01 3.104460e-01 3.466015e-01 3.343903e-01 3.279697e-01 3.262125e-01 2.850542e-01 6.436716e-02
<GCONST> 9.578694e+01
<STATE> 10
<MEAN> 39
 -8.731349e+00 -6.690251e+00 -4.176391e+00 2.419755e+00 -2.747134e+00 -5.364809e+00 -1.505039e+00 -2.198910e+00 -8.051297e+00 -5.184391e+00 -4.151244e+00 -5.794719e+00 5.352144e+01 3.085542e-02 -2.590285e-02 2.399924e-02 3.857618e-03 5.277826e-03 -2.289191e-02 3.448874e-03 -6.205200e-03 -2.229751e-02 -2.240016e-03 -1.527910e-02 -1.541140e-02 5.271469e-02 -1.182792e-03 6.876257e-04 4.667711e-04 7.380514e-04 -5.207618e-04 4.746236e-04 -5.579826e-05 2.248049e-04 7.190169e-04 7.612044e-04 -7.061200e-04 2.623339e-04 -2.120852e-03
<VARIANCE> 39
 1.800114e+01 1.519127e+01 2.852846e+01 2.534797e+01 2.821024e+01 3.016612e+01 2.945425e+01 2.471487e+01 2.122073e+01 3.196048e+01 2.418761e+01 1.749120e+01 1.015027e+02 6.487466e-01 6.143028e-01 8.516928e-01 1.009298e+00 1.354946e+00 1.454864e+00 1.663765e+00 1.798384e+00 1.697595e+00 1.681930e+00 1.677035e+00 1.442426e+00 5.849039e-01 9.357016e-02 9.690709e-02 1.357299e-01 1.794185e-01 2.409799e-01 2.700560e-01 3.104460e-01 3.466015e-01 3.343903e-01 3.279697e-01 3.262125e-01 2.850542e-01 6.436716e-02
<GCONST> 9.578694e+01
<STATE> 11
<MEAN> 39
 -8.731349e+00 -6.690251e+00 -4.176391e+00 2.419755e+00 -2.747134e+00 -5.364809e+00 -1.505039e+00 -2.198910e+00 -8.051297e+00 -5.184391e+00 -4.151244e+00 -5.794719e+00 5.352144e+01 3.085542e-02 -2.590285e-02 2.399924e-02 3.857618e-03 5.277826e-03 -2.289191e-02 3.448874e-03 -6.205200e-03 -2.229751e-02 -2.240016e-03 -1.527910e-02 -1.541140e-02 5.271469e-02 -1.182792e-03 6.876257e-04 4.667711e-04 7.380514e-04 -5.207618e-04 4.746236e-04 -5.579826e-05 2.248049e-04 7.190169e-04 7.612044e-04 -7.061200e-04 2.623339e-04 -2.120852e-03
<VARIANCE> 39
 1.800114e+01 1.519127e+01 2.852846e+01 2.534797e+01 2.821024e+01 3.016612e+01 2.945425e+01 2.471487e+01 2.122073e+01 3.196048e+01 2.418761e+01 1.749120e+01 1.015027e+02 6.487466e-01 6.143028e-01 8.516928e-01 1.009298e+00 1.354946e+00 1.454864e+00 1.663765e+00 1.798384e+00 1.697595e+00 1.681930e+00 1.677035e+00 1.442426e+00 5.849039e-01 9.357016e-02 9.690709e-02 1.357299e-01 1.794185e-01 2.409799e-01 2.700560e-01 3.104460e-01 3.466015e-01 3.343903e-01 3.279697e-01 3.262125e-01 2.850542e-01 6.436716e-02
<GCONST> 9.578694e+01
<TRANSP> 12
 0.000000e+00 1.000000e+00 0.000000e+00 0.000000e+00 0.000000e+00 0.000000e+00 0.000000e+00 0.000000e+00 0.000000e+00 0.000000e+00 0.000000e+00 0.000000e+00
 0.000000e+00 6.000000e-01 4.000000e-01 0.000000e+00 0.000000e+00 0.000000e+00 0.000000e+00 0.000000e+00 0.000000e+00 0.000000e+00 0.000000e+00 0.000000e+00
 0.000000e+00 0.000000e+00 6.000000e-01 4.000000e-01 0.000000e+00 0.000000e+00 0.000000e+00 0.000000e+00 0.000000e+00 0.000000e+00 0.000000e+00 0.000000e+00
 0.000000e+00 0.000000e+00 0.000000e+00 6.000000e-01 4.000000e-01 0.000000e+00 0.000000e+00 0.000000e+00 0.000000e+00 0.000000e+00 0.000000e+00 0.000000e+00
 0.000000e+00 0.000000e+00 0.000000e+00 0.000000e+00 6.000000e-01 4.000000e-01 0.000000e+00 0.000000e+00 0.000000e+00 0.000000e+00 0.000000e+00 0.000000e+00
 0.000000e+00 0.000000e+00 0.000000e+00 0.000000e+00 0.000000e+00 6.000000e-01 4.000000e-01 0.000000e+00 0.000000e+00 0.000000e+00 0.000000e+00 0.000000e+00
 0.000000e+00 0.000000e+00 0.000000e+00 0.000000e+00 0.000000e+00 0.000000e+00 6.000000e-01 4.000000e-01 0.000000e+00 0.000000e+00 0.000000e+00 0.000000e+00
 0.000000e+00 0.000000e+00 0.000000e+00 0.000000e+00 0.000000e+00 0.000000e+00 0.000000e+00 6.000000e-01 4.000000e-01 0.000000e+00 0.000000e+00 0.000000e+00
 0.000000e+00 0.000000e+00 0.000000e+00 0.000000e+00 0.000000e+00 0.000000e+00 0.000000e+00 0.000000e+00 6.000000e-01 4.000000e-01 0.000000e+00 0.000000e+00
 0.000000e+00 0.000000e+00 0.000000e+00 0.000000e+00 0.000000e+00 0.000000e+00 0.000000e+00 0.000000e+00 0.000000e+00 6.000000e-01 4.000000e-01 0.000000e+00
 0.000000e+00 0.000000e+00 0.000000e+00 0.000000e+00 0.000000e+00 0.000000e+00 0.000000e+00 0.000000e+00 0.000000e+00 0.000000e+00 6.000000e-01 4.000000e-01
 0.000000e+00 0.000000e+00 0.000000e+00 0.000000e+00 0.000000e+00 0.000000e+00 0.000000e+00 0.000000e+00 0.000000e+00 0.000000e+00 0.000000e+00 0.000000e+00
<ENDHMM>
~h "THREE"
<BEGINHMM>
<NUMSTATES> 12
<STATE> 2
<MEAN> 39
 -8.731349e+00 -6.690251e+00 -4.176391e+00 2.419755e+00 -2.747134e+00 -5.364809e+00 -1.505039e+00 -2.198910e+00 -8.051297e+00 -5.184391e+00 -4.151244e+00 -5.794719e+00 5.352144e+01 3.085542e-02 -2.590285e-02 2.399924e-02 3.857618e-03 5.277826e-03 -2.289191e-02 3.448874e-03 -6.205200e-03 -2.229751e-02 -2.240016e-03 -1.527910e-02 -1.541140e-02 5.271469e-02 -1.182792e-03 6.876257e-04 4.667711e-04 7.380514e-04 -5.207618e-04 4.746236e-04 -5.579826e-05 2.248049e-04 7.190169e-04 7.612044e-04 -7.061200e-04 2.623339e-04 -2.120852e-03
<VARIANCE> 39
 1.800114e+01 1.519127e+01 2.852846e+01 2.534797e+01 2.821024e+01 3.016612e+01 2.945425e+01 2.471487e+01 2.122073e+01 3.196048e+01 2.418761e+01 1.749120e+01 1.015027e+02 6.487466e-01 6.143028e-01 8.516928e-01 1.009298e+00 1.354946e+00 1.454864e+00 1.663765e+00 1.798384e+00 1.697595e+00 1.681930e+00 1.677035e+00 1.442426e+00 5.849039e-01 9.357016e-02 9.690709e-02 1.357299e-01 1.794185e-01 2.409799e-01 2.700560e-01 3.104460e-01 3.466015e-01 3.343903e-01 3.279697e-01 3.262125e-01 2.850542e-01 6.436716e-02
<GCONST> 9.578694e+01
<STATE> 3
<MEAN> 39
 -8.731349e+00 -6.690251e+00 -4.176391e+00 2.419755e+00 -2.747134e+00 -5.364809e+00 -1.505039e+00 -2.198910e+00 -8.051297e+00 -5.184391e+00 -4.151244e+00 -5.794719e+00 5.352144e+01 3.085542e-02 -2.590285e-02 2.399924e-02 3.857618e-03 5.277826e-03 -2.289191e-02 3.448874e-03 -6.205200e-03 -2.229751e-02 -2.240016e-03 -1.527910e-02 -1.541140e-02 5.271469e-02 -1.182792e-03 6.876257e-04 4.667711e-04 7.380514e-04 -5.207618e-04 4.746236e-04 -5.579826e-05 2.248049e-04 7.190169e-04 7.612044e-04 -7.061200e-04 2.623339e-04 -2.120852e-03
<VARIANCE> 39
 1.800114e+01 1.519127e+01 2.852846e+01 2.534797e+01 2.821024e+01 3.016612e+01 2.945425e+01 2.471487e+01 2.122073e+01 3.196048e+01 2.418761e+01 1.749120e+01 1.015027e+02 6.487466e-01 6.143028e-01 8.516928e-01 1.009298e+00 1.354946e+00 1.454864e+00 1.663765e+00 1.798384e+00 1.697595e+00 1.681930e+00 1.677035e+00 1.442426e+00 5.849039e-01 9.357016e-02 9.690709e-02 1.357299e-01 1.794185e-01 2.409799e-01 2.700560e-01 3.104460e-01 3.466015e-01 3.343903e-01 3.279697e-01 3.262125e-01 2.850542e-01 6.436716e-02
<GCONST> 9.578694e+01
<STATE> 4
<MEAN> 39
 -8.731349e+00 -6.690251e+00 -4.176391e+00 2.419755e+00 -2.747134e+00 -5.364809e+00 -1.505039e+00 -2.198910e+00 -8.051297e+00 -5.184391e+00 -4.151244e+00 -5.794719e+00 5.352144e+01 3.085542e-02 -2.590285e-02 2.399924e-02 3.857618e-03 5.277826e-03 -2.289191e-02 3.448874e-03 -6.205200e-03 -2.229751e-02 -2.240016e-03 -1.527910e-02 -1.541140e-02 5.271469e-02 -1.182792e-03 6.876257e-04 4.667711e-04 7.380514e-04 -5.207618e-04 4.746236e-04 -5.579826e-05 2.248049e-04 7.190169e-04 7.612044e-04 -7.061200e-04 2.623339e-04 -2.120852e-03
<VARIANCE> 39
 1.800114e+01 1.519127e+01 2.852846e+01 2.534797e+01 2.821024e+01 3.016612e+01 2.945425e+01 2.471487e+01 2.122073e+01 3.196048e+01 2.418761e+01 1.749120e+01 1.015027e+02 6.487466e-01 6.143028e-01 8.516928e-01 1.009298e+00 1.354946e+00 1.454864e+00 1.663765e+00 1.798384e+00 1.697595e+00 1.681930e+00 1.677035e+00 1.442426e+00 5.849039e-01 9.357016e-02 9.690709e-02 1.357299e-01 1.794185e-01 2.409799e-01 2.700560e-01 3.104460e-01 3.466015e-01 3.343903e-01 3.279697e-01 3.262125e-01 2.850542e-01 6.436716e-02
<GCONST> 9.578694e+01
<STATE> 5
<MEAN> 39
 -8.731349e+00 -6.690251e+00 -4.176391e+00 2.419755e+00 -2.747134e+00 -5.364809e+00 -1.505039e+00 -2.198910e+00 -8.051297e+00 -5.184391e+00 -4.151244e+00 -5.794719e+00 5.352144e+01 3.085542e-02 -2.590285e-02 2.399924e-02 3.857618e-03 5.277826e-03 -2.289191e-02 3.448874e-03 -6.205200e-03 -2.229751e-02 -2.240016e-03 -1.527910e-02 -1.541140e-02 5.271469e-02 -1.182792e-03 6.876257e-04 4.667711e-04 7.380514e-04 -5.207618e-04 4.746236e-04 -5.579826e-05 2.248049e-04 7.190169e-04 7.612044e-04 -7.061200e-04 2.623339e-04 -2.120852e-03
<VARIANCE> 39
 1.800114e+01 1.519127e+01 2.852846e+01 2.534797e+01 2.821024e+01 3.016612e+01 2.945425e+01 2.471487e+01 2.122073e+01 3.196048e+01 2.418761e+01 1.749120e+01 1.015027e+02 6.487466e-01 6.143028e-01 8.516928e-01 1.009298e+00 1.354946e+00 1.454864e+00 1.663765e+00 1.798384e+00 1.697595e+00 1.681930e+00 1.677035e+00 1.442426e+00 5.849039e-01 9.357016e-02 9.690709e-02 1.357299e-01 1.794185e-01 2.409799e-01 2.700560e-01 3.104460e-01 3.466015e-01 3.343903e-01 3.279697e-01 3.262125e-01 2.850542e-01 6.436716e-02
<GCONST> 9.578694e+01
<STATE> 6
<MEAN> 39
 -8.731349e+00 -6.690251e+00 -4.176391e+00 2.419755e+00 -2.747134e+00 -5.364809e+00 -1.505039e+00 -2.198910e+00 -8.051297e+00 -5.184391e+00 -4.151244e+00 -5.794719e+00 5.352144e+01 3.085542e-02 -2.590285e-02 2.399924e-02 3.857618e-03 5.277826e-03 -2.289191e-02 3.448874e-03 -6.205200e-03 -2.229751e-02 -2.240016e-03 -1.527910e-02 -1.541140e-02 5.271469e-02 -1.182792e-03 6.876257e-04 4.667711e-04 7.380514e-04 -5.207618e-04 4.746236e-04 -5.579826e-05 2.248049e-04 7.190169e-04 7.612044e-04 -7.061200e-04 2.623339e-04 -2.120852e-03
<VARIANCE> 39
 1.800114e+01 1.519127e+01 2.852846e+01 2.534797e+01 2.821024e+01 3.016612e+01 2.945425e+01 2.471487e+01 2.122073e+01 3.196048e+01 2.418761e+01 1.749120e+01 1.015027e+02 6.487466e-01 6.143028e-01 8.516928e-01 1.009298e+00 1.354946e+00 1.454864e+00 1.663765e+00 1.798384e+00 1.697595e+00 1.681930e+00 1.677035e+00 1.442426e+00 5.849039e-01 9.357016e-02 9.690709e-02 1.357299e-01 1.794185e-01 2.409799e-01 2.700560e-01 3.104460e-01 3.466015e-01 3.343903e-01 3.279697e-01 3.262125e-01 2.850542e-01 6.436716e-02
<GCONST> 9.578694e+01
<STATE> 7
<MEAN> 39
 -8.731349e+00 -6.690251e+00 -4.176391e+00 2.419755e+00 -2.747134e+00 -5.364809e+00 -1.505039e+00 -2.198910e+00 -8.051297e+00 -5.184391e+00 -4.151244e+00 -5.794719e+00 5.352144e+01 3.085542e-02 -2.590285e-02 2.399924e-02 3.857618e-03 5.277826e-03 -2.289191e-02 3.448874e-03 -6.205200e-03 -2.229751e-02 -2.240016e-03 -1.527910e-02 -1.541140e-02 5.271469e-02 -1.182792e-03 6.876257e-04 4.667711e-04 7.380514e-04 -5.207618e-04 4.746236e-04 -5.579826e-05 2.248049e-04 7.190169e-04 7.612044e-04 -7.061200e-04 2.623339e-04 -2.120852e-03
<VARIANCE> 39
 1.800114e+01 1.519127e+01 2.852846e+01 2.534797e+01 2.821024e+01 3.016612e+01 2.945425e+01 2.471487e+01 2.122073e+01 3.196048e+01 2.418761e+01 1.749120e+01 1.015027e+02 6.487466e-01 6.143028e-01 8.516928e-01 1.009298e+00 1.354946e+00 1.454864e+00 1.663765e+00 1.798384e+00 1.697595e+00 1.681930e+00 1.677035e+00 1.442426e+00 5.849039e-01 9.357016e-02 9.690709e-02 1.357299e-01 1.794185e-01 2.409799e-01 2.700560e-01 3.104460e-01 3.466015e-01 3.343903e-01 3.279697e-01 3.262125e-01 2.850542e-01 6.436716e-02
<GCONST> 9.578694e+01
<STATE> 8
<MEAN> 39
 -8.731349e+00 -6.690251e+00 -4.176391e+00 2.419755e+00 -2.747134e+00 -5.364809e+00 -1.505039e+00 -2.198910e+00 -8.051297e+00 -5.184391e+00 -4.151244e+00 -5.794719e+00 5.352144e+01 3.085542e-02 -2.590285e-02 2.399924e-02 3.857618e-03 5.277826e-03 -2.289191e-02 3.448874e-03 -6.205200e-03 -2.229751e-02 -2.240016e-03 -1.527910e-02 -1.541140e-02 5.271469e-02 -1.182792e-03 6.876257e-04 4.667711e-04 7.380514e-04 -5.207618e-04 4.746236e-04 -5.579826e-05 2.248049e-04 7.190169e-04 7.612044e-04 -7.061200e-04 2.623339e-04 -2.120852e-03
<VARIANCE> 39
 1.800114e+01 1.519127e+01 2.852846e+01 2.534797e+01 2.821024e+01 3.016612e+01 2.945425e+01 2.471487e+01 2.122073e+01 3.196048e+01 2.418761e+01 1.749120e+01 1.015027e+02 6.487466e-01 6.143028e-01 8.516928e-01 1.009298e+00 1.354946e+00 1.454864e+00 1.663765e+00 1.798384e+00 1.697595e+00 1.681930e+00 1.677035e+00 1.442426e+00 5.849039e-01 9.357016e-02 9.690709e-02 1.357299e-01 1.794185e-01 2.409799e-01 2.700560e-01 3.104460e-01 3.466015e-01 3.343903e-01 3.279697e-01 3.262125e-01 2.850542e-01 6.436716e-02
<GCONST> 9.578694e+01
<STATE> 9
<MEAN> 39
 -8.731349e+00 -6.690251e+00 -4.176391e+00 2.419755e+00 -2.747134e+00 -5.364809e+00 -1.505039e+00 -2.198910e+00 -8.051297e+00 -5.184391e+00 -4.151244e+00 -5.794719e+00 5.352144e+01 3.085542e-02 -2.590285e-02 2.399924e-02 3.857618e-03 5.277826e-03 -2.289191e-02 3.448874e-03 -6.205200e-03 -2.229751e-02 -2.240016e-03 -1.527910e-02 -1.541140e-02 5.271469e-02 -1.182792e-03 6.876257e-04 4.667711e-04 7.380514e-04 -5.207618e-04 4.746236e-04 -5.579826e-05 2.248049e-04 7.190169e-04 7.612044e-04 -7.061200e-04 2.623339e-04 -2.120852e-03
<VARIANCE> 39
 1.800114e+01 1.519127e+01 2.852846e+01 2.534797e+01 2.821024e+01 3.016612e+01 2.945425e+01 2.471487e+01 2.122073e+01 3.196048e+01 2.418761e+01 1.749120e+01 1.015027e+02 6.487466e-01 6.143028e-01 8.516928e-01 1.009298e+00 1.354946e+00 1.454864e+00 1.663765e+00 1.798384e+00 1.697595e+00 1.681930e+00 1.677035e+00 1.442426e+00 5.849039e-01 9.357016e-02 9.690709e-02 1.357299e-01 1.794185e-01 2.409799e-01 2.700560e-01 3.104460e-01 3.466015e-01 3.343903e-01 3.279697e-01 3.262125e-01 2.850542e-01 6.436716e-02
<GCONST> 9.578694e+01
<STATE> 10
<MEAN> 39
 -8.731349e+00 -6.690251e+00 -4.176391e+00 2.419755e+00 -2.747134e+00 -5.364809e+00 -1.505039e+00 -2.198910e+00 -8.051297e+00 -5.184391e+00 -4.151244e+00 -5.794719e+00 5.352144e+01 3.085542e-02 -2.590285e-02 2.399924e-02 3.857618e-03 5.277826e-03 -2.289191e-02 3.448874e-03 -6.205200e-03 -2.229751e-02 -2.240016e-03 -1.527910e-02 -1.541140e-02 5.271469e-02 -1.182792e-03 6.876257e-04 4.667711e-04 7.380514e-04 -5.207618e-04 4.746236e-04 -5.579826e-05 2.248049e-04 7.190169e-04 7.612044e-04 -7.061200e-04 2.623339e-04 -2.120852e-03
<VARIANCE> 39
 1.800114e+01 1.519127e+01 2.852846e+01 2.534797e+01 2.821024e+01 3.016612e+01 2.945425e+01 2.471487e+01 2.122073e+01 3.196048e+01 2.418761e+01 1.749120e+01 1.015027e+02 6.487466e-01 6.143028e-01 8.516928e-01 1.009298e+00 1.354946e+00 1.454864e+00 1.663765e+00 1.798384e+00 1.697595e+00 1.681930e+00 1.677035e+00 1.442426e+00 5.849039e-01 9.357016e-02 9.690709e-02 1.357299e-01 1.794185e-01 2.409799e-01 2.700560e-01 3.104460e-01 3.466015e-01 3.343903e-01 3.279697e-01 3.262125e-01 2.850542e-01 6.436716e-02
<GCONST> 9.578694e+01
<STATE> 11
<MEAN> 39
 -8.731349e+00 -6.690251e+00 -4.176391e+00 2.419755e+00 -2.747134e+00 -5.364809e+00 -1.505039e+00 -2.198910e+00 -8.051297e+00 -5.184391e+00 -4.151244e+00 -5.794719e+00 5.352144e+01 3.085542e-02 -2.590285e-02 2.399924e-02 3.857618e-03 5.277826e-03 -2.289191e-02 3.448874e-03 -6.205200e-03 -2.229751e-02 -2.240016e-03 -1.527910e-02 -1.541140e-02 5.271469e-02 -1.182792e-03 6.876257e-04 4.667711e-04 7.380514e-04 -5.207618e-04 4.746236e-04 -5.579826e-05 2.248049e-04 7.190169e-04 7.612044e-04 -7.061200e-04 2.623339e-04 -2.120852e-03
<VARIANCE> 39
 1.800114e+01 1.519127e+01 2.852846e+01 2.534797e+01 2.821024e+01 3.016612e+01 2.945425e+01 2.471487e+01 2.122073e+01 3.196048e+01 2.418761e+01 1.749120e+01 1.015027e+02 6.487466e-01 6.143028e-01 8.516928e-01 1.009298e+00 1.354946e+00 1.454864e+00 1.663765e+00 1.798384e+00 1.697595e+00 1.681930e+00 1.677035e+00 1.442426e+00 5.849039e-01 9.357016e-02 9.690709e-02 1.357299e-01 1.794185e-01 2.409799e-01 2.700560e-01 3.104460e-01 3.466015e-01 3.343903e-01 3.279697e-01 3.262125e-01 2.850542e-01 6.436716e-02
<GCONST> 9.578694e+01
<TRANSP> 12
 0.000000e+00 1.000000e+00 0.000000e+00 0.000000e+00 0.000000e+00 0.000000e+00 0.000000e+00 0.000000e+00 0.000000e+00 0.000000e+00 0.000000e+00 0.000000e+00
 0.000000e+00 6.000000e-01 4.000000e-01 0.000000e+00 0.000000e+00 0.000000e+00 0.000000e+00 0.000000e+00 0.000000e+00 0.000000e+00 0.000000e+00 0.000000e+00
 0.000000e+00 0.000000e+00 6.000000e-01 4.000000e-01 0.000000e+00 0.000000e+00 0.000000e+00 0.000000e+00 0.000000e+00 0.000000e+00 0.000000e+00 0.000000e+00
 0.000000e+00 0.000000e+00 0.000000e+00 6.000000e-01 4.000000e-01 0.000000e+00 0.000000e+00 0.000000e+00 0.000000e+00 0.000000e+00 0.000000e+00 0.000000e+00
 0.000000e+00 0.000000e+00 0.000000e+00 0.000000e+00 6.000000e-01 4.000000e-01 0.000000e+00 0.000000e+00 0.000000e+00 0.000000e+00 0.000000e+00 0.000000e+00
 0.000000e+00 0.000000e+00 0.000000e+00 0.000000e+00 0.000000e+00 6.000000e-01 4.000000e-01 0.000000e+00 0.000000e+00 0.000000e+00 0.000000e+00 0.000000e+00
 0.000000e+00 0.000000e+00 0.000000e+00 0.000000e+00 0.000000e+00 0.000000e+00 6.000000e-01 4.000000e-01 0.000000e+00 0.000000e+00 0.000000e+00 0.000000e+00
 0.000000e+00 0.000000e+00 0.000000e+00 0.000000e+00 0.000000e+00 0.000000e+00 0.000000e+00 6.000000e-01 4.000000e-01 0.000000e+00 0.000000e+00 0.000000e+00
 0.000000e+00 0.000000e+00 0.000000e+00 0.000000e+00 0.000000e+00 0.000000e+00 0.000000e+00 0.000000e+00 6.000000e-01 4.000000e-01 0.000000e+00 0.000000e+00
 0.000000e+00 0.000000e+00 0.000000e+00 0.000000e+00 0.000000e+00 0.000000e+00 0.000000e+00 0.000000e+00 0.000000e+00 6.000000e-01 4.000000e-01 0.000000e+00
 0.000000e+00 0.000000e+00 0.000000e+00 0.000000e+00 0.000000e+00 0.000000e+00 0.000000e+00 0.000000e+00 0.000000e+00 0.000000e+00 6.000000e-01 4.000000e-01
 0.000000e+00 0.000000e+00 0.000000e+00 0.000000e+00 0.000000e+00 0.000000e+00 0.000000e+00 0.000000e+00 0.000000e+00 0.000000e+00 0.000000e+00 0.000000e+00
<ENDHMM>
~h "FOUR"
<BEGINHMM>
<NUMSTATES> 12
<STATE> 2
<MEAN> 39
 -8.731349e+00 -6.690251e+00 -4.176391e+00 2.419755e+00 -2.747134e+00 -5.364809e+00 -1.505039e+00 -2.198910e+00 -8.051297e+00 -5.184391e+00 -4.151244e+00 -5.794719e+00 5.352144e+01 3.085542e-02 -2.590285e-02 2.399924e-02 3.857618e-03 5.277826e-03 -2.289191e-02 3.448874e-03 -6.205200e-03 -2.229751e-02 -2.240016e-03 -1.527910e-02 -1.541140e-02 5.271469e-02 -1.182792e-03 6.876257e-04 4.667711e-04 7.380514e-04 -5.207618e-04 4.746236e-04 -5.579826e-05 2.248049e-04 7.190169e-04 7.612044e-04 -7.061200e-04 2.623339e-04 -2.120852e-03
<VARIANCE> 39
 1.800114e+01 1.519127e+01 2.852846e+01 2.534797e+01 2.821024e+01 3.016612e+01 2.945425e+01 2.471487e+01 2.122073e+01 3.196048e+01 2.418761e+01 1.749120e+01 1.015027e+02 6.487466e-01 6.143028e-01 8.516928e-01 1.009298e+00 1.354946e+00 1.454864e+00 1.663765e+00 1.798384e+00 1.697595e+00 1.681930e+00 1.677035e+00 1.442426e+00 5.849039e-01 9.357016e-02 9.690709e-02 1.357299e-01 1.794185e-01 2.409799e-01 2.700560e-01 3.104460e-01 3.466015e-01 3.343903e-01 3.279697e-01 3.262125e-01 2.850542e-01 6.436716e-02
<GCONST> 9.578694e+01
<STATE> 3
<MEAN> 39
 -8.731349e+00 -6.690251e+00 -4.176391e+00 2.419755e+00 -2.747134e+00 -5.364809e+00 -1.505039e+00 -2.198910e+00 -8.051297e+00 -5.184391e+00 -4.151244e+00 -5.794719e+00 5.352144e+01 3.085542e-02 -2.590285e-02 2.399924e-02 3.857618e-03 5.277826e-03 -2.289191e-02 3.448874e-03 -6.205200e-03 -2.229751e-02 -2.240016e-03 -1.527910e-02 -1.541140e-02 5.271469e-02 -1.182792e-03 6.876257e-04 4.667711e-04 7.380514e-04 -5.207618e-04 4.746236e-04 -5.579826e-05 2.248049e-04 7.190169e-04 7.612044e-04 -7.061200e-04 2.623339e-04 -2.120852e-03
<VARIANCE> 39
 1.800114e+01 1.519127e+01 2.852846e+01 2.534797e+01 2.821024e+01 3.016612e+01 2.945425e+01 2.471487e+01 2.122073e+01 3.196048e+01 2.418761e+01 1.749120e+01 1.015027e+02 6.487466e-01 6.143028e-01 8.516928e-01 1.009298e+00 1.354946e+00 1.454864e+00 1.663765e+00 1.798384e+00 1.697595e+00 1.681930e+00 1.677035e+00 1.442426e+00 5.849039e-01 9.357016e-02 9.690709e-02 1.357299e-01 1.794185e-01 2.409799e-01 2.700560e-01 3.104460e-01 3.466015e-01 3.343903e-01 3.279697e-01 3.262125e-01 2.850542e-01 6.436716e-02
<GCONST> 9.578694e+01
<STATE> 4
<MEAN> 39
 -8.731349e+00 -6.690251e+00 -4.176391e+00 2.419755e+00 -2.747134e+00 -5.364809e+00 -1.505039e+00 -2.198910e+00 -8.051297e+00 -5.184391e+00 -4.151244e+00 -5.794719e+00 5.352144e+01 3.085542e-02 -2.590285e-02 2.399924e-02 3.857618e-03 5.277826e-03 -2.289191e-02 3.448874e-03 -6.205200e-03 -2.229751e-02 -2.240016e-03 -1.527910e-02 -1.541140e-02 5.271469e-02 -1.182792e-03 6.876257e-04 4.667711e-04 7.380514e-04 -5.207618e-04 4.746236e-04 -5.579826e-05 2.248049e-04 7.190169e-04 7.612044e-04 -7.061200e-04 2.623339e-04 -2.120852e-03
<VARIANCE> 39
 1.800114e+01 1.519127e+01 2.852846e+01 2.534797e+01 2.821024e+01 3.016612e+01 2.945425e+01 2.471487e+01 2.122073e+01 3.196048e+01 2.418761e+01 1.749120e+01 1.015027e+02 6.487466e-01 6.143028e-01 8.516928e-01 1.009298e+00 1.354946e+00 1.454864e+00 1.663765e+00 1.798384e+00 1.697595e+00 1.681930e+00 1.677035e+00 1.442426e+00 5.849039e-01 9.357016e-02 9.690709e-02 1.357299e-01 1.794185e-01 2.409799e-01 2.700560e-01 3.104460e-01 3.466015e-01 3.343903e-01 3.279697e-01 3.262125e-01 2.850542e-01 6.436716e-02
<GCONST> 9.578694e+01
<STATE> 5
<MEAN> 39
 -8.731349e+00 -6.690251e+00 -4.176391e+00 2.419755e+00 -2.747134e+00 -5.364809e+00 -1.505039e+00 -2.198910e+00 -8.051297e+00 -5.184391e+00 -4.151244e+00 -5.794719e+00 5.352144e+01 3.085542e-02 -2.590285e-02 2.399924e-02 3.857618e-03 5.277826e-03 -2.289191e-02 3.448874e-03 -6.205200e-03 -2.229751e-02 -2.240016e-03 -1.527910e-02 -1.541140e-02 5.271469e-02 -1.182792e-03 6.876257e-04 4.667711e-04 7.380514e-04 -5.207618e-04 4.746236e-04 -5.579826e-05 2.248049e-04 7.190169e-04 7.612044e-04 -7.061200e-04 2.623339e-04 -2.120852e-03
<VARIANCE> 39
 1.800114e+01 1.519127e+01 2.852846e+01 2.534797e+01 2.821024e+01 3.016612e+01 2.945425e+01 2.471487e+01 2.122073e+01 3.196048e+01 2.418761e+01 1.749120e+01 1.015027e+02 6.487466e-01 6.143028e-01 8.516928e-01 1.009298e+00 1.354946e+00 1.454864e+00 1.663765e+00 1.798384e+00 1.697595e+00 1.681930e+00 1.677035e+00 1.442426e+00 5.849039e-01 9.357016e-02 9.690709e-02 1.357299e-01 1.794185e-01 2.409799e-01 2.700560e-01 3.104460e-01 3.466015e-01 3.343903e-01 3.279697e-01 3.262125e-01 2.850542e-01 6.436716e-02
<GCONST> 9.578694e+01
<STATE> 6
<MEAN> 39
 -8.731349e+00 -6.690251e+00 -4.176391e+00 2.419755e+00 -2.747134e+00 -5.364809e+00 -1.505039e+00 -2.198910e+00 -8.051297e+00 -5.184391e+00 -4.151244e+00 -5.794719e+00 5.352144e+01 3.085542e-02 -2.590285e-02 2.399924e-02 3.857618e-03 5.277826e-03 -2.289191e-02 3.448874e-03 -6.205200e-03 -2.229751e-02 -2.240016e-03 -1.527910e-02 -1.541140e-02 5.271469e-02 -1.182792e-03 6.876257e-04 4.667711e-04 7.380514e-04 -5.207618e-04 4.746236e-04 -5.579826e-05 2.248049e-04 7.190169e-04 7.612044e-04 -7.061200e-04 2.623339e-04 -2.120852e-03
<VARIANCE> 39
 1.800114e+01 1.519127e+01 2.852846e+01 2.534797e+01 2.821024e+01 3.016612e+01 2.945425e+01 2.471487e+01 2.122073e+01 3.196048e+01 2.418761e+01 1.749120e+01 1.015027e+02 6.487466e-01 6.143028e-01 8.516928e-01 1.009298e+00 1.354946e+00 1.454864e+00 1.663765e+00 1.798384e+00 1.697595e+00 1.681930e+00 1.677035e+00 1.442426e+00 5.849039e-01 9.357016e-02 9.690709e-02 1.357299e-01 1.794185e-01 2.409799e-01 2.700560e-01 3.104460e-01 3.466015e-01 3.343903e-01 3.279697e-01 3.262125e-01 2.850542e-01 6.436716e-02
<GCONST> 9.578694e+01
<STATE> 7
<MEAN> 39
 -8.731349e+00 -6.690251e+00 -4.176391e+00 2.419755e+00 -2.747134e+00 -5.364809e+00 -1.505039e+00 -2.198910e+00 -8.051297e+00 -5.184391e+00 -4.151244e+00 -5.794719e+00 5.352144e+01 3.085542e-02 -2.590285e-02 2.399924e-02 3.857618e-03 5.277826e-03 -2.289191e-02 3.448874e-03 -6.205200e-03 -2.229751e-02 -2.240016e-03 -1.527910e-02 -1.541140e-02 5.271469e-02 -1.182792e-03 6.876257e-04 4.667711e-04 7.380514e-04 -5.207618e-04 4.746236e-04 -5.579826e-05 2.248049e-04 7.190169e-04 7.612044e-04 -7.061200e-04 2.623339e-04 -2.120852e-03
<VARIANCE> 39
 1.800114e+01 1.519127e+01 2.852846e+01 2.534797e+01 2.821024e+01 3.016612e+01 2.945425e+01 2.471487e+01 2.122073e+01 3.196048e+01 2.418761e+01 1.749120e+01 1.015027e+02 6.487466e-01 6.143028e-01 8.516928e-01 1.009298e+00 1.354946e+00 1.454864e+00 1.663765e+00 1.798384e+00 1.697595e+00 1.681930e+00 1.677035e+00 1.442426e+00 5.849039e-01 9.357016e-02 9.690709e-02 1.357299e-01 1.794185e-01 2.409799e-01 2.700560e-01 3.104460e-01 3.466015e-01 3.343903e-01 3.279697e-01 3.262125e-01 2.850542e-01 6.436716e-02
<GCONST> 9.578694e+01
<STATE> 8
<MEAN> 39
 -8.731349e+00 -6.690251e+00 -4.176391e+00 2.419755e+00 -2.747134e+00 -5.364809e+00 -1.505039e+00 -2.198910e+00 -8.051297e+00 -5.184391e+00 -4.151244e+00 -5.794719e+00 5.352144e+01 3.085542e-02 -2.590285e-02 2.399924e-02 3.857618e-03 5.277826e-03 -2.289191e-02 3.448874e-03 -6.205200e-03 -2.229751e-02 -2.240016e-03 -1.527910e-02 -1.541140e-02 5.271469e-02 -1.182792e-03 6.876257e-04 4.667711e-04 7.380514e-04 -5.207618e-04 4.746236e-04 -5.579826e-05 2.248049e-04 7.190169e-04 7.612044e-04 -7.061200e-04 2.623339e-04 -2.120852e-03
<VARIANCE> 39
 1.800114e+01 1.519127e+01 2.852846e+01 2.534797e+01 2.821024e+01 3.016612e+01 2.945425e+01 2.471487e+01 2.122073e+01 3.196048e+01 2.418761e+01 1.749120e+01 1.015027e+02 6.487466e-01 6.143028e-01 8.516928e-01 1.009298e+00 1.354946e+00 1.454864e+00 1.663765e+00 1.798384e+00 1.697595e+00 1.681930e+00 1.677035e+00 1.442426e+00 5.849039e-01 9.357016e-02 9.690709e-02 1.357299e-01 1.794185e-01 2.409799e-01 2.700560e-01 3.104460e-01 3.466015e-01 3.343903e-01 3.279697e-01 3.262125e-01 2.850542e-01 6.436716e-02
<GCONST> 9.578694e+01
<STATE> 9
<MEAN> 39
 -8.731349e+00 -6.690251e+00 -4.176391e+00 2.419755e+00 -2.747134e+00 -5.364809e+00 -1.505039e+00 -2.198910e+00 -8.051297e+00 -5.184391e+00 -4.151244e+00 -5.794719e+00 5.352144e+01 3.085542e-02 -2.590285e-02 2.399924e-02 3.857618e-03 5.277826e-03 -2.289191e-02 3.448874e-03 -6.205200e-03 -2.229751e-02 -2.240016e-03 -1.527910e-02 -1.541140e-02 5.271469e-02 -1.182792e-03 6.876257e-04 4.667711e-04 7.380514e-04 -5.207618e-04 4.746236e-04 -5.579826e-05 2.248049e-04 7.190169e-04 7.612044e-04 -7.061200e-04 2.623339e-04 -2.120852e-03
<VARIANCE> 39
 1.800114e+01 1.519127e+01 2.852846e+01 2.534797e+01 2.821024e+01 3.016612e+01 2.945425e+01 2.471487e+01 2.122073e+01 3.196048e+01 2.418761e+01 1.749120e+01 1.015027e+02 6.487466e-01 6.143028e-01 8.516928e-01 1.009298e+00 1.354946e+00 1.454864e+00 1.663765e+00 1.798384e+00 1.697595e+00 1.681930e+00 1.677035e+00 1.442426e+00 5.849039e-01 9.357016e-02 9.690709e-02 1.357299e-01 1.794185e-01 2.409799e-01 2.700560e-01 3.104460e-01 3.466015e-01 3.343903e-01 3.279697e-01 3.262125e-01 2.850542e-01 6.436716e-02
<GCONST> 9.578694e+01
<STATE> 10
<MEAN> 39
 -8.731349e+00 -6.690251e+00 -4.176391e+00 2.419755e+00 -2.747134e+00 -5.364809e+00 -1.505039e+00 -2.198910e+00 -8.051297e+00 -5.184391e+00 -4.151244e+00 -5.794719e+00 5.352144e+01 3.085542e-02 -2.590285e-02 2.399924e-02 3.857618e-03 5.277826e-03 -2.289191e-02 3.448874e-03 -6.205200e-03 -2.229751e-02 -2.240016e-03 -1.527910e-02 -1.541140e-02 5.271469e-02 -1.182792e-03 6.876257e-04 4.667711e-04 7.380514e-04 -5.207618e-04 4.746236e-04 -5.579826e-05 2.248049e-04 7.190169e-04 7.612044e-04 -7.061200e-04 2.623339e-04 -2.120852e-03
<VARIANCE> 39
 1.800114e+01 1.519127e+01 2.852846e+01 2.534797e+01 2.821024e+01 3.016612e+01 2.945425e+01 2.471487e+01 2.122073e+01 3.196048e+01 2.418761e+01 1.749120e+01 1.015027e+02 6.487466e-01 6.143028e-01 8.516928e-01 1.009298e+00 1.354946e+00 1.454864e+00 1.663765e+00 1.798384e+00 1.697595e+00 1.681930e+00 1.677035e+00 1.442426e+00 5.849039e-01 9.357016e-02 9.690709e-02 1.357299e-01 1.794185e-01 2.409799e-01 2.700560e-01 3.104460e-01 3.466015e-01 3.343903e-01 3.279697e-01 3.262125e-01 2.850542e-01 6.436716e-02
<GCONST> 9.578694e+01
<STATE> 11
<MEAN> 39
 -8.731349e+00 -6.690251e+00 -4.176391e+00 2.419755e+00 -2.747134e+00 -5.364809e+00 -1.505039e+00 -2.198910e+00 -8.051297e+00 -5.184391e+00 -4.151244e+00 -5.794719e+00 5.352144e+01 3.085542e-02 -2.590285e-02 2.399924e-02 3.857618e-03 5.277826e-03 -2.289191e-02 3.448874e-03 -6.205200e-03 -2.229751e-02 -2.240016e-03 -1.527910e-02 -1.541140e-02 5.271469e-02 -1.182792e-03 6.876257e-04 4.667711e-04 7.380514e-04 -5.207618e-04 4.746236e-04 -5.579826e-05 2.248049e-04 7.190169e-04 7.612044e-04 -7.061200e-04 2.623339e-04 -2.120852e-03
<VARIANCE> 39
 1.800114e+01 1.519127e+01 2.852846e+01 2.534797e+01 2.821024e+01 3.016612e+01 2.945425e+01 2.471487e+01 2.122073e+01 3.196048e+01 2.418761e+01 1.749120e+01 1.015027e+02 6.487466e-01 6.143028e-01 8.516928e-01 1.009298e+00 1.354946e+00 1.454864e+00 1.663765e+00 1.798384e+00 1.697595e+00 1.681930e+00 1.677035e+00 1.442426e+00 5.849039e-01 9.357016e-02 9.690709e-02 1.357299e-01 1.794185e-01 2.409799e-01 2.700560e-01 3.104460e-01 3.466015e-01 3.343903e-01 3.279697e-01 3.262125e-01 2.850542e-01 6.436716e-02
<GCONST> 9.578694e+01
<TRANSP> 12
 0.000000e+00 1.000000e+00 0.000000e+00 0.000000e+00 0.000000e+00 0.000000e+00 0.000000e+00 0.000000e+00 0.000000e+00 0.000000e+00 0.000000e+00 0.000000e+00
 0.000000e+00 6.000000e-01 4.000000e-01 0.000000e+00 0.000000e+00 0.000000e+00 0.000000e+00 0.000000e+00 0.000000e+00 0.000000e+00 0.000000e+00 0.000000e+00
 0.000000e+00 0.000000e+00 6.000000e-01 4.000000e-01 0.000000e+00 0.000000e+00 0.000000e+00 0.000000e+00 0.000000e+00 0.000000e+00 0.000000e+00 0.000000e+00
 0.000000e+00 0.000000e+00 0.000000e+00 6.000000e-01 4.000000e-01 0.000000e+00 0.000000e+00 0.000000e+00 0.000000e+00 0.000000e+00 0.000000e+00 0.000000e+00
 0.000000e+00 0.000000e+00 0.000000e+00 0.000000e+00 6.000000e-01 4.000000e-01 0.000000e+00 0.000000e+00 0.000000e+00 0.000000e+00 0.000000e+00 0.000000e+00
 0.000000e+00 0.000000e+00 0.000000e+00 0.000000e+00 0.000000e+00 6.000000e-01 4.000000e-01 0.000000e+00 0.000000e+00 0.000000e+00 0.000000e+00 0.000000e+00
 0.000000e+00 0.000000e+00 0.000000e+00 0.000000e+00 0.000000e+00 0.000000e+00 6.000000e-01 4.000000e-01 0.000000e+00 0.000000e+00 0.000000e+00 0.000000e+00
 0.000000e+00 0.000000e+00 0.000000e+00 0.000000e+00 0.000000e+00 0.000000e+00 0.000000e+00 6.000000e-01 4.000000e-01 0.000000e+00 0.000000e+00 0.000000e+00
 0.000000e+00 0.000000e+00 0.000000e+00 0.000000e+00 0.000000e+00 0.000000e+00 0.000000e+00 0.000000e+00 6.000000e-01 4.000000e-01 0.000000e+00 0.000000e+00
 0.000000e+00 0.000000e+00 0.000000e+00 0.000000e+00 0.000000e+00 0.000000e+00 0.000000e+00 0.000000e+00 0.000000e+00 6.000000e-01 4.000000e-01 0.000000e+00
 0.000000e+00 0.000000e+00 0.000000e+00 0.000000e+00 0.000000e+00 0.000000e+00 0.000000e+00 0.000000e+00 0.000000e+00 0.000000e+00 6.000000e-01 4.000000e-01
 0.000000e+00 0.000000e+00 0.000000e+00 0.000000e+00 0.000000e+00 0.000000e+00 0.000000e+00 0.000000e+00 0.000000e+00 0.000000e+00 0.000000e+00 0.000000e+00
<ENDHMM>
~h "FIVE"
<BEGINHMM>
<NUMSTATES> 12
<STATE> 2
<MEAN> 39
 -8.731349e+00 -6.690251e+00 -4.176391e+00 2.419755e+00 -2.747134e+00 -5.364809e+00 -1.505039e+00 -2.198910e+00 -8.051297e+00 -5.184391e+00 -4.151244e+00 -5.794719e+00 5.352144e+01 3.085542e-02 -2.590285e-02 2.399924e-02 3.857618e-03 5.277826e-03 -2.289191e-02 3.448874e-03 -6.205200e-03 -2.229751e-02 -2.240016e-03 -1.527910e-02 -1.541140e-02 5.271469e-02 -1.182792e-03 6.876257e-04 4.667711e-04 7.380514e-04 -5.207618e-04 4.746236e-04 -5.579826e-05 2.248049e-04 7.190169e-04 7.612044e-04 -7.061200e-04 2.623339e-04 -2.120852e-03
<VARIANCE> 39
 1.800114e+01 1.519127e+01 2.852846e+01 2.534797e+01 2.821024e+01 3.016612e+01 2.945425e+01 2.471487e+01 2.122073e+01 3.196048e+01 2.418761e+01 1.749120e+01 1.015027e+02 6.487466e-01 6.143028e-01 8.516928e-01 1.009298e+00 1.354946e+00 1.454864e+00 1.663765e+00 1.798384e+00 1.697595e+00 1.681930e+00 1.677035e+00 1.442426e+00 5.849039e-01 9.357016e-02 9.690709e-02 1.357299e-01 1.794185e-01 2.409799e-01 2.700560e-01 3.104460e-01 3.466015e-01 3.343903e-01 3.279697e-01 3.262125e-01 2.850542e-01 6.436716e-02
<GCONST> 9.578694e+01
<STATE> 3
<MEAN> 39
 -8.731349e+00 -6.690251e+00 -4.176391e+00 2.419755e+00 -2.747134e+00 -5.364809e+00 -1.505039e+00 -2.198910e+00 -8.051297e+00 -5.184391e+00 -4.151244e+00 -5.794719e+00 5.352144e+01 3.085542e-02 -2.590285e-02 2.399924e-02 3.857618e-03 5.277826e-03 -2.289191e-02 3.448874e-03 -6.205200e-03 -2.229751e-02 -2.240016e-03 -1.527910e-02 -1.541140e-02 5.271469e-02 -1.182792e-03 6.876257e-04 4.667711e-04 7.380514e-04 -5.207618e-04 4.746236e-04 -5.579826e-05 2.248049e-04 7.190169e-04 7.612044e-04 -7.061200e-04 2.623339e-04 -2.120852e-03
<VARIANCE> 39
 1.800114e+01 1.519127e+01 2.852846e+01 2.534797e+01 2.821024e+01 3.016612e+01 2.945425e+01 2.471487e+01 2.122073e+01 3.196048e+01 2.418761e+01 1.749120e+01 1.015027e+02 6.487466e-01 6.143028e-01 8.516928e-01 1.009298e+00 1.354946e+00 1.454864e+00 1.663765e+00 1.798384e+00 1.697595e+00 1.681930e+00 1.677035e+00 1.442426e+00 5.849039e-01 9.357016e-02 9.690709e-02 1.357299e-01 1.794185e-01 2.409799e-01 2.700560e-01 3.104460e-01 3.466015e-01 3.343903e-01 3.279697e-01 3.262125e-01 2.850542e-01 6.436716e-02
<GCONST> 9.578694e+01
<STATE> 4
<MEAN> 39
 -8.731349e+00 -6.690251e+00 -4.176391e+00 2.419755e+00 -2.747134e+00 -5.364809e+00 -1.505039e+00 -2.198910e+00 -8.051297e+00 -5.184391e+00 -4.151244e+00 -5.794719e+00 5.352144e+01 3.085542e-02 -2.590285e-02 2.399924e-02 3.857618e-03 5.277826e-03 -2.289191e-02 3.448874e-03 -6.205200e-03 -2.229751e-02 -2.240016e-03 -1.527910e-02 -1.541140e-02 5.271469e-02 -1.182792e-03 6.876257e-04 4.667711e-04 7.380514e-04 -5.207618e-04 4.746236e-04 -5.579826e-05 2.248049e-04 7.190169e-04 7.612044e-04 -7.061200e-04 2.623339e-04 -2.120852e-03
<VARIANCE> 39
 1.800114e+01 1.519127e+01 2.852846e+01 2.534797e+01 2.821024e+01 3.016612e+01 2.945425e+01 2.471487e+01 2.122073e+01 3.196048e+01 2.418761e+01 1.749120e+01 1.015027e+02 6.487466e-01 6.143028e-01 8.516928e-01 1.009298e+00 1.354946e+00 1.454864e+00 1.663765e+00 1.798384e+00 1.697595e+00 1.681930e+00 1.677035e+00 1.442426e+00 5.849039e-01 9.357016e-02 9.690709e-02 1.357299e-01 1.794185e-01 2.409799e-01 2.700560e-01 3.104460e-01 3.466015e-01 3.343903e-01 3.279697e-01 3.262125e-01 2.850542e-01 6.436716e-02
<GCONST> 9.578694e+01
<STATE> 5
<MEAN> 39
 -8.731349e+00 -6.690251e+00 -4.176391e+00 2.419755e+00 -2.747134e+00 -5.364809e+00 -1.505039e+00 -2.198910e+00 -8.051297e+00 -5.184391e+00 -4.151244e+00 -5.794719e+00 5.352144e+01 3.085542e-02 -2.590285e-02 2.399924e-02 3.857618e-03 5.277826e-03 -2.289191e-02 3.448874e-03 -6.205200e-03 -2.229751e-02 -2.240016e-03 -1.527910e-02 -1.541140e-02 5.271469e-02 -1.182792e-03 6.876257e-04 4.667711e-04 7.380514e-04 -5.207618e-04 4.746236e-04 -5.579826e-05 2.248049e-04 7.190169e-04 7.612044e-04 -7.061200e-04 2.623339e-04 -2.120852e-03
<VARIANCE> 39
 1.800114e+01 1.519127e+01 2.852846e+01 2.534797e+01 2.821024e+01 3.016612e+01 2.945425e+01 2.471487e+01 2.122073e+01 3.196048e+01 2.418761e+01 1.749120e+01 1.015027e+02 6.487466e-01 6.143028e-01 8.516928e-01 1.009298e+00 1.354946e+00 1.454864e+00 1.663765e+00 1.798384e+00 1.697595e+00 1.681930e+00 1.677035e+00 1.442426e+00 5.849039e-01 9.357016e-02 9.690709e-02 1.357299e-01 1.794185e-01 2.409799e-01 2.700560e-01 3.104460e-01 3.466015e-01 3.343903e-01 3.279697e-01 3.262125e-01 2.850542e-01 6.436716e-02
<GCONST> 9.578694e+01
<STATE> 6
<MEAN> 39
 -8.731349e+00 -6.690251e+00 -4.176391e+00 2.419755e+00 -2.747134e+00 -5.364809e+00 -1.505039e+00 -2.198910e+00 -8.051297e+00 -5.184391e+00 -4.151244e+00 -5.794719e+00 5.352144e+01 3.085542e-02 -2.590285e-02 2.399924e-02 3.857618e-03 5.277826e-03 -2.289191e-02 3.448874e-03 -6.205200e-03 -2.229751e-02 -2.240016e-03 -1.527910e-02 -1.541140e-02 5.271469e-02 -1.182792e-03 6.876257e-04 4.667711e-04 7.380514e-04 -5.207618e-04 4.746236e-04 -5.579826e-05 2.248049e-04 7.190169e-04 7.612044e-04 -7.061200e-04 2.623339e-04 -2.120852e-03
<VARIANCE> 39
 1.800114e+01 1.519127e+01 2.852846e+01 2.534797e+01 2.821024e+01 3.016612e+01 2.945425e+01 2.471487e+01 2.122073e+01 3.196048e+01 2.418761e+01 1.749120e+01 1.015027e+02 6.487466e-01 6.143028e-01 8.516928e-01 1.009298e+00 1.354946e+00 1.454864e+00 1.663765e+00 1.798384e+00 1.697595e+00 1.681930e+00 1.677035e+00 1.442426e+00 5.849039e-01 9.357016e-02 9.690709e-02 1.357299e-01 1.794185e-01 2.409799e-01 2.700560e-01 3.104460e-01 3.466015e-01 3.343903e-01 3.279697e-01 3.262125e-01 2.850542e-01 6.436716e-02
<GCONST> 9.578694e+01
<STATE> 7
<MEAN> 39
 -8.731349e+00 -6.690251e+00 -4.176391e+00 2.419755e+00 -2.747134e+00 -5.364809e+00 -1.505039e+00 -2.198910e+00 -8.051297e+00 -5.184391e+00 -4.151244e+00 -5.794719e+00 5.352144e+01 3.085542e-02 -2.590285e-02 2.399924e-02 3.857618e-03 5.277826e-03 -2.289191e-02 3.448874e-03 -6.205200e-03 -2.229751e-02 -2.240016e-03 -1.527910e-02 -1.541140e-02 5.271469e-02 -1.182792e-03 6.876257e-04 4.667711e-04 7.380514e-04 -5.207618e-04 4.746236e-04 -5.579826e-05 2.248049e-04 7.190169e-04 7.612044e-04 -7.061200e-04 2.623339e-04 -2.120852e-03
<VARIANCE> 39
 1.800114e+01 1.519127e+01 2.852846e+01 2.534797e+01 2.821024e+01 3.016612e+01 2.945425e+01 2.471487e+01 2.122073e+01 3.196048e+01 2.418761e+01 1.749120e+01 1.015027e+02 6.487466e-01 6.143028e-01 8.516928e-01 1.009298e+00 1.354946e+00 1.454864e+00 1.663765e+00 1.798384e+00 1.697595e+00 1.681930e+00 1.677035e+00 1.442426e+00 5.849039e-01 9.357016e-02 9.690709e-02 1.357299e-01 1.794185e-01 2.409799e-01 2.700560e-01 3.104460e-01 3.466015e-01 3.343903e-01 3.279697e-01 3.262125e-01 2.850542e-01 6.436716e-02
<GCONST> 9.578694e+01
<STATE> 8
<MEAN> 39
 -8.731349e+00 -6.690251e+00 -4.176391e+00 2.419755e+00 -2.747134e+00 -5.364809e+00 -1.505039e+00 -2.198910e+00 -8.051297e+00 -5.184391e+00 -4.151244e+00 -5.794719e+00 5.352144e+01 3.085542e-02 -2.590285e-02 2.399924e-02 3.857618e-03 5.277826e-03 -2.289191e-02 3.448874e-03 -6.205200e-03 -2.229751e-02 -2.240016e-03 -1.527910e-02 -1.541140e-02 5.271469e-02 -1.182792e-03 6.876257e-04 4.667711e-04 7.380514e-04 -5.207618e-04 4.746236e-04 -5.579826e-05 2.248049e-04 7.190169e-04 7.612044e-04 -7.061200e-04 2.623339e-04 -2.120852e-03
<VARIANCE> 39
 1.800114e+01 1.519127e+01 2.852846e+01 2.534797e+01 2.821024e+01 3.016612e+01 2.945425e+01 2.471487e+01 2.122073e+01 3.196048e+01 2.418761e+01 1.749120e+01 1.015027e+02 6.487466e-01 6.143028e-01 8.516928e-01 1.009298e+00 1.354946e+00 1.454864e+00 1.663765e+00 1.798384e+00 1.697595e+00 1.681930e+00 1.677035e+00 1.442426e+00 5.849039e-01 9.357016e-02 9.690709e-02 1.357299e-01 1.794185e-01 2.409799e-01 2.700560e-01 3.104460e-01 3.466015e-01 3.343903e-01 3.279697e-01 3.262125e-01 2.850542e-01 6.436716e-02
<GCONST> 9.578694e+01
<STATE> 9
<MEAN> 39
 -8.731349e+00 -6.690251e+00 -4.176391e+00 2.419755e+00 -2.747134e+00 -5.364809e+00 -1.505039e+00 -2.198910e+00 -8.051297e+00 -5.184391e+00 -4.151244e+00 -5.794719e+00 5.352144e+01 3.085542e-02 -2.590285e-02 2.399924e-02 3.857618e-03 5.277826e-03 -2.289191e-02 3.448874e-03 -6.205200e-03 -2.229751e-02 -2.240016e-03 -1.527910e-02 -1.541140e-02 5.271469e-02 -1.182792e-03 6.876257e-04 4.667711e-04 7.380514e-04 -5.207618e-04 4.746236e-04 -5.579826e-05 2.248049e-04 7.190169e-04 7.612044e-04 -7.061200e-04 2.623339e-04 -2.120852e-03
<VARIANCE> 39
 1.800114e+01 1.519127e+01 2.852846e+01 2.534797e+01 2.821024e+01 3.016612e+01 2.945425e+01 2.471487e+01 2.122073e+01 3.196048e+01 2.418761e+01 1.749120e+01 1.015027e+02 6.487466e-01 6.143028e-01 8.516928e-01 1.009298e+00 1.354946e+00 1.454864e+00 1.663765e+00 1.798384e+00 1.697595e+00 1.681930e+00 1.677035e+00 1.442426e+00 5.849039e-01 9.357016e-02 9.690709e-02 1.357299e-01 1.794185e-01 2.409799e-01 2.700560e-01 3.104460e-01 3.466015e-01 3.343903e-01 3.279697e-01 3.262125e-01 2.850542e-01 6.436716e-02
<GCONST> 9.578694e+01
<STATE> 10
<MEAN> 39
 -8.731349e+00 -6.690251e+00 -4.176391e+00 2.419755e+00 -2.747134e+00 -5.364809e+00 -1.505039e+00 -2.198910e+00 -8.051297e+00 -5.184391e+00 -4.151244e+00 -5.794719e+00 5.352144e+01 3.085542e-02 -2.590285e-02 2.399924e-02 3.857618e-03 5.277826e-03 -2.289191e-02 3.448874e-03 -6.205200e-03 -2.229751e-02 -2.240016e-03 -1.527910e-02 -1.541140e-02 5.271469e-02 -1.182792e-03 6.876257e-04 4.667711e-04 7.380514e-04 -5.207618e-04 4.746236e-04 -5.579826e-05 2.248049e-04 7.190169e-04 7.612044e-04 -7.061200e-04 2.623339e-04 -2.120852e-03
<VARIANCE> 39
 1.800114e+01 1.519127e+01 2.852846e+01 2.534797e+01 2.821024e+01 3.016612e+01 2.945425e+01 2.471487e+01 2.122073e+01 3.196048e+01 2.418761e+01 1.749120e+01 1.015027e+02 6.487466e-01 6.143028e-01 8.516928e-01 1.009298e+00 1.354946e+00 1.454864e+00 1.663765e+00 1.798384e+00 1.697595e+00 1.681930e+00 1.677035e+00 1.442426e+00 5.849039e-01 9.357016e-02 9.690709e-02 1.357299e-01 1.794185e-01 2.409799e-01 2.700560e-01 3.104460e-01 3.466015e-01 3.343903e-01 3.279697e-01 3.262125e-01 2.850542e-01 6.436716e-02
<GCONST> 9.578694e+01
<STATE> 11
<MEAN> 39
 -8.731349e+00 -6.690251e+00 -4.176391e+00 2.419755e+00 -2.747134e+00 -5.364809e+00 -1.505039e+00 -2.198910e+00 -8.051297e+00 -5.184391e+00 -4.151244e+00 -5.794719e+00 5.352144e+01 3.085542e-02 -2.590285e-02 2.399924e-02 3.857618e-03 5.277826e-03 -2.289191e-02 3.448874e-03 -6.205200e-03 -2.229751e-02 -2.240016e-03 -1.527910e-02 -1.541140e-02 5.271469e-02 -1.182792e-03 6.876257e-04 4.667711e-04 7.380514e-04 -5.207618e-04 4.746236e-04 -5.579826e-05 2.248049e-04 7.190169e-04 7.612044e-04 -7.061200e-04 2.623339e-04 -2.120852e-03
<VARIANCE> 39
 1.800114e+01 1.519127e+01 2.852846e+01 2.534797e+01 2.821024e+01 3.016612e+01 2.945425e+01 2.471487e+01 2.122073e+01 3.196048e+01 2.418761e+01 1.749120e+01 1.015027e+02 6.487466e-01 6.143028e-01 8.516928e-01 1.009298e+00 1.354946e+00 1.454864e+00 1.663765e+00 1.798384e+00 1.697595e+00 1.681930e+00 1.677035e+00 1.442426e+00 5.849039e-01 9.357016e-02 9.690709e-02 1.357299e-01 1.794185e-01 2.409799e-01 2.700560e-01 3.104460e-01 3.466015e-01 3.343903e-01 3.279697e-01 3.262125e-01 2.850542e-01 6.436716e-02
<GCONST> 9.578694e+01
<TRANSP> 12
 0.000000e+00 1.000000e+00 0.000000e+00 0.000000e+00 0.000000e+00 0.000000e+00 0.000000e+00 0.000000e+00 0.000000e+00 0.000000e+00 0.000000e+00 0.000000e+00
 0.000000e+00 6.000000e-01 4.000000e-01 0.000000e+00 0.000000e+00 0.000000e+00 0.000000e+00 0.000000e+00 0.000000e+00 0.000000e+00 0.000000e+00 0.000000e+00
 0.000000e+00 0.000000e+00 6.000000e-01 4.000000e-01 0.000000e+00 0.000000e+00 0.000000e+00 0.000000e+00 0.000000e+00 0.000000e+00 0.000000e+00 0.000000e+00
 0.000000e+00 0.000000e+00 0.000000e+00 6.000000e-01 4.000000e-01 0.000000e+00 0.000000e+00 0.000000e+00 0.000000e+00 0.000000e+00 0.000000e+00 0.000000e+00
 0.000000e+00 0.000000e+00 0.000000e+00 0.000000e+00 6.000000e-01 4.000000e-01 0.000000e+00 0.000000e+00 0.000000e+00 0.000000e+00 0.000000e+00 0.000000e+00
 0.000000e+00 0.000000e+00 0.000000e+00 0.000000e+00 0.000000e+00 6.000000e-01 4.000000e-01 0.000000e+00 0.000000e+00 0.000000e+00 0.000000e+00 0.000000e+00
 0.000000e+00 0.000000e+00 0.000000e+00 0.000000e+00 0.000000e+00 0.000000e+00 6.000000e-01 4.000000e-01 0.000000e+00 0.000000e+00 0.000000e+00 0.000000e+00
 0.000000e+00 0.000000e+00 0.000000e+00 0.000000e+00 0.000000e+00 0.000000e+00 0.000000e+00 6.000000e-01 4.000000e-01 0.000000e+00 0.000000e+00 0.000000e+00
 0.000000e+00 0.000000e+00 0.000000e+00 0.000000e+00 0.000000e+00 0.000000e+00 0.000000e+00 0.000000e+00 6.000000e-01 4.000000e-01 0.000000e+00 0.000000e+00
 0.000000e+00 0.000000e+00 0.000000e+00 0.000000e+00 0.000000e+00 0.000000e+00 0.000000e+00 0.000000e+00 0.000000e+00 6.000000e-01 4.000000e-01 0.000000e+00
 0.000000e+00 0.000000e+00 0.000000e+00 0.000000e+00 0.000000e+00 0.000000e+00 0.000000e+00 0.000000e+00 0.000000e+00 0.000000e+00 6.000000e-01 4.000000e-01
 0.000000e+00 0.000000e+00 0.000000e+00 0.000000e+00 0.000000e+00 0.000000e+00 0.000000e+00 0.000000e+00 0.000000e+00 0.000000e+00 0.000000e+00 0.000000e+00
<ENDHMM>
~h "SIX"
<BEGINHMM>
<NUMSTATES> 12
<STATE> 2
<MEAN> 39
 -8.731349e+00 -6.690251e+00 -4.176391e+00 2.419755e+00 -2.747134e+00 -5.364809e+00 -1.505039e+00 -2.198910e+00 -8.051297e+00 -5.184391e+00 -4.151244e+00 -5.794719e+00 5.352144e+01 3.085542e-02 -2.590285e-02 2.399924e-02 3.857618e-03 5.277826e-03 -2.289191e-02 3.448874e-03 -6.205200e-03 -2.229751e-02 -2.240016e-03 -1.527910e-02 -1.541140e-02 5.271469e-02 -1.182792e-03 6.876257e-04 4.667711e-04 7.380514e-04 -5.207618e-04 4.746236e-04 -5.579826e-05 2.248049e-04 7.190169e-04 7.612044e-04 -7.061200e-04 2.623339e-04 -2.120852e-03
<VARIANCE> 39
 1.800114e+01 1.519127e+01 2.852846e+01 2.534797e+01 2.821024e+01 3.016612e+01 2.945425e+01 2.471487e+01 2.122073e+01 3.196048e+01 2.418761e+01 1.749120e+01 1.015027e+02 6.487466e-01 6.143028e-01 8.516928e-01 1.009298e+00 1.354946e+00 1.454864e+00 1.663765e+00 1.798384e+00 1.697595e+00 1.681930e+00 1.677035e+00 1.442426e+00 5.849039e-01 9.357016e-02 9.690709e-02 1.357299e-01 1.794185e-01 2.409799e-01 2.700560e-01 3.104460e-01 3.466015e-01 3.343903e-01 3.279697e-01 3.262125e-01 2.850542e-01 6.436716e-02
<GCONST> 9.578694e+01
<STATE> 3
<MEAN> 39
 -8.731349e+00 -6.690251e+00 -4.176391e+00 2.419755e+00 -2.747134e+00 -5.364809e+00 -1.505039e+00 -2.198910e+00 -8.051297e+00 -5.184391e+00 -4.151244e+00 -5.794719e+00 5.352144e+01 3.085542e-02 -2.590285e-02 2.399924e-02 3.857618e-03 5.277826e-03 -2.289191e-02 3.448874e-03 -6.205200e-03 -2.229751e-02 -2.240016e-03 -1.527910e-02 -1.541140e-02 5.271469e-02 -1.182792e-03 6.876257e-04 4.667711e-04 7.380514e-04 -5.207618e-04 4.746236e-04 -5.579826e-05 2.248049e-04 7.190169e-04 7.612044e-04 -7.061200e-04 2.623339e-04 -2.120852e-03
<VARIANCE> 39
 1.800114e+01 1.519127e+01 2.852846e+01 2.534797e+01 2.821024e+01 3.016612e+01 2.945425e+01 2.471487e+01 2.122073e+01 3.196048e+01 2.418761e+01 1.749120e+01 1.015027e+02 6.487466e-01 6.143028e-01 8.516928e-01 1.009298e+00 1.354946e+00 1.454864e+00 1.663765e+00 1.798384e+00 1.697595e+00 1.681930e+00 1.677035e+00 1.442426e+00 5.849039e-01 9.357016e-02 9.690709e-02 1.357299e-01 1.794185e-01 2.409799e-01 2.700560e-01 3.104460e-01 3.466015e-01 3.343903e-01 3.279697e-01 3.262125e-01 2.850542e-01 6.436716e-02
<GCONST> 9.578694e+01
<STATE> 4
<MEAN> 39
 -8.731349e+00 -6.690251e+00 -4.176391e+00 2.419755e+00 -2.747134e+00 -5.364809e+00 -1.505039e+00 -2.198910e+00 -8.051297e+00 -5.184391e+00 -4.151244e+00 -5.794719e+00 5.352144e+01 3.085542e-02 -2.590285e-02 2.399924e-02 3.857618e-03 5.277826e-03 -2.289191e-02 3.448874e-03 -6.205200e-03 -2.229751e-02 -2.240016e-03 -1.527910e-02 -1.541140e-02 5.271469e-02 -1.182792e-03 6.876257e-04 4.667711e-04 7.380514e-04 -5.207618e-04 4.746236e-04 -5.579826e-05 2.248049e-04 7.190169e-04 7.612044e-04 -7.061200e-04 2.623339e-04 -2.120852e-03
<VARIANCE> 39
 1.800114e+01 1.519127e+01 2.852846e+01 2.534797e+01 2.821024e+01 3.016612e+01 2.945425e+01 2.471487e+01 2.122073e+01 3.196048e+01 2.418761e+01 1.749120e+01 1.015027e+02 6.487466e-01 6.143028e-01 8.516928e-01 1.009298e+00 1.354946e+00 1.454864e+00 1.663765e+00 1.798384e+00 1.697595e+00 1.681930e+00 1.677035e+00 1.442426e+00 5.849039e-01 9.357016e-02 9.690709e-02 1.357299e-01 1.794185e-01 2.409799e-01 2.700560e-01 3.104460e-01 3.466015e-01 3.343903e-01 3.279697e-01 3.262125e-01 2.850542e-01 6.436716e-02
<GCONST> 9.578694e+01
<STATE> 5
<MEAN> 39
 -8.731349e+00 -6.690251e+00 -4.176391e+00 2.419755e+00 -2.747134e+00 -5.364809e+00 -1.505039e+00 -2.198910e+00 -8.051297e+00 -5.184391e+00 -4.151244e+00 -5.794719e+00 5.352144e+01 3.085542e-02 -2.590285e-02 2.399924e-02 3.857618e-03 5.277826e-03 -2.289191e-02 3.448874e-03 -6.205200e-03 -2.229751e-02 -2.240016e-03 -1.527910e-02 -1.541140e-02 5.271469e-02 -1.182792e-03 6.876257e-04 4.667711e-04 7.380514e-04 -5.207618e-04 4.746236e-04 -5.579826e-05 2.248049e-04 7.190169e-04 7.612044e-04 -7.061200e-04 2.623339e-04 -2.120852e-03
<VARIANCE> 39
 1.800114e+01 1.519127e+01 2.852846e+01 2.534797e+01 2.821024e+01 3.016612e+01 2.945425e+01 2.471487e+01 2.122073e+01 3.196048e+01 2.418761e+01 1.749120e+01 1.015027e+02 6.487466e-01 6.143028e-01 8.516928e-01 1.009298e+00 1.354946e+00 1.454864e+00 1.663765e+00 1.798384e+00 1.697595e+00 1.681930e+00 1.677035e+00 1.442426e+00 5.849039e-01 9.357016e-02 9.690709e-02 1.357299e-01 1.794185e-01 2.409799e-01 2.700560e-01 3.104460e-01 3.466015e-01 3.343903e-01 3.279697e-01 3.262125e-01 2.850542e-01 6.436716e-02
<GCONST> 9.578694e+01
<STATE> 6
<MEAN> 39
 -8.731349e+00 -6.690251e+00 -4.176391e+00 2.419755e+00 -2.747134e+00 -5.364809e+00 -1.505039e+00 -2.198910e+00 -8.051297e+00 -5.184391e+00 -4.151244e+00 -5.794719e+00 5.352144e+01 3.085542e-02 -2.590285e-02 2.399924e-02 3.857618e-03 5.277826e-03 -2.289191e-02 3.448874e-03 -6.205200e-03 -2.229751e-02 -2.240016e-03 -1.527910e-02 -1.541140e-02 5.271469e-02 -1.182792e-03 6.876257e-04 4.667711e-04 7.380514e-04 -5.207618e-04 4.746236e-04 -5.579826e-05 2.248049e-04 7.190169e-04 7.612044e-04 -7.061200e-04 2.623339e-04 -2.120852e-03
<VARIANCE> 39
 1.800114e+01 1.519127e+01 2.852846e+01 2.534797e+01 2.821024e+01 3.016612e+01 2.945425e+01 2.471487e+01 2.122073e+01 3.196048e+01 2.418761e+01 1.749120e+01 1.015027e+02 6.487466e-01 6.143028e-01 8.516928e-01 1.009298e+00 1.354946e+00 1.454864e+00 1.663765e+00 1.798384e+00 1.697595e+00 1.681930e+00 1.677035e+00 1.442426e+00 5.849039e-01 9.357016e-02 9.690709e-02 1.357299e-01 1.794185e-01 2.409799e-01 2.700560e-01 3.104460e-01 3.466015e-01 3.343903e-01 3.279697e-01 3.262125e-01 2.850542e-01 6.436716e-02
<GCONST> 9.578694e+01
<STATE> 7
<MEAN> 39
 -8.731349e+00 -6.690251e+00 -4.176391e+00 2.419755e+00 -2.747134e+00 -5.364809e+00 -1.505039e+00 -2.198910e+00 -8.051297e+00 -5.184391e+00 -4.151244e+00 -5.794719e+00 5.352144e+01 3.085542e-02 -2.590285e-02 2.399924e-02 3.857618e-03 5.277826e-03 -2.289191e-02 3.448874e-03 -6.205200e-03 -2.229751e-02 -2.240016e-03 -1.527910e-02 -1.541140e-02 5.271469e-02 -1.182792e-03 6.876257e-04 4.667711e-04 7.380514e-04 -5.207618e-04 4.746236e-04 -5.579826e-05 2.248049e-04 7.190169e-04 7.612044e-04 -7.061200e-04 2.623339e-04 -2.120852e-03
<VARIANCE> 39
 1.800114e+01 1.519127e+01 2.852846e+01 2.534797e+01 2.821024e+01 3.016612e+01 2.945425e+01 2.471487e+01 2.122073e+01 3.196048e+01 2.418761e+01 1.749120e+01 1.015027e+02 6.487466e-01 6.143028e-01 8.516928e-01 1.009298e+00 1.354946e+00 1.454864e+00 1.663765e+00 1.798384e+00 1.697595e+00 1.681930e+00 1.677035e+00 1.442426e+00 5.849039e-01 9.357016e-02 9.690709e-02 1.357299e-01 1.794185e-01 2.409799e-01 2.700560e-01 3.104460e-01 3.466015e-01 3.343903e-01 3.279697e-01 3.262125e-01 2.850542e-01 6.436716e-02
<GCONST> 9.578694e+01
<STATE> 8
<MEAN> 39
 -8.731349e+00 -6.690251e+00 -4.176391e+00 2.419755e+00 -2.747134e+00 -5.364809e+00 -1.505039e+00 -2.198910e+00 -8.051297e+00 -5.184391e+00 -4.151244e+00 -5.794719e+00 5.352144e+01 3.085542e-02 -2.590285e-02 2.399924e-02 3.857618e-03 5.277826e-03 -2.289191e-02 3.448874e-03 -6.205200e-03 -2.229751e-02 -2.240016e-03 -1.527910e-02 -1.541140e-02 5.271469e-02 -1.182792e-03 6.876257e-04 4.667711e-04 7.380514e-04 -5.207618e-04 4.746236e-04 -5.579826e-05 2.248049e-04 7.190169e-04 7.612044e-04 -7.061200e-04 2.623339e-04 -2.120852e-03
<VARIANCE> 39
 1.800114e+01 1.519127e+01 2.852846e+01 2.534797e+01 2.821024e+01 3.016612e+01 2.945425e+01 2.471487e+01 2.122073e+01 3.196048e+01 2.418761e+01 1.749120e+01 1.015027e+02 6.487466e-01 6.143028e-01 8.516928e-01 1.009298e+00 1.354946e+00 1.454864e+00 1.663765e+00 1.798384e+00 1.697595e+00 1.681930e+00 1.677035e+00 1.442426e+00 5.849039e-01 9.357016e-02 9.690709e-02 1.357299e-01 1.794185e-01 2.409799e-01 2.700560e-01 3.104460e-01 3.466015e-01 3.343903e-01 3.279697e-01 3.262125e-01 2.850542e-01 6.436716e-02
<GCONST> 9.578694e+01
<STATE> 9
<MEAN> 39
 -8.731349e+00 -6.690251e+00 -4.176391e+00 2.419755e+00 -2.747134e+00 -5.364809e+00 -1.505039e+00 -2.198910e+00 -8.051297e+00 -5.184391e+00 -4.151244e+00 -5.794719e+00 5.352144e+01 3.085542e-02 -2.590285e-02 2.399924e-02 3.857618e-03 5.277826e-03 -2.289191e-02 3.448874e-03 -6.205200e-03 -2.229751e-02 -2.240016e-03 -1.527910e-02 -1.541140e-02 5.271469e-02 -1.182792e-03 6.876257e-04 4.667711e-04 7.380514e-04 -5.207618e-04 4.746236e-04 -5.579826e-05 2.248049e-04 7.190169e-04 7.612044e-04 -7.061200e-04 2.623339e-04 -2.120852e-03
<VARIANCE> 39
 1.800114e+01 1.519127e+01 2.852846e+01 2.534797e+01 2.821024e+01 3.016612e+01 2.945425e+01 2.471487e+01 2.122073e+01 3.196048e+01 2.418761e+01 1.749120e+01 1.015027e+02 6.487466e-01 6.143028e-01 8.516928e-01 1.009298e+00 1.354946e+00 1.454864e+00 1.663765e+00 1.798384e+00 1.697595e+00 1.681930e+00 1.677035e+00 1.442426e+00 5.849039e-01 9.357016e-02 9.690709e-02 1.357299e-01 1.794185e-01 2.409799e-01 2.700560e-01 3.104460e-01 3.466015e-01 3.343903e-01 3.279697e-01 3.262125e-01 2.850542e-01 6.436716e-02
<GCONST> 9.578694e+01
<STATE> 10
<MEAN> 39
 -8.731349e+00 -6.690251e+00 -4.176391e+00 2.419755e+00 -2.747134e+00 -5.364809e+00 -1.505039e+00 -2.198910e+00 -8.051297e+00 -5.184391e+00 -4.151244e+00 -5.794719e+00 5.352144e+01 3.085542e-02 -2.590285e-02 2.399924e-02 3.857618e-03 5.277826e-03 -2.289191e-02 3.448874e-03 -6.205200e-03 -2.229751e-02 -2.240016e-03 -1.527910e-02 -1.541140e-02 5.271469e-02 -1.182792e-03 6.876257e-04 4.667711e-04 7.380514e-04 -5.207618e-04 4.746236e-04 -5.579826e-05 2.248049e-04 7.190169e-04 7.612044e-04 -7.061200e-04 2.623339e-04 -2.120852e-03
<VARIANCE> 39
 1.800114e+01 1.519127e+01 2.852846e+01 2.534797e+01 2.821024e+01 3.016612e+01 2.945425e+01 2.471487e+01 2.122073e+01 3.196048e+01 2.418761e+01 1.749120e+01 1.015027e+02 6.487466e-01 6.143028e-01 8.516928e-01 1.009298e+00 1.354946e+00 1.454864e+00 1.663765e+00 1.798384e+00 1.697595e+00 1.681930e+00 1.677035e+00 1.442426e+00 5.849039e-01 9.357016e-02 9.690709e-02 1.357299e-01 1.794185e-01 2.409799e-01 2.700560e-01 3.104460e-01 3.466015e-01 3.343903e-01 3.279697e-01 3.262125e-01 2.850542e-01 6.436716e-02
<GCONST> 9.578694e+01
<STATE> 11
<MEAN> 39
 -8.731349e+00 -6.690251e+00 -4.176391e+00 2.419755e+00 -2.747134e+00 -5.364809e+00 -1.505039e+00 -2.198910e+00 -8.051297e+00 -5.184391e+00 -4.151244e+00 -5.794719e+00 5.352144e+01 3.085542e-02 -2.590285e-02 2.399924e-02 3.857618e-03 5.277826e-03 -2.289191e-02 3.448874e-03 -6.205200e-03 -2.229751e-02 -2.240016e-03 -1.527910e-02 -1.541140e-02 5.271469e-02 -1.182792e-03 6.876257e-04 4.667711e-04 7.380514e-04 -5.207618e-04 4.746236e-04 -5.579826e-05 2.248049e-04 7.190169e-04 7.612044e-04 -7.061200e-04 2.623339e-04 -2.120852e-03
<VARIANCE> 39
 1.800114e+01 1.519127e+01 2.852846e+01 2.534797e+01 2.821024e+01 3.016612e+01 2.945425e+01 2.471487e+01 2.122073e+01 3.196048e+01 2.418761e+01 1.749120e+01 1.015027e+02 6.487466e-01 6.143028e-01 8.516928e-01 1.009298e+00 1.354946e+00 1.454864e+00 1.663765e+00 1.798384e+00 1.697595e+00 1.681930e+00 1.677035e+00 1.442426e+00 5.849039e-01 9.357016e-02 9.690709e-02 1.357299e-01 1.794185e-01 2.409799e-01 2.700560e-01 3.104460e-01 3.466015e-01 3.343903e-01 3.279697e-01 3.262125e-01 2.850542e-01 6.436716e-02
<GCONST> 9.578694e+01
<TRANSP> 12
 0.000000e+00 1.000000e+00 0.000000e+00 0.000000e+00 0.000000e+00 0.000000e+00 0.000000e+00 0.000000e+00 0.000000e+00 0.000000e+00 0.000000e+00 0.000000e+00
 0.000000e+00 6.000000e-01 4.000000e-01 0.000000e+00 0.000000e+00 0.000000e+00 0.000000e+00 0.000000e+00 0.000000e+00 0.000000e+00 0.000000e+00 0.000000e+00
 0.000000e+00 0.000000e+00 6.000000e-01 4.000000e-01 0.000000e+00 0.000000e+00 0.000000e+00 0.000000e+00 0.000000e+00 0.000000e+00 0.000000e+00 0.000000e+00
 0.000000e+00 0.000000e+00 0.000000e+00 6.000000e-01 4.000000e-01 0.000000e+00 0.000000e+00 0.000000e+00 0.000000e+00 0.000000e+00 0.000000e+00 0.000000e+00
 0.000000e+00 0.000000e+00 0.000000e+00 0.000000e+00 6.000000e-01 4.000000e-01 0.000000e+00 0.000000e+00 0.000000e+00 0.000000e+00 0.000000e+00 0.000000e+00
 0.000000e+00 0.000000e+00 0.000000e+00 0.000000e+00 0.000000e+00 6.000000e-01 4.000000e-01 0.000000e+00 0.000000e+00 0.000000e+00 0.000000e+00 0.000000e+00
 0.000000e+00 0.000000e+00 0.000000e+00 0.000000e+00 0.000000e+00 0.000000e+00 6.000000e-01 4.000000e-01 0.000000e+00 0.000000e+00 0.000000e+00 0.000000e+00
 0.000000e+00 0.000000e+00 0.000000e+00 0.000000e+00 0.000000e+00 0.000000e+00 0.000000e+00 6.000000e-01 4.000000e-01 0.000000e+00 0.000000e+00 0.000000e+00
 0.000000e+00 0.000000e+00 0.000000e+00 0.000000e+00 0.000000e+00 0.000000e+00 0.000000e+00 0.000000e+00 6.000000e-01 4.000000e-01 0.000000e+00 0.000000e+00
 0.000000e+00 0.000000e+00 0.000000e+00 0.000000e+00 0.000000e+00 0.000000e+00 0.000000e+00 0.000000e+00 0.000000e+00 6.000000e-01 4.000000e-01 0.000000e+00
 0.000000e+00 0.000000e+00 0.000000e+00 0.000000e+00 0.000000e+00 0.000000e+00 0.000000e+00 0.000000e+00 0.000000e+00 0.000000e+00 6.000000e-01 4.000000e-01
 0.000000e+00 0.000000e+00 0.000000e+00 0.000000e+00 0.000000e+00 0.000000e+00 0.000000e+00 0.000000e+00 0.000000e+00 0.000000e+00 0.000000e+00 0.000000e+00
<ENDHMM>

~h "SEVEN"
<BEGINHMM>
<NUMSTATES> 12
<STATE> 2
<MEAN> 39
 -8.731349e+00 -6.690251e+00 -4.176391e+00 2.419755e+00 -2.747134e+00 -5.364809e+00 -1.505039e+00 -2.198910e+00 -8.051297e+00 -5.184391e+00 -4.151244e+00 -5.794719e+00 5.352144e+01 3.085542e-02 -2.590285e-02 2.399924e-02 3.857618e-03 5.277826e-03 -2.289191e-02 3.448874e-03 -6.205200e-03 -2.229751e-02 -2.240016e-03 -1.527910e-02 -1.541140e-02 5.271469e-02 -1.182792e-03 6.876257e-04 4.667711e-04 7.380514e-04 -5.207618e-04 4.746236e-04 -5.579826e-05 2.248049e-04 7.190169e-04 7.612044e-04 -7.061200e-04 2.623339e-04 -2.120852e-03
<VARIANCE> 39
 1.800114e+01 1.519127e+01 2.852846e+01 2.534797e+01 2.821024e+01 3.016612e+01 2.945425e+01 2.471487e+01 2.122073e+01 3.196048e+01 2.418761e+01 1.749120e+01 1.015027e+02 6.487466e-01 6.143028e-01 8.516928e-01 1.009298e+00 1.354946e+00 1.454864e+00 1.663765e+00 1.798384e+00 1.697595e+00 1.681930e+00 1.677035e+00 1.442426e+00 5.849039e-01 9.357016e-02 9.690709e-02 1.357299e-01 1.794185e-01 2.409799e-01 2.700560e-01 3.104460e-01 3.466015e-01 3.343903e-01 3.279697e-01 3.262125e-01 2.850542e-01 6.436716e-02
<GCONST> 9.578694e+01
<STATE> 3
<MEAN> 39
 -8.731349e+00 -6.690251e+00 -4.176391e+00 2.419755e+00 -2.747134e+00 -5.364809e+00 -1.505039e+00 -2.198910e+00 -8.051297e+00 -5.184391e+00 -4.151244e+00 -5.794719e+00 5.352144e+01 3.085542e-02 -2.590285e-02 2.399924e-02 3.857618e-03 5.277826e-03 -2.289191e-02 3.448874e-03 -6.205200e-03 -2.229751e-02 -2.240016e-03 -1.527910e-02 -1.541140e-02 5.271469e-02 -1.182792e-03 6.876257e-04 4.667711e-04 7.380514e-04 -5.207618e-04 4.746236e-04 -5.579826e-05 2.248049e-04 7.190169e-04 7.612044e-04 -7.061200e-04 2.623339e-04 -2.120852e-03
<VARIANCE> 39
 1.800114e+01 1.519127e+01 2.852846e+01 2.534797e+01 2.821024e+01 3.016612e+01 2.945425e+01 2.471487e+01 2.122073e+01 3.196048e+01 2.418761e+01 1.749120e+01 1.015027e+02 6.487466e-01 6.143028e-01 8.516928e-01 1.009298e+00 1.354946e+00 1.454864e+00 1.663765e+00 1.798384e+00 1.697595e+00 1.681930e+00 1.677035e+00 1.442426e+00 5.849039e-01 9.357016e-02 9.690709e-02 1.357299e-01 1.794185e-01 2.409799e-01 2.700560e-01 3.104460e-01 3.466015e-01 3.343903e-01 3.279697e-01 3.262125e-01 2.850542e-01 6.436716e-02
<GCONST> 9.578694e+01
<STATE> 4
<MEAN> 39
 -8.731349e+00 -6.690251e+00 -4.176391e+00 2.419755e+00 -2.747134e+00 -5.364809e+00 -1.505039e+00 -2.198910e+00 -8.051297e+00 -5.184391e+00 -4.151244e+00 -5.794719e+00 5.352144e+01 3.085542e-02 -2.590285e-02 2.399924e-02 3.857618e-03 5.277826e-03 -2.289191e-02 3.448874e-03 -6.205200e-03 -2.229751e-02 -2.240016e-03 -1.527910e-02 -1.541140e-02 5.271469e-02 -1.182792e-03 6.876257e-04 4.667711e-04 7.380514e-04 -5.207618e-04 4.746236e-04 -5.579826e-05 2.248049e-04 7.190169e-04 7.612044e-04 -7.061200e-04 2.623339e-04 -2.120852e-03
<VARIANCE> 39
 1.800114e+01 1.519127e+01 2.852846e+01 2.534797e+01 2.821024e+01 3.016612e+01 2.945425e+01 2.471487e+01 2.122073e+01 3.196048e+01 2.418761e+01 1.749120e+01 1.015027e+02 6.487466e-01 6.143028e-01 8.516928e-01 1.009298e+00 1.354946e+00 1.454864e+00 1.663765e+00 1.798384e+00 1.697595e+00 1.681930e+00 1.677035e+00 1.442426e+00 5.849039e-01 9.357016e-02 9.690709e-02 1.357299e-01 1.794185e-01 2.409799e-01 2.700560e-01 3.104460e-01 3.466015e-01 3.343903e-01 3.279697e-01 3.262125e-01 2.850542e-01 6.436716e-02
<GCONST> 9.578694e+01
<STATE> 5
<MEAN> 39
 -8.731349e+00 -6.690251e+00 -4.176391e+00 2.419755e+00 -2.747134e+00 -5.364809e+00 -1.505039e+00 -2.198910e+00 -8.051297e+00 -5.184391e+00 -4.151244e+00 -5.794719e+00 5.352144e+01 3.085542e-02 -2.590285e-02 2.399924e-02 3.857618e-03 5.277826e-03 -2.289191e-02 3.448874e-03 -6.205200e-03 -2.229751e-02 -2.240016e-03 -1.527910e-02 -1.541140e-02 5.271469e-02 -1.182792e-03 6.876257e-04 4.667711e-04 7.380514e-04 -5.207618e-04 4.746236e-04 -5.579826e-05 2.248049e-04 7.190169e-04 7.612044e-04 -7.061200e-04 2.623339e-04 -2.120852e-03
<VARIANCE> 39
 1.800114e+01 1.519127e+01 2.852846e+01 2.534797e+01 2.821024e+01 3.016612e+01 2.945425e+01 2.471487e+01 2.122073e+01 3.196048e+01 2.418761e+01 1.749120e+01 1.015027e+02 6.487466e-01 6.143028e-01 8.516928e-01 1.009298e+00 1.354946e+00 1.454864e+00 1.663765e+00 1.798384e+00 1.697595e+00 1.681930e+00 1.677035e+00 1.442426e+00 5.849039e-01 9.357016e-02 9.690709e-02 1.357299e-01 1.794185e-01 2.409799e-01 2.700560e-01 3.104460e-01 3.466015e-01 3.343903e-01 3.279697e-01 3.262125e-01 2.850542e-01 6.436716e-02
<GCONST> 9.578694e+01
<STATE> 6
<MEAN> 39
 -8.731349e+00 -6.690251e+00 -4.176391e+00 2.419755e+00 -2.747134e+00 -5.364809e+00 -1.505039e+00 -2.198910e+00 -8.051297e+00 -5.184391e+00 -4.151244e+00 -5.794719e+00 5.352144e+01 3.085542e-02 -2.590285e-02 2.399924e-02 3.857618e-03 5.277826e-03 -2.289191e-02 3.448874e-03 -6.205200e-03 -2.229751e-02 -2.240016e-03 -1.527910e-02 -1.541140e-02 5.271469e-02 -1.182792e-03 6.876257e-04 4.667711e-04 7.380514e-04 -5.207618e-04 4.746236e-04 -5.579826e-05 2.248049e-04 7.190169e-04 7.612044e-04 -7.061200e-04 2.623339e-04 -2.120852e-03
<VARIANCE> 39
 1.800114e+01 1.519127e+01 2.852846e+01 2.534797e+01 2.821024e+01 3.016612e+01 2.945425e+01 2.471487e+01 2.122073e+01 3.196048e+01 2.418761e+01 1.749120e+01 1.015027e+02 6.487466e-01 6.143028e-01 8.516928e-01 1.009298e+00 1.354946e+00 1.454864e+00 1.663765e+00 1.798384e+00 1.697595e+00 1.681930e+00 1.677035e+00 1.442426e+00 5.849039e-01 9.357016e-02 9.690709e-02 1.357299e-01 1.794185e-01 2.409799e-01 2.700560e-01 3.104460e-01 3.466015e-01 3.343903e-01 3.279697e-01 3.262125e-01 2.850542e-01 6.436716e-02
<GCONST> 9.578694e+01
<STATE> 7
<MEAN> 39
 -8.731349e+00 -6.690251e+00 -4.176391e+00 2.419755e+00 -2.747134e+00 -5.364809e+00 -1.505039e+00 -2.198910e+00 -8.051297e+00 -5.184391e+00 -4.151244e+00 -5.794719e+00 5.352144e+01 3.085542e-02 -2.590285e-02 2.399924e-02 3.857618e-03 5.277826e-03 -2.289191e-02 3.448874e-03 -6.205200e-03 -2.229751e-02 -2.240016e-03 -1.527910e-02 -1.541140e-02 5.271469e-02 -1.182792e-03 6.876257e-04 4.667711e-04 7.380514e-04 -5.207618e-04 4.746236e-04 -5.579826e-05 2.248049e-04 7.190169e-04 7.612044e-04 -7.061200e-04 2.623339e-04 -2.120852e-03
<VARIANCE> 39
 1.800114e+01 1.519127e+01 2.852846e+01 2.534797e+01 2.821024e+01 3.016612e+01 2.945425e+01 2.471487e+01 2.122073e+01 3.196048e+01 2.418761e+01 1.749120e+01 1.015027e+02 6.487466e-01 6.143028e-01 8.516928e-01 1.009298e+00 1.354946e+00 1.454864e+00 1.663765e+00 1.798384e+00 1.697595e+00 1.681930e+00 1.677035e+00 1.442426e+00 5.849039e-01 9.357016e-02 9.690709e-02 1.357299e-01 1.794185e-01 2.409799e-01 2.700560e-01 3.104460e-01 3.466015e-01 3.343903e-01 3.279697e-01 3.262125e-01 2.850542e-01 6.436716e-02
<GCONST> 9.578694e+01
<STATE> 8
<MEAN> 39
 -8.731349e+00 -6.690251e+00 -4.176391e+00 2.419755e+00 -2.747134e+00 -5.364809e+00 -1.505039e+00 -2.198910e+00 -8.051297e+00 -5.184391e+00 -4.151244e+00 -5.794719e+00 5.352144e+01 3.085542e-02 -2.590285e-02 2.399924e-02 3.857618e-03 5.277826e-03 -2.289191e-02 3.448874e-03 -6.205200e-03 -2.229751e-02 -2.240016e-03 -1.527910e-02 -1.541140e-02 5.271469e-02 -1.182792e-03 6.876257e-04 4.667711e-04 7.380514e-04 -5.207618e-04 4.746236e-04 -5.579826e-05 2.248049e-04 7.190169e-04 7.612044e-04 -7.061200e-04 2.623339e-04 -2.120852e-03
<VARIANCE> 39
 1.800114e+01 1.519127e+01 2.852846e+01 2.534797e+01 2.821024e+01 3.016612e+01 2.945425e+01 2.471487e+01 2.122073e+01 3.196048e+01 2.418761e+01 1.749120e+01 1.015027e+02 6.487466e-01 6.143028e-01 8.516928e-01 1.009298e+00 1.354946e+00 1.454864e+00 1.663765e+00 1.798384e+00 1.697595e+00 1.681930e+00 1.677035e+00 1.442426e+00 5.849039e-01 9.357016e-02 9.690709e-02 1.357299e-01 1.794185e-01 2.409799e-01 2.700560e-01 3.104460e-01 3.466015e-01 3.343903e-01 3.279697e-01 3.262125e-01 2.850542e-01 6.436716e-02
<GCONST> 9.578694e+01
<STATE> 9
<MEAN> 39
 -8.731349e+00 -6.690251e+00 -4.176391e+00 2.419755e+00 -2.747134e+00 -5.364809e+00 -1.505039e+00 -2.198910e+00 -8.051297e+00 -5.184391e+00 -4.151244e+00 -5.794719e+00 5.352144e+01 3.085542e-02 -2.590285e-02 2.399924e-02 3.857618e-03 5.277826e-03 -2.289191e-02 3.448874e-03 -6.205200e-03 -2.229751e-02 -2.240016e-03 -1.527910e-02 -1.541140e-02 5.271469e-02 -1.182792e-03 6.876257e-04 4.667711e-04 7.380514e-04 -5.207618e-04 4.746236e-04 -5.579826e-05 2.248049e-04 7.190169e-04 7.612044e-04 -7.061200e-04 2.623339e-04 -2.120852e-03
<VARIANCE> 39
 1.800114e+01 1.519127e+01 2.852846e+01 2.534797e+01 2.821024e+01 3.016612e+01 2.945425e+01 2.471487e+01 2.122073e+01 3.196048e+01 2.418761e+01 1.749120e+01 1.015027e+02 6.487466e-01 6.143028e-01 8.516928e-01 1.009298e+00 1.354946e+00 1.454864e+00 1.663765e+00 1.798384e+00 1.697595e+00 1.681930e+00 1.677035e+00 1.442426e+00 5.849039e-01 9.357016e-02 9.690709e-02 1.357299e-01 1.794185e-01 2.409799e-01 2.700560e-01 3.104460e-01 3.466015e-01 3.343903e-01 3.279697e-01 3.262125e-01 2.850542e-01 6.436716e-02
<GCONST> 9.578694e+01
<STATE> 10
<MEAN> 39
