~o
<STREAMINFO> 1 39
<VECSIZE> 39<NULLD><MFCC_D_A_0><DIAGC>
~h "proto"
<BEGINHMM>
<NUMSTATES> 12
<STATE> 2
<MEAN> 39
 -4.988968e+00 -2.830333e+00 4.916252e+00 -3.822390e+00 -3.698800e+00 -4.038130e+00 -1.495547e+00 -2.332011e+00 3.597426e+00 -3.334448e-01 2.257015e+00 -1.073109e+00 6.476976e+01 7.135464e-03 5.287029e-03 -4.816909e-03 8.529848e-04 2.472838e-03 -3.910834e-04 2.261064e-03 -1.535043e-03 -2.842428e-03 2.121886e-03 -1.816402e-04 -2.585233e-03 -3.002422e-03 2.768816e-05 5.344354e-04 -1.995265e-03 8.673176e-04 6.539093e-04 5.532811e-04 1.655087e-03 -7.955035e-04 7.131374e-04 8.080857e-04 1.071702e-03 1.326151e-03 -1.382292e-03
<VARIANCE> 39
 4.212869e+01 2.792749e+01 5.652618e+01 3.201803e+01 5.349968e+01 2.984013e+01 3.884946e+01 3.061316e+01 2.457367e+01 2.251308e+01 2.008276e+01 2.060558e+01 4.219971e+01 1.010767e+00 1.121629e+00 1.395409e+00 1.439542e+00 1.810081e+00 1.614172e+00 1.911339e+00 1.873454e+00 1.709788e+00 1.609177e+00 1.512661e+00 1.310961e+00 6.930705e-01 1.225248e-01 1.686406e-01 1.897202e-01 2.236560e-01 2.848979e-01 2.748586e-01 3.343083e-01 3.388936e-01 3.203923e-01 3.006778e-01 2.851899e-01 2.447463e-01 8.023740e-02
<GCONST> 1.020007e+02
<STATE> 3
<MEAN> 39
 -4.988968e+00 -2.830333e+00 4.916252e+00 -3.822390e+00 -3.698800e+00 -4.038130e+00 -1.495547e+00 -2.332011e+00 3.597426e+00 -3.334448e-01 2.257015e+00 -1.073109e+00 6.476976e+01 7.135464e-03 5.287029e-03 -4.816909e-03 8.529848e-04 2.472838e-03 -3.910834e-04 2.261064e-03 -1.535043e-03 -2.842428e-03 2.121886e-03 -1.816402e-04 -2.585233e-03 -3.002422e-03 2.768816e-05 5.344354e-04 -1.995265e-03 8.673176e-04 6.539093e-04 5.532811e-04 1.655087e-03 -7.955035e-04 7.131374e-04 8.080857e-04 1.071702e-03 1.326151e-03 -1.382292e-03
<VARIANCE> 39
 4.212869e+01 2.792749e+01 5.652618e+01 3.201803e+01 5.349968e+01 2.984013e+01 3.884946e+01 3.061316e+01 2.457367e+01 2.251308e+01 2.008276e+01 2.060558e+01 4.219971e+01 1.010767e+00 1.121629e+00 1.395409e+00 1.439542e+00 1.810081e+00 1.614172e+00 1.911339e+00 1.873454e+00 1.709788e+00 1.609177e+00 1.512661e+00 1.310961e+00 6.930705e-01 1.225248e-01 1.686406e-01 1.897202e-01 2.236560e-01 2.848979e-01 2.748586e-01 3.343083e-01 3.388936e-01 3.203923e-01 3.006778e-01 2.851899e-01 2.447463e-01 8.023740e-02
<GCONST> 1.020007e+02
<STATE> 4
<MEAN> 39
 -4.988968e+00 -2.830333e+00 4.916252e+00 -3.822390e+00 -3.698800e+00 -4.038130e+00 -1.495547e+00 -2.332011e+00 3.597426e+00 -3.334448e-01 2.257015e+00 -1.073109e+00 6.476976e+01 7.135464e-03 5.287029e-03 -4.816909e-03 8.529848e-04 2.472838e-03 -3.910834e-04 2.261064e-03 -1.535043e-03 -2.842428e-03 2.121886e-03 -1.816402e-04 -2.585233e-03 -3.002422e-03 2.768816e-05 5.344354e-04 -1.995265e-03 8.673176e-04 6.539093e-04 5.532811e-04 1.655087e-03 -7.955035e-04 7.131374e-04 8.080857e-04 1.071702e-03 1.326151e-03 -1.382292e-03
<VARIANCE> 39
 4.212869e+01 2.792749e+01 5.652618e+01 3.201803e+01 5.349968e+01 2.984013e+01 3.884946e+01 3.061316e+01 2.457367e+01 2.251308e+01 2.008276e+01 2.060558e+01 4.219971e+01 1.010767e+00 1.121629e+00 1.395409e+00 1.439542e+00 1.810081e+00 1.614172e+00 1.911339e+00 1.873454e+00 1.709788e+00 1.609177e+00 1.512661e+00 1.310961e+00 6.930705e-01 1.225248e-01 1.686406e-01 1.897202e-01 2.236560e-01 2.848979e-01 2.748586e-01 3.343083e-01 3.388936e-01 3.203923e-01 3.006778e-01 2.851899e-01 2.447463e-01 8.023740e-02
<GCONST> 1.020007e+02
<STATE> 5
<MEAN> 39
 -4.988968e+00 -2.830333e+00 4.916252e+00 -3.822390e+00 -3.698800e+00 -4.038130e+00 -1.495547e+00 -2.332011e+00 3.597426e+00 -3.334448e-01 2.257015e+00 -1.073109e+00 6.476976e+01 7.135464e-03 5.287029e-03 -4.816909e-03 8.529848e-04 2.472838e-03 -3.910834e-04 2.261064e-03 -1.535043e-03 -2.842428e-03 2.121886e-03 -1.816402e-04 -2.585233e-03 -3.002422e-03 2.768816e-05 5.344354e-04 -1.995265e-03 8.673176e-04 6.539093e-04 5.532811e-04 1.655087e-03 -7.955035e-04 7.131374e-04 8.080857e-04 1.071702e-03 1.326151e-03 -1.382292e-03
<VARIANCE> 39
 4.212869e+01 2.792749e+01 5.652618e+01 3.201803e+01 5.349968e+01 2.984013e+01 3.884946e+01 3.061316e+01 2.457367e+01 2.251308e+01 2.008276e+01 2.060558e+01 4.219971e+01 1.010767e+00 1.121629e+00 1.395409e+00 1.439542e+00 1.810081e+00 1.614172e+00 1.911339e+00 1.873454e+00 1.709788e+00 1.609177e+00 1.512661e+00 1.310961e+00 6.930705e-01 1.225248e-01 1.686406e-01 1.897202e-01 2.236560e-01 2.848979e-01 2.748586e-01 3.343083e-01 3.388936e-01 3.203923e-01 3.006778e-01 2.851899e-01 2.447463e-01 8.023740e-02
<GCONST> 1.020007e+02
<STATE> 6
<MEAN> 39
 -4.988968e+00 -2.830333e+00 4.916252e+00 -3.822390e+00 -3.698800e+00 -4.038130e+00 -1.495547e+00 -2.332011e+00 3.597426e+00 -3.334448e-01 2.257015e+00 -1.073109e+00 6.476976e+01 7.135464e-03 5.287029e-03 -4.816909e-03 8.529848e-04 2.472838e-03 -3.910834e-04 2.261064e-03 -1.535043e-03 -2.842428e-03 2.121886e-03 -1.816402e-04 -2.585233e-03 -3.002422e-03 2.768816e-05 5.344354e-04 -1.995265e-03 8.673176e-04 6.539093e-04 5.532811e-04 1.655087e-03 -7.955035e-04 7.131374e-04 8.080857e-04 1.071702e-03 1.326151e-03 -1.382292e-03
<VARIANCE> 39
 4.212869e+01 2.792749e+01 5.652618e+01 3.201803e+01 5.349968e+01 2.984013e+01 3.884946e+01 3.061316e+01 2.457367e+01 2.251308e+01 2.008276e+01 2.060558e+01 4.219971e+01 1.010767e+00 1.121629e+00 1.395409e+00 1.439542e+00 1.810081e+00 1.614172e+00 1.911339e+00 1.873454e+00 1.709788e+00 1.609177e+00 1.512661e+00 1.310961e+00 6.930705e-01 1.225248e-01 1.686406e-01 1.897202e-01 2.236560e-01 2.848979e-01 2.748586e-01 3.343083e-01 3.388936e-01 3.203923e-01 3.006778e-01 2.851899e-01 2.447463e-01 8.023740e-02
<GCONST> 1.020007e+02
<STATE> 7
<MEAN> 39
 -4.988968e+00 -2.830333e+00 4.916252e+00 -3.822390e+00 -3.698800e+00 -4.038130e+00 -1.495547e+00 -2.332011e+00 3.597426e+00 -3.334448e-01 2.257015e+00 -1.073109e+00 6.476976e+01 7.135464e-03 5.287029e-03 -4.816909e-03 8.529848e-04 2.472838e-03 -3.910834e-04 2.261064e-03 -1.535043e-03 -2.842428e-03 2.121886e-03 -1.816402e-04 -2.585233e-03 -3.002422e-03 2.768816e-05 5.344354e-04 -1.995265e-03 8.673176e-04 6.539093e-04 5.532811e-04 1.655087e-03 -7.955035e-04 7.131374e-04 8.080857e-04 1.071702e-03 1.326151e-03 -1.382292e-03
<VARIANCE> 39
 4.212869e+01 2.792749e+01 5.652618e+01 3.201803e+01 5.349968e+01 2.984013e+01 3.884946e+01 3.061316e+01 2.457367e+01 2.251308e+01 2.008276e+01 2.060558e+01 4.219971e+01 1.010767e+00 1.121629e+00 1.395409e+00 1.439542e+00 1.810081e+00 1.614172e+00 1.911339e+00 1.873454e+00 1.709788e+00 1.609177e+00 1.512661e+00 1.310961e+00 6.930705e-01 1.225248e-01 1.686406e-01 1.897202e-01 2.236560e-01 2.848979e-01 2.748586e-01 3.343083e-01 3.388936e-01 3.203923e-01 3.006778e-01 2.851899e-01 2.447463e-01 8.023740e-02
<GCONST> 1.020007e+02
<STATE> 8
<MEAN> 39
 -4.988968e+00 -2.830333e+00 4.916252e+00 -3.822390e+00 -3.698800e+00 -4.038130e+00 -1.495547e+00 -2.332011e+00 3.597426e+00 -3.334448e-01 2.257015e+00 -1.073109e+00 6.476976e+01 7.135464e-03 5.287029e-03 -4.816909e-03 8.529848e-04 2.472838e-03 -3.910834e-04 2.261064e-03 -1.535043e-03 -2.842428e-03 2.121886e-03 -1.816402e-04 -2.585233e-03 -3.002422e-03 2.768816e-05 5.344354e-04 -1.995265e-03 8.673176e-04 6.539093e-04 5.532811e-04 1.655087e-03 -7.955035e-04 7.131374e-04 8.080857e-04 1.071702e-03 1.326151e-03 -1.382292e-03
<VARIANCE> 39
 4.212869e+01 2.792749e+01 5.652618e+01 3.201803e+01 5.349968e+01 2.984013e+01 3.884946e+01 3.061316e+01 2.457367e+01 2.251308e+01 2.008276e+01 2.060558e+01 4.219971e+01 1.010767e+00 1.121629e+00 1.395409e+00 1.439542e+00 1.810081e+00 1.614172e+00 1.911339e+00 1.873454e+00 1.709788e+00 1.609177e+00 1.512661e+00 1.310961e+00 6.930705e-01 1.225248e-01 1.686406e-01 1.897202e-01 2.236560e-01 2.848979e-01 2.748586e-01 3.343083e-01 3.388936e-01 3.203923e-01 3.006778e-01 2.851899e-01 2.447463e-01 8.023740e-02
<GCONST> 1.020007e+02
<STATE> 9
<MEAN> 39
 -4.988968e+00 -2.830333e+00 4.916252e+00 -3.822390e+00 -3.698800e+00 -4.038130e+00 -1.495547e+00 -2.332011e+00 3.597426e+00 -3.334448e-01 2.257015e+00 -1.073109e+00 6.476976e+01 7.135464e-03 5.287029e-03 -4.816909e-03 8.529848e-04 2.472838e-03 -3.910834e-04 2.261064e-03 -1.535043e-03 -2.842428e-03 2.121886e-03 -1.816402e-04 -2.585233e-03 -3.002422e-03 2.768816e-05 5.344354e-04 -1.995265e-03 8.673176e-04 6.539093e-04 5.532811e-04 1.655087e-03 -7.955035e-04 7.131374e-04 8.080857e-04 1.071702e-03 1.326151e-03 -1.382292e-03
<VARIANCE> 39
 4.212869e+01 2.792749e+01 5.652618e+01 3.201803e+01 5.349968e+01 2.984013e+01 3.884946e+01 3.061316e+01 2.457367e+01 2.251308e+01 2.008276e+01 2.060558e+01 4.219971e+01 1.010767e+00 1.121629e+00 1.395409e+00 1.439542e+00 1.810081e+00 1.614172e+00 1.911339e+00 1.873454e+00 1.709788e+00 1.609177e+00 1.512661e+00 1.310961e+00 6.930705e-01 1.225248e-01 1.686406e-01 1.897202e-01 2.236560e-01 2.848979e-01 2.748586e-01 3.343083e-01 3.388936e-01 3.203923e-01 3.006778e-01 2.851899e-01 2.447463e-01 8.023740e-02
<GCONST> 1.020007e+02
<STATE> 10
<MEAN> 39
 -4.988968e+00 -2.830333e+00 4.916252e+00 -3.822390e+00 -3.698800e+00 -4.038130e+00 -1.495547e+00 -2.332011e+00 3.597426e+00 -3.334448e-01 2.257015e+00 -1.073109e+00 6.476976e+01 7.135464e-03 5.287029e-03 -4.816909e-03 8.529848e-04 2.472838e-03 -3.910834e-04 2.261064e-03 -1.535043e-03 -2.842428e-03 2.121886e-03 -1.816402e-04 -2.585233e-03 -3.002422e-03 2.768816e-05 5.344354e-04 -1.995265e-03 8.673176e-04 6.539093e-04 5.532811e-04 1.655087e-03 -7.955035e-04 7.131374e-04 8.080857e-04 1.071702e-03 1.326151e-03 -1.382292e-03
<VARIANCE> 39
 4.212869e+01 2.792749e+01 5.652618e+01 3.201803e+01 5.349968e+01 2.984013e+01 3.884946e+01 3.061316e+01 2.457367e+01 2.251308e+01 2.008276e+01 2.060558e+01 4.219971e+01 1.010767e+00 1.121629e+00 1.395409e+00 1.439542e+00 1.810081e+00 1.614172e+00 1.911339e+00 1.873454e+00 1.709788e+00 1.609177e+00 1.512661e+00 1.310961e+00 6.930705e-01 1.225248e-01 1.686406e-01 1.897202e-01 2.236560e-01 2.848979e-01 2.748586e-01 3.343083e-01 3.388936e-01 3.203923e-01 3.006778e-01 2.851899e-01 2.447463e-01 8.023740e-02
<GCONST> 1.020007e+02
<STATE> 11
<MEAN> 39
 -4.988968e+00 -2.830333e+00 4.916252e+00 -3.822390e+00 -3.698800e+00 -4.038130e+00 -1.495547e+00 -2.332011e+00 3.597426e+00 -3.334448e-01 2.257015e+00 -1.073109e+00 6.476976e+01 7.135464e-03 5.287029e-03 -4.816909e-03 8.529848e-04 2.472838e-03 -3.910834e-04 2.261064e-03 -1.535043e-03 -2.842428e-03 2.121886e-03 -1.816402e-04 -2.585233e-03 -3.002422e-03 2.768816e-05 5.344354e-04 -1.995265e-03 8.673176e-04 6.539093e-04 5.532811e-04 1.655087e-03 -7.955035e-04 7.131374e-04 8.080857e-04 1.071702e-03 1.326151e-03 -1.382292e-03
<VARIANCE> 39
 4.212869e+01 2.792749e+01 5.652618e+01 3.201803e+01 5.349968e+01 2.984013e+01 3.884946e+01 3.061316e+01 2.457367e+01 2.251308e+01 2.008276e+01 2.060558e+01 4.219971e+01 1.010767e+00 1.121629e+00 1.395409e+00 1.439542e+00 1.810081e+00 1.614172e+00 1.911339e+00 1.873454e+00 1.709788e+00 1.609177e+00 1.512661e+00 1.310961e+00 6.930705e-01 1.225248e-01 1.686406e-01 1.897202e-01 2.236560e-01 2.848979e-01 2.748586e-01 3.343083e-01 3.388936e-01 3.203923e-01 3.006778e-01 2.851899e-01 2.447463e-01 8.023740e-02
<GCONST> 1.020007e+02
<TRANSP> 12
 0.000000e+00 1.000000e+00 0.000000e+00 0.000000e+00 0.000000e+00 0.000000e+00 0.000000e+00 0.000000e+00 0.000000e+00 0.000000e+00 0.000000e+00 0.000000e+00
 0.000000e+00 6.000000e-01 4.000000e-01 0.000000e+00 0.000000e+00 0.000000e+00 0.000000e+00 0.000000e+00 0.000000e+00 0.000000e+00 0.000000e+00 0.000000e+00
 0.000000e+00 0.000000e+00 6.000000e-01 4.000000e-01 0.000000e+00 0.000000e+00 0.000000e+00 0.000000e+00 0.000000e+00 0.000000e+00 0.000000e+00 0.000000e+00
 0.000000e+00 0.000000e+00 0.000000e+00 6.000000e-01 4.000000e-01 0.000000e+00 0.000000e+00 0.000000e+00 0.000000e+00 0.000000e+00 0.000000e+00 0.000000e+00
 0.000000e+00 0.000000e+00 0.000000e+00 0.000000e+00 6.000000e-01 4.000000e-01 0.000000e+00 0.000000e+00 0.000000e+00 0.000000e+00 0.000000e+00 0.000000e+00
 0.000000e+00 0.000000e+00 0.000000e+00 0.000000e+00 0.000000e+00 6.000000e-01 4.000000e-01 0.000000e+00 0.000000e+00 0.000000e+00 0.000000e+00 0.000000e+00
 0.000000e+00 0.000000e+00 0.000000e+00 0.000000e+00 0.000000e+00 0.000000e+00 6.000000e-01 4.000000e-01 0.000000e+00 0.000000e+00 0.000000e+00 0.000000e+00
 0.000000e+00 0.000000e+00 0.000000e+00 0.000000e+00 0.000000e+00 0.000000e+00 0.000000e+00 6.000000e-01 4.000000e-01 0.000000e+00 0.000000e+00 0.000000e+00
 0.000000e+00 0.000000e+00 0.000000e+00 0.000000e+00 0.000000e+00 0.000000e+00 0.000000e+00 0.000000e+00 6.000000e-01 4.000000e-01 0.000000e+00 0.000000e+00
 0.000000e+00 0.000000e+00 0.000000e+00 0.000000e+00 0.000000e+00 0.000000e+00 0.000000e+00 0.000000e+00 0.000000e+00 6.000000e-01 4.000000e-01 0.000000e+00
 0.000000e+00 0.000000e+00 0.000000e+00 0.000000e+00 0.000000e+00 0.000000e+00 0.000000e+00 0.000000e+00 0.000000e+00 0.000000e+00 6.000000e-01 4.000000e-01
 0.000000e+00 0.000000e+00 0.000000e+00 0.000000e+00 0.000000e+00 0.000000e+00 0.000000e+00 0.000000e+00 0.000000e+00 0.000000e+00 0.000000e+00 0.000000e+00
<ENDHMM>
