~o
<STREAMINFO> 1 39
<VECSIZE> 39<NULLD><MFCC_D_A_0><DIAGC>
~v "varFloor1"
<VARIANCE> 39
 1.800114e-01 1.519127e-01 2.852846e-01 2.534797e-01 2.821024e-01 3.016612e-01 2.945425e-01 2.471487e-01 2.122073e-01 3.196048e-01 2.418761e-01 1.749120e-01 1.015027e+00 6.487466e-03 6.143028e-03 8.516928e-03 1.009298e-02 1.354946e-02 1.454864e-02 1.663765e-02 1.798384e-02 1.697595e-02 1.681930e-02 1.677035e-02 1.442426e-02 5.849039e-03 9.357015e-04 9.690709e-04 1.357299e-03 1.794185e-03 2.409799e-03 2.700560e-03 3.104459e-03 3.466015e-03 3.343903e-03 3.279697e-03 3.262125e-03 2.850542e-03 6.436716e-04
~h "ZERO"
<BEGINHMM>
<NUMSTATES> 12
<STATE> 2
<MEAN> 39
 -9.957675e+00 3.806690e-01 1.173109e+01 9.376001e-01 -9.746161e+00 -1.598188e+01 -1.412138e+01 -3.145007e+00 -9.677611e+00 -1.276311e+01 4.195066e+00 1.996961e-01 7.308570e+01 6.390672e-01 -6.226043e-01 1.088647e-01 -1.439923e-01 -6.362342e-01 9.267183e-02 -5.033154e-01 6.017201e-02 -3.591123e-02 2.509392e-01 3.482654e-01 -1.430196e-01 5.100135e-02 6.893170e-02 -1.127465e-02 -6.202322e-02 -5.092671e-02 -4.379643e-02 1.226838e-01 9.278760e-02 -9.427319e-02 -4.820713e-02 6.834137e-02 3.375378e-02 -8.692479e-03 -4.310250e-02
<VARIANCE> 39
 3.382830e+01 4.092763e+01 7.051038e+01 3.996353e+01 1.349347e+02 3.726819e+01 7.164404e+01 4.713947e+01 4.245712e+01 2.583906e+01 5.666918e+01 1.981200e+01 2.824169e+00 7.282146e-01 7.132976e-01 3.848521e+00 2.175674e+00 4.120810e+00 3.274606e+00 3.012542e+00 3.125060e+00 2.720635e+00 1.721187e+00 3.784543e+00 1.728240e+00 2.530687e-01 1.116644e-01 1.341217e-01 2.542338e-01 3.880874e-01 4.919678e-01 4.866772e-01 4.060807e-01 4.596669e-01 4.123698e-01 3.044334e-01 5.999671e-01 3.270622e-01 3.151036e-02
<GCONST> 1.101399e+02
<STATE> 3
<MEAN> 39
 2.437552e+00 -7.371812e+00 -2.806865e+00 -2.871252e+00 -1.015328e+01 -4.531733e+00 -6.288397e+00 -5.934665e+00 -9.096499e+00 -5.091019e+00 4.450287e+00 -2.576777e+00 6.999836e+01 1.108997e-01 4.489406e-01 -4.226293e-01 -1.787486e+00 -9.406829e-02 1.609662e+00 2.154853e+00 -8.023458e-01 -4.383669e-01 -3.471460e-01 -1.802559e-01 1.299684e+00 -5.905322e-01 -2.664512e-01 6.267085e-02 2.181285e-01 1.467365e-01 1.789411e-01 -5.361841e-01 -1.648987e-01 4.447058e-01 4.404417e-01 -1.806325e-01 -5.246412e-01 2.671318e-02 -7.109249e-02
<VARIANCE> 39
 2.552631e+00 1.718885e+01 6.126097e+00 2.810284e+01 1.198758e+01 2.845415e+01 2.565573e+01 1.931760e+01 2.357252e+01 1.365816e+01 1.374829e+01 2.482249e+01 2.981160e+00 5.145415e-01 3.628194e-01 6.872786e-01 1.667473e+00 1.272212e+00 3.239472e+00 1.015958e+00 3.310014e+00 2.103043e+00 2.185503e+00 2.440593e+00 1.720345e+00 1.056068e-01 6.964163e-02 7.246419e-02 1.348643e-01 3.300383e-01 2.456416e-01 3.428697e-01 1.981585e-01 4.678116e-01 4.686093e-01 4.969270e-01 3.646275e-01 5.103059e-01 1.513345e-02
<GCONST> 8.655971e+01
<STATE> 4
<MEAN> 39
 1.198083e+00 -4.532504e+00 -3.980551e+00 -7.053082e+00 -8.261345e+00 -4.312649e+00 1.754939e+00 -2.710201e+00 -7.942386e+00 -6.423141e+00 -8.057176e-01 1.079824e+00 6.601790e+01 -4.916156e-01 2.702920e-01 -4.159322e-01 2.692945e-01 8.349692e-01 -2.669221e-01 1.131190e+00 1.193426e+00 6.708362e-01 7.497965e-01 -1.017721e+00 -3.017557e-01 -9.311167e-01 -1.522903e-01 -1.614296e-01 3.925785e-03 4.323500e-01 1.483888e-01 2.164102e-02 -2.772895e-01 -4.280540e-02 3.716409e-02 2.639927e-01 2.744464e-01 -3.408680e-01 -5.067639e-02
<VARIANCE> 39
 1.834584e+00 8.656949e+00 5.708333e+00 1.387793e+01 9.604245e+00 1.498666e+01 1.727461e+01 1.918728e+01 1.188965e+01 1.689064e+01 1.287414e+01 1.306846e+01 3.585194e+00 2.720422e-01 4.983649e-01 4.598798e-01 1.405287e+00 7.457753e-01 1.072308e+00 1.325280e+00 1.139179e+00 1.323621e+00 1.614819e+00 1.286719e+00 1.447929e+00 1.121441e-01 4.798189e-02 4.767901e-02 1.161117e-01 1.696279e-01 1.585120e-01 1.967246e-01 2.682911e-01 3.451323e-01 2.366596e-01 3.262005e-01 2.630130e-01 2.589152e-01 1.251778e-02
<GCONST> 7.275591e+01
<STATE> 5
<MEAN> 39
 -2.801798e+00 -5.489091e+00 -5.186871e+00 -2.835501e+00 -3.106508e+00 -4.908144e+00 3.490668e+00 -2.866386e-01 -5.576707e+00 -1.588892e+00 -1.634053e+00 -2.460766e+00 6.190063e+01 -1.205060e+00 -5.142581e-01 7.470530e-02 1.042785e+00 1.022596e+00 -2.526167e-01 -5.159026e-01 -1.178907e-01 2.353295e-01 6.623782e-01 5.663189e-02 -1.195725e+00 -9.269844e-01 1.697364e-02 -1.771191e-01 1.348835e-01 -8.610698e-02 -1.523599e-01 -1.408933e-01 -3.380233e-01 -4.401486e-01 -1.511105e-01 -3.055745e-01 -6.649642e-02 -1.208919e-01 4.321657e-02
<VARIANCE> 39
 8.371392e+00 2.938442e+00 4.759540e+00 1.058366e+01 1.402856e+01 1.644887e+01 1.231049e+01 1.140286e+01 1.277477e+01 1.783445e+01 1.332081e+01 1.312280e+01 2.756404e+00 3.333708e-01 3.368904e-01 6.579861e-01 1.356137e+00 1.139825e+00 1.338601e+00 1.839418e+00 1.605170e+00 1.289208e+00 1.975352e+00 1.843563e+00 1.611747e+00 2.003869e-01 1.034633e-01 5.390943e-02 7.042141e-02 2.955359e-01 2.235521e-01 2.629432e-01 2.772876e-01 2.236089e-01 3.586127e-01 3.945429e-01 3.849379e-01 2.391902e-01 3.537546e-02
<GCONST> 7.805414e+01
<STATE> 6
<MEAN> 39
 -5.358491e+00 -7.601475e+00 -4.229975e+00 -2.098863e-01 -1.803122e+00 -6.564198e+00 2.629065e-01 -2.691216e+00 -5.133522e+00 -1.526411e+00 -2.753981e+00 -6.550956e+00 5.947954e+01 -6.850677e-01 -6.599268e-01 1.468076e-01 6.312103e-01 3.902307e-01 -5.766591e-01 -7.507572e-01 -1.165330e+00 -3.846800e-01 -4.883736e-01 -6.335067e-01 -9.622471e-01 -6.531072e-01 1.663077e-01 7.310801e-02 -5.395365e-02 -1.718477e-01 -1.952440e-01 1.443999e-01 2.252439e-01 3.996951e-02 -2.111352e-01 -2.773150e-01 -8.741094e-02 3.544525e-01 1.494332e-01
<VARIANCE> 39
 1.754151e+00 2.791672e+00 4.868105e+00 9.181584e+00 9.549354e+00 8.952148e+00 1.410232e+01 1.510602e+01 1.094631e+01 1.509019e+01 1.719599e+01 1.568481e+01 1.199473e+00 2.764324e-01 2.260584e-01 3.362599e-01 6.931022e-01 8.612028e-01 1.103971e+00 1.122288e+00 1.457937e+00 1.751043e+00 1.242232e+00 1.190843e+00 1.490546e+00 1.071120e-01 3.547351e-02 4.767761e-02 8.722541e-02 1.460197e-01 1.372593e-01 1.964092e-01 3.663089e-01 3.669561e-01 2.298668e-01 2.253881e-01 2.365532e-01 3.179178e-01 8.972136e-03
<GCONST> 6.646443e+01
<STATE> 7
<MEAN> 39
 -7.209857e+00 -9.166424e+00 -4.076016e+00 1.077968e+00 -9.188572e-01 -6.542110e+00 1.878231e-01 -4.511302e+00 -7.840757e+00 -4.733364e+00 -5.315619e+00 -7.080793e+00 5.746452e+01 -5.409263e-02 -1.247399e-02 3.786067e-02 7.048914e-02 4.557884e-02 4.321605e-02 2.346615e-02 -7.233892e-03 -6.833813e-02 -8.852459e-02 -6.971616e-02 1.275268e-02 -1.159308e-01 2.022531e-02 3.038513e-02 4.655731e-03 -1.118919e-02 1.176530e-02 1.469819e-02 9.153103e-03 4.503443e-02 4.086532e-02 5.447369e-02 3.976984e-02 2.058959e-02 1.095396e-02
<VARIANCE> 39
 1.527541e+00 3.768676e+00 4.173204e+00 6.467463e+00 7.684031e+00 1.085404e+01 1.225856e+01 1.326983e+01 1.511134e+01 1.375631e+01 1.278646e+01 1.127104e+01 1.243274e+00 1.455532e-01 3.519659e-01 4.372871e-01 6.834638e-01 7.264436e-01 8.972268e-01 1.276853e+00 1.480098e+00 1.563696e+00 1.326632e+00 1.336035e+00 1.288334e+00 8.291336e-02 2.984320e-02 6.931213e-02 8.470193e-02 1.364683e-01 1.437925e-01 1.840141e-01 2.648146e-01 3.057820e-01 3.272195e-01 2.680058e-01 2.826160e-01 2.859104e-01 1.827191e-02
<GCONST> 6.583689e+01
<STATE> 8
<MEAN> 39
 -7.745251e+00 -8.673483e+00 -3.820885e+00 2.172719e+00 2.629817e-01 -5.742110e+00 4.781137e-01 -3.768325e+00 -7.476651e+00 -3.604421e+00 -5.024330e+00 -6.452992e+00 5.444359e+01 -6.055154e-02 6.143742e-02 -4.249672e-02 7.062624e-02 -3.621088e-02 9.272746e-02 5.656641e-02 1.351721e-01 4.552327e-03 1.217390e-01 -1.558900e-02 1.026256e-01 -4.387269e-01 -6.904304e-03 -2.263499e-03 -2.415428e-02 -1.821710e-02 -5.389400e-02 2.023689e-03 1.139180e-03 9.340051e-03 -3.168007e-02 -1.858763e-02 -7.485302e-03 -5.244789e-03 -2.792025e-02
<VARIANCE> 39
 1.173237e+00 2.903065e+00 4.367658e+00 6.541846e+00 8.263895e+00 1.029783e+01 1.124682e+01 1.292545e+01 1.307580e+01 1.063023e+01 1.264190e+01 1.274463e+01 4.104626e+00 1.044606e-01 2.791949e-01 4.174099e-01 6.868673e-01 9.678600e-01 1.084891e+00 1.487465e+00 1.533634e+00 1.491813e+00 1.041040e+00 1.282543e+00 1.332375e+00 1.041545e-01 1.963007e-02 5.589251e-02 8.133813e-02 1.457822e-01 1.849020e-01 2.379157e-01 3.232320e-01 3.205992e-01 2.937009e-01 2.107476e-01 2.506452e-01 2.736576e-01 1.377089e-02
<GCONST> 6.552298e+01
<STATE> 9
<MEAN> 39
 -8.500584e+00 -7.829660e+00 -5.046981e+00 3.111778e+00 -1.579339e+00 -3.886723e+00 4.253387e-03 -2.705624e+00 -7.859571e+00 -3.163196e+00 -5.748021e+00 -6.536937e+00 4.871000e+01 -4.728742e-02 2.058396e-02 -1.114831e-01 6.535722e-02 -1.375399e-01 4.194224e-02 -2.099426e-01 -3.840502e-02 -3.958886e-02 -4.315603e-02 -4.770519e-02 -8.752643e-02 -3.054620e-01 1.308110e-03 -1.089823e-02 -6.560059e-03 4.608111e-03 2.061580e-02 -8.490672e-03 -3.814165e-02 -4.446670e-02 7.000267e-03 1.726803e-03 -1.977711e-02 -1.616656e-03 1.682212e-02
<VARIANCE> 39
 1.583572e+00 2.844878e+00 5.331654e+00 6.943402e+00 8.331233e+00 1.113952e+01 1.242240e+01 1.296271e+01 1.219873e+01 1.246748e+01 1.176917e+01 1.258431e+01 3.523716e+00 1.656257e-01 3.074859e-01 6.005601e-01 7.801458e-01 9.953632e-01 1.244677e+00 1.578421e+00 1.496756e+00 1.605442e+00 1.597630e+00 1.268621e+00 1.184216e+00 2.082545e-01 3.383081e-02 6.827167e-02 1.252657e-01 1.563752e-01 2.242604e-01 2.677865e-01 3.478202e-01 3.125847e-01 3.378399e-01 3.444121e-01 2.586076e-01 2.368713e-01 3.622564e-02
<GCONST> 7.150954e+01
<STATE> 10
<MEAN> 39
 -9.102374e+00 -7.062383e+00 -5.949835e+00 4.497200e+00 -2.569576e+00 -3.145166e+00 -1.735679e+00 -1.823710e+00 -8.262892e+00 -3.078939e+00 -6.340497e+00 -6.309167e+00 4.517783e+01 -5.137321e-02 6.205124e-02 -4.520065e-02 5.010576e-02 -5.623829e-02 9.443051e-02 -7.081240e-03 8.902368e-02 -9.839991e-03 2.662215e-02 1.835679e-02 5.554957e-02 -1.795609e-01 5.480222e-03 1.447924e-02 1.042701e-02 1.556644e-02 4.750784e-03 -5.214084e-04 2.074622e-02 2.666867e-02 6.424430e-03 -4.847937e-03 1.096852e-02 -1.865681e-04 6.289701e-03
<VARIANCE> 39
 1.531260e+00 3.228414e+00 3.940074e+00 7.019215e+00 8.401756e+00 9.654369e+00 1.175400e+01 1.334376e+01 1.726027e+01 1.415043e+01 1.368697e+01 1.204732e+01 1.455741e+00 1.527340e-01 3.214503e-01 4.800126e-01 8.443781e-01 1.038717e+00 1.144541e+00 1.416090e+00 1.513341e+00 1.766373e+00 1.380978e+00 1.423722e+00 1.382461e+00 6.321505e-02 3.055365e-02 6.634610e-02 1.054005e-01 1.920191e-01 2.327500e-01 2.574370e-01 2.976007e-01 3.286367e-01 3.703893e-01 2.934658e-01 2.875315e-01 2.834430e-01 1.053937e-02
<GCONST> 6.833113e+01
<STATE> 11
<MEAN> 39
 -1.013051e+01 -5.272474e+00 -7.348727e+00 6.858208e+00 -4.170646e+00 -1.114424e+00 -2.501415e+00 -1.103948e+00 -8.738450e+00 -3.198917e+00 -5.559571e+00 -6.769007e+00 4.099977e+01 -5.135152e-03 1.261179e-02 -9.108414e-03 2.351463e-02 -3.082461e-03 1.511259e-02 -1.304490e-03 7.332872e-03 1.937620e-03 -6.332211e-04 6.352685e-03 -3.662822e-03 -2.499440e-02 -1.730394e-03 -1.802692e-03 2.554945e-03 -4.396792e-03 3.481387e-03 -6.342315e-04 2.568694e-03 -4.670335e-03 3.087179e-03 1.368784e-03 9.121984e-05 1.317482e-03 4.944961e-03
<VARIANCE> 39
 1.811489e+00 3.071988e+00 5.066954e+00 6.827927e+00 8.344747e+00 9.053068e+00 1.187765e+01 1.185834e+01 1.290514e+01 1.378963e+01 1.235104e+01 1.152772e+01 2.713213e+00 1.422505e-01 2.771969e-01 4.852731e-01 7.206662e-01 9.051108e-01 1.082489e+00 1.363036e+00 1.338898e+00 1.433499e+00 1.662185e+00 1.434333e+00 1.342813e+00 5.605308e-02 2.954611e-02 5.726658e-02 1.011850e-01 1.506602e-01 1.914392e-01 2.328347e-01 2.880776e-01 2.764444e-01 3.008042e-01 3.498406e-01 3.025389e-01 2.841737e-01 1.173720e-02
<GCONST> 6.693107e+01
<TRANSP> 12
 0.000000e+00 1.000000e+00 0.000000e+00 0.000000e+00 0.000000e+00 0.000000e+00 0.000000e+00 0.000000e+00 0.000000e+00 0.000000e+00 0.000000e+00 0.000000e+00
 0.000000e+00 9.687861e-01 3.121387e-02 0.000000e+00 0.000000e+00 0.000000e+00 0.000000e+00 0.000000e+00 0.000000e+00 0.000000e+00 0.000000e+00 0.000000e+00
 0.000000e+00 0.000000e+00 8.248562e-01 1.751438e-01 0.000000e+00 0.000000e+00 0.000000e+00 0.000000e+00 0.000000e+00 0.000000e+00 0.000000e+00 0.000000e+00
 0.000000e+00 0.000000e+00 0.000000e+00 7.799510e-01 2.200490e-01 0.000000e+00 0.000000e+00 0.000000e+00 0.000000e+00 0.000000e+00 0.000000e+00 0.000000e+00
 0.000000e+00 0.000000e+00 0.000000e+00 0.000000e+00 6.872728e-01 3.127272e-01 0.000000e+00 0.000000e+00 0.000000e+00 0.000000e+00 0.000000e+00 0.000000e+00
 0.000000e+00 0.000000e+00 0.000000e+00 0.000000e+00 0.000000e+00 6.938731e-01 3.061269e-01 0.000000e+00 0.000000e+00 0.000000e+00 0.000000e+00 0.000000e+00
 0.000000e+00 0.000000e+00 0.000000e+00 0.000000e+00 0.000000e+00 0.000000e+00 9.457350e-01 5.426495e-02 0.000000e+00 0.000000e+00 0.000000e+00 0.000000e+00
 0.000000e+00 0.000000e+00 0.000000e+00 0.000000e+00 0.000000e+00 0.000000e+00 0.000000e+00 9.182149e-01 8.178506e-02 0.000000e+00 0.000000e+00 0.000000e+00
 0.000000e+00 0.000000e+00 0.000000e+00 0.000000e+00 0.000000e+00 0.000000e+00 0.000000e+00 0.000000e+00 9.197329e-01 8.026717e-02 0.000000e+00 0.000000e+00
 0.000000e+00 0.000000e+00 0.000000e+00 0.000000e+00 0.000000e+00 0.000000e+00 0.000000e+00 0.000000e+00 0.000000e+00 9.520472e-01 4.795285e-02 0.000000e+00
 0.000000e+00 0.000000e+00 0.000000e+00 0.000000e+00 0.000000e+00 0.000000e+00 0.000000e+00 0.000000e+00 0.000000e+00 0.000000e+00 9.927568e-01 7.243182e-03
 0.000000e+00 0.000000e+00 0.000000e+00 0.000000e+00 0.000000e+00 0.000000e+00 0.000000e+00 0.000000e+00 0.000000e+00 0.000000e+00 0.000000e+00 0.000000e+00
<ENDHMM>
~h "SEVEN"
<BEGINHMM>
<NUMSTATES> 12
<STATE> 2
<MEAN> 39
 -2.279126e+01 6.212304e+00 -1.062490e+01 2.935076e+00 3.803476e+00 -1.502295e+01 2.474365e+00 -3.173243e+00 -4.666273e+00 -9.911398e+00 -2.705914e+00 -2.148543e+00 6.860824e+01 4.357701e-01 -4.757501e-02 4.964250e-01 1.249941e-01 -6.253269e-01 -4.141726e-01 -9.815135e-01 7.788031e-01 1.401716e-01 -5.212116e-01 3.917748e-01 -2.546223e-01 8.059545e-01 2.896867e-01 -3.077631e-01 1.993088e-01 -9.557156e-02 -2.738085e-01 1.204348e-01 -2.156856e-01 2.269359e-01 1.902897e-02 -4.576854e-02 1.020062e-01 -1.692873e-01 -5.135375e-02
<VARIANCE> 39
 3.274667e+01 1.629905e+01 2.203375e+01 8.953030e+00 2.256504e+01 1.824377e+01 3.902303e+01 2.732481e+01 1.759752e+01 1.842768e+01 1.960508e+01 1.647102e+01 8.620792e+00 5.550721e+00 3.009825e+00 2.485743e+00 1.014104e+00 3.649349e+00 1.956879e+00 3.981699e+00 1.916419e+00 2.236145e+00 1.883279e+00 2.323564e+00 1.921544e+00 6.902797e-01 4.190235e-01 1.480507e-01 1.864876e-01 2.496331e-01 4.081285e-01 4.610406e-01 6.738201e-01 3.895507e-01 5.121096e-01 3.830014e-01 4.610372e-01 2.829618e-01 9.419311e-02
<GCONST> 1.053656e+02
<STATE> 3
<MEAN> 39
 -5.677250e+00 -6.363566e+00 1.304917e+00 2.284881e+00 -8.388722e+00 -1.384677e+01 -1.208820e+01 7.974046e+00 -7.570664e-01 -1.440039e+01 7.814791e-01 -9.064702e+00 7.224730e+01 2.899777e-01 -4.053514e-01 2.166008e-01 3.290743e-01 -3.397602e-02 1.060433e-01 -1.696046e-01 1.846784e-01 1.337839e-01 -6.349559e-02 1.017288e-01 2.124864e-01 -1.829557e-01 -8.784560e-02 3.842895e-02 -2.580294e-02 5.818035e-02 5.585440e-02 -7.550163e-02 6.481632e-02 -2.386840e-02 -6.801475e-02 -1.048003e-02 5.944309e-03 9.416369e-02 -2.686617e-02
<VARIANCE> 39
 7.293867e+00 1.940102e+01 1.358916e+01 2.622961e+01 3.572945e+01 1.782229e+01 2.933577e+01 6.713258e+01 2.015711e+01 3.971640e+01 3.649823e+01 2.367897e+01 1.364162e+01 1.048356e+00 2.903884e+00 8.159645e-01 1.645030e+00 3.425690e+00 2.448601e+00 3.165091e+00 6.605031e+00 1.936199e+00 4.042935e+00 3.387229e+00 1.563030e+00 7.494668e-01 2.558544e-01 3.684680e-01 1.511319e-01 2.256016e-01 5.173780e-01 4.339892e-01 5.373011e-01 7.538788e-01 3.469549e-01 5.749541e-01 5.005714e-01 2.276915e-01 9.934575e-02
<GCONST> 1.083879e+02
<STATE> 4
<MEAN> 39
 -4.192314e+00 -9.592849e+00 4.465721e+00 7.667504e+00 -1.008530e+01 -1.510254e+01 -1.397425e+01 1.223862e+01 -5.106109e-01 -1.849891e+01 5.661107e+00 -5.440048e+00 7.156235e+01 -2.410196e-01 -3.688895e-01 4.381493e-01 -3.944478e-01 -4.747381e-01 2.431321e-01 2.859408e-01 9.282330e-01 -1.298257e-01 -5.548820e-01 6.737528e-01 -1.365607e-01 5.502115e-02 -1.240412e-01 2.233446e-01 -1.990524e-01 -1.324076e-01 3.634586e-01 1.105470e-01 3.449965e-01 -3.695932e-01 -1.142901e-01 2.705201e-01 -3.441028e-01 -2.110374e-02 -1.415608e-01
<VARIANCE> 39
 2.228599e+00 1.530789e+01 1.429880e+01 1.305889e+01 1.333485e+01 1.170858e+01 1.527910e+01 2.551490e+01 1.213131e+01 2.881417e+01 2.263971e+01 1.876872e+01 3.435693e+00 3.161801e-01 6.818824e-01 5.759146e-01 7.783021e-01 1.812066e+00 7.975519e-01 1.452254e+00 2.571205e+00 7.137583e-01 2.183158e+00 1.776886e+00 1.060464e+00 3.048867e-01 1.103939e-01 1.233343e-01 1.126158e-01 9.118696e-02 3.188471e-01 2.349841e-01 3.100476e-01 3.531089e-01 1.636079e-01 3.526983e-01 2.797101e-01 1.765735e-01 4.069469e-02
<GCONST> 8.109354e+01
<STATE> 5
<MEAN> 39
 -5.254418e+00 -1.061670e+01 5.403809e+00 4.947454e+00 -9.975163e+00 -1.666323e+01 -9.774951e+00 1.436063e+01 -3.315536e+00 -1.675574e+01 5.810314e+00 -4.926838e+00 6.981855e+01 1.983909e-01 5.552620e-01 -3.306547e-01 -5.152583e-01 6.666950e-01 1.316899e-01 4.234755e-01 -9.697924e-01 -6.565515e-01 7.917191e-01 -9.073246e-01 -4.009207e-01 -6.611299e-01 1.081732e-01 2.248276e-01 -3.114074e-02 1.548290e-01 2.307509e-01 1.503933e-01 -5.381033e-02 -5.918107e-01 -1.995732e-01 5.877580e-02 -2.945859e-01 -7.417826e-02 -1.099088e-01
<VARIANCE> 39
 2.257404e+00 4.333370e+00 6.040306e+00 9.522380e+00 6.221124e+00 7.757423e+00 8.131301e+00 1.744331e+01 1.581622e+01 1.594462e+01 1.383745e+01 1.304030e+01 3.406497e+00 3.354122e-01 8.595213e-01 6.583805e-01 6.590623e-01 1.138540e+00 1.015198e+00 8.397353e-01 4.552030e+00 1.581888e+00 1.507423e+00 1.717234e+00 1.110572e+00 2.635960e-01 4.085183e-02 7.292617e-02 1.218358e-01 1.241089e-01 1.834114e-01 2.094205e-01 1.629404e-01 5.806828e-01 2.542784e-01 2.653825e-01 2.008588e-01 1.785551e-01 1.642434e-02
<GCONST> 7.262270e+01
<STATE> 6
<MEAN> 39
 -2.723611e+00 -4.668779e+00 3.548857e+00 3.720299e+00 -3.746809e+00 -1.270616e+01 -7.616044e+00 7.668185e-01 -9.282925e+00 -1.268696e+01 -2.910528e+00 -8.475192e+00 6.482053e+01 2.936770e-01 1.350572e+00 -5.447513e-01 7.063972e-01 1.710108e+00 1.333669e+00 7.981958e-01 -3.678269e+00 -1.807908e+00 4.478467e-01 -1.974647e+00 -3.402835e-01 -8.855256e-01 -2.279388e-01 -4.321076e-01 4.319739e-03 1.469689e-01 -2.356420e-01 -1.660701e-01 8.036746e-02 8.106868e-01 2.446695e-01 -1.650013e-01 3.963556e-01 2.226083e-01 1.822667e-01
<VARIANCE> 39
 1.223642e+00 3.440595e+00 4.579904e+00 5.336400e+00 9.479680e+00 9.384686e+00 7.664024e+00 2.131763e+01 1.284209e+01 1.605256e+01 9.639744e+00 1.178459e+01 1.015027e+00 1.544987e-01 4.470866e-01 2.411060e-01 5.077155e-01 4.987362e-01 7.163309e-01 7.074876e-01 2.621288e+00 1.025662e+00 1.449870e+00 1.699586e+00 9.061644e-01 9.543027e-02 2.920909e-02 7.011855e-02 9.170068e-02 1.388322e-01 1.742030e-01 1.971273e-01 1.153258e-01 5.482463e-01 2.922297e-01 3.270571e-01 2.470825e-01 2.763675e-01 1.049301e-02
<GCONST> 6.299017e+01
<STATE> 7
<MEAN> 39
 -3.094894e+00 -3.550474e+00 2.433152e+00 6.201207e+00 4.149371e-02 -1.118838e+01 -5.596882e+00 -3.228188e+00 -1.297232e+01 -1.244429e+01 -5.506040e+00 -7.958351e+00 6.332519e+01 -2.830830e-01 -1.341751e-01 -2.935946e-01 5.107988e-01 3.584535e-01 1.583924e-01 8.612698e-01 -2.691662e-01 -2.450905e-01 5.379195e-01 -7.071502e-01 2.485864e-01 -4.130721e-01 -1.110014e-01 -2.834828e-01 2.540563e-03 -1.855590e-01 -3.944579e-01 -1.763859e-01 1.690188e-02 5.361778e-01 4.110689e-01 1.494122e-01 2.949121e-01 1.321754e-01 6.160998e-02
<VARIANCE> 39
 1.308728e+00 1.875947e+00 3.635784e+00 6.431156e+00 7.256837e+00 6.249239e+00 1.149303e+01 9.849093e+00 8.542202e+00 1.084283e+01 1.248921e+01 6.120931e+00 1.015027e+00 1.845440e-01 2.180499e-01 3.625583e-01 8.229370e-01 1.204338e+00 7.026778e-01 9.631492e-01 1.478968e+00 1.058674e+00 1.320984e+00 7.255952e-01 7.367917e-01 5.578769e-02 3.838111e-02 5.460688e-02 7.126477e-02 1.482826e-01 1.597012e-01 1.453502e-01 1.846496e-01 5.437148e-01 1.914113e-01 1.815619e-01 2.201399e-01 1.574826e-01 1.224279e-02
<GCONST> 5.783470e+01
<STATE> 8
<MEAN> 39
 -4.528810e+00 -5.242828e+00 9.981140e-01 6.591341e+00 -7.556190e-01 -1.031782e+01 -2.972791e+00 -3.779278e+00 -1.142596e+01 -9.126495e+00 -6.430300e+00 -6.821726e+00 6.173948e+01 -3.823355e-01 -4.611743e-01 -4.550173e-01 -3.945028e-01 7.355513e-02 5.547410e-01 5.990714e-01 -1.373895e-01 5.619670e-01 7.879178e-01 2.881008e-01 2.940212e-01 -4.375864e-01 -1.071728e-02 -3.975499e-02 -4.544432e-02 -2.164138e-01 1.059879e-01 1.226978e-01 -2.554499e-02 1.055818e-01 1.321851e-01 5.570325e-02 1.809411e-01 -1.709709e-02 -1.366838e-02
<VARIANCE> 39
 1.072848e+00 2.382866e+00 5.235553e+00 8.584017e+00 9.153623e+00 8.159636e+00 1.395455e+01 1.397719e+01 1.282583e+01 1.702501e+01 1.180604e+01 1.201493e+01 1.015027e+00 1.103837e-01 2.374040e-01 5.246937e-01 9.382101e-01 1.111219e+00 8.795546e-01 1.077636e+00 1.367015e+00 1.077792e+00 1.681641e+00 1.349965e+00 1.024067e+00 5.176036e-02 2.349986e-02 5.740220e-02 1.040493e-01 1.655679e-01 2.434864e-01 1.700987e-01 2.490269e-01 2.846539e-01 2.300083e-01 3.908097e-01 2.358380e-01 1.965728e-01 1.020177e-02
<GCONST> 6.376886e+01
<STATE> 9
<MEAN> 39
 -6.047426e+00 -7.976527e+00 -1.595519e+00 4.270906e+00 1.229040e+00 -7.858918e+00 -4.307847e-01 -1.321313e+00 -7.395771e+00 -6.707092e+00 -5.523268e+00 -4.043160e+00 5.918456e+01 -1.904570e-01 -1.997149e-01 -2.770689e-01 -3.118239e-01 1.987489e-01 3.591848e-01 3.369410e-01 9.096142e-02 1.638368e-01 4.501850e-01 1.552800e-01 6.379671e-02 -2.352440e-01 3.732384e-02 1.921904e-02 8.870637e-03 8.129787e-03 -6.617394e-02 -5.315918e-02 -8.801931e-02 -6.339020e-02 -9.705977e-02 -6.561260e-02 -8.670192e-02 -7.721065e-02 2.509505e-02
<VARIANCE> 39
 1.405211e+00 5.116476e+00 6.059658e+00 7.901924e+00 6.585043e+00 1.388001e+01 1.222379e+01 1.863871e+01 1.356848e+01 1.416532e+01 1.577415e+01 1.571207e+01 2.575568e+00 2.272857e-01 3.530298e-01 6.298135e-01 1.030560e+00 8.074224e-01 1.086102e+00 1.569424e+00 1.398750e+00 1.562194e+00 1.701981e+00 1.729312e+00 1.525831e+00 9.815733e-02 4.028560e-02 5.850346e-02 1.139627e-01 1.995581e-01 1.807691e-01 2.327191e-01 3.113000e-01 3.225675e-01 2.493641e-01 3.132130e-01 4.020381e-01 3.388937e-01 1.692479e-02
<GCONST> 7.258405e+01
<STATE> 10
<MEAN> 39
 -6.825694e+00 -8.591509e+00 -2.768222e+00 7.237045e-01 -1.499919e-01 -6.456006e+00 4.740686e-01 -3.922993e+00 -9.228206e+00 -3.925567e+00 -5.112748e+00 -7.083097e+00 5.790209e+01 -2.227833e-02 -5.930790e-02 -7.213587e-02 -1.153825e-01 -6.066772e-02 -1.865893e-02 -8.447670e-02 -1.591672e-02 -2.257770e-02 5.816244e-03 -5.779194e-02 -4.361840e-02 -1.927616e-01 1.408904e-02 2.657706e-02 1.564618e-02 4.230488e-02 -6.005695e-03 -2.402317e-02 -3.471597e-02 -2.324029e-03 -6.496396e-03 -2.259767e-02 -4.285502e-03 1.819496e-02 -8.767777e-03
<VARIANCE> 39
 1.432562e+00 2.879629e+00 4.549529e+00 6.074449e+00 9.271461e+00 1.020742e+01 1.353322e+01 1.325499e+01 1.460465e+01 1.206793e+01 1.185954e+01 1.088541e+01 2.171305e+00 1.720185e-01 3.241780e-01 5.109211e-01 7.325118e-01 1.139573e+00 1.272807e+00 1.463706e+00 1.601094e+00 1.683110e+00 1.458239e+00 1.353179e+00 1.230864e+00 8.864314e-02 3.769227e-02 6.884146e-02 1.011199e-01 1.436170e-01 2.430241e-01 2.734259e-01 2.999914e-01 3.315896e-01 3.573698e-01 3.178406e-01 2.796097e-01 2.568313e-01 1.520183e-02
<GCONST> 6.909912e+01
<STATE> 11
<MEAN> 39
 -6.896820e+00 -6.762474e+00 -4.296911e+00 2.541130e+00 -2.218799e+00 -4.874309e+00 -1.266294e+00 -2.489939e+00 -1.011751e+01 -3.361135e+00 -5.857515e+00 -6.704686e+00 4.902095e+01 3.826579e-03 4.744699e-02 -2.269827e-02 4.865348e-02 -3.087165e-02 4.000326e-02 -2.140455e-02 1.482885e-02 -1.143547e-02 3.214452e-02 1.053148e-02 1.826018e-02 -1.168123e-01 -4.451692e-03 -1.737927e-03 -3.787133e-04 -2.143484e-03 4.249004e-03 2.285842e-03 4.396748e-03 -2.003665e-03 5.064738e-03 -2.200433e-03 1.531022e-03 -4.816011e-03 1.131682e-02
<VARIANCE> 39
 1.847167e+00 3.457561e+00 5.553282e+00 7.151364e+00 9.178596e+00 1.011182e+01 1.149031e+01 1.355562e+01 1.417111e+01 1.302885e+01 1.289150e+01 1.063517e+01 7.219423e+00 1.560390e-01 2.913701e-01 5.443543e-01 7.481376e-01 9.320315e-01 1.153194e+00 1.310836e+00 1.493994e+00 1.514376e+00 1.574908e+00 1.495552e+00 1.273124e+00 8.419034e-02 3.193507e-02 5.968165e-02 1.126868e-01 1.563601e-01 1.950934e-01 2.467899e-01 2.728630e-01 3.122854e-01 3.096346e-01 3.231857e-01 3.169529e-01 2.684599e-01 1.521414e-02
<GCONST> 6.995237e+01
<TRANSP> 12
 0.000000e+00 1.000000e+00 0.000000e+00 0.000000e+00 0.000000e+00 0.000000e+00 0.000000e+00 0.000000e+00 0.000000e+00 0.000000e+00 0.000000e+00 0.000000e+00
 0.000000e+00 9.402863e-01 5.971371e-02 0.000000e+00 0.000000e+00 0.000000e+00 0.000000e+00 0.000000e+00 0.000000e+00 0.000000e+00 0.000000e+00 0.000000e+00
 0.000000e+00 0.000000e+00 9.457943e-01 5.420569e-02 0.000000e+00 0.000000e+00 0.000000e+00 0.000000e+00 0.000000e+00 0.000000e+00 0.000000e+00 0.000000e+00
 0.000000e+00 0.000000e+00 0.000000e+00 8.424617e-01 1.575383e-01 0.000000e+00 0.000000e+00 0.000000e+00 0.000000e+00 0.000000e+00 0.000000e+00 0.000000e+00
 0.000000e+00 0.000000e+00 0.000000e+00 0.000000e+00 8.641173e-01 1.358827e-01 0.000000e+00 0.000000e+00 0.000000e+00 0.000000e+00 0.000000e+00 0.000000e+00
 0.000000e+00 0.000000e+00 0.000000e+00 0.000000e+00 0.000000e+00 6.237216e-01 3.762784e-01 0.000000e+00 0.000000e+00 0.000000e+00 0.000000e+00 0.000000e+00
 0.000000e+00 0.000000e+00 0.000000e+00 0.000000e+00 0.000000e+00 0.000000e+00 6.983849e-01 3.016151e-01 0.000000e+00 0.000000e+00 0.000000e+00 0.000000e+00
 0.000000e+00 0.000000e+00 0.000000e+00 0.000000e+00 0.000000e+00 0.000000e+00 0.000000e+00 7.815601e-01 2.184398e-01 0.000000e+00 0.000000e+00 0.000000e+00
 0.000000e+00 0.000000e+00 0.000000e+00 0.000000e+00 0.000000e+00 0.000000e+00 0.000000e+00 0.000000e+00 8.460016e-01 1.539984e-01 0.000000e+00 0.000000e+00
 0.000000e+00 0.000000e+00 0.000000e+00 0.000000e+00 0.000000e+00 0.000000e+00 0.000000e+00 0.000000e+00 0.000000e+00 9.546141e-01 4.538593e-02 0.000000e+00
 0.000000e+00 0.000000e+00 0.000000e+00 0.000000e+00 0.000000e+00 0.000000e+00 0.000000e+00 0.000000e+00 0.000000e+00 0.000000e+00 9.860024e-01 1.399761e-02
 0.000000e+00 0.000000e+00 0.000000e+00 0.000000e+00 0.000000e+00 0.000000e+00 0.000000e+00 0.000000e+00 0.000000e+00 0.000000e+00 0.000000e+00 0.000000e+00
<ENDHMM>
~h "THREE"
<BEGINHMM>
<NUMSTATES> 12
<STATE> 2
<MEAN> 39
 -1.949541e+01 3.807105e+00 -5.318854e+00 4.796957e+00 -4.821155e-01 -1.737697e+01 -1.912698e+00 1.085945e+00 -6.419384e+00 -1.301379e+01 -6.116388e-01 -4.994979e-01 7.085887e+01 7.304666e-01 -6.294481e-01 1.174401e+00 -1.358159e-01 -8.103214e-01 -4.035310e-01 -8.365334e-01 5.209344e-01 -5.548314e-01 -3.879598e-01 8.388772e-01 -1.440080e-01 3.368903e-01 1.028409e-01 -9.600031e-02 9.956867e-02 -7.167166e-02 -9.253156e-02 1.050290e-01 -3.763494e-02 -8.124188e-02 -4.050457e-02 4.867986e-02 7.673144e-02 -9.482553e-02 -7.071132e-02
<VARIANCE> 39
 6.795153e+01 3.659919e+01 1.064684e+02 1.693943e+01 4.326184e+01 4.068009e+01 5.847232e+01 3.638937e+01 3.274454e+01 3.247981e+01 4.009488e+01 1.738795e+01 5.948815e+00 2.980390e+00 1.738085e+00 2.366525e+00 2.177632e+00 3.253519e+00 2.730275e+00 2.656571e+00 2.828401e+00 2.688426e+00 2.627596e+00 3.104707e+00 2.594962e+00 3.473535e-01 4.727111e-01 3.301085e-01 2.455629e-01 3.449929e-01 6.170314e-01 5.651148e-01 4.914189e-01 6.155196e-01 5.368988e-01 5.470508e-01 5.474970e-01 4.926004e-01 7.137655e-02
<GCONST> 1.161477e+02
<STATE> 3
<MEAN> 39
 -7.909587e+00 -5.749177e+00 1.452578e+01 -4.274955e+00 -1.476171e+01 -1.639566e+01 -1.621460e+01 1.030388e+00 -1.340102e+01 -1.756222e+01 1.343557e+01 -6.690605e+00 7.405598e+01 -2.733000e-01 3.906597e-01 3.496355e-01 -9.514775e-01 -1.872077e-01 1.082231e+00 -4.798721e-01 -9.608670e-01 4.117743e-01 1.944864e-01 -4.227952e-01 2.222147e-01 4.709247e-02 -8.073329e-02 7.594230e-02 -8.353137e-02 6.978887e-02 2.607544e-01 -1.139589e-01 3.622702e-02 1.404591e-01 7.255679e-02 5.099513e-02 -3.592546e-01 2.741721e-01 -1.914748e-02
<VARIANCE> 39
 2.779138e+00 5.816160e+00 1.255005e+01 2.028135e+01 1.955930e+01 2.221951e+01 2.051072e+01 3.934199e+01 2.464771e+01 3.089796e+01 1.737517e+01 2.003631e+01 1.015027e+00 1.972064e-01 3.758032e-01 5.806791e-01 1.017962e+00 1.513397e+00 1.588778e+00 1.802140e+00 2.291641e+00 1.675933e+00 1.217536e+00 1.934965e+00 1.488832e+00 4.814510e-02 6.729604e-02 9.050263e-02 1.265188e-01 2.048552e-01 3.953327e-01 2.432902e-01 3.312455e-01 3.989590e-01 3.416696e-01 1.812515e-01 4.024802e-01 3.149661e-01 9.666824e-03
<GCONST> 8.056992e+01
<STATE> 4
<MEAN> 39
 -9.434233e+00 -2.879966e+00 1.998093e+01 -8.210739e+00 -1.484891e+01 -7.686855e+00 -2.145728e+01 -3.299642e+00 -1.380125e+01 -1.361555e+01 5.685452e+00 -1.807777e+00 7.298408e+01 3.260831e-02 -3.113009e-02 3.131968e-01 3.250110e-01 -5.227482e-02 2.739789e-01 -3.867254e-02 -8.591556e-02 -1.691550e-01 1.617684e-01 -4.010846e-01 9.768213e-02 -1.380843e-01 2.998620e-02 -3.904554e-02 -4.625507e-02 1.181288e-01 5.813790e-03 -7.196244e-02 1.169371e-01 2.087034e-02 -1.550407e-02 -2.575107e-02 1.221913e-02 -7.135805e-02 -1.474995e-02
<VARIANCE> 39
 2.624985e+00 6.273335e+00 1.500092e+01 1.819268e+01 1.957470e+01 2.671652e+01 1.655957e+01 2.878566e+01 2.510754e+01 1.828901e+01 2.046741e+01 1.540114e+01 2.189233e+00 1.057360e-01 2.024171e-01 4.977630e-01 9.132913e-01 1.048454e+00 8.405515e-01 1.375611e+00 1.482127e+00 1.374265e+00 8.616110e-01 1.538131e+00 1.261462e+00 4.381392e-02 1.399936e-02 3.383578e-02 7.082064e-02 1.201653e-01 1.723223e-01 1.301378e-01 2.191259e-01 2.881975e-01 2.630318e-01 1.396095e-01 2.794310e-01 2.351418e-01 7.130166e-03
<GCONST> 6.888619e+01
<STATE> 5
<MEAN> 39
 -8.057438e+00 -4.080173e+00 1.935025e+01 -1.888238e+00 -1.181144e+01 -6.989068e+00 -1.696225e+01 -4.594472e+00 -1.566135e+01 -1.240980e+01 2.178382e+00 -3.604880e+00 6.998866e+01 1.003075e-01 -1.527431e-01 -7.124858e-01 1.724727e-01 9.525725e-01 1.196197e-01 6.540983e-01 -2.532300e-01 6.529388e-02 3.923115e-01 -2.620093e-01 -2.563380e-01 -5.458601e-01 1.567938e-03 -1.014897e-02 -1.714885e-01 -1.182860e-01 3.634170e-02 7.267941e-02 2.211753e-02 -3.622337e-02 8.754873e-02 8.113279e-02 7.091777e-02 5.750383e-03 -6.764923e-02
<VARIANCE> 39
 2.167896e+00 9.074108e+00 1.434677e+01 9.917321e+00 2.934758e+01 2.984205e+01 1.751645e+01 1.327665e+01 1.339730e+01 2.209841e+01 1.571613e+01 1.719961e+01 3.630370e+00 1.560660e-01 2.360411e-01 5.500289e-01 1.132776e+00 9.537497e-01 1.027140e+00 1.420347e+00 1.087850e+00 1.122198e+00 1.439954e+00 1.683535e+00 7.282305e-01 1.457266e-01 2.839477e-02 4.511649e-02 9.238809e-02 2.047851e-01 2.247650e-01 1.812176e-01 3.234715e-01 2.250530e-01 1.934140e-01 3.193535e-01 3.851058e-01 1.419653e-01 2.019303e-02
<GCONST> 7.377412e+01
<STATE> 6
<MEAN> 39
 -7.226195e+00 -5.371854e+00 1.235028e+01 -1.526061e+00 -7.227390e+00 -6.270707e+00 -1.214225e+01 -6.118253e+00 -1.408021e+01 -8.320703e+00 4.161745e-03 -4.281856e+00 6.611814e+01 2.200212e-01 -2.800893e-01 -2.014586e+00 2.387403e-01 6.216558e-01 3.626902e-01 1.492654e+00 -4.132345e-03 7.836712e-01 3.610641e-01 -5.553167e-01 -1.730256e-01 -8.517504e-01 -9.209073e-03 -5.530819e-02 -1.804413e-01 4.196935e-02 -4.680362e-02 -1.126788e-02 2.923940e-01 1.057656e-01 1.331763e-01 -2.034926e-02 -3.331772e-02 -3.422126e-03 -5.282127e-02
<VARIANCE> 39
 1.380645e+00 7.375659e+00 1.176653e+01 7.455713e+00 1.339982e+01 1.874940e+01 1.299610e+01 1.511111e+01 1.237106e+01 1.814566e+01 2.393426e+01 1.596936e+01 1.949686e+00 1.535121e-01 2.469885e-01 6.150836e-01 4.993950e-01 1.074687e+00 1.171682e+00 1.773270e+00 9.669425e-01 8.674661e-01 1.691206e+00 1.346238e+00 8.824389e-01 1.061876e-01 2.546935e-02 4.798642e-02 8.582476e-02 9.336089e-02 2.120467e-01 2.558912e-01 3.242351e-01 2.378922e-01 1.430627e-01 3.123562e-01 3.193426e-01 1.792385e-01 1.095849e-02
<GCONST> 6.844371e+01
<STATE> 7
<MEAN> 39
 -6.455395e+00 -7.122150e+00 4.096901e+00 -1.184226e+00 -5.740445e+00 -5.235649e+00 -4.469374e+00 -5.028583e+00 -9.882729e+00 -6.738579e+00 -5.418956e-01 -5.275238e+00 6.258384e+01 6.874543e-02 -5.799614e-01 -1.996648e+00 3.458407e-01 8.235431e-01 1.405160e-01 1.937902e+00 3.332573e-01 6.827168e-01 8.279573e-01 -4.977975e-01 -1.482107e-01 -9.935445e-01 -7.763360e-02 -9.734281e-04 2.820233e-01 6.614845e-02 1.348238e-01 -1.084842e-01 -3.915608e-01 5.381353e-02 -2.396404e-01 -3.424181e-02 3.144850e-02 2.882231e-02 7.431029e-02
<VARIANCE> 39
 2.090986e+00 4.752510e+00 7.634605e+00 7.789873e+00 1.436798e+01 1.296424e+01 1.688962e+01 1.289792e+01 1.054170e+01 1.767029e+01 1.087313e+01 1.167105e+01 1.708573e+00 1.399934e-01 4.158509e-01 6.306227e-01 5.071002e-01 1.378050e+00 1.356822e+00 1.411291e+00 1.219013e+00 7.989183e-01 1.363642e+00 1.711138e+00 1.108092e+00 9.965970e-02 3.223718e-02 5.503976e-02 8.324319e-02 1.228037e-01 2.674061e-01 1.864338e-01 2.358248e-01 2.173332e-01 1.029361e-01 2.782522e-01 2.128543e-01 1.581112e-01 1.917234e-02
<GCONST> 6.709452e+01
<STATE> 8
<MEAN> 39
 -6.829498e+00 -8.685782e+00 -3.142825e-01 1.429848e-01 -2.322477e+00 -4.827381e+00 -1.285085e+00 -4.426997e+00 -9.048090e+00 -5.190229e+00 -2.738878e+00 -5.589219e+00 6.016776e+01 -1.100325e-01 -3.356830e-01 -1.142212e+00 2.899475e-01 5.044921e-01 -1.988066e-01 7.772183e-01 2.133597e-01 2.448788e-01 3.373174e-01 -6.397790e-01 -4.289160e-01 -5.592934e-01 -9.413798e-03 9.627970e-02 2.220868e-01 -3.674972e-02 -2.220197e-01 -1.337541e-01 -2.698048e-01 -7.472637e-02 -4.288399e-02 -1.594072e-01 -3.524712e-02 -5.954760e-02 1.486860e-01
<VARIANCE> 39
 1.191018e+00 2.195633e+00 4.572300e+00 7.129719e+00 8.585325e+00 9.030260e+00 1.547145e+01 1.497538e+01 9.144806e+00 1.496639e+01 1.397972e+01 1.156786e+01 1.168417e+00 1.304590e-01 3.539922e-01 5.174522e-01 8.476920e-01 1.534768e+00 1.142615e+00 1.742062e+00 1.534610e+00 6.257778e-01 1.711915e+00 1.176189e+00 9.862564e-01 9.868231e-02 2.720331e-02 7.680247e-02 8.007715e-02 1.231612e-01 2.393366e-01 2.243782e-01 3.062005e-01 2.570224e-01 1.308506e-01 2.524655e-01 2.699246e-01 2.201780e-01 2.284507e-02
<GCONST> 6.535800e+01
<STATE> 9
<MEAN> 39
 -6.773877e+00 -9.258286e+00 -3.267964e+00 1.544323e+00 -1.519900e+00 -6.986363e+00 -7.215121e-02 -3.734191e+00 -8.015172e+00 -4.617894e+00 -5.046802e+00 -6.822034e+00 5.876648e+01 3.190170e-02 3.294151e-03 -1.095568e-01 3.236866e-02 4.545949e-02 -7.477401e-02 -1.750867e-02 2.827639e-02 4.037517e-02 3.760894e-02 -3.558947e-02 9.093728e-03 -6.734093e-02 8.651592e-03 1.943783e-02 4.830964e-02 -1.493813e-02 -5.045576e-03 2.736795e-02 -2.049022e-02 5.271770e-03 -1.818614e-02 -6.495807e-03 3.658952e-02 2.902280e-02 6.119238e-03
<VARIANCE> 39
 1.570397e+00 3.126293e+00 4.895433e+00 7.112528e+00 9.201690e+00 9.327635e+00 1.249981e+01 1.140064e+01 1.064584e+01 1.510825e+01 1.215104e+01 1.074033e+01 1.015027e+00 1.694980e-01 2.987910e-01 5.688264e-01 7.490474e-01 1.047686e+00 1.055480e+00 1.543288e+00 1.337492e+00 1.192809e+00 1.747977e+00 1.492121e+00 1.078209e+00 9.717946e-02 3.368786e-02 6.020683e-02 1.265586e-01 1.561286e-01 2.253228e-01 2.057027e-01 3.505211e-01 2.904060e-01 2.427789e-01 3.729421e-01 3.098481e-01 2.004411e-01 2.456259e-02
<GCONST> 6.769691e+01
<STATE> 10
<MEAN> 39
 -6.656605e+00 -8.590845e+00 -3.862401e+00 1.543450e+00 -1.370974e+00 -6.461650e+00 -8.881551e-01 -3.877647e+00 -8.726207e+00 -4.317226e+00 -5.316681e+00 -6.604069e+00 5.476137e+01 -5.617614e-02 2.805521e-02 -4.081387e-02 4.489163e-02 -4.900425e-02 7.058974e-02 -4.932184e-02 2.317174e-02 -3.740069e-02 2.669501e-02 -3.715059e-02 1.907350e-02 -3.897758e-01 -8.495092e-03 -2.132461e-04 -7.406682e-03 4.328589e-03 -1.390640e-02 1.512835e-02 1.281822e-03 8.658472e-03 -3.637088e-05 9.502421e-03 3.169152e-03 1.840778e-03 -1.398047e-02
<VARIANCE> 39
 1.385534e+00 2.548681e+00 4.012266e+00 6.293869e+00 7.817927e+00 7.909276e+00 1.054126e+01 1.241173e+01 1.294693e+01 1.207965e+01 1.169344e+01 1.267464e+01 6.616452e+00 1.551144e-01 2.570404e-01 4.710935e-01 7.180384e-01 8.476527e-01 9.145988e-01 1.219375e+00 1.358634e+00 1.425993e+00 1.375763e+00 1.291238e+00 1.524346e+00 9.829915e-02 3.285350e-02 5.618173e-02 9.401076e-02 1.473731e-01 1.743053e-01 1.931787e-01 2.505482e-01 2.835892e-01 3.065866e-01 2.989573e-01 2.719775e-01 3.263585e-01 1.573355e-02
<GCONST> 6.650941e+01
<STATE> 11
<MEAN> 39
 -8.462865e+00 -6.060836e+00 -6.166360e+00 5.262520e+00 -3.771298e+00 -2.879239e+00 -2.264258e+00 -1.278562e+00 -9.512282e+00 -3.157080e+00 -5.202351e+00 -6.290024e+00 4.431418e+01 -1.568355e-02 3.395651e-02 -2.678185e-02 4.030101e-02 -2.369599e-02 4.085205e-02 -9.069264e-03 2.592849e-02 -1.199789e-03 1.190764e-02 1.075313e-02 6.164385e-03 -8.457020e-02 -4.882791e-04 -2.462354e-03 1.067726e-03 -3.917232e-03 4.367320e-03 -1.415864e-03 4.580173e-03 -6.380090e-03 6.527930e-03 1.346395e-03 1.709155e-03 -3.868415e-03 9.201762e-03
<VARIANCE> 39
 1.826209e+00 3.390299e+00 5.692517e+00 7.473050e+00 9.641909e+00 1.028958e+01 1.221559e+01 1.278206e+01 1.279054e+01 1.295525e+01 1.288009e+01 1.056293e+01 6.563359e+00 1.506497e-01 2.972986e-01 5.354277e-01 7.310865e-01 1.000436e+00 1.072598e+00 1.342158e+00 1.483115e+00 1.446934e+00 1.511845e+00 1.464949e+00 1.206663e+00 7.451170e-02 3.193371e-02 6.213823e-02 1.110505e-01 1.539727e-01 2.107802e-01 2.221555e-01 2.779911e-01 3.180935e-01 2.988264e-01 3.150115e-01 3.063514e-01 2.496553e-01 1.483903e-02
<GCONST> 6.935208e+01
<TRANSP> 12
 0.000000e+00 1.000000e+00 0.000000e+00 0.000000e+00 0.000000e+00 0.000000e+00 0.000000e+00 0.000000e+00 0.000000e+00 0.000000e+00 0.000000e+00 0.000000e+00
 0.000000e+00 9.545996e-01 4.540047e-02 0.000000e+00 0.000000e+00 0.000000e+00 0.000000e+00 0.000000e+00 0.000000e+00 0.000000e+00 0.000000e+00 0.000000e+00
 0.000000e+00 0.000000e+00 8.871121e-01 1.128879e-01 0.000000e+00 0.000000e+00 0.000000e+00 0.000000e+00 0.000000e+00 0.000000e+00 0.000000e+00 0.000000e+00
 0.000000e+00 0.000000e+00 0.000000e+00 9.310580e-01 6.894206e-02 0.000000e+00 0.000000e+00 0.000000e+00 0.000000e+00 0.000000e+00 0.000000e+00 0.000000e+00
 0.000000e+00 0.000000e+00 0.000000e+00 0.000000e+00 8.723459e-01 1.276540e-01 0.000000e+00 0.000000e+00 0.000000e+00 0.000000e+00 0.000000e+00 0.000000e+00
 0.000000e+00 0.000000e+00 0.000000e+00 0.000000e+00 0.000000e+00 7.663239e-01 2.336761e-01 0.000000e+00 0.000000e+00 0.000000e+00 0.000000e+00 0.000000e+00
 0.000000e+00 0.000000e+00 0.000000e+00 0.000000e+00 0.000000e+00 0.000000e+00 6.270090e-01 3.729910e-01 0.000000e+00 0.000000e+00 0.000000e+00 0.000000e+00
 0.000000e+00 0.000000e+00 0.000000e+00 0.000000e+00 0.000000e+00 0.000000e+00 0.000000e+00 7.137457e-01 2.862543e-01 0.000000e+00 0.000000e+00 0.000000e+00
 0.000000e+00 0.000000e+00 0.000000e+00 0.000000e+00 0.000000e+00 0.000000e+00 0.000000e+00 0.000000e+00 9.423679e-01 5.763211e-02 0.000000e+00 0.000000e+00
 0.000000e+00 0.000000e+00 0.000000e+00 0.000000e+00 0.000000e+00 0.000000e+00 0.000000e+00 0.000000e+00 0.000000e+00 9.480695e-01 5.193054e-02 0.000000e+00
 0.000000e+00 0.000000e+00 0.000000e+00 0.000000e+00 0.000000e+00 0.000000e+00 0.000000e+00 0.000000e+00 0.000000e+00 0.000000e+00 9.891879e-01 1.081212e-02
 0.000000e+00 0.000000e+00 0.000000e+00 0.000000e+00 0.000000e+00 0.000000e+00 0.000000e+00 0.000000e+00 0.000000e+00 0.000000e+00 0.000000e+00 0.000000e+00
<ENDHMM>
~h "ONE"
<BEGINHMM>
<NUMSTATES> 12
<STATE> 2
<MEAN> 39
 -7.092011e-01 -6.128878e+00 -1.013047e+01 -1.663941e+01 -3.675073e+00 -1.736126e-01 4.834463e+00 -6.674871e+00 -3.096832e+00 -1.935060e+01 -1.598453e+00 -8.357559e-01 7.330029e+01 -9.296504e-02 -2.638080e-01 -4.178050e-01 -1.086534e-01 4.417434e-01 1.048462e-01 1.560451e-02 2.618621e-01 1.384005e-01 1.266647e-01 2.809956e-01 -3.837743e-01 3.536476e-01 -3.653010e-02 -1.750812e-04 5.728141e-02 3.108119e-01 1.030800e-01 -1.311665e-01 -4.148613e-02 -5.299487e-02 -1.931835e-01 1.882960e-01 -1.121634e-01 -9.452587e-02 -1.538915e-01
<VARIANCE> 39
 4.017124e+00 2.604264e+01 4.539999e+01 2.554854e+01 7.414747e+01 4.710820e+01 7.351622e+01 3.078451e+01 2.238507e+01 2.840682e+01 2.358894e+01 4.100818e+01 9.200863e+00 2.012749e-01 8.819025e-01 2.826092e+00 4.117185e+00 3.798057e+00 3.140709e+00 6.619193e+00 2.878372e+00 3.317101e+00 3.277799e+00 2.269693e+00 2.825158e+00 7.536756e-01 5.053675e-02 1.376585e-01 3.006562e-01 2.735091e-01 5.642971e-01 3.667015e-01 8.747534e-01 5.905643e-01 6.050499e-01 4.123248e-01 5.315772e-01 4.680856e-01 1.924704e-02
<GCONST> 1.084967e+02
<STATE> 3
<MEAN> 39
 -1.063488e+00 -5.282183e+00 -3.866542e+00 1.216956e+00 4.200162e-01 -9.728013e+00 -7.870355e+00 -5.157870e+00 -9.624358e+00 -7.288581e+00 -4.540659e+00 -9.577393e+00 6.967188e+01 -8.572845e-02 -7.402802e-02 1.206745e+00 2.939634e+00 5.462323e-01 -9.635798e-01 -2.994094e-01 -1.234499e+00 -1.143727e+00 1.432417e+00 -2.096238e+00 6.548123e-01 -8.495160e-01 -8.160317e-02 -2.480685e-01 -1.235704e-01 -4.262986e-01 1.448635e-01 4.197382e-01 2.958105e-01 2.111080e-02 3.748026e-01 -2.932146e-01 5.838393e-02 1.712984e-01 7.539903e-02
<VARIANCE> 39
 3.134495e+00 6.509261e+00 1.386894e+01 3.930621e+01 1.062602e+01 2.046184e+01 1.746657e+01 2.205578e+01 3.048840e+01 1.571566e+01 3.313950e+01 1.514920e+01 2.831492e+00 1.563898e-01 8.105878e-01 7.040631e-01 2.300508e+00 8.762054e-01 1.515531e+00 1.450090e+00 2.117490e+00 3.149573e+00 1.111162e+00 2.469116e+00 9.416505e-01 1.213720e-01 2.608029e-02 1.134687e-01 1.277890e-01 4.121166e-01 1.721541e-01 2.438440e-01 2.996413e-01 4.675933e-01 4.558840e-01 2.232759e-01 7.507688e-01 2.308421e-01 1.350300e-02
<GCONST> 8.332603e+01
<STATE> 4
<MEAN> 39
 -2.524355e+00 -6.779845e+00 -2.724049e-01 7.368404e+00 4.362468e+00 -1.122193e+01 -6.927411e+00 -9.221483e+00 -1.165345e+01 -1.998334e+00 -1.101219e+01 -6.028756e+00 6.586962e+01 -1.943433e-01 3.633834e-04 2.078823e-01 3.611034e-01 3.330694e-01 1.668544e-01 4.985644e-01 -1.288622e-01 -7.864377e-02 2.417621e-01 -1.269146e-01 1.742569e-01 -6.401821e-01 1.218191e-03 8.858036e-02 -1.068769e-01 -1.975645e-01 -1.494528e-01 9.285086e-02 1.277258e-01 1.783719e-01 7.375272e-02 -1.928283e-01 2.415878e-01 -1.480379e-01 -1.799217e-02
<VARIANCE> 39
 2.438251e+00 2.615787e+00 4.187972e+00 1.562399e+01 1.050995e+01 1.096686e+01 1.345422e+01 1.169503e+01 1.939061e+01 1.587491e+01 2.607865e+01 1.285545e+01 3.784120e+00 1.401158e-01 2.604192e-01 5.043435e-01 7.537156e-01 6.440260e-01 1.038995e+00 8.812476e-01 8.719051e-01 1.184149e+00 1.161349e+00 1.544535e+00 1.246435e+00 9.319907e-02 2.408605e-02 4.296332e-02 7.753273e-02 2.077040e-01 1.023016e-01 1.830880e-01 1.331286e-01 1.266922e-01 2.087732e-01 2.274226e-01 3.424113e-01 2.236971e-01 1.309390e-02
<GCONST> 6.503478e+01
<STATE> 5
<MEAN> 39
 -3.541764e+00 -5.897155e+00 2.719244e-02 8.578186e+00 2.706142e+00 -7.773719e+00 -3.066308e+00 -7.095095e+00 -9.940034e+00 -3.889603e+00 -7.927537e+00 -6.044510e+00 6.221436e+01 -3.681481e-01 -5.623602e-02 -8.974944e-02 -4.090781e-01 -2.846687e-01 6.442947e-01 7.234150e-01 6.082513e-01 4.515609e-01 -2.609507e-01 4.453186e-01 -2.930716e-03 -6.569084e-01 -6.415599e-02 -1.218688e-01 -8.213454e-02 -1.739301e-01 -3.662258e-03 -7.234978e-03 3.306314e-02 1.161912e-01 9.159747e-02 4.861745e-02 -2.099775e-03 7.824052e-03 2.609067e-02
<VARIANCE> 39
 2.124487e+00 3.497031e+00 4.022064e+00 1.282353e+01 8.592944e+00 9.312358e+00 1.328251e+01 1.127881e+01 1.989407e+01 1.047539e+01 1.934797e+01 1.019529e+01 3.276977e+00 1.508297e-01 3.376998e-01 4.113328e-01 9.119918e-01 9.462270e-01 9.224480e-01 1.426034e+00 1.122506e+00 1.138148e+00 1.449585e+00 1.465469e+00 1.051108e+00 1.158280e-01 2.712951e-02 5.191856e-02 6.718817e-02 1.482185e-01 1.762626e-01 1.414342e-01 2.083749e-01 1.665841e-01 1.994938e-01 2.589459e-01 2.610034e-01 2.227853e-01 2.061540e-02
<GCONST> 6.606564e+01
<STATE> 6
<MEAN> 39
 -6.576641e+00 -8.500788e+00 -2.477665e+00 3.722610e+00 1.423450e+00 -5.611712e+00 5.602630e-01 -3.546781e+00 -7.128430e+00 -4.348677e+00 -6.627677e+00 -6.613744e+00 5.873055e+01 -3.442669e-01 -3.892562e-01 -3.657132e-01 -6.224768e-01 -3.629210e-01 -1.145785e-01 1.598143e-01 2.609588e-01 1.820967e-01 1.518052e-03 1.982942e-01 -6.346044e-02 -3.266046e-01 5.466344e-02 3.706815e-02 3.197662e-02 5.407455e-02 -1.482341e-02 -1.139688e-01 -1.447716e-01 -1.433480e-01 -1.127362e-01 7.590899e-03 -3.220430e-02 5.964284e-02 6.456795e-02
<VARIANCE> 39
 2.232331e+00 3.152072e+00 4.112899e+00 7.828922e+00 1.020086e+01 1.164647e+01 1.199228e+01 1.582132e+01 1.113152e+01 1.269392e+01 1.649850e+01 1.550471e+01 1.015027e+00 1.968334e-01 3.111158e-01 3.840242e-01 7.963733e-01 9.980623e-01 1.269459e+00 1.503910e+00 1.644718e+00 1.320630e+00 1.345546e+00 1.727437e+00 1.638146e+00 8.013711e-02 3.536307e-02 5.645200e-02 7.092344e-02 1.556013e-01 2.242492e-01 2.856642e-01 3.488780e-01 3.758700e-01 2.585434e-01 2.735676e-01 3.201128e-01 3.107247e-01 1.247658e-02
<GCONST> 6.904599e+01
<STATE> 7
<MEAN> 39
 -7.789732e+00 -9.103649e+00 -3.546994e+00 1.340489e+00 -4.474364e-01 -6.060316e+00 5.935528e-01 -3.674746e+00 -7.473689e+00 -4.396234e+00 -5.243636e+00 -6.400898e+00 5.673940e+01 -5.344204e-02 3.080491e-02 -2.362259e-02 -4.671717e-02 -1.981369e-02 4.304691e-02 8.751585e-03 -6.393380e-02 -5.244587e-02 6.006371e-03 1.945296e-02 1.899045e-02 -1.654125e-01 1.381558e-02 1.695645e-02 1.670115e-02 3.714803e-02 2.046890e-02 1.739432e-02 -1.048074e-02 -1.566011e-02 -1.848539e-02 1.134745e-02 -2.152309e-02 -1.538338e-02 -2.298667e-02
<VARIANCE> 39
 2.660635e+00 4.115503e+00 5.282360e+00 5.742528e+00 9.715116e+00 8.323617e+00 1.087297e+01 1.311178e+01 1.431529e+01 1.395095e+01 1.211384e+01 1.245580e+01 1.995520e+00 2.441463e-01 3.879769e-01 5.873256e-01 7.495200e-01 1.071167e+00 8.823662e-01 1.370508e+00 1.362927e+00 1.693115e+00 1.589866e+00 1.427571e+00 1.432234e+00 1.087101e-01 5.293907e-02 8.349791e-02 1.274115e-01 1.662426e-01 2.202024e-01 1.788415e-01 2.965453e-01 2.809014e-01 3.602113e-01 3.288153e-01 3.019609e-01 3.043581e-01 1.958732e-02
<GCONST> 7.126804e+01
<STATE> 8
<MEAN> 39
 -8.321177e+00 -8.740997e+00 -3.828570e+00 1.663260e+00 -1.336062e+00 -5.181276e+00 -5.399094e-01 -4.956915e+00 -8.478970e+00 -3.294888e+00 -5.405464e+00 -6.466257e+00 5.219305e+01 -4.022783e-02 2.828149e-02 -1.194419e-01 1.034404e-01 -1.961988e-01 9.809166e-02 -1.232984e-01 8.085440e-02 -3.010112e-02 1.973403e-01 -5.707134e-02 7.930011e-03 -5.837641e-01 -1.140005e-02 9.884438e-03 -2.253783e-02 -9.634465e-03 -2.186742e-02 -1.059601e-02 5.778130e-02 8.029991e-02 4.748695e-02 -1.666926e-02 2.759543e-02 7.331722e-03 2.299311e-02
<VARIANCE> 39
 1.398467e+00 2.957383e+00 3.893987e+00 4.821483e+00 8.816150e+00 7.991050e+00 1.149867e+01 1.368759e+01 1.122377e+01 1.664629e+01 1.509813e+01 1.031646e+01 3.010018e+00 1.490049e-01 2.029203e-01 4.220541e-01 4.969419e-01 7.022206e-01 8.640690e-01 1.298499e+00 1.311583e+00 1.089692e+00 1.872976e+00 1.555539e+00 1.150327e+00 7.159453e-02 3.224004e-02 4.275341e-02 9.184569e-02 1.026422e-01 1.406891e-01 1.620877e-01 2.909080e-01 2.554551e-01 1.946476e-01 4.195756e-01 3.146232e-01 2.243590e-01 1.196373e-02
<GCONST> 6.314113e+01
<STATE> 9
<MEAN> 39
 -8.815898e+00 -7.961518e+00 -4.596934e+00 2.363425e+00 -2.509161e+00 -4.310106e+00 -2.506906e-01 -3.282214e+00 -9.053084e+00 -2.542010e+00 -5.067939e+00 -6.432185e+00 4.849780e+01 -4.589293e-02 1.073923e-01 -3.745698e-02 1.012024e-01 -8.988218e-02 1.235752e-01 -7.001309e-02 8.197785e-02 -1.205725e-01 5.054563e-03 1.296314e-01 -1.509188e-02 -3.042762e-01 1.603970e-02 1.781979e-02 -7.165264e-03 8.452864e-03 3.965319e-02 6.601934e-03 -9.093796e-02 -3.086067e-02 1.016294e-02 -3.090209e-02 -3.619824e-02 4.243940e-03 1.808008e-02
<VARIANCE> 39
 2.915363e+00 3.035048e+00 4.837955e+00 7.195907e+00 9.391976e+00 1.022390e+01 1.300377e+01 1.197928e+01 1.324886e+01 1.203512e+01 1.308768e+01 1.050805e+01 1.335937e+00 2.439096e-01 3.093517e-01 5.979440e-01 7.505425e-01 9.338883e-01 9.562693e-01 1.377224e+00 1.149813e+00 1.389244e+00 1.194917e+00 1.117051e+00 9.396214e-01 6.588347e-02 4.970684e-02 6.078966e-02 1.301700e-01 1.510443e-01 1.882894e-01 1.942402e-01 2.689070e-01 1.817974e-01 2.764290e-01 2.706605e-01 2.230623e-01 1.947761e-01 1.287463e-02
<GCONST> 6.596297e+01
<STATE> 10
<MEAN> 39
 -8.874527e+00 -6.673537e+00 -4.985548e+00 3.926625e+00 -2.475985e+00 -3.485292e+00 -1.849166e+00 -2.902627e+00 -8.646967e+00 -2.642811e+00 -6.009725e+00 -5.939189e+00 4.617194e+01 -3.821244e-02 3.548373e-02 -2.759869e-02 7.843347e-02 8.717947e-03 4.916495e-02 -4.387189e-02 7.669747e-02 5.974788e-02 7.250067e-03 -6.280715e-02 4.208336e-02 -1.370152e-01 -3.052081e-03 -1.717207e-03 1.776515e-02 9.876218e-03 6.874190e-04 8.543614e-03 2.577899e-02 1.196823e-03 1.443294e-03 1.300167e-02 4.246155e-03 -7.794859e-03 4.106543e-03
<VARIANCE> 39
 2.975940e+00 3.614979e+00 6.663986e+00 7.389102e+00 8.864694e+00 9.820100e+00 1.218733e+01 1.394877e+01 1.243410e+01 1.399670e+01 1.275001e+01 1.035029e+01 1.015027e+00 1.691994e-01 2.859286e-01 5.718748e-01 8.554606e-01 9.013765e-01 9.765630e-01 1.268326e+00 1.509509e+00 1.366290e+00 1.474793e+00 1.279018e+00 1.176330e+00 7.109656e-02 3.477150e-02 5.844152e-02 1.076880e-01 1.748393e-01 1.832470e-01 2.012827e-01 2.577822e-01 3.230177e-01 2.755276e-01 2.932344e-01 2.432836e-01 2.458256e-01 1.270819e-02
<GCONST> 6.719752e+01
<STATE> 11
<MEAN> 39
 -1.008980e+01 -5.483830e+00 -5.567555e+00 6.022086e+00 -3.196196e+00 -2.134916e+00 -2.009988e+00 -1.162933e+00 -8.823434e+00 -2.631621e+00 -5.700954e+00 -6.343760e+00 4.261804e+01 -5.221467e-03 2.075791e-02 -4.155354e-03 2.010094e-02 6.948668e-04 1.831364e-02 -1.313568e-03 3.837172e-03 -1.019469e-02 2.084731e-04 1.304017e-02 -3.312644e-03 -2.733848e-02 -3.169525e-03 -2.607329e-03 8.200854e-05 -3.276701e-03 2.615892e-03 -3.608702e-03 -1.088533e-03 -4.479023e-03 2.553716e-03 -2.672914e-03 1.702076e-03 8.464067e-04 6.156667e-03
<VARIANCE> 39
 2.478039e+00 3.697979e+00 5.954268e+00 6.853488e+00 1.063236e+01 1.001017e+01 1.312845e+01 1.412735e+01 1.354427e+01 1.415590e+01 1.344438e+01 1.176921e+01 3.002108e+00 1.467233e-01 3.184543e-01 5.447065e-01 6.963446e-01 1.105788e+00 1.115984e+00 1.404479e+00 1.441391e+00 1.490903e+00 1.485739e+00 1.448335e+00 1.254570e+00 7.837166e-02 3.052684e-02 6.702612e-02 1.125742e-01 1.478461e-01 2.304192e-01 2.366529e-01 2.959117e-01 3.090932e-01 3.181942e-01 3.038123e-01 2.996162e-01 2.555707e-01 1.526557e-02
<GCONST> 6.996358e+01
<TRANSP> 12
 0.000000e+00 1.000000e+00 0.000000e+00 0.000000e+00 0.000000e+00 0.000000e+00 0.000000e+00 0.000000e+00 0.000000e+00 0.000000e+00 0.000000e+00 0.000000e+00
 0.000000e+00 9.539433e-01 4.605674e-02 0.000000e+00 0.000000e+00 0.000000e+00 0.000000e+00 0.000000e+00 0.000000e+00 0.000000e+00 0.000000e+00 0.000000e+00
 0.000000e+00 0.000000e+00 7.861188e-01 2.138812e-01 0.000000e+00 0.000000e+00 0.000000e+00 0.000000e+00 0.000000e+00 0.000000e+00 0.000000e+00 0.000000e+00
 0.000000e+00 0.000000e+00 0.000000e+00 8.397222e-01 1.602778e-01 0.000000e+00 0.000000e+00 0.000000e+00 0.000000e+00 0.000000e+00 0.000000e+00 0.000000e+00
 0.000000e+00 0.000000e+00 0.000000e+00 0.000000e+00 8.340588e-01 1.659412e-01 0.000000e+00 0.000000e+00 0.000000e+00 0.000000e+00 0.000000e+00 0.000000e+00
 0.000000e+00 0.000000e+00 0.000000e+00 0.000000e+00 0.000000e+00 8.473518e-01 1.526482e-01 0.000000e+00 0.000000e+00 0.000000e+00 0.000000e+00 0.000000e+00
 0.000000e+00 0.000000e+00 0.000000e+00 0.000000e+00 0.000000e+00 0.000000e+00 9.488009e-01 5.119905e-02 0.000000e+00 0.000000e+00 0.000000e+00 0.000000e+00
 0.000000e+00 0.000000e+00 0.000000e+00 0.000000e+00 0.000000e+00 0.000000e+00 0.000000e+00 8.791485e-01 1.208515e-01 0.000000e+00 0.000000e+00 0.000000e+00
 0.000000e+00 0.000000e+00 0.000000e+00 0.000000e+00 0.000000e+00 0.000000e+00 0.000000e+00 0.000000e+00 8.785183e-01 1.214818e-01 0.000000e+00 0.000000e+00
 0.000000e+00 0.000000e+00 0.000000e+00 0.000000e+00 0.000000e+00 0.000000e+00 0.000000e+00 0.000000e+00 0.000000e+00 9.478741e-01 5.212585e-02 0.000000e+00
 0.000000e+00 0.000000e+00 0.000000e+00 0.000000e+00 0.000000e+00 0.000000e+00 0.000000e+00 0.000000e+00 0.000000e+00 0.000000e+00 9.894422e-01 1.055777e-02
 0.000000e+00 0.000000e+00 0.000000e+00 0.000000e+00 0.000000e+00 0.000000e+00 0.000000e+00 0.000000e+00 0.000000e+00 0.000000e+00 0.000000e+00 0.000000e+00
<ENDHMM>
~h "SIL"
<BEGINHMM>
<NUMSTATES> 12
<STATE> 2
<MEAN> 39
 -1.321281e+01 -2.018095e+00 -9.583421e+00 3.652102e+00 -1.876943e+00 4.569459e-01 -1.199802e+00 -1.487641e+00 -5.227811e+00 -1.922152e+00 -2.975183e+00 -3.843579e+00 4.004262e+01 9.699033e-01 -4.539691e-01 4.142395e-02 -2.014757e-01 4.579902e-01 -5.618380e-01 2.816039e-01 -3.173683e-01 -4.941262e-01 -2.091531e-03 -2.588236e-01 -3.079520e-01 1.845247e+00 1.365834e-02 -1.124526e-01 2.309798e-01 6.749089e-02 -6.410520e-02 -1.114057e-01 7.609710e-03 3.019209e-02 -8.286039e-02 -5.451158e-02 -6.429344e-02 -6.383879e-02 6.694119e-02
<VARIANCE> 39
 4.706770e+01 1.718568e+01 1.677008e+01 1.080197e+01 1.578857e+01 2.077499e+01 1.263040e+01 1.656359e+01 2.629226e+01 1.439029e+01 1.834846e+01 1.514842e+01 1.061207e+02 4.208545e+00 1.270454e+00 1.229579e+00 1.054176e+00 1.595488e+00 1.696514e+00 1.374821e+00 1.975641e+00 2.880199e+00 1.772568e+00 1.807957e+00 1.380693e+00 4.420368e+00 7.194037e-01 2.022452e-01 2.240640e-01 1.957359e-01 3.341101e-01 2.875939e-01 2.537398e-01 4.084649e-01 5.079094e-01 3.377852e-01 3.331762e-01 2.719885e-01 9.171212e-01
<GCONST> 1.049845e+02
<STATE> 3
<MEAN> 39
 -9.595547e+00 -5.808163e+00 -5.911517e+00 3.836802e+00 -1.410630e+00 -3.044784e+00 -5.089273e-01 -2.075174e+00 -8.169279e+00 -2.677177e+00 -4.812046e+00 -5.944836e+00 4.693418e+01 1.077571e-01 -5.393434e-01 8.317161e-01 5.551305e-02 -1.188975e-01 -4.681718e-01 -2.051493e-02 -3.426860e-02 -2.201388e-01 -2.016879e-01 -2.218588e-01 -2.786237e-01 6.158992e-01 1.295183e-02 3.158003e-02 -1.374175e-01 -8.631398e-02 -8.061640e-04 3.977863e-02 -3.090150e-02 -3.711994e-03 2.705296e-02 6.860530e-03 1.281717e-02 5.034394e-02 -9.056779e-02
<VARIANCE> 39
 4.214424e+00 7.896906e+00 1.127862e+01 1.085111e+01 1.093670e+01 1.182319e+01 1.324366e+01 1.622975e+01 1.512489e+01 1.544292e+01 1.302379e+01 1.207745e+01 1.190331e+01 3.149048e-01 9.516751e-01 1.295389e+00 1.002641e+00 1.451674e+00 1.318594e+00 1.339262e+00 2.112006e+00 1.754151e+00 1.693653e+00 1.539170e+00 1.439160e+00 6.557965e-01 6.689125e-02 1.741986e-01 2.222778e-01 2.106818e-01 2.711033e-01 2.538430e-01 2.680585e-01 4.385258e-01 3.555273e-01 3.452034e-01 3.181491e-01 2.749168e-01 7.219625e-02
<GCONST> 8.592477e+01
<STATE> 4
<MEAN> 39
 -8.971197e+00 -7.521317e+00 -4.754480e+00 2.974188e+00 -2.059943e+00 -4.300420e+00 -6.256225e-01 -2.151478e+00 -8.951865e+00 -3.193159e+00 -5.350469e+00 -6.523867e+00 4.831407e+01 3.615889e-02 -4.741809e-02 3.587387e-02 -5.389600e-02 4.054884e-04 -5.938858e-02 1.671486e-02 -3.817866e-02 4.177514e-03 -4.110693e-02 -2.223219e-03 -2.464435e-02 1.569638e-01 -9.612534e-03 1.979800e-02 -2.736802e-02 4.428421e-03 9.737579e-03 1.554859e-02 -6.443157e-03 6.411530e-04 1.386402e-02 1.042035e-02 1.661768e-02 2.060923e-02 -2.004862e-02
<VARIANCE> 39
 1.926082e+00 4.542829e+00 5.352506e+00 8.620708e+00 8.926329e+00 1.079237e+01 1.287571e+01 1.384894e+01 1.386917e+01 1.376304e+01 1.284655e+01 1.202687e+01 1.281732e+01 1.620459e-01 3.128249e-01 5.083477e-01 6.928762e-01 8.574458e-01 1.063030e+00 1.342859e+00 1.412664e+00 1.458486e+00 1.404779e+00 1.433781e+00 1.334162e+00 1.637375e-01 3.410174e-02 6.737533e-02 1.093031e-01 1.401656e-01 1.728901e-01 2.227300e-01 2.729843e-01 2.917973e-01 3.049927e-01 2.915495e-01 3.024757e-01 2.799920e-01 1.561125e-02
<GCONST> 7.126066e+01
<STATE> 5
<MEAN> 39
 -8.320201e+00 -9.025215e+00 -3.786205e+00 1.201058e+00 -1.240639e+00 -6.298275e+00 2.348030e-02 -3.507850e+00 -8.340132e+00 -4.333557e+00 -5.320246e+00 -6.775083e+00 5.451586e+01 2.960440e-03 -1.397546e-02 9.836173e-03 -6.152248e-03 2.379317e-03 -1.234381e-02 9.906881e-03 4.218333e-03 6.582364e-03 -1.422684e-03 7.587062e-03 5.621184e-03 4.796309e-02 -2.170217e-03 6.372184e-03 -5.499976e-04 4.918009e-03 4.268654e-03 9.533438e-03 4.948388e-03 8.271703e-03 1.202298e-03 -2.907051e-04 6.726716e-04 2.145953e-03 -4.452550e-03
<VARIANCE> 39
 1.599038e+00 3.243268e+00 4.854636e+00 7.146044e+00 8.696464e+00 1.026330e+01 1.223694e+01 1.415953e+01 1.420778e+01 1.455041e+01 1.313378e+01 1.165361e+01 5.864673e+00 1.422060e-01 2.761523e-01 4.966770e-01 7.121207e-01 9.589455e-01 1.122647e+00 1.342888e+00 1.456198e+00 1.497911e+00 1.559691e+00 1.444939e+00 1.204182e+00 6.336042e-02 2.947766e-02 5.737153e-02 1.026526e-01 1.489338e-01 2.007935e-01 2.375012e-01 2.810477e-01 3.043062e-01 3.106397e-01 3.281670e-01 3.016095e-01 2.486237e-01 1.107587e-02
<GCONST> 6.831671e+01
<STATE> 6
<MEAN> 39
 -9.679689e+00 -6.352909e+00 -5.109714e+00 4.297520e+00 -1.951450e+00 -3.479346e+00 -7.283165e-01 -1.156718e+00 -8.624463e+00 -3.240713e+00 -5.176063e+00 -6.082989e+00 4.691709e+01 -6.018086e-03 -5.856119e-04 1.054404e-02 -3.365459e-03 2.263690e-02 2.590812e-02 9.825103e-03 3.770507e-02 -3.291949e-02 -4.262658e-02 -3.671511e-02 1.204851e-02 -1.659977e-02 -1.096002e-02 1.882739e-02 -4.448722e-03 1.006041e-02 7.331835e-03 5.464813e-03 -1.521530e-02 -1.543783e-02 -3.554075e-03 -1.676880e-02 -2.234797e-02 -1.377008e-02 1.698917e-02
<VARIANCE> 39
 3.701319e+00 7.476333e+00 6.869067e+00 1.025568e+01 1.127013e+01 1.580263e+01 1.338809e+01 1.666392e+01 1.555060e+01 1.816153e+01 1.331909e+01 1.315728e+01 3.593259e+01 2.129463e-01 3.654728e-01 5.166886e-01 7.046967e-01 1.082085e+00 1.197880e+00 1.299447e+00 1.661326e+00 1.617250e+00 1.543530e+00 1.537410e+00 1.285799e+00 1.067171e-01 4.568193e-02 7.582267e-02 1.123494e-01 1.527737e-01 2.381789e-01 2.608368e-01 2.753646e-01 3.458071e-01 3.386101e-01 3.102942e-01 3.283150e-01 2.624130e-01 2.071138e-02
<GCONST> 7.761548e+01
<STATE> 7
<MEAN> 39
 -9.360516e+00 -6.887295e+00 -4.197795e+00 3.235389e+00 -1.043960e+00 -4.594721e+00 3.984050e-02 -2.130102e+00 -8.102249e+00 -4.030087e+00 -5.359046e+00 -6.128210e+00 5.098445e+01 -3.943186e-02 2.108459e-02 -2.712733e-02 -4.315083e-02 1.721999e-02 3.010060e-02 -5.834609e-02 1.499060e-02 -3.505460e-02 -9.478796e-02 -3.654622e-02 3.775604e-02 3.180845e-02 -3.374840e-02 4.799204e-02 -2.013112e-02 2.740433e-02 4.982408e-04 -2.522760e-02 -3.358611e-02 -4.826530e-02 4.356834e-03 -2.874689e-02 -9.542794e-03 5.385161e-03 2.733917e-02
<VARIANCE> 39
 5.586031e+00 9.200212e+00 5.691377e+00 1.159937e+01 1.002108e+01 1.372959e+01 1.340143e+01 1.566385e+01 1.488775e+01 1.493885e+01 1.268991e+01 1.296749e+01 2.711925e+01 4.129388e-01 4.976423e-01 5.257561e-01 8.524705e-01 1.012334e+00 1.124158e+00 1.536415e+00 1.706973e+00 1.725860e+00 1.456685e+00 1.476687e+00 1.461492e+00 2.437104e-01 9.335001e-02 1.043302e-01 1.163251e-01 1.759919e-01 2.176047e-01 2.040902e-01 3.122663e-01 3.732690e-01 3.634362e-01 2.951464e-01 2.897424e-01 3.189560e-01 4.511887e-02
<GCONST> 8.137727e+01
<STATE> 8
<MEAN> 39
 -9.558816e+00 -6.595234e+00 -4.108821e+00 3.352159e+00 -1.026295e+00 -4.093126e+00 -1.010592e-01 -2.116423e+00 -8.387140e+00 -3.658112e+00 -5.231228e+00 -6.447875e+00 4.999904e+01 -1.048177e-01 8.499891e-02 -4.627965e-02 5.414568e-02 2.757679e-02 -3.948297e-02 -1.174993e-01 -2.402119e-02 2.530467e-02 -1.631370e-01 -2.461356e-02 8.598651e-02 9.003508e-02 -7.285298e-02 1.543879e-01 9.200280e-03 7.933551e-02 5.871085e-03 -1.099078e-01 -6.374059e-03 -3.258979e-02 4.644597e-02 -1.281979e-02 1.674658e-02 6.699604e-02 1.143503e-01
<VARIANCE> 39
 5.748465e+00 7.748377e+00 6.734670e+00 1.070543e+01 9.184487e+00 1.410732e+01 1.516139e+01 1.793374e+01 1.470522e+01 1.731734e+01 1.381141e+01 1.295593e+01 2.670507e+01 4.234979e-01 4.392139e-01 6.644028e-01 9.051899e-01 1.012205e+00 1.161285e+00 1.513016e+00 1.872730e+00 1.409127e+00 1.587119e+00 1.468164e+00 1.340678e+00 4.408578e-01 1.356552e-01 1.480253e-01 1.703189e-01 2.023551e-01 2.351337e-01 2.604668e-01 3.545991e-01 4.281016e-01 3.389095e-01 3.731987e-01 3.329837e-01 3.317430e-01 1.105177e-01
<GCONST> 8.548168e+01
<STATE> 9
<MEAN> 39
 -9.901311e+00 -7.046299e+00 -4.369458e+00 3.194532e+00 -1.165587e+00 -4.592130e+00 -5.211360e-01 -1.779216e+00 -8.074854e+00 -4.828679e+00 -5.103047e+00 -5.788508e+00 5.196396e+01 -3.303550e-01 4.840057e-01 -5.595159e-03 2.928340e-01 7.322031e-02 -2.158910e-01 -1.264400e-01 -9.679864e-02 7.082795e-02 -2.621145e-01 -8.281695e-02 1.601930e-01 3.721743e-01 -1.336294e-01 2.315561e-01 2.931941e-02 5.579873e-02 3.213699e-02 -2.275347e-01 -9.496212e-04 -4.606994e-02 4.744319e-02 -5.002338e-02 2.641888e-02 1.006066e-01 2.846664e-01
<VARIANCE> 39
 8.329091e+00 5.578701e+00 6.196417e+00 1.101939e+01 9.271172e+00 1.430181e+01 1.370697e+01 1.763943e+01 1.514827e+01 1.775593e+01 1.325318e+01 1.378358e+01 3.459361e+01 9.233692e-01 7.679297e-01 8.777556e-01 9.570957e-01 1.129215e+00 1.154291e+00 1.778628e+00 2.003526e+00 1.755355e+00 1.758215e+00 1.474900e+00 1.594629e+00 6.571960e-01 2.125139e-01 2.397249e-01 2.285026e-01 2.097291e-01 3.522498e-01 3.261193e-01 4.104281e-01 4.201969e-01 3.949096e-01 3.976652e-01 4.121945e-01 3.536541e-01 1.703712e-01
<GCONST> 9.155769e+01
<STATE> 10
<MEAN> 39
 -1.163016e+01 -3.592180e+00 -4.640669e+00 4.231117e+00 1.048841e-01 -7.196431e+00 -5.660390e-01 -2.809804e+00 -7.478431e+00 -6.111633e+00 -5.488883e+00 -4.838065e+00 5.653430e+01 -6.981847e-01 1.244207e+00 -1.514079e-01 3.224960e-01 3.798531e-01 -6.642559e-01 -1.464312e-01 -1.069564e-01 1.650805e-01 -5.443782e-01 7.671290e-02 4.301674e-01 1.305912e+00 -1.005369e-02 -4.989308e-02 -1.027960e-02 -1.333069e-01 -7.281989e-02 -4.446320e-03 -7.192977e-02 6.152474e-02 2.659099e-02 -6.223223e-02 1.103974e-01 3.179010e-02 1.444754e-01
<VARIANCE> 39
 2.771643e+01 2.670571e+01 1.555067e+01 1.322986e+01 2.106194e+01 2.569526e+01 2.524237e+01 2.552848e+01 2.265583e+01 2.548578e+01 1.673943e+01 1.831333e+01 5.735202e+01 2.887344e+00 2.956432e+00 1.784785e+00 1.419993e+00 2.354852e+00 1.879380e+00 2.946652e+00 2.336953e+00 2.436582e+00 2.420389e+00 2.003210e+00 1.972820e+00 1.558121e+00 2.384018e-01 3.495259e-01 2.395741e-01 2.287557e-01 3.769390e-01 3.963422e-01 4.735742e-01 4.227623e-01 4.428280e-01 3.873723e-01 3.952611e-01 3.624262e-01 2.507330e-01
<GCONST> 1.086014e+02
<STATE> 11
<MEAN> 39
 -1.174879e+01 -4.118947e+00 -4.826643e+00 4.298989e+00 -9.878117e-02 -6.353123e+00 -1.293741e+00 -2.088144e+00 -7.559665e+00 -6.251461e+00 -5.254519e+00 -4.878833e+00 5.542978e+01 -3.606291e-01 3.547462e-01 -4.098672e-02 -1.939552e-01 -1.525262e-01 -4.743970e-01 -2.220133e-01 -4.397699e-02 1.505513e-01 -3.636088e-01 2.839997e-01 4.049685e-01 8.827654e-01 8.602494e-02 -4.343945e-02 3.835312e-02 -1.439126e-01 -1.819385e-01 6.933242e-03 1.637886e-02 5.573867e-02 2.874943e-02 1.116182e-02 9.359445e-02 3.719077e-02 5.534066e-02
<VARIANCE> 39
 3.568994e+01 2.765047e+01 1.729272e+01 1.429179e+01 2.163403e+01 2.315171e+01 2.380609e+01 2.489812e+01 2.300302e+01 3.297112e+01 1.698356e+01 1.665501e+01 8.920292e+01 1.985898e+00 1.593495e+00 1.771202e+00 1.450223e+00 2.872575e+00 2.164455e+00 2.691686e+00 2.340528e+00 2.341699e+00 2.511054e+00 2.701746e+00 2.414664e+00 1.967087e+00 2.043669e-01 2.115289e-01 2.097924e-01 1.913296e-01 2.777779e-01 3.271916e-01 4.117160e-01 2.943005e-01 3.452692e-01 3.261677e-01 2.878267e-01 2.382699e-01 2.003713e-01
<GCONST> 1.062003e+02
<TRANSP> 12
 0.000000e+00 1.000000e+00 0.000000e+00 0.000000e+00 0.000000e+00 0.000000e+00 0.000000e+00 0.000000e+00 0.000000e+00 0.000000e+00 0.000000e+00 0.000000e+00
 0.000000e+00 7.541600e-01 2.458400e-01 0.000000e+00 0.000000e+00 0.000000e+00 0.000000e+00 0.000000e+00 0.000000e+00 0.000000e+00 0.000000e+00 0.000000e+00
 0.000000e+00 0.000000e+00 7.638606e-01 2.361394e-01 0.000000e+00 0.000000e+00 0.000000e+00 0.000000e+00 0.000000e+00 0.000000e+00 0.000000e+00 0.000000e+00
 0.000000e+00 0.000000e+00 0.000000e+00 9.001285e-01 9.987150e-02 0.000000e+00 0.000000e+00 0.000000e+00 0.000000e+00 0.000000e+00 0.000000e+00 0.000000e+00
 0.000000e+00 0.000000e+00 0.000000e+00 0.000000e+00 9.540057e-01 4.599430e-02 0.000000e+00 0.000000e+00 0.000000e+00 0.000000e+00 0.000000e+00 0.000000e+00
 0.000000e+00 0.000000e+00 0.000000e+00 0.000000e+00 0.000000e+00 7.375622e-01 2.624377e-01 0.000000e+00 0.000000e+00 0.000000e+00 0.000000e+00 0.000000e+00
 0.000000e+00 0.000000e+00 0.000000e+00 0.000000e+00 0.000000e+00 0.000000e+00 5.526809e-01 4.473191e-01 0.000000e+00 0.000000e+00 0.000000e+00 0.000000e+00
 0.000000e+00 0.000000e+00 0.000000e+00 0.000000e+00 0.000000e+00 0.000000e+00 0.000000e+00 3.642131e-01 6.357869e-01 0.000000e+00 0.000000e+00 0.000000e+00
 0.000000e+00 0.000000e+00 0.000000e+00 0.000000e+00 0.000000e+00 0.000000e+00 0.000000e+00 0.000000e+00 2.072720e-01 7.927281e-01 0.000000e+00 0.000000e+00
 0.000000e+00 0.000000e+00 0.000000e+00 0.000000e+00 0.000000e+00 0.000000e+00 0.000000e+00 0.000000e+00 0.000000e+00 5.024247e-01 4.975753e-01 0.000000e+00
 0.000000e+00 0.000000e+00 0.000000e+00 0.000000e+00 0.000000e+00 0.000000e+00 0.000000e+00 0.000000e+00 0.000000e+00 0.000000e+00 2.021427e-01 7.978573e-01
 0.000000e+00 0.000000e+00 0.000000e+00 0.000000e+00 0.000000e+00 0.000000e+00 0.000000e+00 0.000000e+00 0.000000e+00 0.000000e+00 0.000000e+00 0.000000e+00
<ENDHMM>
~h "SIX"
<BEGINHMM>
<NUMSTATES> 12
<STATE> 2
<MEAN> 39
 -1.433322e+01 -2.242723e+00 -3.417061e+00 1.966114e+00 -6.273927e+00 -1.658236e+01 -4.874512e+00 8.641174e+00 -6.064948e+00 -1.530765e+01 2.340406e+00 -5.413301e+00 7.298095e+01 5.632969e-01 -4.892629e-01 5.633863e-01 -1.774950e-02 -6.627833e-01 -1.804592e-01 -3.757722e-01 7.495707e-01 -2.546175e-01 -1.774658e-01 4.198143e-01 -3.714625e-01 3.266979e-01 1.077850e-01 -6.918176e-02 5.245266e-02 -3.530373e-02 1.509972e-02 7.129434e-02 6.272858e-02 -1.072964e-01 -1.049414e-02 1.676891e-01 -5.715178e-02 -3.629372e-02 -1.732537e-01
<VARIANCE> 39
 9.113524e+01 7.781850e+01 5.519282e+01 1.548689e+01 1.024323e+02 2.044998e+01 5.244986e+01 1.263502e+02 2.677422e+01 3.733387e+01 3.649331e+01 3.766977e+01 1.894575e+01 3.752181e+00 2.486952e+00 1.657895e+00 1.922250e+00 3.121208e+00 1.670836e+00 3.030819e+00 4.074978e+00 2.392273e+00 3.326007e+00 2.108959e+00 1.904173e+00 1.303227e+00 4.640974e-01 2.367155e-01 2.326318e-01 4.093580e-01 4.551595e-01 3.182295e-01 5.348997e-01 6.349090e-01 4.870799e-01 4.229770e-01 4.142753e-01 3.798500e-01 9.632138e-02
<GCONST> 1.187614e+02
<STATE> 3
<MEAN> 39
 -9.121159e+00 -6.751802e+00 -3.891328e+00 2.028952e+00 -5.507285e+00 -1.354963e+01 -4.771530e-01 1.735264e+00 -6.492988e+00 -5.563800e+00 -1.887786e-01 -6.440885e+00 6.428261e+01 -1.656835e+00 1.214628e+00 -1.580840e+00 4.433558e-01 1.417084e+00 2.311583e-01 6.610729e-01 -1.316808e+00 8.442056e-01 -7.054579e-02 -7.529050e-01 9.042306e-01 -2.180156e-01 -2.397639e-01 1.799473e-01 1.432821e-04 8.256368e-02 -4.556391e-02 -1.152461e-01 -7.506542e-02 2.929842e-01 -3.267075e-02 -3.573473e-01 1.335634e-01 -1.330547e-02 2.900806e-01
<VARIANCE> 39
 3.763140e+01 1.803555e+01 5.352555e+01 1.693618e+01 3.284143e+01 2.384480e+01 2.069856e+01 3.260686e+01 3.014256e+01 2.898290e+01 3.095907e+01 3.360598e+01 1.096177e+01 2.692787e+00 2.603413e+00 2.017220e+00 1.676981e+00 1.069005e+00 2.609997e+00 3.007074e+00 4.099854e+00 2.165156e+00 4.604812e+00 2.169568e+00 2.032427e+00 2.856175e+00 3.110119e-01 3.505324e-01 5.374795e-01 2.909566e-01 2.244233e-01 4.385045e-01 5.772169e-01 5.057892e-01 4.982240e-01 5.684796e-01 3.607166e-01 4.164329e-01 2.079602e-01
<GCONST> 1.134872e+02
<STATE> 4
<MEAN> 39
 -2.623221e+01 8.315840e+00 -1.370508e+01 6.781403e+00 3.140508e+00 -1.494548e+01 4.203380e+00 -1.963850e+00 -2.951110e+00 -1.173910e+01 -1.081541e+00 -1.126052e+00 6.889140e+01 -4.275898e-01 5.823216e-01 1.110090e-01 -3.904532e-01 4.541442e-01 -4.818558e-01 6.648895e-01 -8.807164e-02 7.636243e-02 -1.018685e-01 1.792271e-01 4.049969e-02 9.546714e-02 4.548925e-01 -5.100849e-01 8.590892e-02 -2.124707e-01 -2.796866e-02 9.324633e-03 -1.051693e-01 5.352119e-02 -1.699449e-02 1.296692e-01 -1.860489e-01 3.329556e-02 -1.259822e-01
<VARIANCE> 39
 2.643231e+00 4.535501e+00 5.033076e+00 9.603245e+00 9.710276e+00 1.297313e+01 1.355166e+01 1.039359e+01 1.208022e+01 1.455725e+01 2.265103e+01 1.574311e+01 1.015027e+00 9.661539e-01 1.507815e+00 6.780694e-01 1.012628e+00 1.013795e+00 1.360155e+00 1.077414e+00 1.098399e+00 1.315709e+00 1.275075e+00 1.761940e+00 1.507239e+00 1.145149e-01 1.888384e-01 1.351515e-01 1.498692e-01 1.502392e-01 2.126721e-01 3.240675e-01 2.046244e-01 2.303533e-01 2.817839e-01 3.039967e-01 3.575623e-01 3.303688e-01 4.773970e-02
<GCONST> 7.787464e+01
<STATE> 5
<MEAN> 39
 -2.459435e+01 5.710589e+00 -1.216453e+01 1.271117e+00 6.719103e+00 -1.882313e+01 6.268309e+00 -3.593566e-01 -2.092348e+00 -1.112422e+01 -3.866525e+00 -6.423545e-02 6.886298e+01 1.044435e+00 -1.260074e+00 4.380248e-01 -9.436362e-01 1.518949e-01 -2.785640e-01 -1.740664e-01 4.689930e-01 -3.848748e-01 3.672517e-01 -8.389089e-01 -1.516309e-01 -2.963376e-01 3.005488e-01 -2.226028e-01 5.560995e-02 2.815237e-01 -2.796209e-01 3.687984e-01 -1.767370e-01 -2.021961e-01 -1.661003e-01 1.898690e-01 6.227217e-02 -2.303908e-01 -2.273214e-01
<VARIANCE> 39
 4.260325e+00 6.505787e+00 5.469715e+00 1.428212e+01 1.024134e+01 1.323274e+01 1.607078e+01 2.001958e+01 1.179330e+01 1.305088e+01 1.699403e+01 1.675768e+01 1.021409e+00 4.272802e-01 6.817830e-01 4.098943e-01 1.137532e+00 1.100063e+00 1.756612e+00 1.413319e+00 2.440004e+00 1.763078e+00 1.353583e+00 1.743921e+00 1.785387e+00 2.258464e-01 3.401692e-02 8.418476e-02 8.368523e-02 2.953776e-01 2.136628e-01 4.084109e-01 2.643906e-01 5.823556e-01 3.444504e-01 2.483100e-01 3.539791e-01 3.379619e-01 3.543497e-02
<GCONST> 7.937969e+01
<STATE> 6
<MEAN> 39
 -1.843084e+01 -5.566640e-01 -1.033686e+01 3.850225e-01 5.341380e+00 -1.681237e+01 4.316135e+00 -1.160189e+00 -4.748982e+00 -8.674232e+00 -5.663733e+00 -2.424397e+00 6.577460e+01 2.114287e+00 -1.525191e+00 6.225898e-01 8.533580e-01 -9.730673e-01 1.648782e+00 -6.155598e-01 -1.599536e+00 -5.791076e-01 1.444788e+00 -2.350144e-01 -7.576307e-01 -1.408347e+00 -2.620337e-02 2.443821e-01 8.005369e-02 1.970027e-01 -1.386866e-01 2.387677e-01 7.718810e-02 -3.652213e-01 9.604879e-02 8.099025e-02 7.383201e-02 5.934718e-02 -4.305587e-02
<VARIANCE> 39
 4.072226e+00 4.529777e+00 3.917686e+00 1.052857e+01 9.755062e+00 1.330095e+01 1.086080e+01 2.015376e+01 1.738306e+01 2.709737e+01 1.656933e+01 1.327226e+01 1.939778e+00 1.970889e-01 2.303531e-01 4.163843e-01 7.404886e-01 8.327906e-01 1.632416e+00 1.319892e+00 1.496500e+00 1.677189e+00 1.246325e+00 1.401315e+00 1.014955e+00 5.348004e-02 5.123945e-02 5.119652e-02 1.013071e-01 2.288142e-01 1.594419e-01 2.904413e-01 2.750231e-01 4.556337e-01 4.010429e-01 4.842555e-01 2.941720e-01 3.419375e-01 3.132969e-02
<GCONST> 7.340076e+01
<STATE> 7
<MEAN> 39
 -1.377045e+01 -2.939782e+00 -8.597346e+00 2.515143e+00 2.538944e+00 -1.270941e+01 3.752519e+00 -4.887238e+00 -5.413231e+00 -5.318294e+00 -6.661082e+00 -3.439451e+00 6.274947e+01 1.426115e+00 -8.903830e-01 8.527412e-01 3.913169e-01 -7.438223e-01 1.537080e+00 -1.870110e-01 -1.270733e+00 -4.547827e-01 6.788201e-01 -1.724393e-01 -5.352130e-01 -9.132424e-01 -2.905282e-01 1.240434e-01 -1.140346e-02 -2.740989e-01 1.529785e-01 -1.963566e-01 4.328485e-02 2.740359e-01 4.832552e-02 -3.950952e-01 9.732577e-02 6.236666e-02 2.214854e-01
<VARIANCE> 39
 2.884694e+00 3.232266e+00 3.350674e+00 9.045826e+00 6.080481e+00 1.168873e+01 1.061580e+01 1.807689e+01 1.469518e+01 1.464968e+01 1.444018e+01 1.118143e+01 1.084817e+00 2.311210e-01 1.803575e-01 4.076452e-01 1.017118e+00 1.031108e+00 1.153450e+00 1.293114e+00 1.917447e+00 1.631724e+00 2.549659e+00 1.645095e+00 1.482428e+00 1.000386e-01 4.543215e-02 4.960928e-02 8.099757e-02 1.392961e-01 1.739576e-01 2.427054e-01 2.802891e-01 4.820582e-01 4.465203e-01 3.381540e-01 3.542362e-01 1.868304e-01 1.262588e-02
<GCONST> 6.969393e+01
<STATE> 8
<MEAN> 39
 -1.140860e+01 -5.360447e+00 -6.949746e+00 2.209332e+00 1.284800e+00 -1.007565e+01 2.641480e+00 -7.580991e+00 -6.863816e+00 -5.234548e+00 -6.690182e+00 -4.917650e+00 6.129533e+01 9.417440e-01 -7.234474e-01 6.324267e-01 -2.612237e-01 -4.047797e-01 8.720515e-01 -2.826414e-01 -3.048539e-01 -2.782694e-01 6.322409e-02 1.029877e-01 -4.773401e-01 -4.599404e-01 -1.231576e-01 1.430292e-01 1.374858e-02 -1.153720e-01 1.605525e-01 -1.637979e-01 6.749880e-02 4.623129e-01 1.263112e-01 1.320390e-02 1.237155e-01 6.267568e-02 1.253245e-01
<VARIANCE> 39
 2.428095e+00 3.855785e+00 5.319040e+00 5.539804e+00 1.165523e+01 1.491827e+01 1.492220e+01 1.301217e+01 1.821110e+01 1.000594e+01 1.277977e+01 1.418383e+01 1.149419e+00 2.358125e-01 3.867997e-01 4.881372e-01 6.902491e-01 1.165175e+00 1.314522e+00 1.562537e+00 2.572451e+00 1.703021e+00 1.487999e+00 1.581310e+00 8.932917e-01 8.915059e-02 6.060336e-02 5.293221e-02 1.134084e-01 1.900165e-01 2.958211e-01 3.662288e-01 3.638566e-01 3.661298e-01 2.677236e-01 3.197088e-01 3.496003e-01 2.522229e-01 1.883597e-02
<GCONST> 7.278522e+01
<STATE> 9
<MEAN> 39
 -9.178081e+00 -6.648045e+00 -4.459859e+00 1.233521e+00 6.655053e-01 -8.161444e+00 1.882160e+00 -5.907884e+00 -7.191103e+00 -4.290175e+00 -5.335546e+00 -5.882156e+00 6.051326e+01 4.541820e-01 -3.137441e-01 6.505206e-01 -9.190937e-02 -9.719847e-02 3.803124e-01 -1.861505e-01 3.927917e-01 4.966833e-02 3.495546e-01 3.572857e-01 -1.880093e-01 -2.154084e-01 -1.155895e-01 5.875402e-02 -4.783838e-02 6.444287e-02 6.408945e-02 -9.538843e-02 2.076543e-03 7.171418e-02 4.682994e-02 2.599583e-02 1.949523e-02 9.846823e-02 3.622394e-02
<VARIANCE> 39
 2.808371e+00 3.630490e+00 5.717886e+00 6.116429e+00 8.978818e+00 1.265028e+01 1.289510e+01 1.066890e+01 1.073987e+01 1.024851e+01 1.203434e+01 1.136800e+01 1.015027e+00 4.082451e-01 3.089069e-01 5.591087e-01 7.951874e-01 1.396623e+00 1.945516e+00 1.419036e+00 1.108950e+00 1.374648e+00 1.035199e+00 1.357273e+00 1.051206e+00 1.095190e-01 8.286791e-02 6.664339e-02 1.148028e-01 1.684729e-01 2.676108e-01 3.679174e-01 3.026817e-01 2.624766e-01 3.096902e-01 1.781373e-01 3.055456e-01 2.284121e-01 1.953006e-02
<GCONST> 7.042276e+01
<STATE> 10
<MEAN> 39
 -6.662155e+00 -7.282991e+00 -2.403543e+00 1.294490e+00 -1.478701e-01 -7.070223e+00 6.443429e-01 -4.249277e+00 -8.361077e+00 -3.196257e+00 -3.716836e+00 -5.956746e+00 5.840794e+01 6.882831e-02 -3.969846e-02 1.371508e-02 7.578656e-04 -3.424288e-02 5.364332e-02 -5.660699e-02 6.225156e-02 -8.719656e-02 3.934961e-03 -1.771985e-02 -5.467213e-02 -1.242830e-01 -1.944856e-02 1.476124e-02 -2.947949e-02 3.149629e-03 4.011653e-04 -8.403065e-03 -5.255928e-03 -1.507198e-02 -5.741823e-03 -6.192439e-03 -1.572256e-02 5.218159e-03 -8.189796e-03
<VARIANCE> 39
 3.026789e+00 7.975490e+00 5.381991e+00 7.597336e+00 9.153092e+00 1.107974e+01 1.561766e+01 1.302832e+01 1.221194e+01 1.437688e+01 1.646131e+01 1.387205e+01 2.415777e+00 1.757111e-01 3.433144e-01 6.164269e-01 9.117159e-01 9.046825e-01 1.082224e+00 1.511315e+00 1.278158e+00 1.370221e+00 1.424280e+00 1.623969e+00 1.190290e+00 6.113740e-02 3.746163e-02 7.039735e-02 1.353696e-01 1.898558e-01 1.940321e-01 2.216919e-01 2.975603e-01 2.606272e-01 2.793121e-01 2.957506e-01 3.464756e-01 2.438291e-01 1.141110e-02
<GCONST> 7.103332e+01
<STATE> 11
<MEAN> 39
 -6.945635e+00 -6.315687e+00 -3.858541e+00 3.475633e+00 -1.505940e+00 -3.985992e+00 -7.707203e-01 -2.379200e+00 -9.506060e+00 -2.496877e+00 -5.288746e+00 -6.329810e+00 4.912250e+01 -5.135998e-03 3.946070e-02 -3.383241e-02 2.783407e-02 -2.802815e-02 3.165259e-02 -3.245095e-02 3.573770e-02 -3.189379e-04 1.690152e-02 -2.166722e-05 2.420821e-02 -1.334877e-01 -2.110618e-03 -2.448335e-03 1.911309e-04 -2.752874e-03 -6.560468e-03 -4.288265e-03 7.946854e-04 -7.341431e-03 -2.607733e-03 -7.625083e-03 1.854905e-03 -2.986864e-03 5.660259e-03
<VARIANCE> 39
 2.021187e+00 4.633436e+00 5.437248e+00 7.481560e+00 9.892189e+00 1.036695e+01 1.305129e+01 1.340392e+01 1.462072e+01 1.372749e+01 1.350033e+01 1.099210e+01 1.103576e+01 1.666371e-01 2.992299e-01 5.440848e-01 6.912568e-01 1.014832e+00 1.118055e+00 1.378544e+00 1.348707e+00 1.524541e+00 1.493862e+00 1.552050e+00 1.194212e+00 8.965980e-02 3.423743e-02 6.200932e-02 1.147819e-01 1.490448e-01 2.142959e-01 2.415392e-01 2.816162e-01 2.703899e-01 3.248757e-01 3.138747e-01 3.296876e-01 2.439373e-01 1.392570e-02
<GCONST> 7.107919e+01
<TRANSP> 12
 0.000000e+00 1.000000e+00 0.000000e+00 0.000000e+00 0.000000e+00 0.000000e+00 0.000000e+00 0.000000e+00 0.000000e+00 0.000000e+00 0.000000e+00 0.000000e+00
 0.000000e+00 9.604435e-01 3.955649e-02 0.000000e+00 0.000000e+00 0.000000e+00 0.000000e+00 0.000000e+00 0.000000e+00 0.000000e+00 0.000000e+00 0.000000e+00
 0.000000e+00 0.000000e+00 9.125639e-01 8.743604e-02 0.000000e+00 0.000000e+00 0.000000e+00 0.000000e+00 0.000000e+00 0.000000e+00 0.000000e+00 0.000000e+00
 0.000000e+00 0.000000e+00 0.000000e+00 8.566943e-01 1.433057e-01 0.000000e+00 0.000000e+00 0.000000e+00 0.000000e+00 0.000000e+00 0.000000e+00 0.000000e+00
 0.000000e+00 0.000000e+00 0.000000e+00 0.000000e+00 7.976685e-01 2.023315e-01 0.000000e+00 0.000000e+00 0.000000e+00 0.000000e+00 0.000000e+00 0.000000e+00
 0.000000e+00 0.000000e+00 0.000000e+00 0.000000e+00 0.000000e+00 5.750745e-01 4.249255e-01 0.000000e+00 0.000000e+00 0.000000e+00 0.000000e+00 0.000000e+00
 0.000000e+00 0.000000e+00 0.000000e+00 0.000000e+00 0.000000e+00 0.000000e+00 5.920766e-01 4.079235e-01 0.000000e+00 0.000000e+00 0.000000e+00 0.000000e+00
 0.000000e+00 0.000000e+00 0.000000e+00 0.000000e+00 0.000000e+00 0.000000e+00 0.000000e+00 5.616131e-01 4.383868e-01 0.000000e+00 0.000000e+00 0.000000e+00
 0.000000e+00 0.000000e+00 0.000000e+00 0.000000e+00 0.000000e+00 0.000000e+00 0.000000e+00 0.000000e+00 7.756700e-01 2.243301e-01 0.000000e+00 0.000000e+00
 0.000000e+00 0.000000e+00 0.000000e+00 0.000000e+00 0.000000e+00 0.000000e+00 0.000000e+00 0.000000e+00 0.000000e+00 9.574940e-01 4.250610e-02 0.000000e+00
 0.000000e+00 0.000000e+00 0.000000e+00 0.000000e+00 0.000000e+00 0.000000e+00 0.000000e+00 0.000000e+00 0.000000e+00 0.000000e+00 9.859034e-01 1.409655e-02
 0.000000e+00 0.000000e+00 0.000000e+00 0.000000e+00 0.000000e+00 0.000000e+00 0.000000e+00 0.000000e+00 0.000000e+00 0.000000e+00 0.000000e+00 0.000000e+00
<ENDHMM>
~h "TWO"
<BEGINHMM>
<NUMSTATES> 12
<STATE> 2
<MEAN> 39
 -7.076043e+00 -3.938933e+00 -4.353841e+00 -3.261144e+00 -6.633169e+00 -9.923691e+00 -1.864783e+01 -7.275335e+00 -1.324713e+00 -1.183673e+01 -3.371500e+00 -6.457485e+00 7.362046e+01 1.044178e+00 3.950885e-01 -5.026632e-01 -7.034832e-01 -1.396866e+00 8.913502e-01 -1.657774e+00 -8.315248e-01 4.581915e-01 -4.057646e-01 6.557640e-01 -4.603899e-01 1.093257e+00 1.834180e-01 -9.239478e-02 -8.545441e-02 -4.479042e-02 -1.469156e-01 4.117008e-01 3.418670e-01 -4.048079e-02 -1.187508e-01 1.527930e-01 1.192789e-01 -5.269735e-02 -4.217761e-01
<VARIANCE> 39
 4.017260e+01 1.006890e+01 2.572248e+01 2.302579e+01 5.818952e+01 8.068164e+01 6.733590e+01 4.229078e+01 3.675266e+01 2.014257e+01 3.253201e+01 5.594698e+01 1.280837e+01 3.002584e+00 1.398611e+00 2.088826e+00 1.445081e+00 2.708359e+00 8.943247e+00 7.909949e+00 3.029315e+00 2.528613e+00 3.198228e+00 2.605026e+00 6.166145e+00 4.274619e+00 8.783392e-01 2.417427e-01 3.689656e-01 2.529639e-01 6.619202e-01 1.422409e+00 1.100729e+00 6.029019e-01 4.285794e-01 6.401953e-01 5.359733e-01 1.470097e+00 4.149297e-01
<GCONST> 1.255563e+02
<STATE> 3
<MEAN> 39
 -2.122210e-01 -1.967009e+00 -6.495087e+00 -1.083193e+01 -1.591330e+01 2.086980e+00 -1.542747e+01 -1.242111e+01 -3.836773e+00 -1.160425e+01 3.654638e+00 -2.118236e+00 7.223514e+01 1.884761e-01 1.734433e-01 1.934826e-01 -1.077545e-01 -1.174491e-01 -1.355131e-01 7.002901e-01 7.023917e-02 -4.267417e-01 1.951337e-01 3.390044e-02 4.969195e-01 -2.902532e-01 -3.261188e-02 -1.822233e-02 1.846894e-02 1.066464e-01 1.517612e-01 -1.539631e-01 1.901744e-02 4.311394e-02 -3.050998e-02 4.458927e-02 -1.125085e-01 -3.527002e-02 -2.392009e-02
<VARIANCE> 39
 3.390128e+00 8.118780e+00 1.902173e+01 1.597942e+01 1.395314e+01 2.474981e+01 2.907488e+01 1.677987e+01 2.675270e+01 2.405548e+01 2.587540e+01 3.523930e+01 3.169506e+00 1.672892e-01 3.270078e-01 9.861519e-01 1.379845e+00 1.906463e+00 2.663250e+00 1.436031e+00 1.628461e+00 1.545252e+00 1.684605e+00 1.978632e+00 2.038555e+00 7.275403e-02 3.094386e-02 7.043358e-02 1.804106e-01 2.507265e-01 3.481138e-01 3.886804e-01 2.719835e-01 3.000559e-01 2.687456e-01 3.015693e-01 3.088979e-01 4.059940e-01 8.450937e-03
<GCONST> 8.369397e+01
<STATE> 4
<MEAN> 39
 5.858519e-01 -1.153540e+00 -4.580515e+00 -8.195837e+00 -1.087044e+01 -6.162682e+00 -5.256657e+00 -8.696580e+00 -1.131672e+01 -7.151302e+00 -6.836564e-01 3.403023e+00 6.737893e+01 -4.331632e-01 -2.804128e-01 -1.072347e-01 4.440149e-01 1.468233e+00 -9.603623e-01 1.155700e+00 3.466240e-01 -5.398327e-01 6.812149e-01 -9.183581e-01 3.437507e-01 -6.714485e-01 -8.624227e-02 -6.551120e-02 -1.308839e-02 -6.008165e-02 -5.011472e-02 1.359659e-01 -3.533911e-02 -2.931063e-02 1.779378e-01 9.618577e-02 1.626465e-01 -6.207140e-02 -3.571647e-02
<VARIANCE> 39
 2.304114e+00 4.841053e+00 4.314381e+00 6.110043e+00 1.122278e+01 1.256134e+01 1.376390e+01 1.066957e+01 1.346513e+01 1.943301e+01 1.778086e+01 1.392699e+01 1.927141e+00 1.481516e-01 2.424517e-01 3.926498e-01 5.632971e-01 6.370420e-01 9.507365e-01 8.295105e-01 7.742014e-01 1.132392e+00 1.416796e+00 1.118859e+00 1.488485e+00 5.632695e-02 2.213087e-02 4.775636e-02 8.430643e-02 1.100872e-01 1.448966e-01 1.965644e-01 1.822454e-01 1.793193e-01 1.946471e-01 2.903608e-01 2.527494e-01 3.082645e-01 9.041461e-03
<GCONST> 6.271770e+01
<STATE> 5
<MEAN> 39
 -2.312678e+00 -3.440218e+00 -5.133332e+00 -6.228457e+00 -5.515040e+00 -9.241614e+00 -4.071484e-01 -7.386446e+00 -1.168171e+01 -2.856766e+00 -2.991729e+00 3.874615e+00 6.390237e+01 -7.446394e-01 -9.245995e-01 -2.621362e-01 8.023245e-01 7.323374e-01 1.367088e-01 7.117783e-01 6.259240e-01 4.658857e-01 5.989891e-01 -5.170837e-02 -5.741702e-01 -7.841359e-01 -3.180033e-02 -1.240915e-01 2.469905e-04 1.600318e-01 -1.210670e-01 2.565951e-01 -1.698285e-01 1.186467e-01 1.674163e-01 -2.488882e-01 2.231625e-02 -3.786633e-01 -9.768607e-03
<VARIANCE> 39
 2.381293e+00 4.493552e+00 4.054502e+00 8.374032e+00 7.399186e+00 8.856541e+00 1.173766e+01 1.107514e+01 1.569149e+01 1.867243e+01 2.281730e+01 1.837021e+01 1.495380e+00 1.165039e-01 3.909636e-01 3.732684e-01 5.675168e-01 9.541312e-01 9.143243e-01 1.230354e+00 9.944029e-01 1.482621e+00 1.569726e+00 2.595556e+00 1.798806e+00 7.148373e-02 2.599600e-02 6.483376e-02 7.312530e-02 1.208074e-01 2.275536e-01 1.889019e-01 2.057881e-01 1.827011e-01 2.955905e-01 2.347110e-01 5.223242e-01 3.733309e-01 1.376756e-02
<GCONST> 6.778392e+01
<STATE> 6
<MEAN> 39
 -5.250769e+00 -7.374577e+00 -6.210498e+00 -2.466157e+00 -3.424632e+00 -7.002002e+00 1.273894e+00 -4.548262e+00 -9.810686e+00 -3.100160e+00 -3.297753e+00 -9.042551e-01 6.112487e+01 -6.571208e-01 -6.978467e-01 3.299462e-01 1.142019e+00 5.287202e-01 1.590672e-01 -1.349366e-01 6.525228e-01 6.651887e-01 -1.459830e-01 -3.990349e-01 -1.779842e+00 -6.467630e-01 9.252887e-02 1.801438e-01 2.617382e-01 -6.534462e-02 -1.006484e-01 -1.697949e-01 -2.952255e-01 -2.072135e-01 1.497391e-02 4.450530e-02 9.015023e-02 5.437421e-02 8.405733e-02
<VARIANCE> 39
 2.079596e+00 4.694531e+00 4.987113e+00 8.648739e+00 1.233329e+01 1.910498e+01 1.086962e+01 1.274731e+01 1.962452e+01 1.407957e+01 1.709562e+01 1.734150e+01 1.015027e+00 2.360377e-01 4.325688e-01 4.653796e-01 8.050104e-01 1.326616e+00 2.614323e+00 1.877963e+00 1.762164e+00 1.964646e+00 1.400584e+00 1.665887e+00 1.754511e+00 1.336667e-01 4.034202e-02 1.007170e-01 8.404917e-02 1.692926e-01 2.637958e-01 4.888415e-01 3.495226e-01 2.947848e-01 4.369579e-01 2.583899e-01 3.698526e-01 3.119867e-01 1.750001e-02
<GCONST> 7.622557e+01
<STATE> 7
<MEAN> 39
 -6.975801e+00 -8.626195e+00 -3.861552e+00 6.321657e-01 -1.712724e+00 -7.388985e+00 -5.126823e-01 -4.639732e+00 -8.263998e+00 -3.654860e+00 -4.237962e+00 -5.405188e+00 5.966893e+01 -2.707053e-01 -2.468293e-01 2.368046e-01 4.317733e-01 2.647779e-01 1.765147e-01 -9.261463e-03 1.252959e-01 1.827443e-01 -1.058118e-01 -1.301584e-02 -4.762574e-01 -2.362252e-01 5.629042e-02 4.052101e-02 -5.535010e-02 -1.476280e-01 -8.619076e-02 4.846817e-02 1.379474e-01 -4.019985e-02 -1.041101e-01 -6.503230e-02 -5.796352e-02 9.590643e-02 5.395865e-02
<VARIANCE> 39
 1.932194e+00 3.201919e+00 5.060887e+00 9.293434e+00 9.662277e+00 8.216124e+00 1.192084e+01 1.551991e+01 1.702766e+01 1.308615e+01 9.138617e+00 1.117884e+01 1.797115e+00 2.263428e-01 4.865168e-01 7.354344e-01 1.540758e+00 1.250800e+00 1.292104e+00 1.780143e+00 1.633884e+00 1.763707e+00 1.279806e+00 9.417303e-01 1.702814e+00 2.543699e-01 3.913714e-02 8.596130e-02 1.401714e-01 3.102449e-01 2.534536e-01 2.640075e-01 3.683674e-01 3.479525e-01 3.692771e-01 2.424642e-01 1.972370e-01 4.156810e-01 4.481623e-02
<GCONST> 7.534020e+01
<STATE> 8
<MEAN> 39
 -7.351244e+00 -9.780658e+00 -3.716535e+00 8.203694e-01 -1.581488e+00 -6.745182e+00 4.222151e-02 -4.006391e+00 -7.938745e+00 -4.314894e+00 -4.912505e+00 -7.028409e+00 5.840209e+01 -1.573422e-02 -3.369109e-02 4.319323e-03 6.398458e-03 5.810976e-03 -2.844767e-02 -2.377108e-03 -5.174536e-02 7.174271e-04 -1.572633e-02 -8.931773e-02 -8.425868e-02 -7.908852e-02 1.226026e-02 2.461761e-02 -1.304556e-02 -1.012195e-03 2.491826e-03 -5.188411e-03 -1.855965e-02 -1.772510e-02 5.051017e-03 3.391265e-02 2.217492e-02 5.518311e-02 -1.518726e-04
<VARIANCE> 39
 1.433061e+00 2.263672e+00 4.460888e+00 5.918939e+00 8.208745e+00 8.776573e+00 1.148810e+01 1.273485e+01 1.351445e+01 1.231301e+01 1.354577e+01 1.157756e+01 1.015027e+00 1.380624e-01 2.825145e-01 5.765567e-01 7.378959e-01 9.177142e-01 9.087964e-01 1.174162e+00 1.517236e+00 1.615345e+00 1.353697e+00 1.679825e+00 1.509007e+00 5.709537e-02 2.883872e-02 5.986543e-02 1.236331e-01 1.663413e-01 1.884672e-01 1.917348e-01 2.261712e-01 3.202898e-01 3.406295e-01 2.735237e-01 3.738351e-01 3.302172e-01 1.282191e-02
<GCONST> 6.570849e+01
<STATE> 9
<MEAN> 39
 -7.623516e+00 -9.264345e+00 -3.403655e+00 2.078355e+00 -9.907299e-01 -6.543859e+00 -8.160404e-02 -4.120635e+00 -7.578736e+00 -3.376657e+00 -4.933802e+00 -6.460432e+00 5.594829e+01 -6.774092e-02 1.767667e-02 -1.945867e-02 3.889572e-02 3.359809e-02 5.635529e-02 -9.012927e-02 8.629040e-02 -9.615248e-02 -5.387237e-02 6.944383e-02 1.353687e-01 -4.392472e-01 -2.544059e-02 -1.309496e-02 -2.341435e-02 -3.824468e-02 -2.719583e-02 4.140313e-03 -2.536799e-02 2.925453e-02 -5.390959e-02 -6.956052e-02 -2.244701e-02 -2.737886e-02 -2.550013e-02
<VARIANCE> 39
 1.558942e+00 2.457769e+00 4.797488e+00 6.789605e+00 9.651768e+00 8.085139e+00 9.361865e+00 9.623484e+00 9.778869e+00 1.036861e+01 1.200128e+01 9.741969e+00 2.635751e+00 1.484181e-01 2.926692e-01 3.416250e-01 7.194638e-01 1.186349e+00 9.650793e-01 9.782640e-01 1.228218e+00 1.054949e+00 1.337527e+00 1.254575e+00 1.262653e+00 7.864540e-02 2.904065e-02 6.336921e-02 6.484438e-02 1.520592e-01 2.589635e-01 2.064309e-01 2.082895e-01 2.484439e-01 2.075346e-01 2.679824e-01 2.509867e-01 2.820644e-01 1.131607e-02
<GCONST> 6.292624e+01
<STATE> 10
<MEAN> 39
 -8.962593e+00 -8.971439e+00 -4.073212e+00 2.530085e+00 -1.994088e+00 -5.138883e+00 -9.579595e-01 -3.676338e+00 -9.059016e+00 -3.844546e+00 -5.522770e+00 -6.933757e+00 5.059388e+01 -4.691194e-02 1.486830e-02 -7.128263e-02 6.646918e-02 -1.013796e-01 7.114216e-02 -2.748670e-02 2.355349e-02 -1.227798e-02 4.824501e-02 -5.432224e-02 -3.573908e-02 -2.742155e-01 7.692949e-03 -1.478508e-03 4.150637e-03 2.218432e-02 1.586489e-02 4.396783e-03 1.776128e-02 1.465798e-02 2.066018e-03 1.986103e-02 9.023545e-03 6.713864e-03 1.072649e-02
<VARIANCE> 39
 2.142878e+00 2.986722e+00 4.801484e+00 7.237291e+00 8.343916e+00 8.570276e+00 1.213346e+01 1.334429e+01 1.352429e+01 1.522202e+01 1.242262e+01 1.196601e+01 3.139849e+00 1.965080e-01 3.474931e-01 4.009022e-01 8.382707e-01 8.385295e-01 9.653276e-01 1.471976e+00 1.465220e+00 1.385129e+00 1.615510e+00 1.267801e+00 1.341336e+00 9.367187e-02 3.927827e-02 7.506154e-02 7.860684e-02 1.728196e-01 1.624581e-01 1.901243e-01 3.126543e-01 2.983058e-01 2.724227e-01 3.174517e-01 2.571976e-01 2.794342e-01 1.334309e-02
<GCONST> 6.829019e+01
<STATE> 11
<MEAN> 39
 -9.799547e+00 -7.818640e+00 -5.144101e+00 5.223834e+00 -3.416912e+00 -3.159340e+00 -1.732899e+00 -1.628067e+00 -9.273411e+00 -2.662629e+00 -5.382061e+00 -6.683754e+00 4.480062e+01 -1.555266e-02 1.462769e-02 1.656182e-03 3.114244e-02 3.634703e-03 2.961645e-02 -6.820547e-03 1.029111e-02 1.764021e-04 1.181486e-02 7.629890e-03 3.873343e-03 -4.437805e-02 -3.451482e-03 9.070486e-04 2.347039e-03 -6.135495e-03 3.873525e-03 -3.189486e-03 9.062715e-04 -5.354776e-03 8.845694e-03 6.264688e-04 1.806029e-03 4.087938e-04 8.108834e-03
<VARIANCE> 39
 1.925334e+00 2.938322e+00 5.474494e+00 7.324426e+00 9.805381e+00 1.070359e+01 1.355495e+01 1.341496e+01 1.298297e+01 1.240721e+01 1.341537e+01 1.100934e+01 3.994035e+00 1.570625e-01 2.771466e-01 5.388718e-01 8.310714e-01 9.626465e-01 1.166396e+00 1.336075e+00 1.517161e+00 1.398354e+00 1.347146e+00 1.496431e+00 1.209942e+00 6.298073e-02 3.361803e-02 5.702007e-02 1.116259e-01 1.798797e-01 1.982019e-01 2.449421e-01 2.733091e-01 3.234595e-01 2.863427e-01 2.845880e-01 3.103360e-01 2.516211e-01 1.375362e-02
<GCONST> 6.880693e+01
<TRANSP> 12
 0.000000e+00 1.000000e+00 0.000000e+00 0.000000e+00 0.000000e+00 0.000000e+00 0.000000e+00 0.000000e+00 0.000000e+00 0.000000e+00 0.000000e+00 0.000000e+00
 0.000000e+00 9.083110e-01 9.168902e-02 0.000000e+00 0.000000e+00 0.000000e+00 0.000000e+00 0.000000e+00 0.000000e+00 0.000000e+00 0.000000e+00 0.000000e+00
 0.000000e+00 0.000000e+00 9.415920e-01 5.840806e-02 0.000000e+00 0.000000e+00 0.000000e+00 0.000000e+00 0.000000e+00 0.000000e+00 0.000000e+00 0.000000e+00
 0.000000e+00 0.000000e+00 0.000000e+00 8.179618e-01 1.820382e-01 0.000000e+00 0.000000e+00 0.000000e+00 0.000000e+00 0.000000e+00 0.000000e+00 0.000000e+00
 0.000000e+00 0.000000e+00 0.000000e+00 0.000000e+00 7.476292e-01 2.523708e-01 0.000000e+00 0.000000e+00 0.000000e+00 0.000000e+00 0.000000e+00 0.000000e+00
 0.000000e+00 0.000000e+00 0.000000e+00 0.000000e+00 0.000000e+00 6.454392e-01 3.545609e-01 0.000000e+00 0.000000e+00 0.000000e+00 0.000000e+00 0.000000e+00
 0.000000e+00 0.000000e+00 0.000000e+00 0.000000e+00 0.000000e+00 0.000000e+00 8.058028e-01 1.941971e-01 0.000000e+00 0.000000e+00 0.000000e+00 0.000000e+00
 0.000000e+00 0.000000e+00 0.000000e+00 0.000000e+00 0.000000e+00 0.000000e+00 0.000000e+00 9.447114e-01 5.528864e-02 0.000000e+00 0.000000e+00 0.000000e+00
 0.000000e+00 0.000000e+00 0.000000e+00 0.000000e+00 0.000000e+00 0.000000e+00 0.000000e+00 0.000000e+00 8.929120e-01 1.070880e-01 0.000000e+00 0.000000e+00
 0.000000e+00 0.000000e+00 0.000000e+00 0.000000e+00 0.000000e+00 0.000000e+00 0.000000e+00 0.000000e+00 0.000000e+00 9.500450e-01 4.995501e-02 0.000000e+00
 0.000000e+00 0.000000e+00 0.000000e+00 0.000000e+00 0.000000e+00 0.000000e+00 0.000000e+00 0.000000e+00 0.000000e+00 0.000000e+00 9.885710e-01 1.142899e-02
 0.000000e+00 0.000000e+00 0.000000e+00 0.000000e+00 0.000000e+00 0.000000e+00 0.000000e+00 0.000000e+00 0.000000e+00 0.000000e+00 0.000000e+00 0.000000e+00
<ENDHMM>
~h "NINE"
<BEGINHMM>
<NUMSTATES> 12
<STATE> 2
<MEAN> 39
 -1.340288e+00 -1.079122e+01 -9.542054e+00 -1.532181e+00 -4.981137e+00 -1.794079e+00 -6.118356e+00 -3.450660e+00 -7.168787e+00 -1.149285e+01 1.420560e+00 -1.134201e+01 7.367106e+01 -3.529898e-03 -3.870920e-01 -3.033299e-01 3.203878e-02 -5.470307e-01 -9.813879e-02 2.115414e-01 5.693867e-01 5.916982e-01 -1.983035e-01 -1.138948e-01 5.432723e-02 2.826342e-01 -3.008550e-02 4.788357e-02 6.919276e-02 4.833331e-02 -2.116239e-02 -7.579704e-02 7.284257e-02 1.871291e-02 -7.897556e-03 2.913440e-03 -4.703016e-02 1.021677e-01 -7.317075e-02
<VARIANCE> 39
 1.886863e+00 2.043499e+01 4.209430e+01 4.620609e+01 1.948669e+01 6.336686e+01 3.154741e+01 4.175431e+01 4.956696e+01 1.888110e+01 3.558096e+01 1.985773e+01 7.617701e+00 1.467812e-01 5.680884e-01 1.960838e+00 3.401913e+00 1.608939e+00 4.314026e+00 1.908508e+00 3.683327e+00 2.463643e+00 1.439996e+00 2.432895e+00 1.917198e+00 3.443651e-01 3.092992e-02 9.276935e-02 1.926304e-01 3.722166e-01 2.418921e-01 4.151877e-01 3.546987e-01 7.101316e-01 4.900053e-01 2.819871e-01 4.212627e-01 3.314710e-01 3.044675e-02
<GCONST> 9.807217e+01
<STATE> 3
<MEAN> 39
 -3.380640e+00 -1.019744e+01 5.189571e-01 1.111107e+01 -1.529611e+01 -1.907315e+01 -3.721410e+00 5.885318e+00 -7.854312e+00 -1.342308e+01 1.881351e+00 -2.720149e+00 7.194848e+01 -2.604423e-01 6.756808e-01 1.049754e+00 9.397022e-02 6.534261e-02 -3.176700e-01 2.634070e-02 4.187372e-02 -1.057197e+00 1.116010e-01 7.146847e-01 5.401020e-01 -5.973584e-01 -1.255264e-02 -3.062411e-02 -1.001695e-01 -1.944871e-01 2.823094e-01 3.443663e-01 -3.848543e-02 -1.120781e-01 4.164223e-02 6.023559e-02 -1.423267e-01 -2.930268e-01 -3.605898e-02
<VARIANCE> 39
 1.921495e+00 1.495035e+01 1.745778e+01 1.345860e+01 1.702996e+01 3.022260e+01 2.084498e+01 2.302177e+01 2.404111e+01 2.327668e+01 3.113299e+01 1.595095e+01 5.699503e+00 1.270949e-01 4.659514e-01 5.731407e-01 1.752380e+00 1.807581e+00 2.148314e+00 1.183511e+00 1.709233e+00 1.435775e+00 1.419888e+00 1.932855e+00 2.009480e+00 6.496094e-02 2.426827e-02 7.983328e-02 9.126581e-02 2.212278e-01 1.612543e-01 1.639723e-01 2.582173e-01 4.163921e-01 2.761844e-01 2.748589e-01 3.318648e-01 1.957458e-01 1.314360e-02
<GCONST> 8.010538e+01
<STATE> 4
<MEAN> 39
 -5.325847e+00 -5.870290e+00 4.333205e+00 8.752491e+00 -1.002440e+01 -1.424948e+01 -3.447453e+00 5.234496e+00 -1.127182e+01 -1.067422e+01 1.718052e+00 -4.524959e+00 6.767828e+01 -1.009416e-01 4.552985e-01 -1.031874e-03 -4.254258e-01 1.608153e+00 1.127620e+00 1.050590e-01 -1.170211e+00 -1.460343e-01 1.034964e-01 -1.196234e+00 -6.575252e-01 -6.922071e-01 9.160395e-02 1.221540e-01 -2.384815e-01 1.174666e-01 1.946850e-01 1.208144e-01 9.311169e-02 -4.226559e-01 -5.007276e-02 -1.372238e-01 -2.047005e-01 -3.985998e-02 -4.205713e-02
<VARIANCE> 39
 2.063816e+00 9.571928e+00 8.240244e+00 1.008583e+01 1.293763e+01 1.257210e+01 2.155640e+01 1.961258e+01 1.173331e+01 1.238541e+01 1.606237e+01 1.131278e+01 1.983341e+00 2.364080e-01 6.140881e-01 7.118437e-01 8.629875e-01 1.593476e+00 1.472426e+00 1.206639e+00 3.261708e+00 1.228216e+00 9.400069e-01 1.348789e+00 1.337777e+00 2.257772e-01 4.485163e-02 9.262716e-02 1.366055e-01 1.632796e-01 2.332838e-01 1.892571e-01 2.187236e-01 4.849598e-01 2.433571e-01 1.664539e-01 1.748882e-01 2.239447e-01 2.707937e-02
<GCONST> 7.543143e+01
<STATE> 5
<MEAN> 39
 -4.653066e+00 -3.376206e+00 3.022703e+00 7.271361e+00 -1.095023e+00 -8.768203e+00 -2.740102e+00 -3.674735e+00 -1.387341e+01 -1.163107e+01 -4.831824e+00 -8.472036e+00 6.416712e+01 1.103380e-01 6.146537e-01 -7.666657e-01 -1.686682e-01 1.335266e+00 1.007581e+00 6.799400e-01 -1.635168e+00 -3.365887e-01 2.531803e-01 -1.206540e+00 -4.186075e-01 -6.339658e-01 -1.308707e-01 -3.240275e-01 3.389508e-03 -5.134780e-02 -5.592026e-01 -3.558195e-01 5.130161e-02 7.208428e-01 2.318906e-01 2.894491e-01 4.102346e-01 3.208324e-01 1.756333e-01
<VARIANCE> 39
 1.538250e+00 4.201513e+00 3.492622e+00 6.157850e+00 7.950473e+00 7.616674e+00 1.559591e+01 1.633966e+01 1.039779e+01 1.122089e+01 1.117351e+01 1.578354e+01 1.015027e+00 2.130971e-01 4.743510e-01 4.341205e-01 6.772280e-01 1.182277e+00 7.352397e-01 1.485766e+00 3.299784e+00 1.162207e+00 1.053500e+00 1.002239e+00 1.274194e+00 1.190578e-01 2.893001e-02 5.272559e-02 8.867824e-02 1.222157e-01 1.342257e-01 1.279586e-01 2.278531e-01 4.179188e-01 2.337102e-01 1.869358e-01 2.157112e-01 2.424887e-01 1.180097e-02
<GCONST> 6.450829e+01
<STATE> 6
<MEAN> 39
 -5.211627e+00 -3.816339e+00 9.377978e-01 7.227532e+00 -1.127192e-02 -7.631994e+00 -1.133966e-01 -4.450424e+00 -1.326285e+01 -9.468047e+00 -5.764005e+00 -6.562964e+00 6.314864e+01 -2.502089e-01 -3.298074e-01 -4.711606e-01 -2.316966e-01 -3.079573e-02 3.526792e-01 3.109795e-01 9.024929e-02 4.196214e-01 8.336622e-01 2.776445e-01 2.227269e-01 -3.051110e-01 -5.767857e-02 -1.111225e-01 -1.331439e-02 -8.476950e-02 -1.200384e-01 1.532181e-02 -7.253568e-02 1.472229e-01 1.876895e-01 9.753819e-02 1.740858e-01 -8.156577e-02 -1.048143e-02
<VARIANCE> 39
 1.346164e+00 4.632603e+00 3.200320e+00 5.351738e+00 9.194683e+00 8.562727e+00 9.634431e+00 1.121523e+01 1.001965e+01 1.645009e+01 1.092846e+01 1.470810e+01 1.137799e+00 7.735988e-02 2.198125e-01 3.062243e-01 7.153034e-01 6.406853e-01 8.225203e-01 1.015422e+00 1.619631e+00 1.095794e+00 1.906511e+00 1.338502e+00 1.232557e+00 6.765770e-02 1.628838e-02 4.949747e-02 5.710450e-02 1.387426e-01 1.550560e-01 1.537936e-01 2.044379e-01 3.880284e-01 2.090796e-01 4.181707e-01 2.280540e-01 2.710769e-01 1.699376e-02
<GCONST> 6.099215e+01
<STATE> 7
<MEAN> 39
 -6.570891e+00 -5.356819e+00 -1.046005e+00 5.041498e+00 -9.461159e-02 -5.286196e+00 8.093355e-01 -3.763462e+00 -9.856191e+00 -5.233555e+00 -4.158933e+00 -7.239030e+00 6.162244e+01 -3.791830e-01 -4.938675e-01 -6.227821e-01 -8.128262e-01 -1.012561e-02 5.213735e-01 5.449233e-01 2.467597e-01 1.079074e+00 9.480420e-01 2.727871e-01 1.759423e-01 -3.628202e-01 -1.252179e-03 -4.121643e-02 -1.437888e-03 -3.753646e-02 -5.036726e-02 -1.242413e-01 2.749941e-02 -2.280208e-03 1.983269e-02 -7.873794e-02 -3.816781e-02 7.667346e-02 2.009090e-02
<VARIANCE> 39
 1.655936e+00 4.264684e+00 6.883397e+00 7.292373e+00 9.423538e+00 1.176272e+01 9.764741e+00 1.504948e+01 1.380855e+01 1.265129e+01 1.656055e+01 1.476294e+01 1.054262e+00 1.536530e-01 3.716865e-01 7.253884e-01 7.823665e-01 8.649840e-01 9.978777e-01 1.274477e+00 1.134042e+00 1.456698e+00 1.418572e+00 1.253486e+00 1.371243e+00 8.512815e-02 1.694166e-02 6.391603e-02 1.256615e-01 1.261903e-01 1.530291e-01 2.301293e-01 2.824064e-01 2.867011e-01 3.055217e-01 2.966557e-01 3.010471e-01 2.674545e-01 1.143519e-02
<GCONST> 6.733345e+01
<STATE> 8
<MEAN> 39
 -7.832103e+00 -8.468948e+00 -3.445822e+00 1.684261e+00 -1.299307e+00 -6.292865e+00 1.735356e+00 -3.794160e+00 -7.873658e+00 -3.499778e+00 -3.833827e+00 -6.801338e+00 6.032068e+01 -1.600323e-01 -2.803053e-01 -3.209198e-01 -3.290790e-01 -1.004195e-01 -2.550869e-01 -1.109435e-01 -2.238563e-01 8.830056e-03 6.007862e-02 -1.132331e-01 -2.021181e-01 -1.437230e-01 4.354816e-02 5.227220e-02 5.581614e-02 6.963820e-02 6.997294e-04 -6.531447e-02 -1.074951e-01 -1.247747e-01 -1.630903e-01 -1.263717e-01 -6.012329e-02 -2.078625e-02 2.748130e-02
<VARIANCE> 39
 1.435088e+00 5.469050e+00 5.349101e+00 6.678712e+00 9.126755e+00 1.402325e+01 1.351184e+01 1.546530e+01 2.113129e+01 1.202046e+01 1.494921e+01 1.263302e+01 1.015027e+00 1.232800e-01 3.334286e-01 5.839654e-01 7.337018e-01 1.051274e+00 1.315558e+00 1.493480e+00 1.776875e+00 2.043318e+00 1.270291e+00 1.291313e+00 1.196763e+00 6.033639e-02 2.699247e-02 7.025231e-02 1.237564e-01 1.507504e-01 2.091359e-01 2.821148e-01 3.044712e-01 3.209405e-01 4.172619e-01 2.741511e-01 2.641137e-01 2.397179e-01 1.223181e-02
<GCONST> 6.940625e+01
<STATE> 9
<MEAN> 39
 -8.425102e+00 -8.601489e+00 -4.475329e+00 4.791507e-01 -1.195991e+00 -6.325713e+00 -1.576301e-01 -5.492812e+00 -8.091179e+00 -4.168430e+00 -5.491163e+00 -7.315442e+00 5.935485e+01 -2.308671e-02 2.418631e-02 -2.472125e-03 8.412223e-03 2.470647e-02 2.503315e-02 -1.111262e-01 -3.731535e-02 1.800357e-02 -7.550953e-02 -1.083089e-01 1.649910e-02 -1.156851e-01 -7.047961e-04 1.243764e-02 1.006431e-02 2.450337e-02 4.341978e-03 1.504448e-02 2.529945e-02 5.330642e-02 2.427350e-02 7.727520e-03 7.164566e-03 8.969670e-03 -1.540431e-02
<VARIANCE> 39
 2.451169e+00 3.395168e+00 5.378560e+00 7.798142e+00 8.962090e+00 1.035532e+01 1.306303e+01 1.226082e+01 1.499694e+01 1.538944e+01 1.308262e+01 1.275707e+01 1.787363e+00 1.608351e-01 2.725669e-01 4.696394e-01 7.155076e-01 7.912031e-01 9.881786e-01 1.229243e+00 1.313250e+00 1.541396e+00 1.550435e+00 1.249761e+00 1.263125e+00 7.166786e-02 3.158931e-02 5.472329e-02 1.019804e-01 1.516363e-01 1.489929e-01 1.942106e-01 2.605763e-01 2.647138e-01 3.161251e-01 3.312090e-01 2.429924e-01 2.475686e-01 1.103067e-02
<GCONST> 6.666508e+01
<STATE> 10
<MEAN> 39
