~o
<STREAMINFO> 1 39
<VECSIZE> 39<NULLD><MFCC_D_A_0><DIAGC>
~v "varFloor1"
<VARIANCE> 39
 4.212869e-01 2.792749e-01 5.652618e-01 3.201803e-01 5.349968e-01 2.984013e-01 3.884946e-01 3.061316e-01 2.457366e-01 2.251308e-01 2.008276e-01 2.060557e-01 4.219971e-01 1.010767e-02 1.121628e-02 1.395409e-02 1.439542e-02 1.810081e-02 1.614172e-02 1.911339e-02 1.873454e-02 1.709788e-02 1.609177e-02 1.512661e-02 1.310961e-02 6.930705e-03 1.225248e-03 1.686406e-03 1.897202e-03 2.236560e-03 2.848979e-03 2.748586e-03 3.343082e-03 3.388935e-03 3.203923e-03 3.006778e-03 2.851899e-03 2.447462e-03 8.023740e-04
~h "ZERO"
<BEGINHMM>
<NUMSTATES> 12
<STATE> 2
<MEAN> 39
 -4.217627e+00 2.067594e+00 1.935278e+01 -4.469668e+00 -1.126604e+01 -1.017608e+01 -8.902899e+00 2.405316e+00 -1.929143e+00 -4.586390e+00 2.155382e+00 -3.780313e+00 7.658772e+01 5.547261e-01 -7.051921e-01 3.531072e-01 3.051246e-01 -1.071826e+00 -4.760614e-01 -1.010575e-01 -3.159701e-01 -3.465265e-01 -3.778775e-01 3.058343e-01 4.158205e-02 3.909918e-01 5.850647e-02 -9.847513e-02 -1.067187e-01 1.600596e-03 6.849860e-02 7.166336e-02 6.724046e-02 -4.159095e-02 3.266340e-02 1.028288e-02 2.148397e-02 -1.948705e-02 -1.048007e-01
<VARIANCE> 39
 3.207563e+01 5.209515e+01 1.562776e+01 1.562696e+01 7.917583e+01 2.394410e+01 2.152631e+01 2.047515e+01 1.881236e+01 1.966472e+01 1.407263e+01 8.707391e+00 9.767638e+00 1.725080e+00 2.438879e+00 1.096561e+00 1.207097e+00 2.953238e+00 1.784522e+00 1.448899e+00 1.323892e+00 1.125136e+00 1.290550e+00 9.235260e-01 8.175814e-01 3.985363e-01 2.405350e-01 3.498661e-01 2.278320e-01 2.289960e-01 4.907383e-01 3.598179e-01 2.872825e-01 2.483793e-01 2.068214e-01 2.418465e-01 1.883354e-01 1.450254e-01 4.805367e-02
<GCONST> 9.500226e+01
<STATE> 3
<MEAN> 39
 3.172264e+00 -4.815621e+00 1.969786e+01 -2.322825e+00 -1.757696e+01 -1.186160e+01 -1.052542e+01 -2.745391e+00 -3.032469e+00 -6.868854e+00 4.820911e+00 -4.548640e+00 7.688666e+01 1.742341e-01 1.312602e-02 -5.564948e-01 -3.708492e-02 4.897838e-01 9.093493e-01 -8.372337e-03 -1.130755e+00 9.594785e-01 5.171183e-01 -6.077689e-01 -9.725158e-02 -4.603128e-01 -1.101327e-01 4.905381e-02 -9.031887e-02 1.030790e-01 6.899391e-02 1.789770e-01 2.678234e-01 -1.835670e-01 1.651715e-01 1.794462e-01 -1.959686e-01 6.191140e-02 -9.218699e-02
<VARIANCE> 39
 3.563831e+00 1.149448e+01 1.351451e+01 2.310640e+01 1.419825e+01 2.595052e+01 3.029785e+01 3.201842e+01 2.421152e+01 1.034604e+01 1.635279e+01 1.287853e+01 9.345100e+00 4.516516e-01 8.262901e-01 1.140359e+00 1.617620e+00 1.467392e+00 3.001601e+00 2.936024e+00 2.082603e+00 2.089534e+00 8.333642e-01 1.883693e+00 1.129002e+00 2.468249e-01 1.005013e-01 1.948265e-01 2.353503e-01 4.251866e-01 3.443765e-01 5.475572e-01 5.974858e-01 3.837363e-01 3.726645e-01 1.374959e-01 3.470781e-01 2.509358e-01 2.886565e-02
<GCONST> 9.152545e+01
<STATE> 4
<MEAN> 39
 2.868933e+00 -4.930148e+00 1.516289e+01 -1.812317e-01 -1.421318e+01 -6.778334e+00 -6.640906e+00 -9.668919e+00 2.095061e+00 -2.091786e+00 5.245225e-01 -4.248255e+00 7.373229e+01 1.038832e-01 2.815697e-01 -1.520041e+00 -1.227358e-02 6.995416e-01 6.277159e-01 1.276698e+00 -9.077291e-01 3.817879e-01 9.883139e-01 -1.277042e-01 5.039134e-01 -4.826009e-01 1.594601e-01 2.171284e-01 -1.473110e-01 -4.345437e-01 -9.945396e-02 -2.333583e-02 8.243336e-02 2.955064e-01 -2.982157e-01 -1.584955e-01 3.881853e-01 1.479174e-01 8.171290e-02
<VARIANCE> 39
 4.808621e+00 1.151566e+01 1.924319e+01 2.525294e+01 1.725633e+01 2.046743e+01 3.486017e+01 2.922974e+01 2.346607e+01 1.759925e+01 1.952507e+01 1.002180e+01 5.364435e+00 9.217659e-01 2.000354e+00 1.045983e+00 5.913002e+00 1.609963e+00 3.100720e+00 3.381552e+00 2.102540e+00 2.818210e+00 1.462667e+00 3.226429e+00 1.291846e+00 3.277218e-01 1.753210e-01 3.916408e-01 2.246017e-01 1.137380e+00 3.780777e-01 8.173223e-01 7.601405e-01 3.260904e-01 4.861265e-01 3.124163e-01 4.835756e-01 2.375501e-01 5.836020e-02
<GCONST> 1.018800e+02
<STATE> 5
<MEAN> 39
 4.997316e+00 -2.455964e+00 9.032688e+00 -4.344174e+00 -1.285310e+01 -3.187373e+00 -2.037583e+00 -1.196300e+01 1.645466e+00 -3.318596e-02 2.786988e+00 -1.309845e+00 7.294585e+01 6.728260e-01 1.377658e+00 -1.494794e+00 -1.944042e+00 3.936177e-02 1.374467e+00 1.648650e+00 3.072957e-01 -2.385984e-01 -2.206982e-01 9.259842e-01 1.021769e+00 -3.447511e-01 -1.720997e-01 7.805387e-02 2.665795e-01 1.723459e-01 5.432329e-02 -2.104989e-02 1.846522e-01 4.619933e-01 8.671644e-02 -2.675187e-01 -2.313949e-01 -2.725692e-02 -1.003751e-01
<VARIANCE> 39
 5.085699e+00 1.347586e+01 1.243762e+01 3.201142e+01 1.228750e+01 2.319389e+01 1.947412e+01 1.818181e+01 1.552614e+01 9.479273e+00 1.476513e+01 1.051824e+01 3.317294e+00 5.472125e-01 1.017472e+00 7.308477e-01 3.410028e+00 1.645609e+00 2.507854e+00 2.481416e+00 1.532463e+00 1.914910e+00 1.828867e+00 1.867136e+00 9.468442e-01 1.778056e-01 1.955820e-01 2.617680e-01 1.161407e-01 1.112771e+00 4.509344e-01 6.102428e-01 5.720473e-01 2.517941e-01 3.768328e-01 2.708207e-01 5.251181e-01 2.096877e-01 5.513864e-02
<GCONST> 9.219381e+01
<STATE> 6
<MEAN> 39
 6.243937e+00 1.332816e+00 5.832613e+00 -8.929888e+00 -1.298830e+01 -1.328208e-01 3.492117e+00 -9.184570e+00 1.298376e+00 -2.173704e+00 3.674466e+00 1.250883e+00 7.177203e+01 -2.984822e-01 1.179754e+00 -4.551714e-01 -2.132129e-01 7.538038e-01 3.718336e-01 1.919500e+00 1.628309e+00 1.645881e-01 -2.791795e-01 -3.034972e-01 5.592223e-01 -7.896048e-01 -4.060547e-01 -3.021842e-01 3.517467e-01 8.219523e-01 5.163133e-01 -3.146257e-01 -2.701367e-01 2.271782e-01 1.385905e-01 2.103344e-01 -2.050516e-01 -2.392401e-01 -1.284384e-01
<VARIANCE> 39
 2.587006e+00 7.920018e+00 4.096884e+00 1.501849e+01 1.415112e+01 1.633933e+01 1.808974e+01 1.756145e+01 1.766207e+01 1.545985e+01 1.322097e+01 7.836859e+00 3.615632e+00 3.764941e-01 3.564353e-01 6.646322e-01 1.979590e+00 2.134251e+00 1.351452e+00 1.320409e+00 1.248972e+00 1.069908e+00 1.199347e+00 1.736657e+00 7.845053e-01 1.139161e-01 3.606831e-02 9.555689e-02 9.414357e-02 2.342491e-01 2.584813e-01 3.490703e-01 3.147998e-01 2.867988e-01 2.620703e-01 3.109267e-01 4.154365e-01 1.586921e-01 1.469311e-02
<GCONST> 7.602658e+01
<STATE> 7
<MEAN> 39
 4.803976e+00 3.067934e+00 5.663662e+00 -8.067146e+00 -1.073196e+01 -3.695538e-01 6.507240e+00 -5.287285e+00 2.184225e+00 -1.512077e+00 2.481517e+00 1.569356e+00 6.992459e+01 -9.290164e-01 4.158795e-01 2.540085e-02 1.047034e+00 1.952771e+00 2.556454e-01 7.286824e-01 1.438448e+00 3.704516e-01 4.505390e-01 1.105597e-01 -1.326231e-02 -9.230015e-01 -1.704820e-01 -3.213634e-01 9.241253e-02 3.969938e-01 4.185618e-01 8.478685e-02 -3.448661e-01 -1.659190e-01 -3.911364e-02 3.250883e-02 1.517840e-01 -1.890989e-01 -7.389486e-03
<VARIANCE> 39
 4.055441e+00 4.567846e+00 4.429705e+00 2.480949e+01 3.461619e+01 1.304411e+01 1.291703e+01 1.293655e+01 1.401503e+01 1.844753e+01 1.701168e+01 8.057202e+00 3.990126e+00 1.789264e-01 5.217886e-01 2.910328e-01 1.458644e+00 2.334599e+00 1.061872e+00 1.293210e+00 9.138263e-01 1.093532e+00 1.239915e+00 1.181732e+00 9.143402e-01 1.198147e-01 3.253400e-02 4.642970e-02 8.204619e-02 2.867169e-01 3.536862e-01 1.858411e-01 2.038949e-01 2.082990e-01 1.857437e-01 3.014184e-01 2.666618e-01 1.578820e-01 1.905130e-02
<GCONST> 7.235626e+01
<STATE> 8
<MEAN> 39
 2.232945e+00 3.366724e+00 5.780585e+00 -4.508060e+00 -4.627290e+00 5.326827e-01 6.913443e+00 -2.595888e+00 2.740761e+00 -5.835618e-01 3.865443e+00 1.128357e+00 6.767947e+01 -1.051780e+00 -2.228579e-01 -1.021081e-02 1.526057e+00 2.535511e+00 7.190876e-01 4.337268e-01 9.079010e-01 2.614608e-02 -6.289215e-02 3.627130e-01 -2.226943e-01 -8.105969e-01 4.964305e-02 -2.019500e-01 -7.171167e-02 -9.463197e-02 -1.985354e-01 -4.193157e-02 -1.590102e-01 -2.512173e-01 -7.166026e-02 -1.689862e-01 -7.577133e-02 -3.259037e-02 1.202105e-01
<VARIANCE> 39
 3.955210e+00 4.621481e+00 5.105531e+00 2.360691e+01 3.572688e+01 1.191702e+01 1.671351e+01 1.229671e+01 1.449327e+01 9.555826e+00 1.136061e+01 9.065176e+00 2.620112e+00 1.137213e-01 3.589172e-01 3.630902e-01 1.454391e+00 1.598167e+00 1.280540e+00 9.446487e-01 9.818279e-01 9.637694e-01 1.728571e+00 8.841219e-01 8.944425e-01 1.001742e-01 3.421694e-02 8.291085e-02 9.077192e-02 3.152607e-01 4.574016e-01 1.978228e-01 1.700651e-01 1.503868e-01 1.669480e-01 3.409253e-01 1.532889e-01 1.662485e-01 2.169800e-02
<GCONST> 7.020748e+01
<STATE> 9
<MEAN> 39
 -8.635111e-01 1.609821e+00 4.708741e+00 -1.397220e+00 8.175387e-01 2.262584e+00 7.753733e+00 -7.137921e-01 3.668137e+00 -9.279588e-01 4.146652e+00 4.824093e-01 6.570107e+01 -7.059317e-01 -5.724205e-01 -4.311543e-01 5.580684e-01 1.054748e+00 2.189785e-01 6.025499e-02 1.998818e-01 -3.167991e-02 -1.961031e-01 -9.019106e-02 -9.903609e-02 -3.763573e-01 9.242915e-02 -8.573729e-02 -1.435550e-01 -3.226303e-01 -4.715641e-01 -2.116507e-01 -1.713874e-01 -1.813963e-01 4.779877e-02 5.109995e-02 -1.409825e-01 7.462278e-03 1.110309e-01
<VARIANCE> 39
 5.738875e+00 1.116594e+01 1.059317e+01 8.780113e+00 1.660670e+01 8.961683e+00 1.308835e+01 1.506414e+01 2.025745e+01 1.301547e+01 1.068147e+01 9.407479e+00 2.001208e+00 1.470638e-01 5.085370e-01 7.339156e-01 1.301996e+00 2.062685e+00 1.325391e+00 1.382523e+00 1.432747e+00 1.213457e+00 1.683642e+00 1.335274e+00 1.011624e+00 1.810310e-01 2.544207e-02 7.494202e-02 1.001537e-01 1.887050e-01 2.798677e-01 1.873658e-01 2.844747e-01 2.269784e-01 2.739568e-01 3.047732e-01 2.575581e-01 1.822052e-01 2.600436e-02
<GCONST> 7.478123e+01
<STATE> 10
<MEAN> 39
 -1.582374e+00 -3.899353e-01 3.502110e+00 -2.889067e+00 -6.201702e-01 5.420789e-01 4.717806e+00 -3.796666e+00 2.731149e+00 -9.221225e-01 2.453439e+00 -1.048112e+00 6.618896e+01 -4.553422e-01 -4.924908e-01 -3.995818e-01 -2.743264e-02 1.722932e-01 -1.251209e-01 -1.996785e-01 -3.939127e-02 1.625207e-01 9.264110e-02 -2.495076e-01 -1.450985e-01 -1.796720e-01 2.312359e-02 2.826106e-02 1.981741e-02 -1.098072e-01 -1.979851e-01 -8.714727e-02 -1.555447e-02 -1.915710e-02 5.244343e-02 5.709851e-02 -1.347817e-02 3.389351e-03 1.075511e-02
<VARIANCE> 39
 3.791749e+00 1.123301e+01 9.099428e+00 2.103522e+01 2.145941e+01 1.264856e+01 2.173979e+01 2.943267e+01 1.450951e+01 1.609970e+01 1.609390e+01 1.568156e+01 3.371823e+00 2.054337e-01 3.776743e-01 6.428540e-01 6.290570e-01 1.037896e+00 1.260053e+00 1.388039e+00 1.566248e+00 1.498324e+00 1.688920e+00 1.016680e+00 9.675999e-01 1.094895e-01 2.312518e-02 6.876901e-02 1.379147e-01 1.187896e-01 2.155852e-01 2.608102e-01 2.314569e-01 2.796074e-01 2.343483e-01 3.433577e-01 1.914639e-01 1.798060e-01 1.305043e-02
<GCONST> 7.483230e+01
<STATE> 11
<MEAN> 39
 -7.157971e+00 -2.181932e+00 1.079971e+00 -2.190414e+00 9.977769e-01 -1.875746e+00 4.893156e+00 -1.188654e+00 3.752559e+00 6.628541e-01 3.995597e+00 -4.408136e-01 6.196215e+01 -1.241695e-01 -5.178360e-02 -6.676376e-02 -3.712979e-02 -2.374372e-02 -8.642054e-02 -4.965691e-02 6.193735e-03 1.089595e-03 1.497665e-02 2.397323e-02 -5.538262e-03 -8.376326e-02 1.278451e-02 8.819439e-03 7.377251e-03 7.268775e-04 -8.521735e-03 7.239071e-03 2.317443e-03 5.888882e-04 -3.716358e-03 -1.053396e-04 3.436330e-03 2.700455e-03 7.675198e-03
<VARIANCE> 39
 3.900987e+00 7.336243e+00 5.743471e+00 9.458699e+00 1.055733e+01 1.151052e+01 1.179078e+01 1.710737e+01 1.832255e+01 1.288955e+01 1.229631e+01 1.110426e+01 2.038979e+00 1.272909e-01 2.294306e-01 4.107208e-01 6.544977e-01 8.586935e-01 1.129535e+00 1.247358e+00 1.311582e+00 1.335760e+00 1.413342e+00 1.182228e+00 1.133306e+00 4.293153e-02 1.919086e-02 4.237568e-02 8.228782e-02 1.360289e-01 1.692842e-01 2.269854e-01 2.577621e-01 2.647664e-01 2.680849e-01 2.902883e-01 2.397474e-01 2.319851e-01 5.657440e-03
<GCONST> 6.545323e+01
<TRANSP> 12
 0.000000e+00 1.000000e+00 0.000000e+00 0.000000e+00 0.000000e+00 0.000000e+00 0.000000e+00 0.000000e+00 0.000000e+00 0.000000e+00 0.000000e+00 0.000000e+00
 0.000000e+00 9.378975e-01 6.210252e-02 0.000000e+00 0.000000e+00 0.000000e+00 0.000000e+00 0.000000e+00 0.000000e+00 0.000000e+00 0.000000e+00 0.000000e+00
 0.000000e+00 0.000000e+00 8.149795e-01 1.850205e-01 0.000000e+00 0.000000e+00 0.000000e+00 0.000000e+00 0.000000e+00 0.000000e+00 0.000000e+00 0.000000e+00
 0.000000e+00 0.000000e+00 0.000000e+00 8.004364e-01 1.995636e-01 0.000000e+00 0.000000e+00 0.000000e+00 0.000000e+00 0.000000e+00 0.000000e+00 0.000000e+00
 0.000000e+00 0.000000e+00 0.000000e+00 0.000000e+00 6.239501e-01 3.760500e-01 0.000000e+00 0.000000e+00 0.000000e+00 0.000000e+00 0.000000e+00 0.000000e+00
 0.000000e+00 0.000000e+00 0.000000e+00 0.000000e+00 0.000000e+00 5.214569e-01 4.785430e-01 0.000000e+00 0.000000e+00 0.000000e+00 0.000000e+00 0.000000e+00
 0.000000e+00 0.000000e+00 0.000000e+00 0.000000e+00 0.000000e+00 0.000000e+00 5.690022e-01 4.309978e-01 0.000000e+00 0.000000e+00 0.000000e+00 0.000000e+00
 0.000000e+00 0.000000e+00 0.000000e+00 0.000000e+00 0.000000e+00 0.000000e+00 0.000000e+00 4.980312e-01 5.019689e-01 0.000000e+00 0.000000e+00 0.000000e+00
 0.000000e+00 0.000000e+00 0.000000e+00 0.000000e+00 0.000000e+00 0.000000e+00 0.000000e+00 0.000000e+00 5.808910e-01 4.191091e-01 0.000000e+00 0.000000e+00
 0.000000e+00 0.000000e+00 0.000000e+00 0.000000e+00 0.000000e+00 0.000000e+00 0.000000e+00 0.000000e+00 0.000000e+00 7.419666e-01 2.580333e-01 0.000000e+00
 0.000000e+00 0.000000e+00 0.000000e+00 0.000000e+00 0.000000e+00 0.000000e+00 0.000000e+00 0.000000e+00 0.000000e+00 0.000000e+00 9.758942e-01 2.410583e-02
 0.000000e+00 0.000000e+00 0.000000e+00 0.000000e+00 0.000000e+00 0.000000e+00 0.000000e+00 0.000000e+00 0.000000e+00 0.000000e+00 0.000000e+00 0.000000e+00
<ENDHMM>
~h "SEVEN"
<BEGINHMM>
<NUMSTATES> 12
<STATE> 2
<MEAN> 39
 -8.789134e+00 -3.858977e+00 5.465060e+00 -4.806326e+00 -3.001338e+00 -9.866098e+00 -3.870426e+00 -2.637061e+00 4.199594e+00 3.502227e+00 -2.878551e+00 -4.204919e+00 7.199366e+01 3.854132e+00 -1.871620e+00 1.861106e+00 -5.711620e-01 -1.847451e+00 -1.533397e-01 -2.679975e+00 -1.357096e-01 6.180456e-01 9.767906e-02 -5.379066e-01 -2.548972e+00 1.521302e+00 1.574115e-01 -1.647607e-01 4.963648e-02 -1.946647e-01 -2.807369e-01 7.572471e-02 -2.660297e-01 2.609676e-01 5.989935e-02 8.650079e-02 1.174585e-01 -9.702377e-03 2.996362e-01
<VARIANCE> 39
 1.008343e+02 2.675294e+01 2.540765e+01 2.078736e+01 3.201784e+01 1.464454e+01 6.841714e+01 2.006773e+01 1.140795e+01 1.645829e+01 1.449654e+01 5.288878e+01 2.244776e+01 4.607295e+00 1.353182e+00 1.169176e+00 3.055023e+00 3.369654e+00 1.357757e+00 5.271368e+00 2.935148e+00 1.122987e+00 1.752959e+00 1.388500e+00 2.981714e+00 2.237158e+00 1.694560e+00 2.595425e-01 4.208193e-01 5.760471e-01 7.039496e-01 2.616739e-01 1.480609e+00 6.131569e-01 2.106821e-01 3.380918e-01 2.916841e-01 1.063130e+00 4.337778e-01
<GCONST> 1.158015e+02
<STATE> 3
<MEAN> 39
 4.757774e+00 -1.235237e+01 1.199191e+01 -9.744793e+00 -1.269818e+01 -9.548599e+00 -1.487010e+01 -9.705007e-03 7.881411e+00 5.483361e+00 -3.612172e+00 -1.235462e+01 8.021294e+01 8.568314e-01 -1.324769e+00 2.623091e-01 -5.419785e-01 -9.783257e-01 4.515474e-01 -3.213392e-01 1.452291e+00 6.620489e-01 6.927686e-01 6.749402e-01 -1.512894e-02 7.916434e-01 -8.237053e-01 6.102734e-01 -5.732914e-01 6.767361e-01 9.430196e-01 8.125826e-02 9.531990e-01 -1.414031e-01 -2.500822e-01 -3.368829e-01 2.357615e-01 7.032065e-01 -8.156832e-01
<VARIANCE> 39
 3.126810e+00 7.587307e+00 1.177931e+01 1.593195e+01 7.388542e+00 8.437969e+00 1.016807e+01 1.184770e+01 1.128583e+01 1.775768e+01 1.059140e+01 4.822788e+00 4.372856e+00 1.324968e+00 1.363129e+00 1.138664e+00 2.042656e+00 2.086376e+00 7.900486e-01 2.422951e+00 1.744660e+00 1.185080e+00 1.105551e+00 6.838050e-01 1.072395e+00 1.122226e+00 4.542477e-01 1.810308e-01 2.274345e-01 3.832139e-01 2.483921e-01 1.258190e-01 5.063982e-01 4.326389e-01 2.090618e-01 2.779844e-01 1.246017e-01 1.968605e-01 5.637830e-02
<GCONST> 8.381236e+01
<STATE> 4
<MEAN> 39
 5.605454e+00 -1.290815e+01 1.056420e+01 -7.830093e+00 -1.103365e+01 -8.702926e+00 -1.377208e+01 1.168468e+00 8.323599e+00 5.462966e+00 -1.339873e+00 -1.083536e+01 7.910349e+01 2.409799e-01 2.540198e-01 -4.502017e-01 9.407602e-01 5.743318e-01 2.927078e-01 4.281661e-01 1.984230e-01 1.657503e-01 -3.604449e-01 9.145060e-01 7.489281e-01 -6.041352e-01 -2.725782e-01 5.704560e-01 -1.923861e-01 3.753720e-01 3.858978e-01 -3.839936e-02 2.697979e-01 -4.188280e-01 -1.155937e-01 -2.552787e-01 -2.028624e-02 2.146341e-01 -4.267970e-01
<VARIANCE> 39
 5.322274e+00 8.702446e+00 1.274592e+01 1.324718e+01 1.633846e+01 9.372169e+00 1.245118e+01 9.774518e+00 1.090445e+01 9.278975e+00 1.155394e+01 8.254543e+00 7.543125e+00 7.706236e-01 1.351627e+00 1.059116e+00 1.063675e+00 7.831032e-01 5.125500e-01 9.453917e-01 1.289149e+00 7.146094e-01 1.215900e+00 8.002044e-01 6.026571e-01 6.027850e-01 1.891459e-01 1.902991e-01 2.139437e-01 2.407211e-01 2.500790e-01 1.131208e-01 3.145556e-01 2.444268e-01 1.535990e-01 2.314770e-01 1.736155e-01 1.412523e-01 1.069518e-01
<GCONST> 7.803735e+01
<STATE> 5
<MEAN> 39
 4.854522e+00 -9.675544e+00 9.413520e+00 -3.744063e+00 -9.201719e+00 -7.760670e+00 -1.103842e+01 3.827784e-01 8.309274e+00 3.863616e+00 5.575581e-01 -7.691766e+00 7.588616e+01 -2.446128e-01 1.035067e+00 -4.137030e-01 8.799014e-01 5.893424e-01 1.396213e-01 7.348296e-01 -2.014351e-01 4.717365e-02 -3.472000e-01 2.517695e-01 7.796738e-01 -9.268086e-01 -1.171781e-01 1.788415e-01 3.658476e-02 -3.554861e-02 -1.896089e-02 -8.330972e-02 9.488314e-02 -2.124768e-02 -6.050585e-02 5.883887e-02 -1.985440e-01 -5.386869e-02 -6.754820e-02
<VARIANCE> 39
 1.272826e+01 1.745222e+01 7.393644e+00 1.960219e+01 1.293956e+01 1.094356e+01 2.176978e+01 1.295308e+01 1.267595e+01 8.232311e+00 1.086010e+01 1.349068e+01 1.269914e+01 1.428017e+00 1.499261e+00 9.081511e-01 1.621415e+00 7.371604e-01 9.141921e-01 2.056715e+00 1.631087e+00 8.781254e-01 1.100511e+00 1.303596e+00 8.740724e-01 8.522378e-01 2.828656e-01 3.086239e-01 1.569194e-01 2.414595e-01 1.487848e-01 1.753523e-01 3.642637e-01 3.662573e-01 1.763506e-01 2.458464e-01 2.166793e-01 1.569861e-01 1.579980e-01
<GCONST> 8.699199e+01
<STATE> 6
<MEAN> 39
 4.037161e+00 -5.793395e+00 9.116011e+00 -1.441759e+00 -8.585172e+00 -8.460539e+00 -7.687761e+00 9.690957e-01 7.504096e+00 2.943084e+00 3.885579e-02 -5.675363e+00 7.303609e+01 -1.256962e-01 6.483955e-01 1.347733e-01 8.105807e-02 1.838424e-01 -5.992939e-02 6.855858e-01 3.722139e-01 -4.784582e-02 -2.568928e-01 -2.123253e-01 2.216059e-01 -4.809085e-01 5.053419e-02 -8.459522e-02 8.029894e-02 -1.584454e-01 -4.229866e-02 2.953339e-03 -1.235411e-02 6.949088e-02 5.051412e-03 -5.011126e-02 -6.580248e-02 -1.191055e-01 8.721274e-02
<VARIANCE> 39
 6.848104e+00 9.387931e+00 6.790942e+00 1.165203e+01 8.705194e+00 1.057557e+01 1.697314e+01 1.382201e+01 1.215497e+01 8.869402e+00 1.019465e+01 9.949227e+00 5.187593e+00 1.162939e+00 1.503548e+00 6.786820e-01 1.804863e+00 8.553770e-01 9.510036e-01 1.584581e+00 1.229785e+00 1.219528e+00 8.175433e-01 1.198437e+00 8.918622e-01 7.810289e-01 2.377811e-01 2.737712e-01 1.393260e-01 2.770507e-01 1.767234e-01 2.030540e-01 3.745260e-01 2.796527e-01 2.555567e-01 1.696828e-01 2.420601e-01 1.261166e-01 1.356812e-01
<GCONST> 8.198199e+01
<STATE> 7
<MEAN> 39
 4.477336e+00 -3.932462e+00 9.815732e+00 -2.828872e+00 -7.826039e+00 -8.316414e+00 -5.650194e+00 2.021190e+00 7.584052e+00 1.600309e+00 -3.509711e-01 -5.966035e+00 7.193040e+01 8.208318e-02 4.869363e-01 1.186207e-01 -1.081200e-01 1.400460e-01 -8.244060e-02 7.386873e-01 3.891554e-01 -1.451330e-01 -4.620988e-01 -2.575724e-01 -1.855399e-01 -3.229129e-01 1.186695e-02 2.891312e-02 -6.310177e-02 7.970929e-02 6.179159e-02 5.540468e-03 8.587578e-03 -5.686025e-02 -6.561340e-02 -2.577699e-02 -1.878178e-02 -7.272259e-02 -2.560173e-02
<VARIANCE> 39
 3.081495e+00 5.363439e+00 5.802400e+00 8.258365e+00 8.625624e+00 1.019621e+01 1.605271e+01 1.423956e+01 1.286224e+01 1.190473e+01 1.475821e+01 8.098232e+00 2.422567e+00 4.635299e-01 8.514822e-01 5.398803e-01 8.547559e-01 9.476294e-01 7.349675e-01 1.088209e+00 9.924611e-01 1.052359e+00 7.798841e-01 1.368774e+00 8.290818e-01 3.913194e-01 1.088793e-01 1.589077e-01 1.104696e-01 1.947435e-01 1.685397e-01 1.643392e-01 2.525087e-01 2.529884e-01 2.332010e-01 1.465553e-01 3.090684e-01 1.491917e-01 7.772893e-02
<GCONST> 7.272216e+01
<STATE> 8
<MEAN> 39
 4.862154e+00 -1.543017e+00 9.991804e+00 -3.308206e+00 -6.949050e+00 -8.659658e+00 -3.117665e+00 3.882219e+00 7.035859e+00 -8.512455e-01 -1.968620e+00 -7.239298e+00 7.039452e+01 -1.299574e-01 9.993178e-01 -1.824078e-01 4.984882e-01 6.301649e-01 -6.324714e-02 5.784994e-01 -7.939437e-02 -3.340494e-01 -3.721035e-01 -3.850047e-01 -3.136122e-01 -7.206954e-01 -7.345213e-02 8.376299e-02 -2.869932e-02 1.762853e-01 1.011433e-01 9.766871e-02 -4.383010e-02 -3.091531e-01 -8.523556e-02 1.416086e-01 6.846961e-02 5.867832e-03 -7.762904e-02
<VARIANCE> 39
 1.459739e+00 6.568963e+00 4.294909e+00 7.195430e+00 1.472456e+01 9.706926e+00 1.393582e+01 1.200471e+01 1.415333e+01 1.448686e+01 1.486133e+01 6.312027e+00 3.019901e+00 1.403461e-01 6.357647e-01 4.277520e-01 1.117902e+00 1.030655e+00 9.993763e-01 1.276358e+00 2.189345e+00 1.078631e+00 6.655421e-01 1.348866e+00 6.750087e-01 2.878220e-01 2.863412e-02 6.808768e-02 9.089613e-02 1.611175e-01 1.834363e-01 1.767461e-01 2.168174e-01 2.778739e-01 1.923137e-01 1.052810e-01 2.557130e-01 1.424440e-01 2.718106e-02
<GCONST> 6.713317e+01
<STATE> 9
<MEAN> 39
 4.056474e+00 2.030810e+00 9.268258e+00 -5.044279e-01 -4.238194e+00 -8.981333e+00 -1.387992e+00 2.709621e+00 5.897575e+00 -1.239608e+00 -2.979183e+00 -8.422389e+00 6.759060e+01 -3.259627e-01 1.127350e+00 -1.423698e-01 8.518279e-01 8.420104e-01 5.260489e-01 5.330704e-01 -1.377448e+00 -8.861173e-01 1.738329e-01 9.606630e-03 -2.179438e-01 -8.604652e-01 -1.292282e-02 -1.620623e-01 1.320809e-01 -1.190209e-01 -1.556748e-01 1.514653e-01 -4.098499e-02 -2.602538e-01 -1.449909e-01 1.287939e-01 4.387707e-02 1.491936e-01 1.096806e-01
<VARIANCE> 39
 1.761327e+00 8.458357e+00 3.473558e+00 7.431589e+00 1.475533e+01 7.468415e+00 1.410636e+01 1.807023e+01 1.715067e+01 1.041476e+01 1.329125e+01 6.912061e+00 3.592059e+00 7.539120e-02 3.516876e-01 5.480447e-01 9.168741e-01 1.398868e+00 8.203295e-01 1.231378e+00 2.447451e+00 1.178846e+00 8.874848e-01 1.104115e+00 8.033636e-01 1.271663e-01 1.578408e-02 7.613353e-02 7.860494e-02 1.876591e-01 2.371261e-01 1.928374e-01 2.342731e-01 3.833653e-01 2.197651e-01 9.570305e-02 2.479205e-01 1.349100e-01 3.694221e-02
<GCONST> 6.664896e+01
<STATE> 10
<MEAN> 39
 3.106885e+00 4.259433e+00 9.248724e+00 9.419872e-01 -2.382912e+00 -6.831885e+00 -1.092848e-02 -1.504812e+00 3.233592e+00 -4.268589e-01 -3.094773e+00 -8.256724e+00 6.578004e+01 -2.810541e-01 5.366446e-01 1.629874e-01 3.742419e-01 3.374853e-01 5.721799e-01 3.051569e-01 -1.387267e+00 -8.744066e-01 1.195066e-01 -1.607744e-01 2.662395e-01 -4.532870e-01 2.607384e-02 -2.234493e-01 4.489848e-02 -1.537454e-01 -1.219336e-01 -7.025877e-02 -1.458800e-01 2.177333e-01 1.900776e-01 -9.330814e-02 -8.512039e-02 1.073276e-01 1.419280e-01
<VARIANCE> 39
 1.843529e+00 6.756969e+00 4.820737e+00 5.445697e+00 1.116388e+01 6.945352e+00 9.162807e+00 2.826876e+01 2.143324e+01 8.783476e+00 1.180648e+01 7.597982e+00 1.539207e+00 1.032432e-01 3.529404e-01 5.188826e-01 6.095444e-01 1.125763e+00 8.289428e-01 7.383130e-01 2.069393e+00 1.496751e+00 9.502690e-01 1.038921e+00 6.333448e-01 1.253930e-01 1.486018e-02 5.813765e-02 1.007599e-01 1.661550e-01 1.978533e-01 1.667607e-01 1.667921e-01 5.359670e-01 2.744593e-01 2.012104e-01 2.199237e-01 1.574687e-01 2.294961e-02
<GCONST> 6.428563e+01
<STATE> 11
<MEAN> 39
 6.722649e-01 4.123516e+00 9.082134e+00 2.565866e+00 -2.244341e-02 -3.773406e+00 1.617310e+00 -4.453131e+00 2.408375e+00 -6.980211e-01 -3.415601e+00 -4.966588e+00 6.377811e+01 -3.346709e-01 -2.469536e-01 -2.704732e-01 1.422250e-02 2.315134e-01 2.750894e-01 1.965261e-01 3.335910e-02 1.434338e-01 5.638687e-02 1.673288e-01 3.861877e-01 -2.006716e-01 -1.556224e-02 -5.195697e-02 -5.727429e-02 -5.656418e-02 -2.581403e-02 -2.732133e-02 -1.431516e-02 1.018384e-01 5.617108e-02 2.324778e-02 6.665111e-02 1.684014e-02 4.617122e-03
<VARIANCE> 39
 5.770595e+00 5.609720e+00 6.091159e+00 4.899443e+00 1.222604e+01 1.233767e+01 1.076733e+01 1.162183e+01 9.520908e+00 9.195986e+00 1.117685e+01 1.245257e+01 1.964327e+00 1.474998e-01 2.886295e-01 5.146803e-01 4.847925e-01 8.140421e-01 8.847565e-01 8.599438e-01 1.331405e+00 9.996930e-01 1.001959e+00 9.381402e-01 8.566004e-01 4.170347e-02 2.163238e-02 3.804700e-02 8.312990e-02 8.807770e-02 1.603806e-01 1.640110e-01 1.697031e-01 2.576309e-01 1.980962e-01 2.047915e-01 1.681096e-01 1.753697e-01 7.603794e-03
<GCONST> 5.995224e+01
<TRANSP> 12
 0.000000e+00 1.000000e+00 0.000000e+00 0.000000e+00 0.000000e+00 0.000000e+00 0.000000e+00 0.000000e+00 0.000000e+00 0.000000e+00 0.000000e+00 0.000000e+00
 0.000000e+00 8.324999e-01 1.675000e-01 0.000000e+00 0.000000e+00 0.000000e+00 0.000000e+00 0.000000e+00 0.000000e+00 0.000000e+00 0.000000e+00 0.000000e+00
 0.000000e+00 0.000000e+00 4.342631e-01 5.657370e-01 0.000000e+00 0.000000e+00 0.000000e+00 0.000000e+00 0.000000e+00 0.000000e+00 0.000000e+00 0.000000e+00
 0.000000e+00 0.000000e+00 0.000000e+00 5.705197e-01 4.294803e-01 0.000000e+00 0.000000e+00 0.000000e+00 0.000000e+00 0.000000e+00 0.000000e+00 0.000000e+00
 0.000000e+00 0.000000e+00 0.000000e+00 0.000000e+00 7.540928e-01 2.459073e-01 0.000000e+00 0.000000e+00 0.000000e+00 0.000000e+00 0.000000e+00 0.000000e+00
 0.000000e+00 0.000000e+00 0.000000e+00 0.000000e+00 0.000000e+00 7.901797e-01 2.098202e-01 0.000000e+00 0.000000e+00 0.000000e+00 0.000000e+00 0.000000e+00
 0.000000e+00 0.000000e+00 0.000000e+00 0.000000e+00 0.000000e+00 0.000000e+00 7.824067e-01 2.175933e-01 0.000000e+00 0.000000e+00 0.000000e+00 0.000000e+00
 0.000000e+00 0.000000e+00 0.000000e+00 0.000000e+00 0.000000e+00 0.000000e+00 0.000000e+00 7.133800e-01 2.866201e-01 0.000000e+00 0.000000e+00 0.000000e+00
 0.000000e+00 0.000000e+00 0.000000e+00 0.000000e+00 0.000000e+00 0.000000e+00 0.000000e+00 0.000000e+00 5.755778e-01 4.244222e-01 0.000000e+00 0.000000e+00
 0.000000e+00 0.000000e+00 0.000000e+00 0.000000e+00 0.000000e+00 0.000000e+00 0.000000e+00 0.000000e+00 0.000000e+00 6.008145e-01 3.991855e-01 0.000000e+00
 0.000000e+00 0.000000e+00 0.000000e+00 0.000000e+00 0.000000e+00 0.000000e+00 0.000000e+00 0.000000e+00 0.000000e+00 0.000000e+00 9.397216e-01 6.027842e-02
 0.000000e+00 0.000000e+00 0.000000e+00 0.000000e+00 0.000000e+00 0.000000e+00 0.000000e+00 0.000000e+00 0.000000e+00 0.000000e+00 0.000000e+00 0.000000e+00
<ENDHMM>
~h "THREE"
<BEGINHMM>
<NUMSTATES> 12
<STATE> 2
<MEAN> 39
 -2.779850e+00 -8.948278e+00 7.977799e+00 -1.446747e-01 -4.728544e+00 -8.372685e+00 -1.002527e+01 -1.386471e+00 6.393256e+00 -4.898510e+00 1.278149e+00 -1.220326e+00 6.985817e+01 1.955806e+00 -9.920609e-02 1.107382e+00 1.341137e+00 -1.461690e+00 -1.507500e+00 -1.143996e+00 -1.312036e-01 2.744200e-01 -1.812536e+00 -2.008469e-01 5.418198e-01 8.176197e-01 -1.134326e-01 -1.050258e-02 2.209606e-01 -5.580695e-02 -3.678223e-01 -8.473997e-02 1.486584e-01 1.153031e-01 -7.512086e-02 -2.178108e-02 1.023382e-01 1.390245e-01 8.466765e-02
<VARIANCE> 39
 6.803423e+01 3.293437e+01 5.412112e+01 4.657990e+01 5.422212e+01 6.371503e+01 9.540727e+01 3.663969e+01 3.723120e+01 5.097989e+01 2.279330e+01 1.995584e+01 1.616802e+01 3.248008e+00 3.432204e+00 4.441292e+00 4.438033e+00 5.711052e+00 4.471463e+00 7.954365e+00 4.881897e+00 3.140565e+00 3.053404e+00 2.878867e+00 2.296180e+00 1.827805e+00 6.566810e-01 6.257507e-01 6.318312e-01 9.408583e-01 8.725400e-01 1.029711e+00 1.685516e+00 9.766452e-01 7.348381e-01 7.142851e-01 6.340260e-01 4.526587e-01 4.107640e-01
<GCONST> 1.332261e+02
<STATE> 3
<MEAN> 39
 3.277076e+00 -1.000631e+01 1.834183e+01 4.745638e+00 -1.745698e+01 -1.631804e+01 -1.142497e+01 1.165450e+00 4.665886e+00 -1.367706e+01 2.597490e+00 2.626759e+00 7.430042e+01 -2.276904e-01 -1.553930e-01 2.642625e+00 3.994108e-01 -2.627424e+00 -1.200320e-01 1.269865e+00 -3.786257e-02 -1.422221e+00 -7.930858e-02 1.404719e+00 2.072009e-01 1.894979e-01 -3.644497e-01 3.211835e-01 -2.546045e-01 -2.904052e-01 7.178973e-01 6.122735e-01 1.668463e-01 -4.394735e-01 -3.100608e-01 6.483107e-01 7.641415e-02 -5.168939e-01 -3.374483e-01
<VARIANCE> 39
 6.520706e+00 8.929667e+00 4.763253e+01 3.103486e+01 5.539038e+01 3.559814e+01 3.886617e+01 1.630025e+01 3.046766e+01 1.816950e+01 2.743660e+01 1.840109e+01 4.087688e+00 1.629469e+00 1.209896e+00 5.273592e+00 2.264756e+00 3.564785e+00 3.511240e+00 3.070694e+00 3.032229e+00 3.449857e+00 3.375678e+00 1.620031e+00 2.292010e+00 4.632422e-01 2.523831e-01 1.891042e-01 6.999657e-01 4.378052e-01 7.954205e-01 5.672026e-01 6.811369e-01 7.124157e-01 8.232757e-01 6.229079e-01 5.995848e-01 3.372233e-01 8.747046e-02
<GCONST> 1.114946e+02
<STATE> 4
<MEAN> 39
 2.097494e+00 -9.342367e+00 2.364077e+01 4.875730e+00 -2.153095e+01 -1.496049e+01 -8.379614e+00 4.786444e-02 2.323880e-01 -1.225355e+01 5.517131e+00 1.125397e+00 7.406259e+01 -5.818095e-01 7.763612e-01 1.543649e+00 -2.250940e-01 -4.948516e-01 8.549991e-01 8.347562e-01 -6.560293e-01 -1.540475e+00 6.483918e-01 9.301257e-01 -8.735116e-01 -3.668575e-01 -3.921967e-02 2.730175e-01 -4.336860e-01 -1.373161e-01 7.093515e-01 2.002883e-01 -2.455685e-01 -1.690362e-01 1.011114e-01 9.979974e-02 -3.399299e-01 -1.636945e-01 -1.695048e-01
<VARIANCE> 39
 2.996395e+00 1.077287e+01 3.674825e+01 2.431363e+01 2.311636e+01 2.012574e+01 3.640565e+01 1.207286e+01 3.120189e+01 1.580542e+01 1.927038e+01 1.651929e+01 3.715393e+00 2.666378e-01 7.528703e-01 1.592297e+00 1.793754e+00 2.403355e+00 2.496947e+00 1.704919e+00 2.024210e+00 1.949614e+00 2.381079e+00 2.075783e+00 1.365723e+00 1.573825e-01 8.633022e-02 1.461705e-01 4.308536e-01 3.062662e-01 5.330322e-01 3.582400e-01 4.185001e-01 2.850472e-01 5.892212e-01 5.546700e-01 3.891937e-01 3.459960e-01 4.058180e-02
<GCONST> 9.414642e+01
<STATE> 5
<MEAN> 39
 9.642656e-01 -7.047083e+00 2.592664e+01 4.271561e+00 -2.116854e+01 -1.323378e+01 -7.318452e+00 -1.326746e+00 -2.666779e+00 -1.083782e+01 6.944399e+00 -1.089606e+00 7.293896e+01 -3.956111e-01 1.097838e+00 5.574968e-01 -3.593264e-01 6.384718e-01 8.583396e-01 1.739611e-01 -8.496374e-01 -9.816940e-01 6.265705e-01 1.843523e-01 -6.041760e-01 -5.590223e-01 8.244376e-02 8.858611e-02 -3.950740e-01 -8.583164e-02 3.302673e-01 9.456904e-02 -1.373156e-01 -1.030729e-01 2.652406e-01 -3.209851e-02 -3.645768e-01 1.312770e-01 -5.419568e-02
<VARIANCE> 39
 2.934318e+00 1.230141e+01 3.269711e+01 1.615495e+01 2.465366e+01 1.984692e+01 3.294854e+01 1.599646e+01 2.047120e+01 1.175816e+01 1.042400e+01 1.131138e+01 3.867462e+00 1.126006e-01 3.729733e-01 1.220759e+00 1.226119e+00 1.884539e+00 1.731964e+00 1.317781e+00 1.368875e+00 2.188576e+00 2.169571e+00 2.343011e+00 1.133928e+00 1.012236e-01 2.348152e-02 8.976520e-02 2.063045e-01 2.060548e-01 3.860125e-01 3.887939e-01 3.556802e-01 2.846237e-01 3.589439e-01 5.081091e-01 2.860381e-01 2.250450e-01 1.796405e-02
<GCONST> 8.287869e+01
<STATE> 6
<MEAN> 39
 2.037666e-01 -4.369220e+00 2.619734e+01 2.998701e+00 -1.897569e+01 -1.006193e+01 -7.327515e+00 -4.041665e+00 -4.144633e+00 -9.070427e+00 6.169845e+00 -1.879542e+00 7.155283e+01 -2.040259e-01 1.205275e+00 -3.398990e-01 -5.994778e-01 7.683556e-01 1.518728e+00 5.369402e-01 -1.099360e+00 -2.248448e-01 6.025946e-01 -6.361338e-01 -4.127265e-01 -6.622560e-01 4.016820e-02 2.766275e-02 -2.463305e-01 -5.494267e-02 -5.744846e-02 1.479547e-01 2.030763e-01 -3.044101e-02 2.761609e-01 1.022744e-01 -1.615303e-01 2.203523e-02 -4.913145e-02
<VARIANCE> 39
 2.487681e+00 1.084176e+01 2.160320e+01 1.130667e+01 1.915206e+01 2.611289e+01 2.474730e+01 2.288754e+01 1.531419e+01 1.246781e+01 1.084516e+01 1.170697e+01 3.539808e+00 8.351494e-02 3.534104e-01 1.060143e+00 9.348040e-01 1.325356e+00 1.584998e+00 1.619524e+00 1.228007e+00 1.860874e+00 1.696660e+00 1.296994e+00 9.359105e-01 1.067638e-01 2.386422e-02 4.463672e-02 1.538373e-01 2.225932e-01 3.455884e-01 3.702494e-01 2.373364e-01 3.380237e-01 2.603445e-01 4.317946e-01 3.060865e-01 2.182811e-01 1.261190e-02
<GCONST> 7.732619e+01
<STATE> 7
<MEAN> 39
 -4.647946e-01 -8.207704e-01 2.487689e+01 8.464645e-01 -1.791479e+01 -4.753476e+00 -4.517200e+00 -8.001192e+00 -3.698034e+00 -6.787696e+00 3.499184e+00 -3.500398e+00 6.943360e+01 -2.332683e-01 1.103824e+00 -8.476386e-01 -4.923318e-01 8.059281e-01 1.346890e+00 1.078749e+00 -7.750890e-01 4.236166e-01 1.060748e+00 -6.861197e-01 -4.865141e-01 -7.950305e-01 -4.277740e-02 -1.388358e-01 -1.759418e-01 1.656180e-01 1.416757e-01 -2.074717e-01 4.225270e-02 1.487998e-01 1.591805e-01 1.366947e-01 5.445931e-02 4.603136e-02 -1.857817e-02
<VARIANCE> 39
 1.965056e+00 8.656026e+00 1.587683e+01 9.502084e+00 1.777005e+01 3.010833e+01 2.869293e+01 2.507129e+01 1.499500e+01 1.385859e+01 1.387466e+01 1.378427e+01 4.290779e+00 1.273541e-01 3.415427e-01 1.308955e+00 9.807425e-01 1.637198e+00 1.680961e+00 1.718689e+00 1.850532e+00 1.602530e+00 1.628774e+00 1.122236e+00 1.158469e+00 1.363426e-01 2.061287e-02 5.525653e-02 1.517067e-01 2.018723e-01 2.945705e-01 3.352934e-01 3.605009e-01 2.738969e-01 3.027784e-01 3.373526e-01 2.300029e-01 2.477520e-01 1.418628e-02
<GCONST> 7.865247e+01
<STATE> 8
<MEAN> 39
 -1.407395e+00 1.861320e+00 2.076461e+01 5.847410e-01 -1.395057e+01 -2.321009e+00 -1.402383e+00 -1.072750e+01 -2.089291e+00 -3.543492e+00 1.192759e+00 -5.078671e+00 6.668479e+01 -4.341455e-01 3.722143e-01 -1.186195e+00 9.707490e-02 1.262280e+00 6.398247e-01 6.265012e-01 -5.089563e-01 3.082896e-01 8.407665e-01 -5.561472e-01 -2.674108e-01 -7.089560e-01 -4.916665e-02 -2.155322e-01 -8.398315e-02 3.487411e-02 7.418889e-03 -1.067452e-01 -5.393635e-02 1.296928e-01 -2.694675e-02 -1.390889e-01 9.203486e-02 1.076131e-01 3.364590e-02
<VARIANCE> 39
 2.344152e+00 4.594136e+00 2.138659e+01 1.007839e+01 2.696981e+01 2.755207e+01 2.805576e+01 2.801186e+01 1.395373e+01 1.615022e+01 2.082710e+01 1.537764e+01 3.690604e+00 1.769991e-01 4.943626e-01 1.441573e+00 8.855275e-01 1.304268e+00 1.933141e+00 1.851926e+00 1.894535e+00 1.809589e+00 1.547351e+00 1.329181e+00 1.206092e+00 1.176072e-01 2.951766e-02 7.044984e-02 2.312471e-01 1.754102e-01 2.846067e-01 3.169198e-01 3.225349e-01 3.445067e-01 4.287191e-01 2.955706e-01 2.603826e-01 2.043387e-01 1.621739e-02
<GCONST> 8.144206e+01
<STATE> 9
<MEAN> 39
 -2.870684e+00 2.437450e+00 1.737563e+01 1.254795e+00 -9.827751e+00 -5.469451e-01 7.320200e-01 -1.081255e+01 -7.232304e-01 -1.463608e+00 4.404590e-01 -4.841861e+00 6.461471e+01 -5.572086e-01 -1.973901e-01 -1.249527e+00 -2.645209e-01 8.661740e-01 6.227679e-01 7.776182e-01 3.625239e-02 4.478901e-01 5.755641e-01 -2.040256e-01 -5.266625e-03 -6.037090e-01 2.753901e-03 -1.207194e-01 -9.934942e-02 -1.091792e-01 -7.083863e-02 -2.047239e-01 -6.064700e-03 3.121905e-01 7.415485e-02 -5.171034e-02 1.392595e-01 7.454544e-02 1.857098e-02
<VARIANCE> 39
 2.871930e+00 3.890906e+00 2.308677e+01 7.504355e+00 1.571293e+01 1.979313e+01 1.832134e+01 1.635844e+01 1.454630e+01 1.339199e+01 1.489319e+01 1.272111e+01 2.743780e+00 1.536341e-01 4.217837e-01 1.228977e+00 8.198560e-01 1.336738e+00 2.076649e+00 1.139591e+00 1.979821e+00 1.797226e+00 1.711135e+00 1.365113e+00 1.141019e+00 9.168239e-02 3.094367e-02 6.125135e-02 2.256882e-01 1.326752e-01 2.466666e-01 3.239588e-01 1.894392e-01 3.159688e-01 3.510474e-01 3.389528e-01 2.778047e-01 2.273330e-01 2.083394e-02
<GCONST> 7.661507e+01
<STATE> 10
<MEAN> 39
 -4.534609e+00 1.745728e+00 1.358079e+01 7.752712e-01 -6.646807e+00 3.957872e-01 3.419674e+00 -8.530753e+00 1.697496e+00 6.168894e-01 5.051956e-01 -4.561827e+00 6.281172e+01 -4.272844e-01 -3.669416e-01 -1.382302e+00 -1.061148e-01 8.005257e-01 -2.689715e-01 5.742354e-01 8.594261e-01 5.449613e-01 5.270904e-01 2.531900e-01 2.287120e-01 -4.898245e-01 3.955470e-02 3.066588e-03 -6.285434e-03 4.284511e-02 -2.969820e-02 -2.049825e-01 -1.611788e-01 1.027089e-01 -5.747326e-02 -9.135967e-02 1.292462e-01 1.260587e-01 3.253863e-02
<VARIANCE> 39
 3.268193e+00 6.048892e+00 2.475960e+01 7.909996e+00 1.248290e+01 1.438383e+01 1.615259e+01 1.571743e+01 1.958425e+01 1.800421e+01 1.404465e+01 1.129139e+01 2.321307e+00 1.657016e-01 3.364316e-01 8.149129e-01 4.667416e-01 7.274231e-01 1.863808e+00 1.067986e+00 1.372418e+00 1.303487e+00 1.702611e+00 1.785809e+00 1.466510e+00 6.894378e-02 3.619663e-02 6.388552e-02 1.751757e-01 9.919895e-02 1.165844e-01 3.031832e-01 2.766275e-01 2.802972e-01 2.850068e-01 2.945635e-01 3.062643e-01 2.140331e-01 1.363216e-02
<GCONST> 7.283902e+01
<STATE> 11
<MEAN> 39
 -7.462801e+00 -4.989089e-01 2.572663e+00 -2.773728e+00 -3.040980e+00 -5.185767e+00 1.266325e+00 -4.540506e+00 3.760615e+00 2.361033e+00 3.963145e+00 -1.033838e+00 5.955950e+01 -1.154049e-01 -4.173606e-02 -4.673504e-01 -1.936350e-01 2.113309e-01 -2.198565e-01 -2.032266e-01 1.826942e-01 1.490202e-01 5.856751e-02 1.489679e-01 1.617788e-01 -1.454598e-01 1.603294e-02 1.348192e-02 6.230430e-02 -3.441496e-03 -3.555185e-02 4.691845e-02 3.583112e-03 -3.108975e-02 -6.095612e-03 -1.603909e-02 -3.098460e-02 -3.094558e-02 2.096694e-02
<VARIANCE> 39
 1.451110e+00 3.224250e+00 1.569448e+01 1.190707e+01 1.085472e+01 1.463874e+01 1.595937e+01 1.434847e+01 1.185596e+01 1.157501e+01 1.072599e+01 1.071612e+01 1.525255e+00 8.802810e-02 2.298925e-01 7.221239e-01 6.822109e-01 7.935167e-01 1.143797e+00 1.159437e+00 1.558968e+00 1.268638e+00 1.101058e+00 1.202103e+00 1.197294e+00 4.759865e-02 1.516750e-02 4.468872e-02 1.051945e-01 1.358531e-01 1.530658e-01 2.173589e-01 2.125398e-01 2.926632e-01 2.510683e-01 2.211718e-01 2.416177e-01 2.338560e-01 5.072695e-03
<GCONST> 6.380775e+01
<TRANSP> 12
 0.000000e+00 1.000000e+00 0.000000e+00 0.000000e+00 0.000000e+00 0.000000e+00 0.000000e+00 0.000000e+00 0.000000e+00 0.000000e+00 0.000000e+00 0.000000e+00
 0.000000e+00 8.693120e-01 1.306879e-01 0.000000e+00 0.000000e+00 0.000000e+00 0.000000e+00 0.000000e+00 0.000000e+00 0.000000e+00 0.000000e+00 0.000000e+00
 0.000000e+00 0.000000e+00 5.874305e-01 4.125696e-01 0.000000e+00 0.000000e+00 0.000000e+00 0.000000e+00 0.000000e+00 0.000000e+00 0.000000e+00 0.000000e+00
 0.000000e+00 0.000000e+00 0.000000e+00 5.252625e-01 4.747376e-01 0.000000e+00 0.000000e+00 0.000000e+00 0.000000e+00 0.000000e+00 0.000000e+00 0.000000e+00
 0.000000e+00 0.000000e+00 0.000000e+00 0.000000e+00 5.629911e-01 4.370088e-01 0.000000e+00 0.000000e+00 0.000000e+00 0.000000e+00 0.000000e+00 0.000000e+00
 0.000000e+00 0.000000e+00 0.000000e+00 0.000000e+00 0.000000e+00 6.082982e-01 3.917018e-01 0.000000e+00 0.000000e+00 0.000000e+00 0.000000e+00 0.000000e+00
 0.000000e+00 0.000000e+00 0.000000e+00 0.000000e+00 0.000000e+00 0.000000e+00 6.783105e-01 3.216895e-01 0.000000e+00 0.000000e+00 0.000000e+00 0.000000e+00
 0.000000e+00 0.000000e+00 0.000000e+00 0.000000e+00 0.000000e+00 0.000000e+00 0.000000e+00 7.178109e-01 2.821892e-01 0.000000e+00 0.000000e+00 0.000000e+00
 0.000000e+00 0.000000e+00 0.000000e+00 0.000000e+00 0.000000e+00 0.000000e+00 0.000000e+00 0.000000e+00 6.893874e-01 3.106127e-01 0.000000e+00 0.000000e+00
 0.000000e+00 0.000000e+00 0.000000e+00 0.000000e+00 0.000000e+00 0.000000e+00 0.000000e+00 0.000000e+00 0.000000e+00 7.043334e-01 2.956665e-01 0.000000e+00
 0.000000e+00 0.000000e+00 0.000000e+00 0.000000e+00 0.000000e+00 0.000000e+00 0.000000e+00 0.000000e+00 0.000000e+00 0.000000e+00 9.467300e-01 5.327005e-02
 0.000000e+00 0.000000e+00 0.000000e+00 0.000000e+00 0.000000e+00 0.000000e+00 0.000000e+00 0.000000e+00 0.000000e+00 0.000000e+00 0.000000e+00 0.000000e+00
<ENDHMM>
~h "ONE"
<BEGINHMM>
<NUMSTATES> 12
<STATE> 2
<MEAN> 39
 4.893459e+00 -1.018651e+01 4.927765e+00 -1.490666e+01 -1.479615e+01 6.816783e+00 -5.726047e+00 -2.691160e+00 4.016584e+00 -5.587767e+00 3.700084e+00 -7.491503e+00 7.813515e+01 -1.698219e-02 -6.678398e-01 4.980002e-01 5.273668e-01 1.577923e-01 1.772670e-01 -9.709076e-01 -2.849456e-01 -4.300808e-02 4.630202e-01 -3.802461e-01 -7.549952e-01 4.596680e-01 -1.648002e-01 2.568776e-01 6.211233e-02 3.026188e-01 2.049633e-01 -1.956159e-01 1.739212e-01 -2.366382e-01 -9.321593e-02 1.714897e-01 -1.095592e-01 4.423629e-02 -2.992256e-01
<VARIANCE> 39
 6.698792e+00 3.785223e+01 1.256843e+01 4.552076e+01 3.387906e+01 3.369817e+01 6.021863e+01 2.593394e+01 1.315685e+01 2.857321e+01 3.053918e+01 4.053915e+01 2.480335e+01 1.049164e+00 3.860658e+00 1.211899e+00 4.004218e+00 4.416339e+00 4.858737e+00 3.948097e+00 6.088047e+00 1.503469e+00 2.112410e+00 1.902548e+00 1.946230e+00 2.458305e+00 2.151387e-01 3.831278e-01 1.860384e-01 3.692977e-01 7.455283e-01 5.666496e-01 7.523262e-01 1.080349e+00 2.734815e-01 3.154192e-01 3.077980e-01 3.709140e-01 6.703743e-02
<GCONST> 1.132400e+02
<STATE> 3
<MEAN> 39
 4.338633e+00 -7.800017e+00 9.467475e+00 -6.364647e+00 -1.074982e+01 3.370016e+00 -9.548220e+00 -9.814528e+00 1.760497e+00 -3.750124e-01 -1.885154e+00 -1.161435e+01 7.471881e+01 -1.306313e-01 1.595717e+00 9.242585e-01 9.605471e-01 -4.778501e-01 -6.732359e-01 1.532686e+00 -2.981824e+00 -7.697901e-01 8.468956e-01 -8.031150e-01 7.403380e-01 -1.064134e+00 -5.247444e-04 -2.620120e-02 -2.087166e-01 -1.540661e-01 -5.410887e-02 -7.369934e-03 9.165417e-02 4.152896e-01 1.834870e-01 -2.144033e-01 2.698396e-01 2.199324e-01 5.066229e-02
<VARIANCE> 39
 2.209070e+00 1.514973e+01 2.403544e+01 1.541330e+01 2.810417e+01 1.459037e+01 2.309519e+01 6.483135e+01 1.569347e+01 2.707874e+01 1.558020e+01 9.911615e+00 7.842375e+00 9.593502e-02 6.973519e-01 9.092463e-01 6.707257e-01 2.433870e+00 1.246331e+00 4.287581e+00 7.579596e+00 1.739591e+00 1.912576e+00 1.535135e+00 1.865812e+00 3.157185e-01 1.415798e-02 1.502295e-01 2.343355e-01 8.747322e-02 5.177389e-01 2.428647e-01 6.982583e-01 1.714933e+00 4.061052e-01 4.882984e-01 2.578135e-01 2.200246e-01 7.013123e-02
<GCONST> 9.099602e+01
<STATE> 4
<MEAN> 39
 3.818663e+00 -3.966371e+00 1.229592e+01 -4.076445e+00 -1.301321e+01 1.518771e+00 -5.613751e+00 -1.707226e+01 1.515055e-02 2.525186e+00 -3.297388e+00 -1.002442e+01 7.239680e+01 -1.585329e-01 1.371383e+00 6.265820e-02 5.333377e-01 -3.362170e-02 -5.759704e-01 1.301744e+00 -1.103838e+00 -8.031738e-02 3.008222e-02 -1.759025e-01 1.023690e+00 -9.256449e-01 -6.415975e-02 -1.626727e-01 -3.910652e-01 -1.573420e-01 4.458837e-01 4.239457e-02 -3.854607e-01 1.111954e+00 1.992533e-01 -3.969710e-01 2.005506e-01 -5.704775e-02 9.605797e-02
<VARIANCE> 39
 1.376269e+00 1.220543e+01 1.375970e+01 1.374063e+01 1.784549e+01 1.286079e+01 2.144507e+01 2.449228e+01 9.148661e+00 1.350382e+01 9.013177e+00 8.418948e+00 7.369211e+00 7.407138e-02 3.865937e-01 9.261322e-01 4.481387e-01 1.751843e+00 6.040049e-01 1.430773e+00 4.013458e+00 1.751823e+00 1.484461e+00 6.242868e-01 7.796180e-01 9.102163e-02 1.393298e-02 9.009270e-02 9.909284e-02 1.352104e-01 2.366067e-01 1.272893e-01 4.062915e-01 7.098616e-01 2.816721e-01 3.016230e-01 1.773776e-01 1.714636e-01 3.216548e-02
<GCONST> 7.265988e+01
<STATE> 5
<MEAN> 39
 3.177240e+00 -1.288613e+00 1.148141e+01 -3.074187e+00 -1.112828e+01 6.797895e-01 -4.003359e+00 -1.669151e+01 2.378023e-01 1.862502e+00 -3.326025e+00 -7.817556e+00 7.050822e+01 -3.262615e-01 1.029373e+00 -5.371749e-01 2.250412e-01 9.936376e-01 -2.464004e-01 7.182493e-01 5.999770e-01 9.110264e-02 -4.865714e-01 6.343722e-02 8.343295e-01 -8.719725e-01 -7.800014e-02 -1.732139e-01 -1.466202e-01 -4.819158e-02 3.021127e-01 1.010221e-01 -1.842796e-01 5.095056e-01 1.092543e-01 -5.384711e-02 5.744933e-02 -1.305285e-01 2.056903e-02
<VARIANCE> 39
 1.525643e+00 1.172422e+01 1.088664e+01 9.123076e+00 1.417094e+01 1.276867e+01 1.427059e+01 1.133852e+01 1.207699e+01 1.002363e+01 8.236671e+00 6.616920e+00 6.357401e+00 1.059827e-01 3.000240e-01 5.934886e-01 3.693613e-01 1.086209e+00 5.559524e-01 9.480650e-01 1.725954e+00 1.053596e+00 1.219762e+00 5.162961e-01 5.706376e-01 9.830128e-02 1.137750e-02 5.951189e-02 1.020760e-01 1.067971e-01 1.581385e-01 9.344384e-02 2.532054e-01 5.045158e-01 2.950063e-01 3.104245e-01 1.221595e-01 1.261407e-01 1.617158e-02
<GCONST> 6.304256e+01
<STATE> 6
<MEAN> 39
 2.105235e+00 1.208684e+00 1.032614e+01 -2.499843e+00 -8.723322e+00 -1.627408e-01 -2.291907e+00 -1.411160e+01 3.743453e-01 2.370458e-01 -3.056596e+00 -5.835961e+00 6.799110e+01 -4.604625e-01 7.161524e-01 -4.900599e-01 3.080342e-01 1.225639e+00 -1.264030e-01 5.019975e-01 9.815184e-01 2.407817e-01 -1.548249e-01 3.938540e-02 4.473202e-01 -8.305439e-01 -4.698355e-02 -7.478036e-02 1.905533e-03 4.326357e-02 1.291426e-01 4.526536e-02 -5.994291e-02 1.429999e-01 6.892809e-02 1.163808e-01 4.805361e-02 -1.350525e-01 9.632075e-03
<VARIANCE> 39
 2.477797e+00 1.062474e+01 1.193092e+01 7.881301e+00 1.989604e+01 8.370072e+00 1.235781e+01 1.464165e+01 9.825621e+00 1.078530e+01 8.787099e+00 9.169455e+00 5.767414e+00 1.133611e-01 2.198965e-01 5.913504e-01 3.487451e-01 9.584646e-01 4.282311e-01 8.345471e-01 1.271533e+00 9.749054e-01 1.331344e+00 5.566065e-01 8.336605e-01 8.186516e-02 1.736674e-02 5.292946e-02 1.011290e-01 6.670834e-02 1.539790e-01 8.699868e-02 1.603998e-01 2.402327e-01 1.818370e-01 2.899798e-01 1.155890e-01 1.677462e-01 1.399322e-02
<GCONST> 6.078327e+01
<STATE> 7
<MEAN> 39
 5.711362e-01 3.368499e+00 8.895163e+00 -1.544361e+00 -4.690662e+00 -5.624148e-01 -6.819426e-01 -1.075646e+01 8.630741e-01 7.069349e-02 -2.729867e+00 -5.122687e+00 6.545877e+01 -5.554199e-01 4.917634e-01 -3.953041e-01 5.011921e-01 1.477830e+00 8.031930e-02 5.695496e-01 9.797632e-01 2.361014e-01 -7.048456e-02 2.583877e-01 1.755765e-01 -7.438360e-01 -2.497422e-02 -1.231611e-01 1.053828e-02 3.456040e-02 2.837866e-02 5.034790e-02 5.725579e-02 -4.776092e-02 -2.414887e-02 -4.028215e-02 5.189059e-02 -2.497455e-02 4.256152e-02
<VARIANCE> 39
 3.408297e+00 9.781987e+00 9.836386e+00 1.013745e+01 2.350377e+01 8.810558e+00 1.271711e+01 1.774039e+01 1.271878e+01 1.238491e+01 9.129020e+00 1.115980e+01 5.090870e+00 8.957130e-02 2.997550e-01 4.119003e-01 4.544824e-01 7.730687e-01 5.463237e-01 9.328593e-01 1.275191e+00 9.333187e-01 1.124869e+00 7.405473e-01 1.071110e+00 6.505094e-02 1.828979e-02 4.592938e-02 9.522443e-02 8.167475e-02 1.971615e-01 1.019497e-01 1.841648e-01 2.664443e-01 2.003418e-01 2.442220e-01 1.532793e-01 2.365230e-01 1.392185e-02
<GCONST> 6.348293e+01
<STATE> 8
<MEAN> 39
 -9.193699e-01 4.009335e+00 7.304619e+00 2.488480e-01 3.605509e-01 1.696724e-01 9.852042e-01 -8.228351e+00 1.672966e+00 -2.576643e-01 -2.040168e+00 -5.085658e+00 6.359739e+01 -6.548387e-01 7.188926e-02 -4.158511e-01 4.557226e-01 1.374732e+00 2.757509e-01 7.031761e-01 7.683717e-01 8.709797e-02 -2.600490e-01 3.251477e-01 2.813032e-01 -6.111955e-01 -3.431235e-02 -1.625768e-01 -2.253805e-02 -1.474752e-01 -2.674214e-01 -5.685705e-02 -2.791120e-02 7.312632e-04 4.335128e-02 4.598098e-02 1.670893e-02 6.784967e-02 5.983984e-02
<VARIANCE> 39
 3.422112e+00 5.931781e+00 8.639004e+00 8.381207e+00 2.111915e+01 1.103181e+01 1.159648e+01 1.790510e+01 1.105555e+01 1.285696e+01 9.643045e+00 9.805232e+00 3.686426e+00 9.738415e-02 3.816547e-01 4.047497e-01 6.186207e-01 1.187233e+00 9.211173e-01 8.831267e-01 1.289224e+00 1.060281e+00 1.208309e+00 9.798540e-01 1.125893e+00 8.767054e-02 1.794648e-02 4.421484e-02 8.464933e-02 1.259464e-01 2.963043e-01 2.108659e-01 1.914146e-01 3.246512e-01 2.183931e-01 2.468767e-01 2.240525e-01 2.611884e-01 1.238262e-02
<GCONST> 6.663978e+01
<STATE> 9
<MEAN> 39
 -2.931801e+00 3.570751e+00 6.318613e+00 9.996467e-01 2.910774e+00 4.513792e-01 2.672235e+00 -5.927200e+00 2.437743e+00 -7.163821e-01 -8.836521e-01 -3.941144e+00 6.223390e+01 -7.265514e-01 -3.535665e-01 -4.759480e-01 -1.078928e-01 2.908911e-01 -1.579989e-01 4.411570e-01 9.572722e-01 3.917976e-01 1.558488e-01 4.361131e-01 4.272660e-01 -4.367915e-01 2.294749e-02 -7.101090e-02 -1.882397e-02 -1.538799e-01 -3.321355e-01 -1.159905e-01 -1.566966e-01 -1.144748e-02 1.022976e-01 2.002479e-01 6.299757e-02 -1.872918e-02 5.037657e-02
<VARIANCE> 39
 2.653090e+00 6.147263e+00 7.719723e+00 6.994512e+00 1.271257e+01 1.351731e+01 1.101611e+01 1.815605e+01 1.485324e+01 1.364218e+01 1.187182e+01 1.114660e+01 2.799420e+00 9.707801e-02 3.045315e-01 3.817796e-01 6.054581e-01 1.637168e+00 9.733945e-01 1.036183e+00 1.592183e+00 1.283285e+00 1.433008e+00 1.377370e+00 1.208480e+00 6.186965e-02 1.963829e-02 5.663419e-02 7.941891e-02 1.146724e-01 2.207909e-01 2.506336e-01 1.868410e-01 2.918226e-01 2.485812e-01 2.930357e-01 2.876872e-01 2.145920e-01 9.256104e-03
<GCONST> 6.705529e+01
<STATE> 10
<MEAN> 39
 -4.609506e+00 2.604426e+00 5.026474e+00 4.993147e-01 2.876391e+00 -2.586559e-01 3.136977e+00 -3.555442e+00 3.984307e+00 2.586249e-01 3.328142e-01 -3.010655e+00 6.132610e+01 -5.395552e-01 -2.856456e-01 -4.269917e-01 -1.680807e-01 -1.094988e-01 -2.984945e-01 2.614918e-02 7.165322e-01 4.730787e-01 3.879650e-01 5.490490e-01 3.417410e-01 -3.505863e-01 6.871033e-02 3.036491e-02 9.303573e-03 -6.214137e-03 -5.037419e-02 -3.103342e-03 -9.429140e-02 -1.228071e-01 -2.416820e-02 -4.609420e-02 4.487963e-02 -5.085790e-03 2.477587e-02
<VARIANCE> 39
 2.104790e+00 6.024753e+00 5.973712e+00 7.727813e+00 1.126699e+01 1.123593e+01 1.010857e+01 1.779839e+01 1.568180e+01 1.235471e+01 1.353283e+01 1.445766e+01 2.857311e+00 1.149086e-01 2.622387e-01 3.958070e-01 4.378562e-01 1.042171e+00 1.344623e+00 9.359931e-01 1.544702e+00 1.420330e+00 1.445060e+00 1.533746e+00 1.133121e+00 4.328116e-02 2.065296e-02 3.344085e-02 5.783338e-02 9.911784e-02 1.739412e-01 1.896924e-01 1.829229e-01 3.347018e-01 3.167639e-01 3.135932e-01 2.852320e-01 2.754461e-01 8.961716e-03
<GCONST> 6.504674e+01
<STATE> 11
<MEAN> 39
 -8.459542e+00 4.281670e-01 1.585212e+00 -1.905657e+00 1.429826e+00 -2.554483e+00 2.829823e+00 -1.496983e+00 5.114444e+00 1.796743e+00 4.876282e+00 -2.306974e-02 5.859169e+01 -1.266602e-01 -8.632845e-02 -1.100976e-01 -6.940992e-02 -5.653556e-02 -9.948967e-02 -8.266193e-02 3.496379e-02 3.150571e-02 5.400938e-02 1.491757e-01 9.012631e-02 -7.709447e-02 9.893804e-03 3.735214e-03 7.590524e-03 -2.107196e-03 -8.233376e-04 1.399897e-03 -8.697124e-03 -2.612728e-02 -9.589137e-03 -1.080256e-02 -2.318970e-02 -6.364658e-03 1.004641e-02
<VARIANCE> 39
 3.103145e+00 3.010510e+00 5.554665e+00 8.702024e+00 9.148797e+00 1.170860e+01 9.795767e+00 9.916376e+00 1.242567e+01 1.700041e+01 1.460169e+01 9.512587e+00 2.553478e+00 9.925502e-02 1.948220e-01 4.334567e-01 6.761953e-01 8.364564e-01 1.134142e+00 9.933756e-01 1.056396e+00 1.536218e+00 1.420230e+00 1.293878e+00 8.790483e-01 4.841158e-02 1.580834e-02 3.682750e-02 8.200724e-02 1.285851e-01 1.631277e-01 2.193329e-01 1.932700e-01 2.166547e-01 3.439216e-01 3.118561e-01 2.761574e-01 1.718675e-01 8.024325e-03
<GCONST> 6.235764e+01
<TRANSP> 12
 0.000000e+00 1.000000e+00 0.000000e+00 0.000000e+00 0.000000e+00 0.000000e+00 0.000000e+00 0.000000e+00 0.000000e+00 0.000000e+00 0.000000e+00 0.000000e+00
 0.000000e+00 9.219512e-01 7.804880e-02 0.000000e+00 0.000000e+00 0.000000e+00 0.000000e+00 0.000000e+00 0.000000e+00 0.000000e+00 0.000000e+00 0.000000e+00
 0.000000e+00 0.000000e+00 5.773329e-01 4.226672e-01 0.000000e+00 0.000000e+00 0.000000e+00 0.000000e+00 0.000000e+00 0.000000e+00 0.000000e+00 0.000000e+00
 0.000000e+00 0.000000e+00 0.000000e+00 4.549946e-01 5.450055e-01 0.000000e+00 0.000000e+00 0.000000e+00 0.000000e+00 0.000000e+00 0.000000e+00 0.000000e+00
 0.000000e+00 0.000000e+00 0.000000e+00 0.000000e+00 5.769716e-01 4.230284e-01 0.000000e+00 0.000000e+00 0.000000e+00 0.000000e+00 0.000000e+00 0.000000e+00
 0.000000e+00 0.000000e+00 0.000000e+00 0.000000e+00 0.000000e+00 6.650664e-01 3.349336e-01 0.000000e+00 0.000000e+00 0.000000e+00 0.000000e+00 0.000000e+00
 0.000000e+00 0.000000e+00 0.000000e+00 0.000000e+00 0.000000e+00 0.000000e+00 6.996492e-01 3.003509e-01 0.000000e+00 0.000000e+00 0.000000e+00 0.000000e+00
 0.000000e+00 0.000000e+00 0.000000e+00 0.000000e+00 0.000000e+00 0.000000e+00 0.000000e+00 6.374462e-01 3.625537e-01 0.000000e+00 0.000000e+00 0.000000e+00
 0.000000e+00 0.000000e+00 0.000000e+00 0.000000e+00 0.000000e+00 0.000000e+00 0.000000e+00 0.000000e+00 5.088496e-01 4.911504e-01 0.000000e+00 0.000000e+00
 0.000000e+00 0.000000e+00 0.000000e+00 0.000000e+00 0.000000e+00 0.000000e+00 0.000000e+00 0.000000e+00 0.000000e+00 5.859862e-01 4.140139e-01 0.000000e+00
 0.000000e+00 0.000000e+00 0.000000e+00 0.000000e+00 0.000000e+00 0.000000e+00 0.000000e+00 0.000000e+00 0.000000e+00 0.000000e+00 9.648662e-01 3.513376e-02
 0.000000e+00 0.000000e+00 0.000000e+00 0.000000e+00 0.000000e+00 0.000000e+00 0.000000e+00 0.000000e+00 0.000000e+00 0.000000e+00 0.000000e+00 0.000000e+00
<ENDHMM>
~h "SIL"
<BEGINHMM>
<NUMSTATES> 12
<STATE> 2
<MEAN> 39
 -7.113811e+00 -1.813921e+00 -1.227407e-01 -3.274151e+00 -3.752977e-01 -4.653207e+00 5.957148e-01 -2.124056e+00 5.013226e+00 9.994396e-01 3.140006e+00 1.288745e-01 5.972911e+01 -1.554106e-02 3.328952e-02 -8.290446e-02 -3.677981e-02 -2.735087e-02 -1.438675e-02 7.768237e-03 2.779346e-03 3.510976e-03 5.865357e-02 4.559212e-02 -1.292373e-02 -5.424827e-02 -3.978387e-03 -7.537839e-03 2.437144e-02 5.399302e-03 2.446635e-03 4.467619e-03 -7.075298e-03 7.923609e-03 -4.968541e-03 -1.258168e-02 -4.169606e-03 3.705023e-03 1.573334e-02
<VARIANCE> 39
 4.353263e+00 6.179469e+00 8.325713e+00 9.244929e+00 9.624162e+00 1.196888e+01 1.476578e+01 1.208735e+01 1.288096e+01 1.476067e+01 1.386485e+01 9.844769e+00 2.782371e+00 1.285895e-01 2.887766e-01 4.696782e-01 6.287384e-01 7.956712e-01 1.007068e+00 1.141075e+00 1.271176e+00 1.348172e+00 1.387382e+00 1.279108e+00 1.023921e+00 6.174496e-02 2.086814e-02 4.560858e-02 8.534948e-02 1.138253e-01 1.472340e-01 1.925339e-01 2.181641e-01 2.432250e-01 2.650799e-01 2.633478e-01 2.350542e-01 1.907170e-01 8.686817e-03
<GCONST> 6.557616e+01
<STATE> 3
<MEAN> 39
 -7.483091e+00 -2.074287e+00 5.066395e-04 -3.260672e+00 -4.021534e-01 -4.212133e+00 8.761630e-01 -1.745185e+00 5.068193e+00 1.021052e+00 3.121598e+00 5.011119e-02 5.979279e+01 -4.558960e-02 -4.963532e-02 1.375461e-02 -5.678162e-04 -4.677884e-02 4.232685e-03 -2.784294e-02 2.090567e-02 -1.067597e-02 -3.235311e-02 1.703475e-03 -1.979681e-03 3.476005e-02 -1.522116e-02 -1.974475e-02 2.215690e-02 5.401556e-03 -1.946767e-03 -1.694612e-03 -1.239858e-02 -4.712333e-03 -1.681352e-02 -2.121811e-02 -1.771136e-02 5.891445e-03 2.814552e-02
<VARIANCE> 39
 5.334495e+00 7.898259e+00 9.122234e+00 9.660311e+00 1.114171e+01 1.341764e+01 1.645448e+01 1.417301e+01 1.425446e+01 1.534347e+01 1.436192e+01 1.122228e+01 3.862664e+00 2.254493e-01 4.783081e-01 6.497660e-01 7.286548e-01 9.214301e-01 1.100859e+00 1.319791e+00 1.473823e+00 1.492848e+00 1.453030e+00 1.375280e+00 1.131897e+00 1.221757e-01 3.246694e-02 8.466081e-02 1.251400e-01 1.379429e-01 1.835642e-01 2.201328e-01 2.623476e-01 3.009947e-01 3.054914e-01 2.931205e-01 2.820451e-01 2.369042e-01 1.665972e-02
<GCONST> 7.408002e+01
<STATE> 4
<MEAN> 39
 -7.845628e+00 -2.534041e+00 2.167362e-01 -3.163645e+00 -8.006617e-01 -4.170089e+00 7.099842e-01 -1.663145e+00 5.032176e+00 8.796166e-01 3.065500e+00 7.338621e-02 6.023948e+01 -1.362161e-01 -1.616528e-01 7.175131e-02 -3.424053e-02 -8.480446e-02 3.209218e-02 -8.501563e-02 2.324778e-02 -6.732513e-02 -7.353052e-02 -2.345388e-02 2.761125e-02 1.566818e-01 -1.650088e-02 -1.979334e-02 1.800073e-02 -1.517010e-02 6.851752e-03 -1.468202e-02 -2.083404e-02 1.119931e-02 -1.799547e-02 1.327217e-02 -8.415273e-03 7.564329e-03 3.736570e-02
<VARIANCE> 39
 6.755678e+00 1.153090e+01 9.446796e+00 1.073865e+01 1.396393e+01 1.385440e+01 1.691212e+01 1.374400e+01 1.174673e+01 1.419563e+01 1.365261e+01 1.159776e+01 6.414313e+00 3.100749e-01 5.948875e-01 6.493031e-01 7.784306e-01 9.253577e-01 1.053628e+00 1.311677e+00 1.376927e+00 1.351135e+00 1.354061e+00 1.257363e+00 1.056972e+00 2.011790e-01 4.926367e-02 1.018064e-01 1.326241e-01 1.480688e-01 1.852719e-01 2.243961e-01 2.526775e-01 2.749305e-01 2.631228e-01 2.694921e-01 2.671739e-01 2.311459e-01 2.605030e-02
<GCONST> 7.673237e+01
<STATE> 5
<MEAN> 39
 -8.600745e+00 -3.485817e+00 5.062306e-01 -3.382145e+00 -1.051535e+00 -3.826618e+00 4.335243e-01 -1.262382e+00 4.943968e+00 9.889548e-01 2.920155e+00 2.807656e-01 6.123059e+01 -1.929439e-01 -1.562135e-01 1.311609e-01 -5.978086e-02 -5.034399e-02 1.295582e-02 -1.397795e-01 1.448522e-01 -9.121259e-02 -1.618287e-02 -3.927198e-02 2.422555e-02 2.422425e-01 5.327713e-03 2.738342e-02 3.719446e-02 -9.556124e-03 8.017944e-03 -2.831386e-02 -1.734474e-02 7.624331e-03 -2.476651e-02 2.746175e-02 -1.063049e-02 -1.245343e-02 2.946039e-02
<VARIANCE> 39
 1.053280e+01 1.728167e+01 1.041934e+01 1.460635e+01 1.595359e+01 1.357011e+01 1.875720e+01 1.595377e+01 1.326038e+01 1.434120e+01 1.430316e+01 1.272427e+01 9.787954e+00 4.275085e-01 9.150167e-01 8.524954e-01 8.805389e-01 9.384222e-01 1.098254e+00 1.382167e+00 1.368429e+00 1.458681e+00 1.328541e+00 1.407090e+00 1.231412e+00 3.364879e-01 8.012579e-02 1.582371e-01 1.481803e-01 1.573197e-01 1.927028e-01 2.137215e-01 2.621424e-01 2.642234e-01 2.632019e-01 2.860301e-01 2.928273e-01 2.433580e-01 4.730392e-02
<GCONST> 8.301737e+01
<STATE> 6
<MEAN> 39
 -9.753926e+00 -3.440058e+00 1.259048e+00 -4.184376e+00 -9.501271e-01 -3.996148e+00 -2.051651e-01 -4.516838e-01 4.583360e+00 1.105030e+00 2.801616e+00 4.450123e-01 6.228695e+01 -2.955548e-01 -9.099992e-02 1.621996e-01 -9.576268e-02 -5.572882e-02 -3.500088e-02 -1.523424e-01 1.309590e-01 -1.383141e-01 8.875826e-02 -8.849650e-02 2.527529e-02 3.671630e-01 4.005709e-02 4.426802e-02 1.973219e-03 1.853816e-02 -6.303544e-03 -1.707841e-02 1.830573e-02 -3.521685e-02 -2.725595e-02 3.972230e-03 -3.800657e-02 -4.644446e-02 1.691903e-02
<VARIANCE> 39
 1.976431e+01 2.280785e+01 1.357650e+01 1.680059e+01 1.815264e+01 1.810098e+01 2.191628e+01 1.805014e+01 1.558720e+01 1.539591e+01 1.531999e+01 1.217664e+01 1.393746e+01 7.187958e-01 8.331710e-01 9.669205e-01 8.772035e-01 1.124951e+00 1.187730e+00 1.285929e+00 1.391540e+00 1.271601e+00 1.457090e+00 1.378221e+00 1.088998e+00 3.858323e-01 9.468659e-02 1.439080e-01 1.925157e-01 1.559258e-01 2.334297e-01 2.119783e-01 2.495227e-01 2.633249e-01 2.545662e-01 2.865849e-01 2.662045e-01 2.269519e-01 4.866352e-02
<GCONST> 8.662397e+01
<STATE> 7
<MEAN> 39
 -1.056935e+01 -2.947090e+00 1.524466e+00 -4.353436e+00 -5.541819e-01 -4.721553e+00 -4.201741e-01 -3.773431e-01 4.144093e+00 1.539952e+00 2.262686e+00 4.876077e-01 6.298845e+01 -2.682354e-01 1.407963e-02 8.016633e-02 -4.286831e-02 -1.068889e-02 -7.008886e-02 -6.006654e-02 2.282718e-02 -1.436532e-01 4.443331e-02 -1.094403e-01 -4.534362e-02 3.597153e-01 1.069345e-01 4.021369e-02 8.928562e-03 2.611014e-02 -3.179039e-02 1.865886e-02 1.190195e-02 -5.842930e-02 -4.283032e-02 -5.367788e-02 -2.195716e-02 -5.390346e-02 4.958533e-03
<VARIANCE> 39
 2.914216e+01 2.672893e+01 1.461972e+01 1.864470e+01 2.009096e+01 1.799664e+01 2.192692e+01 1.994140e+01 1.643705e+01 1.600091e+01 1.519188e+01 1.339155e+01 1.815719e+01 1.070925e+00 9.837011e-01 1.002184e+00 9.902756e-01 1.470353e+00 1.345304e+00 1.394555e+00 1.390694e+00 1.303558e+00 1.501360e+00 1.476678e+00 1.135553e+00 4.889278e-01 1.288099e-01 1.767990e-01 2.378289e-01 1.914900e-01 2.787950e-01 2.713916e-01 2.526405e-01 2.979136e-01 2.853201e-01 2.941764e-01 2.741752e-01 2.474782e-01 6.735363e-02
<GCONST> 9.165710e+01
<STATE> 8
<MEAN> 39
 -1.036463e+01 -3.238551e+00 1.408218e+00 -4.033446e+00 -8.900163e-01 -4.400589e+00 -6.042560e-01 -7.232918e-01 4.099329e+00 1.363924e+00 2.295209e+00 3.073474e-01 6.312815e+01 -1.591949e-02 6.131678e-02 1.209435e-01 -3.051605e-02 -3.751644e-02 -5.482547e-03 -3.829701e-02 -4.710059e-02 -2.615715e-01 -7.753875e-02 -1.840535e-01 -1.168236e-01 3.121651e-01 1.652710e-01 5.316886e-02 7.091869e-02 -1.454988e-02 -6.536792e-02 5.149031e-03 -1.516862e-02 -4.472116e-02 -2.463423e-02 -6.843249e-02 -2.871716e-02 -5.686010e-02 2.469011e-02
<VARIANCE> 39
 3.133265e+01 2.977152e+01 1.505122e+01 1.932695e+01 2.292734e+01 1.896669e+01 2.342613e+01 2.001550e+01 1.668874e+01 1.587696e+01 1.490214e+01 1.265221e+01 2.099014e+01 1.130524e+00 1.153646e+00 1.382474e+00 1.085516e+00 1.757682e+00 1.449169e+00 1.461166e+00 1.478278e+00 1.454012e+00 1.578293e+00 1.449700e+00 1.290219e+00 5.714852e-01 1.538187e-01 2.284490e-01 2.601271e-01 2.322119e-01 3.323163e-01 3.082051e-01 3.067899e-01 3.069237e-01 3.101978e-01 3.198649e-01 3.046490e-01 2.447100e-01 1.059346e-01
<GCONST> 9.560258e+01
<STATE> 9
<MEAN> 39
 -9.895281e+00 -3.152653e+00 1.547615e+00 -3.760984e+00 -9.680011e-01 -4.131873e+00 -5.901814e-01 -9.200503e-01 3.716436e+00 9.310880e-01 2.307966e+00 -7.544386e-02 6.323941e+01 3.726272e-01 1.456306e-01 2.830381e-01 -9.870841e-02 -1.771609e-01 -9.627085e-03 -1.262550e-01 -1.133722e-01 -2.534518e-01 -1.919362e-01 -1.860269e-01 -2.369724e-01 3.232853e-01 1.858234e-01 1.345841e-03 1.390418e-01 -9.315331e-02 -1.779075e-01 2.490347e-03 -4.342045e-02 -6.043569e-02 2.225017e-02 -5.398671e-02 6.093798e-03 -2.274407e-02 6.515782e-02
<VARIANCE> 39
 3.277694e+01 3.447398e+01 1.768860e+01 1.904612e+01 2.544693e+01 1.833239e+01 2.542221e+01 1.894990e+01 1.856197e+01 1.666600e+01 1.725110e+01 1.422607e+01 2.364006e+01 1.197473e+00 1.245308e+00 1.939241e+00 1.326802e+00 2.028219e+00 1.500920e+00 1.682807e+00 1.523690e+00 1.539689e+00 1.578242e+00 1.627914e+00 1.365036e+00 8.028131e-01 1.814184e-01 2.671405e-01 2.456787e-01 2.554287e-01 4.083784e-01 2.977514e-01 3.415843e-01 2.943104e-01 3.169050e-01 3.418882e-01 3.108066e-01 2.498332e-01 1.612380e-01
<GCONST> 9.931356e+01
<STATE> 10
<MEAN> 39
 -8.922311e+00 -2.838688e+00 1.873656e+00 -4.039217e+00 -1.412318e+00 -4.100327e+00 -4.786690e-01 -1.042445e+00 3.505459e+00 5.316423e-01 1.840956e+00 -5.472314e-01 6.338969e+01 6.504381e-01 1.318654e-01 5.067112e-01 -2.366915e-01 -4.546151e-01 -6.124491e-02 -1.697395e-01 -2.280271e-01 -1.907470e-01 -2.574848e-01 -1.615171e-01 -2.368565e-01 4.066679e-01 1.472327e-01 -6.061320e-02 1.532702e-01 -1.170567e-01 -2.185893e-01 3.921259e-02 -5.844304e-02 -7.472796e-02 5.773566e-02 -1.355315e-02 5.938431e-02 2.163182e-02 1.010714e-01
<VARIANCE> 39
 3.677607e+01 3.679061e+01 2.651673e+01 1.958932e+01 2.567086e+01 1.891768e+01 2.457597e+01 2.226108e+01 1.904358e+01 1.616270e+01 1.768406e+01 1.667702e+01 2.451711e+01 1.699573e+00 1.772702e+00 2.347721e+00 1.629554e+00 2.620931e+00 1.833138e+00 2.060329e+00 1.802437e+00 1.882197e+00 1.882879e+00 1.943104e+00 1.574993e+00 1.338273e+00 2.243914e-01 3.189000e-01 2.775988e-01 3.014347e-01 4.583102e-01 3.187131e-01 3.360487e-01 3.216657e-01 2.975009e-01 3.343524e-01 2.979352e-01 2.639880e-01 1.718350e-01
<GCONST> 1.043687e+02
<STATE> 11
<MEAN> 39
 -7.865367e+00 -2.337059e+00 2.324704e+00 -4.105561e+00 -1.737599e+00 -4.292971e+00 -6.126082e-01 -1.531840e+00 3.476751e+00 4.529778e-01 1.971119e+00 -7.945576e-01 6.357003e+01 7.657143e-01 -5.637411e-02 6.770467e-01 -3.658632e-01 -7.775686e-01 1.355172e-02 -2.390827e-01 -3.285630e-01 -8.153072e-02 -1.843570e-01 -4.786332e-02 -1.653645e-01 5.541881e-01 1.066130e-01 -1.005055e-01 1.156141e-01 -1.119794e-01 -1.723758e-01 7.496905e-02 -1.122453e-01 -4.844058e-02 7.707264e-02 -1.313541e-03 5.571534e-02 1.118799e-02 1.094324e-01
<VARIANCE> 39
 4.183838e+01 3.341869e+01 3.452175e+01 1.908219e+01 2.771765e+01 2.089979e+01 2.377594e+01 2.263804e+01 1.879021e+01 1.825009e+01 1.959760e+01 1.754744e+01 2.704073e+01 2.163553e+00 2.618589e+00 2.795555e+00 2.101816e+00 3.562438e+00 2.271138e+00 2.101858e+00 2.018860e+00 1.947007e+00 2.272716e+00 1.944281e+00 1.523230e+00 1.886137e+00 2.454385e-01 3.286063e-01 2.489253e-01 2.910064e-01 3.733227e-01 2.747281e-01 2.975698e-01 2.532669e-01 1.975793e-01 2.627783e-01 2.490343e-01 2.318333e-01 1.542649e-01
<GCONST> 1.056002e+02
<TRANSP> 12
 0.000000e+00 1.000000e+00 0.000000e+00 0.000000e+00 0.000000e+00 0.000000e+00 0.000000e+00 0.000000e+00 0.000000e+00 0.000000e+00 0.000000e+00 0.000000e+00
 0.000000e+00 8.904320e-01 1.095680e-01 0.000000e+00 0.000000e+00 0.000000e+00 0.000000e+00 0.000000e+00 0.000000e+00 0.000000e+00 0.000000e+00 0.000000e+00
 0.000000e+00 0.000000e+00 6.592951e-01 3.407049e-01 0.000000e+00 0.000000e+00 0.000000e+00 0.000000e+00 0.000000e+00 0.000000e+00 0.000000e+00 0.000000e+00
 0.000000e+00 0.000000e+00 0.000000e+00 4.861994e-01 5.138007e-01 0.000000e+00 0.000000e+00 0.000000e+00 0.000000e+00 0.000000e+00 0.000000e+00 0.000000e+00
 0.000000e+00 0.000000e+00 0.000000e+00 0.000000e+00 4.063248e-01 5.936751e-01 0.000000e+00 0.000000e+00 0.000000e+00 0.000000e+00 0.000000e+00 0.000000e+00
 0.000000e+00 0.000000e+00 0.000000e+00 0.000000e+00 0.000000e+00 3.479092e-01 6.520908e-01 0.000000e+00 0.000000e+00 0.000000e+00 0.000000e+00 0.000000e+00
 0.000000e+00 0.000000e+00 0.000000e+00 0.000000e+00 0.000000e+00 0.000000e+00 3.192458e-01 6.807542e-01 0.000000e+00 0.000000e+00 0.000000e+00 0.000000e+00
 0.000000e+00 0.000000e+00 0.000000e+00 0.000000e+00 0.000000e+00 0.000000e+00 0.000000e+00 2.589275e-01 7.410725e-01 0.000000e+00 0.000000e+00 0.000000e+00
 0.000000e+00 0.000000e+00 0.000000e+00 0.000000e+00 0.000000e+00 0.000000e+00 0.000000e+00 0.000000e+00 1.512396e-01 8.487604e-01 0.000000e+00 0.000000e+00
 0.000000e+00 0.000000e+00 0.000000e+00 0.000000e+00 0.000000e+00 0.000000e+00 0.000000e+00 0.000000e+00 0.000000e+00 1.108715e-01 8.891285e-01 0.000000e+00
 0.000000e+00 0.000000e+00 0.000000e+00 0.000000e+00 0.000000e+00 0.000000e+00 0.000000e+00 0.000000e+00 0.000000e+00 0.000000e+00 6.762030e-02 9.323797e-01
 0.000000e+00 0.000000e+00 0.000000e+00 0.000000e+00 0.000000e+00 0.000000e+00 0.000000e+00 0.000000e+00 0.000000e+00 0.000000e+00 0.000000e+00 0.000000e+00
<ENDHMM>
~h "SIX"
<BEGINHMM>
<NUMSTATES> 12
<STATE> 2
<MEAN> 39
 -3.464637e+00 -6.864774e+00 1.330200e+01 -5.505622e+00 -7.055799e+00 -1.042843e+01 -1.319913e+01 3.209522e-01 6.168178e+00 -1.626438e+00 -1.297724e-02 -1.367923e+00 7.233766e+01 1.863040e+00 -2.871668e-01 8.683912e-01 6.838570e-01 -1.163018e+00 -4.666253e-01 -4.662675e-01 -4.669570e-01 1.188200e-01 -5.875242e-01 2.111159e-01 -7.940720e-02 2.962086e-01 -2.553658e-01 1.913312e-01 -1.095705e-01 8.183666e-03 9.997081e-02 7.525362e-02 2.217878e-01 -3.828765e-02 -8.972947e-02 1.151178e-01 5.099580e-02 7.294440e-02 -1.453714e-01
<VARIANCE> 39
 8.620627e+01 2.228245e+01 2.472624e+01 1.377109e+01 4.344061e+01 1.523475e+01 5.568560e+01 2.050708e+01 2.571998e+01 1.866340e+01 1.526094e+01 2.012839e+01 1.925016e+01 7.181486e+00 2.721124e+00 1.471413e+00 1.432651e+00 2.522469e+00 1.471899e+00 8.175108e+00 2.884085e+00 4.010697e+00 1.766168e+00 1.803962e+00 3.408533e+00 2.709502e+00 1.114679e+00 3.674982e-01 2.819315e-01 3.233515e-01 5.126256e-01 2.895955e-01 1.279516e+00 6.854348e-01 7.986063e-01 3.550233e-01 3.581734e-01 7.034721e-01 4.339886e-01
<GCONST> 1.176237e+02
<STATE> 3
<MEAN> 39
 -1.285469e+00 -3.168725e+00 1.528057e+01 -7.010691e-01 -1.057918e+01 -1.051617e+01 -6.718411e+00 -3.165244e+00 3.602095e+00 -1.908732e+00 2.762709e+00 7.989976e-01 6.838604e+01 -1.185322e+00 1.091330e+00 -1.236735e+00 2.323863e-01 8.956122e-01 6.942677e-01 1.325193e+00 -7.838486e-01 1.519673e-01 1.086203e+00 3.971250e-02 2.105143e-01 -1.720805e+00 -9.039350e-03 -2.176252e-01 -4.630770e-01 -2.948266e-01 2.688761e-01 1.344578e-02 -4.541875e-01 9.879030e-02 3.310044e-01 6.325890e-02 -1.021268e-01 -3.886922e-03 3.670542e-02
<VARIANCE> 39
 9.885998e+00 1.250378e+01 2.321978e+01 1.234395e+01 1.226468e+01 1.861240e+01 2.371153e+01 1.732328e+01 1.897095e+01 1.748444e+01 1.403007e+01 9.042830e+00 1.322823e+01 5.737986e-01 1.218479e+00 3.258675e+00 1.530268e+00 1.658473e+00 2.423340e+00 2.770072e+00 1.519834e+00 2.677395e+00 1.669444e+00 1.534168e+00 1.010071e+00 5.035203e-01 1.575354e-01 2.342753e-01 4.982489e-01 2.921665e-01 3.076215e-01 4.605286e-01 4.992242e-01 3.563393e-01 6.106378e-01 4.337437e-01 3.114980e-01 2.259808e-01 1.403039e-01
<GCONST> 9.730402e+01
<STATE> 4
<MEAN> 39
 -4.765594e+00 -1.351352e+00 8.088275e+00 -1.577319e+00 -6.117162e+00 -8.624659e+00 -4.826927e+00 -4.489819e+00 4.977690e+00 1.197511e+00 3.005187e+00 1.460634e+00 6.325772e+01 -8.505435e-01 -3.837294e-01 -1.627228e+00 -3.347052e-01 1.061619e+00 1.084648e-01 1.275297e-01 4.865483e-01 -1.194381e-01 2.999297e-01 1.513040e-01 1.631922e-01 -4.878585e-01 -8.889626e-02 -3.980845e-01 3.051027e-01 -9.270634e-02 -1.126871e-01 -1.763002e-01 -1.543887e-01 4.951389e-01 -2.726280e-01 -2.122665e-01 9.075748e-02 6.981028e-03 4.939881e-01
<VARIANCE> 39
 4.227428e+00 1.839748e+01 2.820935e+01 1.056486e+01 1.455958e+01 2.312545e+01 1.881218e+01 1.825480e+01 1.797235e+01 1.326066e+01 1.293812e+01 1.038887e+01 9.269808e+00 8.579210e-01 3.934914e+00 2.506195e+00 9.952493e-01 1.442644e+00 2.522418e+00 1.974607e+00 2.784806e+00 2.719889e+00 1.777341e+00 1.532649e+00 1.119942e+00 2.744702e+00 2.863893e-01 7.324059e-01 4.949648e-01 2.258375e-01 2.593416e-01 5.051100e-01 4.238974e-01 3.233837e-01 5.211562e-01 3.549916e-01 3.084355e-01 2.316841e-01 2.546096e-01
<GCONST> 1.007734e+02
<STATE> 5
<MEAN> 39
 -7.351263e+00 -4.755650e+00 4.989113e+00 -2.497046e+00 -3.783429e+00 -8.485106e+00 -4.289040e+00 -7.689381e-01 3.350556e+00 1.419629e+00 3.964333e+00 1.373004e+00 6.407404e+01 -1.674534e+00 -1.451138e+00 1.495547e-01 -5.815061e-01 3.452539e-01 -4.512115e-01 -9.594078e-02 1.907980e+00 -9.754899e-01 8.221894e-02 3.595226e-01 3.439369e-01 1.180580e+00 -3.753097e-01 1.804162e-01 5.002178e-01 -1.085377e-01 -4.112673e-02 -8.582646e-02 -6.157025e-02 2.252435e-01 -7.436786e-02 -4.514895e-02 -4.424463e-02 1.209776e-01 2.278068e-01
<VARIANCE> 39
 1.255580e+01 5.069197e+01 1.516709e+01 1.115927e+01 1.438601e+01 1.926421e+01 1.735733e+01 3.314679e+01 2.091057e+01 1.493340e+01 1.460052e+01 1.273509e+01 2.242883e+01 2.370879e+00 4.878817e+00 3.593703e+00 1.087752e+00 1.773823e+00 2.059640e+00 1.579897e+00 2.896920e+00 2.569090e+00 1.635016e+00 1.594911e+00 1.454694e+00 2.832651e+00 3.211697e-01 1.556633e+00 3.672626e-01 1.911300e-01 4.497367e-01 4.931976e-01 3.512113e-01 6.261318e-01 5.830557e-01 3.402447e-01 3.538680e-01 3.097720e-01 6.029382e-01
<GCONST> 1.085653e+02
<STATE> 6
<MEAN> 39
 -1.661708e+01 -8.335605e+00 9.136434e+00 -5.290628e+00 -2.715096e+00 -1.172259e+01 -5.612153e+00 7.803381e+00 -1.055804e+00 1.368458e+00 5.453096e+00 4.417071e+00 6.970089e+01 -2.976407e+00 1.122134e+00 1.228000e+00 -9.061909e-01 9.714370e-01 -1.080044e-01 -8.504477e-02 1.751540e+00 -4.302875e-01 -1.601687e-01 -1.050566e-01 8.025361e-01 5.977042e-01 5.077522e-01 8.140060e-01 -4.230356e-01 2.228032e-02 1.738941e-01 4.902624e-01 1.177351e-01 -7.595770e-01 5.076147e-01 -8.141028e-02 -2.903184e-01 -2.848454e-01 -6.569557e-01
<VARIANCE> 39
 2.275049e+01 1.296473e+01 1.244112e+01 1.202038e+01 1.347531e+01 1.359924e+01 1.832257e+01 2.529401e+01 2.046605e+01 2.134970e+01 1.546074e+01 1.532407e+01 6.032721e+00 1.476185e+00 3.861538e+00 1.615360e+00 7.542768e-01 1.666118e+00 1.779077e+00 1.500926e+00 3.316396e+00 2.323710e+00 1.609463e+00 2.097948e+00 2.066095e+00 1.478158e+00 4.231152e-01 5.503538e-01 3.734331e-01 1.738230e-01 2.710756e-01 3.136337e-01 3.249078e-01 5.064998e-01 4.153529e-01 3.629788e-01 4.461731e-01 4.754779e-01 1.937582e-01
<GCONST> 1.013270e+02
<STATE> 7
<MEAN> 39
 -2.037176e+01 -5.670555e+00 9.738698e+00 -6.699153e+00 -8.189846e-01 -1.039977e+01 -5.690631e+00 8.999447e+00 -7.488320e-01 8.285214e-01 4.176093e+00 4.743452e+00 6.973375e+01 -1.045210e+00 1.463227e+00 -1.493098e-01 -8.136384e-01 1.035021e+00 9.584482e-01 9.915833e-02 1.127840e-01 4.548984e-01 -1.716622e-01 -6.818950e-01 -3.213321e-01 -3.540550e-01 8.123125e-01 -6.151948e-03 -4.745724e-01 4.957599e-02 -6.305081e-02 2.754127e-01 7.111719e-03 -5.990016e-01 2.624895e-01 7.083402e-02 -1.167370e-01 -4.035596e-01 -2.733070e-01
<VARIANCE> 39
 2.950897e+00 5.424206e+00 6.100982e+00 1.166924e+01 9.072658e+00 1.138822e+01 1.769606e+01 1.491136e+01 1.535445e+01 1.631927e+01 1.892901e+01 9.665007e+00 9.254665e-01 1.294154e+00 7.339513e-01 9.659548e-01 6.764337e-01 9.080710e-01 1.084467e+00 1.350489e+00 2.031312e+00 1.384642e+00 1.589156e+00 2.044955e+00 1.983309e+00 1.553825e-01 1.722927e-01 2.401786e-01 1.872500e-01 1.462971e-01 2.404878e-01 2.631729e-01 2.959449e-01 4.764273e-01 3.257695e-01 2.855830e-01 4.739454e-01 4.015200e-01 9.577337e-02
<GCONST> 8.254699e+01
<STATE> 8
<MEAN> 39
 -2.063976e+01 -2.731338e+00 8.317928e+00 -8.765778e+00 1.307166e+00 -8.428995e+00 -5.673257e+00 8.094444e+00 4.413227e-01 9.803070e-01 2.626270e+00 3.247650e+00 6.880267e+01 -7.413899e-02 1.063434e+00 -3.743348e-01 -6.814316e-01 7.580561e-01 7.434618e-01 -8.582011e-02 -3.852930e-01 4.072681e-01 9.682494e-02 -4.039468e-01 -5.577183e-01 -3.529404e-01 2.659812e-01 -2.006663e-01 -6.483241e-03 6.827507e-02 -1.194937e-01 -9.745588e-02 -6.402092e-02 -1.265624e-01 -4.554468e-02 4.768621e-02 1.059935e-01 -6.750987e-02 1.842737e-02
<VARIANCE> 39
 1.727119e+00 9.671752e+00 5.689819e+00 8.583418e+00 8.946729e+00 1.062498e+01 1.605953e+01 1.131136e+01 1.332423e+01 1.514522e+01 1.323035e+01 1.195519e+01 1.102928e+00 2.404801e-01 5.354032e-01 4.670041e-01 7.486188e-01 7.037586e-01 1.050922e+00 1.308413e+00 1.180049e+00 1.264147e+00 1.193417e+00 1.824854e+00 1.338199e+00 7.507838e-02 1.236969e-01 1.000637e-01 1.278081e-01 1.265782e-01 1.744561e-01 2.002372e-01 2.769373e-01 3.420547e-01 2.874422e-01 2.966817e-01 3.920035e-01 3.343275e-01 2.544562e-02
<GCONST> 7.196142e+01
<STATE> 9
<MEAN> 39
 -2.003965e+01 -7.628708e-01 8.192041e+00 -1.057417e+01 3.321471e+00 -6.436618e+00 -6.398978e+00 6.701833e+00 3.806026e-01 9.464543e-01 2.197546e+00 6.434157e-01 6.799529e+01 4.223465e-01 5.821446e-02 1.431101e-01 -3.352748e-01 2.793979e-01 4.715824e-01 -3.310674e-01 -2.369902e-01 8.464266e-02 -2.835686e-01 4.752828e-02 -6.431189e-01 -2.111151e-01 1.575231e-01 -2.458322e-01 7.004953e-02 9.841949e-02 -1.520754e-01 5.944643e-03 -4.316941e-02 -6.837320e-03 5.831932e-02 -1.099912e-01 9.738681e-02 3.305182e-02 -2.571603e-02
<VARIANCE> 39
 5.234940e+00 7.205347e+00 5.919998e+00 6.319900e+00 9.579306e+00 1.255724e+01 1.135452e+01 1.254086e+01 1.972649e+01 1.968087e+01 1.309088e+01 1.918988e+01 1.429345e+00 5.563720e-01 1.162489e+00 7.003326e-01 6.717739e-01 1.170798e+00 1.206954e+00 1.154590e+00 1.510999e+00 2.764628e+00 1.839310e+00 1.563301e+00 1.711899e+00 2.224830e-01 6.074426e-02 1.208290e-01 1.633312e-01 1.356637e-01 2.219702e-01 2.552840e-01 2.267078e-01 3.508339e-01 6.008890e-01 3.649462e-01 3.315753e-01 3.850458e-01 4.988234e-02
<GCONST> 8.064352e+01
<STATE> 10
<MEAN> 39
 -1.706858e+01 -2.511809e+00 9.827535e+00 -1.162721e+01 2.982037e+00 -3.332270e+00 -8.248896e+00 5.391707e+00 2.013799e+00 -1.542011e+00 3.245729e+00 -1.820739e+00 6.678329e+01 1.083518e+00 -7.547755e-01 2.242787e-02 1.415599e-01 -5.655380e-01 7.722176e-01 -2.943721e-01 -6.459703e-01 9.621515e-01 -7.363164e-01 1.331434e-01 -1.431569e-02 -6.052951e-01 1.150500e-01 2.981876e-03 -2.579996e-01 2.359098e-01 -1.462923e-01 -8.487691e-02 2.147875e-01 -1.610618e-01 1.317823e-01 1.248693e-01 -7.402072e-02 1.965886e-01 -1.244261e-01
<VARIANCE> 39
 1.187202e+01 1.346294e+01 9.615488e+00 8.695345e+00 1.207431e+01 2.057530e+01 1.473050e+01 1.472747e+01 2.898579e+01 2.755556e+01 1.375205e+01 1.792682e+01 3.566768e+00 4.905354e-01 1.312508e+00 1.733563e+00 1.460632e+00 1.626219e+00 1.488766e+00 1.767857e+00 1.615632e+00 3.984983e+00 2.498211e+00 1.770751e+00 2.539097e+00 4.142482e-01 5.833849e-02 3.294719e-01 3.589321e-01 2.840205e-01 2.671556e-01 3.682193e-01 3.913480e-01 3.136183e-01 8.360384e-01 5.719268e-01 3.636615e-01 4.857553e-01 5.618335e-02
<GCONST> 9.487457e+01
<STATE> 11
<MEAN> 39
 -8.947633e+00 -3.351645e+00 6.603420e+00 -5.958539e+00 -1.069925e-01 -2.143352e+00 -5.274741e+00 4.742455e-02 6.731133e+00 -2.333443e+00 2.456793e+00 -5.321214e-01 6.248815e+01 1.100595e+00 5.907897e-01 -1.074811e+00 1.279486e+00 -3.234015e-01 -5.775957e-01 1.249257e+00 -9.740343e-01 -7.526447e-02 6.263260e-01 -2.440127e-01 9.509300e-02 -6.660357e-01 -1.749071e-01 2.309211e-01 2.127600e-02 -2.602967e-02 1.697868e-01 -2.030272e-01 1.329831e-01 8.571023e-02 -4.112090e-01 1.306456e-01 -1.571599e-02 -1.422463e-01 1.063709e-01
<VARIANCE> 39
 2.051498e+01 2.618372e+01 1.498847e+01 3.263647e+01 1.704422e+01 2.169284e+01 3.279163e+01 1.603786e+01 2.269757e+01 2.038545e+01 1.701640e+01 1.135962e+01 4.203588e+00 5.687431e-01 1.634361e+00 2.254366e+00 1.477347e+00 1.374157e+00 2.812880e+00 2.793226e+00 1.352217e+00 3.852813e+00 2.465048e+00 1.718046e+00 1.477194e+00 4.445579e-01 1.008813e-01 3.207920e-01 3.581735e-01 3.712547e-01 2.728463e-01 5.617241e-01 5.702708e-01 2.824747e-01 7.312697e-01 4.789939e-01 3.639789e-01 2.912250e-01 5.068342e-02
<GCONST> 9.992881e+01
<TRANSP> 12
 0.000000e+00 1.000000e+00 0.000000e+00 0.000000e+00 0.000000e+00 0.000000e+00 0.000000e+00 0.000000e+00 0.000000e+00 0.000000e+00 0.000000e+00 0.000000e+00
 0.000000e+00 9.103031e-01 8.969691e-02 0.000000e+00 0.000000e+00 0.000000e+00 0.000000e+00 0.000000e+00 0.000000e+00 0.000000e+00 0.000000e+00 0.000000e+00
 0.000000e+00 0.000000e+00 6.722486e-01 3.277514e-01 0.000000e+00 0.000000e+00 0.000000e+00 0.000000e+00 0.000000e+00 0.000000e+00 0.000000e+00 0.000000e+00
 0.000000e+00 0.000000e+00 0.000000e+00 7.299047e-01 2.700953e-01 0.000000e+00 0.000000e+00 0.000000e+00 0.000000e+00 0.000000e+00 0.000000e+00 0.000000e+00
 0.000000e+00 0.000000e+00 0.000000e+00 0.000000e+00 7.648210e-01 2.351790e-01 0.000000e+00 0.000000e+00 0.000000e+00 0.000000e+00 0.000000e+00 0.000000e+00
 0.000000e+00 0.000000e+00 0.000000e+00 0.000000e+00 0.000000e+00 4.424156e-01 5.575844e-01 0.000000e+00 0.000000e+00 0.000000e+00 0.000000e+00 0.000000e+00
 0.000000e+00 0.000000e+00 0.000000e+00 0.000000e+00 0.000000e+00 0.000000e+00 3.999273e-01 6.000727e-01 0.000000e+00 0.000000e+00 0.000000e+00 0.000000e+00
 0.000000e+00 0.000000e+00 0.000000e+00 0.000000e+00 0.000000e+00 0.000000e+00 0.000000e+00 5.931577e-01 4.068422e-01 0.000000e+00 0.000000e+00 0.000000e+00
 0.000000e+00 0.000000e+00 0.000000e+00 0.000000e+00 0.000000e+00 0.000000e+00 0.000000e+00 0.000000e+00 8.211500e-01 1.788500e-01 0.000000e+00 0.000000e+00
 0.000000e+00 0.000000e+00 0.000000e+00 0.000000e+00 0.000000e+00 0.000000e+00 0.000000e+00 0.000000e+00 0.000000e+00 7.916264e-01 2.083736e-01 0.000000e+00
 0.000000e+00 0.000000e+00 0.000000e+00 0.000000e+00 0.000000e+00 0.000000e+00 0.000000e+00 0.000000e+00 0.000000e+00 0.000000e+00 8.003297e-01 1.996703e-01
 0.000000e+00 0.000000e+00 0.000000e+00 0.000000e+00 0.000000e+00 0.000000e+00 0.000000e+00 0.000000e+00 0.000000e+00 0.000000e+00 0.000000e+00 0.000000e+00
<ENDHMM>
~h "TWO"
<BEGINHMM>
<NUMSTATES> 12
<STATE> 2
<MEAN> 39
 -6.569289e+00 -1.000559e+01 1.117015e+01 -2.777232e+00 -7.738610e+00 9.909050e-01 -7.094825e+00 -6.047301e+00 6.571244e+00 -2.912610e+00 9.562278e-01 -1.708697e+00 6.774539e+01 1.760098e+00 -5.879110e-01 1.565003e+00 -3.621337e-02 -1.450310e+00 -1.170408e-01 -2.434065e+00 -1.290282e+00 -1.373643e-01 -6.388292e-01 2.520848e-01 -4.481807e-01 1.891139e+00 1.104667e-01 2.951159e-01 -1.505120e-01 -1.943762e-02 1.056868e-01 -1.425122e-01 -3.043330e-02 -3.843304e-02 -2.013463e-01 4.054064e-03 3.061397e-01 6.209566e-02 -1.063044e-01
<VARIANCE> 39
 4.551213e+01 4.080096e+01 3.377870e+01 2.283009e+01 3.886734e+01 3.113726e+01 7.199863e+01 4.226430e+01 2.521897e+01 2.218739e+01 2.426790e+01 2.395188e+01 2.830163e+01 3.393741e+00 8.328584e+00 1.830408e+00 3.294652e+00 4.041300e+00 4.531104e+00 3.762941e+00 3.866480e+00 3.980550e+00 2.396876e+00 4.448289e+00 3.266055e+00 1.884490e+00 7.194781e-01 1.700271e+00 4.661127e-01 5.997069e-01 8.393420e-01 7.234786e-01 1.030580e+00 7.483670e-01 6.797646e-01 4.673290e-01 7.268332e-01 8.275868e-01 4.692467e-01
<GCONST> 1.290518e+02
<STATE> 3
<MEAN> 39
 3.198649e+00 -1.053896e+01 1.655918e+01 -2.289469e+00 -1.379517e+01 -1.462472e+00 -1.818021e+01 -1.291704e+01 3.563699e+00 -5.154251e+00 6.243513e+00 -3.201632e+00 7.541390e+01 4.222341e-01 -1.757394e-01 1.798575e-01 -5.847471e-01 -5.452752e-01 4.897668e-01 -3.451421e-01 -5.382154e-01 -1.191972e+00 -3.089179e-01 1.718798e+00 1.111904e+00 5.653956e-01 -5.745971e-01 3.935070e-01 -4.867480e-01 3.529042e-03 5.954965e-01 9.902852e-02 9.895968e-01 3.986694e-01 -7.847722e-02 -2.204602e-02 -5.248442e-01 2.323615e-01 -6.903083e-01
<VARIANCE> 39
 2.961444e+00 2.025696e+01 3.829337e+01 2.509399e+01 3.209172e+01 4.256627e+01 2.216552e+01 4.695457e+01 1.275581e+01 2.860577e+01 3.009392e+01 1.183142e+01 4.609791e+00 8.845947e-01 1.662802e+00 1.185817e+00 8.059282e-01 1.274327e+00 1.266140e+00 1.921658e+00 2.073427e+00 1.571374e+00 1.246072e+00 1.605110e+00 1.232582e+00 7.631035e-01 1.729115e-01 4.296255e-01 1.651519e-01 1.571808e-01 3.667117e-01 2.716230e-01 4.509532e-01 6.109955e-01 2.405090e-01 3.725331e-01 3.824373e-01 3.228525e-01 6.884912e-02
<GCONST> 9.636810e+01
<STATE> 4
<MEAN> 39
 2.889770e+00 -9.940388e+00 1.716988e+01 -2.170747e+00 -1.321147e+01 -1.713635e+00 -1.804374e+01 -1.306682e+01 1.134429e+00 -6.748586e+00 7.193176e+00 -1.445944e+00 7.503966e+01 9.712163e-02 9.341466e-01 -6.902921e-01 -1.683700e-01 7.210941e-01 1.704629e-01 7.193873e-01 -5.216672e-01 -1.301794e+00 -4.126729e-01 5.008100e-01 8.541724e-01 -5.224597e-01 -7.591444e-02 4.432027e-01 -3.781857e-01 1.192361e-01 3.698460e-01 -1.225109e-01 4.805041e-01 5.901058e-02 4.590498e-02 5.644821e-02 -4.857048e-01 -1.537458e-01 -3.875102e-01
<VARIANCE> 39
 3.818838e+00 1.939240e+01 4.070877e+01 3.528024e+01 2.789661e+01 5.526087e+01 2.111878e+01 4.652356e+01 1.728689e+01 2.782039e+01 2.634281e+01 1.461478e+01 3.423130e+00 1.175245e-01 6.351668e-01 1.048550e+00 6.352593e-01 1.373473e+00 6.280716e-01 2.041484e+00 1.381196e+00 1.206734e+00 1.629132e+00 9.621634e-01 1.142948e+00 2.100559e-01 8.188296e-02 1.261599e-01 1.895433e-01 1.167608e-01 2.332239e-01 2.146524e-01 2.278116e-01 4.127616e-01 1.822617e-01 2.302679e-01 2.523023e-01 1.413510e-01 5.286403e-02
<GCONST> 8.475365e+01
<STATE> 5
<MEAN> 39
 3.145461e+00 -7.442368e+00 1.522368e+01 -1.855013e+00 -1.138020e+01 -1.839539e+00 -1.636704e+01 -1.437154e+01 -1.201325e+00 -6.805717e+00 7.356042e+00 -5.938814e-01 7.345135e+01 1.809456e-01 1.402480e+00 -1.142050e+00 -1.300656e-01 8.917285e-01 9.600477e-02 1.198589e+00 -6.235267e-01 -9.877245e-01 1.016134e-01 -2.308089e-03 2.497438e-01 -8.124322e-01 -1.521800e-02 1.244509e-01 -5.690781e-02 8.488173e-03 -3.797090e-02 -7.970493e-02 1.808322e-01 1.294161e-01 1.925021e-01 5.637239e-02 -2.773497e-01 -2.145813e-01 -7.953924e-02
<VARIANCE> 39
 3.423677e+00 1.927300e+01 2.994617e+01 3.959912e+01 2.262899e+01 4.484074e+01 2.524292e+01 3.619674e+01 2.086497e+01 2.120793e+01 2.072493e+01 1.342212e+01 3.480772e+00 5.929963e-02 5.267055e-01 8.287426e-01 5.991720e-01 1.552017e+00 8.380295e-01 1.459110e+00 1.977372e+00 1.123373e+00 1.998666e+00 1.110743e+00 1.020616e+00 1.122928e-01 1.629448e-02 8.253196e-02 1.433243e-01 1.311331e-01 1.959793e-01 1.550819e-01 2.091068e-01 2.753591e-01 2.224701e-01 1.857408e-01 1.567494e-01 1.815524e-01 2.150701e-02
<GCONST> 7.803749e+01
<STATE> 6
<MEAN> 39
 3.968302e+00 -2.722416e+00 1.129560e+01 -4.098207e+00 -9.927343e+00 -3.186406e-01 -1.134661e+01 -1.532572e+01 -3.509586e+00 -7.343979e+00 6.734230e+00 -4.285021e-02 7.118718e+01 5.529888e-02 1.276689e+00 -8.383273e-01 -2.240094e-01 4.099709e-01 -2.098565e-01 1.225239e+00 2.206199e-01 -4.402869e-01 -3.109296e-01 -6.049067e-01 3.820231e-02 -7.109431e-01 -5.564902e-02 -6.557894e-02 8.036291e-02 -5.410189e-02 -2.311211e-02 -5.125762e-02 -1.318038e-01 1.432782e-01 1.507506e-01 4.560698e-03 -5.095624e-02 -6.987979e-02 3.001565e-02
<VARIANCE> 39
 3.195493e+00 1.298676e+01 1.669245e+01 3.969307e+01 1.637718e+01 3.378175e+01 2.228474e+01 3.258212e+01 2.299662e+01 2.968007e+01 1.427248e+01 1.654044e+01 3.188356e+00 5.269130e-02 4.341901e-01 7.357689e-01 5.236002e-01 9.029744e-01 7.983615e-01 9.954274e-01 1.400904e+00 8.989141e-01 1.400149e+00 6.986895e-01 8.721260e-01 1.090000e-01 1.102387e-02 4.202695e-02 1.056000e-01 8.113568e-02 1.584025e-01 1.245265e-01 1.919074e-01 2.516406e-01 2.232878e-01 1.523141e-01 1.299551e-01 1.699663e-01 7.918430e-03
<GCONST> 6.931843e+01
<STATE> 7
<MEAN> 39
 4.067422e+00 2.600466e+00 7.911736e+00 -6.595779e+00 -8.380186e+00 -7.379274e-01 -6.246089e+00 -1.307475e+01 -5.159863e+00 -8.980846e+00 4.482630e+00 9.370196e-02 6.846170e+01 -2.222013e-01 8.050723e-01 -4.922746e-01 -6.385341e-02 4.568557e-01 -3.045931e-01 8.738257e-01 6.432199e-01 1.130929e-01 3.002941e-01 -2.694694e-01 -2.603323e-02 -6.035873e-01 -9.145711e-02 -9.094577e-02 6.187047e-02 1.361581e-01 6.560341e-02 5.223203e-03 -3.530128e-02 1.122461e-02 1.135682e-01 1.867623e-01 7.659762e-02 1.075320e-02 -1.960101e-02
<VARIANCE> 39
 3.028008e+00 1.198462e+01 1.055524e+01 2.720920e+01 1.231315e+01 2.426596e+01 2.307483e+01 2.555007e+01 1.667875e+01 3.836553e+01 1.235995e+01 1.462671e+01 3.732322e+00 1.164312e-01 4.731680e-01 4.069162e-01 8.682895e-01 7.190624e-01 6.352232e-01 9.405434e-01 9.184428e-01 1.276776e+00 1.894414e+00 9.214682e-01 9.325667e-01 1.181418e-01 1.777494e-02 6.455925e-02 7.727504e-02 1.330003e-01 1.545114e-01 1.402359e-01 1.843492e-01 1.437369e-01 2.384599e-01 2.784376e-01 1.482825e-01 1.854553e-01 1.586552e-02
<GCONST> 7.045049e+01
<STATE> 8
<MEAN> 39
 2.142787e+00 5.447788e+00 6.086009e+00 -3.806585e+00 -4.546553e+00 -2.898333e+00 -3.493359e+00 -1.109556e+01 -2.919335e+00 -3.589048e+00 4.434676e+00 -4.544351e-02 6.537280e+01 -6.636102e-01 4.735239e-01 -1.347241e-01 6.581567e-01 9.184151e-01 1.098426e-01 9.640030e-01 6.015883e-01 3.346474e-01 8.559363e-01 -1.466767e-02 -2.426131e-02 -7.201211e-01 -9.632116e-02 -1.505245e-01 1.113926e-01 1.681487e-01 1.645425e-01 1.806248e-01 2.639518e-02 2.287542e-02 -3.070119e-02 -1.278518e-01 -2.573054e-02 -1.297922e-02 1.631579e-03
<VARIANCE> 39
 5.118883e+00 7.760251e+00 7.295522e+00 2.009063e+01 1.811189e+01 2.213779e+01 3.599369e+01 1.811318e+01 1.600366e+01 2.613792e+01 8.846000e+00 1.213644e+01 3.644567e+00 2.567734e-01 5.182597e-01 5.644243e-01 1.185246e+00 1.082703e+00 1.459397e+00 1.433929e+00 1.019426e+00 9.770095e-01 1.920530e+00 1.010551e+00 1.147682e+00 1.603957e-01 2.479975e-02 7.793142e-02 8.483071e-02 1.516280e-01 1.547418e-01 2.312863e-01 3.243994e-01 1.792883e-01 2.123232e-01 3.941171e-01 1.907526e-01 1.828532e-01 1.998856e-02
<GCONST> 7.566581e+01
<STATE> 9
<MEAN> 39
 -9.257381e-01 6.119130e+00 6.540652e+00 -4.904997e-02 -1.135330e-01 -1.613955e+00 4.128190e-01 -8.517202e+00 -1.572808e+00 -1.170428e+00 4.088434e+00 -3.331348e-01 6.266466e+01 -8.553995e-01 2.945987e-02 1.309364e-01 9.429977e-01 1.510826e+00 6.162211e-01 9.205014e-01 7.660516e-01 1.738741e-01 -3.816573e-02 -3.498892e-01 6.398898e-02 -6.724341e-01 4.132863e-02 -1.138316e-01 1.658198e-03 -1.391703e-01 -4.378221e-02 -7.305611e-02 -2.049634e-01 5.889605e-02 3.139265e-02 -2.320112e-01 -4.657234e-02 5.779219e-02 7.365889e-02
<VARIANCE> 39
 2.940495e+00 5.740739e+00 6.543498e+00 1.769660e+01 2.197114e+01 1.512253e+01 2.420109e+01 1.666166e+01 1.604998e+01 1.966608e+01 1.192443e+01 1.065062e+01 1.865894e+00 2.323922e-01 4.165386e-01 6.789553e-01 9.054971e-01 8.142328e-01 1.487303e+00 2.037618e+00 1.412095e+00 1.014811e+00 1.786304e+00 1.101426e+00 1.026133e+00 1.189144e-01 3.319662e-02 8.715730e-02 1.381578e-01 2.017300e-01 2.110458e-01 3.408042e-01 3.296443e-01 2.680664e-01 2.298434e-01 4.058195e-01 2.736619e-01 2.299144e-01 2.001283e-02
<GCONST> 7.576442e+01
<STATE> 10
<MEAN> 39
 -2.920644e+00 5.759363e+00 6.830039e+00 1.538511e+00 2.979072e+00 -9.576188e-01 1.852353e+00 -6.103473e+00 -1.019516e+00 -2.258193e+00 3.087255e+00 -3.582685e-02 6.124573e+01 -6.736200e-01 -2.089706e-01 -3.823268e-02 4.336244e-01 9.909991e-01 2.003623e-01 2.793584e-01 5.794956e-01 3.187391e-01 -1.222044e-01 -5.680833e-02 2.724335e-01 -4.850913e-01 5.757097e-02 -1.006678e-01 -1.130249e-01 -1.951532e-01 -2.807201e-01 -3.834515e-02 -9.762298e-02 -6.855584e-02 4.671814e-02 8.778556e-02 1.377243e-01 5.316481e-02 7.704494e-02
<VARIANCE> 39
 2.322361e+00 3.368709e+00 6.704895e+00 1.349616e+01 1.627915e+01 1.003699e+01 1.019102e+01 1.556000e+01 1.672003e+01 1.308010e+01 1.092872e+01 7.248364e+00 1.132980e+00 1.320520e-01 4.507751e-01 5.846677e-01 7.920416e-01 1.045899e+00 1.081561e+00 1.549002e+00 1.345695e+00 1.416531e+00 1.336716e+00 1.178503e+00 1.041756e+00 4.566910e-02 2.631168e-02 5.641673e-02 9.866583e-02 8.572663e-02 1.339019e-01 1.713143e-01 3.189887e-01 2.974788e-01 2.922948e-01 2.268980e-01 2.451532e-01 2.034833e-01 9.098436e-03
<GCONST> 6.548432e+01
<STATE> 11
<MEAN> 39
 -8.986790e+00 1.203210e+00 2.504883e+00 -5.027702e-01 3.127576e+00 -1.300820e+00 2.997066e+00 -2.440429e+00 2.559969e+00 -8.949485e-01 3.706942e+00 6.540346e-01 5.780014e+01 -2.618237e-01 -2.216313e-01 -1.856651e-01 -1.042822e-01 -6.051773e-02 -4.719665e-02 3.169334e-02 1.562538e-01 1.975475e-01 7.827190e-02 -3.635567e-03 -1.546635e-02 -1.363688e-01 2.398269e-02 8.869527e-03 6.378463e-03 -7.295388e-03 -2.359353e-02 -1.598513e-03 -7.428020e-03 -8.105543e-03 6.273470e-03 -6.058356e-04 -1.289549e-03 -1.479898e-02 1.701469e-02
<VARIANCE> 39
 5.658187e+00 5.586227e+00 6.710839e+00 7.467873e+00 8.697134e+00 9.033003e+00 1.059923e+01 1.301975e+01 1.255101e+01 1.062235e+01 1.070468e+01 9.693096e+00 1.626327e+00 1.451674e-01 2.284092e-01 3.866514e-01 4.626733e-01 6.749055e-01 9.045520e-01 1.134993e+00 1.141461e+00 1.312876e+00 1.137468e+00 1.000522e+00 9.859064e-01 4.088882e-02 1.989163e-02 4.146130e-02 6.973993e-02 9.050032e-02 1.338396e-01 1.885422e-01 2.352072e-01 2.256281e-01 2.501490e-01 2.267936e-01 1.883441e-01 2.039196e-01 5.306501e-03
<GCONST> 6.003639e+01
<TRANSP> 12
 0.000000e+00 1.000000e+00 0.000000e+00 0.000000e+00 0.000000e+00 0.000000e+00 0.000000e+00 0.000000e+00 0.000000e+00 0.000000e+00 0.000000e+00 0.000000e+00
 0.000000e+00 8.675737e-01 1.324263e-01 0.000000e+00 0.000000e+00 0.000000e+00 0.000000e+00 0.000000e+00 0.000000e+00 0.000000e+00 0.000000e+00 0.000000e+00
 0.000000e+00 0.000000e+00 3.826789e-01 6.173211e-01 0.000000e+00 0.000000e+00 0.000000e+00 0.000000e+00 0.000000e+00 0.000000e+00 0.000000e+00 0.000000e+00
 0.000000e+00 0.000000e+00 0.000000e+00 4.375418e-01 5.624581e-01 0.000000e+00 0.000000e+00 0.000000e+00 0.000000e+00 0.000000e+00 0.000000e+00 0.000000e+00
 0.000000e+00 0.000000e+00 0.000000e+00 0.000000e+00 5.951570e-01 4.048431e-01 0.000000e+00 0.000000e+00 0.000000e+00 0.000000e+00 0.000000e+00 0.000000e+00
 0.000000e+00 0.000000e+00 0.000000e+00 0.000000e+00 0.000000e+00 6.774256e-01 3.225743e-01 0.000000e+00 0.000000e+00 0.000000e+00 0.000000e+00 0.000000e+00
 0.000000e+00 0.000000e+00 0.000000e+00 0.000000e+00 0.000000e+00 0.000000e+00 8.361290e-01 1.638710e-01 0.000000e+00 0.000000e+00 0.000000e+00 0.000000e+00
 0.000000e+00 0.000000e+00 0.000000e+00 0.000000e+00 0.000000e+00 0.000000e+00 0.000000e+00 7.412761e-01 2.587239e-01 0.000000e+00 0.000000e+00 0.000000e+00
 0.000000e+00 0.000000e+00 0.000000e+00 0.000000e+00 0.000000e+00 0.000000e+00 0.000000e+00 0.000000e+00 5.772907e-01 4.227093e-01 0.000000e+00 0.000000e+00
 0.000000e+00 0.000000e+00 0.000000e+00 0.000000e+00 0.000000e+00 0.000000e+00 0.000000e+00 0.000000e+00 0.000000e+00 6.293886e-01 3.706115e-01 0.000000e+00
 0.000000e+00 0.000000e+00 0.000000e+00 0.000000e+00 0.000000e+00 0.000000e+00 0.000000e+00 0.000000e+00 0.000000e+00 0.000000e+00 9.632881e-01 3.671198e-02
 0.000000e+00 0.000000e+00 0.000000e+00 0.000000e+00 0.000000e+00 0.000000e+00 0.000000e+00 0.000000e+00 0.000000e+00 0.000000e+00 0.000000e+00 0.000000e+00
<ENDHMM>
~h "NINE"
<BEGINHMM>
<NUMSTATES> 12
<STATE> 2
<MEAN> 39
 4.223829e+00 -2.881136e-01 1.365522e+01 -5.131136e+00 -8.067630e+00 -1.941393e+00 -5.309474e+00 -7.139648e+00 2.536316e+00 8.955165e-01 -5.376081e+00 -9.993748e+00 7.151506e+01 4.147662e-01 -1.441676e+00 -6.163332e-01 -1.788310e+00 1.417614e-01 1.137915e+00 -9.392644e-01 1.000842e+00 1.605756e-01 -5.235465e-02 3.895651e-01 -2.813358e-01 1.351329e+00 -8.245640e-02 -1.866736e-01 -4.734375e-01 -1.358485e-01 2.147453e-01 2.656415e-01 1.458233e-01 1.813551e-01 6.760336e-02 -1.668722e-01 8.951112e-02 2.131530e-01 -1.039038e-01
<VARIANCE> 39
 2.916915e+00 2.701244e+01 2.570380e+01 4.923111e+01 3.174485e+01 2.695354e+01 2.560759e+01 3.759842e+01 1.484011e+01 1.009951e+01 1.774836e+01 9.567448e+00 1.921817e+01 6.879237e-01 1.452478e+00 4.790731e+00 3.360852e+00 4.345945e+00 3.206047e+00 2.282895e+00 4.557883e+00 1.437946e+00 1.525226e+00 1.628429e+00 1.214523e+00 8.089092e-01 1.943182e-01 3.411786e-01 5.286759e-01 7.931057e-01 8.624851e-01 4.705291e-01 6.106579e-01 1.086264e+00 2.682088e-01 2.576452e-01 4.152656e-01 2.257474e-01 1.951284e-01
<GCONST> 1.073506e+02
<STATE> 3
<MEAN> 39
 7.313910e+00 -9.535190e+00 4.133449e+00 -1.578773e+01 -5.392560e+00 8.918728e+00 -7.640948e+00 -1.482542e+00 4.023478e+00 -1.715182e+00 -3.792480e+00 -9.404799e+00 7.789740e+01 4.866472e-01 -6.708207e-01 -7.765853e-01 -6.863011e-02 -8.947021e-01 1.185168e+00 1.415492e+00 -5.529491e-01 1.695886e-01 -4.781162e-01 -2.759627e-01 4.211803e-01 1.626146e-01 -2.282387e-01 3.090042e-01 5.982493e-01 6.838140e-01 -1.284159e-01 -8.406655e-01 2.702104e-01 -2.181398e-01 -1.623159e-01 3.028903e-01 -5.838944e-02 -6.938194e-02 -2.148725e-01
<VARIANCE> 39
 2.062432e+00 6.144519e+00 1.015271e+01 1.466321e+01 1.215600e+01 2.185593e+01 2.633030e+01 1.536676e+01 1.204759e+01 8.785063e+00 1.491107e+01 1.148242e+01 2.456100e+00 2.208133e-01 2.821931e-01 9.790328e-01 1.151693e+00 6.431160e-01 2.769118e+00 1.685931e+00 1.065387e+00 1.320273e+00 9.025270e-01 9.149327e-01 1.059233e+00 9.791294e-02 2.512258e-02 7.595623e-02 1.349639e-01 2.401189e-01 2.115484e-01 2.388720e-01 4.690551e-01 3.923785e-01 2.802799e-01 1.534215e-01 1.749379e-01 1.835295e-01 5.518421e-02
<GCONST> 7.398486e+01
<STATE> 4
<MEAN> 39
 7.345885e+00 -1.089107e+01 4.775393e+00 -1.409494e+01 -7.406924e+00 7.374385e+00 -4.093059e+00 -1.452956e+00 5.762850e+00 -1.183761e+00 -5.007101e+00 -9.150595e+00 7.809722e+01 -7.626310e-02 -4.217570e-01 5.228552e-01 7.647272e-01 -6.249688e-01 -8.908420e-01 5.158502e-01 2.809821e-01 8.054113e-01 2.428983e-01 -5.648354e-01 1.033729e-01 3.548465e-02 -1.246586e-01 7.650405e-02 3.341095e-01 1.646223e-01 -5.825871e-02 -4.582245e-01 -1.813546e-01 2.614163e-01 5.728829e-02 3.068670e-02 7.195823e-03 1.646832e-02 -4.376929e-02
<VARIANCE> 39
 1.639255e+00 6.551552e+00 9.329845e+00 1.685052e+01 1.278984e+01 2.068320e+01 2.804167e+01 1.625959e+01 2.509927e+01 1.342421e+01 1.581084e+01 1.282116e+01 1.592505e+00 1.086260e-01 1.599771e-01 8.060529e-01 7.417232e-01 5.723636e-01 1.785245e+00 1.985007e+00 1.494548e+00 1.747681e+00 1.245833e+00 8.371854e-01 1.009488e+00 3.265593e-02 1.110966e-02 4.324977e-02 6.108053e-02 1.208721e-01 1.526618e-01 1.980385e-01 3.351757e-01 1.936068e-01 4.731201e-01 2.960270e-01 2.245926e-01 2.353173e-01 6.780087e-03
<GCONST> 6.745334e+01
<STATE> 5
<MEAN> 39
 6.568081e+00 -1.228321e+01 8.079639e+00 -1.102134e+01 -1.018236e+01 2.149617e+00 -3.097503e+00 1.366436e+00 8.575460e+00 -1.135963e+00 -6.873021e+00 -8.388330e+00 7.804649e+01 -3.577897e-01 -9.787440e-02 1.387206e+00 9.227946e-01 -1.119215e+00 -1.819828e+00 2.205810e-01 1.138889e+00 3.268743e-01 -2.758341e-01 8.691013e-03 6.338226e-01 -1.320885e-01 -6.824696e-02 1.785999e-01 2.350252e-01 -2.732836e-02 -1.988437e-01 -1.126156e-01 9.523428e-02 -3.486864e-02 -4.487490e-01 -1.212538e-01 3.754087e-01 2.076538e-01 -7.489128e-02
<VARIANCE> 39
 1.944453e+00 4.380520e+00 1.937821e+01 1.749182e+01 1.507197e+01 3.201902e+01 2.444602e+01 3.308788e+01 2.705242e+01 1.530367e+01 1.176151e+01 9.646710e+00 1.095030e+00 1.029944e-01 3.426228e-01 9.676383e-01 7.349528e-01 1.225258e+00 1.425762e+00 1.819657e+00 1.684065e+00 3.529042e+00 1.334313e+00 1.813857e+00 1.625859e+00 6.357028e-02 1.017027e-02 4.479379e-02 7.260637e-02 1.212089e-01 1.516986e-01 2.252240e-01 3.677414e-01 4.806686e-01 6.411314e-01 2.447489e-01 3.231587e-01 2.690576e-01 5.819233e-03
<GCONST> 7.425868e+01
<STATE> 6
<MEAN> 39
 4.735202e+00 -1.161131e+01 1.515177e+01 -6.889123e+00 -1.636321e+01 -6.164994e+00 -1.253346e+00 5.537506e+00 6.809435e+00 -2.919441e+00 -4.476757e+00 -3.862096e+00 7.700079e+01 -5.584812e-01 9.288231e-01 2.186287e+00 5.426674e-01 -2.002829e+00 -1.564606e+00 1.147175e+00 -1.813331e-01 -2.283527e+00 -4.712296e-01 2.080441e+00 1.283095e+00 -5.408660e-01 2.058262e-02 2.441957e-01 -8.973952e-02 -1.983465e-01 2.085242e-01 4.860518e-01 -5.716341e-02 -6.302497e-01 -2.269498e-01 1.503905e-01 2.340833e-01 -3.379139e-01 -1.058421e-01
<VARIANCE> 39
 1.904360e+00 4.771709e+00 2.321288e+01 1.183944e+01 1.675887e+01 1.625269e+01 2.028798e+01 2.067203e+01 1.609734e+01 1.393466e+01 1.858338e+01 1.138655e+01 1.415566e+00 7.970245e-02 2.779440e-01 4.474397e-01 4.278095e-01 9.124641e-01 1.428462e+00 9.852116e-01 2.968479e+00 1.671895e+00 1.376151e+00 1.637762e+00 1.106200e+00 5.592508e-02 1.451397e-02 3.115686e-02 1.063441e-01 6.772207e-02 2.342837e-01 1.394171e-01 1.768949e-01 2.951555e-01 4.538454e-01 2.171487e-01 4.158258e-01 2.538885e-01 6.548288e-03
<GCONST> 6.807747e+01
<STATE> 7
<MEAN> 39
 3.380696e+00 -8.405925e+00 2.038812e+01 -6.363878e+00 -2.034875e+01 -8.277089e+00 5.635931e-01 3.386909e+00 1.230755e+00 -3.555455e+00 1.016083e+00 -2.550321e+00 7.535429e+01 -4.306192e-01 1.276237e+00 1.501258e+00 1.671041e-01 -8.230979e-01 -3.368483e-01 3.494753e-01 -1.190307e+00 -1.730991e+00 -1.587479e-01 1.503659e+00 4.067059e-02 -7.155310e-01 5.932090e-02 2.602747e-02 -3.194371e-01 -1.087260e-01 5.470720e-01 3.514310e-01 -4.277543e-01 -1.401308e-01 4.021043e-01 5.023196e-02 -4.142725e-01 -3.919010e-01 -2.938293e-02
<VARIANCE> 39
 1.116668e+00 6.738703e+00 1.224054e+01 1.243622e+01 1.035700e+01 1.349767e+01 1.892211e+01 1.392155e+01 1.323021e+01 8.817060e+00 1.022706e+01 9.401174e+00 1.862615e+00 8.381924e-02 1.571461e-01 5.973588e-01 4.503133e-01 1.103179e+00 1.052957e+00 1.357333e+00 1.379470e+00 1.283439e+00 1.065066e+00 1.441971e+00 1.040992e+00 2.780157e-02 1.045050e-02 3.750234e-02 4.938682e-02 6.898968e-02 1.151616e-01 1.810555e-01 1.896298e-01 3.406249e-01 1.947759e-01 2.337863e-01 2.299544e-01 1.540865e-01 6.360581e-03
<GCONST> 5.982884e+01
<STATE> 8
<MEAN> 39
 2.311310e+00 -4.277106e+00 2.334853e+01 -6.557406e+00 -1.947657e+01 -7.983491e+00 -1.183975e+00 -4.148293e-02 -1.913663e+00 -4.258560e+00 3.204261e+00 -4.217809e+00 7.296314e+01 -2.375564e-01 9.705170e-01 3.648659e-01 1.416681e-01 6.363344e-01 8.265013e-02 -4.895562e-01 -7.378356e-01 -4.857518e-01 -2.068007e-01 2.614974e-01 -4.352620e-01 -6.409716e-01 4.677626e-02 -5.103587e-02 -3.202963e-01 5.509805e-02 3.040772e-01 6.783842e-02 -5.859378e-02 1.385839e-01 2.674429e-01 1.096772e-02 -2.549123e-01 -5.879506e-02 3.239071e-03
<VARIANCE> 39
 9.765428e-01 8.294514e+00 7.178383e+00 1.123660e+01 1.407564e+01 1.007871e+01 1.518992e+01 1.402666e+01 1.348400e+01 8.927692e+00 7.324041e+00 1.258644e+01 2.433289e+00 7.744726e-02 2.621671e-01 1.015242e+00 5.103883e-01 9.407409e-01 8.766132e-01 1.231885e+00 1.267323e+00 1.150046e+00 8.810991e-01 1.005259e+00 6.737529e-01 6.878206e-02 1.063423e-02 3.871144e-02 6.615072e-02 8.350303e-02 1.153706e-01 1.628698e-01 2.842481e-01 2.134097e-01 2.136454e-01 1.769464e-01 1.968098e-01 1.408212e-01 1.151338e-02
<GCONST> 6.022828e+01
<STATE> 9
<MEAN> 39
 1.650093e+00 -1.455473e+00 2.238604e+01 -4.855002e+00 -1.580649e+01 -7.296025e+00 -2.255625e+00 -1.643035e+00 -2.312357e+00 -5.244349e+00 2.691339e+00 -5.899785e+00 7.058807e+01 -4.725343e-02 9.123246e-01 -1.008067e+00 6.145100e-01 1.555257e+00 1.056245e-01 -1.513139e-01 -1.021251e-01 1.143105e-01 -1.581306e-01 -3.510566e-01 -3.867968e-01 -7.450889e-01 6.290229e-02 3.312360e-02 -3.650488e-01 1.646832e-01 1.833812e-01 -5.884864e-02 1.268362e-01 -1.736594e-02 9.419157e-02 1.005673e-01 -2.055297e-01 2.675100e-02 -4.909438e-02
<VARIANCE> 39
 8.717502e-01 6.328816e+00 9.679592e+00 8.895298e+00 2.468859e+01 1.300733e+01 9.408465e+00 1.175342e+01 1.289530e+01 1.418488e+01 7.892420e+00 1.045187e+01 2.886755e+00 7.881968e-02 3.237414e-01 1.328723e+00 8.168424e-01 1.174595e+00 1.149197e+00 9.753181e-01 1.184950e+00 1.138521e+00 1.332757e+00 1.220721e+00 6.664958e-01 1.145708e-01 1.135913e-02 5.787425e-02 9.529510e-02 1.056715e-01 1.849824e-01 1.958704e-01 1.932332e-01 3.246345e-01 2.342745e-01 2.970277e-01 2.121876e-01 1.096749e-01 1.880067e-02
<GCONST> 6.549071e+01
<STATE> 10
<MEAN> 39
 1.855400e+00 2.609402e+00 1.604875e+01 -1.215837e+00 -8.316208e+00 -7.384196e+00 -1.949428e+00 -2.389023e+00 -1.092286e+00 -4.727798e+00 2.890944e-03 -6.917229e+00 6.721980e+01 1.236376e-01 1.060653e+00 -1.867834e+00 1.056247e+00 1.664470e+00 -5.956667e-02 3.577969e-01 -9.196900e-01 2.687131e-01 5.468625e-01 -1.196051e+00 -3.001383e-01 -8.514994e-01 -2.840227e-03 -1.286377e-01 1.279180e-01 -9.970897e-02 -2.755836e-01 6.912556e-02 6.072451e-02 -2.543391e-01 -2.977394e-02 1.345192e-01 -1.197115e-01 4.689859e-02 1.033779e-01
<VARIANCE> 39
