~o
<STREAMINFO> 1 39
<VECSIZE> 39<NULLD><MFCC_D_A_0><DIAGC>
~v "varFloor1"
<VARIANCE> 39
 4.212869e-01 2.792749e-01 5.652618e-01 3.201803e-01 5.349968e-01 2.984013e-01 3.884946e-01 3.061316e-01 2.457366e-01 2.251308e-01 2.008276e-01 2.060557e-01 4.219971e-01 1.010767e-02 1.121628e-02 1.395409e-02 1.439542e-02 1.810081e-02 1.614172e-02 1.911339e-02 1.873454e-02 1.709788e-02 1.609177e-02 1.512661e-02 1.310961e-02 6.930705e-03 1.225248e-03 1.686406e-03 1.897202e-03 2.236560e-03 2.848979e-03 2.748586e-03 3.343082e-03 3.388935e-03 3.203923e-03 3.006778e-03 2.851899e-03 2.447462e-03 8.023740e-04
~h "ZERO"
<BEGINHMM>
<NUMSTATES> 12
<STATE> 2
<MEAN> 39
 -5.833845e+00 4.059223e+00 1.834957e+01 -5.217933e+00 -8.766169e+00 -9.416449e+00 -8.507461e+00 3.237069e+00 -8.530235e-01 -3.604181e+00 8.989131e-01 -3.639176e+00 7.603324e+01 4.757163e-01 -7.573876e-01 5.357491e-01 3.870410e-01 -1.375625e+00 -5.845973e-01 4.193604e-03 -3.189233e-01 -3.963779e-01 -4.091167e-01 2.295359e-01 1.140217e-01 5.806912e-01 6.912084e-02 -1.586262e-01 -1.216259e-01 2.985095e-02 4.473662e-02 6.843806e-02 1.001808e-01 -5.589470e-02 -3.004095e-02 -1.109505e-02 1.276289e-01 -2.903074e-02 -1.378911e-01
<VARIANCE> 39
 2.489865e+01 4.256412e+01 1.353540e+01 1.467104e+01 7.235403e+01 2.299812e+01 1.985946e+01 1.898175e+01 1.800256e+01 1.889795e+01 1.008705e+01 8.718249e+00 1.051736e+01 2.221000e+00 2.871097e+00 9.624668e-01 1.214439e+00 2.773940e+00 1.688613e+00 1.297618e+00 1.304129e+00 1.068329e+00 1.434031e+00 9.637423e-01 9.123687e-01 4.588532e-01 3.047152e-01 3.847732e-01 2.566663e-01 2.577726e-01 5.396539e-01 3.671966e-01 2.829809e-01 2.591905e-01 1.991565e-01 2.681603e-01 1.837109e-01 1.827698e-01 6.346012e-02
<GCONST> 9.536900e+01
<STATE> 3
<MEAN> 39
 3.233195e+00 -4.976838e+00 2.098050e+01 -2.615727e+00 -1.873181e+01 -1.247693e+01 -1.084718e+01 -1.592198e+00 -4.409523e+00 -7.577334e+00 5.992212e+00 -4.992849e+00 7.749010e+01 2.737457e-01 8.948370e-02 -4.385506e-01 -2.069670e-01 4.204177e-01 7.416045e-01 -3.897915e-01 -9.325589e-01 7.103808e-01 2.914200e-01 -3.132702e-01 -1.609209e-01 -3.640673e-01 -1.605661e-01 4.749761e-02 -1.158411e-01 1.407330e-01 1.477898e-01 1.955360e-01 2.476432e-01 -1.911370e-01 2.367514e-01 2.025828e-01 -3.197584e-01 1.060004e-01 -1.049899e-01
<VARIANCE> 39
 2.569952e+00 1.048475e+01 1.264423e+01 1.615158e+01 1.150166e+01 2.211781e+01 2.700649e+01 2.629218e+01 1.418355e+01 7.102742e+00 8.722417e+00 1.137297e+01 6.911360e+00 2.957234e-01 4.184792e-01 9.264064e-01 8.614802e-01 1.151919e+00 2.825655e+00 2.404608e+00 2.192066e+00 2.098942e+00 7.060810e-01 1.715844e+00 8.479840e-01 2.298460e-01 6.118005e-02 1.077229e-01 2.033484e-01 2.447778e-01 2.940874e-01 4.185710e-01 5.425299e-01 3.209379e-01 2.553298e-01 1.040103e-01 1.501945e-01 1.748370e-01 1.536833e-02
<GCONST> 8.005399e+01
<STATE> 4
<MEAN> 39
 2.048075e+00 -5.587964e+00 1.511925e+01 1.445468e+00 -1.331707e+01 -6.119209e+00 -5.683148e+00 -1.057336e+01 3.529409e+00 -1.397862e+00 -1.127287e+00 -4.071159e+00 7.314594e+01 -7.532270e-02 -9.246913e-02 -1.734344e+00 6.797783e-01 1.013001e+00 1.550579e-02 1.472739e+00 -6.840075e-01 1.262757e-01 1.250696e+00 -8.829112e-02 5.504839e-01 -4.621677e-01 3.436781e-01 3.305163e-01 -2.131260e-01 -7.822130e-01 -2.109139e-01 -1.285878e-01 -1.677627e-01 4.090660e-01 -4.517097e-01 -2.327826e-01 6.970875e-01 9.131449e-02 1.862946e-01
<VARIANCE> 39
 4.311534e+00 1.117661e+01 1.405573e+01 2.534233e+01 1.851790e+01 1.766404e+01 3.441220e+01 2.171992e+01 1.946355e+01 1.473335e+01 1.574122e+01 9.351603e+00 3.959858e+00 9.735122e-01 2.264710e+00 9.027049e-01 5.572751e+00 1.566756e+00 2.296051e+00 3.586418e+00 1.829906e+00 2.531769e+00 1.280890e+00 3.077080e+00 1.160609e+00 3.548049e-01 1.261093e-01 4.763081e-01 2.303424e-01 1.079685e+00 4.229801e-01 9.327837e-01 7.057990e-01 2.658174e-01 5.013109e-01 3.081814e-01 3.297092e-01 2.741588e-01 4.200588e-02
<GCONST> 9.859407e+01
<STATE> 5
<MEAN> 39
 5.378086e+00 -2.390845e+00 8.367682e+00 -4.982362e+00 -1.294654e+01 -3.627774e+00 -3.338009e+00 -1.233988e+01 2.064248e+00 6.832858e-01 3.231071e+00 -1.244511e+00 7.309459e+01 1.103544e+00 1.782719e+00 -1.634647e+00 -3.121618e+00 -5.321430e-01 2.140952e+00 1.625730e+00 -3.916830e-03 -3.777622e-01 -4.719059e-01 1.559536e+00 1.320624e+00 -2.193214e-01 -2.666312e-01 8.493517e-02 3.292379e-01 2.845019e-01 4.398861e-02 1.293177e-01 5.466589e-01 4.843575e-01 7.585891e-02 -4.112071e-01 -3.940227e-01 7.585142e-02 -1.827879e-01
<VARIANCE> 39
 3.024089e+00 9.566055e+00 5.992691e+00 1.740984e+01 8.479779e+00 2.126595e+01 8.243516e+00 2.027022e+01 1.250584e+01 6.840333e+00 9.534910e+00 7.198390e+00 3.317661e+00 2.048614e-01 6.353638e-01 5.766612e-01 7.070175e-01 1.009441e+00 1.729763e+00 2.040266e+00 1.029338e+00 1.982200e+00 1.570301e+00 9.764277e-01 9.230022e-01 1.134720e-01 1.102553e-01 2.107177e-01 6.160921e-02 5.965924e-01 3.572699e-01 4.974946e-01 2.977001e-01 2.508892e-01 2.944047e-01 2.118082e-01 3.180977e-01 1.981682e-01 2.494800e-02
<GCONST> 7.648122e+01
<STATE> 6
<MEAN> 39
 6.657703e+00 9.775517e-01 5.602500e+00 -9.780703e+00 -1.395543e+01 2.149740e-01 3.250096e+00 -9.952776e+00 6.511248e-01 -2.571342e+00 4.088914e+00 1.362798e+00 7.218266e+01 -2.118488e-01 1.295840e+00 -5.406035e-01 -4.016663e-01 4.613019e-01 1.814506e-01 2.152835e+00 1.811862e+00 2.282223e-01 -5.111629e-01 -5.206608e-01 5.720295e-01 -7.686235e-01 -4.395541e-01 -2.989519e-01 4.054857e-01 9.499354e-01 5.694288e-01 -4.703170e-01 -3.113776e-01 2.950449e-01 2.236831e-01 3.013319e-01 -3.592634e-01 -2.828960e-01 -1.443717e-01
<VARIANCE> 39
 1.939347e+00 6.375104e+00 3.516976e+00 1.177123e+01 1.035280e+01 1.543089e+01 1.033324e+01 1.210291e+01 1.854905e+01 1.307387e+01 1.198670e+01 6.869620e+00 2.737778e+00 1.636745e-01 2.081324e-01 4.950252e-01 9.295587e-01 1.460359e+00 9.956958e-01 1.147167e+00 1.093748e+00 1.091659e+00 1.043433e+00 1.546248e+00 7.529303e-01 6.981728e-02 2.939356e-02 8.555620e-02 8.600970e-02 1.953867e-01 1.809406e-01 3.008423e-01 2.398996e-01 2.392193e-01 2.907546e-01 2.324893e-01 3.436874e-01 1.416268e-01 1.198620e-02
<GCONST> 6.681172e+01
<STATE> 7
<MEAN> 39
 5.176755e+00 3.188416e+00 5.412224e+00 -9.223542e+00 -1.220416e+01 -8.427153e-01 7.282843e+00 -5.050124e+00 2.055554e+00 -1.814406e+00 2.144618e+00 1.553328e+00 7.019594e+01 -9.692423e-01 3.617541e-01 7.055603e-02 1.182405e+00 2.028900e+00 1.737683e-01 4.281484e-01 1.283612e+00 4.283832e-01 6.287087e-01 7.498515e-02 1.162609e-01 -9.149369e-01 -2.114394e-01 -3.191144e-01 1.248697e-01 5.144777e-01 6.271273e-01 2.456611e-01 -3.797160e-01 -2.031323e-01 -9.918675e-02 3.172789e-02 2.003466e-01 -1.980120e-01 -4.691929e-02
<VARIANCE> 39
 1.845208e+00 4.296215e+00 3.926328e+00 1.746496e+01 1.889539e+01 1.085320e+01 1.303353e+01 9.505795e+00 1.079795e+01 1.750259e+01 1.955529e+01 9.198386e+00 1.990121e+00 1.331106e-01 4.854879e-01 1.994309e-01 1.071839e+00 1.655413e+00 7.562858e-01 1.060240e+00 9.066471e-01 9.117813e-01 1.040171e+00 1.076094e+00 7.479108e-01 1.279347e-01 1.713589e-02 3.760137e-02 4.013224e-02 1.590924e-01 2.216364e-01 1.315320e-01 2.198544e-01 2.324446e-01 1.597381e-01 2.683950e-01 3.426816e-01 1.823191e-01 9.024777e-03
<GCONST> 6.327668e+01
<STATE> 8
<MEAN> 39
 1.811447e+00 3.495117e+00 5.968855e+00 -3.353853e+00 -3.228304e+00 4.830609e-01 6.003940e+00 -2.526064e+00 3.113271e+00 -9.725988e-02 4.256487e+00 1.490569e+00 6.729418e+01 -1.141059e+00 -1.398970e-01 2.261226e-01 1.908025e+00 3.084764e+00 1.038611e+00 6.358380e-01 1.086324e+00 -3.507232e-02 -1.101498e-01 3.376141e-01 -4.685996e-01 -9.203079e-01 9.884638e-02 -2.045874e-01 -8.870672e-02 -2.100443e-01 -3.670707e-01 -6.838638e-02 -5.989316e-02 -2.010402e-01 -1.237408e-02 -1.692188e-01 -4.325268e-02 -8.658011e-02 1.606902e-01
<VARIANCE> 39
 1.210999e+00 4.884916e+00 5.032257e+00 1.231089e+01 1.365910e+01 1.178523e+01 1.641016e+01 1.217892e+01 1.432177e+01 8.448399e+00 8.017637e+00 8.894716e+00 9.145526e-01 8.899885e-02 3.045459e-01 2.775343e-01 1.020962e+00 1.062035e+00 1.000966e+00 8.180946e-01 1.015644e+00 9.532583e-01 1.503495e+00 1.021050e+00 9.567227e-01 6.829891e-02 1.981601e-02 1.005878e-01 7.354259e-02 1.853145e-01 2.306129e-01 1.317373e-01 1.010398e-01 1.168037e-01 1.224616e-01 3.611327e-01 8.201366e-02 1.372801e-01 1.678102e-02
<GCONST> 5.945334e+01
<STATE> 9
<MEAN> 39
 -1.030532e+00 2.017744e+00 5.440329e+00 -5.357749e-01 1.689325e+00 2.581706e+00 7.954717e+00 -4.184510e-01 3.534172e+00 -7.340609e-01 4.356438e+00 3.600079e-01 6.547702e+01 -6.886919e-01 -6.425095e-01 -5.775200e-01 3.755571e-01 8.169637e-01 1.966338e-01 8.882513e-02 2.432149e-01 2.152615e-02 -2.235069e-01 -8.823833e-02 -1.340752e-01 -3.450609e-01 9.403209e-02 -8.312447e-02 -2.232851e-01 -3.788400e-01 -5.355962e-01 -2.944953e-01 -2.155670e-01 -2.014091e-01 8.214465e-02 6.220803e-02 -1.531548e-01 5.704927e-02 1.122467e-01
<VARIANCE> 39
 3.630239e+00 5.840296e+00 6.954446e+00 6.313865e+00 1.186360e+01 8.310819e+00 1.069774e+01 1.383833e+01 1.884469e+01 1.617364e+01 9.969269e+00 9.619180e+00 1.404406e+00 1.052281e-01 4.076665e-01 6.384604e-01 8.858755e-01 1.193812e+00 1.176712e+00 1.337939e+00 1.351129e+00 1.302585e+00 1.783540e+00 1.180944e+00 9.421867e-01 9.931961e-02 1.912291e-02 6.240590e-02 9.098239e-02 1.618204e-01 1.997535e-01 1.548615e-01 2.590173e-01 2.265442e-01 2.641558e-01 3.201332e-01 2.499472e-01 1.800850e-01 1.790000e-02
<GCONST> 6.772296e+01
<STATE> 10
<MEAN> 39
 -2.350893e+00 -9.771161e-01 2.904991e+00 -2.436713e+00 -2.160551e-01 -2.922118e-03 4.513982e+00 -3.561240e+00 3.045755e+00 -7.974423e-01 2.277545e+00 -9.742270e-01 6.574363e+01 -4.733124e-01 -4.745806e-01 -4.124406e-01 -2.099460e-01 -7.259247e-02 -2.704477e-01 -2.514070e-01 -1.877795e-01 1.413071e-01 1.772745e-01 -2.121219e-01 -1.571553e-01 -2.189093e-01 1.377891e-02 5.669831e-02 9.226159e-02 -4.817874e-02 -1.037089e-01 4.432276e-04 5.874877e-02 1.281835e-03 -7.391879e-02 2.751570e-02 8.433430e-02 -2.683571e-02 -1.105717e-02
<VARIANCE> 39
 3.852980e+00 1.050231e+01 7.366764e+00 2.326357e+01 2.121468e+01 1.443894e+01 1.942891e+01 2.862557e+01 1.832465e+01 1.562323e+01 1.388395e+01 1.332866e+01 3.660983e+00 1.880426e-01 3.211623e-01 5.174592e-01 4.776353e-01 8.834184e-01 1.226979e+00 1.309536e+00 1.443790e+00 1.380687e+00 1.782032e+00 8.639213e-01 1.090962e+00 1.029377e-01 2.336518e-02 6.597255e-02 1.115288e-01 8.908592e-02 1.999490e-01 2.758134e-01 2.624222e-01 2.896716e-01 2.410718e-01 3.230297e-01 1.519844e-01 2.165602e-01 1.028613e-02
<GCONST> 7.271832e+01
<STATE> 11
<MEAN> 39
 -7.584828e+00 -2.464166e+00 9.810159e-01 -2.052633e+00 1.138378e+00 -1.919969e+00 5.042073e+00 -1.035700e+00 3.882375e+00 9.029258e-01 4.106603e+00 -5.398803e-01 6.172055e+01 -8.968243e-02 -1.759472e-02 -3.478443e-02 -2.905461e-02 -2.970714e-02 -8.286956e-02 -5.026284e-02 2.408333e-02 1.521874e-03 2.534835e-02 4.490398e-02 4.314426e-03 -6.517749e-02 1.312998e-02 5.298479e-03 2.357919e-03 5.594390e-03 2.693468e-03 7.308751e-03 -6.761344e-03 3.097164e-03 8.378114e-03 -2.925987e-03 -2.083641e-03 7.911591e-03 8.986676e-03
<VARIANCE> 39
 2.322262e+00 7.491195e+00 5.224224e+00 8.131450e+00 9.872394e+00 1.059900e+01 1.100264e+01 1.629048e+01 1.819660e+01 1.277187e+01 1.262317e+01 1.115765e+01 1.165613e+00 1.090175e-01 2.075693e-01 3.779693e-01 6.810583e-01 8.662645e-01 1.131183e+00 1.218971e+00 1.220618e+00 1.300155e+00 1.393623e+00 1.207120e+00 1.123137e+00 3.728272e-02 1.924582e-02 4.059079e-02 7.687651e-02 1.428454e-01 1.675773e-01 2.238683e-01 2.472664e-01 2.385729e-01 2.580164e-01 2.890692e-01 2.427177e-01 2.298908e-01 5.326510e-03
<GCONST> 6.301565e+01
<TRANSP> 12
 0.000000e+00 1.000000e+00 0.000000e+00 0.000000e+00 0.000000e+00 0.000000e+00 0.000000e+00 0.000000e+00 0.000000e+00 0.000000e+00 0.000000e+00 0.000000e+00
 0.000000e+00 9.273826e-01 7.261738e-02 0.000000e+00 0.000000e+00 0.000000e+00 0.000000e+00 0.000000e+00 0.000000e+00 0.000000e+00 0.000000e+00 0.000000e+00
 0.000000e+00 0.000000e+00 8.872816e-01 1.127184e-01 0.000000e+00 0.000000e+00 0.000000e+00 0.000000e+00 0.000000e+00 0.000000e+00 0.000000e+00 0.000000e+00
 0.000000e+00 0.000000e+00 0.000000e+00 7.836725e-01 2.163275e-01 0.000000e+00 0.000000e+00 0.000000e+00 0.000000e+00 0.000000e+00 0.000000e+00 0.000000e+00
 0.000000e+00 0.000000e+00 0.000000e+00 0.000000e+00 5.795844e-01 4.204156e-01 0.000000e+00 0.000000e+00 0.000000e+00 0.000000e+00 0.000000e+00 0.000000e+00
 0.000000e+00 0.000000e+00 0.000000e+00 0.000000e+00 0.000000e+00 5.722665e-01 4.277335e-01 0.000000e+00 0.000000e+00 0.000000e+00 0.000000e+00 0.000000e+00
 0.000000e+00 0.000000e+00 0.000000e+00 0.000000e+00 0.000000e+00 0.000000e+00 5.818090e-01 4.181910e-01 0.000000e+00 0.000000e+00 0.000000e+00 0.000000e+00
 0.000000e+00 0.000000e+00 0.000000e+00 0.000000e+00 0.000000e+00 0.000000e+00 0.000000e+00 5.105725e-01 4.894275e-01 0.000000e+00 0.000000e+00 0.000000e+00
 0.000000e+00 0.000000e+00 0.000000e+00 0.000000e+00 0.000000e+00 0.000000e+00 0.000000e+00 0.000000e+00 7.095478e-01 2.904522e-01 0.000000e+00 0.000000e+00
 0.000000e+00 0.000000e+00 0.000000e+00 0.000000e+00 0.000000e+00 0.000000e+00 0.000000e+00 0.000000e+00 0.000000e+00 8.312011e-01 1.687989e-01 0.000000e+00
 0.000000e+00 0.000000e+00 0.000000e+00 0.000000e+00 0.000000e+00 0.000000e+00 0.000000e+00 0.000000e+00 0.000000e+00 0.000000e+00 9.725900e-01 2.741003e-02
 0.000000e+00 0.000000e+00 0.000000e+00 0.000000e+00 0.000000e+00 0.000000e+00 0.000000e+00 0.000000e+00 0.000000e+00 0.000000e+00 0.000000e+00 0.000000e+00
<ENDHMM>
~h "SEVEN"
<BEGINHMM>
<NUMSTATES> 12
<STATE> 2
<MEAN> 39
 -9.559900e+00 -3.033914e+00 4.826455e+00 -3.499710e+00 -1.432576e+00 -9.983089e+00 -2.292281e+00 -3.305840e+00 3.839009e+00 2.807890e+00 -3.142002e+00 -3.925583e+00 7.080409e+01 4.788648e+00 -1.903190e+00 2.236852e+00 -2.924043e-01 -1.961240e+00 -2.661486e-01 -3.318762e+00 -6.095539e-01 4.770538e-01 -2.249140e-01 -8.690172e-01 -3.276845e+00 1.727116e+00 3.203007e-01 -2.997830e-01 1.390800e-01 -4.297051e-01 -6.166115e-01 6.816635e-02 -5.701305e-01 3.222132e-01 1.460918e-01 1.856367e-01 1.490798e-01 -9.306805e-02 5.579312e-01
<VARIANCE> 39
 7.984244e+01 1.618129e+01 1.736489e+01 1.603931e+01 1.800108e+01 1.604838e+01 5.175605e+01 2.160226e+01 1.038836e+01 1.486254e+01 1.361900e+01 4.677274e+01 1.382667e+01 2.787363e+00 1.192771e+00 8.241659e-01 3.078209e+00 3.631702e+00 1.455236e+00 4.736139e+00 2.182528e+00 1.020375e+00 1.590794e+00 1.186564e+00 1.817711e+00 2.218458e+00 1.514049e+00 1.805466e-01 3.090133e-01 4.739513e-01 3.947470e-01 2.842667e-01 1.144965e+00 6.655548e-01 2.044475e-01 3.385407e-01 2.834218e-01 1.010389e+00 2.353716e-01
<GCONST> 1.084169e+02
<STATE> 3
<MEAN> 39
 4.733819e+00 -1.223250e+01 1.244165e+01 -9.781017e+00 -1.282843e+01 -9.630110e+00 -1.538928e+01 -5.235868e-01 7.627058e+00 5.419426e+00 -3.978979e+00 -1.236886e+01 8.017062e+01 1.118454e+00 -1.831089e+00 5.723276e-01 -1.212785e+00 -1.652678e+00 4.803149e-01 -8.363200e-01 1.796111e+00 8.714216e-01 1.013137e+00 5.955477e-01 -2.156572e-01 1.301375e+00 -1.116684e+00 6.223095e-01 -6.921672e-01 6.359000e-01 1.027327e+00 1.179473e-01 1.238993e+00 4.371832e-02 -2.276431e-01 -2.407322e-01 2.835820e-01 8.721504e-01 -8.639565e-01
<VARIANCE> 39
 2.019870e+00 4.929382e+00 1.060992e+01 1.660653e+01 5.527656e+00 8.665563e+00 8.947593e+00 1.003020e+01 9.420549e+00 1.853284e+01 1.111372e+01 4.210766e+00 3.115546e+00 1.299326e+00 1.429171e+00 1.072150e+00 2.152651e+00 2.144285e+00 7.335929e-01 3.112049e+00 1.662559e+00 1.268135e+00 8.624536e-01 6.098393e-01 8.226906e-01 1.155101e+00 3.934926e-01 1.369397e-01 1.979937e-01 3.983831e-01 1.721984e-01 1.394538e-01 3.839923e-01 4.110734e-01 1.983365e-01 2.808856e-01 1.430122e-01 2.141673e-01 2.622553e-02
<GCONST> 7.970334e+01
<STATE> 4
<MEAN> 39
 6.272079e+00 -1.343136e+01 1.118167e+01 -7.989927e+00 -1.184554e+01 -8.932726e+00 -1.356659e+01 2.034720e+00 7.958023e+00 5.110843e+00 -1.058387e+00 -1.113156e+01 7.954819e+01 3.971125e-01 3.219627e-01 -5.721703e-01 9.696833e-01 8.016472e-01 2.172502e-01 2.500623e-01 -8.060083e-02 2.843423e-01 -5.592396e-01 1.099756e+00 7.825373e-01 -6.346627e-01 -2.124558e-01 6.037121e-01 -2.519266e-01 3.638158e-01 3.160070e-01 -2.157531e-02 1.817364e-01 -5.273078e-01 -3.574435e-02 -1.797828e-01 -5.250379e-03 1.925940e-01 -4.155510e-01
<VARIANCE> 39
 1.648967e+00 4.838234e+00 7.030354e+00 9.756663e+00 8.353066e+00 7.821598e+00 1.129002e+01 9.763727e+00 1.143418e+01 8.682092e+00 1.080514e+01 5.601590e+00 2.652877e+00 1.327862e-01 6.211607e-01 7.153454e-01 7.626238e-01 5.390297e-01 4.251902e-01 8.146017e-01 1.069444e+00 6.241447e-01 1.143356e+00 6.709112e-01 4.803659e-01 2.988175e-01 6.758535e-02 8.449032e-02 9.747392e-02 1.387597e-01 1.985085e-01 9.740473e-02 2.414082e-01 1.535034e-01 1.610290e-01 2.043491e-01 1.587812e-01 9.783241e-02 3.938239e-02
<GCONST> 6.162785e+01
<STATE> 5
<MEAN> 39
 6.700750e+00 -9.650252e+00 7.857258e+00 -3.768516e+00 -8.095481e+00 -7.706874e+00 -1.277506e+01 -1.208264e+00 9.702816e+00 3.286984e+00 2.004621e+00 -7.881399e+00 7.589462e+01 -7.856063e-01 2.108264e+00 -9.562546e-01 1.297099e+00 6.222637e-01 3.191564e-01 1.314131e+00 -9.588699e-01 -1.493813e-01 -4.402804e-02 3.076023e-01 1.128101e+00 -1.650549e+00 -4.296858e-01 1.990528e-01 2.740933e-01 -1.807545e-02 -2.099993e-01 -6.937046e-02 3.573192e-01 2.706402e-01 -3.297839e-01 2.384002e-01 -4.300480e-01 -3.871750e-02 -8.711132e-02
<VARIANCE> 39
 1.545668e+00 7.237238e+00 6.552488e+00 7.007666e+00 6.624177e+00 1.028850e+01 1.119185e+01 9.547818e+00 1.046760e+01 4.923242e+00 6.456029e+00 7.034189e+00 2.931605e+00 4.689522e-01 6.119236e-01 5.406882e-01 7.445121e-01 6.390394e-01 5.727584e-01 1.567236e+00 5.599303e-01 1.094829e+00 7.647566e-01 6.261735e-01 4.705945e-01 2.650177e-01 5.248309e-02 1.525739e-01 1.449112e-01 1.236792e-01 5.889801e-02 1.326258e-01 2.155747e-01 2.110281e-01 1.213419e-01 2.156814e-01 1.338229e-01 1.225339e-01 5.595500e-02
<GCONST> 6.219573e+01
<STATE> 6
<MEAN> 39
 2.191187e+00 -4.452090e+00 8.506877e+00 2.280327e-01 -7.988464e+00 -7.908761e+00 -6.562032e+00 1.486353e-01 6.813397e+00 3.350161e+00 -7.110633e-03 -4.697550e+00 7.180902e+01 -2.692148e-01 4.387568e-01 4.665525e-01 1.576635e-01 6.608798e-02 -2.387616e-01 6.806183e-01 6.804061e-01 -1.427447e-01 -2.270469e-01 -4.716105e-01 2.856526e-01 -3.151394e-01 3.406895e-01 -3.521535e-01 1.447307e-01 -4.033938e-01 -9.972617e-02 -6.289041e-02 -2.589742e-01 1.211817e-01 1.536885e-01 -1.005093e-01 4.253247e-02 -1.874701e-01 2.988203e-01
<VARIANCE> 39
 9.152248e+00 4.700599e+00 5.124122e+00 9.090052e+00 1.103994e+01 1.186621e+01 1.177790e+01 1.200563e+01 1.107977e+01 9.152768e+00 1.030012e+01 7.694260e+00 3.055045e+00 1.931312e+00 1.378690e+00 3.872771e-01 2.092047e+00 6.887638e-01 1.173868e+00 1.969217e+00 1.017281e+00 1.202380e+00 9.086637e-01 1.161561e+00 9.327093e-01 7.994632e-01 2.607296e-01 2.387218e-01 1.285919e-01 2.302685e-01 1.372864e-01 2.519173e-01 3.424877e-01 2.594390e-01 2.105103e-01 1.768284e-01 2.425160e-01 1.445745e-01 1.190932e-01
<GCONST> 7.956062e+01
<STATE> 7
<MEAN> 39
 4.647988e+00 -4.357833e+00 1.017552e+01 -2.918828e+00 -8.337796e+00 -8.467481e+00 -5.906068e+00 1.692779e+00 7.936050e+00 1.954009e+00 3.769689e-01 -5.468969e+00 7.214018e+01 3.514295e-01 6.284562e-02 2.646887e-01 -5.426515e-01 -8.342128e-02 6.520142e-02 6.494582e-01 6.547567e-01 4.179774e-02 -6.287065e-01 -2.729012e-01 -2.707931e-01 -2.420738e-02 -1.070865e-01 1.323995e-01 -1.050519e-01 1.300672e-01 1.365622e-01 3.079129e-02 1.248216e-01 5.844047e-02 -8.177146e-02 -8.912478e-02 -1.790266e-01 -1.170382e-01 -1.067918e-01
<VARIANCE> 39
 2.454421e+00 4.971786e+00 6.081416e+00 5.869987e+00 9.014884e+00 9.944093e+00 1.492153e+01 1.124529e+01 1.194890e+01 9.869576e+00 1.556711e+01 6.684247e+00 1.931813e+00 4.099947e-01 5.139487e-01 4.601304e-01 5.359846e-01 7.713938e-01 7.555841e-01 9.942583e-01 9.122405e-01 1.023285e+00 8.231566e-01 1.413197e+00 6.503266e-01 2.027629e-01 1.175660e-01 1.447430e-01 9.763794e-02 1.459663e-01 1.711505e-01 1.603441e-01 2.657918e-01 2.282885e-01 2.463267e-01 1.566866e-01 3.307175e-01 1.419116e-01 6.076395e-02
<GCONST> 6.816309e+01
<STATE> 8
<MEAN> 39
 4.992624e+00 -2.141249e+00 1.045557e+01 -4.044902e+00 -7.271159e+00 -8.682955e+00 -2.895383e+00 5.111857e+00 7.468885e+00 -1.342035e+00 -2.861637e+00 -7.272844e+00 7.084971e+01 -1.737250e-01 1.157463e+00 -3.225436e-01 4.704657e-01 8.345623e-01 -2.145007e-01 5.156542e-01 1.493558e-01 -2.449077e-01 -3.609635e-01 -4.606075e-01 -4.960083e-01 -8.121365e-01 -8.254433e-02 1.640130e-01 -1.269840e-01 3.107408e-01 2.066105e-01 7.156161e-02 -6.756433e-02 -3.835205e-01 -1.131470e-01 1.852083e-01 1.812776e-01 -2.015251e-03 -1.461244e-01
<VARIANCE> 39
 1.406915e+00 4.926151e+00 4.519003e+00 6.808551e+00 1.241451e+01 1.113614e+01 1.213072e+01 8.955856e+00 1.414829e+01 1.338556e+01 1.016386e+01 5.560351e+00 2.074881e+00 7.950121e-02 4.275742e-01 4.357424e-01 9.149538e-01 9.448125e-01 8.678029e-01 1.342728e+00 1.167242e+00 8.385766e-01 5.313752e-01 1.278444e+00 6.156349e-01 1.240161e-01 1.416314e-02 4.008606e-02 7.580122e-02 1.498406e-01 1.510207e-01 1.782456e-01 2.196646e-01 2.423849e-01 1.577335e-01 8.694816e-02 1.936325e-01 1.119333e-01 9.567945e-03
<GCONST> 5.820963e+01
<STATE> 9
<MEAN> 39
 3.844495e+00 2.035701e+00 8.261321e+00 -3.991744e-01 -2.486990e+00 -9.047333e+00 -1.780886e+00 4.172827e+00 6.740788e+00 -1.584266e+00 -3.152493e+00 -8.518518e+00 6.723985e+01 -3.701637e-01 1.288845e+00 -2.848172e-01 1.025147e+00 1.096381e+00 6.156251e-01 5.448536e-01 -1.651789e+00 -1.162439e+00 2.340061e-01 2.640994e-01 -1.237042e-01 -1.020880e+00 -3.145998e-02 -1.567022e-01 2.788666e-01 -7.833330e-02 -3.422327e-01 2.548005e-01 7.195847e-02 -5.475160e-01 -2.837162e-01 1.976491e-01 6.518409e-02 2.250822e-01 9.901351e-02
<VARIANCE> 39
 1.717975e+00 4.657442e+00 3.052823e+00 5.131137e+00 9.515203e+00 6.253438e+00 1.326319e+01 8.520244e+00 1.677716e+01 9.805445e+00 1.470471e+01 7.339732e+00 1.390399e+00 7.057679e-02 3.543753e-01 5.984081e-01 9.466140e-01 1.360226e+00 7.087484e-01 1.230220e+00 1.985239e+00 9.205654e-01 1.062136e+00 1.008769e+00 9.220843e-01 1.469385e-01 1.387111e-02 5.052577e-02 5.309944e-02 1.432781e-01 1.779158e-01 1.448289e-01 2.217174e-01 2.401175e-01 1.631995e-01 1.323906e-01 2.465058e-01 1.392768e-01 2.395465e-02
<GCONST> 6.035115e+01
<STATE> 10
<MEAN> 39
 3.090507e+00 5.400292e+00 9.869922e+00 1.189445e+00 -2.533710e+00 -6.069574e+00 4.209291e-01 -4.159180e+00 1.175280e+00 1.272901e-01 -2.823951e+00 -8.333652e+00 6.534422e+01 -2.725213e-01 4.578156e-01 3.937966e-01 3.785607e-01 -5.359647e-02 6.388180e-01 3.719243e-01 -1.704650e+00 -8.175852e-01 2.546398e-01 -3.745672e-01 3.790120e-01 -3.760925e-01 6.035499e-02 -3.059642e-01 -2.850344e-02 -2.128090e-01 -1.121096e-01 -1.937095e-01 -2.041374e-01 5.293180e-01 4.068363e-01 -2.259645e-01 -2.159182e-01 9.246463e-02 2.058849e-01
<VARIANCE> 39
 1.665821e+00 3.228463e+00 3.801999e+00 5.695593e+00 1.261796e+01 5.379688e+00 8.637528e+00 1.179882e+01 9.794950e+00 9.639838e+00 8.714607e+00 7.975318e+00 8.976763e-01 9.742295e-02 3.104517e-01 3.569621e-01 5.712675e-01 8.175313e-01 8.161147e-01 7.447134e-01 2.124460e+00 1.646168e+00 9.293810e-01 1.014428e+00 5.389860e-01 9.783223e-02 9.413249e-03 4.250033e-02 1.171878e-01 1.639381e-01 2.049914e-01 1.373105e-01 1.328770e-01 3.049714e-01 1.837019e-01 1.904662e-01 1.664008e-01 1.723831e-01 1.579447e-02
<GCONST> 5.681593e+01
<STATE> 11
<MEAN> 39
 5.709291e-01 4.133877e+00 9.118857e+00 2.747114e+00 1.281860e-01 -3.604693e+00 1.742635e+00 -4.519832e+00 2.425281e+00 -7.495322e-01 -3.452102e+00 -4.827885e+00 6.368965e+01 -3.431805e-01 -2.943192e-01 -3.201650e-01 -2.705653e-02 2.418760e-01 2.770990e-01 2.026630e-01 1.250318e-01 2.060865e-01 4.516452e-02 2.104921e-01 3.894050e-01 -1.898941e-01 -1.818172e-02 -4.247345e-02 -6.151125e-02 -6.256569e-02 -2.792103e-02 -2.821813e-02 -1.163707e-02 8.300415e-02 3.844603e-02 3.569576e-02 8.297250e-02 1.107273e-02 -3.338443e-03
<VARIANCE> 39
 5.498971e+00 5.162189e+00 5.657794e+00 4.538201e+00 1.202115e+01 1.270073e+01 1.094630e+01 1.125054e+01 8.964993e+00 9.001925e+00 1.137150e+01 1.192280e+01 1.833819e+00 1.531586e-01 2.720787e-01 5.092552e-01 5.027168e-01 7.712190e-01 8.330341e-01 8.699043e-01 1.123915e+00 9.116653e-01 1.000177e+00 9.199114e-01 8.944772e-01 3.589005e-02 2.263147e-02 3.721799e-02 7.357723e-02 8.502506e-02 1.512693e-01 1.599644e-01 1.739850e-01 2.466015e-01 1.904345e-01 1.929900e-01 1.636007e-01 1.778697e-01 6.326781e-03
<GCONST> 5.846965e+01
<TRANSP> 12
 0.000000e+00 1.000000e+00 0.000000e+00 0.000000e+00 0.000000e+00 0.000000e+00 0.000000e+00 0.000000e+00 0.000000e+00 0.000000e+00 0.000000e+00 0.000000e+00
 0.000000e+00 7.695110e-01 2.304890e-01 0.000000e+00 0.000000e+00 0.000000e+00 0.000000e+00 0.000000e+00 0.000000e+00 0.000000e+00 0.000000e+00 0.000000e+00
 0.000000e+00 0.000000e+00 6.170279e-01 3.829720e-01 0.000000e+00 0.000000e+00 0.000000e+00 0.000000e+00 0.000000e+00 0.000000e+00 0.000000e+00 0.000000e+00
 0.000000e+00 0.000000e+00 0.000000e+00 7.333423e-01 2.666576e-01 0.000000e+00 0.000000e+00 0.000000e+00 0.000000e+00 0.000000e+00 0.000000e+00 0.000000e+00
 0.000000e+00 0.000000e+00 0.000000e+00 0.000000e+00 5.940270e-01 4.059730e-01 0.000000e+00 0.000000e+00 0.000000e+00 0.000000e+00 0.000000e+00 0.000000e+00
 0.000000e+00 0.000000e+00 0.000000e+00 0.000000e+00 0.000000e+00 7.959011e-01 2.040990e-01 0.000000e+00 0.000000e+00 0.000000e+00 0.000000e+00 0.000000e+00
 0.000000e+00 0.000000e+00 0.000000e+00 0.000000e+00 0.000000e+00 0.000000e+00 7.632957e-01 2.367043e-01 0.000000e+00 0.000000e+00 0.000000e+00 0.000000e+00
 0.000000e+00 0.000000e+00 0.000000e+00 0.000000e+00 0.000000e+00 0.000000e+00 0.000000e+00 7.475458e-01 2.524541e-01 0.000000e+00 0.000000e+00 0.000000e+00
 0.000000e+00 0.000000e+00 0.000000e+00 0.000000e+00 0.000000e+00 0.000000e+00 0.000000e+00 0.000000e+00 6.269110e-01 3.730890e-01 0.000000e+00 0.000000e+00
 0.000000e+00 0.000000e+00 0.000000e+00 0.000000e+00 0.000000e+00 0.000000e+00 0.000000e+00 0.000000e+00 0.000000e+00 6.722420e-01 3.277580e-01 0.000000e+00
 0.000000e+00 0.000000e+00 0.000000e+00 0.000000e+00 0.000000e+00 0.000000e+00 0.000000e+00 0.000000e+00 0.000000e+00 0.000000e+00 9.357973e-01 6.420269e-02
 0.000000e+00 0.000000e+00 0.000000e+00 0.000000e+00 0.000000e+00 0.000000e+00 0.000000e+00 0.000000e+00 0.000000e+00 0.000000e+00 0.000000e+00 0.000000e+00
<ENDHMM>
~h "THREE"
<BEGINHMM>
<NUMSTATES> 12
<STATE> 2
<MEAN> 39
 -3.721079e+00 -8.641911e+00 7.276202e+00 -8.375513e-01 -3.485134e+00 -6.952701e+00 -9.476122e+00 -1.967219e+00 6.534524e+00 -3.698609e+00 1.422689e+00 -1.785401e+00 6.924854e+01 2.251087e+00 -7.818089e-02 7.755232e-01 1.501124e+00 -1.079606e+00 -1.637973e+00 -1.580060e+00 -3.302019e-01 6.035478e-01 -1.967158e+00 -5.289890e-01 6.012843e-01 8.537169e-01 -4.846911e-02 -8.687487e-02 1.965878e-01 2.304259e-02 -4.346207e-01 -2.558819e-01 6.317869e-02 2.317884e-01 1.465832e-02 -1.252557e-01 4.033159e-02 2.620960e-01 1.471003e-01
<VARIANCE> 39
 6.970639e+01 3.674898e+01 4.765246e+01 4.618774e+01 3.726567e+01 5.540210e+01 1.022736e+02 3.849725e+01 3.868121e+01 4.105315e+01 2.497859e+01 1.848798e+01 1.309544e+01 2.802862e+00 3.860495e+00 3.272523e+00 4.570963e+00 4.778003e+00 4.804673e+00 7.394269e+00 4.816850e+00 2.476710e+00 3.117385e+00 2.398192e+00 2.247018e+00 2.009270e+00 6.600851e-01 6.824673e-01 6.316382e-01 1.007232e+00 8.276473e-01 8.999094e-01 1.795341e+00 9.245462e-01 6.802579e-01 6.173089e-01 6.614153e-01 3.752118e-01 3.916726e-01
<GCONST> 1.311938e+02
<STATE> 3
<MEAN> 39
 4.120873e+00 -1.041565e+01 1.583184e+01 4.742263e+00 -1.573302e+01 -1.721896e+01 -1.296182e+01 1.878084e+00 6.360469e+00 -1.461683e+01 1.318573e+00 3.327416e+00 7.455137e+01 -1.273397e-01 -6.437997e-01 2.958273e+00 6.559873e-01 -3.478618e+00 -5.540764e-01 1.459936e+00 5.309852e-01 -1.407594e+00 -5.088061e-01 1.581678e+00 7.071216e-01 4.477124e-01 -5.303591e-01 3.368593e-01 1.369548e-02 -4.192838e-01 4.907250e-01 8.819832e-01 4.403268e-01 -5.781739e-01 -5.506419e-01 8.645421e-01 3.032995e-01 -6.873741e-01 -3.853970e-01
<VARIANCE> 39
 6.045677e+00 8.830977e+00 4.175558e+01 3.320343e+01 4.938715e+01 3.656532e+01 4.327295e+01 1.437387e+01 2.361934e+01 1.319593e+01 2.034614e+01 1.554656e+01 3.393263e+00 1.670164e+00 6.962514e-01 6.443009e+00 1.869287e+00 2.988822e+00 2.806688e+00 3.622870e+00 3.374894e+00 3.717532e+00 2.658048e+00 1.332099e+00 1.685010e+00 4.931722e-01 2.641954e-01 1.590601e-01 6.703219e-01 3.833525e-01 6.847875e-01 5.082092e-01 7.044464e-01 7.766690e-01 6.887293e-01 4.360762e-01 4.754856e-01 2.147740e-01 1.012964e-01
<GCONST> 1.072427e+02
<STATE> 4
<MEAN> 39
 2.295951e+00 -1.019575e+01 2.314549e+01 6.092525e+00 -2.225436e+01 -1.547689e+01 -8.131754e+00 -9.948429e-02 1.030185e+00 -1.202487e+01 5.359159e+00 2.102620e+00 7.426596e+01 -6.765522e-01 8.470970e-01 1.696659e+00 -3.625786e-01 -5.202534e-01 1.116750e+00 1.162537e+00 -8.012887e-01 -1.819154e+00 1.009379e+00 1.047382e+00 -1.283360e+00 -3.992970e-01 -3.522158e-02 4.485042e-01 -5.600023e-01 -2.905077e-01 1.024763e+00 1.759526e-01 -3.321804e-01 -1.055038e-01 9.442446e-02 1.342285e-02 -3.349580e-01 -2.434577e-01 -2.484928e-01
<VARIANCE> 39
 2.032087e+00 1.008477e+01 2.978286e+01 2.307770e+01 2.038414e+01 1.942674e+01 4.090794e+01 1.182696e+01 2.536538e+01 1.668340e+01 2.102144e+01 1.243961e+01 3.942518e+00 2.231824e-01 5.641064e-01 1.635063e+00 1.730663e+00 1.774591e+00 2.561923e+00 9.574567e-01 2.603241e+00 1.743472e+00 2.007861e+00 1.851691e+00 9.073790e-01 1.288244e-01 7.369003e-02 1.068212e-01 5.487022e-01 3.080741e-01 5.185737e-01 3.371423e-01 5.069664e-01 2.181544e-01 7.106529e-01 4.308005e-01 4.400928e-01 2.692313e-01 5.024768e-02
<GCONST> 9.062202e+01
<STATE> 5
<MEAN> 39
 1.088523e+00 -7.236014e+00 2.630717e+01 4.219128e+00 -2.202114e+01 -1.351450e+01 -6.837452e+00 -5.659832e-01 -3.327131e+00 -1.091648e+01 7.369545e+00 -1.966657e+00 7.317674e+01 -4.243693e-01 1.150173e+00 7.258947e-01 -4.170348e-01 6.055718e-01 6.726437e-01 -1.189989e-02 -6.897873e-01 -1.067955e+00 5.372956e-01 4.837819e-01 -6.028353e-01 -5.334739e-01 6.994648e-02 3.631857e-02 -3.936377e-01 -4.855671e-02 3.655394e-01 1.162784e-01 -2.105677e-01 -1.618383e-01 3.464260e-01 -4.473308e-02 -4.262270e-01 2.649015e-01 -3.501188e-02
<VARIANCE> 39
 2.000294e+00 1.079861e+01 2.767731e+01 1.282048e+01 2.331917e+01 1.625901e+01 2.552400e+01 1.109062e+01 1.577260e+01 1.061549e+01 7.353653e+00 7.729146e+00 3.712034e+00 8.784537e-02 3.593867e-01 9.328547e-01 1.537791e+00 1.876092e+00 1.570578e+00 1.286960e+00 1.120973e+00 1.887121e+00 2.325361e+00 1.787588e+00 1.094850e+00 7.302853e-02 1.709280e-02 1.060941e-01 1.934810e-01 2.085524e-01 3.600349e-01 3.356412e-01 2.555762e-01 2.530349e-01 3.098316e-01 5.799332e-01 2.737032e-01 1.590424e-01 1.794464e-02
<GCONST> 7.731776e+01
<STATE> 6
<MEAN> 39
 -1.289528e-01 -4.255453e+00 2.691195e+01 2.743224e+00 -1.861231e+01 -9.680244e+00 -8.118017e+00 -4.398575e+00 -4.765321e+00 -8.679951e+00 6.426887e+00 -1.863821e+00 7.164012e+01 -1.488312e-01 1.234926e+00 -4.046918e-01 -7.589808e-01 6.756114e-01 1.806598e+00 5.054673e-01 -1.370964e+00 -1.154412e-01 5.188464e-01 -9.373494e-01 -2.308557e-01 -6.414012e-01 7.305710e-02 5.071330e-02 -2.092494e-01 -7.781332e-02 -2.613750e-01 1.706311e-01 3.383086e-01 -2.436664e-02 2.693977e-01 5.027984e-02 -1.953201e-01 -3.702937e-02 -5.735471e-02
<VARIANCE> 39
 2.395275e+00 6.717202e+00 2.142933e+01 8.630980e+00 1.575225e+01 1.725737e+01 2.230001e+01 1.948852e+01 1.559560e+01 1.219163e+01 8.643271e+00 1.206396e+01 2.562418e+00 6.158036e-02 3.473462e-01 8.732876e-01 8.523129e-01 1.377080e+00 1.243582e+00 1.225028e+00 1.047146e+00 1.467403e+00 1.589667e+00 9.043506e-01 7.213082e-01 9.513480e-02 2.318262e-02 3.658383e-02 1.485371e-01 1.942762e-01 2.689038e-01 3.211789e-01 1.877787e-01 3.369406e-01 2.258592e-01 4.028504e-01 2.296653e-01 1.858168e-01 1.341566e-02
<GCONST> 7.121509e+01
<STATE> 7
<MEAN> 39
 -3.327889e-01 -2.942788e-01 2.532146e+01 4.043571e-01 -1.857743e+01 -4.578609e+00 -4.030442e+00 -9.861634e+00 -4.334883e+00 -6.867517e+00 3.537513e+00 -3.156940e+00 6.923561e+01 -2.335647e-01 1.112399e+00 -6.989017e-01 -5.256472e-01 6.350279e-01 1.365581e+00 1.265922e+00 -6.416292e-01 5.757496e-01 1.108790e+00 -8.129213e-01 -7.396854e-01 -8.075285e-01 -7.391495e-02 -1.504588e-01 -2.540411e-01 2.581157e-01 3.460498e-01 -2.722785e-01 1.767134e-02 3.351024e-01 2.408872e-01 2.252936e-01 6.962587e-02 -1.424751e-02 -3.046412e-02
<VARIANCE> 39
 1.482626e+00 4.157588e+00 1.058027e+01 8.432599e+00 1.143921e+01 2.416752e+01 2.262818e+01 1.743735e+01 1.032884e+01 9.396991e+00 1.006612e+01 1.124840e+01 1.772923e+00 1.334825e-01 4.024030e-01 1.041769e+00 8.570506e-01 1.188093e+00 1.261926e+00 1.695444e+00 1.681362e+00 1.479845e+00 1.616716e+00 1.120152e+00 1.129914e+00 1.297599e-01 1.831529e-02 3.430435e-02 1.358379e-01 2.031503e-01 1.951640e-01 2.539526e-01 2.614833e-01 1.611502e-01 2.449912e-01 2.306371e-01 2.319001e-01 2.447255e-01 9.278675e-03
<GCONST> 6.938878e+01
<STATE> 8
<MEAN> 39
 -1.355441e+00 2.645562e+00 2.086124e+01 -1.382203e-01 -1.350350e+01 -2.288002e+00 -1.493234e+00 -8.966410e+00 -4.978714e-01 -3.413743e+00 7.105783e-01 -5.351451e+00 6.650334e+01 -4.372871e-01 4.240416e-01 -1.533184e+00 3.725826e-01 1.824800e+00 5.299551e-01 6.369928e-01 -3.251058e-01 5.859571e-01 1.161189e+00 -5.254878e-01 -1.751854e-01 -7.800533e-01 -6.763952e-02 -3.358941e-01 -2.474070e-03 1.837481e-01 -1.396426e-02 -4.254916e-02 -1.103760e-01 -1.531511e-01 -2.962530e-01 -2.013106e-01 1.750286e-01 1.451444e-01 7.357043e-02
<VARIANCE> 39
 1.620435e+00 2.856612e+00 1.169448e+01 1.144204e+01 1.808004e+01 3.124265e+01 4.015207e+01 3.344183e+01 1.163189e+01 1.730850e+01 2.383654e+01 1.653411e+01 1.029180e+00 1.430455e-01 2.837192e-01 1.054713e+00 7.237012e-01 1.162431e+00 1.776967e+00 1.717648e+00 1.841077e+00 1.923390e+00 1.564510e+00 1.318361e+00 1.037929e+00 1.204841e-01 2.305719e-02 4.565509e-02 1.907008e-01 1.066197e-01 2.738274e-01 3.224785e-01 4.062282e-01 2.926139e-01 3.546254e-01 3.176796e-01 2.914058e-01 2.304295e-01 1.266645e-02
<GCONST> 7.609493e+01
<STATE> 9
<MEAN> 39
 -2.777466e+00 2.736770e+00 1.752021e+01 1.887815e+00 -9.162088e+00 1.489222e-01 7.121345e-01 -1.165831e+01 -8.418612e-01 -1.559521e+00 2.217641e-01 -5.047284e+00 6.455661e+01 -5.194025e-01 -1.926801e-01 -1.126978e+00 -1.562441e-01 7.661701e-01 7.236869e-01 6.474615e-01 -2.784122e-01 1.629162e-01 2.876738e-01 -2.447097e-01 -9.352608e-02 -5.616685e-01 -5.181148e-03 -1.066121e-01 -1.433373e-01 -2.251230e-01 -1.357825e-01 -2.505504e-01 1.109765e-02 3.977864e-01 1.604261e-01 -4.854650e-02 1.225714e-01 1.246250e-01 3.321837e-03
<VARIANCE> 39
 1.418077e+00 3.865566e+00 1.288773e+01 5.448255e+00 1.378212e+01 1.255115e+01 1.305702e+01 1.404109e+01 1.115346e+01 1.221268e+01 1.265924e+01 1.156399e+01 1.320794e+00 1.651628e-01 3.800842e-01 1.479516e+00 7.771600e-01 1.139033e+00 2.299105e+00 1.464416e+00 1.844182e+00 1.700683e+00 1.410234e+00 1.242176e+00 1.045450e+00 1.076280e-01 3.348662e-02 6.946347e-02 2.244265e-01 1.059639e-01 2.359876e-01 3.717955e-01 1.953215e-01 2.805688e-01 3.758688e-01 3.639292e-01 2.714365e-01 1.858359e-01 2.103530e-02
<GCONST> 7.243045e+01
<STATE> 10
<MEAN> 39
 -5.205060e+00 7.629427e-01 1.186433e+01 7.068353e-01 -6.271824e+00 6.045834e-01 4.738074e+00 -7.885948e+00 2.363359e+00 1.867440e+00 6.919295e-01 -4.465857e+00 6.229818e+01 -4.679829e-01 -4.743231e-01 -1.573309e+00 -1.685436e-01 7.160774e-01 -6.254505e-01 4.942847e-01 1.167086e+00 5.443544e-01 4.472230e-01 4.876418e-01 5.695032e-01 -4.809050e-01 5.400885e-02 3.659360e-02 3.790098e-02 2.323785e-02 -2.770824e-02 -1.961894e-01 -2.431438e-01 4.372986e-02 -1.376460e-01 -1.720834e-01 9.798612e-02 1.309692e-01 4.822342e-02
<VARIANCE> 39
 2.423319e+00 6.102434e+00 1.572936e+01 9.738773e+00 1.254101e+01 1.375048e+01 1.541396e+01 1.585206e+01 2.129416e+01 1.572722e+01 1.347893e+01 1.277971e+01 1.538589e+00 1.597541e-01 2.673487e-01 6.655053e-01 4.494626e-01 7.218647e-01 1.160879e+00 9.349560e-01 1.281857e+00 1.255443e+00 1.674194e+00 1.706766e+00 1.485203e+00 7.067826e-02 3.101513e-02 5.217583e-02 1.720187e-01 1.085344e-01 1.071494e-01 2.542719e-01 2.632635e-01 2.797274e-01 2.651917e-01 2.659996e-01 2.917709e-01 2.539364e-01 1.290448e-02
<GCONST> 6.988956e+01
<STATE> 11
<MEAN> 39
 -7.647299e+00 -4.827653e-01 1.730334e+00 -3.288471e+00 -2.799008e+00 -5.609868e+00 9.337279e-01 -4.099212e+00 3.848089e+00 2.341806e+00 4.254243e+00 -7.365600e-01 5.929532e+01 -8.632582e-02 -9.088300e-03 -3.599923e-01 -2.094402e-01 1.557333e-01 -1.778861e-01 -2.578757e-01 7.862554e-02 1.352271e-01 5.773921e-02 9.945208e-02 1.069094e-01 -1.186062e-01 1.788311e-02 1.207691e-02 5.745303e-02 6.001754e-03 -3.002998e-02 5.299954e-02 3.049425e-02 -2.265550e-02 1.238778e-02 2.759472e-03 -3.842913e-02 -5.382666e-02 2.017335e-02
<VARIANCE> 39
 1.072061e+00 2.903758e+00 8.722416e+00 1.041692e+01 9.391599e+00 1.165770e+01 1.327163e+01 1.429214e+01 1.103801e+01 1.120875e+01 1.081117e+01 9.642617e+00 9.455396e-01 8.065335e-02 2.165884e-01 6.178104e-01 7.111478e-01 7.980047e-01 1.144631e+00 1.132846e+00 1.432555e+00 1.242805e+00 1.098363e+00 1.206127e+00 1.152938e+00 4.156474e-02 1.461059e-02 4.448881e-02 1.072500e-01 1.391615e-01 1.532164e-01 2.258565e-01 1.959954e-01 2.885122e-01 2.351081e-01 2.108974e-01 2.449647e-01 2.274969e-01 4.592867e-03
<GCONST> 6.060201e+01
<TRANSP> 12
 0.000000e+00 1.000000e+00 0.000000e+00 0.000000e+00 0.000000e+00 0.000000e+00 0.000000e+00 0.000000e+00 0.000000e+00 0.000000e+00 0.000000e+00 0.000000e+00
 0.000000e+00 8.463788e-01 1.536212e-01 0.000000e+00 0.000000e+00 0.000000e+00 0.000000e+00 0.000000e+00 0.000000e+00 0.000000e+00 0.000000e+00 0.000000e+00
 0.000000e+00 0.000000e+00 6.711583e-01 3.288417e-01 0.000000e+00 0.000000e+00 0.000000e+00 0.000000e+00 0.000000e+00 0.000000e+00 0.000000e+00 0.000000e+00
 0.000000e+00 0.000000e+00 0.000000e+00 5.047855e-01 4.952145e-01 0.000000e+00 0.000000e+00 0.000000e+00 0.000000e+00 0.000000e+00 0.000000e+00 0.000000e+00
 0.000000e+00 0.000000e+00 0.000000e+00 0.000000e+00 6.432374e-01 3.567627e-01 0.000000e+00 0.000000e+00 0.000000e+00 0.000000e+00 0.000000e+00 0.000000e+00
 0.000000e+00 0.000000e+00 0.000000e+00 0.000000e+00 0.000000e+00 6.501320e-01 3.498680e-01 0.000000e+00 0.000000e+00 0.000000e+00 0.000000e+00 0.000000e+00
 0.000000e+00 0.000000e+00 0.000000e+00 0.000000e+00 0.000000e+00 0.000000e+00 6.814428e-01 3.185572e-01 0.000000e+00 0.000000e+00 0.000000e+00 0.000000e+00
 0.000000e+00 0.000000e+00 0.000000e+00 0.000000e+00 0.000000e+00 0.000000e+00 0.000000e+00 6.299301e-01 3.700699e-01 0.000000e+00 0.000000e+00 0.000000e+00
 0.000000e+00 0.000000e+00 0.000000e+00 0.000000e+00 0.000000e+00 0.000000e+00 0.000000e+00 0.000000e+00 7.407643e-01 2.592357e-01 0.000000e+00 0.000000e+00
 0.000000e+00 0.000000e+00 0.000000e+00 0.000000e+00 0.000000e+00 0.000000e+00 0.000000e+00 0.000000e+00 0.000000e+00 7.827268e-01 2.172732e-01 0.000000e+00
 0.000000e+00 0.000000e+00 0.000000e+00 0.000000e+00 0.000000e+00 0.000000e+00 0.000000e+00 0.000000e+00 0.000000e+00 0.000000e+00 9.468128e-01 5.318718e-02
 0.000000e+00 0.000000e+00 0.000000e+00 0.000000e+00 0.000000e+00 0.000000e+00 0.000000e+00 0.000000e+00 0.000000e+00 0.000000e+00 0.000000e+00 0.000000e+00
<ENDHMM>
~h "ONE"
<BEGINHMM>
<NUMSTATES> 12
<STATE> 2
<MEAN> 39
 5.189737e+00 -1.012103e+01 4.138536e+00 -1.619989e+01 -1.556151e+01 7.673525e+00 -4.138968e+00 -2.903998e+00 4.031894e+00 -6.514246e+00 4.506701e+00 -6.069490e+00 7.825645e+01 -4.319642e-04 -1.187226e+00 2.959834e-01 4.249327e-01 2.497680e-01 2.826300e-01 -1.464568e+00 5.149130e-01 1.914977e-01 2.428627e-01 -2.056842e-01 -9.464384e-01 8.198531e-01 -2.099337e-01 2.752194e-01 7.851446e-02 3.960847e-01 3.601412e-01 -2.957428e-01 1.589370e-02 -9.582913e-02 -7.227155e-02 2.108554e-01 -1.589150e-01 -6.326841e-02 -3.451864e-01
<VARIANCE> 39
 7.138435e+00 4.131268e+01 9.270432e+00 3.677235e+01 2.911101e+01 3.230194e+01 4.746431e+01 1.779440e+01 1.206777e+01 2.333388e+01 2.787257e+01 3.355717e+01 2.678406e+01 1.098698e+00 2.864051e+00 1.019622e+00 4.229740e+00 4.384003e+00 5.236584e+00 2.278982e+00 1.988137e+00 1.117400e+00 1.692060e+00 1.831824e+00 1.701041e+00 1.961882e+00 2.429417e-01 4.038434e-01 1.798008e-01 3.585878e-01 6.198962e-01 5.440726e-01 5.578091e-01 7.928593e-01 2.276169e-01 3.030254e-01 2.976880e-01 3.233765e-01 4.912926e-02
<GCONST> 1.072557e+02
<STATE> 3
<MEAN> 39
 3.905811e+00 -9.298328e+00 8.571687e+00 -6.234132e+00 -8.781816e+00 1.709442e+00 -1.346079e+01 -4.215261e+00 3.372282e+00 -5.644172e-01 -1.405866e+00 -1.401994e+01 7.582177e+01 -1.543640e-01 2.131810e+00 1.526481e+00 1.223199e+00 -6.064359e-01 -6.240994e-01 2.106024e+00 -4.619714e+00 -1.354273e+00 1.594594e+00 -1.185252e+00 6.489734e-01 -1.508331e+00 4.529615e-02 7.633068e-02 1.762316e-03 -1.889454e-01 -5.966133e-01 3.351944e-01 8.474762e-01 -6.349432e-01 -1.428535e-01 -7.733794e-02 2.775988e-01 5.474771e-01 -1.840005e-02
<VARIANCE> 39
 1.707209e+00 1.219893e+01 1.669618e+01 1.202138e+01 2.343370e+01 8.008612e+00 2.578514e+01 7.267997e+01 1.678273e+01 2.573300e+01 1.762610e+01 9.224337e+00 8.089691e+00 9.301148e-02 3.229218e-01 6.948736e-01 5.071339e-01 2.807142e+00 1.675310e+00 3.371524e+00 4.974349e+00 1.393819e+00 1.894686e+00 1.642997e+00 1.615670e+00 1.551362e-01 1.303865e-02 1.277048e-01 2.142194e-01 9.545397e-02 3.829266e-01 2.087935e-01 7.137549e-01 1.899738e+00 4.089653e-01 4.911378e-01 2.612184e-01 1.548122e-01 7.185081e-02
<GCONST> 8.598331e+01
<STATE> 4
<MEAN> 39
 3.876361e+00 -4.492961e+00 1.321406e+01 -4.523127e+00 -1.439659e+01 2.204970e+00 -5.748510e+00 -1.773043e+01 -7.283283e-01 2.521425e+00 -3.105688e+00 -1.032767e+01 7.295628e+01 -6.122755e-02 1.259279e+00 1.658752e-01 4.005547e-01 -2.840338e-01 -4.706711e-01 1.411268e+00 -1.397424e+00 -4.391485e-02 7.652534e-02 -1.759450e-01 1.050870e+00 -8.680974e-01 -6.378809e-02 -2.212977e-01 -5.276005e-01 -1.579806e-01 6.160029e-01 -7.361153e-02 -5.842699e-01 1.455165e+00 4.150575e-01 -4.223269e-01 1.280405e-01 -1.014946e-01 1.469360e-01
<VARIANCE> 39
 1.246490e+00 1.150214e+01 1.063348e+01 1.495873e+01 1.605441e+01 1.270764e+01 2.068709e+01 1.693164e+01 7.273998e+00 1.166422e+01 8.524668e+00 9.145925e+00 7.789189e+00 6.288427e-02 3.215918e-01 6.580362e-01 4.392799e-01 1.198157e+00 5.870912e-01 1.033782e+00 3.582996e+00 1.814406e+00 1.158604e+00 6.609145e-01 9.009165e-01 6.550904e-02 1.234570e-02 1.018424e-01 5.791500e-02 1.489560e-01 1.440518e-01 1.394037e-01 3.346846e-01 4.915093e-01 3.097824e-01 2.820975e-01 1.935387e-01 1.711168e-01 3.270644e-02
<GCONST> 6.834090e+01
<STATE> 5
<MEAN> 39
 3.351753e+00 -1.727073e+00 1.163095e+01 -3.266912e+00 -1.144201e+01 1.032432e+00 -4.004164e+00 -1.688637e+01 3.118092e-02 2.158276e+00 -3.246564e+00 -7.782124e+00 7.078392e+01 -2.833637e-01 1.032937e+00 -6.152556e-01 1.822869e-01 1.091947e+00 -2.478705e-01 6.315622e-01 7.515656e-01 1.040678e-01 -6.132631e-01 1.288148e-02 9.560477e-01 -8.537515e-01 -8.277289e-02 -1.546177e-01 -1.492900e-01 -3.124629e-02 3.279641e-01 8.343468e-02 -2.004888e-01 4.332222e-01 1.205000e-01 -1.075391e-01 6.034801e-02 -1.649937e-01 8.324140e-03
<VARIANCE> 39
 1.147610e+00 8.458444e+00 8.961766e+00 8.981818e+00 8.963133e+00 1.276553e+01 1.168383e+01 8.240149e+00 1.266995e+01 8.925931e+00 8.904392e+00 6.137721e+00 3.962063e+00 8.601785e-02 3.488086e-01 4.098922e-01 4.281638e-01 6.193640e-01 4.636611e-01 9.173979e-01 1.283237e+00 9.664913e-01 9.852618e-01 4.755652e-01 5.230420e-01 9.570221e-02 9.138086e-03 5.022711e-02 7.155465e-02 9.084247e-02 1.307539e-01 1.061168e-01 2.118943e-01 3.798473e-01 2.972845e-01 2.209527e-01 1.287941e-01 1.217582e-01 1.509928e-02
<GCONST> 5.704247e+01
<STATE> 6
<MEAN> 39
 2.353367e+00 1.286954e+00 1.082198e+01 -2.337252e+00 -9.537359e+00 -6.800282e-01 -2.520077e+00 -1.434481e+01 5.466488e-01 6.106193e-01 -2.643435e+00 -5.494167e+00 6.803841e+01 -4.326549e-01 8.101439e-01 -4.766349e-01 2.716088e-01 1.217987e+00 -1.834584e-01 3.752372e-01 8.400971e-01 3.057086e-01 -1.086833e-01 -4.536281e-02 3.878320e-01 -8.168498e-01 -7.738897e-02 -2.923401e-02 -1.297483e-02 6.456380e-02 1.536808e-01 2.692709e-02 -1.520021e-02 1.238640e-01 5.210809e-02 8.401480e-02 5.363664e-02 -9.563270e-02 -2.573780e-02
<VARIANCE> 39
 1.139273e+00 8.374228e+00 6.660741e+00 6.538308e+00 1.202490e+01 7.053295e+00 1.044614e+01 1.076446e+01 8.994797e+00 1.262000e+01 8.000237e+00 6.274931e+00 2.181810e+00 9.289525e-02 1.953090e-01 5.961688e-01 2.234256e-01 8.448040e-01 4.234007e-01 7.528715e-01 1.163227e+00 8.576117e-01 1.436229e+00 5.387704e-01 7.165254e-01 6.415229e-02 1.396407e-02 5.317713e-02 7.901834e-02 6.147047e-02 9.762978e-02 7.495646e-02 1.480995e-01 1.565887e-01 1.420192e-01 2.860528e-01 1.111649e-01 1.652686e-01 7.531146e-03
<GCONST> 5.231861e+01
<STATE> 7
<MEAN> 39
 4.472418e-01 3.844711e+00 8.613633e+00 -1.932231e+00 -4.708036e+00 -1.002609e+00 -7.432219e-01 -1.074162e+01 1.031783e+00 -7.507403e-02 -2.785014e+00 -4.855614e+00 6.518554e+01 -6.344883e-01 5.125990e-01 -3.551472e-01 6.036052e-01 1.506172e+00 3.163721e-02 5.991558e-01 9.330017e-01 1.016790e-01 -1.108680e-01 3.453341e-01 1.818289e-01 -8.352107e-01 -4.235001e-03 -1.569595e-01 1.267436e-02 7.660804e-02 8.377876e-02 1.553206e-01 1.111536e-01 -5.337416e-02 -1.338298e-01 -1.891252e-02 1.793329e-03 -1.271231e-01 4.788807e-02
<VARIANCE> 39
 2.230030e+00 8.315623e+00 9.936958e+00 1.061278e+01 7.055301e+00 8.249205e+00 1.105301e+01 1.195587e+01 1.347149e+01 1.026742e+01 1.061402e+01 1.339802e+01 2.511422e+00 7.611213e-02 2.388685e-01 4.942554e-01 4.502801e-01 7.109520e-01 4.181810e-01 8.311284e-01 1.237793e+00 8.782280e-01 9.989697e-01 7.097409e-01 1.063267e+00 6.629529e-02 2.021029e-02 4.931930e-02 1.199023e-01 7.958335e-02 1.337693e-01 7.901713e-02 1.537861e-01 2.416589e-01 2.071366e-01 2.560103e-01 1.821701e-01 2.081458e-01 1.348958e-02
<GCONST> 5.927030e+01
<STATE> 8
<MEAN> 39
 -1.036938e+00 4.320017e+00 6.943437e+00 7.633258e-01 1.715524e+00 3.525916e-01 7.916226e-01 -8.109109e+00 1.763318e+00 -1.713414e-01 -2.379609e+00 -5.808692e+00 6.336318e+01 -6.243396e-01 5.282210e-02 -4.975324e-01 7.210418e-01 1.827885e+00 5.899457e-01 7.614501e-01 8.163439e-01 -1.025186e-02 -4.403086e-01 3.096421e-01 1.648230e-01 -5.802591e-01 -3.980861e-02 -2.302222e-01 -3.116021e-02 -2.172704e-01 -3.235860e-01 -1.927051e-02 4.725898e-02 7.158721e-02 1.588897e-01 2.344142e-02 7.036150e-02 1.892408e-01 1.049211e-01
<VARIANCE> 39
 1.317679e+00 4.475169e+00 9.343431e+00 7.137033e+00 1.053727e+01 1.055247e+01 7.845459e+00 1.547825e+01 1.051550e+01 1.245591e+01 8.151705e+00 1.092768e+01 2.655495e+00 1.061502e-01 2.426891e-01 4.079174e-01 6.235462e-01 8.826561e-01 1.020630e+00 9.011098e-01 1.423732e+00 1.161794e+00 1.458683e+00 8.474215e-01 1.254817e+00 9.882803e-02 1.682998e-02 3.282412e-02 1.042184e-01 1.151463e-01 2.718628e-01 1.787881e-01 1.780327e-01 2.936518e-01 1.831952e-01 2.627980e-01 2.067859e-01 2.439495e-01 1.238822e-02
<GCONST> 6.258422e+01
<STATE> 9
<MEAN> 39
 -2.868291e+00 3.954185e+00 6.267462e+00 1.608308e+00 3.941349e+00 1.234007e+00 3.278078e+00 -5.647395e+00 1.760746e+00 -1.694999e+00 -1.881394e+00 -4.305454e+00 6.205082e+01 -8.116494e-01 -5.591502e-01 -5.914068e-01 -2.985150e-01 2.778595e-01 -3.804084e-02 7.743939e-01 1.220783e+00 6.388021e-01 2.119182e-01 5.461182e-01 4.604321e-01 -4.287358e-01 6.242871e-03 -8.099887e-02 4.202172e-02 -2.661096e-01 -5.532876e-01 -2.584920e-01 -2.476656e-01 -4.377218e-02 1.453318e-01 3.341190e-01 1.154441e-01 2.697466e-03 6.061470e-02
<VARIANCE> 39
 1.160459e+00 6.328886e+00 6.657487e+00 6.730178e+00 9.066080e+00 1.409384e+01 1.101594e+01 1.328863e+01 1.298548e+01 1.333157e+01 1.142278e+01 1.048887e+01 2.091514e+00 8.780190e-02 1.389337e-01 3.235475e-01 3.863386e-01 1.487703e+00 7.923525e-01 1.090023e+00 1.667815e+00 1.184067e+00 1.234133e+00 1.458934e+00 1.083488e+00 3.807763e-02 1.714468e-02 4.426498e-02 6.411543e-02 8.746056e-02 1.930754e-01 2.766498e-01 1.999179e-01 3.747016e-01 2.227045e-01 2.831414e-01 2.597141e-01 2.224305e-01 9.431666e-03
<GCONST> 6.166605e+01
<STATE> 10
<MEAN> 39
 -5.086449e+00 2.669271e+00 4.905621e+00 7.517936e-01 3.143271e+00 5.539739e-02 3.785262e+00 -2.566202e+00 4.518269e+00 4.574515e-01 1.183607e+00 -2.518900e+00 6.073992e+01 -5.138745e-01 -2.736516e-01 -3.668772e-01 -1.231198e-01 -1.040292e-01 -3.262600e-01 -5.020184e-02 5.708439e-01 4.426576e-01 3.402122e-01 4.571304e-01 3.518676e-01 -3.334591e-01 5.871664e-02 3.365761e-02 -3.664779e-03 -3.490180e-02 -4.846539e-02 -4.817000e-02 -1.447078e-01 -1.991293e-01 -8.825305e-02 -1.026404e-01 -4.124486e-02 -1.777534e-02 2.224577e-02
<VARIANCE> 39
 1.668759e+00 4.169065e+00 5.261559e+00 7.430021e+00 1.046486e+01 9.490173e+00 9.341903e+00 1.431839e+01 1.359219e+01 1.350340e+01 1.398971e+01 1.346071e+01 2.361505e+00 9.806807e-02 2.086881e-01 3.175843e-01 4.211788e-01 8.887509e-01 1.287091e+00 8.865547e-01 1.249160e+00 1.341452e+00 1.546077e+00 1.584578e+00 1.125965e+00 4.044338e-02 2.136947e-02 3.050592e-02 5.577969e-02 8.405039e-02 1.696884e-01 1.858864e-01 1.677935e-01 2.799066e-01 2.907673e-01 3.247758e-01 3.281839e-01 2.741941e-01 8.870540e-03
<GCONST> 6.181747e+01
<STATE> 11
<MEAN> 39
 -8.993595e+00 3.502567e-01 1.433651e+00 -1.863418e+00 1.513059e+00 -2.539250e+00 2.982289e+00 -1.202327e+00 5.208606e+00 1.940800e+00 5.168558e+00 2.112190e-01 5.804105e+01 -9.240630e-02 -6.804084e-02 -6.840042e-02 -3.638418e-02 -4.212622e-02 -8.055263e-02 -9.914891e-02 -2.363637e-02 -1.042126e-02 4.092419e-02 1.279836e-01 8.012236e-02 -5.080153e-02 9.061982e-03 7.669658e-03 1.388197e-02 3.309717e-03 -1.366299e-03 1.512122e-02 7.109171e-03 -1.834219e-02 -1.417090e-02 -4.621541e-03 -1.556519e-02 -1.017691e-02 8.008810e-03
<VARIANCE> 39
 2.091467e+00 2.289577e+00 4.028134e+00 7.374063e+00 8.597170e+00 1.072852e+01 8.926870e+00 9.286471e+00 1.274553e+01 1.723008e+01 1.398912e+01 9.134099e+00 1.091823e+00 8.197439e-02 1.938887e-01 4.334978e-01 7.464417e-01 8.886100e-01 1.119591e+00 9.376584e-01 1.018471e+00 1.549218e+00 1.431327e+00 1.234562e+00 9.005796e-01 4.088053e-02 1.492267e-02 3.857488e-02 8.009111e-02 1.383060e-01 1.728350e-01 2.234565e-01 1.808974e-01 2.030753e-01 3.546143e-01 3.180079e-01 2.567354e-01 1.761003e-01 7.779188e-03
<GCONST> 5.963462e+01
<TRANSP> 12
 0.000000e+00 1.000000e+00 0.000000e+00 0.000000e+00 0.000000e+00 0.000000e+00 0.000000e+00 0.000000e+00 0.000000e+00 0.000000e+00 0.000000e+00 0.000000e+00
 0.000000e+00 9.122099e-01 8.779012e-02 0.000000e+00 0.000000e+00 0.000000e+00 0.000000e+00 0.000000e+00 0.000000e+00 0.000000e+00 0.000000e+00 0.000000e+00
 0.000000e+00 0.000000e+00 7.038674e-01 2.961325e-01 0.000000e+00 0.000000e+00 0.000000e+00 0.000000e+00 0.000000e+00 0.000000e+00 0.000000e+00 0.000000e+00
 0.000000e+00 0.000000e+00 0.000000e+00 5.864440e-01 4.135560e-01 0.000000e+00 0.000000e+00 0.000000e+00 0.000000e+00 0.000000e+00 0.000000e+00 0.000000e+00
 0.000000e+00 0.000000e+00 0.000000e+00 0.000000e+00 5.930678e-01 4.069323e-01 0.000000e+00 0.000000e+00 0.000000e+00 0.000000e+00 0.000000e+00 0.000000e+00
 0.000000e+00 0.000000e+00 0.000000e+00 0.000000e+00 0.000000e+00 6.864951e-01 3.135049e-01 0.000000e+00 0.000000e+00 0.000000e+00 0.000000e+00 0.000000e+00
 0.000000e+00 0.000000e+00 0.000000e+00 0.000000e+00 0.000000e+00 0.000000e+00 6.886386e-01 3.113614e-01 0.000000e+00 0.000000e+00 0.000000e+00 0.000000e+00
 0.000000e+00 0.000000e+00 0.000000e+00 0.000000e+00 0.000000e+00 0.000000e+00 0.000000e+00 5.529750e-01 4.470250e-01 0.000000e+00 0.000000e+00 0.000000e+00
 0.000000e+00 0.000000e+00 0.000000e+00 0.000000e+00 0.000000e+00 0.000000e+00 0.000000e+00 0.000000e+00 5.273280e-01 4.726720e-01 0.000000e+00 0.000000e+00
 0.000000e+00 0.000000e+00 0.000000e+00 0.000000e+00 0.000000e+00 0.000000e+00 0.000000e+00 0.000000e+00 0.000000e+00 8.076696e-01 1.923304e-01 0.000000e+00
 0.000000e+00 0.000000e+00 0.000000e+00 0.000000e+00 0.000000e+00 0.000000e+00 0.000000e+00 0.000000e+00 0.000000e+00 0.000000e+00 9.560934e-01 4.390663e-02
 0.000000e+00 0.000000e+00 0.000000e+00 0.000000e+00 0.000000e+00 0.000000e+00 0.000000e+00 0.000000e+00 0.000000e+00 0.000000e+00 0.000000e+00 0.000000e+00
<ENDHMM>
~h "SIL"
<BEGINHMM>
<NUMSTATES> 12
<STATE> 2
<MEAN> 39
 -7.112025e+00 -1.689365e+00 -3.602220e-01 -3.483225e+00 -5.074732e-01 -4.810748e+00 5.403131e-01 -2.210514e+00 5.011284e+00 1.078440e+00 3.291827e+00 1.967947e-01 5.965635e+01 -1.523013e-02 4.075804e-02 -6.935748e-02 -3.599475e-02 -3.084155e-02 -2.408008e-02 4.941280e-03 4.355875e-03 -6.391436e-03 5.454088e-02 4.133880e-02 -1.773382e-02 -4.669356e-02 -3.076046e-03 -9.390545e-03 2.334089e-02 6.908270e-03 5.648041e-03 7.062046e-03 -6.777820e-03 5.696579e-03 -5.093053e-03 -1.045835e-02 -7.124089e-03 2.166763e-03 1.452588e-02
<VARIANCE> 39
 3.665272e+00 4.573217e+00 6.968472e+00 8.152267e+00 8.940712e+00 1.150185e+01 1.378324e+01 1.184745e+01 1.261779e+01 1.451257e+01 1.330845e+01 9.605966e+00 2.272840e+00 1.146682e-01 2.533021e-01 4.331656e-01 5.860918e-01 7.890964e-01 1.006438e+00 1.132867e+00 1.251696e+00 1.330378e+00 1.361277e+00 1.258253e+00 1.004521e+00 4.907171e-02 1.892949e-02 4.103550e-02 8.145087e-02 1.098709e-01 1.462650e-01 1.952116e-01 2.206322e-01 2.436813e-01 2.663039e-01 2.658246e-01 2.354021e-01 1.880320e-01 7.226969e-03
<GCONST> 6.311800e+01
<STATE> 3
<MEAN> 39
 -7.689603e+00 -1.967461e+00 2.206531e-01 -3.006565e+00 -2.980304e-02 -3.861775e+00 1.241520e+00 -1.675647e+00 4.901628e+00 8.435004e-01 2.928578e+00 -2.376665e-01 5.969430e+01 -2.915853e-02 -4.611342e-02 -1.014209e-02 -2.500123e-02 -2.288820e-02 -6.152385e-03 -1.901468e-02 1.576047e-02 -2.572177e-02 -5.123385e-02 -1.894989e-02 -2.077043e-02 2.602656e-02 -1.454549e-02 -3.271762e-02 3.663919e-02 5.233805e-04 -2.533167e-03 -3.759168e-03 -7.196351e-03 6.044230e-03 -2.249828e-02 -3.107881e-02 -1.630940e-02 1.257363e-02 3.409795e-02
<VARIANCE> 39
 6.165774e+00 6.795564e+00 9.554644e+00 1.072369e+01 1.215900e+01 1.357282e+01 1.809751e+01 1.464462e+01 1.441519e+01 1.556334e+01 1.424180e+01 1.194198e+01 4.434881e+00 2.378699e-01 4.877153e-01 6.840601e-01 7.714489e-01 1.003202e+00 1.147225e+00 1.310380e+00 1.572555e+00 1.503525e+00 1.567226e+00 1.474718e+00 1.212004e+00 1.216042e-01 3.560004e-02 9.130389e-02 1.330869e-01 1.456860e-01 2.034091e-01 2.256998e-01 2.607673e-01 3.245780e-01 2.986370e-01 3.046574e-01 3.046404e-01 2.473609e-01 1.877591e-02
<GCONST> 7.598783e+01
<STATE> 4
<MEAN> 39
 -7.694967e+00 -2.559562e+00 2.867263e-01 -3.134539e+00 -6.187726e-01 -4.121975e+00 7.054462e-01 -1.710540e+00 5.087072e+00 7.003965e-01 3.033827e+00 8.960089e-02 6.016640e+01 -1.150643e-01 -2.093178e-01 1.107263e-01 -6.074002e-02 -7.002153e-02 5.485507e-02 -6.943232e-02 4.688349e-02 -8.135089e-02 -1.265078e-01 -2.786675e-02 5.624192e-02 1.538605e-01 -3.250818e-02 -4.430200e-02 3.851178e-02 -1.412012e-02 3.336624e-03 -2.162121e-02 -2.665130e-02 2.936099e-02 8.412806e-03 3.512292e-02 -1.161567e-02 1.753739e-02 5.653356e-02
<VARIANCE> 39
 6.750525e+00 1.160782e+01 1.040248e+01 1.116301e+01 1.353534e+01 1.458113e+01 1.818640e+01 1.395856e+01 1.250032e+01 1.473898e+01 1.502983e+01 1.118258e+01 5.740595e+00 3.251942e-01 6.263583e-01 7.412448e-01 9.172943e-01 9.285222e-01 1.038330e+00 1.396236e+00 1.477817e+00 1.411927e+00 1.303065e+00 1.246934e+00 9.771113e-01 1.942646e-01 5.194027e-02 1.162151e-01 1.524410e-01 1.643120e-01 1.819119e-01 2.374392e-01 2.620014e-01 3.015270e-01 2.672619e-01 2.542949e-01 2.770439e-01 2.427563e-01 3.215787e-02
<GCONST> 7.828025e+01
<STATE> 5
<MEAN> 39
 -8.083962e+00 -3.994377e+00 2.806151e-01 -3.229198e+00 -1.322373e+00 -3.731611e+00 6.847537e-01 -1.498712e+00 5.119718e+00 8.479460e-01 2.794491e+00 7.614897e-02 6.117756e+01 -1.824612e-01 -3.165491e-01 1.696569e-01 8.443855e-03 -9.769632e-02 4.021963e-02 -2.033801e-01 1.314956e-01 -1.523507e-02 -3.670388e-02 -2.549995e-02 4.170882e-02 2.688409e-01 -2.813231e-02 4.088257e-02 3.564931e-02 -1.008470e-02 7.788266e-03 -3.660570e-02 -4.397748e-02 2.112897e-02 -3.243496e-02 4.135828e-02 5.156677e-03 1.138563e-02 3.380848e-02
<VARIANCE> 39
 7.249465e+00 1.701032e+01 1.050508e+01 1.279129e+01 1.521129e+01 1.335898e+01 1.869360e+01 1.582306e+01 1.425288e+01 1.449803e+01 1.452055e+01 1.361611e+01 7.453316e+00 3.990192e-01 1.214348e+00 9.748321e-01 9.407140e-01 8.964049e-01 1.166111e+00 1.454656e+00 1.501476e+00 1.591632e+00 1.323587e+00 1.473247e+00 1.344685e+00 4.018902e-01 8.993195e-02 1.776100e-01 1.608454e-01 1.713131e-01 1.868035e-01 2.093864e-01 2.709836e-01 2.914772e-01 2.987648e-01 3.036124e-01 2.912166e-01 2.573423e-01 5.473293e-02
<GCONST> 8.414983e+01
<STATE> 6
<MEAN> 39
 -8.978973e+00 -4.649242e+00 1.153232e+00 -3.381354e+00 -1.947200e+00 -3.221233e+00 -3.018030e-01 -6.162581e-01 5.185336e+00 8.069986e-01 3.025909e+00 4.616035e-01 6.228098e+01 -3.050238e-01 -1.546635e-01 2.314330e-01 -8.047029e-02 -8.550904e-02 -1.392131e-02 -2.166984e-01 2.218135e-01 -1.473192e-01 1.205382e-01 -8.310602e-02 5.114041e-02 3.947715e-01 1.171874e-02 6.036824e-02 -4.842009e-02 -1.120420e-03 3.764818e-02 -2.391325e-02 4.084129e-02 -4.470595e-02 -5.867076e-02 3.496086e-02 -4.170287e-02 -5.236655e-02 1.322790e-02
<VARIANCE> 39
 1.033934e+01 2.525491e+01 1.207874e+01 1.456554e+01 1.864693e+01 1.796246e+01 2.379593e+01 1.621562e+01 1.442225e+01 1.516286e+01 1.568204e+01 1.185156e+01 1.309448e+01 6.724613e-01 6.375731e-01 1.038352e+00 8.345254e-01 1.103914e+00 1.164354e+00 1.359777e+00 1.375099e+00 1.288372e+00 1.499657e+00 1.325721e+00 1.090050e+00 3.814922e-01 8.026395e-02 1.232363e-01 1.599253e-01 1.385807e-01 2.088177e-01 1.978061e-01 2.602084e-01 2.350021e-01 2.473671e-01 2.707493e-01 2.455905e-01 2.141720e-01 3.452948e-02
<GCONST> 8.389529e+01
<STATE> 7
<MEAN> 39
 -1.259467e+01 -2.017832e+00 2.652764e+00 -5.402558e+00 3.906042e-01 -5.445133e+00 -9.667544e-01 5.818077e-01 3.411021e+00 1.995319e+00 1.768853e+00 7.344345e-01 6.415333e+01 -4.672070e-01 1.379700e-01 -6.197015e-02 -5.080772e-02 -4.760670e-03 -8.464470e-02 3.585827e-03 -1.013830e-02 -1.820080e-01 1.188133e-01 -8.634737e-02 7.260963e-05 3.647819e-01 1.370308e-01 3.909290e-03 -4.480922e-02 7.939535e-02 -2.658412e-02 4.684213e-02 4.425233e-02 -8.653228e-02 -1.081086e-02 -6.916343e-02 1.307817e-03 -3.869580e-02 -5.441218e-02
<VARIANCE> 39
 3.933043e+01 2.510031e+01 1.663874e+01 2.439083e+01 2.046120e+01 1.854239e+01 2.157015e+01 2.159855e+01 1.640182e+01 1.540875e+01 1.540287e+01 1.443645e+01 1.827899e+01 1.040783e+00 8.606167e-01 7.151042e-01 9.727118e-01 1.308531e+00 1.147130e+00 1.233522e+00 1.309399e+00 1.278142e+00 1.437566e+00 1.378914e+00 1.032151e+00 4.235415e-01 9.279098e-02 1.621481e-01 1.895141e-01 1.773656e-01 2.475709e-01 2.303742e-01 2.285739e-01 2.735151e-01 2.678399e-01 2.600585e-01 2.664436e-01 2.337691e-01 4.239778e-02
<GCONST> 8.919084e+01
<STATE> 8
<MEAN> 39
 -1.015015e+01 -3.588444e+00 1.112654e+00 -3.516141e+00 -1.170964e+00 -4.093034e+00 -7.166845e-01 -9.216482e-01 4.175383e+00 1.339420e+00 2.346924e+00 4.575065e-01 6.323110e+01 3.901266e-02 -8.851535e-02 -3.648992e-02 3.525606e-02 7.874879e-02 6.860080e-02 2.248281e-02 -1.051208e-01 -2.097959e-01 -5.910708e-02 -9.406809e-02 -5.271123e-02 1.740600e-01 1.702922e-01 4.708825e-02 1.044136e-01 -2.723119e-02 -2.960990e-02 1.019469e-02 3.977545e-03 -2.517321e-02 -3.085677e-04 -7.247324e-02 -3.515021e-02 -7.695132e-02 6.362094e-03
<VARIANCE> 39
 3.093022e+01 3.350762e+01 1.400456e+01 1.724225e+01 2.205253e+01 1.796296e+01 2.478823e+01 1.884055e+01 1.718151e+01 1.615678e+01 1.416999e+01 1.204155e+01 2.213357e+01 7.077566e-01 9.652332e-01 1.067891e+00 1.006460e+00 1.662145e+00 1.442632e+00 1.393402e+00 1.353143e+00 1.466497e+00 1.454865e+00 1.340313e+00 1.199645e+00 4.395860e-01 1.547920e-01 2.356468e-01 2.708575e-01 2.235904e-01 2.933739e-01 3.340447e-01 3.019742e-01 3.234972e-01 3.314297e-01 3.340856e-01 3.025839e-01 2.549509e-01 9.354387e-02
<GCONST> 9.381291e+01
<STATE> 9
<MEAN> 39
 -9.669220e+00 -3.872080e+00 7.739945e-01 -3.399662e+00 -1.165398e+00 -4.000288e+00 -4.157266e-01 -1.324506e+00 3.893575e+00 1.106893e+00 2.656024e+00 1.045447e-01 6.298789e+01 4.451689e-01 1.170982e-01 2.367334e-01 -8.573651e-02 1.202209e-02 6.525445e-02 5.043805e-03 -1.074149e-01 -1.958516e-01 -2.047514e-01 -1.610174e-01 -2.565016e-01 1.116231e-01 2.551234e-01 8.046904e-02 2.574569e-01 -1.159427e-01 -2.019955e-01 -1.716912e-03 -6.923619e-02 -5.406323e-02 1.088586e-02 -1.179518e-01 -5.913637e-02 -9.849748e-02 9.572506e-02
<VARIANCE> 39
 2.572598e+01 3.608141e+01 1.387829e+01 1.566771e+01 2.369882e+01 1.670034e+01 2.459422e+01 1.660678e+01 1.834665e+01 1.606164e+01 1.753024e+01 1.244988e+01 2.516962e+01 7.193708e-01 9.904901e-01 1.529485e+00 1.147631e+00 1.506483e+00 1.289628e+00 1.473451e+00 1.417530e+00 1.469950e+00 1.424065e+00 1.579900e+00 1.314197e+00 4.848001e-01 2.031565e-01 3.404177e-01 2.600873e-01 2.364449e-01 4.243244e-01 3.109047e-01 3.577965e-01 2.982302e-01 3.412773e-01 3.777977e-01 3.240509e-01 2.591264e-01 1.830017e-01
<GCONST> 9.660507e+01
<STATE> 10
<MEAN> 39
 -8.752010e+00 -3.375215e+00 1.053242e+00 -3.776389e+00 -7.823289e-01 -3.616284e+00 1.631644e-02 -1.368015e+00 3.739525e+00 6.042914e-01 2.155198e+00 -3.333482e-01 6.265558e+01 8.702800e-01 3.265416e-01 6.971108e-01 -2.539272e-01 -4.010958e-01 -2.132622e-02 -8.266816e-02 -2.864395e-01 -2.153736e-01 -3.964432e-01 -2.514139e-01 -4.104719e-01 3.133259e-01 2.742684e-01 6.543942e-03 2.955276e-01 -1.711144e-01 -3.879228e-01 2.805930e-03 -1.844576e-01 -1.049898e-01 2.231782e-02 -8.306772e-02 2.616934e-03 -3.878291e-02 2.544739e-01
<VARIANCE> 39
 2.515923e+01 3.474815e+01 2.084688e+01 1.799480e+01 2.169086e+01 1.618021e+01 2.247705e+01 1.919330e+01 1.665333e+01 1.432565e+01 1.540035e+01 1.495061e+01 2.070231e+01 1.897449e+00 2.630716e+00 2.496089e+00 1.599266e+00 2.455030e+00 2.014063e+00 2.132009e+00 2.027156e+00 2.125771e+00 2.139812e+00 2.119181e+00 1.790760e+00 1.247570e+00 2.327646e-01 3.454540e-01 3.017195e-01 3.332945e-01 5.443159e-01 3.356659e-01 3.523234e-01 3.019610e-01 2.880710e-01 3.467626e-01 2.879377e-01 2.518569e-01 2.075929e-01
<GCONST> 1.041155e+02
<STATE> 11
<MEAN> 39
 -7.132406e+00 -1.769477e+00 2.358289e+00 -4.075595e+00 -1.535255e+00 -4.104927e+00 -4.785770e-02 -1.744113e+00 3.407697e+00 1.930926e-01 1.976525e+00 -1.141608e+00 6.293919e+01 1.231956e+00 8.608770e-02 1.108695e+00 -6.288867e-01 -1.238161e+00 -1.961702e-02 -4.968421e-01 -4.031654e-01 -1.764559e-01 -4.904688e-01 -1.998271e-01 -3.200301e-01 9.301856e-01 1.064172e-01 -2.020052e-01 1.095035e-01 -1.807391e-01 -2.945449e-01 7.294508e-02 -2.419417e-01 -4.726071e-02 1.040099e-01 1.396831e-02 7.316514e-02 5.176204e-02 2.406242e-01
<VARIANCE> 39
 3.582713e+01 2.575928e+01 3.102021e+01 1.950001e+01 2.573912e+01 2.045649e+01 1.985434e+01 2.148553e+01 1.864315e+01 1.932146e+01 1.940852e+01 1.793927e+01 2.064491e+01 3.136515e+00 3.867261e+00 3.335596e+00 2.975754e+00 4.143222e+00 2.751839e+00 2.372298e+00 2.339818e+00 2.055269e+00 2.610694e+00 2.272883e+00 1.742129e+00 2.239366e+00 2.967156e-01 2.744635e-01 2.481476e-01 3.500110e-01 4.283182e-01 2.923431e-01 3.338140e-01 2.704371e-01 1.893175e-01 2.461883e-01 2.465759e-01 2.729238e-01 1.945215e-01
<GCONST> 1.079637e+02
<TRANSP> 12
 0.000000e+00 1.000000e+00 0.000000e+00 0.000000e+00 0.000000e+00 0.000000e+00 0.000000e+00 0.000000e+00 0.000000e+00 0.000000e+00 0.000000e+00 0.000000e+00
 0.000000e+00 8.986402e-01 1.013598e-01 0.000000e+00 0.000000e+00 0.000000e+00 0.000000e+00 0.000000e+00 0.000000e+00 0.000000e+00 0.000000e+00 0.000000e+00
 0.000000e+00 0.000000e+00 5.824446e-01 4.175554e-01 0.000000e+00 0.000000e+00 0.000000e+00 0.000000e+00 0.000000e+00 0.000000e+00 0.000000e+00 0.000000e+00
 0.000000e+00 0.000000e+00 0.000000e+00 3.061480e-01 6.938521e-01 0.000000e+00 0.000000e+00 0.000000e+00 0.000000e+00 0.000000e+00 0.000000e+00 0.000000e+00
 0.000000e+00 0.000000e+00 0.000000e+00 0.000000e+00 4.205265e-01 5.794736e-01 0.000000e+00 0.000000e+00 0.000000e+00 0.000000e+00 0.000000e+00 0.000000e+00
 0.000000e+00 0.000000e+00 0.000000e+00 0.000000e+00 0.000000e+00 3.069328e-01 6.930671e-01 0.000000e+00 0.000000e+00 0.000000e+00 0.000000e+00 0.000000e+00
 0.000000e+00 0.000000e+00 0.000000e+00 0.000000e+00 0.000000e+00 0.000000e+00 4.783545e-01 5.216455e-01 0.000000e+00 0.000000e+00 0.000000e+00 0.000000e+00
 0.000000e+00 0.000000e+00 0.000000e+00 0.000000e+00 0.000000e+00 0.000000e+00 0.000000e+00 3.057479e-01 6.942521e-01 0.000000e+00 0.000000e+00 0.000000e+00
 0.000000e+00 0.000000e+00 0.000000e+00 0.000000e+00 0.000000e+00 0.000000e+00 0.000000e+00 0.000000e+00 1.125743e-01 8.874257e-01 0.000000e+00 0.000000e+00
 0.000000e+00 0.000000e+00 0.000000e+00 0.000000e+00 0.000000e+00 0.000000e+00 0.000000e+00 0.000000e+00 0.000000e+00 9.634031e-02 9.036597e-01 0.000000e+00
 0.000000e+00 0.000000e+00 0.000000e+00 0.000000e+00 0.000000e+00 0.000000e+00 0.000000e+00 0.000000e+00 0.000000e+00 0.000000e+00 7.635342e-02 9.236465e-01
 0.000000e+00 0.000000e+00 0.000000e+00 0.000000e+00 0.000000e+00 0.000000e+00 0.000000e+00 0.000000e+00 0.000000e+00 0.000000e+00 0.000000e+00 0.000000e+00
<ENDHMM>
~h "SIX"
<BEGINHMM>
<NUMSTATES> 12
<STATE> 2
<MEAN> 39
 -2.176302e+00 -7.860792e+00 1.333616e+01 -5.861516e+00 -6.945554e+00 -1.076884e+01 -1.513943e+01 5.402413e-01 7.370317e+00 -1.863592e+00 -8.254061e-01 -2.325840e+00 7.315015e+01 2.438938e+00 -6.523384e-01 1.040240e+00 6.018304e-01 -1.577583e+00 -7.125070e-01 -1.135643e+00 -3.551400e-01 3.909799e-01 -9.058797e-01 3.008685e-01 9.217870e-02 7.995248e-01 -4.979877e-01 2.913139e-01 -8.285334e-02 1.633674e-02 9.838755e-02 1.252021e-01 4.959666e-01 -6.092794e-03 -2.890879e-01 1.332713e-01 1.736848e-01 2.004944e-01 -2.169570e-01
<VARIANCE> 39
 6.959138e+01 2.355282e+01 2.003117e+01 9.953306e+00 3.956544e+01 1.340253e+01 5.227624e+01 1.973752e+01 2.490145e+01 1.542909e+01 1.332777e+01 1.988941e+01 2.081539e+01 7.082777e+00 2.588490e+00 1.070393e+00 1.503485e+00 2.293367e+00 1.206829e+00 7.767488e+00 3.371557e+00 4.168599e+00 1.418352e+00 1.868483e+00 3.975311e+00 2.427806e+00 1.033097e+00 4.288758e-01 2.121139e-01 3.315518e-01 5.596660e-01 2.644134e-01 1.307205e+00 7.989912e-01 7.884865e-01 3.225328e-01 3.280210e-01 7.696406e-01 5.197531e-01
<GCONST> 1.157550e+02
<STATE> 3
<MEAN> 39
 -2.416532e-01 -3.776898e+00 1.693725e+01 -5.815229e-01 -1.133721e+01 -1.055197e+01 -7.490409e+00 -3.014776e+00 2.743507e+00 -2.971944e+00 2.999144e+00 4.809271e-01 6.980901e+01 -1.266762e+00 1.220029e+00 -8.486484e-01 4.774186e-01 7.340706e-01 8.490708e-01 1.986048e+00 -8.836357e-01 -3.440675e-01 1.175246e+00 5.588145e-02 3.847560e-02 -1.739501e+00 -8.381259e-02 -1.483651e-01 -5.949537e-01 -3.204346e-01 3.235634e-01 2.382317e-02 -4.563340e-01 6.546091e-02 5.850601e-01 2.289770e-01 -1.688138e-01 1.134788e-02 -9.383440e-02
<VARIANCE> 39
 8.293229e+00 1.240793e+01 1.094014e+01 1.174764e+01 1.251751e+01 1.627645e+01 2.551987e+01 1.618120e+01 1.566519e+01 1.368129e+01 1.320736e+01 7.575351e+00 9.680971e+00 4.318165e-01 9.854439e-01 3.373284e+00 1.768398e+00 1.826666e+00 2.043458e+00 2.166754e+00 1.395013e+00 2.903753e+00 1.252396e+00 1.479232e+00 9.547671e-01 3.697753e-01 1.306184e-01 1.537122e-01 3.618807e-01 2.698535e-01 2.808577e-01 4.027551e-01 4.159532e-01 3.120271e-01 3.622705e-01 3.392764e-01 3.063400e-01 2.256411e-01 5.695879e-02
<GCONST> 9.065756e+01
<STATE> 4
<MEAN> 39
 -5.036529e+00 5.347562e-02 6.389592e+00 -2.050294e+00 -5.296395e+00 -8.569660e+00 -5.045535e+00 -4.954798e+00 6.153534e+00 1.949534e+00 2.787642e+00 1.871380e+00 6.185869e+01 -3.921488e-01 1.026860e-01 -1.994118e+00 -2.568426e-01 1.114870e+00 -1.113724e-01 1.231641e-03 4.222237e-01 1.697260e-01 -6.938562e-02 2.168791e-01 3.172219e-02 -8.274958e-01 3.588791e-02 -6.652935e-01 5.218482e-01 6.531270e-02 -2.306095e-01 -1.461290e-01 -4.448539e-02 5.372836e-01 -4.955002e-01 -3.148819e-01 1.593814e-01 -1.093846e-01 6.612271e-01
<VARIANCE> 39
 1.438024e+00 5.465755e+00 1.291652e+01 8.129408e+00 1.165328e+01 2.562395e+01 1.895840e+01 1.434518e+01 1.501164e+01 1.019433e+01 1.183129e+01 1.089690e+01 3.442216e+00 2.597389e-01 2.229265e+00 1.424742e+00 6.904154e-01 8.493385e-01 2.298842e+00 1.728301e+00 1.807397e+00 2.331909e+00 1.529152e+00 1.379808e+00 9.338816e-01 1.028106e+00 1.764478e-01 4.988768e-01 2.597770e-01 1.720180e-01 2.167169e-01 5.383795e-01 4.166724e-01 2.993192e-01 4.301769e-01 3.333043e-01 2.586417e-01 1.996292e-01 1.572919e-01
<GCONST> 8.709789e+01
<STATE> 5
<MEAN> 39
 -6.724069e+00 -6.912395e+00 3.502677e+00 -2.228014e+00 -3.773628e+00 -8.180731e+00 -4.001305e+00 -4.849169e-01 3.078971e+00 9.742038e-01 4.200494e+00 7.578626e-01 6.411572e+01 -1.932853e+00 -3.157112e+00 1.013406e+00 -6.054287e-01 -2.254306e-01 -6.427337e-01 -3.060128e-01 2.482193e+00 -1.722546e+00 2.044338e-01 4.124566e-01 3.116995e-01 2.446411e+00 -8.027777e-01 4.571864e-01 7.048520e-01 -2.965691e-01 -5.202357e-03 -2.018870e-01 -1.197437e-01 3.615729e-01 -7.940255e-02 1.027877e-01 -5.983989e-02 3.402748e-01 2.784984e-01
<VARIANCE> 39
 2.673132e+00 5.809866e+01 1.025094e+01 1.086628e+01 1.938819e+01 1.529128e+01 1.871985e+01 2.072876e+01 1.428630e+01 1.606587e+01 1.651819e+01 1.119374e+01 2.161198e+01 1.714090e+00 1.985091e+00 1.677687e+00 1.189919e+00 1.821622e+00 1.653529e+00 1.796665e+00 2.772906e+00 1.893657e+00 1.599696e+00 1.583722e+00 1.625504e+00 1.019419e+00 1.260802e-01 1.523829e+00 2.193237e-01 1.590019e-01 5.065717e-01 4.487742e-01 3.619692e-01 5.486699e-01 4.928762e-01 3.277753e-01 3.905535e-01 2.430969e-01 5.164369e-01
<GCONST> 1.005735e+02
<STATE> 6
<MEAN> 39
 -1.631413e+01 -9.394958e+00 9.253452e+00 -5.585230e+00 -3.308539e+00 -1.251011e+01 -5.760332e+00 8.208486e+00 -1.588319e+00 1.754310e+00 5.498165e+00 4.362693e+00 7.052177e+01 -3.679570e+00 1.478056e+00 1.646139e+00 -1.077362e+00 1.100609e+00 -4.855603e-01 -2.040874e-01 2.287169e+00 -6.104835e-01 -4.979482e-02 2.566122e-01 1.275855e+00 7.833647e-01 4.513032e-01 1.182429e+00 -4.763460e-01 7.442172e-02 3.233787e-01 5.972320e-01 1.888532e-01 -8.698587e-01 6.192430e-01 -1.381451e-01 -3.239614e-01 -2.400181e-01 -8.937267e-01
<VARIANCE> 39
 1.302533e+01 8.194907e+00 1.041037e+01 1.095365e+01 1.401225e+01 1.181036e+01 1.852680e+01 1.844509e+01 2.145066e+01 2.525684e+01 1.530043e+01 1.479822e+01 1.964198e+00 5.628967e-01 2.493976e+00 1.139041e+00 8.267848e-01 1.718358e+00 1.744978e+00 1.514643e+00 2.677526e+00 1.918090e+00 1.667541e+00 2.236414e+00 1.495028e+00 1.004448e+00 2.416331e-01 2.826681e-01 2.605007e-01 1.532120e-01 2.567576e-01 2.172976e-01 3.000319e-01 3.740266e-01 4.191273e-01 4.089485e-01 4.306117e-01 4.647709e-01 5.390845e-02
<GCONST> 9.229958e+01
<STATE> 7
<MEAN> 39
 -2.047985e+01 -6.113726e+00 1.050623e+01 -6.358397e+00 -1.195028e+00 -1.077177e+01 -5.830625e+00 9.432104e+00 -1.102377e+00 8.685099e-01 5.068210e+00 5.228388e+00 6.987859e+01 -1.144087e+00 1.461611e+00 -1.228562e-01 -7.774686e-01 1.076179e+00 1.140234e+00 1.536466e-01 9.227729e-02 4.821220e-01 -1.592882e-01 -6.484497e-01 -2.877767e-01 -4.059711e-01 9.928440e-01 -6.930710e-02 -6.392655e-01 7.061578e-02 -4.648732e-02 3.912237e-01 8.416534e-03 -7.653664e-01 3.337874e-01 5.694712e-02 -2.560019e-01 -5.559138e-01 -3.198047e-01
<VARIANCE> 39
 2.821711e+00 2.835861e+00 3.930143e+00 1.310056e+01 6.951481e+00 1.129760e+01 1.602861e+01 1.763574e+01 1.620022e+01 1.526017e+01 1.648003e+01 8.480537e+00 6.418381e-01 7.456067e-01 5.617104e-01 6.605991e-01 4.992318e-01 8.541468e-01 9.526250e-01 1.315190e+00 1.830861e+00 1.404102e+00 1.906296e+00 1.668297e+00 1.995325e+00 7.648260e-02 9.219002e-02 1.801621e-01 1.119478e-01 1.671274e-01 2.451098e-01 2.254408e-01 2.962135e-01 4.193048e-01 3.274587e-01 2.456181e-01 4.261769e-01 2.994585e-01 5.751009e-02
<GCONST> 7.552934e+01
<STATE> 8
<MEAN> 39
 -2.070385e+01 -2.476296e+00 8.121950e+00 -9.137425e+00 1.508088e+00 -7.792724e+00 -5.612017e+00 8.071568e+00 9.938762e-01 1.320081e+00 2.462415e+00 3.049334e+00 6.864002e+01 -1.050316e-01 1.060530e+00 -3.846350e-01 -7.159829e-01 6.763889e-01 6.377487e-01 -1.105949e-01 -4.690240e-01 4.606784e-01 1.758338e-01 -3.086608e-01 -4.695959e-01 -3.735387e-01 1.691518e-01 -1.767497e-01 4.921267e-02 7.614061e-02 -9.295338e-02 -1.473577e-01 -4.966383e-02 -7.639958e-02 -1.294389e-01 2.097733e-02 1.604048e-01 -3.950562e-02 4.251090e-02
<VARIANCE> 39
 1.446761e+00 7.225471e+00 4.685323e+00 7.141740e+00 7.895461e+00 1.006283e+01 1.476898e+01 9.546211e+00 1.258273e+01 1.676162e+01 1.212367e+01 1.159644e+01 9.590220e-01 1.294293e-01 4.405662e-01 4.362427e-01 7.122564e-01 6.637454e-01 1.011221e+00 1.294562e+00 9.992501e-01 1.109510e+00 1.163369e+00 1.839340e+00 1.179999e+00 4.934004e-02 8.018537e-02 8.832634e-02 8.224234e-02 1.111023e-01 1.507712e-01 1.757329e-01 2.461880e-01 2.345223e-01 2.169140e-01 3.171726e-01 3.432633e-01 3.186703e-01 1.216664e-02
<GCONST> 6.553381e+01
<STATE> 9
<MEAN> 39
 -2.061494e+01 7.613558e-02 7.753840e+00 -1.115943e+01 3.749955e+00 -6.292389e+00 -6.299593e+00 6.205443e+00 5.195227e-01 1.672757e+00 2.253153e+00 -7.197005e-02 6.776376e+01 6.033746e-01 -8.108430e-02 3.362516e-01 -1.220871e-01 3.388266e-01 3.016888e-01 -3.530236e-01 -3.502153e-01 -5.227165e-01 -4.663651e-01 -1.225733e-01 -1.138958e+00 2.979885e-02 2.553493e-01 -2.791959e-01 2.007470e-01 7.474018e-02 -1.267862e-01 1.090235e-01 -1.157475e-01 2.918750e-02 2.370780e-02 -2.638482e-01 6.452256e-02 9.278987e-03 -1.469627e-02
<VARIANCE> 39
 2.702544e+00 5.236394e+00 4.734963e+00 6.999371e+00 8.450428e+00 1.209565e+01 1.147872e+01 1.115489e+01 1.955723e+01 1.775106e+01 1.396213e+01 1.787554e+01 1.169523e+00 5.021775e-01 5.612426e-01 5.871406e-01 6.001704e-01 9.265798e-01 1.050896e+00 1.007195e+00 1.399104e+00 2.006934e+00 1.849620e+00 1.217583e+00 1.463870e+00 1.317478e-01 5.061253e-02 9.391503e-02 1.106031e-01 1.462234e-01 1.819540e-01 2.392183e-01 2.077129e-01 3.125286e-01 5.197505e-01 3.643891e-01 2.998529e-01 3.942092e-01 4.624493e-02
<GCONST> 7.448759e+01
<STATE> 10
<MEAN> 39
 -1.538365e+01 -3.105902e+00 1.134216e+01 -1.188210e+01 3.472576e+00 -2.668325e+00 -9.488832e+00 5.348709e+00 9.797970e-01 -3.587134e+00 3.593981e+00 -3.095233e+00 6.677882e+01 1.322393e+00 -1.504310e+00 9.060728e-02 -5.796841e-02 -1.158151e+00 1.273057e+00 -6.778097e-01 -3.522743e-01 2.091671e+00 -1.211070e+00 5.409861e-01 8.108999e-01 -9.802120e-01 2.807821e-02 3.255081e-03 -6.120595e-01 3.330941e-01 -3.301435e-01 -1.231623e-01 3.841640e-01 -2.729643e-01 4.961986e-01 3.620465e-01 -1.661783e-01 4.091710e-01 -2.378403e-01
<VARIANCE> 39
 3.025424e+00 1.135426e+01 6.777442e+00 8.151339e+00 1.110394e+01 1.770358e+01 9.738769e+00 1.482611e+01 2.736450e+01 1.573657e+01 1.416670e+01 1.648074e+01 3.613150e+00 2.648188e-01 6.948863e-01 1.714908e+00 1.056342e+00 1.379525e+00 1.001942e+00 9.695714e-01 2.091019e+00 3.495768e+00 1.796454e+00 1.988218e+00 2.024256e+00 2.301837e-01 4.005378e-02 3.204242e-01 2.283697e-01 3.233380e-01 2.446774e-01 3.318000e-01 3.374249e-01 4.233075e-01 8.072214e-01 4.573987e-01 4.188433e-01 4.497835e-01 5.062596e-02
<GCONST> 8.690742e+01
<STATE> 11
<MEAN> 39
 -8.280387e+00 -3.493664e+00 6.054739e+00 -5.311751e+00 -5.379606e-01 -1.995351e+00 -4.895883e+00 -4.569396e-01 7.253711e+00 -2.630833e+00 2.085890e+00 6.110430e-03 6.210200e+01 9.480946e-01 7.115366e-01 -1.345098e+00 1.382475e+00 -2.208396e-01 -7.625895e-01 1.569302e+00 -1.058778e+00 -3.043724e-01 9.279709e-01 -3.082494e-01 4.604916e-02 -7.089356e-01 -2.135129e-01 2.635964e-01 1.004111e-01 -8.026933e-02 2.518704e-01 -2.292550e-01 1.211288e-01 1.825664e-01 -4.930385e-01 1.394659e-01 3.669994e-02 -2.197227e-01 1.332044e-01
<VARIANCE> 39
 1.590193e+01 3.019289e+01 1.378254e+01 2.841875e+01 1.693918e+01 2.365142e+01 3.375187e+01 1.321102e+01 2.383143e+01 2.137448e+01 1.765285e+01 9.306661e+00 2.718503e+00 6.613121e-01 1.127680e+00 1.835771e+00 1.558504e+00 1.229191e+00 2.550249e+00 2.806275e+00 1.450571e+00 3.076901e+00 2.059547e+00 1.748454e+00 1.143820e+00 2.929803e-01 6.791347e-02 3.535408e-01 3.053556e-01 3.276866e-01 2.841932e-01 5.779199e-01 6.467398e-01 2.715842e-01 7.940497e-01 4.537458e-01 3.695210e-01 2.507386e-01 2.910456e-02
<GCONST> 9.635227e+01
<TRANSP> 12
 0.000000e+00 1.000000e+00 0.000000e+00 0.000000e+00 0.000000e+00 0.000000e+00 0.000000e+00 0.000000e+00 0.000000e+00 0.000000e+00 0.000000e+00 0.000000e+00
 0.000000e+00 8.775643e-01 1.224358e-01 0.000000e+00 0.000000e+00 0.000000e+00 0.000000e+00 0.000000e+00 0.000000e+00 0.000000e+00 0.000000e+00 0.000000e+00
 0.000000e+00 0.000000e+00 8.053579e-01 1.946421e-01 0.000000e+00 0.000000e+00 0.000000e+00 0.000000e+00 0.000000e+00 0.000000e+00 0.000000e+00 0.000000e+00
 0.000000e+00 0.000000e+00 0.000000e+00 7.694104e-01 2.305896e-01 0.000000e+00 0.000000e+00 0.000000e+00 0.000000e+00 0.000000e+00 0.000000e+00 0.000000e+00
 0.000000e+00 0.000000e+00 0.000000e+00 0.000000e+00 6.594073e-01 3.405927e-01 0.000000e+00 0.000000e+00 0.000000e+00 0.000000e+00 0.000000e+00 0.000000e+00
 0.000000e+00 0.000000e+00 0.000000e+00 0.000000e+00 0.000000e+00 4.875822e-01 5.124179e-01 0.000000e+00 0.000000e+00 0.000000e+00 0.000000e+00 0.000000e+00
 0.000000e+00 0.000000e+00 0.000000e+00 0.000000e+00 0.000000e+00 0.000000e+00 4.117465e-01 5.882535e-01 0.000000e+00 0.000000e+00 0.000000e+00 0.000000e+00
 0.000000e+00 0.000000e+00 0.000000e+00 0.000000e+00 0.000000e+00 0.000000e+00 0.000000e+00 7.741238e-01 2.258762e-01 0.000000e+00 0.000000e+00 0.000000e+00
 0.000000e+00 0.000000e+00 0.000000e+00 0.000000e+00 0.000000e+00 0.000000e+00 0.000000e+00 0.000000e+00 8.010804e-01 1.989195e-01 0.000000e+00 0.000000e+00
 0.000000e+00 0.000000e+00 0.000000e+00 0.000000e+00 0.000000e+00 0.000000e+00 0.000000e+00 0.000000e+00 0.000000e+00 7.356073e-01 2.643926e-01 0.000000e+00
 0.000000e+00 0.000000e+00 0.000000e+00 0.000000e+00 0.000000e+00 0.000000e+00 0.000000e+00 0.000000e+00 0.000000e+00 0.000000e+00 8.086496e-01 1.913504e-01
 0.000000e+00 0.000000e+00 0.000000e+00 0.000000e+00 0.000000e+00 0.000000e+00 0.000000e+00 0.000000e+00 0.000000e+00 0.000000e+00 0.000000e+00 0.000000e+00
<ENDHMM>
~h "TWO"
<BEGINHMM>
<NUMSTATES> 12
<STATE> 2
<MEAN> 39
 -7.878929e+00 -1.080335e+01 1.141584e+01 -3.211622e+00 -7.950857e+00 1.696055e+00 -6.431108e+00 -5.350756e+00 7.086859e+00 -2.978800e+00 4.238228e-01 -1.192181e+00 6.780247e+01 1.943367e+00 2.450842e-02 1.544701e+00 1.398886e-01 -1.150293e+00 -4.328759e-01 -2.605020e+00 -1.333446e+00 -2.016826e-01 -6.239113e-01 -8.454505e-02 -8.142496e-01 1.749220e+00 2.817938e-01 4.186054e-01 -1.691531e-01 7.623360e-02 1.637353e-01 -2.501842e-01 -1.160217e-01 -1.564094e-01 -3.147137e-01 2.189164e-02 3.714476e-01 -3.000438e-02 -1.289756e-01
<VARIANCE> 39
 4.240398e+01 3.640359e+01 2.085536e+01 2.593205e+01 2.677247e+01 2.953419e+01 5.133327e+01 3.968226e+01 2.786371e+01 2.094821e+01 2.311643e+01 2.471755e+01 1.187849e+01 3.859258e+00 7.161512e+00 1.862058e+00 3.796213e+00 3.965326e+00 4.242519e+00 3.810132e+00 4.142019e+00 4.233257e+00 2.523108e+00 3.836133e+00 2.920801e+00 2.037578e+00 6.626475e-01 1.824869e+00 4.405026e-01 6.915597e-01 8.323323e-01 7.233637e-01 8.889185e-01 7.286560e-01 6.593409e-01 4.696379e-01 7.698070e-01 8.445196e-01 4.192607e-01
<GCONST> 1.267370e+02
<STATE> 3
<MEAN> 39
 3.307583e+00 -1.089316e+01 1.647324e+01 -2.000266e+00 -1.378889e+01 -1.535955e+00 -1.843036e+01 -1.291508e+01 4.381912e+00 -4.659472e+00 5.464069e+00 -3.899501e+00 7.551535e+01 6.340624e-01 -8.433408e-01 5.678049e-01 -7.489773e-01 -1.172251e+00 5.982295e-01 -1.009253e+00 -5.381902e-01 -9.877824e-01 -2.603679e-01 2.336302e+00 1.126730e+00 1.151367e+00 -8.107522e-01 3.149563e-01 -4.928891e-01 -1.288396e-01 5.110549e-01 2.077329e-01 1.158259e+00 5.782784e-01 -9.220476e-02 -2.112663e-02 -3.616955e-01 4.402043e-01 -7.419064e-01
<VARIANCE> 39
 2.628878e+00 1.585181e+01 3.242506e+01 2.260076e+01 2.921413e+01 3.850871e+01 2.176738e+01 4.456939e+01 1.193393e+01 2.761045e+01 2.544683e+01 1.346959e+01 3.361536e+00 8.225470e-01 1.498529e+00 1.278340e+00 8.282199e-01 1.286217e+00 1.646662e+00 2.196486e+00 2.409221e+00 1.633757e+00 1.190745e+00 1.806055e+00 1.124761e+00 7.987901e-01 1.249535e-01 3.559752e-01 1.984394e-01 2.015276e-01 3.825071e-01 2.851448e-01 3.865914e-01 4.888596e-01 2.943601e-01 4.574988e-01 4.232487e-01 4.256185e-01 5.046540e-02
<GCONST> 9.566726e+01
<STATE> 4
<MEAN> 39
 2.499211e+00 -1.119820e+01 1.881034e+01 -1.519926e+00 -1.446268e+01 -2.616312e+00 -1.885311e+01 -1.142073e+01 1.774440e+00 -7.341039e+00 6.554004e+00 -1.606539e+00 7.561778e+01 2.775297e-02 8.436193e-01 -5.247684e-01 -1.068670e-01 7.378737e-01 1.643028e-01 4.076902e-01 -5.648226e-01 -1.275100e+00 -4.040116e-01 5.896726e-01 7.398990e-01 -4.967534e-01 -3.640845e-02 5.230116e-01 -5.124545e-01 1.526951e-01 4.724557e-01 -1.375727e-01 5.016904e-01 -6.341758e-02 4.595429e-02 9.777421e-02 -4.604502e-01 -1.232786e-01 -4.334275e-01
<VARIANCE> 39
 3.314258e+00 1.727304e+01 3.673314e+01 3.718824e+01 2.554582e+01 6.120086e+01 1.747674e+01 4.526183e+01 1.498830e+01 2.556071e+01 2.799205e+01 1.173685e+01 2.800152e+00 1.125972e-01 4.786502e-01 8.291554e-01 5.901080e-01 1.299895e+00 4.588791e-01 1.591674e+00 1.150060e+00 1.070605e+00 1.772826e+00 9.689462e-01 1.114876e+00 1.211588e-01 6.517722e-02 1.028775e-01 1.417949e-01 1.139370e-01 2.070052e-01 2.330310e-01 2.381527e-01 4.220001e-01 1.590808e-01 1.746331e-01 2.922246e-01 9.943289e-02 4.317914e-02
<GCONST> 8.008074e+01
<STATE> 5
<MEAN> 39
 2.778531e+00 -7.785805e+00 1.570486e+01 -5.238199e-01 -1.058278e+01 -2.726938e+00 -1.786790e+01 -1.481793e+01 -3.060915e-01 -5.999047e+00 7.259853e+00 -1.614006e+00 7.333482e+01 2.076499e-01 1.543963e+00 -1.385484e+00 -1.378044e-01 1.179803e+00 3.214774e-01 1.384620e+00 -9.705738e-01 -8.949230e-01 3.546133e-01 6.248919e-02 2.608909e-01 -9.088024e-01 -1.598597e-02 1.041401e-01 -3.022056e-02 -4.068719e-03 -1.236288e-01 -1.064893e-01 3.002093e-01 2.453767e-01 9.172526e-02 -8.285254e-03 -3.200620e-01 -1.491601e-01 -7.271886e-02
<VARIANCE> 39
 2.806832e+00 1.158125e+01 1.868027e+01 3.145359e+01 1.825519e+01 3.937925e+01 1.761655e+01 3.138467e+01 1.506105e+01 1.848380e+01 1.889557e+01 1.326561e+01 2.402569e+00 6.108297e-02 3.913295e-01 7.150902e-01 5.484425e-01 1.360495e+00 8.310584e-01 1.560144e+00 1.827763e+00 1.438226e+00 1.987672e+00 8.296717e-01 1.231198e+00 1.008431e-01 1.666994e-02 7.449729e-02 1.221994e-01 1.139656e-01 2.066787e-01 1.564381e-01 1.722253e-01 2.427939e-01 1.942411e-01 2.191847e-01 1.608832e-01 2.397645e-01 1.671875e-02
<GCONST> 7.366132e+01
<STATE> 6
<MEAN> 39
 3.960810e+00 -2.631319e+00 1.076587e+01 -3.994943e+00 -9.650307e+00 -2.911434e-01 -1.094050e+01 -1.531101e+01 -3.530857e+00 -6.903012e+00 6.897467e+00 -2.873942e-02 7.099216e+01 9.887718e-02 1.274080e+00 -9.132120e-01 -3.076672e-01 3.340089e-01 -4.160006e-01 1.305116e+00 3.539931e-01 -6.290941e-01 -2.992358e-01 -5.336598e-01 1.516307e-01 -6.977412e-01 -7.149044e-02 -8.195373e-02 1.237276e-01 -1.035193e-01 -2.394846e-02 -3.217793e-02 -2.087339e-01 1.537771e-01 2.205893e-01 2.482124e-02 -1.133244e-02 -1.202504e-01 4.603630e-02
<VARIANCE> 39
 3.231324e+00 5.526928e+00 1.092418e+01 3.946409e+01 1.776241e+01 3.771131e+01 1.115787e+01 3.709664e+01 2.332783e+01 3.166855e+01 1.569764e+01 1.468328e+01 3.509061e+00 3.712630e-02 4.473559e-01 5.589328e-01 5.652362e-01 6.701393e-01 6.666307e-01 7.310402e-01 1.058571e+00 7.220290e-01 1.144976e+00 8.072351e-01 7.033332e-01 9.250778e-02 1.022700e-02 2.718251e-02 8.140638e-02 7.814722e-02 1.059950e-01 1.147949e-01 1.458372e-01 2.317006e-01 2.300829e-01 1.319132e-01 1.110524e-01 1.335305e-01 5.228075e-03
<GCONST> 6.300856e+01
<STATE> 7
<MEAN> 39
 4.521250e+00 3.200728e+00 7.245502e+00 -7.702664e+00 -8.298689e+00 2.409523e-01 -6.077358e+00 -1.389476e+01 -5.957730e+00 -9.806265e+00 4.675033e+00 8.612942e-01 6.854005e+01 -1.950976e-01 7.895027e-01 -4.069263e-01 -2.376648e-01 2.726879e-01 -2.859204e-01 7.847215e-01 7.391711e-01 1.422371e-01 1.130519e-01 -3.711057e-01 -1.185258e-01 -5.156124e-01 -6.664611e-02 -7.855622e-02 3.445319e-02 1.703482e-01 2.800931e-02 -5.794938e-02 5.741153e-03 2.588600e-02 1.334003e-01 2.772409e-01 9.854686e-02 -6.185294e-03 -1.829685e-02
<VARIANCE> 39
 2.268529e+00 7.273520e+00 9.226101e+00 1.607077e+01 1.094866e+01 1.619135e+01 1.306978e+01 1.767768e+01 1.305912e+01 3.359377e+01 1.226005e+01 1.512142e+01 2.169262e+00 3.964343e-02 3.625470e-01 3.866646e-01 4.848246e-01 6.489343e-01 5.825933e-01 9.849005e-01 8.492700e-01 1.211957e+00 1.645893e+00 8.128916e-01 9.449800e-01 9.694675e-02 1.287074e-02 5.505529e-02 8.565284e-02 1.022694e-01 1.344766e-01 1.397568e-01 1.839221e-01 1.135767e-01 2.335888e-01 2.023700e-01 1.619565e-01 1.863531e-01 1.477506e-02
<GCONST> 6.260613e+01
<STATE> 8
<MEAN> 39
 2.356804e+00 5.603039e+00 5.803342e+00 -4.764378e+00 -5.631390e+00 -3.767447e+00 -2.912904e+00 -1.042285e+01 -2.861081e+00 -3.344087e+00 4.378704e+00 -7.280576e-01 6.547123e+01 -7.344311e-01 4.432499e-01 -1.290708e-01 9.412901e-01 9.470637e-01 -2.536820e-02 9.951851e-01 6.345336e-01 5.188656e-01 1.236366e+00 2.277955e-01 9.671118e-02 -8.165196e-01 -1.730396e-01 -1.714279e-01 1.913551e-01 3.114377e-01 3.422099e-01 3.263635e-01 3.462988e-02 -6.328429e-02 -8.769473e-02 -2.312431e-01 -1.012277e-01 4.578426e-02 -4.742618e-02
<VARIANCE> 39
 3.057487e+00 7.642331e+00 7.593008e+00 1.959821e+01 1.513818e+01 2.126874e+01 3.585117e+01 1.712017e+01 1.346702e+01 2.616459e+01 9.769436e+00 1.312957e+01 1.704946e+00 1.884376e-01 5.583115e-01 4.598387e-01 1.041429e+00 9.830318e-01 1.475563e+00 1.227687e+00 6.677445e-01 1.068814e+00 1.961051e+00 1.200675e+00 1.156556e+00 1.359276e-01 2.017513e-02 9.260155e-02 5.783052e-02 1.372876e-01 1.622321e-01 1.605993e-01 3.050617e-01 2.118888e-01 2.128114e-01 4.300067e-01 1.920179e-01 2.028365e-01 1.901464e-02
<GCONST> 7.243083e+01
<STATE> 9
<MEAN> 39
 -8.311519e-01 6.178435e+00 6.687039e+00 7.918213e-03 -2.378443e-01 -1.700392e+00 4.056238e-01 -8.349509e+00 -1.437395e+00 -7.928999e-01 4.261466e+00 -3.307421e-01 6.265751e+01 -8.522826e-01 7.359505e-02 2.314825e-01 1.167588e+00 1.710718e+00 9.180542e-01 1.145641e+00 6.700408e-01 9.647045e-02 -6.997491e-02 -5.706429e-01 -1.125030e-01 -6.910625e-01 4.655225e-02 -7.090893e-02 -5.697093e-04 -1.884587e-01 -3.550314e-02 -7.553954e-02 -2.487220e-01 4.394186e-02 9.841159e-03 -3.515791e-01 -9.867010e-02 2.252557e-02 7.895714e-02
<VARIANCE> 39
 1.378240e+00 5.678358e+00 6.535195e+00 1.415738e+01 1.718365e+01 1.619330e+01 2.654257e+01 1.474606e+01 1.385511e+01 1.720043e+01 1.172348e+01 1.018345e+01 8.323038e-01 3.139583e-01 4.537591e-01 6.673705e-01 8.448825e-01 6.106026e-01 1.312975e+00 1.922432e+00 1.757759e+00 7.947022e-01 1.840479e+00 9.093924e-01 1.151127e+00 1.572925e-01 3.069562e-02 1.058385e-01 1.375625e-01 1.523655e-01 1.486701e-01 3.502628e-01 3.322459e-01 2.544004e-01 1.916775e-01 3.426447e-01 2.580304e-01 2.515126e-01 2.056444e-02
<GCONST> 7.262151e+01
<STATE> 10
<MEAN> 39
 -3.760006e+00 5.565530e+00 6.712596e+00 2.101340e+00 4.225007e+00 -3.873154e-01 2.136067e+00 -5.781125e+00 -6.808386e-01 -2.401330e+00 3.246541e+00 4.463981e-01 6.064140e+01 -6.885782e-01 -3.163292e-01 -2.273297e-01 2.451835e-01 6.100787e-01 5.714470e-02 1.558918e-01 5.282927e-01 4.570394e-01 4.880045e-02 1.044952e-01 3.831818e-01 -4.370502e-01 4.223908e-02 -9.806594e-02 -1.338850e-01 -2.004363e-01 -2.792399e-01 -5.977095e-02 -4.713039e-02 -1.644208e-02 8.509933e-02 1.258396e-01 1.018112e-01 6.715320e-03 6.001837e-02
<VARIANCE> 39
 1.895276e+00 2.759528e+00 5.631724e+00 1.148748e+01 1.330931e+01 1.048905e+01 9.741568e+00 1.367445e+01 1.562111e+01 1.101187e+01 9.249404e+00 8.265313e+00 8.501921e-01 1.194433e-01 3.544008e-01 5.761843e-01 5.892749e-01 1.000391e+00 9.802290e-01 1.526159e+00 1.324060e+00 1.550323e+00 1.214258e+00 9.758999e-01 9.401677e-01 3.911309e-02 2.408342e-02 4.949316e-02 8.221675e-02 7.575100e-02 1.327110e-01 1.483078e-01 3.020445e-01 2.882128e-01 2.913573e-01 1.831817e-01 1.944125e-01 2.010033e-01 8.411069e-03
<GCONST> 6.126958e+01
<STATE> 11
<MEAN> 39
 -9.660837e+00 6.368198e-01 2.011534e+00 -8.519608e-01 2.920998e+00 -1.478661e+00 3.079734e+00 -2.004264e+00 3.026537e+00 -6.557202e-01 3.687498e+00 6.196942e-01 5.744994e+01 -2.009353e-01 -1.947592e-01 -1.513813e-01 -1.284274e-01 -1.103002e-01 -5.926809e-02 3.890438e-03 1.020432e-01 1.557033e-01 5.715257e-02 -2.841385e-02 -5.609059e-02 -9.697685e-02 2.421989e-02 1.769646e-02 1.889128e-02 1.160828e-02 2.382234e-03 1.077144e-02 -2.570116e-03 -6.134552e-03 -1.057883e-02 -1.124139e-02 -2.926295e-03 -1.058511e-02 1.445409e-02
<VARIANCE> 39
 3.077402e+00 3.767547e+00 4.761242e+00 6.032601e+00 7.938388e+00 8.591680e+00 1.043454e+01 1.177196e+01 1.142041e+01 1.070583e+01 1.128480e+01 9.672566e+00 8.720730e-01 1.307387e-01 2.275878e-01 3.671761e-01 4.727882e-01 6.644688e-01 8.782864e-01 1.080713e+00 1.125990e+00 1.261196e+00 1.126119e+00 1.049477e+00 9.545246e-01 3.459726e-02 2.031850e-02 4.221141e-02 6.755336e-02 9.408682e-02 1.352913e-01 1.932657e-01 2.290513e-01 2.244072e-01 2.453404e-01 2.290601e-01 2.071693e-01 2.027823e-01 5.148182e-03
<GCONST> 5.721174e+01
<TRANSP> 12
 0.000000e+00 1.000000e+00 0.000000e+00 0.000000e+00 0.000000e+00 0.000000e+00 0.000000e+00 0.000000e+00 0.000000e+00 0.000000e+00 0.000000e+00 0.000000e+00
 0.000000e+00 8.420789e-01 1.579211e-01 0.000000e+00 0.000000e+00 0.000000e+00 0.000000e+00 0.000000e+00 0.000000e+00 0.000000e+00 0.000000e+00 0.000000e+00
 0.000000e+00 0.000000e+00 5.469636e-01 4.530365e-01 0.000000e+00 0.000000e+00 0.000000e+00 0.000000e+00 0.000000e+00 0.000000e+00 0.000000e+00 0.000000e+00
 0.000000e+00 0.000000e+00 0.000000e+00 5.050644e-01 4.949356e-01 0.000000e+00 0.000000e+00 0.000000e+00 0.000000e+00 0.000000e+00 0.000000e+00 0.000000e+00
 0.000000e+00 0.000000e+00 0.000000e+00 0.000000e+00 5.780879e-01 4.219121e-01 0.000000e+00 0.000000e+00 0.000000e+00 0.000000e+00 0.000000e+00 0.000000e+00
 0.000000e+00 0.000000e+00 0.000000e+00 0.000000e+00 0.000000e+00 7.342514e-01 2.657486e-01 0.000000e+00 0.000000e+00 0.000000e+00 0.000000e+00 0.000000e+00
 0.000000e+00 0.000000e+00 0.000000e+00 0.000000e+00 0.000000e+00 0.000000e+00 8.227196e-01 1.772804e-01 0.000000e+00 0.000000e+00 0.000000e+00 0.000000e+00
 0.000000e+00 0.000000e+00 0.000000e+00 0.000000e+00 0.000000e+00 0.000000e+00 0.000000e+00 6.981896e-01 3.018104e-01 0.000000e+00 0.000000e+00 0.000000e+00
 0.000000e+00 0.000000e+00 0.000000e+00 0.000000e+00 0.000000e+00 0.000000e+00 0.000000e+00 0.000000e+00 6.433765e-01 3.566235e-01 0.000000e+00 0.000000e+00
 0.000000e+00 0.000000e+00 0.000000e+00 0.000000e+00 0.000000e+00 0.000000e+00 0.000000e+00 0.000000e+00 0.000000e+00 8.251489e-01 1.748511e-01 0.000000e+00
 0.000000e+00 0.000000e+00 0.000000e+00 0.000000e+00 0.000000e+00 0.000000e+00 0.000000e+00 0.000000e+00 0.000000e+00 0.000000e+00 9.609703e-01 3.902974e-02
 0.000000e+00 0.000000e+00 0.000000e+00 0.000000e+00 0.000000e+00 0.000000e+00 0.000000e+00 0.000000e+00 0.000000e+00 0.000000e+00 0.000000e+00 0.000000e+00
<ENDHMM>
~h "NINE"
<BEGINHMM>
<NUMSTATES> 12
<STATE> 2
<MEAN> 39
 3.909575e+00 1.085048e+00 1.469297e+01 -3.586122e+00 -8.599284e+00 -3.303722e+00 -4.586990e+00 -8.112737e+00 2.232066e+00 1.089236e+00 -5.717299e+00 -9.826758e+00 7.049039e+01 4.029720e-01 -1.384863e+00 -2.891866e-01 -1.809461e+00 2.666420e-02 8.202111e-01 -1.160264e+00 9.824201e-01 6.524289e-02 1.454523e-01 4.247215e-01 -4.278679e-01 1.483848e+00 -1.148671e-01 -3.251759e-01 -6.404616e-01 -2.880295e-01 3.240024e-01 3.809552e-01 6.255835e-02 3.211775e-01 1.210058e-01 -1.817670e-01 1.622681e-01 2.479911e-01 -7.056784e-02
<VARIANCE> 39
 1.923992e+00 2.083132e+01 1.448505e+01 3.829175e+01 2.901623e+01 1.556671e+01 2.257471e+01 3.336290e+01 1.469163e+01 9.395168e+00 1.571370e+01 1.006236e+01 1.659772e+01 7.246658e-01 1.635618e+00 4.888330e+00 3.404616e+00 5.145059e+00 2.874671e+00 1.660411e+00 5.032191e+00 1.275059e+00 1.559317e+00 1.606349e+00 1.085286e+00 6.869286e-01 2.274249e-01 3.003231e-01 3.255691e-01 6.244183e-01 7.981948e-01 3.526571e-01 5.434299e-01 9.839944e-01 2.566462e-01 2.600823e-01 4.141864e-01 2.178190e-01 1.815522e-01
<GCONST> 1.029010e+02
<STATE> 3
<MEAN> 39
 7.061831e+00 -9.124339e+00 4.400962e+00 -1.610605e+01 -4.613444e+00 8.585753e+00 -8.807902e+00 -7.653328e-01 4.101250e+00 -2.074522e+00 -3.520465e+00 -9.203561e+00 7.779384e+01 7.455114e-01 -7.518935e-01 -1.243816e+00 -4.364719e-01 -9.938744e-01 1.916562e+00 1.507586e+00 -7.188089e-01 3.021793e-01 -7.437356e-01 -3.129253e-01 5.922236e-01 1.786202e-01 -2.391154e-01 4.269409e-01 7.021201e-01 8.582318e-01 -2.950368e-01 -8.593338e-01 5.121484e-01 -4.654714e-01 -2.571006e-01 3.035561e-01 -8.040981e-02 -1.136812e-01 -3.127816e-01
<VARIANCE> 39
 1.603348e+00 5.255108e+00 8.931384e+00 1.381065e+01 1.215914e+01 2.013783e+01 2.166040e+01 1.407074e+01 1.052555e+01 9.745839e+00 1.732513e+01 1.030096e+01 2.390397e+00 2.848842e-01 3.295614e-01 1.342489e+00 1.002288e+00 5.449360e-01 2.419828e+00 1.607046e+00 7.499954e-01 1.609450e+00 7.428891e-01 9.232544e-01 1.071055e+00 9.082032e-02 2.437712e-02 7.266983e-02 1.202822e-01 2.039640e-01 2.475682e-01 2.092494e-01 4.354171e-01 3.752143e-01 2.172631e-01 1.547015e-01 2.104347e-01 1.489232e-01 6.523165e-02
<GCONST> 7.229205e+01
<STATE> 4
<MEAN> 39
 7.572919e+00 -1.097905e+01 4.030735e+00 -1.416091e+01 -7.459992e+00 7.853466e+00 -2.715944e+00 -2.508159e+00 4.692905e+00 -9.836105e-01 -4.645735e+00 -8.874263e+00 7.806093e+01 -5.816079e-02 -4.471398e-01 3.953567e-01 6.858759e-01 -4.275952e-01 -7.387917e-01 4.616376e-01 8.271547e-02 8.894541e-01 4.536039e-01 -5.543365e-01 -7.085535e-02 4.948774e-02 -1.129644e-01 1.140301e-02 3.226205e-01 1.713690e-01 -2.412207e-03 -4.459673e-01 -3.508402e-01 3.718940e-01 2.946950e-01 2.859699e-02 -1.253635e-01 -4.973734e-02 -2.418610e-02
<VARIANCE> 39
 1.432559e+00 6.248419e+00 6.873716e+00 1.380983e+01 1.091554e+01 1.624907e+01 2.562818e+01 1.192586e+01 1.833807e+01 1.258801e+01 1.275842e+01 1.089287e+01 1.545770e+00 5.892680e-02 1.370995e-01 5.204045e-01 5.809666e-01 3.902386e-01 1.129439e+00 1.483897e+00 8.620278e-01 1.517548e+00 9.607330e-01 7.297637e-01 7.294855e-01 2.694492e-02 6.972958e-03 2.611146e-02 5.549879e-02 8.483928e-02 9.462331e-02 1.488907e-01 2.154125e-01 1.095982e-01 2.306949e-01 2.314757e-01 1.237109e-01 1.722213e-01 3.971363e-03
<GCONST> 5.539370e+01
<STATE> 5
<MEAN> 39
 6.420682e+00 -1.290075e+01 8.915771e+00 -9.814094e+00 -1.043555e+01 9.932574e-01 -4.514807e+00 2.207974e+00 1.137495e+01 -5.105646e-01 -8.060321e+00 -9.379405e+00 7.811821e+01 -4.739194e-01 -1.384073e-01 1.763603e+00 1.280677e+00 -1.277373e+00 -2.600161e+00 -1.434325e-01 2.087446e+00 6.362377e-01 -6.088409e-01 -3.635788e-01 7.660142e-01 -1.519755e-01 -7.017534e-02 2.782554e-01 2.485712e-01 -9.951513e-02 -3.627130e-01 -1.206786e-01 3.920652e-01 -6.223837e-02 -9.470832e-01 -3.139566e-01 6.597177e-01 5.292104e-01 -9.699015e-02
<VARIANCE> 39
 1.460061e+00 3.406870e+00 1.000764e+01 1.487451e+01 1.299442e+01 1.522780e+01 2.523816e+01 2.366985e+01 1.876914e+01 1.596616e+01 9.584847e+00 8.721140e+00 1.036168e+00 6.623252e-02 2.433027e-01 3.544406e-01 8.402313e-01 9.709573e-01 6.992516e-01 2.054028e+00 7.063000e-01 2.888001e+00 1.185903e+00 1.134071e+00 1.655392e+00 5.036809e-02 1.073870e-02 2.947418e-02 6.134877e-02 1.250646e-01 1.786760e-01 1.582715e-01 2.906814e-01 3.827531e-01 3.704384e-01 2.520604e-01 2.343723e-01 1.943820e-01 3.920345e-03
<GCONST> 6.395560e+01
<STATE> 6
<MEAN> 39
 4.862195e+00 -1.197977e+01 1.465462e+01 -6.588240e+00 -1.557946e+01 -6.592103e+00 -2.239213e+00 6.712311e+00 7.791700e+00 -3.128278e+00 -5.851181e+00 -4.218258e+00 7.722321e+01 -6.315307e-01 9.273986e-01 2.452341e+00 5.612988e-01 -2.298493e+00 -1.780035e+00 1.261885e+00 1.116575e-01 -2.560855e+00 -7.714287e-01 2.403125e+00 1.688481e+00 -5.128951e-01 1.329438e-02 2.935022e-01 -3.751056e-02 -2.623765e-01 1.128639e-01 6.088287e-01 8.438262e-02 -8.881048e-01 -4.108828e-01 2.888346e-01 4.361541e-01 -3.271047e-01 -1.209409e-01
<VARIANCE> 39
 1.279696e+00 2.909117e+00 1.225496e+01 1.170717e+01 1.337653e+01 1.355286e+01 1.971329e+01 2.088957e+01 1.270897e+01 1.143778e+01 1.416020e+01 1.132394e+01 1.358435e+00 7.515522e-02 1.651176e-01 2.768462e-01 3.374216e-01 8.080995e-01 9.579518e-01 9.404077e-01 1.951343e+00 1.110514e+00 1.395639e+00 1.015017e+00 7.371204e-01 3.703761e-02 1.433395e-02 2.566445e-02 7.436338e-02 5.171201e-02 2.280272e-01 7.910530e-02 1.416439e-01 2.094512e-01 3.379917e-01 1.717753e-01 3.034260e-01 1.797494e-01 6.161618e-03
<GCONST> 5.813854e+01
<STATE> 7
<MEAN> 39
 3.340922e+00 -8.518166e+00 2.065635e+01 -6.354382e+00 -2.061971e+01 -8.392262e+00 1.005119e+00 3.641664e+00 8.684683e-01 -3.718016e+00 1.144563e+00 -2.221728e+00 7.544045e+01 -4.367660e-01 1.308561e+00 1.502926e+00 1.415289e-01 -8.065605e-01 -2.527804e-01 4.262592e-01 -1.453391e+00 -1.763744e+00 -3.126875e-03 1.492179e+00 3.233875e-02 -7.334468e-01 7.270426e-02 2.849496e-02 -3.682144e-01 -9.772169e-02 5.815009e-01 3.458456e-01 -4.943816e-01 -1.541119e-01 4.718317e-01 7.107634e-02 -4.661527e-01 -4.358771e-01 -3.308357e-02
<VARIANCE> 39
 5.438556e-01 3.669019e+00 7.717425e+00 1.271363e+01 7.791056e+00 1.245877e+01 1.631135e+01 1.370331e+01 1.026355e+01 8.850568e+00 7.112907e+00 8.359917e+00 1.522003e+00 6.762750e-02 1.489011e-01 3.960849e-01 4.039696e-01 9.416994e-01 6.539021e-01 1.210211e+00 1.109263e+00 1.187406e+00 9.811656e-01 1.209701e+00 9.373834e-01 2.318067e-02 8.486426e-03 3.018548e-02 4.002563e-02 6.455490e-02 9.552304e-02 1.518270e-01 1.567538e-01 2.875053e-01 1.600015e-01 2.276353e-01 2.067115e-01 1.357944e-01 5.758937e-03
<GCONST> 5.224272e+01
<STATE> 8
<MEAN> 39
 2.159744e+00 -3.987457e+00 2.390993e+01 -6.370925e+00 -1.998253e+01 -8.152561e+00 -1.254834e+00 -7.720918e-01 -2.051727e+00 -4.208419e+00 3.435299e+00 -4.044495e+00 7.276464e+01 -2.359667e-01 9.678267e-01 4.086008e-01 1.480415e-02 6.075015e-01 1.989328e-01 -6.932998e-01 -7.880218e-01 -3.028645e-01 -1.745544e-01 1.962790e-01 -5.138714e-01 -6.135923e-01 3.635404e-02 -1.005073e-01 -3.051632e-01 3.721034e-02 2.778633e-01 7.499604e-02 1.389503e-02 2.516586e-01 2.316855e-01 -1.261659e-02 -2.105312e-01 -4.449698e-02 3.337609e-02
<VARIANCE> 39
 8.184558e-01 4.358157e+00 5.978409e+00 1.055177e+01 1.127537e+01 9.429242e+00 1.330137e+01 1.337412e+01 1.495068e+01 8.132889e+00 6.193381e+00 1.230826e+01 1.278865e+00 5.626315e-02 2.409106e-01 3.642737e-01 3.701535e-01 6.373256e-01 8.552027e-01 1.084688e+00 1.144895e+00 1.019538e+00 7.742402e-01 8.892567e-01 5.733887e-01 6.089026e-02 1.096017e-02 2.720211e-02 5.581534e-02 7.219440e-02 1.036025e-01 1.441875e-01 2.440880e-01 1.632745e-01 2.241496e-01 1.356485e-01 1.708228e-01 1.304721e-01 6.788351e-03
<GCONST> 5.256976e+01
<STATE> 9
<MEAN> 39
 1.399739e+00 -9.166741e-01 2.256295e+01 -5.478735e+00 -1.509778e+01 -6.310661e+00 -2.801942e+00 -1.618674e+00 -2.240985e+00 -5.375958e+00 2.963165e+00 -6.363177e+00 7.027055e+01 -4.330141e-02 7.633873e-01 -1.300931e+00 7.255577e-01 1.885694e+00 1.960217e-01 -1.184882e-02 3.789731e-01 4.758950e-02 -2.752002e-01 -2.749253e-01 -3.994553e-01 -7.389811e-01 8.147641e-02 9.844153e-02 -4.499059e-01 2.932412e-01 2.403168e-01 -1.825166e-01 1.682702e-01 -1.283302e-02 8.390567e-02 6.686302e-02 -2.387912e-01 7.053789e-02 -1.086127e-01
<VARIANCE> 39
 7.434063e-01 3.642492e+00 5.512048e+00 7.836263e+00 1.652182e+01 1.266734e+01 8.974473e+00 1.140609e+01 1.288217e+01 1.713149e+01 8.170785e+00 8.361794e+00 1.456661e+00 6.883354e-02 2.843340e-01 7.410555e-01 6.780925e-01 9.388791e-01 1.222609e+00 8.563817e-01 6.759526e-01 9.928846e-01 1.281254e+00 9.889613e-01 7.118300e-01 1.063733e-01 1.120653e-02 6.712736e-02 6.276935e-02 6.848307e-02 1.340895e-01 1.788106e-01 2.113054e-01 2.961471e-01 2.376476e-01 3.313504e-01 2.286374e-01 1.020897e-01 1.547171e-02
<GCONST> 5.941506e+01
<STATE> 10
<MEAN> 39
 1.990727e+00 3.493281e+00 1.442886e+01 -2.020968e-01 -6.452956e+00 -7.675159e+00 -1.740983e+00 -2.066943e+00 -9.223787e-01 -4.417266e+00 -2.190512e-01 -7.169620e+00 6.650494e+01 2.521976e-01 1.242962e+00 -2.203806e+00 1.251611e+00 1.670469e+00 -2.111241e-01 4.774333e-01 -1.428411e+00 4.630094e-01 7.098576e-01 -1.690248e+00 -2.058532e-01 -9.243290e-01 -2.853077e-02 -1.937586e-01 3.258581e-01 -2.437260e-01 -4.524232e-01 1.566823e-01 1.638394e-02 -4.052503e-01 -6.421889e-02 1.425023e-01 -1.172220e-01 5.380839e-02 1.722036e-01
<VARIANCE> 39
