~o
<STREAMINFO> 1 39
<VECSIZE> 39<NULLD><MFCC_D_A_0><DIAGC>
~v "varFloor1"
<VARIANCE> 39
 1.800114e-01 1.519127e-01 2.852846e-01 2.534797e-01 2.821024e-01 3.016612e-01 2.945425e-01 2.471487e-01 2.122073e-01 3.196048e-01 2.418761e-01 1.749120e-01 1.015027e+00 6.487466e-03 6.143028e-03 8.516928e-03 1.009298e-02 1.354946e-02 1.454864e-02 1.663765e-02 1.798384e-02 1.697595e-02 1.681930e-02 1.677035e-02 1.442426e-02 5.849039e-03 9.357015e-04 9.690709e-04 1.357299e-03 1.794185e-03 2.409799e-03 2.700560e-03 3.104459e-03 3.466015e-03 3.343903e-03 3.279697e-03 3.262125e-03 2.850542e-03 6.436716e-04
~h "ZERO"
<BEGINHMM>
<NUMSTATES> 12
<STATE> 2
<MEAN> 39
 -1.281157e+00 -6.250656e-01 1.804425e+01 -3.221197e+00 -1.260032e+01 -9.703493e+00 -8.541750e+00 -9.314446e-01 -1.047894e+00 -4.296219e+00 2.234212e+00 -4.006309e+00 7.581261e+01 3.392601e-01 -2.865436e-01 -2.175434e-01 1.149341e-01 -3.633080e-01 3.125555e-02 1.452098e-01 -5.358768e-01 5.149791e-02 6.938538e-02 4.350173e-02 1.459352e-01 7.813402e-02 3.336467e-02 -3.840482e-03 -1.210490e-01 -7.459383e-02 2.933192e-02 9.321532e-02 1.206981e-01 -1.847454e-02 -1.985635e-02 -9.703636e-04 6.917877e-02 3.970989e-02 -7.055422e-02
<VARIANCE> 39
 3.351305e+01 4.657034e+01 2.132239e+01 2.257765e+01 6.343713e+01 2.781397e+01 2.841932e+01 5.019165e+01 2.479778e+01 2.027965e+01 1.792184e+01 1.012789e+01 1.196166e+01 1.399516e+00 2.190418e+00 1.722540e+00 2.306668e+00 3.099343e+00 2.615613e+00 2.382594e+00 1.787700e+00 1.912579e+00 1.572171e+00 1.694039e+00 9.922420e-01 5.899878e-01 2.183467e-01 3.311399e-01 2.389481e-01 5.031381e-01 4.699866e-01 4.936447e-01 4.365388e-01 3.225789e-01 3.221942e-01 2.552447e-01 3.150319e-01 2.015034e-01 5.603267e-02
<GCONST> 1.046794e+02
<STATE> 3
<MEAN> 39
 6.047646e+00 -1.405478e-01 5.818638e+00 -8.879185e+00 -1.318630e+01 -2.935123e-02 1.486243e+00 -1.068601e+01 1.392878e+00 -1.328888e+00 4.898629e+00 7.231925e-01 7.225730e+01 1.751132e-01 1.334255e+00 -9.147959e-01 -1.341303e+00 1.781116e-01 1.026452e+00 2.190835e+00 1.101097e+00 -1.701418e-01 -5.583033e-01 2.494128e-01 9.283355e-01 -5.835152e-01 -4.158178e-01 -1.865748e-01 4.042463e-01 8.188975e-01 3.690328e-01 -4.202640e-01 -2.307379e-02 4.426053e-01 1.739480e-01 3.154090e-02 -4.864437e-01 -1.615516e-01 -1.657797e-01
<VARIANCE> 39
 6.263517e+00 8.156128e+00 4.396286e+00 1.306944e+01 1.830517e+01 1.398230e+01 1.625056e+01 2.011745e+01 1.802041e+01 1.498502e+01 1.037591e+01 8.125150e+00 5.821339e+00 5.419931e-01 5.515697e-01 7.589617e-01 2.515168e+00 1.634498e+00 2.310789e+00 1.292948e+00 1.844805e+00 1.569004e+00 1.207407e+00 2.293100e+00 1.032202e+00 1.385462e-01 3.889166e-02 1.217281e-01 7.226452e-02 2.124096e-01 2.174185e-01 2.649534e-01 3.783824e-01 2.599547e-01 3.105744e-01 3.578685e-01 3.267505e-01 1.776662e-01 1.509060e-02
<GCONST> 8.001234e+01
<STATE> 4
<MEAN> 39
 2.019042e+00 2.897320e+00 5.181740e+00 -4.800364e+00 -4.490128e+00 6.399813e-01 6.823262e+00 -2.609311e+00 2.446998e+00 -1.162227e+00 3.338172e+00 1.080957e+00 6.765170e+01 -8.769949e-01 -7.512271e-02 -1.349550e-01 9.723542e-01 1.789229e+00 3.157934e-01 2.921029e-01 9.481524e-01 4.165368e-01 3.527831e-01 -6.300229e-02 -2.502124e-01 -6.855218e-01 -3.704139e-02 -1.857070e-01 -4.358287e-02 -1.503280e-02 -6.683236e-02 -5.317139e-03 -1.568942e-01 -1.783357e-01 3.442807e-02 3.456940e-02 5.269901e-02 -7.779419e-02 4.041073e-02
<VARIANCE> 39
 7.454361e+00 3.687275e+00 4.761353e+00 2.184187e+01 4.258849e+01 1.055534e+01 1.293931e+01 1.430399e+01 1.494691e+01 1.293756e+01 1.295694e+01 9.438190e+00 4.938697e+00 1.453259e-01 4.554504e-01 4.276639e-01 1.425150e+00 2.048163e+00 9.492738e-01 9.586989e-01 8.843020e-01 1.012042e+00 1.433697e+00 1.092662e+00 7.604409e-01 1.499198e-01 3.354859e-02 5.982829e-02 8.684074e-02 3.013490e-01 4.632070e-01 1.919987e-01 1.992862e-01 1.812208e-01 1.835393e-01 3.310521e-01 2.275250e-01 1.664288e-01 2.033249e-02
<GCONST> 7.264599e+01
<STATE> 5
<MEAN> 39
 -5.664824e+00 -1.946903e+00 1.072265e+00 -2.189801e+00 9.359205e-01 -1.132729e+00 5.689227e+00 -1.130578e+00 3.715758e+00 5.848124e-01 4.230584e+00 -8.252298e-01 6.303334e+01 -3.498021e-01 -2.455303e-01 -2.054662e-01 -8.084083e-02 -5.836987e-02 -2.132364e-01 -1.826578e-01 -1.297112e-01 -4.564379e-02 2.887362e-02 9.143896e-02 -3.141081e-02 -1.985368e-01 4.172123e-02 3.096391e-02 3.396925e-02 -2.770633e-03 -2.578758e-02 -1.671898e-02 -3.247064e-02 -2.097759e-02 -3.217740e-02 -2.630171e-02 -1.435699e-02 -7.534876e-03 2.466523e-02
<VARIANCE> 39
 4.263729e+00 9.794816e+00 9.910706e+00 1.195975e+01 1.131151e+01 1.618546e+01 1.270929e+01 1.686687e+01 1.997723e+01 1.390871e+01 1.404525e+01 1.117435e+01 1.899604e+00 1.574408e-01 3.223078e-01 4.658915e-01 6.883310e-01 7.702572e-01 1.107559e+00 1.413561e+00 1.291009e+00 1.412557e+00 1.343362e+00 1.241307e+00 1.074284e+00 6.571043e-02 2.333547e-02 5.015280e-02 9.402509e-02 1.331289e-01 1.633323e-01 2.006100e-01 3.002100e-01 2.434435e-01 2.865950e-01 2.501000e-01 2.586568e-01 2.257464e-01 9.632316e-03
<GCONST> 6.933254e+01
<STATE> 6
<MEAN> 39
 -7.890697e+00 -2.951632e+00 7.792821e-01 -2.728884e+00 1.111322e+00 -2.119953e+00 3.761346e+00 -2.355143e+00 3.989780e+00 1.855006e+00 5.500971e+00 -3.499193e-01 6.176652e+01 -9.734970e-02 -6.159341e-02 1.687720e-01 4.108543e-01 3.195932e-01 -1.867811e-01 -3.655635e-01 -2.713600e-01 -4.544860e-01 -4.609111e-01 -5.920917e-01 -3.238751e-01 -4.442966e-02 7.246437e-02 6.352592e-02 3.932371e-02 6.053363e-02 -5.330190e-02 8.028530e-02 2.382778e-01 1.125768e-01 -1.001695e-01 -1.080780e-01 -1.127029e-01 1.606968e-02 1.550761e-02
<VARIANCE> 39
 1.917693e+00 4.968060e+00 5.682148e+00 4.637302e+00 8.437040e+00 7.308420e+00 1.041582e+01 2.353313e+01 1.213102e+01 6.228850e+00 7.435745e+00 7.444096e+00 1.015027e+00 7.679930e-02 1.502828e-01 6.432202e-01 8.314551e-01 1.121423e+00 1.111091e+00 1.263286e+00 1.365557e+00 2.095078e+00 1.776513e+00 1.406482e+00 1.643808e+00 3.862810e-02 1.431743e-02 4.777961e-02 4.042558e-02 7.952963e-02 1.652666e-01 1.110160e-01 2.489539e-01 3.620966e-01 1.223630e-01 1.882638e-01 2.778217e-01 1.156014e-01 4.011659e-03
<GCONST> 5.759641e+01
<STATE> 7
<MEAN> 39
 -7.960842e+00 -2.835722e+00 2.222676e-01 -2.674463e+00 6.574728e-01 -2.728418e+00 3.149066e+00 -3.339031e+00 2.652191e+00 -4.680996e-01 2.155453e+00 -1.884598e+00 6.156976e+01 4.670631e-02 1.586023e-01 2.299485e-01 2.540958e-01 3.952167e-02 -1.678034e-01 1.649621e-01 1.794394e-01 -3.966895e-01 -3.638869e-01 -3.808666e-01 -4.907718e-02 -3.376929e-02 2.051081e-02 1.609381e-04 -1.622222e-02 -6.336235e-02 -1.293797e-01 1.037387e-01 2.944436e-01 2.368861e-01 9.462738e-02 9.675024e-02 2.265025e-01 2.004624e-01 -1.012702e-02
<VARIANCE> 39
 1.431669e+00 5.507996e+00 6.473131e+00 1.392758e+01 7.239878e+00 8.584641e+00 7.959662e+00 1.549813e+01 2.087714e+01 1.473122e+01 1.133924e+01 1.035637e+01 1.015027e+00 6.780328e-02 1.336309e-01 4.028242e-01 4.001774e-01 1.225451e+00 8.142954e-01 8.288892e-01 1.021888e+00 7.516224e-01 1.278637e+00 1.980505e+00 1.556315e+00 2.841071e-02 1.794901e-02 4.523164e-02 5.669655e-02 2.146826e-01 1.620720e-01 1.120608e-01 2.780232e-01 3.769206e-01 3.928468e-01 2.783814e-01 2.305759e-01 2.104718e-01 2.590455e-03
<GCONST> 5.954217e+01
<STATE> 8
<MEAN> 39
 -7.726461e+00 -2.715030e+00 1.211929e+00 -1.639292e+00 1.987689e+00 -1.787604e+00 4.052603e+00 -1.871762e+00 2.640864e+00 -1.096592e-01 3.378440e+00 -1.039839e+00 6.167279e+01 -4.097760e-02 8.814140e-02 1.527120e-01 1.913991e-01 -4.339080e-02 -4.562772e-02 4.752127e-01 4.236478e-01 -2.062441e-01 -2.817498e-01 -1.099265e-01 -1.004164e-01 -1.137576e-01 5.011937e-03 -3.082778e-02 -1.082954e-01 -8.902068e-02 -1.309387e-01 4.773279e-02 1.181317e-01 1.277699e-01 1.343801e-01 1.218979e-01 2.167720e-01 1.349043e-01 -3.693478e-03
<VARIANCE> 39
 1.451654e+00 6.994484e+00 5.794973e+00 1.100653e+01 1.040385e+01 8.245752e+00 1.099196e+01 1.533487e+01 2.354841e+01 1.501649e+01 1.119019e+01 1.681019e+01 1.015027e+00 1.049696e-01 2.784444e-01 3.694812e-01 6.853976e-01 8.201926e-01 7.765366e-01 1.353581e+00 1.597554e+00 8.919808e-01 1.077819e+00 1.636855e+00 8.101481e-01 3.549802e-02 1.207204e-02 2.564920e-02 9.468615e-02 1.643558e-01 2.314319e-01 1.757924e-01 2.416992e-01 4.687264e-01 4.010231e-01 3.147573e-01 2.706368e-01 3.415132e-01 3.415889e-03
<GCONST> 6.341538e+01
<STATE> 9
<MEAN> 39
 -7.692225e+00 -2.113243e+00 1.288900e+00 -1.956491e+00 1.257304e+00 -2.754421e+00 5.446526e+00 -4.077420e-01 3.333899e+00 2.970560e-01 4.243254e+00 -8.090920e-01 6.152557e+01 -1.409843e-01 -1.305914e-01 -8.282367e-02 1.401740e-02 -3.093226e-01 1.310257e-01 5.606854e-01 6.450182e-01 1.902091e-01 1.435066e-01 4.732054e-01 3.202682e-01 -1.086310e-01 1.824424e-02 -6.332447e-02 -9.531488e-02 -3.732894e-02 -7.812846e-03 4.684672e-02 -9.487372e-02 -3.175169e-02 1.022568e-01 8.369817e-02 8.831232e-02 1.428642e-01 2.996416e-02
<VARIANCE> 39
 1.073403e+00 5.010372e+00 3.806301e+00 7.496542e+00 1.427300e+01 9.153831e+00 9.170311e+00 1.113548e+01 1.207526e+01 1.027942e+01 1.370470e+01 1.237211e+01 1.015027e+00 8.983200e-02 1.959079e-01 4.224187e-01 1.015909e+00 7.328047e-01 8.300449e-01 1.216526e+00 1.492775e+00 1.449552e+00 1.207791e+00 1.395000e+00 1.079483e+00 1.215186e-02 1.627849e-02 2.756626e-02 7.422633e-02 1.015213e-01 2.275727e-01 1.772099e-01 2.578982e-01 3.990783e-01 1.758391e-01 2.287447e-01 3.327080e-01 2.499353e-01 5.532366e-03
<GCONST> 5.897225e+01
<STATE> 10
<MEAN> 39
 -8.326570e+00 -2.861130e+00 7.280436e-01 -2.214880e+00 3.666682e-01 -2.317759e+00 4.931075e+00 -1.466313e+00 3.066648e+00 9.902120e-02 4.294133e+00 -1.241651e+00 6.123761e+01 3.265947e-02 -8.636822e-02 -2.091772e-01 -4.128937e-03 -2.247713e-01 -4.103456e-02 1.566043e-01 3.025062e-01 -3.466130e-02 2.820598e-02 1.209016e-01 2.897092e-01 -1.275332e-02 6.434898e-02 5.356250e-02 5.936671e-02 1.421164e-02 6.208799e-02 -9.136584e-03 -1.378030e-01 -1.066650e-01 5.140864e-02 3.201704e-02 -8.114520e-02 1.054132e-01 5.725897e-02
<VARIANCE> 39
 1.790818e+00 8.846132e+00 4.354988e+00 5.848949e+00 7.203203e+00 9.548599e+00 1.030771e+01 1.336143e+01 1.172795e+01 1.087827e+01 1.130921e+01 9.948616e+00 1.015027e+00 8.997624e-02 2.195953e-01 3.989492e-01 6.634057e-01 1.343867e+00 1.347694e+00 1.431692e+00 2.369119e+00 1.575199e+00 1.615535e+00 1.012931e+00 1.164559e+00 1.989477e-02 1.650631e-02 4.988147e-02 8.724951e-02 1.581964e-01 1.462850e-01 2.530900e-01 3.096612e-01 3.187129e-01 1.346917e-01 2.510186e-01 3.362046e-01 1.450740e-01 6.509893e-03
<GCONST> 6.172519e+01
<STATE> 11
<MEAN> 39
 -8.310594e+00 -3.319074e+00 2.082844e-01 -2.283018e+00 -6.174517e-02 -1.752309e+00 5.477137e+00 -5.461991e-01 2.940001e+00 4.248261e-02 4.046002e+00 -1.172552e-01 6.124406e+01 1.116549e-01 -7.193317e-02 -5.659051e-02 1.824890e-01 8.806190e-02 9.195587e-02 -1.093565e-01 6.968479e-02 -1.550617e-05 -1.510582e-01 -4.312539e-02 4.580727e-01 7.081138e-02 3.536461e-02 1.132176e-01 1.695528e-01 4.813006e-02 9.309274e-02 -2.319695e-02 -1.460641e-01 -2.179186e-01 -4.842991e-02 -1.219068e-02 -1.636511e-01 -4.458177e-02 4.189237e-02
<VARIANCE> 39
 1.505970e+00 5.548416e+00 3.999573e+00 8.236473e+00 6.737013e+00 9.076715e+00 1.138176e+01 2.274951e+01 1.335883e+01 1.815536e+01 1.201633e+01 9.334919e+00 1.015027e+00 9.712997e-02 2.139639e-01 3.445920e-01 5.217172e-01 9.474709e-01 1.208990e+00 1.270279e+00 1.726789e+00 9.285934e-01 1.139363e+00 8.203182e-01 1.159038e+00 2.075279e-02 1.493380e-02 4.588440e-02 1.004720e-01 1.925506e-01 9.873281e-02 2.299215e-01 2.037005e-01 3.316799e-01 2.281321e-01 3.810187e-01 2.259968e-01 1.398167e-01 2.503783e-03
<GCONST> 5.905496e+01
<TRANSP> 12
 0.000000e+00 1.000000e+00 0.000000e+00 0.000000e+00 0.000000e+00 0.000000e+00 0.000000e+00 0.000000e+00 0.000000e+00 0.000000e+00 0.000000e+00 0.000000e+00
 0.000000e+00 9.635611e-01 3.643886e-02 0.000000e+00 0.000000e+00 0.000000e+00 0.000000e+00 0.000000e+00 0.000000e+00 0.000000e+00 0.000000e+00 0.000000e+00
 0.000000e+00 0.000000e+00 7.201312e-01 2.798688e-01 0.000000e+00 0.000000e+00 0.000000e+00 0.000000e+00 0.000000e+00 0.000000e+00 0.000000e+00 0.000000e+00
 0.000000e+00 0.000000e+00 0.000000e+00 8.560848e-01 1.439152e-01 0.000000e+00 0.000000e+00 0.000000e+00 0.000000e+00 0.000000e+00 0.000000e+00 0.000000e+00
 0.000000e+00 0.000000e+00 0.000000e+00 0.000000e+00 9.429668e-01 5.703319e-02 0.000000e+00 0.000000e+00 0.000000e+00 0.000000e+00 0.000000e+00 0.000000e+00
 0.000000e+00 0.000000e+00 0.000000e+00 0.000000e+00 0.000000e+00 1.450728e-01 8.549272e-01 0.000000e+00 0.000000e+00 0.000000e+00 0.000000e+00 0.000000e+00
 0.000000e+00 0.000000e+00 0.000000e+00 0.000000e+00 0.000000e+00 0.000000e+00 9.481977e-03 9.905180e-01 0.000000e+00 0.000000e+00 0.000000e+00 0.000000e+00
 0.000000e+00 0.000000e+00 0.000000e+00 0.000000e+00 0.000000e+00 0.000000e+00 0.000000e+00 5.135974e-02 9.486402e-01 0.000000e+00 0.000000e+00 0.000000e+00
 0.000000e+00 0.000000e+00 0.000000e+00 0.000000e+00 0.000000e+00 0.000000e+00 0.000000e+00 0.000000e+00 8.807373e-10 1.000000e+00 0.000000e+00 0.000000e+00
 0.000000e+00 0.000000e+00 0.000000e+00 0.000000e+00 0.000000e+00 0.000000e+00 0.000000e+00 0.000000e+00 0.000000e+00 4.719436e-37 1.000000e+00 0.000000e+00
 0.000000e+00 0.000000e+00 0.000000e+00 0.000000e+00 0.000000e+00 0.000000e+00 0.000000e+00 0.000000e+00 0.000000e+00 0.000000e+00 6.231746e-34 1.000000e+00
 0.000000e+00 0.000000e+00 0.000000e+00 0.000000e+00 0.000000e+00 0.000000e+00 0.000000e+00 0.000000e+00 0.000000e+00 0.000000e+00 0.000000e+00 0.000000e+00
<ENDHMM>
~h "SEVEN"
<BEGINHMM>
<NUMSTATES> 12
<STATE> 2
<MEAN> 39
 -1.722791e+01 1.411632e+00 9.150620e-01 -3.869604e+00 7.413247e-01 -9.361223e+00 1.917340e+00 -1.582323e+00 2.905818e+00 2.590839e+00 -1.166100e+00 1.374832e+00 6.908633e+01 2.145456e+00 -9.409053e-01 8.767961e-01 3.173363e-01 -7.580256e-01 -1.700322e-01 -1.059157e+00 -5.717350e-01 3.605809e-01 -7.594088e-02 -4.483931e-01 -1.425042e+00 5.187074e-01 5.857854e-01 -3.215561e-01 2.847168e-01 -1.920597e-01 -3.544180e-01 -1.799942e-02 -5.332126e-01 5.410594e-02 7.021305e-02 7.213368e-02 -5.519994e-02 -3.654326e-01 3.229390e-01
<VARIANCE> 39
 2.844759e+01 1.439105e+01 1.385152e+01 1.321134e+01 1.049177e+01 1.153432e+01 1.583106e+01 1.723312e+01 1.524565e+01 1.576894e+01 1.663206e+01 2.595798e+01 2.325859e+00 6.489975e+00 1.191908e+00 1.897709e+00 1.287958e+00 2.239812e+00 1.313566e+00 4.829518e+00 1.794463e+00 1.195983e+00 1.248212e+00 1.404977e+00 4.083071e+00 1.196533e+00 4.574155e-01 1.182115e-01 1.638842e-01 3.781940e-01 4.466130e-01 2.242450e-01 4.733090e-01 4.357832e-01 2.453582e-01 2.686045e-01 2.486293e-01 4.467796e-01 1.970229e-01
<GCONST> 9.808584e+01
<STATE> 3
<MEAN> 39
 3.801248e+00 -2.506453e+00 9.815285e+00 -2.023525e+00 -6.116786e+00 -7.518716e+00 -5.528603e+00 -6.062999e-01 5.787789e+00 1.447265e+00 -1.996540e+00 -7.491630e+00 7.091644e+01 7.467909e-02 2.555349e-01 3.156514e-02 1.838729e-01 1.233333e-01 1.882934e-01 2.454563e-01 9.706900e-03 -2.787498e-02 -1.037260e-01 3.292870e-02 1.143706e-01 -2.624630e-01 -1.470455e-01 5.191976e-02 -6.885004e-02 3.181133e-02 8.242704e-02 7.728532e-03 1.096584e-01 8.688256e-03 -1.472732e-02 -1.351833e-02 1.476401e-02 9.402625e-02 -7.776134e-02
<VARIANCE> 39
 5.993294e+00 4.773414e+01 6.508644e+00 2.147145e+01 2.492834e+01 1.365847e+01 4.237183e+01 2.394254e+01 1.934794e+01 1.610713e+01 1.461319e+01 1.278025e+01 3.126301e+01 1.393614e+00 1.539575e+00 8.168225e-01 1.516756e+00 1.728423e+00 8.870878e-01 2.061526e+00 2.053889e+00 1.309313e+00 1.114036e+00 1.197225e+00 1.199323e+00 1.054887e+00 2.556047e-01 1.876454e-01 1.549910e-01 2.422150e-01 2.556781e-01 1.780496e-01 3.479944e-01 3.747422e-01 2.235360e-01 2.115835e-01 2.275790e-01 2.426575e-01 1.232747e-01
<GCONST> 9.359360e+01
<STATE> 4
<MEAN> 39
 -3.118658e-01 3.351533e+00 8.746969e+00 2.315351e+00 -2.486706e-02 -3.036684e+00 1.425784e+00 -2.464176e+00 3.351293e+00 -1.782982e+00 -2.388824e+00 -3.115692e+00 6.336989e+01 -3.685323e-01 -3.093697e-01 -2.433945e-01 -2.395409e-02 -7.241917e-02 -1.768908e-01 -2.664270e-01 1.552367e-01 1.176924e-01 -1.633293e-01 1.796930e-01 3.991948e-01 -2.280602e-01 1.119411e-02 -3.100932e-03 -2.194422e-02 1.205888e-02 1.574126e-01 2.763014e-02 1.000752e-01 -1.680187e-01 -2.314546e-01 1.418941e-01 5.529290e-02 -1.115216e-01 -1.282853e-02
<VARIANCE> 39
 4.732799e+00 3.622437e+00 6.435263e+00 3.038036e+00 1.182149e+01 9.789703e+00 1.031645e+01 1.377638e+01 6.723107e+00 8.160583e+00 2.113097e+01 1.438063e+01 1.548798e+00 1.274800e-01 2.975555e-01 3.489864e-01 4.168514e-01 5.941365e-01 1.105302e+00 5.656475e-01 1.033121e+00 6.714903e-01 1.118141e+00 9.504020e-01 1.081946e+00 3.119144e-02 2.935012e-02 3.130371e-02 4.791336e-02 9.560792e-02 1.994865e-01 8.169588e-02 2.104433e-01 3.348134e-01 1.732822e-01 2.220980e-01 2.734705e-01 1.758919e-01 7.506473e-03
<GCONST> 5.714334e+01
<STATE> 5
<MEAN> 39
 -6.586714e-01 2.951666e+00 8.298805e+00 2.858620e+00 -8.437281e-01 -4.532360e+00 7.658186e-01 -4.173887e+00 4.049996e+00 -6.804066e-01 -1.948717e+00 -3.834307e+00 6.307285e+01 -3.319463e-01 -4.131724e-01 -3.360186e-01 6.557053e-02 5.185809e-01 1.584082e-01 2.630610e-01 -4.755211e-02 -2.689552e-01 5.670869e-02 -3.163105e-02 1.262675e-01 -2.246385e-01 -7.247455e-03 -1.780111e-02 -4.460803e-02 -4.217744e-03 2.319650e-01 2.186818e-01 2.214285e-01 -5.141872e-02 -1.588485e-01 1.414435e-01 1.215354e-02 -5.917469e-02 -1.862444e-03
<VARIANCE> 39
 5.281265e+00 5.280075e+00 1.089271e+01 5.541572e+00 8.818619e+00 9.758636e+00 8.303741e+00 1.251831e+01 1.194941e+01 1.283173e+01 1.265205e+01 9.908454e+00 1.582699e+00 5.185896e-02 2.915079e-01 2.788986e-01 5.177537e-01 5.735279e-01 7.041155e-01 1.192402e+00 1.103547e+00 7.175100e-01 1.007543e+00 9.202732e-01 9.222187e-01 2.655081e-02 3.903987e-02 3.961010e-02 7.681248e-02 8.413467e-02 1.532464e-01 1.047083e-01 1.556544e-01 2.516217e-01 1.991427e-01 2.183885e-01 2.157603e-01 1.676245e-01 7.118776e-03
<GCONST> 5.736536e+01
<STATE> 6
<MEAN> 39
 -9.716096e-01 2.826526e+00 7.894156e+00 2.815794e+00 1.452383e+00 -3.229739e+00 1.300900e+00 -3.501832e+00 3.173409e+00 -1.161454e+00 -2.953329e+00 -3.285825e+00 6.280503e+01 -3.655189e-01 -3.472301e-01 -4.967918e-01 1.622883e-01 6.800244e-01 3.447922e-01 5.571934e-01 -7.911420e-02 -8.628583e-02 2.773182e-01 8.461976e-02 -2.499819e-02 -2.496508e-01 -3.503728e-02 -6.737146e-02 -7.766814e-02 -6.092843e-02 4.006352e-02 1.129401e-01 1.466287e-01 4.778814e-02 9.202582e-02 1.952971e-01 9.700882e-02 5.918846e-03 1.734643e-02
<VARIANCE> 39
 4.414062e+00 6.188599e+00 9.484720e+00 6.108518e+00 7.581509e+00 6.035492e+00 6.416496e+00 1.507860e+01 8.462997e+00 1.601775e+01 1.118581e+01 1.299384e+01 1.359670e+00 9.763214e-02 2.128458e-01 4.549466e-01 4.183377e-01 9.389424e-01 6.055841e-01 1.063609e+00 1.420823e+00 8.380737e-01 8.225597e-01 1.577702e+00 6.989405e-01 3.195044e-02 2.416831e-02 5.708265e-02 6.153753e-02 7.357718e-02 9.710637e-02 1.077265e-01 1.099929e-01 1.828500e-01 1.373650e-01 2.140724e-01 1.815362e-01 1.603117e-01 1.006254e-02
<GCONST> 5.612070e+01
<STATE> 7
<MEAN> 39
 -1.029894e+00 2.351204e+00 7.222701e+00 2.966112e+00 2.266853e+00 -2.140185e+00 3.313052e+00 -4.236046e+00 1.795804e+00 -1.811276e+00 -3.682739e+00 -4.188119e+00 6.278403e+01 -3.972701e-01 -4.413159e-01 -4.374852e-01 -4.536414e-02 5.117238e-01 5.128734e-01 5.820607e-01 3.349705e-01 1.062401e-01 3.124746e-01 3.727702e-01 3.148046e-01 -1.902578e-01 -6.999290e-02 -4.465620e-02 -1.368258e-02 -1.175425e-01 -1.752517e-01 -8.429856e-02 -6.287096e-02 1.580017e-01 2.512975e-01 1.584369e-01 1.905509e-01 1.885197e-01 1.839469e-02
<VARIANCE> 39
 4.280569e+00 5.618652e+00 1.010967e+01 8.268866e+00 7.544442e+00 7.558594e+00 1.106686e+01 1.042940e+01 7.177933e+00 9.361557e+00 1.518915e+01 1.135159e+01 1.427491e+00 1.683075e-01 2.571768e-01 5.333871e-01 4.469109e-01 9.008106e-01 5.450885e-01 8.424758e-01 6.474547e-01 8.361145e-01 8.977104e-01 1.054336e+00 8.871519e-01 4.668314e-02 2.468758e-02 4.511084e-02 8.162232e-02 1.093964e-01 1.296043e-01 8.972335e-02 2.414745e-01 2.300668e-01 9.767196e-02 1.603361e-01 2.028234e-01 1.713423e-01 2.143898e-02
<GCONST> 5.825772e+01
<STATE> 8
<MEAN> 39
 -1.784506e+00 1.965125e+00 7.266527e+00 3.219521e+00 1.322651e+00 -3.020735e+00 2.888769e+00 -2.890702e+00 3.930192e+00 -3.130627e-01 -1.781195e+00 -3.017427e+00 6.241955e+01 -5.525806e-01 -6.520284e-01 -5.904436e-01 -3.028107e-01 1.346510e-01 2.208698e-01 3.448012e-01 3.879482e-01 5.193177e-01 7.446371e-01 6.129334e-01 3.852095e-01 -2.004394e-01 -6.128416e-02 -2.771500e-02 -1.014632e-01 -2.001267e-01 -1.658330e-01 -6.796703e-02 -1.629342e-01 1.219492e-02 6.905728e-02 7.798745e-02 9.601745e-02 1.722185e-01 1.618951e-02
<VARIANCE> 39
 2.916209e+00 3.047604e+00 1.090638e+01 8.186556e+00 1.018648e+01 1.185940e+01 6.422745e+00 1.161890e+01 5.577057e+00 7.588448e+00 1.188969e+01 1.025140e+01 1.245192e+00 2.036214e-01 2.973199e-01 5.256737e-01 5.490713e-01 1.228521e+00 9.413511e-01 1.110019e+00 1.076463e+00 1.046486e+00 7.356709e-01 6.980101e-01 7.884924e-01 1.087666e-01 4.899767e-02 3.746252e-02 1.621425e-01 1.055851e-01 2.182933e-01 1.312960e-01 2.252099e-01 1.827663e-01 8.854733e-02 1.351948e-01 2.121737e-01 2.020896e-01 2.263004e-02
<GCONST> 6.095365e+01
<STATE> 9
<MEAN> 39
 -4.564565e+00 -1.168094e+00 1.669407e+00 -1.199317e+00 8.933922e-01 -3.692304e+00 1.746914e+00 -1.476300e+00 4.962006e+00 1.210573e+00 2.088904e+00 8.487844e-02 6.084459e+01 -1.716715e-01 -1.451185e-01 -3.481199e-01 -3.179743e-01 -9.799032e-02 -1.616495e-01 -1.159346e-01 2.512717e-02 -4.012391e-03 8.555245e-02 2.465720e-01 1.898866e-01 -9.902811e-02 1.980297e-02 3.273218e-02 3.435680e-02 7.886522e-03 -2.266773e-02 -1.064015e-02 -1.640785e-02 -3.337441e-02 -4.611180e-02 -3.808630e-02 -2.667762e-02 -3.168801e-02 1.404887e-02
<VARIANCE> 39
 2.291180e+00 4.006878e+00 1.018854e+01 1.066413e+01 1.047384e+01 1.199856e+01 1.265671e+01 1.000478e+01 9.826111e+00 1.029015e+01 1.224388e+01 8.513969e+00 1.015027e+00 1.391504e-01 2.703795e-01 4.895287e-01 5.283644e-01 8.971143e-01 1.082076e+00 1.102770e+00 1.052730e+00 1.111310e+00 9.907674e-01 1.102360e+00 7.701252e-01 5.697832e-02 2.241475e-02 4.303864e-02 8.391790e-02 8.481663e-02 1.780078e-01 2.177862e-01 2.197753e-01 1.898365e-01 2.239863e-01 1.885642e-01 2.315172e-01 1.528884e-01 8.159724e-03
<GCONST> 6.045980e+01
<STATE> 10
<MEAN> 39
 -4.582461e+00 -8.448572e-01 1.628733e+00 -1.649877e+00 1.247830e+00 -3.067123e+00 2.466825e+00 -2.541546e+00 3.202741e+00 1.868845e+00 1.548818e+00 -9.639688e-01 6.103564e+01 -3.085850e-01 -4.752911e-02 -1.938079e-01 -3.417038e-01 -3.220465e-01 -1.019977e-01 -1.909107e-01 -4.183423e-02 -2.380002e-01 1.581280e-01 2.921355e-01 3.840781e-01 1.861653e-02 -2.358010e-02 2.883066e-02 4.991703e-02 5.357495e-02 -1.572587e-01 -1.496497e-01 -2.277030e-01 1.532323e-01 2.146364e-01 -3.069532e-02 -4.298743e-03 -2.852289e-03 7.088927e-03
<VARIANCE> 39
 5.013407e+00 5.423569e+00 1.404723e+01 9.194679e+00 1.087502e+01 1.251804e+01 1.032086e+01 1.120442e+01 1.004449e+01 1.180021e+01 1.153053e+01 1.157468e+01 2.208984e+00 7.703797e-01 3.217188e-01 7.139117e-01 6.504928e-01 9.404988e-01 1.238433e+00 1.021683e+00 8.604591e-01 1.185451e+00 7.166611e-01 1.452404e+00 7.555494e-01 2.667446e-01 4.188794e-02 4.384249e-02 6.823401e-02 6.825926e-02 2.411931e-01 2.903136e-01 2.689812e-01 1.690651e-01 9.957969e-02 1.609937e-01 2.283820e-01 1.681605e-01 6.539390e-03
<GCONST> 6.659545e+01
<STATE> 11
<MEAN> 39
 -4.898417e+00 -5.661449e-01 1.820151e+00 -2.030385e+00 -1.103482e-01 -5.045400e+00 1.297654e+00 -2.896698e+00 3.545991e+00 1.035478e+00 2.022942e+00 3.731923e-01 6.113267e+01 -4.166511e-01 -1.205106e-01 -6.157250e-02 -1.158324e-01 -3.879696e-01 -1.084797e-01 -3.612937e-01 2.062475e-01 1.095346e-01 -4.859346e-02 2.250087e-01 1.523824e-01 -4.306711e-03 -6.586669e-03 -4.837056e-02 -1.734930e-03 8.933000e-02 9.273695e-03 1.805695e-02 -8.694151e-02 1.300692e-01 2.564089e-01 4.099212e-02 -2.274134e-02 -1.234547e-01 5.031662e-03
<VARIANCE> 39
 1.068938e+01 4.025043e+00 1.055428e+01 1.291338e+01 9.730578e+00 1.992279e+01 4.890714e+00 7.101682e+00 8.858307e+00 8.082880e+00 1.593527e+01 1.077528e+01 2.897324e+00 7.734913e-01 3.843703e-01 4.588136e-01 6.916969e-01 6.087227e-01 1.315968e+00 1.460638e+00 1.145833e+00 1.005848e+00 6.526932e-01 2.105258e+00 1.026564e+00 2.768572e-01 3.351935e-02 4.871691e-02 1.071411e-01 1.045039e-01 2.105073e-01 2.859683e-01 1.037434e-01 1.415597e-01 1.183053e-01 1.608891e-01 1.537917e-01 1.387093e-01 1.153291e-02
<GCONST> 6.643526e+01
<TRANSP> 12
 0.000000e+00 1.000000e+00 0.000000e+00 0.000000e+00 0.000000e+00 0.000000e+00 0.000000e+00 0.000000e+00 0.000000e+00 0.000000e+00 0.000000e+00 0.000000e+00
 0.000000e+00 8.606761e-01 1.393240e-01 0.000000e+00 0.000000e+00 0.000000e+00 0.000000e+00 0.000000e+00 0.000000e+00 0.000000e+00 0.000000e+00 0.000000e+00
 0.000000e+00 0.000000e+00 9.714203e-01 2.857967e-02 0.000000e+00 0.000000e+00 0.000000e+00 0.000000e+00 0.000000e+00 0.000000e+00 0.000000e+00 0.000000e+00
 0.000000e+00 0.000000e+00 0.000000e+00 6.780640e-09 1.000000e+00 0.000000e+00 0.000000e+00 0.000000e+00 0.000000e+00 0.000000e+00 0.000000e+00 0.000000e+00
 0.000000e+00 0.000000e+00 0.000000e+00 0.000000e+00 4.257723e-22 1.000000e+00 0.000000e+00 0.000000e+00 0.000000e+00 0.000000e+00 0.000000e+00 0.000000e+00
 0.000000e+00 0.000000e+00 0.000000e+00 0.000000e+00 0.000000e+00 8.142641e-04 9.991857e-01 0.000000e+00 0.000000e+00 0.000000e+00 0.000000e+00 0.000000e+00
 0.000000e+00 0.000000e+00 0.000000e+00 0.000000e+00 0.000000e+00 0.000000e+00 1.221526e-01 8.778475e-01 0.000000e+00 0.000000e+00 0.000000e+00 0.000000e+00
 0.000000e+00 0.000000e+00 0.000000e+00 0.000000e+00 0.000000e+00 0.000000e+00 0.000000e+00 2.006345e-01 7.993656e-01 0.000000e+00 0.000000e+00 0.000000e+00
 0.000000e+00 0.000000e+00 0.000000e+00 0.000000e+00 0.000000e+00 0.000000e+00 0.000000e+00 0.000000e+00 9.158169e-01 8.418315e-02 0.000000e+00 0.000000e+00
 0.000000e+00 0.000000e+00 0.000000e+00 0.000000e+00 0.000000e+00 0.000000e+00 0.000000e+00 0.000000e+00 0.000000e+00 1.886417e-02 9.811358e-01 0.000000e+00
 0.000000e+00 0.000000e+00 0.000000e+00 0.000000e+00 0.000000e+00 0.000000e+00 0.000000e+00 0.000000e+00 0.000000e+00 0.000000e+00 1.282936e-04 9.998717e-01
 0.000000e+00 0.000000e+00 0.000000e+00 0.000000e+00 0.000000e+00 0.000000e+00 0.000000e+00 0.000000e+00 0.000000e+00 0.000000e+00 0.000000e+00 0.000000e+00
<ENDHMM>
~h "THREE"
<BEGINHMM>
<NUMSTATES> 12
<STATE> 2
<MEAN> 39
 -3.339790e+00 -7.266706e+00 1.383669e+01 -2.850342e-02 -1.037209e+01 -1.007414e+01 -7.319450e+00 -4.571439e-01 2.885853e+00 -6.093755e+00 3.230669e+00 -5.715811e-01 7.057361e+01 5.086917e-01 8.734071e-02 1.007995e+00 4.076148e-01 -8.615213e-01 -1.108032e-01 -8.838236e-02 -3.380253e-01 -2.852757e-01 -3.852496e-01 1.693686e-01 -4.459142e-02 1.776275e-01 -3.322536e-02 3.584971e-02 -2.315439e-02 -1.479998e-03 5.364831e-02 1.028898e-01 4.886431e-02 -8.134396e-02 -1.351099e-03 3.936310e-02 -4.811484e-02 -2.264836e-02 -6.872533e-02
<VARIANCE> 39
 7.492990e+01 3.030354e+01 8.412860e+01 5.596297e+01 1.023853e+02 5.516149e+01 6.851695e+01 3.558390e+01 4.145810e+01 5.526489e+01 2.232401e+01 1.813305e+01 1.388113e+01 2.771513e+00 2.232749e+00 3.493343e+00 3.182609e+00 4.554712e+00 4.206447e+00 4.683174e+00 3.279359e+00 3.194271e+00 3.761214e+00 2.648721e+00 1.986115e+00 1.107615e+00 3.466066e-01 3.784696e-01 4.996472e-01 5.544673e-01 7.690773e-01 6.218259e-01 8.825507e-01 6.482934e-01 6.054650e-01 5.996496e-01 5.285431e-01 3.666431e-01 1.940677e-01
<GCONST> 1.259304e+02
<STATE> 3
<MEAN> 39
 -7.678504e-01 -3.803804e+00 2.599129e+01 2.444605e+00 -1.675352e+01 -8.276308e+00 -6.899302e+00 -5.737965e+00 -2.918353e+00 -7.831280e+00 6.657163e+00 -2.411851e+00 7.085500e+01 -5.127254e-01 8.602490e-01 3.291388e-01 -5.699162e-01 7.805416e-01 1.634323e+00 -1.144770e-01 -1.326207e+00 -1.367058e-01 3.433188e-01 -5.738049e-01 8.568011e-02 -5.601826e-01 1.466967e-01 1.557699e-02 -3.368979e-01 -2.694927e-02 -1.785618e-01 -1.152971e-01 2.065812e-01 3.422867e-02 1.614684e-02 -5.241117e-02 -3.958033e-01 8.406141e-02 -3.566600e-02
<VARIANCE> 39
 1.616375e+00 1.701307e+01 3.926768e+01 8.167786e+00 3.723868e+01 2.515540e+01 4.772351e+01 2.438840e+01 1.406161e+01 3.094152e+01 1.866418e+01 8.671043e+00 8.879017e+00 1.224614e-01 1.005264e+00 5.295912e-01 1.059989e+00 1.670704e+00 7.986637e-01 7.423295e-01 8.684792e-01 1.868308e+00 8.511282e-01 1.416095e+00 5.306301e-01 1.039999e-01 1.805519e-02 6.952399e-02 1.584953e-01 1.399355e-01 3.312807e-01 3.523201e-01 2.188418e-01 2.820351e-01 3.689899e-01 4.918413e-01 2.405115e-01 1.888412e-01 1.117734e-02
<GCONST> 7.838736e+01
<STATE> 4
<MEAN> 39
 -1.291324e+00 -2.781062e+00 2.676968e+01 1.474010e+00 -1.803402e+01 -5.261250e+00 -6.142627e+00 -8.209806e+00 -2.833746e+00 -6.558302e+00 4.975330e+00 -1.391506e+00 6.999777e+01 -2.658691e-01 8.566182e-01 -2.740413e-01 -4.356884e-01 4.587081e-01 1.188709e+00 5.761725e-01 -1.342014e+00 -5.913602e-01 5.573636e-01 -1.153445e+00 -2.932052e-01 -6.078022e-01 1.278425e-01 3.269758e-02 -4.991612e-01 2.015547e-02 -1.407750e-02 -2.913422e-01 2.838058e-01 3.012903e-01 1.257632e-02 9.154122e-02 -1.291806e-01 -2.018890e-01 -5.727093e-02
<VARIANCE> 39
 2.539612e+00 9.836962e+00 2.692191e+01 8.581955e+00 3.153568e+01 3.358765e+01 4.568210e+01 3.349866e+01 9.487755e+00 3.399932e+01 9.675204e+00 1.610995e+01 8.590393e+00 1.065503e-01 8.487885e-01 4.024599e-01 7.307495e-01 6.466961e-01 8.905724e-01 5.785720e-01 8.435563e-01 1.746764e+00 1.854531e+00 9.235685e-01 7.196845e-01 1.062251e-01 1.800949e-02 7.352186e-02 1.398916e-01 1.673359e-01 4.772688e-01 3.562284e-01 1.699950e-01 2.579033e-01 3.144317e-01 2.283464e-01 2.122645e-01 1.785814e-01 1.011408e-02
<GCONST> 7.546014e+01
<STATE> 5
<MEAN> 39
 -1.208481e+00 -2.949638e-01 2.568296e+01 4.984589e-01 -1.726752e+01 -3.485598e+00 -4.394225e+00 -8.637436e+00 -3.981871e+00 -5.348444e+00 2.800720e+00 -4.468493e+00 6.905061e+01 -2.644243e-01 8.562720e-01 -1.053252e+00 -1.748197e-01 9.089548e-01 1.138233e+00 1.125955e+00 -2.962992e-01 5.039591e-01 7.754220e-01 -7.466155e-01 -5.981860e-01 -7.776619e-01 -4.179771e-02 -1.163063e-01 -2.175324e-01 8.463325e-02 1.847533e-01 -1.138043e-01 -3.384124e-02 1.181468e-01 1.313512e-01 2.534851e-03 9.543570e-02 5.918681e-02 -3.676151e-02
<VARIANCE> 39
 1.817055e+00 9.849558e+00 1.690353e+01 7.942394e+00 2.111121e+01 2.770215e+01 3.032626e+01 2.665698e+01 1.746576e+01 1.460880e+01 1.269652e+01 1.300536e+01 6.412685e+00 1.443533e-01 4.838320e-01 6.917011e-01 9.096465e-01 1.457485e+00 1.801012e+00 1.424693e+00 1.114282e+00 1.716774e+00 1.792522e+00 8.195642e-01 9.804471e-01 1.419908e-01 2.198385e-02 6.766561e-02 1.542540e-01 1.864651e-01 2.720267e-01 3.640469e-01 2.509299e-01 2.939656e-01 3.540992e-01 3.117074e-01 2.132500e-01 2.239999e-01 1.552995e-02
<GCONST> 7.790182e+01
<STATE> 6
<MEAN> 39
 -2.850760e+00 2.836706e+00 1.767364e+01 9.079554e-01 -8.501135e+00 3.333602e-01 -6.165800e-01 -1.084425e+01 5.402565e-03 -2.316308e+00 2.152946e-01 -4.837585e+00 6.449222e+01 -3.617682e-01 1.093444e-02 -1.610327e+00 -1.330164e-02 1.205860e+00 2.079194e-01 5.884167e-01 -1.340192e-02 4.804284e-01 6.656706e-01 -1.263392e-01 5.886967e-02 -6.423394e-01 -2.694235e-02 -1.952888e-01 -5.983870e-02 -7.895211e-02 -1.817999e-01 -2.058173e-01 6.056882e-02 2.611798e-01 1.277392e-01 2.731873e-02 1.177229e-01 7.791689e-02 3.928248e-02
<VARIANCE> 39
 1.158165e+00 3.998222e+00 1.115449e+01 8.407421e+00 1.248845e+01 1.293669e+01 2.888460e+01 1.895638e+01 1.623923e+01 2.068849e+01 1.843121e+01 1.613184e+01 1.129473e+00 1.500318e-01 3.744110e-01 1.471850e+00 8.588344e-01 1.415982e+00 2.008297e+00 1.685310e+00 1.778522e+00 1.814617e+00 1.577448e+00 1.145720e+00 1.032606e+00 1.393084e-01 3.233822e-02 5.432524e-02 2.334805e-01 1.497898e-01 2.169928e-01 3.507755e-01 2.408220e-01 2.137595e-01 3.261870e-01 3.556918e-01 2.165916e-01 1.897347e-01 2.181818e-02
<GCONST> 7.511097e+01
<STATE> 7
<MEAN> 39
 -5.668728e+00 3.363218e-01 1.025052e+01 1.184341e-01 -6.329123e+00 -5.292978e-01 4.279371e+00 -7.884623e+00 2.166182e+00 1.514384e+00 7.027123e-01 -4.029850e+00 6.189625e+01 -4.777691e-01 -4.719472e-01 -1.454032e+00 -2.253109e-01 7.157124e-01 -6.311373e-01 4.161097e-01 1.026884e+00 3.173144e-01 3.618754e-01 4.283861e-01 4.319223e-01 -4.606585e-01 5.956016e-02 3.542282e-02 8.276618e-02 9.117823e-03 -1.066402e-03 -7.194871e-02 -1.908754e-01 4.484771e-02 -1.101115e-01 -1.431918e-01 9.508535e-02 1.044330e-01 5.852415e-02
<VARIANCE> 39
 2.568034e+00 6.233875e+00 1.289387e+01 9.754699e+00 1.374359e+01 1.748442e+01 1.646612e+01 1.876597e+01 1.915175e+01 1.480924e+01 1.417916e+01 1.436251e+01 1.364210e+00 1.562567e-01 2.817829e-01 7.885607e-01 5.779817e-01 7.515767e-01 1.118671e+00 1.140382e+00 1.553005e+00 1.191744e+00 1.487388e+00 1.685038e+00 1.542073e+00 7.419425e-02 2.714685e-02 4.763362e-02 1.435978e-01 1.230098e-01 1.303542e-01 2.580511e-01 2.874040e-01 3.596492e-01 2.295266e-01 2.343754e-01 3.007935e-01 2.623037e-01 9.733386e-03
<GCONST> 7.074761e+01
<STATE> 8
<MEAN> 39
 -6.772884e+00 -1.147084e+00 6.172130e+00 -2.882619e-01 -3.532976e+00 -2.303203e+00 4.255482e+00 -3.952423e+00 2.862278e+00 1.579250e+00 2.178887e+00 -2.435326e+00 6.075751e+01 -2.196015e-01 -1.219036e-01 -1.464012e+00 -2.681006e-01 8.146631e-01 -7.516824e-01 -6.033973e-01 9.768836e-01 2.034541e-01 -2.817469e-01 2.081655e-01 8.024442e-01 -3.515126e-01 6.590086e-02 1.405611e-01 1.479858e-01 -2.444186e-02 -2.150419e-01 -1.026863e-01 -3.964361e-01 -2.958097e-01 9.942886e-02 -6.445825e-03 1.459080e-01 1.928178e-01 5.300722e-02
<VARIANCE> 39
 2.948681e+00 6.321362e+00 1.407779e+01 8.727769e+00 4.729030e+00 1.481752e+01 1.633643e+01 1.240475e+01 1.358675e+01 1.906821e+01 8.460724e+00 1.785002e+01 1.444776e+00 7.430102e-02 2.316122e-01 4.942311e-01 7.290965e-01 5.549182e-01 1.440195e+00 1.365606e+00 2.352400e+00 1.349566e+00 1.451858e+00 1.830252e+00 8.251276e-01 2.794106e-02 1.960003e-02 7.040412e-02 1.767259e-01 1.295855e-01 1.386521e-01 3.222709e-01 2.352544e-01 4.174959e-01 2.837215e-01 2.884734e-01 2.473603e-01 3.024374e-01 9.343239e-03
<GCONST> 6.772436e+01
<STATE> 9
<MEAN> 39
 -6.659978e+00 -6.472015e-01 4.310832e+00 -1.123702e+00 -3.323964e+00 -4.515780e+00 2.682245e+00 -3.534773e+00 2.883467e+00 3.868484e-01 2.045500e+00 -7.647161e-01 6.044064e+01 -3.664417e-02 8.062912e-02 -1.123966e+00 -2.875389e-01 3.867187e-01 -8.595083e-01 -1.113422e+00 9.669402e-02 2.726674e-01 -1.652273e-01 8.018283e-01 1.008708e+00 -2.377153e-01 5.779765e-03 8.332944e-02 2.448376e-01 6.217848e-03 -1.757226e-01 9.927046e-02 -1.113760e-01 -3.048320e-01 1.476699e-01 2.504511e-01 1.467129e-01 -1.240809e-01 1.461604e-02
<VARIANCE> 39
 1.596256e+00 4.254105e+00 1.989137e+01 1.128267e+01 9.205897e+00 1.274173e+01 9.089596e+00 2.072385e+01 1.480576e+01 8.325918e+00 1.247799e+01 8.483997e+00 1.690308e+00 1.023977e-01 3.330729e-01 4.049137e-01 8.979393e-01 7.953382e-01 2.313677e+00 1.311130e+00 1.685829e+00 2.127238e+00 1.076774e+00 9.626507e-01 1.214906e+00 4.103580e-02 1.100348e-02 4.614511e-02 1.453469e-01 1.543879e-01 1.429980e-01 2.096639e-01 1.646531e-01 4.135028e-01 2.817196e-01 2.549919e-01 3.387060e-01 1.548401e-01 1.171424e-02
<GCONST> 6.621102e+01
<STATE> 10
<MEAN> 39
 -6.741216e+00 -1.106300e-01 3.628840e+00 -1.467438e+00 -2.721847e+00 -4.535653e+00 1.420199e+00 -3.852540e+00 2.579867e+00 1.070020e+00 3.673717e+00 -1.066867e+00 6.018761e+01 -2.130126e-01 6.699051e-02 -7.929559e-01 -2.204055e-01 3.016173e-01 -5.207119e-01 -7.429321e-01 -1.119963e-02 6.057168e-01 5.186105e-01 9.999115e-01 5.995808e-01 -3.251820e-01 -3.483702e-02 9.109658e-03 2.419717e-01 -3.028530e-02 -9.061757e-02 2.086201e-01 1.739887e-01 -1.334254e-01 1.005707e-01 2.178955e-01 -1.425079e-01 -3.311978e-01 3.149564e-03
<VARIANCE> 39
 2.163385e+00 6.255806e+00 1.237689e+01 1.482020e+01 1.121964e+01 1.796343e+01 7.615038e+00 1.651752e+01 8.686172e+00 1.817941e+01 1.081759e+01 7.095938e+00 1.551064e+00 6.771760e-02 2.137066e-01 7.117817e-01 8.598267e-01 6.602432e-01 8.458366e-01 1.199402e+00 1.385961e+00 1.383311e+00 1.521404e+00 8.652529e-01 1.890566e+00 5.691868e-02 1.468130e-02 7.502957e-02 9.915315e-02 1.586247e-01 1.088614e-01 3.487694e-01 1.545946e-01 4.217601e-01 3.384204e-01 3.205999e-01 2.934609e-01 1.697306e-01 7.395712e-03
<GCONST> 6.595354e+01
<STATE> 11
<MEAN> 39
 -6.774044e+00 -4.022574e-01 3.127871e+00 -6.241903e-01 -2.167502e+00 -5.189318e+00 8.790760e-01 -4.108129e+00 3.360482e+00 1.839422e+00 5.625006e+00 4.826865e-01 5.990882e+01 -2.581339e-01 2.236047e-02 -6.160079e-01 -2.773254e-01 3.407241e-01 -8.980849e-02 -5.691430e-01 9.484509e-02 7.913818e-01 6.729042e-01 6.051736e-01 1.919731e-01 -3.500255e-01 -1.733761e-02 -4.089205e-02 1.414992e-01 -1.477699e-01 -9.146401e-02 1.921154e-01 2.733874e-01 -1.097125e-02 -7.650854e-02 2.105192e-02 -4.102045e-01 -4.291274e-01 3.478615e-02
<VARIANCE> 39
 1.670838e+00 4.917854e+00 8.885277e+00 7.934826e+00 1.076549e+01 1.755722e+01 8.098423e+00 1.259958e+01 7.026581e+00 1.078289e+01 1.710838e+01 8.932617e+00 1.015027e+00 5.495051e-02 2.500078e-01 8.107764e-01 5.411254e-01 8.683515e-01 1.486110e+00 8.635365e-01 1.791856e+00 1.326159e+00 8.165801e-01 1.081261e+00 1.200523e+00 7.912178e-02 1.637147e-02 7.969709e-02 5.912710e-02 1.244141e-01 1.134195e-01 2.209742e-01 1.588159e-01 2.926482e-01 2.916107e-01 1.832833e-01 2.037259e-01 2.390148e-01 5.473915e-03
<GCONST> 6.119378e+01
<TRANSP> 12
 0.000000e+00 1.000000e+00 0.000000e+00 0.000000e+00 0.000000e+00 0.000000e+00 0.000000e+00 0.000000e+00 0.000000e+00 0.000000e+00 0.000000e+00 0.000000e+00
 0.000000e+00 9.511002e-01 4.889978e-02 0.000000e+00 0.000000e+00 0.000000e+00 0.000000e+00 0.000000e+00 0.000000e+00 0.000000e+00 0.000000e+00 0.000000e+00
 0.000000e+00 0.000000e+00 1.347624e-01 8.652375e-01 0.000000e+00 0.000000e+00 0.000000e+00 0.000000e+00 0.000000e+00 0.000000e+00 0.000000e+00 0.000000e+00
 0.000000e+00 0.000000e+00 0.000000e+00 1.851518e-02 9.814848e-01 0.000000e+00 0.000000e+00 0.000000e+00 0.000000e+00 0.000000e+00 0.000000e+00 0.000000e+00
 0.000000e+00 0.000000e+00 0.000000e+00 0.000000e+00 7.913197e-01 2.086804e-01 0.000000e+00 0.000000e+00 0.000000e+00 0.000000e+00 0.000000e+00 0.000000e+00
 0.000000e+00 0.000000e+00 0.000000e+00 0.000000e+00 0.000000e+00 7.240511e-01 2.759489e-01 0.000000e+00 0.000000e+00 0.000000e+00 0.000000e+00 0.000000e+00
 0.000000e+00 0.000000e+00 0.000000e+00 0.000000e+00 0.000000e+00 0.000000e+00 8.084503e-01 1.915497e-01 0.000000e+00 0.000000e+00 0.000000e+00 0.000000e+00
 0.000000e+00 0.000000e+00 0.000000e+00 0.000000e+00 0.000000e+00 0.000000e+00 0.000000e+00 7.660796e-02 9.233921e-01 0.000000e+00 0.000000e+00 0.000000e+00
 0.000000e+00 0.000000e+00 0.000000e+00 0.000000e+00 0.000000e+00 0.000000e+00 0.000000e+00 0.000000e+00 1.469063e-01 8.530936e-01 0.000000e+00 0.000000e+00
 0.000000e+00 0.000000e+00 0.000000e+00 0.000000e+00 0.000000e+00 0.000000e+00 0.000000e+00 0.000000e+00 0.000000e+00 2.395240e-03 9.976047e-01 0.000000e+00
 0.000000e+00 0.000000e+00 0.000000e+00 0.000000e+00 0.000000e+00 0.000000e+00 0.000000e+00 0.000000e+00 0.000000e+00 0.000000e+00 1.041234e-08 1.000000e+00
 0.000000e+00 0.000000e+00 0.000000e+00 0.000000e+00 0.000000e+00 0.000000e+00 0.000000e+00 0.000000e+00 0.000000e+00 0.000000e+00 0.000000e+00 0.000000e+00
<ENDHMM>
~h "ONE"
<BEGINHMM>
<NUMSTATES> 12
<STATE> 2
<MEAN> 39
 3.824608e+00 -5.979529e+00 7.662373e+00 -9.644217e+00 -1.253596e+01 4.240950e+00 -4.701406e+00 -7.840645e+00 2.282038e+00 -2.754831e+00 6.007464e-01 -7.535447e+00 7.432990e+01 -1.986487e-01 7.654494e-02 1.713874e-01 5.541580e-01 4.918508e-01 -5.989452e-02 -1.224864e-01 -1.897813e-01 -8.224607e-03 2.742705e-01 -2.536067e-01 -1.217653e-01 -1.751637e-01 -1.006512e-01 1.091520e-01 -2.489784e-02 1.535238e-01 1.818745e-01 -1.154690e-01 3.278038e-02 3.538302e-02 -6.711274e-03 6.170544e-02 -1.196951e-02 4.283622e-03 -1.487266e-01
<VARIANCE> 39
 6.915359e+00 5.221827e+01 2.254001e+01 6.309940e+01 3.697258e+01 3.275935e+01 4.437180e+01 5.946439e+01 1.632207e+01 3.208813e+01 3.077611e+01 2.963754e+01 3.809739e+01 5.333489e-01 3.041126e+00 1.216563e+00 1.905555e+00 2.868916e+00 2.901794e+00 3.870360e+00 5.413589e+00 1.452920e+00 1.768385e+00 1.406748e+00 2.019482e+00 1.690743e+00 1.175970e-01 2.453123e-01 1.837287e-01 2.807940e-01 5.262207e-01 3.659552e-01 6.048669e-01 9.974760e-01 2.846191e-01 3.270001e-01 2.488191e-01 2.865272e-01 7.680149e-02
<GCONST> 1.092750e+02
<STATE> 3
<MEAN> 39
 1.746286e+00 8.829465e-01 8.174372e+00 -1.173221e+00 -4.342548e+00 -1.463282e+00 -3.289451e+00 -1.078082e+01 2.018050e+00 7.068691e-01 -2.802334e+00 -6.738016e+00 6.736785e+01 -4.497083e-01 7.346416e-01 5.852437e-02 5.717981e-01 6.865703e-01 -2.767394e-01 5.692002e-01 -1.229320e-01 -1.185136e-01 2.694459e-01 2.768321e-01 5.512798e-01 -8.415268e-01 -2.496582e-02 -1.928968e-01 -9.781256e-02 -9.573960e-02 6.545573e-03 2.087307e-01 7.218571e-02 2.764755e-01 2.733609e-02 -1.445133e-01 4.746130e-02 -4.407836e-02 7.432239e-02
<VARIANCE> 39
 5.613325e+00 1.617567e+01 6.862030e+00 6.029229e+00 1.525768e+01 5.937393e+00 2.127075e+01 2.921476e+01 8.349625e+00 1.038624e+01 1.017049e+01 1.462908e+01 1.226872e+01 8.606809e-02 6.917663e-01 7.477283e-01 7.071142e-01 1.537502e+00 5.545750e-01 9.016945e-01 6.586245e+00 1.356832e+00 1.624254e+00 1.036691e+00 8.528346e-01 1.107256e-01 1.670595e-02 4.020730e-02 1.005630e-01 9.581532e-02 2.371606e-01 6.541429e-02 1.477612e-01 8.716393e-01 2.932931e-01 2.812117e-01 2.428207e-01 2.286871e-01 1.236834e-02
<GCONST> 7.150690e+01
<STATE> 4
<MEAN> 39
 -1.139528e+00 3.666149e+00 7.584107e+00 3.944378e-01 -4.889307e-01 -8.473473e-01 -5.661216e-01 -8.649469e+00 1.866919e+00 1.008236e+00 -1.631927e+00 -4.861332e+00 6.352437e+01 -7.328219e-01 -6.121445e-02 -5.682231e-01 5.277474e-01 1.245362e+00 3.722599e-01 6.083581e-01 5.750736e-01 -1.784535e-01 -1.098733e-01 3.068802e-01 3.436996e-01 -6.686390e-01 -2.552766e-02 -1.305450e-01 -5.895373e-02 -1.929249e-01 -1.063976e-01 1.844919e-01 2.846367e-01 1.797649e-01 2.965220e-02 -1.658173e-01 -6.618719e-02 -1.699097e-02 8.662147e-02
<VARIANCE> 39
 2.723746e+00 5.004135e+00 6.838833e+00 9.362591e+00 1.243287e+01 6.585258e+00 7.036648e+00 1.535196e+01 1.950270e+01 1.937794e+01 9.287766e+00 7.532059e+00 3.327618e+00 1.134106e-01 4.461763e-01 5.896295e-01 6.828506e-01 1.333943e+00 6.737719e-01 3.918235e-01 1.004900e+00 5.400026e-01 9.767016e-01 6.253179e-01 1.457353e+00 1.018570e-01 1.887284e-02 5.214756e-02 4.587927e-02 1.249681e-01 2.801603e-01 1.034919e-01 9.694235e-02 2.440691e-01 2.677271e-01 4.365433e-01 2.385976e-01 1.518366e-01 1.579158e-02
<GCONST> 6.198947e+01
<STATE> 5
<MEAN> 39
 -3.931627e+00 2.850969e+00 4.898269e+00 4.433222e-01 2.793524e+00 -5.693913e-02 2.387676e+00 -4.693468e+00 3.369787e+00 -4.901848e-01 1.961279e-01 -3.133558e+00 6.160629e+01 -5.708535e-01 -2.711456e-01 -4.467241e-01 -6.651053e-02 3.399790e-01 1.825088e-02 4.149845e-01 7.619510e-01 3.760525e-01 1.430318e-01 5.491834e-01 4.350731e-01 -3.673589e-01 1.659086e-02 -4.608899e-02 6.301217e-03 -1.239306e-01 -2.095515e-01 -8.650342e-02 -4.520817e-02 -2.394403e-02 4.319391e-02 7.298516e-02 1.423058e-02 -2.079104e-03 3.315721e-02
<VARIANCE> 39
 3.587199e+00 6.819633e+00 7.142986e+00 6.685921e+00 1.137853e+01 1.392311e+01 1.083929e+01 1.861981e+01 1.372922e+01 1.381765e+01 1.560241e+01 1.375133e+01 2.894736e+00 1.222274e-01 2.402575e-01 3.154652e-01 4.202775e-01 1.549400e+00 9.549725e-01 1.084388e+00 1.623183e+00 1.306079e+00 1.472662e+00 1.423921e+00 1.092897e+00 7.221197e-02 1.860515e-02 4.110025e-02 6.031079e-02 9.404237e-02 2.578886e-01 1.929593e-01 1.669847e-01 3.047646e-01 2.384004e-01 2.846512e-01 3.102590e-01 2.333976e-01 1.124270e-02
<GCONST> 6.653648e+01
<STATE> 6
<MEAN> 39
 -6.247875e+00 1.437929e+00 3.177330e+00 -1.022457e+00 2.519810e+00 3.874865e-01 4.679786e+00 -2.121282e+00 4.741826e+00 1.207551e+00 1.652355e+00 -2.080589e+00 6.010826e+01 -5.132837e-01 -2.513118e-01 -4.923166e-01 -6.433601e-01 -5.578571e-01 -6.827841e-01 9.970486e-02 5.938314e-01 3.708869e-01 1.637644e-01 -7.130253e-02 -7.073484e-02 -3.008029e-01 9.346504e-02 9.429684e-02 1.228592e-02 3.016389e-02 -4.932242e-02 -1.840946e-01 -3.553407e-01 -2.778174e-01 -5.631660e-02 -1.128805e-01 -5.647812e-02 -1.198905e-01 4.348043e-02
<VARIANCE> 39
 4.179824e+00 1.597130e+00 5.987896e+00 9.512564e+00 1.083341e+01 1.241891e+01 1.001270e+01 1.601149e+01 8.395828e+00 1.135637e+01 1.063144e+01 2.070580e+01 3.451339e+00 7.877876e-02 1.966473e-01 2.267088e-01 3.333965e-01 1.114059e+00 1.329270e+00 1.036577e+00 9.419361e-01 1.320699e+00 1.673488e+00 1.136976e+00 9.634742e-01 4.610980e-02 1.372812e-02 2.552350e-02 7.853290e-02 8.956351e-02 2.061114e-01 2.351143e-01 1.460090e-01 1.591183e-01 2.205021e-01 3.560645e-01 2.224158e-01 2.942518e-01 5.206423e-03
<GCONST> 5.998225e+01
<STATE> 7
<MEAN> 39
 -7.267766e+00 7.848759e-01 1.871554e+00 -2.052783e+00 1.309078e+00 -2.068186e+00 3.559309e+00 -1.922687e+00 5.933020e+00 1.574911e+00 2.331289e+00 -2.139646e+00 5.950490e+01 -3.053173e-01 -2.751464e-01 -3.794273e-01 -2.384136e-01 -6.010349e-02 -1.695845e-01 -4.216024e-01 -1.079986e-01 6.765224e-02 3.606358e-02 3.778309e-01 9.850200e-02 -2.094959e-01 5.065247e-02 7.243826e-02 8.382353e-02 8.711720e-02 3.758258e-02 4.849510e-02 -7.507598e-02 -1.246075e-01 -1.543098e-01 -1.620812e-01 3.089350e-03 1.170053e-01 -6.170558e-03
<VARIANCE> 39
 2.849454e+00 2.779274e+00 8.894011e+00 6.063823e+00 8.459576e+00 8.131566e+00 8.055957e+00 9.851608e+00 1.270554e+01 9.907730e+00 9.725296e+00 1.380946e+01 2.320544e+00 6.858528e-02 1.845893e-01 2.824407e-01 6.667633e-01 8.239642e-01 1.357470e+00 7.917875e-01 1.050278e+00 1.147408e+00 1.194536e+00 8.231975e-01 1.260948e+00 6.140578e-02 1.156660e-02 1.968417e-02 5.371055e-02 8.912145e-02 1.722421e-01 2.268350e-01 1.795396e-01 1.581676e-01 2.435162e-01 2.041048e-01 1.724471e-01 2.687431e-01 9.523490e-03
<GCONST> 5.710689e+01
<STATE> 8
<MEAN> 39
 -6.578804e+00 1.542073e+00 3.203790e+00 -2.142373e+00 3.798311e-01 -2.549893e+00 1.448747e+00 -2.907885e+00 3.932118e+00 1.375183e+00 3.946733e+00 -1.158008e+00 5.977018e+01 -3.266129e-01 1.070479e-01 -3.028945e-01 -1.109945e-01 -2.608407e-01 -7.599739e-01 -6.006967e-01 -1.328562e-01 -1.011043e-01 -4.141269e-01 1.874548e-01 3.757697e-01 -3.885317e-01 2.730735e-02 -1.067583e-02 3.395879e-02 -6.228015e-03 4.994962e-02 1.727153e-02 2.745587e-03 6.527320e-02 1.508555e-02 -1.422362e-01 -1.772874e-01 -1.168264e-01 5.153470e-02
<VARIANCE> 39
 4.014380e+00 3.992859e+00 1.198590e+01 1.236311e+01 8.920816e+00 9.530058e+00 6.190033e+00 7.023772e+00 6.446503e+00 1.114496e+01 1.159547e+01 1.097340e+01 3.759407e+00 7.246163e-02 1.099943e-01 3.627415e-01 5.290741e-01 5.531938e-01 6.697395e-01 5.091333e-01 1.068025e+00 6.466137e-01 1.107470e+00 1.053522e+00 1.250399e+00 3.548501e-02 1.653343e-02 3.686336e-02 7.312518e-02 1.504755e-01 8.395310e-02 3.000924e-01 1.752436e-01 2.080569e-01 2.482982e-01 1.829739e-01 1.374054e-01 1.299309e-01 7.712264e-03
<GCONST> 5.574099e+01
<STATE> 9
<MEAN> 39
 -7.268440e+00 4.811940e-01 1.921271e+00 -1.621088e+00 9.648275e-01 -2.684670e+00 1.536295e+00 -4.273221e+00 4.258279e+00 2.797842e-02 2.658229e+00 -8.458681e-01 5.927258e+01 -3.029366e-01 -7.887570e-02 -3.655146e-01 -2.104491e-01 -9.284244e-02 -3.528402e-01 -3.526239e-02 1.548408e-01 -1.776159e-01 -6.904750e-01 -1.184331e-01 1.023037e-01 -2.838788e-01 3.417517e-02 -3.830520e-02 1.127720e-01 -1.071212e-01 4.788839e-02 1.624416e-01 7.148929e-02 1.921336e-01 7.896321e-02 8.002678e-02 -1.306833e-02 -9.618109e-02 1.102354e-01
<VARIANCE> 39
 4.810730e+00 5.140671e+00 1.489156e+01 1.173427e+01 5.849770e+00 9.757253e+00 1.408617e+01 1.748211e+01 1.336586e+01 1.419410e+01 6.550510e+00 5.695181e+00 3.652405e+00 5.604238e-02 1.560204e-01 3.627799e-01 9.352593e-01 1.243489e+00 1.494564e+00 1.226838e+00 1.013195e+00 1.308876e+00 8.054345e-01 1.317523e+00 1.216528e+00 3.215200e-02 1.868256e-02 3.327778e-02 1.010070e-01 1.633661e-01 5.538255e-02 2.222704e-01 1.141737e-01 2.169460e-01 2.899966e-01 2.659602e-01 1.427071e-01 1.569386e-01 8.476870e-03
<GCONST> 6.114926e+01
<STATE> 10
<MEAN> 39
 -7.519012e+00 1.214559e+00 1.539366e+00 -1.208919e+00 1.583325e+00 -3.400381e+00 1.752094e+00 -2.157554e+00 5.714068e+00 6.611931e-01 2.152551e+00 -8.762550e-01 5.900946e+01 -3.157750e-01 -1.957029e-01 -1.676295e-01 -4.249405e-01 1.585764e-01 3.835120e-02 -4.383959e-02 4.979016e-01 4.015846e-01 2.081628e-02 -3.934756e-02 -7.429069e-02 -8.272738e-02 5.684076e-02 -5.384062e-02 1.366077e-01 -7.574630e-02 5.620275e-02 2.408195e-01 9.155378e-02 3.525345e-02 2.401219e-02 1.442356e-01 1.377595e-01 8.879509e-03 1.121096e-01
<VARIANCE> 39
 4.588027e+00 2.619862e+00 9.306526e+00 1.404516e+01 1.270013e+01 9.569135e+00 5.245114e+00 1.925872e+01 1.298550e+01 1.154039e+01 8.072456e+00 9.339756e+00 3.431427e+00 9.145004e-02 2.052119e-01 6.769540e-01 9.988102e-01 9.336237e-01 1.052551e+00 9.592397e-01 8.523742e-01 1.192963e+00 6.501358e-01 8.548976e-01 5.985324e-01 7.994734e-02 1.097833e-02 1.177678e-02 7.883375e-02 1.140564e-01 5.705070e-02 1.490370e-01 1.157868e-01 1.718730e-01 2.314555e-01 2.297090e-01 2.172535e-01 2.606287e-01 5.955801e-03
<GCONST> 5.770284e+01
<STATE> 11
<MEAN> 39
 -7.769058e+00 4.521670e-01 1.814253e+00 -2.807660e+00 8.499289e-01 -2.298510e+00 2.832574e+00 -1.277802e+00 4.955041e+00 -3.594286e-01 2.642361e+00 -1.382187e+00 5.913408e+01 -1.856474e-01 -1.012772e-01 1.988284e-01 -6.407390e-01 -1.230507e-01 2.607550e-02 -2.848562e-01 5.000175e-01 1.612706e-01 1.620261e-01 5.165171e-01 4.884855e-02 3.904417e-02 6.104742e-02 -7.707853e-04 6.890142e-02 8.620588e-02 6.086670e-02 1.492966e-01 2.341521e-02 -1.285698e-01 2.538430e-03 1.413616e-01 1.657644e-01 1.378273e-01 5.461213e-02
<VARIANCE> 39
 3.338619e+00 3.334988e+00 1.264376e+01 1.624923e+01 1.177593e+01 1.673712e+01 1.752588e+01 8.156116e+00 1.046361e+01 1.240507e+01 1.422279e+01 7.187593e+00 3.468475e+00 1.414332e-01 1.249549e-01 6.634762e-01 9.274501e-01 6.749775e-01 1.443228e+00 6.402123e-01 1.198674e+00 1.350967e+00 9.321239e-01 7.000139e-01 8.643550e-01 9.486361e-02 9.686969e-03 2.926419e-02 1.488496e-01 1.569722e-01 1.533682e-01 2.430441e-01 2.284677e-01 2.452741e-01 3.091337e-01 1.534708e-01 2.287001e-01 2.219789e-01 7.433812e-03
<GCONST> 6.392956e+01
<TRANSP> 12
 0.000000e+00 1.000000e+00 0.000000e+00 0.000000e+00 0.000000e+00 0.000000e+00 0.000000e+00 0.000000e+00 0.000000e+00 0.000000e+00 0.000000e+00 0.000000e+00
 0.000000e+00 9.569083e-01 4.309163e-02 0.000000e+00 0.000000e+00 0.000000e+00 0.000000e+00 0.000000e+00 0.000000e+00 0.000000e+00 0.000000e+00 0.000000e+00
 0.000000e+00 0.000000e+00 6.221156e-01 3.778844e-01 0.000000e+00 0.000000e+00 0.000000e+00 0.000000e+00 0.000000e+00 0.000000e+00 0.000000e+00 0.000000e+00
 0.000000e+00 0.000000e+00 0.000000e+00 1.274885e-05 9.999872e-01 0.000000e+00 0.000000e+00 0.000000e+00 0.000000e+00 0.000000e+00 0.000000e+00 0.000000e+00
 0.000000e+00 0.000000e+00 0.000000e+00 0.000000e+00 8.461364e-01 1.538636e-01 0.000000e+00 0.000000e+00 0.000000e+00 0.000000e+00 0.000000e+00 0.000000e+00
 0.000000e+00 0.000000e+00 0.000000e+00 0.000000e+00 0.000000e+00 3.595530e-01 6.404470e-01 0.000000e+00 0.000000e+00 0.000000e+00 0.000000e+00 0.000000e+00
 0.000000e+00 0.000000e+00 0.000000e+00 0.000000e+00 0.000000e+00 0.000000e+00 5.053310e-01 4.946689e-01 0.000000e+00 0.000000e+00 0.000000e+00 0.000000e+00
 0.000000e+00 0.000000e+00 0.000000e+00 0.000000e+00 0.000000e+00 0.000000e+00 0.000000e+00 1.656151e-06 9.999983e-01 0.000000e+00 0.000000e+00 0.000000e+00
 0.000000e+00 0.000000e+00 0.000000e+00 0.000000e+00 0.000000e+00 0.000000e+00 0.000000e+00 0.000000e+00 5.185162e-16 1.000000e+00 0.000000e+00 0.000000e+00
 0.000000e+00 0.000000e+00 0.000000e+00 0.000000e+00 0.000000e+00 0.000000e+00 0.000000e+00 0.000000e+00 0.000000e+00 1.505033e-28 1.000000e+00 0.000000e+00
 0.000000e+00 0.000000e+00 0.000000e+00 0.000000e+00 0.000000e+00 0.000000e+00 0.000000e+00 0.000000e+00 0.000000e+00 0.000000e+00 1.076955e-18 1.000000e+00
 0.000000e+00 0.000000e+00 0.000000e+00 0.000000e+00 0.000000e+00 0.000000e+00 0.000000e+00 0.000000e+00 0.000000e+00 0.000000e+00 0.000000e+00 0.000000e+00
<ENDHMM>
~h "SIL"
<BEGINHMM>
<NUMSTATES> 12
<STATE> 2
<MEAN> 39
 -7.773899e+00 -2.020776e+00 1.319355e+00 -2.962554e+00 -2.300185e-01 -2.737781e+00 1.544191e+00 -1.197847e+00 6.046522e+00 1.744645e+00 3.626747e+00 3.845336e-01 6.054348e+01 -4.443115e-02 -3.560588e-02 -9.427603e-02 -1.226899e-01 -5.740014e-02 -6.487393e-02 -7.106432e-02 -1.272798e-03 -7.005394e-03 -7.747886e-03 1.793122e-02 4.106802e-02 -6.197810e-03 -9.458588e-03 -2.367114e-02 -1.236577e-02 3.070294e-02 -1.190486e-02 -6.205586e-02 -3.038466e-02 -2.917453e-02 -1.151042e-01 -1.089988e-01 -6.301287e-02 -4.839338e-02 6.583616e-03
<VARIANCE> 39
 8.158001e+00 2.092528e+01 1.471708e+01 1.646979e+01 1.880930e+01 1.586543e+01 1.676140e+01 1.550424e+01 1.705787e+01 1.555128e+01 1.623607e+01 1.227693e+01 9.284180e+00 3.949374e-01 9.147647e-01 9.580929e-01 9.777591e-01 1.168155e+00 1.312517e+00 1.367855e+00 1.462882e+00 1.844698e+00 1.528131e+00 1.598332e+00 1.271667e+00 2.756431e-01 4.587125e-02 1.379344e-01 1.593038e-01 1.608094e-01 1.924585e-01 2.187772e-01 2.275787e-01 2.418512e-01 3.321248e-01 2.555427e-01 2.512349e-01 2.079252e-01 2.970729e-02
<GCONST> 8.343544e+01
<STATE> 3
<MEAN> 39
 -7.810574e+00 -1.968419e+00 6.307769e-01 -2.986851e+00 -4.701874e-01 -4.322637e+00 6.279910e-01 -2.105669e+00 4.251167e+00 6.447992e-01 3.056778e+00 1.003432e-01 6.003917e+01 -1.212456e-01 -1.408597e-01 -4.291052e-02 -3.929874e-02 -1.080591e-01 -1.826518e-01 -2.007301e-01 -3.921358e-02 -2.743559e-01 -2.354874e-01 -1.467630e-01 -1.918021e-01 3.161085e-02 -1.531872e-03 -7.874023e-03 1.772909e-02 5.266763e-03 2.172168e-02 4.345348e-02 7.571239e-03 1.156231e-02 6.003483e-02 6.346481e-02 1.968685e-02 5.785163e-03 3.434139e-02
<VARIANCE> 39
 6.178262e+00 1.185346e+01 9.538803e+00 1.090493e+01 1.387943e+01 1.278053e+01 1.499911e+01 1.455452e+01 1.379408e+01 1.369854e+01 1.271467e+01 9.256020e+00 7.319321e+00 2.072189e-01 4.143206e-01 6.802996e-01 7.347959e-01 9.312735e-01 1.148751e+00 1.226744e+00 1.423592e+00 1.414349e+00 1.304129e+00 1.274223e+00 1.139737e+00 1.184910e-01 3.379454e-02 6.421676e-02 1.074422e-01 1.333968e-01 1.710341e-01 1.939402e-01 2.145143e-01 2.769876e-01 2.820861e-01 2.382380e-01 2.792984e-01 1.937172e-01 1.626576e-02
<GCONST> 7.316570e+01
<STATE> 4
<MEAN> 39
 -7.864444e+00 -2.299881e+00 4.598422e-01 -3.203183e+00 -7.252405e-01 -4.305078e+00 7.658995e-01 -1.852027e+00 4.177032e+00 3.185363e-01 2.928314e+00 -1.388550e-03 6.019965e+01 -1.175781e-01 -1.064758e-01 -1.534339e-02 -2.801680e-02 -4.827821e-02 -5.433006e-02 -1.240942e-01 2.702834e-02 -1.452505e-01 -9.904644e-02 -6.712196e-02 -1.258801e-01 7.403004e-02 7.801773e-03 3.617760e-02 2.538931e-02 2.344871e-03 2.994643e-02 6.899591e-02 4.221857e-02 3.431229e-02 1.102867e-01 1.286010e-01 6.518673e-02 7.409153e-02 2.842530e-02
<VARIANCE> 39
 6.727736e+00 1.132184e+01 8.638622e+00 1.023994e+01 1.514754e+01 1.419900e+01 1.775876e+01 1.395458e+01 1.285954e+01 1.469387e+01 1.431383e+01 1.035102e+01 8.042206e+00 2.269955e-01 3.544781e-01 5.969450e-01 6.802678e-01 7.881129e-01 1.011247e+00 1.224235e+00 1.351669e+00 1.313843e+00 1.381898e+00 1.359798e+00 9.555937e-01 1.284087e-01 3.946265e-02 6.731440e-02 1.178760e-01 1.371956e-01 1.805660e-01 2.183816e-01 2.203602e-01 2.776451e-01 2.953007e-01 2.385694e-01 2.667459e-01 2.278294e-01 1.980059e-02
<GCONST> 7.390446e+01
<STATE> 5
<MEAN> 39
 -7.996423e+00 -2.703126e+00 2.569726e-01 -3.218625e+00 -7.924658e-01 -4.516193e+00 2.559065e-01 -2.340575e+00 4.300580e+00 5.382056e-01 3.001383e+00 -5.965376e-02 6.027874e+01 -8.828426e-02 -6.639525e-03 2.839765e-02 -4.798146e-02 -1.161370e-02 2.376938e-02 -2.764404e-02 1.294611e-01 1.201935e-01 1.858488e-01 9.939311e-02 3.596880e-02 9.482000e-02 1.961707e-02 6.171124e-02 3.082890e-02 -5.114441e-03 9.998558e-03 6.652504e-02 7.552771e-02 6.145655e-02 7.207002e-02 9.921364e-02 5.412590e-02 8.367212e-02 1.872025e-02
<VARIANCE> 39
 7.051592e+00 1.066071e+01 8.599970e+00 9.976055e+00 1.282756e+01 1.256176e+01 1.635535e+01 1.449130e+01 1.348457e+01 1.404009e+01 1.230978e+01 9.675323e+00 8.080437e+00 2.680205e-01 3.425360e-01 6.354619e-01 7.336661e-01 8.563972e-01 9.082709e-01 1.124427e+00 1.321531e+00 1.420573e+00 1.262895e+00 1.387823e+00 9.645416e-01 1.472484e-01 4.421221e-02 7.487936e-02 1.124854e-01 1.433769e-01 1.785335e-01 2.103141e-01 2.252733e-01 2.524139e-01 2.513736e-01 2.566104e-01 2.067544e-01 1.990370e-01 2.257318e-02
<GCONST> 7.335674e+01
<STATE> 6
<MEAN> 39
 -8.945152e+00 -1.477113e+00 8.435240e-01 -2.134861e+00 4.773358e-01 -3.317785e+00 2.077507e+00 -1.776102e+00 4.501071e+00 1.559392e+00 4.248599e+00 2.737942e-01 5.912019e+01 -2.262609e-02 3.189716e-02 1.021276e-03 -2.959690e-02 -6.716557e-03 1.653413e-02 -1.138769e-02 5.012318e-02 4.888482e-02 7.639280e-02 1.915899e-02 4.532043e-02 2.238225e-02 1.139396e-02 -3.890321e-04 -9.342283e-03 -3.332282e-02 -8.517178e-03 -6.323413e-03 4.703004e-03 -1.127211e-02 -3.714178e-02 -4.604358e-02 -2.918798e-02 -9.670626e-03 6.332030e-03
<VARIANCE> 39
 4.676523e+00 7.758427e+00 6.235523e+00 8.405476e+00 1.278962e+01 1.298313e+01 1.654891e+01 1.256707e+01 1.253781e+01 1.521640e+01 1.553766e+01 1.012929e+01 6.205139e+00 1.841460e-01 2.569668e-01 4.715936e-01 6.134810e-01 8.493189e-01 9.913914e-01 1.037601e+00 1.142205e+00 1.214022e+00 1.335869e+00 1.289444e+00 9.940978e-01 9.092224e-02 2.481634e-02 4.923239e-02 8.618469e-02 1.218792e-01 1.768720e-01 2.006108e-01 2.146992e-01 2.259216e-01 2.487462e-01 2.857569e-01 2.756690e-01 2.034808e-01 1.197125e-02
<GCONST> 6.827529e+01
<STATE> 7
<MEAN> 39
 -7.752375e+00 -1.606209e+00 -5.331132e-01 -3.759893e+00 -5.961096e-01 -4.580212e+00 1.044551e+00 -1.992235e+00 4.638725e+00 8.714600e-01 3.220254e+00 -1.043367e-01 5.951325e+01 -1.453596e-02 -3.609340e-02 -2.349622e-02 -5.510107e-02 -3.202726e-02 1.500956e-02 3.239132e-03 1.607799e-03 -5.151809e-02 -2.798077e-02 -1.814486e-02 -2.412252e-02 3.269093e-02 -2.897853e-03 -1.473487e-02 6.299660e-03 1.454841e-02 3.435415e-03 4.064763e-03 -3.126787e-03 -8.741882e-03 -1.010658e-02 5.294112e-03 5.187877e-03 4.849370e-03 7.353153e-03
<VARIANCE> 39
 4.425268e+00 6.328396e+00 6.689207e+00 8.866901e+00 1.040972e+01 1.196905e+01 1.480934e+01 1.338448e+01 1.279335e+01 1.339859e+01 1.203210e+01 1.044918e+01 3.949661e+00 1.660226e-01 2.919830e-01 3.885507e-01 6.210965e-01 7.917398e-01 9.313431e-01 1.192474e+00 1.239350e+00 1.263092e+00 1.347537e+00 1.145703e+00 1.054994e+00 8.341783e-02 2.382480e-02 5.418493e-02 7.845099e-02 1.208444e-01 1.502380e-01 1.843442e-01 2.269115e-01 2.553855e-01 2.611947e-01 2.699222e-01 2.338140e-01 2.156700e-01 9.465870e-03
<GCONST> 6.638882e+01
<STATE> 8
<MEAN> 39
 -8.238979e+00 -2.459952e+00 2.906818e-01 -3.595061e+00 -7.872447e-01 -3.844769e+00 7.356676e-01 -1.929201e+00 4.050608e+00 1.034442e+00 3.248967e+00 1.165762e-01 6.060501e+01 -4.893745e-02 -9.676073e-02 4.949840e-02 2.069995e-04 -2.387347e-02 4.111798e-02 -2.751268e-02 4.429227e-02 -1.480152e-01 2.038524e-03 -3.011741e-02 7.410337e-02 1.679086e-01 2.363123e-02 2.708304e-02 1.282632e-01 7.198092e-02 2.500595e-02 -1.447054e-02 -3.536963e-02 6.147842e-02 5.146234e-02 -2.658889e-02 -5.220007e-02 -4.124211e-02 5.508524e-02
<VARIANCE> 39
 1.133105e+01 1.519865e+01 1.145607e+01 1.141946e+01 1.485805e+01 1.425342e+01 1.898767e+01 1.594326e+01 1.303915e+01 1.444328e+01 1.565439e+01 1.228059e+01 1.149702e+01 4.730435e-01 5.264385e-01 5.525797e-01 8.454974e-01 1.189661e+00 1.064119e+00 1.188419e+00 1.235118e+00 1.374580e+00 1.243876e+00 1.163010e+00 1.040250e+00 2.887173e-01 7.008846e-02 1.412785e-01 1.582687e-01 1.753029e-01 1.988501e-01 2.469851e-01 2.439742e-01 2.870066e-01 2.629190e-01 2.897499e-01 2.893298e-01 2.442494e-01 3.413625e-02
<GCONST> 8.118606e+01
<STATE> 9
<MEAN> 39
 -8.355261e+00 -2.826581e+00 1.877775e-01 -3.826957e+00 -1.149771e+00 -4.164636e+00 3.912624e-01 -1.529453e+00 3.904309e+00 5.204329e-01 2.954862e+00 3.109932e-02 6.091790e+01 -5.513066e-02 -3.943163e-02 2.636974e-01 1.123590e-01 6.473020e-02 5.071357e-02 -4.397196e-02 1.822594e-01 -3.513855e-02 -8.768737e-03 -6.684560e-02 -8.369833e-04 2.408364e-01 5.983490e-02 3.470916e-02 1.990675e-01 3.192940e-02 -4.496263e-02 -1.610196e-02 -6.445095e-02 -3.702473e-03 5.269229e-02 6.380308e-03 -5.100595e-02 -6.850760e-02 1.116854e-01
<VARIANCE> 39
 1.341284e+01 1.615818e+01 1.256430e+01 1.241456e+01 1.726413e+01 1.377456e+01 2.149268e+01 1.614885e+01 1.456262e+01 1.475467e+01 1.452365e+01 1.202174e+01 1.328207e+01 5.335180e-01 8.352926e-01 7.782725e-01 9.280249e-01 1.194759e+00 1.250238e+00 1.251137e+00 1.367637e+00 1.383034e+00 1.166550e+00 1.277053e+00 1.162859e+00 3.084432e-01 1.359428e-01 2.062649e-01 2.304631e-01 1.916860e-01 2.706011e-01 2.411438e-01 2.823305e-01 2.992050e-01 3.082821e-01 3.358659e-01 3.057237e-01 2.448357e-01 7.558434e-02
<GCONST> 8.671091e+01
<STATE> 10
<MEAN> 39
 -8.250055e+00 -3.727092e+00 2.045868e+00 -2.970039e+00 -1.267610e+00 -3.786465e+00 -9.470364e-02 -1.650071e+00 4.050920e+00 9.586873e-01 2.428660e+00 1.478195e-03 6.256206e+01 2.061048e-01 3.885114e-02 7.213777e-01 -4.564953e-02 -2.544209e-01 -7.175463e-02 -2.856626e-01 -4.625537e-02 -1.872123e-01 -1.438448e-01 -3.694330e-01 -2.812929e-01 6.820672e-01 9.603950e-02 1.073884e-02 8.701220e-02 -1.517927e-01 -1.837508e-01 -5.122116e-04 -1.203267e-01 -5.181978e-02 -2.658751e-02 -6.681159e-02 -1.050021e-02 -3.560367e-02 1.493397e-01
<VARIANCE> 39
 2.199820e+01 3.587350e+01 2.130419e+01 1.559536e+01 2.423614e+01 1.999382e+01 2.267930e+01 2.117104e+01 1.742354e+01 1.617552e+01 2.086220e+01 1.736796e+01 1.898783e+01 2.273627e+00 2.749621e+00 2.327566e+00 1.475313e+00 2.475267e+00 1.845922e+00 1.952550e+00 2.206150e+00 1.745744e+00 2.062456e+00 1.901909e+00 1.643708e+00 1.053576e+00 2.353371e-01 4.294586e-01 4.097028e-01 2.804041e-01 5.600213e-01 3.737745e-01 3.903897e-01 4.083071e-01 3.314669e-01 3.667431e-01 3.400066e-01 2.724522e-01 2.006099e-01
<GCONST> 1.055596e+02
<STATE> 11
<MEAN> 39
 -6.943487e+00 -2.808916e+00 3.532463e+00 -3.761841e+00 -2.332854e+00 -3.778616e+00 -8.171707e-01 -1.564524e+00 4.012882e+00 5.668421e-01 1.459994e+00 -9.888639e-01 6.468796e+01 1.820771e-01 -3.160426e-02 1.367729e-01 -2.442087e-01 -2.494002e-01 3.907669e-02 -1.599681e-01 -6.906848e-02 -4.090962e-02 -8.115092e-02 -3.913528e-02 -8.616495e-02 2.932777e-01 4.314682e-02 -3.781927e-02 -1.589748e-02 -7.473148e-02 -4.681563e-02 2.442199e-02 -2.642825e-02 9.742603e-04 2.042699e-02 -1.872817e-02 4.678809e-02 2.193508e-02 1.000381e-02
<VARIANCE> 39
 4.853029e+01 3.331236e+01 3.542553e+01 2.533838e+01 3.948761e+01 1.996677e+01 3.019135e+01 2.871961e+01 2.006578e+01 1.944616e+01 2.223671e+01 2.018050e+01 2.764520e+01 1.264298e+00 1.503377e+00 1.904091e+00 1.634667e+00 2.516865e+00 1.664857e+00 2.007988e+00 1.840903e+00 1.682178e+00 1.846244e+00 1.677456e+00 1.277197e+00 1.075209e+00 1.406695e-01 1.816444e-01 1.959224e-01 2.312474e-01 2.965405e-01 2.752980e-01 3.285965e-01 2.951485e-01 2.754391e-01 2.948957e-01 2.732086e-01 2.289509e-01 8.741701e-02
<GCONST> 1.018590e+02
<TRANSP> 12
 0.000000e+00 1.000000e+00 0.000000e+00 0.000000e+00 0.000000e+00 0.000000e+00 0.000000e+00 0.000000e+00 0.000000e+00 0.000000e+00 0.000000e+00 0.000000e+00
 0.000000e+00 6.154419e-01 3.845581e-01 0.000000e+00 0.000000e+00 0.000000e+00 0.000000e+00 0.000000e+00 0.000000e+00 0.000000e+00 0.000000e+00 0.000000e+00
 0.000000e+00 0.000000e+00 2.375679e-02 9.762432e-01 0.000000e+00 0.000000e+00 0.000000e+00 0.000000e+00 0.000000e+00 0.000000e+00 0.000000e+00 0.000000e+00
 0.000000e+00 0.000000e+00 0.000000e+00 7.613117e-03 9.923869e-01 0.000000e+00 0.000000e+00 0.000000e+00 0.000000e+00 0.000000e+00 0.000000e+00 0.000000e+00
 0.000000e+00 0.000000e+00 0.000000e+00 0.000000e+00 5.514274e-02 9.448572e-01 0.000000e+00 0.000000e+00 0.000000e+00 0.000000e+00 0.000000e+00 0.000000e+00
 0.000000e+00 0.000000e+00 0.000000e+00 0.000000e+00 0.000000e+00 6.957348e-01 3.042652e-01 0.000000e+00 0.000000e+00 0.000000e+00 0.000000e+00 0.000000e+00
 0.000000e+00 0.000000e+00 0.000000e+00 0.000000e+00 0.000000e+00 0.000000e+00 8.529391e-01 1.470609e-01 0.000000e+00 0.000000e+00 0.000000e+00 0.000000e+00
 0.000000e+00 0.000000e+00 0.000000e+00 0.000000e+00 0.000000e+00 0.000000e+00 0.000000e+00 8.550327e-02 9.144967e-01 0.000000e+00 0.000000e+00 0.000000e+00
 0.000000e+00 0.000000e+00 0.000000e+00 0.000000e+00 0.000000e+00 0.000000e+00 0.000000e+00 0.000000e+00 1.732173e-02 9.826782e-01 0.000000e+00 0.000000e+00
 0.000000e+00 0.000000e+00 0.000000e+00 0.000000e+00 0.000000e+00 0.000000e+00 0.000000e+00 0.000000e+00 0.000000e+00 5.791008e-01 4.208991e-01 0.000000e+00
 0.000000e+00 0.000000e+00 0.000000e+00 0.000000e+00 0.000000e+00 0.000000e+00 0.000000e+00 0.000000e+00 0.000000e+00 0.000000e+00 7.799839e-01 2.200161e-01
 0.000000e+00 0.000000e+00 0.000000e+00 0.000000e+00 0.000000e+00 0.000000e+00 0.000000e+00 0.000000e+00 0.000000e+00 0.000000e+00 0.000000e+00 0.000000e+00
<ENDHMM>
~h "SIX"
<BEGINHMM>
<NUMSTATES> 12
<STATE> 2
<MEAN> 39
 -9.226562e+00 -4.931991e+00 1.095096e+01 -7.190084e+00 -4.220005e+00 -9.098593e+00 -1.054667e+01 1.363391e+00 4.742101e+00 -2.927141e-01 3.135314e-01 -1.323543e-01 7.086081e+01 1.160029e+00 -2.176995e-01 6.803196e-01 5.006687e-01 -8.289500e-01 -2.657053e-01 -2.687306e-01 -3.161174e-01 1.204520e-03 -3.920695e-01 1.779968e-01 -7.753369e-02 2.505959e-01 -5.089402e-02 7.800794e-02 -2.802204e-02 6.309177e-02 6.253222e-02 5.370553e-02 1.545981e-01 -5.451000e-02 -3.824989e-02 8.271353e-02 7.567346e-03 -7.851901e-03 -1.338928e-01
<VARIANCE> 39
 1.285673e+02 2.509628e+01 2.850769e+01 1.758922e+01 4.781787e+01 1.783031e+01 5.494752e+01 1.949164e+01 2.454926e+01 2.098309e+01 1.431354e+01 2.021922e+01 1.818581e+01 5.783192e+00 2.087985e+00 1.102305e+00 1.198999e+00 2.115549e+00 1.341675e+00 5.672232e+00 2.397228e+00 3.160164e+00 1.478826e+00 1.601689e+00 2.561117e+00 1.759449e+00 8.691959e-01 3.243119e-01 2.345978e-01 2.499800e-01 4.090996e-01 2.557404e-01 8.799798e-01 5.310162e-01 5.954809e-01 3.197481e-01 3.332239e-01 5.497242e-01 2.928193e-01
<GCONST> 1.127482e+02
<STATE> 3
<MEAN> 39
 -1.264322e+01 -2.975678e+00 8.537155e+00 -6.132490e+00 -1.582722e+00 -7.157965e+00 -5.802238e+00 2.605162e+00 2.682942e+00 1.983500e-01 3.248503e+00 1.204595e+00 6.612893e+01 -4.456302e-01 9.761119e-02 -4.444016e-01 -1.763816e-01 4.399785e-01 2.213784e-01 1.702829e-01 9.608197e-02 5.087376e-02 1.494557e-01 -2.701294e-02 -1.617074e-02 -2.713219e-01 6.353949e-02 -3.730954e-02 -2.934908e-03 -8.056059e-03 -1.920457e-02 -4.762145e-02 -6.091432e-02 1.188672e-02 3.456384e-03 -3.003639e-02 -1.463071e-02 -1.420346e-02 4.865910e-02
<VARIANCE> 39
 5.740878e+01 2.337973e+01 2.195030e+01 2.808799e+01 3.067404e+01 2.668742e+01 1.975673e+01 4.186354e+01 2.736621e+01 2.075956e+01 1.511337e+01 1.641781e+01 1.427003e+01 2.232465e+00 3.025195e+00 2.567934e+00 1.369807e+00 1.659362e+00 2.214461e+00 2.125760e+00 3.046486e+00 3.044438e+00 2.164531e+00 1.783651e+00 1.740967e+00 1.697125e+00 2.608623e-01 5.871863e-01 4.411341e-01 2.210396e-01 2.841104e-01 4.330436e-01 4.101882e-01 5.015327e-01 6.678146e-01 4.057341e-01 3.705534e-01 3.675267e-01 2.417315e-01
<GCONST> 1.105283e+02
<STATE> 4
<MEAN> 39
 -1.203378e+01 -1.860768e+00 4.450447e+00 -5.228455e+00 1.018041e+00 -5.412996e+00 -3.183205e+00 5.258605e-01 3.284491e+00 2.017403e-01 1.950356e+00 -5.916226e-01 6.309095e+01 6.108313e-01 6.931299e-02 -3.696493e-01 5.108718e-01 -7.478178e-03 -5.896177e-01 7.325661e-01 -1.434756e-01 -6.155382e-01 1.385082e-01 -1.412567e-01 -6.461352e-01 -2.314652e-01 -2.895051e-02 -2.556103e-01 2.142294e-01 -2.870793e-01 -4.794748e-02 1.836552e-01 -3.304406e-01 2.271732e-01 2.911528e-01 -1.386782e-01 1.201769e-01 -4.837984e-02 1.154631e-02
<VARIANCE> 39
 2.733983e+01 1.162819e+01 1.131165e+01 1.145370e+01 2.002052e+01 1.975149e+01 1.540744e+01 1.485710e+01 2.457391e+01 1.499084e+01 1.866008e+01 1.456672e+01 1.485492e+01 4.777647e-01 8.374968e-01 1.368028e+00 5.382259e-01 6.313996e-01 2.056393e+00 3.047883e+00 1.194279e+00 2.545489e+00 1.241829e+00 1.062699e+00 1.546137e+00 1.795851e-01 6.532045e-02 1.196894e-01 1.568853e-01 8.757648e-02 2.064877e-01 2.686502e-01 5.409279e-01 2.998008e-01 4.815491e-01 2.885126e-01 3.561840e-01 3.453623e-01 7.158125e-02
<GCONST> 8.763454e+01
<STATE> 5
<MEAN> 39
 -1.124533e+01 -1.779521e+00 4.642069e+00 -5.983190e+00 4.779816e-02 -5.756057e+00 -2.914260e+00 9.989890e-01 2.826344e+00 -4.914665e-02 2.215488e+00 -1.369009e+00 6.303603e+01 6.084864e-01 -1.926869e-01 -1.615520e-01 5.828309e-02 -5.365804e-03 -3.469573e-01 -8.221142e-02 -2.040945e-01 -5.810559e-03 9.011024e-02 2.643305e-02 -6.664789e-01 -3.233759e-01 -3.846961e-02 -1.759536e-01 1.452077e-01 -2.056986e-01 -6.534991e-02 3.106057e-01 -2.630894e-01 6.417961e-02 3.355173e-01 -1.627976e-01 7.867837e-02 1.266223e-01 -6.731403e-02
<VARIANCE> 39
 1.947995e+01 7.941933e+00 1.624176e+01 1.853289e+01 2.163025e+01 1.718240e+01 2.182275e+01 1.745838e+01 2.880839e+01 9.156868e+00 1.496111e+01 1.454161e+01 1.621598e+01 5.761037e-01 9.754318e-01 9.701235e-01 5.538577e-01 8.304139e-01 1.112030e+00 2.114405e+00 1.160809e+00 1.819980e+00 1.671099e+00 1.565783e+00 2.120183e+00 1.868272e-01 4.247092e-02 1.108010e-01 2.021624e-01 1.301521e-01 1.571724e-01 2.926928e-01 5.586033e-01 4.083700e-01 5.661672e-01 1.636695e-01 2.416119e-01 2.548856e-01 6.868845e-02
<GCONST> 8.688766e+01
<STATE> 6
<MEAN> 39
 -1.103822e+01 -2.350875e+00 4.248909e+00 -5.866565e+00 5.020475e-01 -6.036833e+00 -3.091969e+00 7.814708e-01 4.510133e+00 1.817208e+00 3.364478e+00 -1.399785e+00 6.250661e+01 5.260193e-01 -1.846821e-01 2.787197e-02 -8.347631e-04 -1.268857e-01 1.483203e-01 -2.377047e-01 -4.424901e-01 1.484053e-01 -2.165452e-01 -4.112501e-02 -2.794993e-01 -4.673945e-01 -2.515042e-02 -4.647778e-02 3.483891e-02 -4.994448e-02 -1.041681e-01 2.367790e-01 -1.134414e-01 -5.778623e-02 2.046025e-01 -1.650960e-01 -2.108894e-02 2.388330e-01 -7.155304e-02
<VARIANCE> 39
 1.802489e+01 5.073784e+00 2.116887e+01 2.075888e+01 1.803317e+01 1.657822e+01 2.160226e+01 9.831116e+00 2.810545e+01 1.387561e+01 6.656265e+00 1.025777e+01 1.383317e+01 6.321821e-01 9.811368e-01 6.336021e-01 4.221665e-01 9.741589e-01 1.766607e+00 1.167493e+00 2.067686e+00 1.541274e+00 1.623153e+00 1.777832e+00 1.943994e+00 2.735429e-01 2.877098e-02 9.074254e-02 2.444739e-01 1.837039e-01 1.023558e-01 3.111476e-01 4.567920e-01 2.606302e-01 4.912366e-01 2.157524e-01 2.120344e-01 2.644857e-01 4.578087e-02
<GCONST> 8.380716e+01
<STATE> 7
<MEAN> 39
 -1.023807e+01 -2.503489e+00 4.578966e+00 -5.963057e+00 1.027259e+00 -5.376360e+00 -4.706450e+00 -8.686447e-01 4.013922e+00 1.195896e+00 2.858353e+00 -1.978979e+00 6.192188e+01 5.140845e-01 -2.376354e-01 -7.503116e-02 7.614076e-02 -2.272888e-01 4.535235e-01 7.153553e-02 -3.835143e-01 1.186556e-01 -4.664605e-01 -1.478519e-01 -7.800531e-02 -5.289401e-01 -1.511413e-02 3.883746e-02 -1.159484e-01 1.063950e-01 -1.158815e-01 5.290568e-02 1.090015e-01 -9.424984e-04 1.359516e-01 1.935402e-02 2.184970e-02 2.761427e-01 -1.549801e-02
<VARIANCE> 39
 1.122174e+01 7.351170e+00 2.054323e+01 1.766478e+01 2.016804e+01 8.619114e+00 1.630712e+01 1.578714e+01 1.232819e+01 1.303969e+01 1.111081e+01 1.524942e+01 1.040646e+01 5.981964e-01 9.858962e-01 7.839680e-01 9.364416e-01 8.003091e-01 1.270505e+00 1.498450e+00 1.630095e+00 2.349531e+00 1.354773e+00 1.086432e+00 1.321150e+00 3.021689e-01 2.935520e-02 1.219524e-01 2.137948e-01 1.713637e-01 1.599129e-01 1.827690e-01 2.813047e-01 3.229345e-01 3.423144e-01 3.056109e-01 3.071932e-01 3.553958e-01 2.679845e-02
<GCONST> 8.268074e+01
<STATE> 8
<MEAN> 39
 -9.907175e+00 -2.422443e+00 4.621139e+00 -5.242727e+00 -1.052216e-01 -4.861224e+00 -3.476119e+00 -7.527394e-01 3.432758e+00 -1.503492e+00 1.423536e+00 -1.684054e+00 6.131110e+01 5.322953e-01 -1.405736e-01 -2.388475e-01 2.523334e-01 -4.173732e-01 1.940566e-01 8.837566e-02 -3.429855e-01 3.453110e-01 -4.085211e-01 -1.596207e-01 2.537577e-01 -4.864652e-01 3.371388e-04 9.252530e-02 -2.074768e-01 1.688883e-01 -4.296379e-02 -1.191630e-01 1.491696e-01 2.930447e-02 1.785557e-01 3.000120e-01 1.754305e-01 2.382958e-01 4.045735e-02
<VARIANCE> 39
 7.923601e+00 4.817505e+00 2.051387e+01 1.603754e+01 1.538698e+01 1.596169e+01 1.253709e+01 2.425461e+01 1.855102e+01 1.716166e+01 1.236171e+01 1.243351e+01 7.640851e+00 5.699100e-01 7.667593e-01 1.076255e+00 1.465797e+00 5.740960e-01 1.284701e+00 1.885187e+00 1.098653e+00 1.665799e+00 1.964610e+00 8.249769e-01 6.688032e-01 2.667806e-01 3.926797e-02 9.593831e-02 1.970861e-01 1.486314e-01 1.731413e-01 2.538213e-01 2.092149e-01 3.935608e-01 4.188820e-01 2.214975e-01 3.419892e-01 3.616249e-01 1.874753e-02
<GCONST> 8.131158e+01
<STATE> 9
<MEAN> 39
 -9.238142e+00 -2.941218e+00 4.074345e+00 -5.909912e+00 -7.797170e-01 -4.080441e+00 -2.386548e+00 -1.637874e-01 3.967152e+00 -7.154496e-01 2.443266e+00 -1.611252e+00 6.099017e+01 5.302839e-01 -1.754689e-02 -6.119550e-01 4.673067e-01 -4.383529e-01 -1.035439e-01 3.033602e-01 -2.624026e-01 5.745737e-01 2.862750e-01 1.922274e-01 4.464748e-01 -3.926131e-01 -1.223513e-02 1.660112e-01 -1.237063e-01 2.484606e-01 6.152805e-02 -1.308885e-01 1.806727e-01 5.885278e-02 1.463102e-01 3.317503e-01 1.544201e-01 1.222537e-01 6.316853e-02
<VARIANCE> 39
 5.602242e+00 5.785481e+00 1.301210e+01 1.658664e+01 1.244109e+01 1.061036e+01 1.974114e+01 1.532133e+01 1.247105e+01 1.232920e+01 8.353184e+00 4.378437e+00 5.895722e+00 4.162102e-01 9.035845e-01 1.159547e+00 8.355150e-01 9.799791e-01 1.127990e+00 1.215186e+00 1.377833e+00 2.177164e+00 1.870831e+00 1.029468e+00 1.259112e+00 2.197782e-01 4.884025e-02 7.786925e-02 1.509494e-01 2.445893e-01 1.122020e-01 1.880886e-01 4.567443e-01 2.712369e-01 4.125209e-01 2.066852e-01 2.187625e-01 2.240702e-01 1.668924e-02
<GCONST> 7.690044e+01
<STATE> 10
<MEAN> 39
 -7.818722e+00 -1.828795e+00 1.925086e+00 -2.701187e+00 -1.463937e+00 -6.150824e+00 -1.314190e+00 -2.472276e+00 6.197088e+00 1.887828e+00 2.710254e+00 2.270064e-01 5.966576e+01 5.973281e-02 7.967478e-02 -1.629060e-01 1.217889e-01 5.281712e-02 -2.264329e-02 9.313774e-02 -2.051238e-02 1.724907e-01 1.194970e-01 1.602776e-01 1.409830e-01 -1.041798e-01 -2.419570e-02 5.460382e-03 2.079084e-02 -8.513425e-03 3.042312e-02 2.797616e-02 2.309405e-02 2.468682e-02 4.833811e-03 -2.343973e-02 2.470149e-03 -5.702742e-03 1.644732e-02
<VARIANCE> 39
 1.274393e+00 3.976299e+00 5.065165e+00 7.472496e+00 8.462904e+00 1.021034e+01 1.462048e+01 1.087124e+01 1.239471e+01 1.718295e+01 1.409016e+01 9.420429e+00 1.386938e+00 1.406730e-01 2.801853e-01 5.963318e-01 6.764093e-01 8.940645e-01 1.125020e+00 1.277429e+00 1.128570e+00 1.699090e+00 1.345649e+00 1.183063e+00 8.353555e-01 5.947302e-02 2.351246e-02 6.717268e-02 1.209931e-01 1.468740e-01 1.725592e-01 2.391341e-01 2.825746e-01 2.372716e-01 3.297972e-01 2.837398e-01 2.333927e-01 1.505009e-01 7.139449e-03
<GCONST> 6.423001e+01
<STATE> 11
<MEAN> 39
 -8.291895e+00 -2.129973e+00 1.811813e+00 -3.416371e+00 -2.795593e-01 -5.849020e+00 -2.571286e+00 -1.175069e+00 6.965086e+00 1.045643e+00 4.223803e+00 8.644285e-01 5.973241e+01 3.003438e-01 3.337806e-01 -3.484730e-01 6.859375e-01 1.950212e-01 3.188932e-01 7.918321e-01 -2.707679e-02 6.115761e-01 1.877521e-01 1.677549e-01 3.674148e-01 -2.112339e-01 -3.018742e-02 1.749226e-01 9.369796e-02 9.247583e-03 1.053986e-01 4.113215e-02 8.913925e-02 -8.309092e-02 -3.422922e-01 -3.602190e-02 -3.432796e-01 -1.980705e-01 4.507964e-02
<VARIANCE> 39
 2.016763e+00 7.960239e+00 8.687759e+00 1.255015e+01 8.197512e+00 9.153450e+00 2.216911e+01 1.582568e+01 7.164337e+00 1.944695e+01 1.017171e+01 7.516724e+00 3.194328e+00 4.823933e-01 3.455882e-01 8.228394e-01 1.862682e+00 1.067768e+00 1.385695e+00 2.627452e+00 1.085667e+00 2.017889e+00 1.246277e+00 1.619438e+00 1.062431e+00 1.927213e-01 2.747383e-02 1.734161e-01 1.719960e-01 1.763441e-01 2.444718e-01 1.693859e-01 2.573068e-01 2.692627e-01 3.821645e-01 3.010648e-01 3.712103e-01 1.971180e-01 6.799689e-03
<GCONST> 7.518774e+01
<TRANSP> 12
 0.000000e+00 1.000000e+00 0.000000e+00 0.000000e+00 0.000000e+00 0.000000e+00 0.000000e+00 0.000000e+00 0.000000e+00 0.000000e+00 0.000000e+00 0.000000e+00
 0.000000e+00 9.415169e-01 5.848302e-02 0.000000e+00 0.000000e+00 0.000000e+00 0.000000e+00 0.000000e+00 0.000000e+00 0.000000e+00 0.000000e+00 0.000000e+00
 0.000000e+00 0.000000e+00 9.657086e-01 3.429137e-02 0.000000e+00 0.000000e+00 0.000000e+00 0.000000e+00 0.000000e+00 0.000000e+00 0.000000e+00 0.000000e+00
 0.000000e+00 0.000000e+00 0.000000e+00 5.411166e-16 1.000000e+00 0.000000e+00 0.000000e+00 0.000000e+00 0.000000e+00 0.000000e+00 0.000000e+00 0.000000e+00
 0.000000e+00 0.000000e+00 0.000000e+00 0.000000e+00 1.886216e-06 9.999981e-01 0.000000e+00 0.000000e+00 0.000000e+00 0.000000e+00 0.000000e+00 0.000000e+00
 0.000000e+00 0.000000e+00 0.000000e+00 0.000000e+00 0.000000e+00 3.533124e-11 1.000000e+00 0.000000e+00 0.000000e+00 0.000000e+00 0.000000e+00 0.000000e+00
 0.000000e+00 0.000000e+00 0.000000e+00 0.000000e+00 0.000000e+00 0.000000e+00 1.603502e-09 1.000000e+00 0.000000e+00 0.000000e+00 0.000000e+00 0.000000e+00
 0.000000e+00 0.000000e+00 0.000000e+00 0.000000e+00 0.000000e+00 0.000000e+00 0.000000e+00 1.093879e-04 9.998906e-01 0.000000e+00 0.000000e+00 0.000000e+00
 0.000000e+00 0.000000e+00 0.000000e+00 0.000000e+00 0.000000e+00 0.000000e+00 0.000000e+00 0.000000e+00 3.976517e-03 9.960235e-01 0.000000e+00 0.000000e+00
 0.000000e+00 0.000000e+00 0.000000e+00 0.000000e+00 0.000000e+00 0.000000e+00 0.000000e+00 0.000000e+00 0.000000e+00 8.883688e-01 1.116312e-01 0.000000e+00
 0.000000e+00 0.000000e+00 0.000000e+00 0.000000e+00 0.000000e+00 0.000000e+00 0.000000e+00 0.000000e+00 0.000000e+00 0.000000e+00 2.002833e-04 9.997997e-01
 0.000000e+00 0.000000e+00 0.000000e+00 0.000000e+00 0.000000e+00 0.000000e+00 0.000000e+00 0.000000e+00 0.000000e+00 0.000000e+00 0.000000e+00 0.000000e+00
<ENDHMM>
~h "TWO"
<BEGINHMM>
<NUMSTATES> 12
<STATE> 2
<MEAN> 39
 -2.184449e+00 -9.648407e+00 1.393176e+01 -1.756532e+00 -9.786882e+00 -1.062964e+00 -1.250814e+01 -8.933192e+00 4.921103e+00 -4.484414e+00 3.094736e+00 -1.855455e+00 7.100862e+01 1.154945e+00 4.361234e-01 4.698306e-01 -1.095819e-01 -4.101805e-01 -1.180829e-01 -1.103781e+00 -8.944187e-01 -6.070532e-01 -2.464005e-01 5.728908e-01 -6.609327e-02 7.606676e-01 -4.787257e-02 2.850096e-01 -2.355649e-01 5.410791e-02 2.106537e-01 -1.078023e-01 3.048848e-01 5.792478e-02 -1.818955e-01 2.410994e-02 2.990234e-02 4.358955e-02 -2.704388e-01
<VARIANCE> 39
 4.651864e+01 3.828546e+01 3.349384e+01 3.009056e+01 3.727695e+01 4.800303e+01 6.191984e+01 5.256738e+01 2.862341e+01 2.648826e+01 3.093507e+01 1.970569e+01 2.094715e+01 2.880430e+00 3.706828e+00 2.828994e+00 2.349083e+00 3.313646e+00 3.019990e+00 5.838493e+00 3.093520e+00 3.080589e+00 2.260035e+00 3.427820e+00 2.733595e+00 2.341340e+00 5.457420e-01 9.886946e-01 3.807446e-01 4.177189e-01 5.943267e-01 5.140084e-01 7.982254e-01 6.573629e-01 4.876541e-01 3.995734e-01 6.701546e-01 6.130430e-01 3.047613e-01
<GCONST> 1.242294e+02
<STATE> 3
<MEAN> 39
 4.164591e+00 3.967625e-01 9.078794e+00 -6.446723e+00 -8.999212e+00 8.307602e-01 -8.480053e+00 -1.466634e+01 -4.782340e+00 -8.028430e+00 6.388216e+00 4.956057e-01 6.982632e+01 -7.384612e-02 8.805929e-01 -5.660542e-01 -1.625004e-01 4.099370e-01 -1.880263e-01 9.533111e-01 4.019327e-01 -2.955290e-01 -1.869490e-01 -3.802493e-01 7.262006e-02 -5.603293e-01 -5.955207e-02 -4.717783e-02 1.295430e-02 8.303486e-02 3.501638e-02 -5.055051e-02 8.481868e-03 9.589687e-02 1.623601e-01 1.133441e-01 -4.383276e-02 -5.057518e-02 -1.966976e-02
<VARIANCE> 39
 3.823322e+00 2.528621e+01 1.655948e+01 2.355269e+01 2.215840e+01 1.641454e+01 3.445796e+01 2.677224e+01 1.539321e+01 3.553574e+01 1.406306e+01 1.311528e+01 8.981473e+00 9.893434e-02 4.162101e-01 6.259820e-01 7.343289e-01 1.007747e+00 7.225644e-01 9.843885e-01 1.458446e+00 1.216058e+00 1.737395e+00 9.260496e-01 1.012080e+00 9.283548e-02 1.447959e-02 5.483640e-02 1.031464e-01 1.334136e-01 1.805059e-01 1.483783e-01 1.810004e-01 1.737676e-01 2.175870e-01 2.077776e-01 1.779732e-01 2.013745e-01 1.502326e-02
<GCONST> 7.391188e+01
<STATE> 4
<MEAN> 39
 2.536602e+00 5.965409e+00 4.571732e+00 -5.759121e+00 -4.945783e+00 -1.752858e+00 -9.957743e-01 -9.923101e+00 -4.261062e+00 -4.704981e+00 4.292492e+00 7.457802e-01 6.537909e+01 -8.678176e-01 4.658978e-01 -8.859031e-02 9.564013e-01 1.001431e+00 -2.426607e-01 1.007456e+00 9.062043e-01 5.885257e-01 1.084064e+00 -5.875492e-02 1.001509e-01 -8.996871e-01 -2.085466e-01 -2.244594e-01 1.905069e-01 2.384264e-01 2.427955e-01 2.482718e-01 -5.223152e-02 -1.015296e-01 2.626735e-02 -1.470682e-01 -3.968903e-02 1.889000e-02 -5.934438e-02
<VARIANCE> 39
 5.800549e+00 6.193775e+00 4.694054e+00 1.757834e+01 2.253189e+01 1.383753e+01 2.399156e+01 1.821711e+01 1.079292e+01 2.713152e+01 9.181400e+00 8.778418e+00 3.934728e+00 1.547705e-01 5.292792e-01 4.807655e-01 1.038040e+00 8.918144e-01 1.082109e+00 1.153518e+00 5.413822e-01 1.085705e+00 2.105608e+00 9.813974e-01 1.067322e+00 1.249795e-01 1.476552e-02 8.319935e-02 7.220845e-02 1.607980e-01 1.542488e-01 2.006665e-01 3.273136e-01 1.799866e-01 2.624630e-01 4.984953e-01 1.840001e-01 1.612821e-01 1.635506e-02
<GCONST> 7.089383e+01
<STATE> 5
<MEAN> 39
 -1.493632e+00 5.943350e+00 5.498089e+00 -1.894360e+00 -8.388038e-01 -1.844177e+00 1.398325e+00 -7.532926e+00 -1.861559e+00 -2.458091e+00 3.793974e+00 4.185462e-01 6.216400e+01 -9.873770e-01 -3.225237e-01 -4.670261e-02 8.728714e-01 1.324990e+00 4.705188e-01 5.828260e-01 4.357518e-01 3.740792e-01 2.717673e-01 -1.452735e-01 2.318858e-01 -6.749564e-01 6.501726e-02 -1.230701e-01 -1.795341e-02 -1.250731e-01 -1.160357e-01 1.011746e-01 -4.362506e-02 4.047595e-02 -2.006252e-02 -1.153430e-01 -2.441772e-02 -7.012540e-02 1.000446e-01
<VARIANCE> 39
 3.926879e+00 4.071114e+00 4.794434e+00 7.728561e+00 1.296029e+01 1.135785e+01 1.954558e+01 1.277453e+01 1.278086e+01 1.566331e+01 1.301894e+01 1.118933e+01 1.889617e+00 1.674122e-01 5.084752e-01 6.988397e-01 1.040949e+00 9.801587e-01 1.130381e+00 2.215093e+00 1.272681e+00 9.925474e-01 1.415565e+00 1.327885e+00 1.214267e+00 1.193222e-01 1.667561e-02 5.473692e-02 1.066105e-01 1.240577e-01 1.351856e-01 2.094187e-01 3.528109e-01 2.308533e-01 2.319549e-01 3.273273e-01 2.705509e-01 3.095695e-01 1.211450e-02
<GCONST> 6.967113e+01
<STATE> 6
<MEAN> 39
 -4.590009e+00 4.483305e+00 4.570301e+00 -2.346015e-01 2.540244e+00 -6.754527e-01 2.049234e+00 -5.532364e+00 1.263647e-01 -2.244811e+00 3.771052e+00 2.038734e+00 6.022124e+01 -6.820552e-01 -4.161705e-01 -1.828497e-01 2.205237e-01 2.051104e-01 -1.417434e-01 4.331811e-02 6.196514e-01 7.153816e-01 4.024165e-01 6.289661e-03 -2.357435e-02 -4.052963e-01 5.474437e-02 -2.466832e-02 -2.270088e-02 -1.284027e-01 -1.811452e-01 -1.192705e-01 -1.176456e-01 -6.595021e-02 -4.448026e-02 -3.600211e-02 3.676172e-02 -6.073079e-02 4.865424e-02
<VARIANCE> 39
 4.145322e+00 5.144104e+00 6.781883e+00 4.993257e+00 1.167833e+01 1.166145e+01 1.237595e+01 1.194048e+01 1.891174e+01 1.555658e+01 9.593414e+00 7.268902e+00 1.751662e+00 1.115062e-01 2.568280e-01 5.408892e-01 5.861338e-01 1.076085e+00 1.363398e+00 1.512171e+00 1.191691e+00 1.475476e+00 1.470916e+00 1.048054e+00 1.205959e+00 5.174809e-02 2.549265e-02 6.128370e-02 9.528147e-02 7.956883e-02 1.873730e-01 2.126554e-01 3.416083e-01 2.193226e-01 3.333181e-01 2.774171e-01 2.435442e-01 2.147632e-01 8.051600e-03
<GCONST> 6.566561e+01
<STATE> 7
<MEAN> 39
 -5.962483e+00 2.587846e+00 4.124089e+00 -2.705020e-01 1.545297e+00 -2.235008e+00 1.472468e+00 -4.306956e+00 1.229024e+00 -4.499981e-01 3.367658e+00 9.690704e-01 5.959690e+01 -5.366598e-01 -4.370503e-01 -3.241676e-01 -1.549438e-02 3.318808e-01 6.707396e-02 2.641186e-01 1.945487e-01 -6.575932e-02 -1.739825e-01 -5.926277e-02 -4.371521e-02 -3.213121e-01 7.453831e-02 7.964171e-02 -6.623894e-02 -2.457152e-02 7.829092e-02 -2.919155e-02 -5.877344e-02 -1.517702e-01 -1.874906e-01 -3.015080e-01 -2.397742e-02 5.854923e-02 4.251981e-02
<VARIANCE> 39
 6.879829e+00 5.965324e+00 9.451218e+00 8.020833e+00 1.024066e+01 5.825975e+00 1.695808e+01 1.903638e+01 1.692652e+01 1.220272e+01 7.087170e+00 1.017635e+01 3.297752e+00 1.088918e-01 3.085567e-01 5.938105e-01 7.294320e-01 1.206161e+00 8.876173e-01 1.678161e+00 1.049281e+00 8.517392e-01 1.227767e+00 7.587193e-01 9.372433e-01 4.657552e-02 1.722485e-02 6.903144e-02 9.657717e-02 5.881198e-02 8.474694e-02 2.742258e-01 3.382529e-01 1.897992e-01 2.582536e-01 3.143975e-01 1.237952e-01 2.005695e-01 6.779044e-03
<GCONST> 6.381546e+01
<STATE> 8
<MEAN> 39
 -6.081290e+00 2.388522e+00 4.126974e+00 2.587505e-01 3.084397e+00 -8.434935e-01 2.515692e+00 -3.941482e+00 9.693923e-01 -1.103133e+00 4.031674e+00 -5.093431e-02 5.964739e+01 -5.208642e-01 -2.259731e-01 -2.373476e-01 2.675403e-01 6.379331e-01 -1.558187e-01 2.041970e-01 1.330526e-01 -2.636881e-01 -5.041800e-01 -1.427254e-01 -2.379653e-01 -3.563698e-01 7.898799e-02 1.126993e-01 -1.657077e-02 -9.307424e-03 -4.863202e-02 -9.672957e-02 -8.603812e-02 -7.850973e-02 -3.416719e-03 -3.643294e-02 2.802704e-02 1.176846e-01 2.092808e-02
<VARIANCE> 39
 7.739767e+00 4.940170e+00 1.146095e+01 1.154031e+01 1.186856e+01 8.497601e+00 9.503231e+00 2.161222e+01 7.230194e+00 1.137548e+01 1.036308e+01 1.375019e+01 2.658129e+00 1.201488e-01 5.772712e-01 3.707691e-01 3.462799e-01 1.377058e+00 6.224258e-01 1.855103e+00 1.064856e+00 1.303727e+00 1.178379e+00 8.536442e-01 6.899062e-01 4.995278e-02 1.053989e-02 2.808021e-02 8.679640e-02 7.387269e-02 9.694291e-02 2.075169e-01 3.028609e-01 2.547933e-01 1.453711e-01 2.988909e-01 1.235202e-01 1.896080e-01 7.216161e-03
<GCONST> 6.173512e+01
<STATE> 9
<MEAN> 39
 -6.608895e+00 2.591103e+00 4.143629e+00 6.153796e-01 2.944219e+00 -1.662877e+00 2.057601e+00 -4.754510e+00 1.005693e+00 -1.844607e+00 3.247993e+00 8.952074e-01 5.925883e+01 -5.011103e-01 -2.072248e-01 -3.252033e-01 7.681303e-02 2.429396e-01 -1.064242e-01 1.761699e-01 2.044653e-01 1.854554e-01 -3.648148e-01 -7.298947e-02 9.513696e-02 -3.565156e-01 6.268071e-02 8.445559e-02 4.368897e-02 -4.089931e-02 -9.839457e-02 8.447235e-02 -5.345611e-03 3.904010e-02 1.325783e-01 1.568291e-01 4.909292e-02 4.186005e-02 2.937392e-02
<VARIANCE> 39
 6.288056e+00 5.071060e+00 9.598606e+00 9.866220e+00 1.492136e+01 1.226786e+01 1.164837e+01 1.739415e+01 1.630440e+01 7.915752e+00 9.003143e+00 1.305397e+01 2.336590e+00 8.710688e-02 4.490623e-01 2.380793e-01 4.606964e-01 1.015783e+00 9.589559e-01 1.219763e+00 8.935553e-01 1.423108e+00 1.262965e+00 5.405802e-01 9.312309e-01 3.573612e-02 1.861515e-02 3.971623e-02 4.355136e-02 6.641440e-02 2.122635e-01 1.484822e-01 2.468571e-01 2.498098e-01 2.249326e-01 2.103685e-01 2.012694e-01 1.640811e-01 4.891730e-03
<GCONST> 6.078350e+01
<STATE> 10
<MEAN> 39
 -7.257374e+00 2.351727e+00 3.197970e+00 6.719303e-01 3.562357e+00 -2.539669e+00 2.300264e+00 -3.835638e+00 1.325509e+00 -1.982374e+00 3.739644e+00 6.651583e-01 5.870012e+01 -3.883807e-01 -1.048398e-02 -1.400867e-01 1.436180e-01 1.278114e-01 -2.099203e-02 6.881838e-02 2.188460e-01 3.195300e-01 2.496537e-01 1.230668e-01 1.975175e-01 -3.062985e-01 6.227494e-02 5.271481e-02 1.221920e-01 -3.917326e-02 -1.066814e-01 1.734386e-01 1.058914e-02 7.002040e-02 1.205694e-01 1.711087e-01 6.330702e-02 -1.175121e-02 4.667385e-02
<VARIANCE> 39
 6.342494e+00 7.519928e+00 9.696114e+00 8.848072e+00 9.972540e+00 1.340325e+01 1.049434e+01 9.205509e+00 1.276603e+01 8.564147e+00 9.351593e+00 1.151309e+01 2.025932e+00 7.948604e-02 1.427387e-01 2.926453e-01 5.139894e-01 8.597379e-01 6.870304e-01 7.331548e-01 1.293041e+00 8.607712e-01 1.392420e+00 9.135526e-01 1.006348e+00 3.782241e-02 1.632909e-02 6.328556e-02 3.226557e-02 5.155981e-02 2.055558e-01 1.696670e-01 2.654210e-01 2.205703e-01 3.147384e-01 1.942881e-01 2.051958e-01 1.625672e-01 3.843963e-03
<GCONST> 5.818463e+01
<STATE> 11
<MEAN> 39
 -7.639907e+00 1.967316e+00 3.350827e+00 4.767900e-01 2.958822e+00 -1.531237e+00 2.887453e+00 -3.243028e+00 2.480857e+00 -1.290673e+00 3.314757e+00 9.866767e-01 5.849457e+01 -3.179664e-01 -4.096417e-02 5.327912e-02 5.419894e-02 2.331755e-01 4.179164e-01 2.438139e-01 4.078429e-01 3.287265e-01 2.731573e-01 3.982538e-02 -1.343538e-01 -2.233389e-01 4.068095e-02 -1.822459e-03 1.056341e-01 -4.124654e-02 -4.642946e-02 6.264238e-02 1.985730e-02 6.631429e-02 -1.193445e-02 1.875368e-02 4.015853e-02 -1.067920e-01 4.719818e-02
<VARIANCE> 39
 5.708607e+00 7.940140e+00 1.255059e+01 1.457404e+01 8.667820e+00 9.195875e+00 9.450216e+00 1.185637e+01 1.095764e+01 1.045498e+01 1.204376e+01 7.698833e+00 1.656494e+00 1.209355e-01 1.570842e-01 2.929676e-01 4.818082e-01 1.179977e+00 6.860183e-01 7.026339e-01 1.156841e+00 1.835112e+00 1.379450e+00 9.955086e-01 7.999870e-01 4.170626e-02 1.234940e-02 3.753702e-02 5.671255e-02 8.595965e-02 1.520825e-01 2.029735e-01 1.559549e-01 1.638861e-01 2.084944e-01 2.406159e-01 2.019683e-01 2.021312e-01 2.897914e-03
<GCONST> 5.857726e+01
<TRANSP> 12
 0.000000e+00 1.000000e+00 0.000000e+00 0.000000e+00 0.000000e+00 0.000000e+00 0.000000e+00 0.000000e+00 0.000000e+00 0.000000e+00 0.000000e+00 0.000000e+00
 0.000000e+00 9.076018e-01 9.239822e-02 0.000000e+00 0.000000e+00 0.000000e+00 0.000000e+00 0.000000e+00 0.000000e+00 0.000000e+00 0.000000e+00 0.000000e+00
 0.000000e+00 0.000000e+00 9.054195e-01 9.458054e-02 0.000000e+00 0.000000e+00 0.000000e+00 0.000000e+00 0.000000e+00 0.000000e+00 0.000000e+00 0.000000e+00
 0.000000e+00 0.000000e+00 0.000000e+00 6.146417e-01 3.853583e-01 0.000000e+00 0.000000e+00 0.000000e+00 0.000000e+00 0.000000e+00 0.000000e+00 0.000000e+00
 0.000000e+00 0.000000e+00 0.000000e+00 0.000000e+00 6.068978e-01 3.931022e-01 0.000000e+00 0.000000e+00 0.000000e+00 0.000000e+00 0.000000e+00 0.000000e+00
 0.000000e+00 0.000000e+00 0.000000e+00 0.000000e+00 0.000000e+00 7.306093e-01 2.693907e-01 0.000000e+00 0.000000e+00 0.000000e+00 0.000000e+00 0.000000e+00
 0.000000e+00 0.000000e+00 0.000000e+00 0.000000e+00 0.000000e+00 0.000000e+00 2.055102e-01 7.944899e-01 0.000000e+00 0.000000e+00 0.000000e+00 0.000000e+00
 0.000000e+00 0.000000e+00 0.000000e+00 0.000000e+00 0.000000e+00 0.000000e+00 0.000000e+00 2.015687e-04 9.997984e-01 0.000000e+00 0.000000e+00 0.000000e+00
 0.000000e+00 0.000000e+00 0.000000e+00 0.000000e+00 0.000000e+00 0.000000e+00 0.000000e+00 0.000000e+00 3.793466e-04 9.996207e-01 0.000000e+00 0.000000e+00
 0.000000e+00 0.000000e+00 0.000000e+00 0.000000e+00 0.000000e+00 0.000000e+00 0.000000e+00 0.000000e+00 0.000000e+00 2.649517e-06 9.999974e-01 0.000000e+00
 0.000000e+00 0.000000e+00 0.000000e+00 0.000000e+00 0.000000e+00 0.000000e+00 0.000000e+00 0.000000e+00 0.000000e+00 0.000000e+00 3.076435e-12 1.000000e+00
 0.000000e+00 0.000000e+00 0.000000e+00 0.000000e+00 0.000000e+00 0.000000e+00 0.000000e+00 0.000000e+00 0.000000e+00 0.000000e+00 0.000000e+00 0.000000e+00
<ENDHMM>
~h "NINE"
<BEGINHMM>
<NUMSTATES> 12
<STATE> 2
<MEAN> 39
 3.637129e+00 -3.917257e+00 1.369611e+01 -6.276402e+00 -1.038979e+01 -3.001369e+00 -2.554043e+00 -1.903164e+00 1.910653e+00 -2.319122e+00 -2.497638e+00 -7.170985e+00 7.231302e+01 -8.265242e-02 1.226719e-01 -6.884791e-02 2.063327e-01 1.148776e-01 -7.756991e-02 1.580836e-01 2.712786e-03 -4.640788e-02 -4.334074e-02 4.012368e-02 1.069941e-01 -1.998204e-01 -1.372850e-02 4.588432e-02 8.001447e-03 6.810176e-02 7.600836e-03 -2.558910e-02 3.610496e-02 -3.636971e-02 -1.002492e-02 4.984988e-03 -1.671221e-02 1.585574e-02 -4.613888e-02
<VARIANCE> 39
 6.637596e+00 4.642728e+01 5.117694e+01 4.752091e+01 4.953178e+01 5.194157e+01 2.434118e+01 3.286873e+01 2.955247e+01 1.511588e+01 2.538168e+01 1.565318e+01 2.936504e+01 2.135961e-01 1.095002e+00 2.389640e+00 1.770082e+00 2.150314e+00 2.587555e+00 1.682117e+00 2.381203e+00 2.140600e+00 1.391487e+00 1.849138e+00 1.129918e+00 4.819381e-01 2.755030e-02 9.413482e-02 2.296372e-01 2.262029e-01 2.865080e-01 3.199504e-01 3.258303e-01 4.344943e-01 3.720215e-01 2.726525e-01 3.072887e-01 1.959400e-01 4.373042e-02
<GCONST> 9.791492e+01
<STATE> 3
<MEAN> 39
 2.008944e-01 3.257438e+00 9.970111e+00 2.851072e+00 -2.019964e+00 -5.664491e+00 5.363226e-03 -5.996195e+00 3.657751e-01 1.853971e-01 -2.344438e+00 -4.912890e+00 6.398399e+01 -2.567356e-01 3.364611e-02 -3.276477e-01 5.179476e-01 6.989879e-01 1.527460e-01 4.787807e-02 1.651970e-01 -1.164980e-01 -2.185772e-01 1.372324e-01 2.835079e-01 -3.488345e-01 -6.075449e-02 -4.319502e-02 -1.174329e-01 -6.154104e-02 6.851013e-02 5.268899e-02 1.337984e-01 -5.736385e-02 9.499190e-02 -1.785816e-01 -1.878634e-01 -9.575763e-02 -4.142141e-02
<VARIANCE> 39
 3.302174e+00 6.656830e+00 7.871567e+00 9.596985e+00 2.028198e+01 6.860687e+00 1.041858e+01 1.488072e+01 1.752973e+01 9.613693e+00 1.345533e+01 1.077547e+01 2.069622e+00 1.228197e-01 5.533606e-01 7.773708e-01 4.957867e-01 1.232499e+00 5.674129e-01 7.270334e-01 6.889332e-01 9.025678e-01 1.055105e+00 1.178351e+00 1.176240e+00 1.209705e-01 1.074296e-02 1.012276e-01 7.708208e-02 1.318100e-01 2.026515e-01 1.145277e-01 1.791214e-01 2.549797e-01 1.877262e-01 1.685122e-01 2.295201e-01 1.724696e-01 2.722142e-02
<GCONST> 6.482736e+01
<STATE> 4
<MEAN> 39
 -1.485453e-01 3.127028e+00 9.735611e+00 3.058820e+00 -2.095381e+00 -5.171106e+00 1.363710e+00 -5.334617e+00 5.265007e-01 -9.138803e-01 -2.900627e+00 -5.686287e+00 6.363885e+01 -2.925008e-01 4.509479e-03 -6.826887e-01 3.536589e-01 9.252338e-01 3.840876e-01 3.650735e-01 2.890933e-02 1.812181e-01 -4.458306e-01 -3.438091e-01 2.103768e-01 -4.201863e-01 -4.703626e-02 -1.452781e-01 -1.133076e-01 -1.905028e-01 -1.470721e-02 2.118270e-02 -1.725289e-02 -3.113252e-02 1.621192e-01 -6.424557e-02 -1.524286e-01 3.303872e-02 2.037055e-02
<VARIANCE> 39
 2.733292e+00 4.625343e+00 1.008808e+01 9.390102e+00 1.728135e+01 1.395832e+01 1.127013e+01 1.149078e+01 8.592133e+00 9.026855e+00 1.174468e+01 1.685666e+01 1.198679e+00 9.331495e-02 5.923573e-01 5.830441e-01 9.374938e-01 1.208869e+00 8.557174e-01 8.251788e-01 1.403074e+00 1.242483e+00 7.472073e-01 1.412865e+00 1.146640e+00 1.667088e-01 1.436724e-02 7.279445e-02 8.417388e-02 1.005903e-01 1.441005e-01 1.629712e-01 1.624497e-01 1.150070e-01 2.174993e-01 1.622124e-01 2.022219e-01 2.274982e-01 1.887555e-02
<GCONST> 6.447331e+01
<STATE> 5
<MEAN> 39
 -1.105695e-01 3.423501e+00 8.525896e+00 3.227036e+00 -3.882726e-01 -4.351370e+00 1.000323e+00 -6.072802e+00 -3.800755e-01 -2.263325e+00 -3.889518e+00 -5.167917e+00 6.331886e+01 -3.158667e-01 -3.327448e-01 -7.058509e-01 6.620035e-03 8.942291e-01 5.318800e-01 5.989957e-02 3.966153e-02 4.442810e-01 -1.456508e-01 -3.226106e-01 1.521916e-01 -2.672984e-01 -6.426086e-02 -1.724965e-01 3.288935e-02 -2.421457e-01 -2.298431e-01 -1.151768e-01 -1.396814e-02 6.846267e-02 1.845585e-01 2.189341e-01 1.679793e-02 3.638670e-02 4.527944e-02
<VARIANCE> 39
 3.372971e+00 3.854431e+00 6.751894e+00 6.181873e+00 1.224692e+01 1.102824e+01 1.080160e+01 6.989013e+00 1.061316e+01 1.175672e+01 1.029862e+01 1.305798e+01 1.056074e+00 9.960838e-02 3.571425e-01 4.521229e-01 4.010039e-01 7.936280e-01 5.835769e-01 9.445754e-01 1.317083e+00 7.819837e-01 1.134010e+00 8.786003e-01 5.313278e-01 6.103158e-02 1.776266e-02 4.201585e-02 1.425500e-01 1.124090e-01 1.190142e-01 1.806770e-01 1.736021e-01 1.516891e-01 1.939328e-01 1.988903e-01 1.927292e-01 2.126981e-01 1.383550e-02
<GCONST> 5.817193e+01
<STATE> 6
<MEAN> 39
 -9.032359e-01 2.357201e+00 7.587817e+00 3.366320e+00 1.236343e+00 -3.646327e+00 1.682000e+00 -5.338505e+00 1.433788e+00 -1.528651e+00 -3.726255e+00 -4.961858e+00 6.295813e+01 -4.195367e-01 -5.047052e-01 -5.842339e-01 -2.472876e-01 3.187907e-01 -6.881106e-02 -1.113752e-01 1.293792e-01 6.803252e-01 6.077868e-02 -2.968273e-01 4.469354e-01 -2.344542e-01 -5.272579e-02 -1.015753e-01 5.837715e-02 -2.592751e-01 -3.200932e-01 -1.006389e-01 -2.053641e-02 8.027712e-02 7.163504e-02 1.845057e-01 1.550897e-01 1.430749e-01 4.102461e-02
<VARIANCE> 39
 3.718422e+00 6.769981e+00 6.527626e+00 4.323908e+00 9.323772e+00 9.927468e+00 1.339963e+01 7.386174e+00 1.107477e+01 8.740940e+00 1.127302e+01 1.261528e+01 1.015027e+00 8.009433e-02 2.435382e-01 5.644445e-01 6.882163e-01 6.904762e-01 1.177618e+00 7.230839e-01 6.461085e-01 1.110771e+00 1.383096e+00 8.696578e-01 1.094743e+00 3.516904e-02 1.791943e-02 7.903839e-02 1.082148e-01 1.222719e-01 1.379883e-01 1.605552e-01 1.845182e-01 3.373511e-01 1.650641e-01 1.547796e-01 1.584637e-01 2.064964e-01 2.257261e-02
<GCONST> 5.974393e+01
<STATE> 7
<MEAN> 39
 -2.896945e+00 1.296659e-01 5.663918e+00 1.150126e+00 2.135191e-01 -3.842591e+00 1.391532e+00 -4.098204e+00 3.566260e+00 -3.069983e-01 -1.702523e+00 -2.392591e+00 6.215160e+01 -4.182143e-01 -5.251613e-01 -5.137082e-01 -5.662887e-01 -5.611330e-02 1.717514e-02 -6.616741e-02 4.422967e-01 3.338305e-01 2.285948e-01 5.205655e-01 3.184120e-01 -1.361655e-01 2.085443e-02 1.007382e-02 -1.830517e-02 -9.995893e-03 -1.942689e-02 -2.675524e-02 -1.579803e-02 4.790758e-02 -4.120219e-03 2.582922e-02 3.940145e-02 -3.289400e-02 8.435260e-03
<VARIANCE> 39
 2.897448e+00 6.851183e+00 9.477654e+00 8.952437e+00 6.700374e+00 7.574016e+00 1.196669e+01 1.342133e+01 1.092033e+01 1.150780e+01 1.812159e+01 1.035097e+01 1.134604e+00 1.285569e-01 4.576646e-01 8.589534e-01 7.103933e-01 6.717300e-01 8.431782e-01 1.297630e+00 1.608181e+00 1.258106e+00 1.101496e+00 1.241995e+00 1.141449e+00 1.170416e-01 2.221686e-02 8.634347e-02 1.773532e-01 1.297466e-01 1.448168e-01 1.785556e-01 2.603061e-01 2.945440e-01 2.445596e-01 2.292668e-01 2.831036e-01 2.242846e-01 2.154661e-02
<GCONST> 6.794959e+01
<STATE> 8
<MEAN> 39
 -5.353497e+00 -2.880048e+00 3.939219e-01 -2.512183e+00 3.269458e-02 -5.783718e+00 -9.555415e-01 -2.440026e+00 4.751469e+00 1.009083e-01 9.533095e-01 -1.104725e+00 6.079027e+01 -9.316214e-02 -7.503133e-02 -2.755401e-01 -1.629400e-02 -7.978380e-04 -1.142133e-01 -8.002730e-02 -3.363101e-02 6.844255e-02 -1.452368e-02 5.913224e-02 1.198223e-01 -1.056494e-01 2.295880e-02 3.920420e-02 5.378534e-02 4.511417e-02 1.498124e-03 4.033035e-02 6.285086e-04 -5.588128e-02 -5.664694e-02 -3.689448e-02 -2.504895e-02 -1.465969e-02 7.173931e-03
<VARIANCE> 39
 1.687547e+00 3.294806e+00 8.397837e+00 7.055214e+00 8.481771e+00 1.106633e+01 1.226085e+01 1.279079e+01 1.042920e+01 1.295139e+01 1.115253e+01 8.680264e+00 1.016696e+00 1.227224e-01 2.565249e-01 6.598732e-01 8.424069e-01 8.561779e-01 1.144693e+00 1.031134e+00 1.281869e+00 1.243648e+00 1.681156e+00 1.291216e+00 1.083537e+00 5.513579e-02 2.610067e-02 5.561382e-02 1.182911e-01 1.940850e-01 1.860875e-01 2.186878e-01 2.125187e-01 3.129550e-01 2.251065e-01 3.151604e-01 2.371069e-01 2.192551e-01 1.204464e-02
<GCONST> 6.471229e+01
<STATE> 9
<MEAN> 39
 -5.017565e+00 -2.271821e+00 1.583149e+00 -1.073743e+00 1.073010e-01 -4.739619e+00 -6.347182e-01 -3.027280e+00 4.442028e+00 3.416104e-01 3.234682e-01 -1.181311e+00 6.081167e+01 -1.026224e-01 -2.894997e-02 -1.081570e-01 -8.465862e-04 1.883050e-01 4.385799e-01 5.219503e-02 1.073409e-01 -5.084941e-02 -7.188213e-02 -1.532660e-01 9.421976e-02 -1.041537e-01 -9.283612e-03 5.564390e-02 5.142327e-02 -1.196706e-02 3.061179e-02 3.465515e-02 4.644085e-02 9.365541e-02 1.152001e-01 1.005135e-01 4.073468e-02 3.201397e-02 4.668448e-03
<VARIANCE> 39
 3.468339e+00 9.372715e+00 1.972298e+01 9.439394e+00 7.400469e+00 1.208694e+01 1.004917e+01 1.328162e+01 2.133463e+01 1.681167e+01 1.435552e+01 7.839520e+00 1.183004e+00 1.147758e-01 3.262656e-01 3.181118e-01 3.788038e-01 8.012810e-01 1.555993e+00 9.220542e-01 1.476813e+00 1.048153e+00 1.220767e+00 1.020592e+00 8.696253e-01 2.583206e-02 2.185805e-02 4.026356e-02 9.163282e-02 9.280142e-02 1.682383e-01 1.681143e-01 1.454136e-01 2.338478e-01 3.552169e-01 3.208866e-01 1.610324e-01 1.665050e-01 3.980880e-03
<GCONST> 6.207980e+01
<STATE> 10
<MEAN> 39
 -4.844714e+00 -1.917235e+00 1.294903e+00 -1.255914e+00 1.058748e+00 -4.211927e+00 -1.667118e-01 -2.613636e+00 5.037851e+00 -1.944995e-01 -4.203019e-01 -8.215356e-01 6.087185e+01 -1.625127e-01 -3.884467e-02 -1.284345e-01 -1.283243e-01 -6.334614e-02 2.593369e-01 5.049628e-02 2.793825e-01 4.404326e-01 2.880347e-01 6.647757e-02 1.682033e-01 -1.133572e-01 -1.406787e-02 1.575266e-02 1.909659e-03 -5.630603e-02 -8.779658e-02 -8.774371e-02 4.980163e-02 8.247890e-02 7.592055e-02 5.702483e-02 1.777400e-01 -9.356903e-03 2.356680e-02
<VARIANCE> 39
