~o
<STREAMINFO> 1 39
<VECSIZE> 39<NULLD><MFCC_D_A_0><DIAGC>
~v "varFloor1"
<VARIANCE> 39
 1.800114e-01 1.519127e-01 2.852846e-01 2.534797e-01 2.821024e-01 3.016612e-01 2.945425e-01 2.471487e-01 2.122073e-01 3.196048e-01 2.418761e-01 1.749120e-01 1.015027e+00 6.487466e-03 6.143028e-03 8.516928e-03 1.009298e-02 1.354946e-02 1.454864e-02 1.663765e-02 1.798384e-02 1.697595e-02 1.681930e-02 1.677035e-02 1.442426e-02 5.849039e-03 9.357015e-04 9.690709e-04 1.357299e-03 1.794185e-03 2.409799e-03 2.700560e-03 3.104459e-03 3.466015e-03 3.343903e-03 3.279697e-03 3.262125e-03 2.850542e-03 6.436716e-04
~h "ZERO"
<BEGINHMM>
<NUMSTATES> 12
<STATE> 2
<MEAN> 39
 -9.575441e+00 3.479981e-01 1.039475e+01 1.056216e+00 -9.048390e+00 -1.542015e+01 -1.310664e+01 -3.358975e+00 -9.552126e+00 -1.214542e+01 3.758744e+00 -1.217487e-01 7.276050e+01 5.429739e-01 -4.804789e-01 7.422534e-02 -2.415322e-01 -5.670220e-01 1.881658e-01 -3.351525e-01 1.050774e-03 -6.930692e-02 1.863343e-01 3.514340e-01 -5.227765e-02 6.885677e-02 5.050433e-02 -3.285138e-02 -2.840581e-02 -5.322078e-02 -3.823506e-02 8.206666e-02 6.209071e-02 -5.437866e-02 -1.397522e-02 2.781702e-02 1.689063e-03 1.389592e-02 -5.626402e-02
<VARIANCE> 39
 4.151523e+01 4.483727e+01 8.369083e+01 3.995382e+01 1.385057e+02 4.041379e+01 8.054996e+01 4.526454e+01 4.148343e+01 2.938491e+01 5.974694e+01 2.119973e+01 4.058815e+00 8.804974e-01 9.458349e-01 3.599414e+00 2.324906e+00 4.018734e+00 3.472627e+00 3.313373e+00 3.243630e+00 2.678934e+00 1.800788e+00 3.614036e+00 1.846859e+00 3.287056e-01 1.197396e-01 1.432175e-01 2.593829e-01 3.782399e-01 4.833157e-01 4.961260e-01 3.980549e-01 4.823796e-01 4.372286e-01 3.313782e-01 6.044748e-01 3.439235e-01 3.414048e-02
<GCONST> 1.127693e+02
<STATE> 3
<MEAN> 39
 1.672294e+00 -6.435835e+00 -2.875220e+00 -4.767683e+00 -9.426411e+00 -4.407787e+00 -3.770573e+00 -4.787331e+00 -8.231121e+00 -5.943359e+00 2.695190e+00 -1.105434e+00 6.897510e+01 -8.708420e-02 3.068000e-01 -3.788211e-01 -1.014051e+00 3.578118e-01 7.722690e-01 1.676214e+00 -1.116161e-01 -4.720183e-02 -8.651256e-02 -5.955698e-01 6.952336e-01 -7.090895e-01 -2.038797e-01 -1.232997e-03 9.940594e-02 2.270807e-01 1.423434e-01 -3.522975e-01 -1.840281e-01 2.905405e-01 2.387689e-01 -6.414515e-03 -2.539775e-01 -1.351079e-01 -6.068398e-02
<VARIANCE> 39
 4.205498e+00 1.790210e+01 7.714357e+00 2.927993e+01 1.371814e+01 2.794558e+01 4.154051e+01 2.290416e+01 2.118130e+01 1.649200e+01 1.926764e+01 2.421049e+01 6.404411e+00 5.873758e-01 4.824705e-01 6.866873e-01 2.420317e+00 1.360305e+00 3.260983e+00 1.688626e+00 3.013474e+00 2.331181e+00 2.198868e+00 2.254195e+00 2.425931e+00 1.353336e-01 7.574979e-02 8.085806e-02 1.223439e-01 3.486519e-01 2.646394e-01 4.126251e-01 2.669639e-01 4.421548e-01 5.062525e-01 4.577922e-01 4.612217e-01 4.385937e-01 1.585909e-02
<GCONST> 9.197536e+01
<STATE> 4
<MEAN> 39
 5.458851e-01 -5.247731e+00 -4.075109e+00 -5.701856e+00 -7.408137e+00 -4.319540e+00 1.115627e+00 -2.949849e+00 -7.786437e+00 -5.504511e+00 -3.109106e-01 -8.669567e-02 6.571507e+01 -6.411078e-01 1.228630e-01 -3.144914e-01 2.377000e-01 7.900469e-01 -1.251810e-01 8.532350e-01 7.991967e-01 4.274651e-01 4.708873e-01 -7.084681e-01 -1.931850e-01 -8.931348e-01 -1.071003e-01 -1.120260e-01 4.541817e-02 2.991242e-01 5.762303e-02 -1.178388e-01 -2.540924e-01 -1.668145e-02 2.975142e-02 1.315539e-01 1.355640e-01 -2.521487e-01 -3.135918e-02
<VARIANCE> 39
 6.153606e+00 8.655218e+00 6.164669e+00 1.514257e+01 1.643274e+01 1.774631e+01 2.209817e+01 2.261120e+01 1.403145e+01 1.820997e+01 1.685055e+01 1.542123e+01 7.619476e+00 3.692898e-01 5.474172e-01 5.080064e-01 2.000999e+00 8.093007e-01 1.426810e+00 2.031810e+00 1.754239e+00 1.340685e+00 1.965232e+00 1.612999e+00 2.078833e+00 1.408200e-01 6.010880e-02 6.096593e-02 1.067848e-01 2.186065e-01 1.782126e-01 2.850082e-01 2.751597e-01 4.514196e-01 2.979315e-01 3.621851e-01 3.184987e-01 2.887493e-01 1.783295e-02
<GCONST> 8.219140e+01
<STATE> 5
<MEAN> 39
 -2.535789e+00 -5.824296e+00 -4.835357e+00 -2.780623e+00 -3.784449e+00 -5.260042e+00 2.127864e+00 -1.295612e+00 -6.091975e+00 -2.355039e+00 -1.708105e+00 -2.471984e+00 6.199944e+01 -9.454328e-01 -4.163442e-01 3.781296e-03 7.696691e-01 7.790778e-01 -1.758104e-01 -1.664127e-01 -6.459245e-02 3.523921e-01 5.292298e-01 -2.452198e-01 -9.390417e-01 -8.895970e-01 3.111063e-02 -1.086971e-01 1.076534e-01 -3.743368e-03 -8.177173e-02 -4.709129e-02 -1.834345e-01 -2.834986e-01 -1.092691e-01 -1.904216e-01 1.268296e-02 -8.317299e-02 5.230284e-02
<VARIANCE> 39
 9.951891e+00 4.404514e+00 5.312549e+00 1.061781e+01 1.542794e+01 1.687915e+01 1.601126e+01 1.369471e+01 1.215901e+01 1.956865e+01 1.488006e+01 1.489824e+01 4.935276e+00 3.737062e-01 4.084538e-01 6.305354e-01 1.257635e+00 1.080014e+00 1.222678e+00 1.921850e+00 2.006955e+00 1.208032e+00 2.030907e+00 1.832646e+00 1.493699e+00 1.718959e-01 7.812740e-02 6.171022e-02 8.447339e-02 2.856884e-01 1.856030e-01 2.471151e-01 3.771479e-01 2.809063e-01 2.475348e-01 4.480270e-01 3.920940e-01 2.864369e-01 3.047731e-02
<GCONST> 8.031019e+01
<STATE> 6
<MEAN> 39
 -5.474788e+00 -7.841482e+00 -4.301573e+00 -2.900176e-01 -1.925138e+00 -6.515186e+00 4.551284e-01 -3.027455e+00 -5.733445e+00 -2.416548e+00 -3.448235e+00 -5.876832e+00 5.942873e+01 -5.859563e-01 -5.399324e-01 1.439041e-01 6.352893e-01 4.634570e-01 -3.579498e-01 -3.859501e-01 -7.342093e-01 -1.916553e-01 -3.088216e-01 -4.350480e-01 -7.188639e-01 -6.088247e-01 1.308893e-01 5.926584e-02 -3.946009e-02 -1.393880e-01 -1.215066e-01 4.985877e-02 1.008877e-01 2.665988e-02 -1.409321e-01 -1.902182e-01 -4.731029e-02 2.097006e-01 1.297713e-01
<VARIANCE> 39
 3.514440e+00 4.381312e+00 5.601952e+00 8.626915e+00 8.569684e+00 1.263915e+01 1.657034e+01 1.640238e+01 1.239887e+01 1.752712e+01 1.920490e+01 1.444375e+01 1.888016e+00 3.153295e-01 3.539436e-01 5.914164e-01 8.261746e-01 8.849006e-01 1.308933e+00 1.573462e+00 1.667937e+00 1.584191e+00 1.403875e+00 1.341641e+00 1.826836e+00 1.234161e-01 4.803184e-02 7.691556e-02 1.258955e-01 1.664875e-01 1.718007e-01 2.404041e-01 3.597338e-01 3.402086e-01 2.590335e-01 2.863157e-01 2.811541e-01 2.929096e-01 1.278581e-02
<GCONST> 7.381712e+01
<STATE> 7
<MEAN> 39
 -6.940457e+00 -9.010540e+00 -4.135157e+00 8.210597e-01 -1.001741e+00 -6.480789e+00 1.678357e-01 -4.457818e+00 -7.698479e+00 -4.508567e+00 -5.091836e+00 -6.954623e+00 5.755403e+01 -1.166740e-01 -4.335657e-02 7.536083e-03 9.372856e-02 5.226310e-02 2.865358e-02 -4.262925e-02 -6.564670e-02 -8.545194e-02 -1.200846e-01 -1.178112e-01 -5.378587e-02 -1.578581e-01 3.465100e-02 3.575904e-02 -5.112797e-03 -2.980351e-02 -1.471218e-02 2.909023e-02 2.025147e-02 5.364099e-02 1.670771e-02 3.074401e-02 3.466152e-02 4.950451e-02 2.917617e-02
<VARIANCE> 39
 1.758896e+00 4.447102e+00 4.174332e+00 6.925911e+00 8.518869e+00 1.089807e+01 1.211507e+01 1.381121e+01 1.575899e+01 1.401177e+01 1.375864e+01 1.173574e+01 1.938911e+00 1.729442e-01 3.837435e-01 4.423511e-01 7.440580e-01 7.529243e-01 9.502068e-01 1.377577e+00 1.658430e+00 1.595656e+00 1.286178e+00 1.442205e+00 1.316830e+00 1.136558e-01 3.148143e-02 6.842520e-02 9.090043e-02 1.463299e-01 1.519236e-01 1.930408e-01 2.849984e-01 3.384039e-01 3.126947e-01 2.538239e-01 2.863262e-01 2.984620e-01 2.296997e-02
<GCONST> 6.865096e+01
<STATE> 8
<MEAN> 39
 -7.705358e+00 -8.814470e+00 -3.988466e+00 1.953148e+00 -3.073988e-01 -5.856874e+00 4.581088e-01 -3.877731e+00 -7.600122e+00 -4.007461e+00 -5.172203e+00 -6.705251e+00 5.504103e+01 -5.045541e-02 2.613245e-02 -1.650046e-02 6.726489e-02 -1.279888e-02 5.946100e-02 -4.922270e-03 5.499670e-02 -4.352646e-02 1.720954e-02 -3.585893e-02 2.743271e-02 -3.004054e-01 1.957623e-03 7.925400e-03 -8.030011e-03 -1.094618e-05 -8.682057e-03 3.746371e-03 -8.172282e-03 9.841222e-03 -1.410738e-03 4.709966e-03 3.033808e-03 2.653908e-03 -1.476054e-02
<VARIANCE> 39
 1.429457e+00 2.984408e+00 4.525700e+00 6.846109e+00 8.335419e+00 1.078149e+01 1.197429e+01 1.369253e+01 1.352715e+01 1.288165e+01 1.227607e+01 1.265382e+01 8.092335e+00 1.181192e-01 2.839383e-01 4.237831e-01 7.067376e-01 9.191017e-01 1.097544e+00 1.452817e+00 1.588534e+00 1.566172e+00 1.282692e+00 1.286996e+00 1.331651e+00 1.272918e-01 2.234105e-02 5.724614e-02 8.045252e-02 1.454936e-01 1.877577e-01 2.348927e-01 3.177840e-01 3.271323e-01 3.238846e-01 2.614226e-01 2.632264e-01 2.787943e-01 1.694386e-02
<GCONST> 6.822246e+01
<STATE> 9
<MEAN> 39
 -8.536325e+00 -7.749307e+00 -5.151211e+00 3.152461e+00 -1.656533e+00 -3.984989e+00 -4.176743e-01 -2.890864e+00 -7.965901e+00 -3.149825e+00 -5.913531e+00 -6.663689e+00 4.845938e+01 -5.838722e-02 4.418937e-02 -8.532834e-02 8.651853e-02 -9.839964e-02 9.729189e-02 -1.341123e-01 -5.895896e-03 -1.063012e-04 4.613931e-03 -3.411967e-02 -1.802053e-02 -3.127662e-01 1.042175e-03 -7.613688e-03 7.951283e-04 4.323762e-04 1.132766e-02 3.548600e-03 3.026824e-03 -6.473270e-03 1.081922e-02 6.767879e-03 -8.497479e-04 7.489176e-03 1.726683e-02
<VARIANCE> 39
 1.722529e+00 2.732380e+00 5.098819e+00 6.358879e+00 8.347599e+00 1.114459e+01 1.210515e+01 1.240216e+01 1.312517e+01 1.237384e+01 1.299730e+01 1.193904e+01 4.616034e+00 1.644427e-01 3.124351e-01 5.823029e-01 7.440751e-01 9.429053e-01 1.183860e+00 1.488719e+00 1.415851e+00 1.540462e+00 1.522782e+00 1.319447e+00 1.176718e+00 1.825601e-01 3.380495e-02 6.963859e-02 1.240812e-01 1.582854e-01 2.089050e-01 2.546661e-01 3.186574e-01 2.881612e-01 3.142436e-01 3.285915e-01 2.668726e-01 2.381615e-01 3.081836e-02
<GCONST> 7.074699e+01
<STATE> 10
<MEAN> 39
 -9.026351e+00 -7.309762e+00 -5.823116e+00 3.853348e+00 -2.408650e+00 -3.502927e+00 -1.453397e+00 -2.332969e+00 -8.178279e+00 -3.233135e+00 -6.291015e+00 -6.332899e+00 4.595500e+01 -4.038547e-02 7.348312e-02 -6.249660e-02 8.072977e-02 -4.720654e-02 5.428144e-02 -6.268611e-02 1.269942e-01 -2.698801e-02 3.167612e-02 -4.078542e-02 5.724895e-02 -2.304390e-01 3.411056e-03 1.229502e-02 1.050971e-02 5.035884e-04 -4.027490e-03 -1.015505e-02 1.073859e-02 8.618130e-03 -1.023939e-02 -1.121907e-02 1.076615e-03 -1.092028e-02 1.147475e-02
<VARIANCE> 39
 1.694407e+00 3.461415e+00 4.400025e+00 6.351699e+00 7.977637e+00 9.754106e+00 1.242853e+01 1.334238e+01 1.699195e+01 1.316003e+01 1.287782e+01 1.232068e+01 1.834811e+00 1.589171e-01 3.316957e-01 4.870308e-01 7.931359e-01 1.013528e+00 1.182794e+00 1.554848e+00 1.735313e+00 1.430512e+00 1.308426e+00 1.398390e+00 1.354979e+00 7.025325e-02 3.200460e-02 6.674237e-02 1.051687e-01 1.770172e-01 2.284393e-01 2.593464e-01 3.224311e-01 3.786274e-01 2.752171e-01 2.674494e-01 2.867213e-01 2.801802e-01 1.271105e-02
<GCONST> 6.865807e+01
<STATE> 11
<MEAN> 39
 -1.004955e+01 -5.392240e+00 -7.241994e+00 6.722306e+00 -4.053091e+00 -1.236419e+00 -2.442710e+00 -1.116579e+00 -8.703819e+00 -3.166073e+00 -5.611240e+00 -6.736707e+00 4.127970e+01 -7.610344e-03 1.502641e-02 -1.168289e-02 2.290913e-02 -1.099603e-02 1.765602e-02 -1.994264e-03 8.419599e-03 -1.344108e-03 -1.031954e-03 9.511271e-03 -2.368529e-03 -3.285726e-02 -1.234980e-03 -1.085797e-03 2.276332e-03 -2.516743e-03 2.612930e-03 -7.095541e-04 2.704428e-03 -2.564676e-03 3.289229e-03 9.619796e-04 5.830496e-04 1.578746e-03 3.837882e-03
<VARIANCE> 39
 1.860688e+00 3.242272e+00 5.094430e+00 7.035998e+00 8.516651e+00 9.212331e+00 1.186168e+01 1.187091e+01 1.324282e+01 1.381840e+01 1.247767e+01 1.156184e+01 3.479382e+00 1.427233e-01 2.800942e-01 4.835609e-01 7.289299e-01 9.137840e-01 1.076818e+00 1.353516e+00 1.332950e+00 1.481356e+00 1.642994e+00 1.427865e+00 1.346326e+00 5.662763e-02 2.958412e-02 5.790944e-02 1.014936e-01 1.535475e-01 1.933419e-01 2.324529e-01 2.858786e-01 2.759679e-01 3.124397e-01 3.466496e-01 3.000385e-01 2.842593e-01 1.129774e-02
<GCONST> 6.743448e+01
<TRANSP> 12
 0.000000e+00 1.000000e+00 0.000000e+00 0.000000e+00 0.000000e+00 0.000000e+00 0.000000e+00 0.000000e+00 0.000000e+00 0.000000e+00 0.000000e+00 0.000000e+00
 0.000000e+00 9.714787e-01 2.852132e-02 0.000000e+00 0.000000e+00 0.000000e+00 0.000000e+00 0.000000e+00 0.000000e+00 0.000000e+00 0.000000e+00 0.000000e+00
 0.000000e+00 0.000000e+00 7.829989e-01 2.170010e-01 0.000000e+00 0.000000e+00 0.000000e+00 0.000000e+00 0.000000e+00 0.000000e+00 0.000000e+00 0.000000e+00
 0.000000e+00 0.000000e+00 0.000000e+00 7.695536e-01 2.304464e-01 0.000000e+00 0.000000e+00 0.000000e+00 0.000000e+00 0.000000e+00 0.000000e+00 0.000000e+00
 0.000000e+00 0.000000e+00 0.000000e+00 0.000000e+00 6.789157e-01 3.210843e-01 0.000000e+00 0.000000e+00 0.000000e+00 0.000000e+00 0.000000e+00 0.000000e+00
 0.000000e+00 0.000000e+00 0.000000e+00 0.000000e+00 0.000000e+00 6.341038e-01 3.658962e-01 0.000000e+00 0.000000e+00 0.000000e+00 0.000000e+00 0.000000e+00
 0.000000e+00 0.000000e+00 0.000000e+00 0.000000e+00 0.000000e+00 0.000000e+00 9.050695e-01 9.493057e-02 0.000000e+00 0.000000e+00 0.000000e+00 0.000000e+00
 0.000000e+00 0.000000e+00 0.000000e+00 0.000000e+00 0.000000e+00 0.000000e+00 0.000000e+00 9.552791e-01 4.472099e-02 0.000000e+00 0.000000e+00 0.000000e+00
 0.000000e+00 0.000000e+00 0.000000e+00 0.000000e+00 0.000000e+00 0.000000e+00 0.000000e+00 0.000000e+00 9.083956e-01 9.160442e-02 0.000000e+00 0.000000e+00
 0.000000e+00 0.000000e+00 0.000000e+00 0.000000e+00 0.000000e+00 0.000000e+00 0.000000e+00 0.000000e+00 0.000000e+00 8.885134e-01 1.114866e-01 0.000000e+00
 0.000000e+00 0.000000e+00 0.000000e+00 0.000000e+00 0.000000e+00 0.000000e+00 0.000000e+00 0.000000e+00 0.000000e+00 0.000000e+00 9.932998e-01 6.700151e-03
 0.000000e+00 0.000000e+00 0.000000e+00 0.000000e+00 0.000000e+00 0.000000e+00 0.000000e+00 0.000000e+00 0.000000e+00 0.000000e+00 0.000000e+00 0.000000e+00
<ENDHMM>
~h "SEVEN"
<BEGINHMM>
<NUMSTATES> 12
<STATE> 2
<MEAN> 39
 -2.073570e+01 4.481192e+00 -9.072926e+00 2.469780e+00 1.999187e+00 -1.498301e+01 8.746443e-01 -1.966490e+00 -4.318727e+00 -1.038196e+01 -2.114530e+00 -3.207908e+00 6.879895e+01 2.781278e-01 -4.401246e-02 3.822110e-01 -7.983446e-04 -5.927987e-01 -2.894458e-01 -8.393681e-01 8.679864e-01 3.115675e-01 -5.487825e-01 4.108495e-01 -2.555183e-01 8.226200e-01 1.792018e-01 -2.218265e-01 1.148382e-01 -6.148160e-02 -1.456532e-01 1.144653e-01 -1.410246e-01 1.516784e-01 -1.019780e-02 -3.155419e-02 3.284726e-02 -9.895489e-02 -5.349344e-02
<VARIANCE> 39
 5.271995e+01 3.231176e+01 3.623344e+01 1.053253e+01 4.399970e+01 1.853766e+01 6.014230e+01 4.570227e+01 2.072407e+01 2.300292e+01 2.530471e+01 2.416952e+01 1.724624e+01 5.336719e+00 3.699223e+00 2.557563e+00 1.315766e+00 3.847216e+00 2.239240e+00 3.985356e+00 2.692567e+00 2.451132e+00 1.922654e+00 2.418489e+00 2.110076e+00 7.200876e-01 4.561866e-01 2.012634e-01 2.207024e-01 2.604801e-01 4.918998e-01 4.588518e-01 6.788527e-01 4.254097e-01 5.106629e-01 3.695503e-01 4.836748e-01 3.068236e-01 1.055427e-01
<GCONST> 1.128914e+02
<STATE> 3
<MEAN> 39
 -5.426710e+00 -7.195995e+00 2.023696e+00 2.626127e+00 -8.745630e+00 -1.421074e+01 -1.222623e+01 8.282177e+00 -8.269188e-01 -1.484238e+01 1.256471e+00 -8.468466e+00 7.200768e+01 2.114361e-01 -2.989479e-01 1.854071e-01 4.330743e-01 3.932444e-02 2.594357e-02 -5.735923e-02 9.953149e-02 -1.340730e-02 -4.692318e-02 1.154853e-01 2.753245e-01 -2.131598e-01 -6.550346e-02 6.926838e-02 -1.742309e-02 3.233108e-02 5.822894e-02 -4.432936e-02 8.535193e-02 -6.771050e-02 -7.285312e-02 2.742245e-02 3.711486e-03 4.287329e-02 -2.422172e-02
<VARIANCE> 39
 7.012914e+00 2.193154e+01 1.500952e+01 2.943950e+01 3.438488e+01 1.662636e+01 2.803490e+01 7.007254e+01 2.103626e+01 4.394735e+01 3.700248e+01 2.537543e+01 1.285777e+01 1.068985e+00 2.748575e+00 8.242414e-01 1.373770e+00 3.347437e+00 2.142055e+00 2.951947e+00 6.419075e+00 1.685422e+00 4.363203e+00 3.517085e+00 1.332547e+00 7.610672e-01 2.321607e-01 4.016974e-01 1.455415e-01 2.252338e-01 5.403866e-01 4.164118e-01 5.254782e-01 8.236244e-01 3.329833e-01 6.460150e-01 5.110129e-01 2.155261e-01 1.014357e-01
<GCONST> 1.081938e+02
<STATE> 4
<MEAN> 39
 -4.617863e+00 -8.469021e+00 2.960001e+00 6.047866e+00 -8.694359e+00 -1.412877e+01 -1.231374e+01 1.116606e+01 -1.195529e+00 -1.647579e+01 3.657370e+00 -6.413365e+00 7.111012e+01 -1.483303e-02 1.637198e-03 1.667193e-01 -1.215238e-01 5.339288e-02 4.234300e-02 2.884352e-01 -1.726009e-03 -2.337144e-01 8.300786e-02 1.646699e-02 6.444273e-02 -2.364711e-01 -7.067635e-04 1.248159e-01 -6.654636e-02 1.217432e-02 1.406686e-01 3.715170e-03 6.634155e-02 -2.413835e-01 -7.336176e-02 1.229896e-01 -1.789901e-01 5.213796e-03 -6.782129e-02
<VARIANCE> 39
 3.971430e+00 2.009886e+01 1.737857e+01 1.542975e+01 2.140139e+01 1.437414e+01 2.311618e+01 4.582486e+01 1.399314e+01 3.441603e+01 3.499835e+01 1.945110e+01 6.321236e+00 6.271822e-01 1.391143e+00 6.653297e-01 9.398419e-01 1.800773e+00 1.382579e+00 2.229764e+00 4.348526e+00 1.152038e+00 2.816855e+00 2.287052e+00 1.204545e+00 4.810583e-01 1.284833e-01 1.832012e-01 1.109991e-01 1.232846e-01 2.821850e-01 2.805924e-01 4.021499e-01 6.041939e-01 2.216891e-01 3.881489e-01 3.221094e-01 1.861946e-01 4.936604e-02
<GCONST> 9.265712e+01
<STATE> 5
<MEAN> 39
 -4.853885e+00 -9.290486e+00 5.114267e+00 5.273246e+00 -9.024400e+00 -1.601833e+01 -9.796535e+00 1.217885e+01 -3.900884e+00 -1.632756e+01 4.344839e+00 -5.506184e+00 6.926424e+01 1.870059e-01 5.965310e-01 -2.624509e-01 -2.653642e-01 7.472392e-01 2.912254e-01 4.016229e-01 -1.267337e+00 -7.687423e-01 5.803792e-01 -9.139298e-01 -4.038189e-01 -6.154254e-01 2.388906e-02 1.093190e-01 -4.438342e-02 1.090202e-01 1.644067e-01 1.205355e-01 1.699193e-02 -3.207895e-01 -1.201680e-01 1.350683e-02 -1.383236e-01 -3.363379e-02 -5.895662e-02
<VARIANCE> 39
 3.071641e+00 7.431051e+00 5.369949e+00 9.521437e+00 1.064429e+01 1.050457e+01 9.709133e+00 3.708432e+01 1.920060e+01 1.772601e+01 2.144596e+01 1.570947e+01 5.915710e+00 3.339882e-01 1.001152e+00 5.798558e-01 8.023372e-01 1.502724e+00 1.233226e+00 8.310449e-01 5.558467e+00 1.654338e+00 1.503729e+00 1.978103e+00 1.105151e+00 2.758458e-01 5.729852e-02 1.130725e-01 1.109483e-01 1.158596e-01 2.269224e-01 2.395284e-01 1.664835e-01 7.150108e-01 2.714189e-01 2.555504e-01 2.336941e-01 1.950513e-01 2.585007e-02
<GCONST> 7.961603e+01
<STATE> 6
<MEAN> 39
 -3.190957e+00 -4.970901e+00 3.126996e+00 4.635765e+00 -3.478294e+00 -1.296884e+01 -7.522044e+00 1.390982e+00 -9.376257e+00 -1.281435e+01 -1.872955e+00 -7.917462e+00 6.498767e+01 6.329629e-02 8.333309e-01 -4.555918e-01 4.060271e-01 1.240999e+00 9.187047e-01 7.225871e-01 -2.324614e+00 -1.281931e+00 3.732895e-01 -1.353737e+00 -2.144272e-01 -7.401878e-01 -1.487032e-01 -3.416145e-01 3.828665e-02 2.808611e-02 -2.401620e-01 -1.685988e-01 6.367929e-02 6.381759e-01 2.257824e-01 -9.064925e-02 1.568858e-01 1.854050e-01 1.212564e-01
<VARIANCE> 39
 2.158671e+00 6.451064e+00 3.830812e+00 7.227751e+00 1.281729e+01 1.243595e+01 8.623434e+00 4.334687e+01 2.208661e+01 1.346727e+01 1.845548e+01 1.128408e+01 2.605595e+00 2.424508e-01 6.175472e-01 3.085352e-01 1.003532e+00 1.010627e+00 1.035827e+00 7.732375e-01 3.685465e+00 1.524733e+00 1.255906e+00 1.657921e+00 9.757903e-01 1.130843e-01 4.321933e-02 1.072924e-01 7.556625e-02 1.735337e-01 2.183397e-01 2.086921e-01 1.429182e-01 7.728405e-01 3.364026e-01 3.056007e-01 3.769104e-01 2.422024e-01 1.655544e-02
<GCONST> 7.382222e+01
<STATE> 7
<MEAN> 39
 -3.399115e+00 -3.987446e+00 2.368061e+00 6.108657e+00 -7.049330e-01 -1.144415e+01 -5.271263e+00 -2.463440e+00 -1.237381e+01 -1.201898e+01 -5.489930e+00 -7.676698e+00 6.328083e+01 -2.196273e-01 -1.010307e-01 -3.549127e-01 2.930159e-01 4.357973e-01 2.926804e-01 8.408117e-01 -4.753346e-01 -2.744913e-01 5.185317e-01 -7.487590e-01 2.924532e-01 -4.627537e-01 -6.510680e-02 -2.312680e-01 3.820058e-03 -1.532553e-01 -2.232131e-01 -8.457638e-02 6.084138e-03 3.702638e-01 3.252518e-01 1.046313e-01 2.966553e-01 1.169574e-01 5.400088e-02
<VARIANCE> 39
 1.657804e+00 2.784060e+00 4.128289e+00 8.545050e+00 9.941229e+00 7.721152e+00 1.398347e+01 1.222165e+01 1.189087e+01 1.312433e+01 1.279476e+01 7.651078e+00 1.063932e+00 2.048088e-01 3.504450e-01 3.869811e-01 9.959425e-01 1.281525e+00 7.910987e-01 9.703746e-01 2.178435e+00 1.562187e+00 1.251254e+00 1.479815e+00 9.157761e-01 6.877811e-02 4.138944e-02 7.235715e-02 7.153345e-02 1.860385e-01 2.199126e-01 1.664729e-01 2.042543e-01 5.066488e-01 2.363080e-01 2.373707e-01 2.357019e-01 1.752547e-01 1.460044e-02
<GCONST> 6.541933e+01
<STATE> 8
<MEAN> 39
 -4.459003e+00 -5.353314e+00 9.116156e-01 6.208364e+00 -3.172348e-01 -1.044223e+01 -2.894413e+00 -2.933293e+00 -1.100611e+01 -9.402027e+00 -6.254423e+00 -6.069180e+00 6.180362e+01 -3.426445e-01 -4.476746e-01 -4.018927e-01 -2.397805e-01 8.694512e-02 4.593901e-01 6.205285e-01 -1.450935e-01 4.258742e-01 7.022123e-01 1.786727e-01 2.703422e-01 -4.042509e-01 -2.592349e-02 -3.723507e-02 -2.374691e-02 -1.420214e-01 -5.194054e-03 8.797196e-02 -4.727755e-02 7.128447e-02 1.279029e-01 4.511593e-02 1.494656e-01 -7.659794e-02 2.253135e-03
<VARIANCE> 39
 1.550861e+00 4.425448e+00 5.615742e+00 9.490913e+00 7.981278e+00 9.039463e+00 1.382008e+01 1.744919e+01 1.747896e+01 1.599636e+01 1.417872e+01 1.378594e+01 1.352859e+00 1.384587e-01 2.601953e-01 5.511807e-01 1.036685e+00 1.060959e+00 9.755498e-01 1.243274e+00 1.539823e+00 1.408989e+00 1.728218e+00 1.593849e+00 1.036364e+00 5.322211e-02 2.827363e-02 6.095012e-02 1.091998e-01 1.945059e-01 2.423591e-01 1.997842e-01 2.631629e-01 3.407789e-01 3.045164e-01 3.648103e-01 3.130386e-01 2.017202e-01 1.091940e-02
<GCONST> 6.868192e+01
<STATE> 9
<MEAN> 39
 -5.923095e+00 -7.757657e+00 -1.456923e+00 4.199132e+00 7.521746e-01 -8.094451e+00 -8.054050e-01 -1.953277e+00 -8.096537e+00 -6.816637e+00 -5.717505e+00 -4.990243e+00 5.948522e+01 -2.157352e-01 -1.899942e-01 -2.978594e-01 -3.124276e-01 1.270843e-01 4.134730e-01 3.517183e-01 1.808857e-02 2.685598e-01 4.756050e-01 1.329792e-01 -1.314155e-02 -2.575152e-01 3.242000e-02 1.667363e-02 6.705888e-03 -9.457542e-03 -3.049164e-02 -4.712110e-02 -7.382430e-02 -5.631378e-03 -4.813777e-02 -5.406001e-02 -3.451617e-02 -2.396854e-02 1.820770e-02
<VARIANCE> 39
 1.986437e+00 5.499354e+00 6.674178e+00 9.395898e+00 7.927585e+00 1.286882e+01 1.353362e+01 1.819354e+01 1.519757e+01 1.685840e+01 1.541151e+01 1.679013e+01 3.146412e+00 2.203680e-01 3.528955e-01 6.100246e-01 1.082313e+00 9.401769e-01 1.061661e+00 1.471479e+00 1.480703e+00 1.436810e+00 1.679781e+00 1.693985e+00 1.386144e+00 1.086507e-01 4.098138e-02 6.556327e-02 1.179245e-01 2.027750e-01 2.045207e-01 2.098622e-01 3.023265e-01 3.282136e-01 2.517924e-01 3.302179e-01 3.946227e-01 3.083672e-01 1.770737e-02
<GCONST> 7.417039e+01
<STATE> 10
<MEAN> 39
 -6.722932e+00 -8.345709e+00 -2.661039e+00 1.417959e+00 6.368756e-02 -6.470916e+00 5.268959e-01 -3.605010e+00 -8.927295e+00 -4.213685e+00 -4.933809e+00 -6.693331e+00 5.826075e+01 -2.995808e-02 -9.835535e-02 -1.067414e-01 -1.752265e-01 -2.625946e-02 5.280122e-03 -4.884513e-02 -3.010593e-02 -3.614670e-03 9.748968e-02 -4.936451e-02 -3.059403e-02 -1.810949e-01 1.562763e-02 2.611359e-02 2.540577e-02 3.651402e-02 -1.014935e-02 -2.579204e-02 -2.668858e-02 3.100501e-03 -2.006256e-02 -3.595364e-02 -1.081438e-02 2.718964e-03 5.444587e-03
<VARIANCE> 39
 1.472630e+00 3.341909e+00 5.076219e+00 7.923128e+00 9.565187e+00 1.034055e+01 1.301308e+01 1.359807e+01 1.425755e+01 1.293867e+01 1.254532e+01 1.235888e+01 2.785534e+00 1.886391e-01 3.462387e-01 5.470450e-01 8.079740e-01 1.172782e+00 1.257854e+00 1.479519e+00 1.576575e+00 1.644266e+00 1.480332e+00 1.472452e+00 1.316635e+00 8.745421e-02 3.987161e-02 6.983647e-02 1.043556e-01 1.633288e-01 2.501379e-01 2.756237e-01 3.068466e-01 3.283893e-01 3.465889e-01 2.996214e-01 2.999392e-01 2.791235e-01 1.644136e-02
<GCONST> 7.104845e+01
<STATE> 11
<MEAN> 39
 -6.794709e+00 -7.158044e+00 -3.906666e+00 2.069454e+00 -1.720332e+00 -5.254940e+00 -1.024267e+00 -2.876745e+00 -9.968314e+00 -3.509251e+00 -5.800283e+00 -6.788038e+00 5.073465e+01 -3.246433e-03 3.670346e-02 -2.967585e-02 3.262326e-02 -3.053262e-02 3.590903e-02 -3.335181e-02 1.622448e-02 -1.399838e-02 2.456447e-02 4.997302e-03 1.099639e-02 -1.428853e-01 -2.286823e-03 -1.937873e-04 7.439719e-05 2.076141e-03 -9.574183e-04 5.493873e-04 -1.247287e-03 -3.478359e-03 2.788656e-03 -2.690896e-03 1.906302e-04 -3.090406e-03 4.953226e-03
<VARIANCE> 39
 1.733685e+00 3.726766e+00 5.578508e+00 7.218308e+00 9.436746e+00 1.057994e+01 1.227546e+01 1.374498e+01 1.414497e+01 1.336650e+01 1.300514e+01 1.064031e+01 1.366852e+01 1.563678e-01 2.984234e-01 5.400988e-01 7.293673e-01 9.576948e-01 1.175492e+00 1.351242e+00 1.493159e+00 1.532464e+00 1.589254e+00 1.461015e+00 1.257974e+00 8.645595e-02 3.223625e-02 6.194448e-02 1.116674e-01 1.515458e-01 2.017982e-01 2.490561e-01 2.776697e-01 3.127818e-01 3.155825e-01 3.307011e-01 3.092529e-01 2.631368e-01 1.452272e-02
<GCONST> 7.090224e+01
<TRANSP> 12
 0.000000e+00 1.000000e+00 0.000000e+00 0.000000e+00 0.000000e+00 0.000000e+00 0.000000e+00 0.000000e+00 0.000000e+00 0.000000e+00 0.000000e+00 0.000000e+00
 0.000000e+00 9.496098e-01 5.039015e-02 0.000000e+00 0.000000e+00 0.000000e+00 0.000000e+00 0.000000e+00 0.000000e+00 0.000000e+00 0.000000e+00 0.000000e+00
 0.000000e+00 0.000000e+00 9.325616e-01 6.743844e-02 0.000000e+00 0.000000e+00 0.000000e+00 0.000000e+00 0.000000e+00 0.000000e+00 0.000000e+00 0.000000e+00
 0.000000e+00 0.000000e+00 0.000000e+00 8.949624e-01 1.050376e-01 0.000000e+00 0.000000e+00 0.000000e+00 0.000000e+00 0.000000e+00 0.000000e+00 0.000000e+00
 0.000000e+00 0.000000e+00 0.000000e+00 0.000000e+00 8.392689e-01 1.607312e-01 0.000000e+00 0.000000e+00 0.000000e+00 0.000000e+00 0.000000e+00 0.000000e+00
 0.000000e+00 0.000000e+00 0.000000e+00 0.000000e+00 0.000000e+00 5.971621e-01 4.028379e-01 0.000000e+00 0.000000e+00 0.000000e+00 0.000000e+00 0.000000e+00
 0.000000e+00 0.000000e+00 0.000000e+00 0.000000e+00 0.000000e+00 0.000000e+00 6.567664e-01 3.432336e-01 0.000000e+00 0.000000e+00 0.000000e+00 0.000000e+00
 0.000000e+00 0.000000e+00 0.000000e+00 0.000000e+00 0.000000e+00 0.000000e+00 0.000000e+00 7.435778e-01 2.564222e-01 0.000000e+00 0.000000e+00 0.000000e+00
 0.000000e+00 0.000000e+00 0.000000e+00 0.000000e+00 0.000000e+00 0.000000e+00 0.000000e+00 0.000000e+00 8.401600e-01 1.598400e-01 0.000000e+00 0.000000e+00
 0.000000e+00 0.000000e+00 0.000000e+00 0.000000e+00 0.000000e+00 0.000000e+00 0.000000e+00 0.000000e+00 0.000000e+00 9.210087e-01 7.899132e-02 0.000000e+00
 0.000000e+00 0.000000e+00 0.000000e+00 0.000000e+00 0.000000e+00 0.000000e+00 0.000000e+00 0.000000e+00 0.000000e+00 0.000000e+00 9.859447e-01 1.405524e-02
 0.000000e+00 0.000000e+00 0.000000e+00 0.000000e+00 0.000000e+00 0.000000e+00 0.000000e+00 0.000000e+00 0.000000e+00 0.000000e+00 0.000000e+00 0.000000e+00
<ENDHMM>
~h "THREE"
<BEGINHMM>
<NUMSTATES> 12
<STATE> 2
<MEAN> 39
 -1.849458e+01 2.914842e+00 -3.820113e+00 4.241106e+00 -1.530909e+00 -1.735477e+01 -2.903656e+00 1.024763e+00 -7.118018e+00 -1.320798e+01 4.742785e-01 -1.075352e+00 7.083517e+01 5.323894e-01 -4.300784e-01 1.042841e+00 -2.013728e-01 -7.210619e-01 -2.393595e-01 -7.757579e-01 2.885677e-01 -4.159644e-01 -3.892741e-01 7.890829e-01 -1.610696e-01 3.818503e-01 8.276573e-02 -7.815500e-02 6.781475e-02 -6.042697e-02 -4.470417e-02 9.459081e-02 -3.768416e-02 -7.258712e-02 -1.135745e-02 2.650035e-02 4.704149e-03 -3.635259e-02 -6.060463e-02
<VARIANCE> 39
 7.272252e+01 4.162574e+01 1.265577e+02 1.975988e+01 5.456220e+01 3.906343e+01 7.037189e+01 3.816619e+01 3.809171e+01 3.404552e+01 5.519321e+01 2.056599e+01 8.016963e+00 3.247232e+00 2.161764e+00 2.490202e+00 2.138215e+00 3.243212e+00 3.005594e+00 2.636421e+00 3.249923e+00 2.834581e+00 2.522517e+00 3.023308e+00 2.565931e+00 4.626888e-01 4.618722e-01 3.378137e-01 2.496284e-01 3.317596e-01 6.452445e-01 5.417299e-01 4.955817e-01 6.079751e-01 5.423949e-01 5.185780e-01 5.874971e-01 5.195619e-01 6.499720e-02
<GCONST> 1.188641e+02
<STATE> 3
<MEAN> 39
 -8.450587e+00 -5.087459e+00 1.531067e+01 -5.531055e+00 -1.421533e+01 -1.502642e+01 -1.768622e+01 -7.798159e-01 -1.368380e+01 -1.746557e+01 1.273943e+01 -4.718534e+00 7.392841e+01 -3.365057e-01 4.403669e-01 2.582784e-01 -8.446141e-01 -3.361042e-02 1.002493e+00 -4.648893e-01 -8.797798e-01 4.155631e-01 1.175741e-01 -7.387633e-01 4.650930e-01 2.694352e-02 -9.346886e-03 4.300192e-04 -4.801440e-02 1.287908e-01 1.369601e-01 -1.297591e-01 4.224171e-02 2.416249e-01 1.065990e-02 6.986633e-02 -2.652591e-01 1.512327e-01 -1.816738e-02
<VARIANCE> 39
 3.288621e+00 7.218055e+00 1.465757e+01 2.022530e+01 2.064058e+01 2.699335e+01 1.986334e+01 4.635213e+01 2.330786e+01 3.345750e+01 2.556008e+01 2.350454e+01 1.015027e+00 1.549537e-01 4.056867e-01 5.509865e-01 1.019820e+00 1.390486e+00 1.488882e+00 1.875871e+00 2.096708e+00 1.421628e+00 1.039069e+00 1.631034e+00 1.318469e+00 6.003978e-02 4.745831e-02 8.646766e-02 1.090810e-01 1.710155e-01 3.383919e-01 2.453845e-01 3.103080e-01 3.247614e-01 2.968391e-01 1.767803e-01 3.560821e-01 2.988483e-01 8.700737e-03
<GCONST> 7.966026e+01
<STATE> 4
<MEAN> 39
 -9.010948e+00 -3.301582e+00 1.887452e+01 -7.094383e+00 -1.481915e+01 -8.791463e+00 -2.011061e+01 -2.510184e+00 -1.342689e+01 -1.422674e+01 6.393349e+00 -3.071814e+00 7.294618e+01 3.636017e-02 3.269911e-04 2.294958e-01 1.720357e-01 6.942194e-03 3.057073e-01 7.904127e-03 -1.168450e-01 -1.091621e-01 2.431099e-01 -4.267028e-01 8.464883e-02 -1.499864e-01 1.793102e-02 -2.523623e-02 -3.901099e-02 6.990298e-02 3.475340e-02 -5.324748e-02 7.437313e-02 2.129213e-02 -2.103744e-02 3.162708e-03 1.645850e-02 -3.362657e-02 -2.336966e-02
<VARIANCE> 39
 2.885753e+00 7.583764e+00 1.873375e+01 2.265062e+01 2.040786e+01 3.645304e+01 2.500773e+01 2.921303e+01 2.482474e+01 2.243015e+01 2.601360e+01 2.167577e+01 3.171150e+00 1.252697e-01 2.242459e-01 5.813866e-01 1.138091e+00 1.212355e+00 8.738447e-01 1.541517e+00 1.425663e+00 1.448943e+00 9.877455e-01 1.597424e+00 1.264505e+00 7.163718e-02 1.803155e-02 3.559018e-02 7.742069e-02 1.544393e-01 1.974990e-01 1.401984e-01 2.451974e-01 2.864489e-01 2.660940e-01 1.662902e-01 3.119851e-01 2.389510e-01 9.536819e-03
<GCONST> 7.472848e+01
<STATE> 5
<MEAN> 39
 -8.235657e+00 -4.444193e+00 1.882292e+01 -2.559601e+00 -1.149523e+01 -6.983999e+00 -1.654737e+01 -4.855768e+00 -1.545102e+01 -1.177546e+01 2.254236e+00 -3.525846e+00 6.975066e+01 9.997064e-02 -1.621690e-01 -8.560501e-01 2.045251e-01 8.255203e-01 1.510902e-01 7.571568e-01 -2.198548e-01 2.162259e-01 4.104510e-01 -3.342087e-01 -1.566877e-01 -5.676839e-01 1.320682e-02 -1.574534e-02 -1.751428e-01 -5.967506e-02 1.677865e-02 2.776529e-02 6.315392e-02 1.553851e-02 8.205733e-02 5.466925e-02 2.185827e-02 1.501073e-02 -5.413138e-02
<VARIANCE> 39
 2.309571e+00 8.645343e+00 2.252826e+01 1.213681e+01 3.129496e+01 2.600312e+01 2.009297e+01 1.677124e+01 1.423739e+01 2.122369e+01 1.851530e+01 1.602966e+01 6.349262e+00 1.457408e-01 2.437250e-01 1.039624e+00 1.069532e+00 1.098684e+00 1.110077e+00 1.585478e+00 1.123247e+00 1.031286e+00 1.364287e+00 1.592577e+00 7.570787e-01 1.710774e-01 2.354782e-02 4.585214e-02 9.151097e-02 1.898976e-01 2.163807e-01 2.103691e-01 3.163949e-01 2.571300e-01 1.789130e-01 2.995856e-01 3.302337e-01 1.491029e-01 1.749012e-02
<GCONST> 7.589774e+01
<STATE> 6
<MEAN> 39
 -7.336857e+00 -5.442769e+00 1.185731e+01 -1.503882e+00 -7.273298e+00 -6.253351e+00 -1.134316e+01 -5.609317e+00 -1.372339e+01 -8.420746e+00 1.755031e-01 -4.172808e+00 6.598812e+01 1.655772e-01 -3.268840e-01 -1.818639e+00 2.204664e-01 6.459942e-01 2.748832e-01 1.433598e+00 6.438877e-02 6.630331e-01 5.121851e-01 -4.579142e-01 -2.061169e-01 -8.307408e-01 -1.066807e-02 -3.839005e-02 -9.328175e-02 2.166647e-02 -3.168322e-02 3.113388e-03 1.234101e-01 6.831850e-02 4.437845e-02 -6.813521e-03 -2.612577e-02 -3.964024e-02 -2.680349e-02
<VARIANCE> 39
 1.861575e+00 7.066228e+00 2.592332e+01 8.164452e+00 1.625607e+01 1.617058e+01 2.357585e+01 1.331074e+01 1.602861e+01 1.837203e+01 1.927146e+01 1.452277e+01 4.984228e+00 1.468891e-01 2.824763e-01 7.056804e-01 5.423045e-01 1.010293e+00 1.057461e+00 1.892154e+00 1.108349e+00 8.668234e-01 1.526733e+00 1.400808e+00 9.558919e-01 1.102871e-01 2.770218e-02 4.496751e-02 1.091988e-01 1.119124e-01 2.060344e-01 1.914207e-01 3.622634e-01 2.188601e-01 1.525036e-01 2.882508e-01 2.872184e-01 1.580185e-01 1.727469e-02
<GCONST> 7.175066e+01
<STATE> 7
<MEAN> 39
 -6.586365e+00 -7.187660e+00 4.281627e+00 -8.961809e-01 -5.125633e+00 -5.162487e+00 -4.934970e+00 -5.190774e+00 -1.054429e+01 -6.650812e+00 -1.355260e+00 -5.089092e+00 6.254967e+01 8.435901e-02 -4.614874e-01 -1.827483e+00 2.664719e-01 6.551026e-01 1.571373e-01 1.531633e+00 2.539580e-01 5.973683e-01 6.066927e-01 -4.580741e-01 -2.021296e-01 -8.654917e-01 -5.453182e-02 -4.977171e-03 2.168579e-01 4.269434e-03 2.113685e-02 -1.005794e-01 -2.448279e-01 2.037227e-02 -1.206315e-01 -2.872749e-02 4.069470e-02 -1.228808e-02 7.066405e-02
<VARIANCE> 39
 2.012159e+00 4.430874e+00 1.595058e+01 7.509323e+00 1.460156e+01 1.310207e+01 2.569503e+01 1.259699e+01 1.065708e+01 1.546330e+01 1.399487e+01 1.353450e+01 3.374519e+00 1.381434e-01 3.861099e-01 5.276110e-01 5.923017e-01 1.429174e+00 1.178793e+00 1.698167e+00 1.036202e+00 8.552948e-01 1.603860e+00 1.332911e+00 8.914983e-01 1.256635e-01 3.162864e-02 5.409284e-02 1.017828e-01 1.328398e-01 2.967446e-01 1.790356e-01 3.649290e-01 1.995653e-01 1.224598e-01 2.698388e-01 2.182247e-01 1.753671e-01 2.218114e-02
<GCONST> 6.994562e+01
<STATE> 8
<MEAN> 39
 -6.750421e+00 -8.569520e+00 -3.627046e-01 8.950114e-03 -2.842047e+00 -5.449324e+00 -1.484863e+00 -4.469216e+00 -9.040636e+00 -5.470381e+00 -3.086566e+00 -5.934648e+00 6.033696e+01 -6.813771e-02 -2.998652e-01 -1.052147e+00 3.103801e-01 5.324225e-01 -1.650562e-01 6.551859e-01 1.913440e-01 2.669004e-01 2.816358e-01 -4.789709e-01 -3.497642e-01 -5.120002e-01 -2.085837e-02 7.442243e-02 2.280393e-01 1.949314e-02 -1.023308e-01 -6.856849e-02 -2.128508e-01 -2.862524e-02 -5.991673e-02 -1.064654e-01 1.023414e-02 -4.427435e-03 1.188440e-01
<VARIANCE> 39
 1.520466e+00 2.907908e+00 8.145483e+00 7.294627e+00 1.021520e+01 9.877424e+00 1.730045e+01 1.415922e+01 9.697293e+00 1.478245e+01 1.606719e+01 1.127122e+01 1.845331e+00 1.515203e-01 3.633568e-01 6.530061e-01 7.623703e-01 1.516758e+00 1.196640e+00 1.690506e+00 1.431296e+00 7.277628e-01 1.590138e+00 1.495939e+00 1.034742e+00 1.691354e-01 2.972947e-02 7.189900e-02 8.893797e-02 1.428294e-01 2.604648e-01 2.279944e-01 3.154006e-01 2.541224e-01 1.423510e-01 2.918330e-01 3.144226e-01 2.102571e-01 2.738613e-02
<GCONST> 6.947235e+01
<STATE> 9
<MEAN> 39
 -6.746323e+00 -9.201970e+00 -3.062095e+00 1.366732e+00 -1.580528e+00 -6.947045e+00 -1.714728e-01 -3.724617e+00 -8.038642e+00 -4.922912e+00 -4.862068e+00 -6.668547e+00 5.892091e+01 6.554215e-03 -6.034561e-02 -1.958743e-01 9.483691e-02 7.793586e-02 -1.239000e-01 5.883996e-02 3.107390e-02 4.021478e-02 3.772415e-02 -1.277053e-01 -4.744220e-02 -1.370694e-01 6.034678e-03 2.262045e-02 7.539554e-02 -1.757262e-02 -3.022377e-02 1.795492e-02 -4.225285e-02 -8.052934e-03 -2.847502e-02 -1.488314e-02 3.345653e-02 2.471907e-02 2.383132e-02
<VARIANCE> 39
 1.610875e+00 3.084138e+00 5.111811e+00 7.363482e+00 9.592686e+00 9.384891e+00 1.307958e+01 1.236136e+01 1.102044e+01 1.457557e+01 1.326521e+01 1.070635e+01 1.267080e+00 1.804523e-01 3.327723e-01 6.037901e-01 8.046787e-01 1.088096e+00 9.915273e-01 1.569340e+00 1.352835e+00 1.195045e+00 1.664161e+00 1.539800e+00 1.113697e+00 1.163817e-01 3.592966e-02 6.907146e-02 1.174915e-01 1.637823e-01 2.318251e-01 1.976205e-01 3.272965e-01 2.807896e-01 2.433366e-01 3.449825e-01 3.120413e-01 2.133429e-01 2.488080e-02
<GCONST> 6.883585e+01
<STATE> 10
<MEAN> 39
 -6.646934e+00 -8.976734e+00 -3.731846e+00 1.529261e+00 -1.337812e+00 -6.733062e+00 -3.995470e-01 -3.698090e+00 -8.504794e+00 -4.436353e+00 -5.117246e+00 -6.552400e+00 5.664765e+01 -1.493813e-02 3.296177e-02 -3.954037e-02 1.808769e-02 -1.410722e-02 2.182580e-02 -3.926364e-02 1.733593e-02 -1.921943e-02 3.636075e-02 -3.396538e-02 1.664218e-02 -2.549986e-01 -3.747603e-03 2.813934e-03 5.156920e-03 -1.297598e-03 -5.036745e-03 8.870582e-03 -1.089717e-02 -2.748326e-03 6.188294e-04 -1.189188e-03 3.685884e-03 4.139943e-03 -1.337666e-02
<VARIANCE> 39
 1.385359e+00 3.074381e+00 4.836952e+00 6.332983e+00 8.014105e+00 8.520956e+00 1.150400e+01 1.216724e+01 1.267972e+01 1.422568e+01 1.189590e+01 1.213281e+01 5.797508e+00 1.404997e-01 2.514290e-01 5.122573e-01 6.990178e-01 9.137964e-01 9.937925e-01 1.419491e+00 1.414190e+00 1.455411e+00 1.599167e+00 1.343701e+00 1.334474e+00 1.203140e-01 2.872355e-02 5.172601e-02 1.059746e-01 1.433007e-01 1.927031e-01 2.043006e-01 3.088525e-01 3.048603e-01 3.098502e-01 3.431856e-01 2.831989e-01 2.700321e-01 1.796221e-02
<GCONST> 6.805128e+01
<STATE> 11
<MEAN> 39
 -8.294215e+00 -6.266426e+00 -5.998035e+00 4.989536e+00 -3.544265e+00 -3.225596e+00 -2.182931e+00 -1.453197e+00 -9.506935e+00 -3.304123e+00 -5.277453e+00 -6.221303e+00 4.503058e+01 -2.285599e-02 3.204893e-02 -3.407582e-02 4.266348e-02 -2.907259e-02 3.991866e-02 -2.198086e-02 3.128226e-02 -3.271002e-03 1.722889e-02 1.317023e-02 1.461147e-02 -1.142265e-01 -4.564980e-04 -1.621859e-03 -7.582330e-04 -3.660185e-03 2.990660e-03 6.617583e-05 5.325506e-03 -6.504974e-04 4.945890e-03 -7.940606e-04 1.447415e-03 -1.158724e-03 7.195686e-03
<VARIANCE> 39
 1.823155e+00 3.860275e+00 5.968414e+00 7.974732e+00 9.722705e+00 1.048414e+01 1.184866e+01 1.309129e+01 1.252672e+01 1.312107e+01 1.248902e+01 1.093973e+01 1.051718e+01 1.464038e-01 2.860333e-01 5.332435e-01 7.356495e-01 9.842595e-01 1.025869e+00 1.305654e+00 1.448886e+00 1.399304e+00 1.469358e+00 1.395604e+00 1.250924e+00 7.672375e-02 3.077896e-02 5.958375e-02 1.097815e-01 1.540810e-01 2.071560e-01 2.123765e-01 2.728798e-01 3.079661e-01 2.903526e-01 3.062165e-01 2.908913e-01 2.604529e-01 1.323936e-02
<GCONST> 6.947512e+01
<TRANSP> 12
 0.000000e+00 1.000000e+00 0.000000e+00 0.000000e+00 0.000000e+00 0.000000e+00 0.000000e+00 0.000000e+00 0.000000e+00 0.000000e+00 0.000000e+00 0.000000e+00
 0.000000e+00 9.592653e-01 4.073470e-02 0.000000e+00 0.000000e+00 0.000000e+00 0.000000e+00 0.000000e+00 0.000000e+00 0.000000e+00 0.000000e+00 0.000000e+00
 0.000000e+00 0.000000e+00 7.940270e-01 2.059730e-01 0.000000e+00 0.000000e+00 0.000000e+00 0.000000e+00 0.000000e+00 0.000000e+00 0.000000e+00 0.000000e+00
 0.000000e+00 0.000000e+00 0.000000e+00 9.426896e-01 5.731037e-02 0.000000e+00 0.000000e+00 0.000000e+00 0.000000e+00 0.000000e+00 0.000000e+00 0.000000e+00
 0.000000e+00 0.000000e+00 0.000000e+00 0.000000e+00 8.657412e-01 1.342588e-01 0.000000e+00 0.000000e+00 0.000000e+00 0.000000e+00 0.000000e+00 0.000000e+00
 0.000000e+00 0.000000e+00 0.000000e+00 0.000000e+00 0.000000e+00 7.627776e-01 2.372224e-01 0.000000e+00 0.000000e+00 0.000000e+00 0.000000e+00 0.000000e+00
 0.000000e+00 0.000000e+00 0.000000e+00 0.000000e+00 0.000000e+00 0.000000e+00 5.938336e-01 4.061664e-01 0.000000e+00 0.000000e+00 0.000000e+00 0.000000e+00
 0.000000e+00 0.000000e+00 0.000000e+00 0.000000e+00 0.000000e+00 0.000000e+00 0.000000e+00 6.520322e-01 3.479678e-01 0.000000e+00 0.000000e+00 0.000000e+00
 0.000000e+00 0.000000e+00 0.000000e+00 0.000000e+00 0.000000e+00 0.000000e+00 0.000000e+00 0.000000e+00 9.039505e-01 9.604955e-02 0.000000e+00 0.000000e+00
 0.000000e+00 0.000000e+00 0.000000e+00 0.000000e+00 0.000000e+00 0.000000e+00 0.000000e+00 0.000000e+00 0.000000e+00 9.534387e-01 4.656129e-02 0.000000e+00
 0.000000e+00 0.000000e+00 0.000000e+00 0.000000e+00 0.000000e+00 0.000000e+00 0.000000e+00 0.000000e+00 0.000000e+00 0.000000e+00 9.889101e-01 1.108987e-02
 0.000000e+00 0.000000e+00 0.000000e+00 0.000000e+00 0.000000e+00 0.000000e+00 0.000000e+00 0.000000e+00 0.000000e+00 0.000000e+00 0.000000e+00 0.000000e+00
<ENDHMM>
~h "ONE"
<BEGINHMM>
<NUMSTATES> 12
<STATE> 2
<MEAN> 39
 -7.091556e-01 -5.867146e+00 -9.561447e+00 -1.509068e+01 -3.480300e+00 -1.156395e+00 3.684069e+00 -6.489145e+00 -3.889436e+00 -1.836570e+01 -1.700653e+00 -1.621842e+00 7.291821e+01 -6.994566e-02 -2.141707e-01 -2.379701e-01 1.906300e-01 4.521459e-01 -3.161579e-02 -3.366339e-02 6.309365e-02 -2.372082e-03 1.923707e-01 3.059116e-02 -2.440216e-01 2.773184e-01 -4.145478e-02 -3.351054e-02 3.914546e-02 2.366722e-01 1.021587e-01 -7.202986e-02 1.984763e-03 -3.856990e-02 -1.134220e-01 1.426641e-01 -1.027478e-01 -5.723791e-02 -1.318548e-01
<VARIANCE> 39
 3.875419e+00 2.457616e+01 4.609666e+01 4.978506e+01 6.757692e+01 5.437184e+01 8.157795e+01 3.059512e+01 2.806019e+01 3.727158e+01 2.492537e+01 4.503792e+01 1.048280e+01 2.241331e-01 9.294163e-01 2.909461e+00 5.133789e+00 3.570187e+00 3.145679e+00 6.181454e+00 3.128330e+00 3.651201e+00 3.440443e+00 2.906729e+00 2.885448e+00 8.893153e-01 4.640448e-02 1.455067e-01 2.936343e-01 3.396612e-01 5.192319e-01 3.883916e-01 8.601032e-01 5.931810e-01 6.307104e-01 4.272957e-01 5.620189e-01 4.640429e-01 2.312881e-02
<GCONST> 1.113861e+02
<STATE> 3
<MEAN> 39
 -1.439337e+00 -6.417284e+00 -3.213578e+00 2.387043e+00 1.721171e+00 -9.310681e+00 -7.205146e+00 -6.745853e+00 -8.990308e+00 -6.723980e+00 -6.579708e+00 -8.402343e+00 6.937051e+01 -1.255273e-01 -1.468244e-01 8.677706e-01 1.942054e+00 4.654127e-01 -3.358680e-01 -3.871416e-01 -6.005978e-01 -5.894439e-01 1.196450e+00 -1.176521e+00 4.055831e-01 -7.802302e-01 -6.465968e-02 -9.875580e-02 -1.470487e-01 -4.303314e-01 6.092254e-02 2.511737e-01 2.455621e-01 8.626518e-02 1.900193e-01 -2.055291e-01 2.095611e-01 1.203032e-01 3.275563e-02
<VARIANCE> 39
 2.945720e+00 6.777233e+00 1.626736e+01 5.587582e+01 1.239392e+01 2.218969e+01 2.368502e+01 1.829926e+01 3.827078e+01 2.125729e+01 2.500477e+01 1.719439e+01 5.245361e+00 1.745589e-01 6.061793e-01 8.108318e-01 2.217882e+00 8.201864e-01 1.623687e+00 1.657808e+00 1.837534e+00 2.272873e+00 1.232377e+00 2.608504e+00 1.562461e+00 1.178222e-01 2.367923e-02 1.034066e-01 1.248640e-01 3.905671e-01 1.287439e-01 2.661589e-01 2.363635e-01 3.446011e-01 5.290058e-01 2.057687e-01 6.268159e-01 2.305462e-01 1.616571e-02
<GCONST> 8.444066e+01
<STATE> 4
<MEAN> 39
 -2.533382e+00 -6.567351e+00 -4.243798e-01 7.008329e+00 4.324919e+00 -1.078562e+01 -6.585784e+00 -8.621924e+00 -1.145181e+01 -2.336759e+00 -1.075306e+01 -6.355655e+00 6.561273e+01 -2.233551e-01 -5.476946e-02 2.153341e-01 4.125155e-01 1.784391e-01 1.613096e-01 4.666811e-01 -6.867246e-02 5.630661e-02 1.804953e-01 -1.743768e-01 2.475306e-01 -6.469393e-01 -1.278993e-02 3.955761e-02 -1.021812e-01 -2.125901e-01 -1.038018e-01 9.124744e-02 1.082157e-01 1.423909e-01 1.387781e-01 -1.511458e-01 1.936267e-01 -8.974267e-02 4.977421e-04
<VARIANCE> 39
 2.544218e+00 2.894011e+00 5.424929e+00 1.767618e+01 1.115077e+01 1.335126e+01 1.798827e+01 1.396075e+01 2.067656e+01 1.745136e+01 2.864072e+01 1.440077e+01 5.526009e+00 1.571513e-01 3.048008e-01 6.319456e-01 1.210307e+00 8.110566e-01 1.077108e+00 9.676958e-01 1.112315e+00 1.260937e+00 1.383906e+00 2.181880e+00 1.224177e+00 1.086708e-01 2.592978e-02 5.435937e-02 8.880209e-02 2.397017e-01 1.250212e-01 1.975657e-01 1.690389e-01 1.735714e-01 2.285619e-01 1.997475e-01 3.791676e-01 2.335005e-01 1.634351e-02
<GCONST> 7.106864e+01
<STATE> 5
<MEAN> 39
 -3.664884e+00 -6.601107e+00 -2.818842e-01 7.817266e+00 2.960397e+00 -8.008233e+00 -3.280752e+00 -7.308950e+00 -9.915404e+00 -3.553803e+00 -8.399662e+00 -6.260799e+00 6.260708e+01 -3.301380e-01 -3.869684e-02 -6.530488e-02 -2.642238e-01 -1.470972e-01 3.805732e-01 6.759820e-01 4.036405e-01 3.392071e-01 -2.948092e-02 1.587732e-01 -3.879496e-02 -6.376054e-01 -2.314501e-02 -4.407682e-02 -7.992364e-02 -1.273222e-01 -5.229543e-02 -4.765103e-03 -2.334000e-02 6.938496e-02 1.691385e-02 -1.865888e-02 3.521802e-02 -4.359797e-02 3.115061e-02
<VARIANCE> 39
 2.973612e+00 3.951432e+00 4.734484e+00 1.512550e+01 9.692082e+00 1.223805e+01 1.890441e+01 1.398282e+01 2.023663e+01 1.168878e+01 2.001388e+01 9.882772e+00 6.552967e+00 1.505277e-01 3.436027e-01 4.737279e-01 9.920103e-01 9.647903e-01 1.083035e+00 1.357770e+00 1.168134e+00 1.320064e+00 1.393366e+00 1.541469e+00 1.205131e+00 1.161300e-01 2.795104e-02 6.298730e-02 7.681514e-02 1.574858e-01 1.812726e-01 1.800037e-01 2.350118e-01 2.026439e-01 2.391391e-01 2.899804e-01 2.777440e-01 2.490587e-01 1.895389e-02
<GCONST> 7.073313e+01
<STATE> 6
<MEAN> 39
 -6.611425e+00 -8.507944e+00 -2.386123e+00 3.785713e+00 8.589912e-01 -6.115849e+00 -8.907801e-02 -4.007401e+00 -7.345650e+00 -4.336809e+00 -6.318762e+00 -6.483927e+00 5.879092e+01 -2.656838e-01 -2.286723e-01 -2.129698e-01 -4.340931e-01 -2.149285e-01 6.847919e-02 1.973749e-01 1.976076e-01 8.337152e-02 -3.395148e-02 2.349792e-01 -2.247931e-02 -3.097074e-01 3.010902e-02 1.496702e-02 2.223194e-02 2.529129e-02 1.139783e-02 -4.712875e-02 -6.154072e-02 -6.092966e-02 -5.168595e-02 7.888510e-03 -1.702096e-02 1.727048e-02 2.870824e-02
<VARIANCE> 39
 4.294666e+00 5.398567e+00 5.888719e+00 1.305661e+01 1.066970e+01 1.005154e+01 1.360183e+01 1.614478e+01 1.352889e+01 1.485640e+01 1.590919e+01 1.604010e+01 3.559881e+00 2.680826e-01 3.796195e-01 5.171584e-01 8.265054e-01 1.066051e+00 1.103633e+00 1.444718e+00 1.604887e+00 1.498979e+00 1.640149e+00 1.618733e+00 1.561223e+00 1.148646e-01 5.355136e-02 7.457581e-02 9.921849e-02 1.570921e-01 2.248192e-01 2.252132e-01 2.986082e-01 3.289975e-01 3.118496e-01 3.379910e-01 3.236165e-01 3.157305e-01 1.648591e-02
<GCONST> 7.525201e+01
<STATE> 7
<MEAN> 39
 -7.736521e+00 -8.934349e+00 -3.500994e+00 1.502761e+00 -4.196439e-01 -5.973665e+00 4.712140e-01 -3.847618e+00 -7.630370e+00 -4.251199e+00 -5.365009e+00 -6.374503e+00 5.639388e+01 -7.068866e-02 -2.045520e-04 -5.409234e-02 -6.036281e-02 -6.704368e-02 3.626733e-02 -1.293511e-02 -2.669689e-02 -2.914828e-02 3.352255e-02 4.052379e-02 1.693477e-02 -2.381336e-01 8.371388e-03 1.026274e-02 5.720353e-03 2.590346e-02 4.562523e-03 5.163282e-03 -1.113804e-02 -4.544260e-03 -9.219265e-03 6.587130e-03 -1.091841e-02 -3.557184e-04 -1.140443e-02
<VARIANCE> 39
 2.581692e+00 3.860372e+00 4.924745e+00 5.970596e+00 9.888490e+00 8.449865e+00 1.091208e+01 1.327304e+01 1.362787e+01 1.365280e+01 1.299780e+01 1.179886e+01 3.868488e+00 2.294537e-01 3.588180e-01 5.315057e-01 7.239905e-01 1.013589e+00 9.117233e-01 1.391395e+00 1.355358e+00 1.592604e+00 1.581211e+00 1.468609e+00 1.345741e+00 1.259012e-01 4.739618e-02 7.307426e-02 1.131863e-01 1.539906e-01 2.052400e-01 1.834371e-01 3.031407e-01 2.821646e-01 3.227589e-01 3.273195e-01 3.066010e-01 2.824449e-01 1.838523e-02
<GCONST> 7.086265e+01
<STATE> 8
<MEAN> 39
 -8.428119e+00 -8.680860e+00 -4.004252e+00 1.688664e+00 -1.374555e+00 -5.084469e+00 -2.028834e-01 -4.390604e+00 -8.448490e+00 -3.340189e+00 -5.289449e+00 -6.528656e+00 5.195371e+01 -5.328317e-02 3.286545e-02 -7.848285e-02 8.892098e-02 -1.683069e-01 7.946487e-02 -5.519108e-02 6.352578e-02 -7.652822e-02 1.042857e-01 -2.091232e-02 -1.017546e-04 -4.616598e-01 -5.287332e-04 1.559854e-02 3.116806e-03 1.050166e-02 6.087168e-03 8.631172e-03 2.082382e-02 3.173756e-02 1.235917e-02 -4.324156e-03 1.345500e-02 4.105175e-03 1.330302e-02
<VARIANCE> 39
 1.899433e+00 2.959938e+00 4.559433e+00 5.692128e+00 9.395988e+00 8.462752e+00 1.235685e+01 1.428251e+01 1.221152e+01 1.581590e+01 1.422853e+01 1.049963e+01 6.590333e+00 1.732455e-01 2.523226e-01 4.782591e-01 6.240618e-01 7.575098e-01 8.279147e-01 1.392303e+00 1.321885e+00 1.129033e+00 1.638597e+00 1.408240e+00 1.196386e+00 8.808392e-02 3.821686e-02 5.112439e-02 1.028246e-01 1.321093e-01 1.524636e-01 1.633944e-01 3.053238e-01 2.483689e-01 2.215635e-01 3.631365e-01 2.805270e-01 2.399429e-01 1.385296e-02
<GCONST> 6.657045e+01
<STATE> 9
<MEAN> 39
 -8.838681e+00 -7.869363e+00 -4.610827e+00 2.503686e+00 -2.179478e+00 -4.372081e+00 -8.396252e-01 -3.378182e+00 -8.931012e+00 -2.513824e+00 -5.413934e+00 -6.426095e+00 4.837119e+01 -3.204733e-02 1.115497e-01 -4.842884e-02 9.023075e-02 -3.311558e-02 1.124707e-01 -7.426263e-02 1.322022e-01 -6.349818e-02 6.987680e-03 2.885965e-02 -7.808086e-03 -2.871789e-01 7.513420e-03 6.528941e-03 -6.554555e-03 3.757176e-03 1.401153e-02 -4.876105e-03 -2.817216e-02 -1.285719e-02 1.255735e-02 -2.069087e-02 -7.700865e-03 5.617096e-04 1.800437e-02
<VARIANCE> 39
 3.185229e+00 3.185329e+00 4.883735e+00 7.141505e+00 9.747903e+00 1.016898e+01 1.252289e+01 1.286281e+01 1.289548e+01 1.357016e+01 1.429964e+01 1.026610e+01 2.634831e+00 2.279882e-01 2.969241e-01 5.509014e-01 7.690846e-01 9.392798e-01 1.007602e+00 1.294162e+00 1.247663e+00 1.396045e+00 1.381276e+00 1.317128e+00 9.606279e-01 7.907875e-02 4.635807e-02 6.021250e-02 1.164165e-01 1.510635e-01 1.813594e-01 2.017637e-01 2.627606e-01 2.199373e-01 2.806795e-01 3.108256e-01 2.592458e-01 1.946091e-01 1.390146e-02
<GCONST> 6.779197e+01
<STATE> 10
<MEAN> 39
 -9.014961e+00 -7.186229e+00 -5.105502e+00 3.459073e+00 -2.270872e+00 -3.571006e+00 -1.430126e+00 -2.777121e+00 -8.698340e+00 -2.748114e+00 -5.718634e+00 -6.119235e+00 4.673777e+01 -3.329154e-02 6.791425e-02 -7.354833e-02 1.148956e-01 1.257920e-02 5.306782e-02 -9.351546e-02 5.521732e-02 3.928547e-02 -3.655121e-02 -7.163369e-02 4.487520e-02 -1.873811e-01 -1.853480e-03 -3.405449e-03 9.548290e-03 -8.693808e-04 3.179479e-03 -3.607497e-03 1.340915e-02 -7.760288e-03 4.849736e-03 1.121124e-02 -1.066911e-02 2.574670e-03 1.033940e-02
<VARIANCE> 39
 3.065220e+00 3.052880e+00 6.255487e+00 6.849455e+00 8.676126e+00 9.872411e+00 1.228117e+01 1.401731e+01 1.260819e+01 1.483087e+01 1.363620e+01 1.070566e+01 1.641169e+00 1.767462e-01 2.984994e-01 5.889001e-01 7.525849e-01 9.121318e-01 1.002247e+00 1.336031e+00 1.408269e+00 1.367124e+00 1.475538e+00 1.261595e+00 1.148314e+00 7.884174e-02 3.643481e-02 6.158071e-02 1.192507e-01 1.521973e-01 1.835586e-01 2.052630e-01 2.748334e-01 2.871933e-01 2.639094e-01 3.059411e-01 2.449955e-01 2.420235e-01 1.409876e-02
<GCONST> 6.776832e+01
<STATE> 11
<MEAN> 39
 -9.927824e+00 -5.596773e+00 -5.505841e+00 5.825726e+00 -3.156655e+00 -2.268911e+00 -2.026057e+00 -1.367081e+00 -8.801966e+00 -2.617387e+00 -5.753815e+00 -6.275903e+00 4.296938e+01 -8.083771e-03 2.146139e-02 -3.383125e-03 2.233964e-02 -6.561094e-03 2.367155e-02 -1.194661e-03 1.026605e-02 -6.226950e-03 2.516204e-03 7.127493e-03 1.277718e-03 -3.783074e-02 -2.565598e-03 -1.121212e-03 1.831368e-03 -2.066146e-03 2.459952e-03 -7.987537e-04 1.138298e-03 -3.021075e-03 1.108366e-03 -2.266638e-03 2.148336e-03 -3.515903e-04 4.444101e-03
<VARIANCE> 39
 2.647656e+00 3.729877e+00 6.101250e+00 7.196460e+00 1.046058e+01 1.012734e+01 1.302506e+01 1.439392e+01 1.330311e+01 1.396145e+01 1.324180e+01 1.148847e+01 3.791549e+00 1.433635e-01 3.125150e-01 5.429880e-01 7.170585e-01 1.081980e+00 1.104035e+00 1.386720e+00 1.440472e+00 1.453616e+00 1.467289e+00 1.420554e+00 1.239004e+00 7.446594e-02 2.943648e-02 6.547430e-02 1.106518e-01 1.513899e-01 2.251011e-01 2.330179e-01 2.901663e-01 3.071385e-01 3.077714e-01 2.973942e-01 2.915152e-01 2.540878e-01 1.385223e-02
<GCONST> 6.979436e+01
<TRANSP> 12
 0.000000e+00 1.000000e+00 0.000000e+00 0.000000e+00 0.000000e+00 0.000000e+00 0.000000e+00 0.000000e+00 0.000000e+00 0.000000e+00 0.000000e+00 0.000000e+00
 0.000000e+00 9.579319e-01 4.206810e-02 0.000000e+00 0.000000e+00 0.000000e+00 0.000000e+00 0.000000e+00 0.000000e+00 0.000000e+00 0.000000e+00 0.000000e+00
 0.000000e+00 0.000000e+00 6.539162e-01 3.460838e-01 0.000000e+00 0.000000e+00 0.000000e+00 0.000000e+00 0.000000e+00 0.000000e+00 0.000000e+00 0.000000e+00
 0.000000e+00 0.000000e+00 0.000000e+00 8.134010e-01 1.865990e-01 0.000000e+00 0.000000e+00 0.000000e+00 0.000000e+00 0.000000e+00 0.000000e+00 0.000000e+00
 0.000000e+00 0.000000e+00 0.000000e+00 0.000000e+00 8.431573e-01 1.568427e-01 0.000000e+00 0.000000e+00 0.000000e+00 0.000000e+00 0.000000e+00 0.000000e+00
 0.000000e+00 0.000000e+00 0.000000e+00 0.000000e+00 0.000000e+00 8.721036e-01 1.278964e-01 0.000000e+00 0.000000e+00 0.000000e+00 0.000000e+00 0.000000e+00
 0.000000e+00 0.000000e+00 0.000000e+00 0.000000e+00 0.000000e+00 0.000000e+00 9.502862e-01 4.971377e-02 0.000000e+00 0.000000e+00 0.000000e+00 0.000000e+00
 0.000000e+00 0.000000e+00 0.000000e+00 0.000000e+00 0.000000e+00 0.000000e+00 0.000000e+00 8.684801e-01 1.315199e-01 0.000000e+00 0.000000e+00 0.000000e+00
 0.000000e+00 0.000000e+00 0.000000e+00 0.000000e+00 0.000000e+00 0.000000e+00 0.000000e+00 0.000000e+00 8.644056e-01 1.355944e-01 0.000000e+00 0.000000e+00
 0.000000e+00 0.000000e+00 0.000000e+00 0.000000e+00 0.000000e+00 0.000000e+00 0.000000e+00 0.000000e+00 0.000000e+00 8.828194e-01 1.171806e-01 0.000000e+00
 0.000000e+00 0.000000e+00 0.000000e+00 0.000000e+00 0.000000e+00 0.000000e+00 0.000000e+00 0.000000e+00 0.000000e+00 0.000000e+00 9.903629e-01 9.637053e-03
 0.000000e+00 0.000000e+00 0.000000e+00 0.000000e+00 0.000000e+00 0.000000e+00 0.000000e+00 0.000000e+00 0.000000e+00 0.000000e+00 0.000000e+00 0.000000e+00
<ENDHMM>
~h "SIL"
<BEGINHMM>
<NUMSTATES> 12
<STATE> 2
<MEAN> 39
 -1.261012e+01 -2.612835e+00 -9.158741e+00 3.614445e+00 -1.680050e+00 -3.229020e-01 -1.008132e+00 -1.577409e+00 -5.724549e+00 -2.181442e+00 -3.242013e+00 -4.089861e+00 4.174181e+01 7.599458e-01 -5.036762e-01 2.385568e-01 -1.431265e-01 3.125449e-01 -5.540285e-01 2.039997e-01 -2.441036e-01 -4.265813e-01 -5.077360e-02 -2.547699e-01 -2.988094e-01 1.617530e+00 1.494495e-02 -1.128651e-01 1.980595e-01 4.417980e-02 -5.722181e-02 -8.960725e-02 -9.847101e-03 2.102421e-02 -5.898900e-02 -3.941710e-02 -6.049733e-02 -5.635762e-02 4.940826e-02
<VARIANCE> 39
 4.053870e+01 1.672570e+01 1.722097e+01 1.106330e+01 1.484019e+01 2.282597e+01 1.294569e+01 1.660955e+01 2.457849e+01 1.537607e+01 1.724232e+01 1.505666e+01 1.070099e+02 3.702119e+00 1.280026e+00 1.493191e+00 1.059489e+00 1.630381e+00 1.735033e+00 1.426797e+00 2.018772e+00 2.641928e+00 1.831502e+00 1.737958e+00 1.440885e+00 3.942975e+00 6.094611e-01 1.998279e-01 2.259777e-01 1.966804e-01 3.170620e-01 3.043041e-01 2.620010e-01 4.159116e-01 4.654084e-01 3.491745e-01 3.313303e-01 2.766129e-01 7.708434e-01
<GCONST> 1.045466e+02
<STATE> 3
<MEAN> 39
 -9.520709e+00 -6.469977e+00 -5.483272e+00 3.525087e+00 -1.530864e+00 -3.523806e+00 -7.084211e-01 -2.101377e+00 -8.273412e+00 -2.979243e+00 -4.990777e+00 -6.096907e+00 4.770513e+01 1.220624e-01 -4.905680e-01 7.049772e-01 2.249573e-02 -7.791054e-02 -3.874604e-01 -2.320968e-04 -5.083908e-02 -1.734679e-01 -1.493858e-01 -2.146889e-01 -2.705768e-01 5.347792e-01 4.583184e-03 8.481821e-02 -1.700727e-01 -6.898418e-02 2.162577e-02 5.474951e-02 -3.136801e-03 6.388311e-03 4.200315e-02 1.537476e-02 3.816996e-02 6.139892e-02 -9.871928e-02
<VARIANCE> 39
 4.022477e+00 6.728502e+00 8.231515e+00 1.040325e+01 1.039842e+01 1.167155e+01 1.358311e+01 1.592323e+01 1.510268e+01 1.549609e+01 1.285054e+01 1.197062e+01 1.531077e+01 3.418387e-01 8.281770e-01 1.290013e+00 9.612880e-01 1.382244e+00 1.325649e+00 1.373612e+00 2.009671e+00 1.817242e+00 1.696433e+00 1.579923e+00 1.404599e+00 7.294215e-01 6.864727e-02 1.468958e-01 2.099053e-01 2.094197e-01 2.598931e-01 2.495088e-01 2.740399e-01 4.107211e-01 3.732142e-01 3.385355e-01 3.101822e-01 2.692748e-01 7.193334e-02
<GCONST> 8.517776e+01
<STATE> 4
<MEAN> 39
 -8.840642e+00 -7.853815e+00 -4.532611e+00 2.520256e+00 -1.797399e+00 -4.632936e+00 -4.315031e-01 -2.493225e+00 -8.765630e+00 -3.390064e+00 -5.373765e+00 -6.659182e+00 4.962146e+01 2.250239e-02 -3.558852e-02 4.148225e-02 -2.936085e-02 -7.553892e-04 -4.526816e-02 1.899938e-02 -2.374260e-02 -7.286598e-03 -3.181426e-02 -3.369407e-03 -2.156283e-02 1.154575e-01 -6.894104e-03 1.694134e-02 -2.428682e-02 -5.601624e-04 4.872228e-03 1.350518e-02 -4.287855e-03 2.170016e-03 9.252889e-03 5.671157e-03 1.049861e-02 1.293350e-02 -1.642117e-02
<VARIANCE> 39
 2.010748e+00 4.519525e+00 5.224154e+00 8.589940e+00 8.736222e+00 1.103417e+01 1.263359e+01 1.386440e+01 1.381635e+01 1.364037e+01 1.270907e+01 1.146901e+01 1.516188e+01 1.657540e-01 3.166813e-01 5.250587e-01 7.082130e-01 8.918209e-01 1.077331e+00 1.336275e+00 1.450021e+00 1.467154e+00 1.476728e+00 1.436225e+00 1.279236e+00 1.626916e-01 3.475939e-02 6.771771e-02 1.140766e-01 1.461302e-01 1.825935e-01 2.267181e-01 2.731858e-01 3.010499e-01 3.037074e-01 3.093830e-01 3.006313e-01 2.655278e-01 1.746606e-02
<GCONST> 7.184370e+01
<STATE> 5
<MEAN> 39
 -8.542066e+00 -8.254993e+00 -4.112328e+00 2.073706e+00 -1.556903e+00 -5.479364e+00 -2.400131e-01 -2.939241e+00 -8.487275e+00 -3.996759e+00 -5.305001e+00 -6.656832e+00 5.242562e+01 2.803590e-03 -2.763307e-03 6.835466e-03 1.040360e-03 3.726456e-03 -2.190772e-03 4.017191e-03 4.687636e-03 7.187523e-03 5.428571e-03 6.291128e-03 5.401340e-03 2.196454e-02 -2.795205e-03 4.378671e-03 -1.719586e-03 1.398773e-03 2.232561e-03 1.866642e-03 2.907747e-04 2.299455e-03 1.379028e-03 -1.367907e-03 6.070123e-04 1.768504e-03 -5.506701e-04
<VARIANCE> 39
 2.212995e+00 5.656169e+00 5.610026e+00 9.839016e+00 9.570445e+00 1.278015e+01 1.274073e+01 1.555941e+01 1.468613e+01 1.511240e+01 1.305247e+01 1.177439e+01 2.456613e+01 1.485980e-01 2.898210e-01 4.961903e-01 7.157186e-01 9.877319e-01 1.140904e+00 1.344689e+00 1.475234e+00 1.509348e+00 1.530250e+00 1.439951e+00 1.222333e+00 6.798815e-02 3.083180e-02 6.076169e-02 1.028966e-01 1.492519e-01 2.070955e-01 2.413433e-01 2.822805e-01 3.083588e-01 3.140431e-01 3.196360e-01 3.033587e-01 2.542294e-01 1.176820e-02
<GCONST> 7.209107e+01
<STATE> 6
<MEAN> 39
 -9.350072e+00 -7.130840e+00 -4.359833e+00 3.040257e+00 -1.294873e+00 -4.989349e+00 -3.337830e-02 -2.337903e+00 -8.298575e+00 -3.865261e+00 -5.111131e+00 -6.178259e+00 5.090885e+01 -1.495795e-02 -3.527779e-03 -8.156778e-03 -2.219641e-02 -8.397004e-03 -8.116787e-03 -1.262838e-02 4.622297e-02 -1.236760e-02 -6.358328e-02 -1.497129e-02 3.934935e-02 2.193456e-02 -1.845465e-02 2.466260e-02 -8.361829e-03 2.038507e-02 1.375367e-02 1.617541e-02 -1.486904e-02 -5.247355e-03 -1.206945e-03 -2.471364e-02 -2.247000e-02 3.687083e-03 1.874810e-02
<VARIANCE> 39
 4.894394e+00 8.379953e+00 6.574193e+00 1.290921e+01 1.153974e+01 1.739402e+01 1.365968e+01 1.795510e+01 1.603508e+01 1.800358e+01 1.434811e+01 1.358632e+01 3.785954e+01 2.729763e-01 4.107749e-01 5.596545e-01 7.627935e-01 1.072570e+00 1.160196e+00 1.326328e+00 1.707317e+00 1.595912e+00 1.597257e+00 1.566605e+00 1.365533e+00 1.413039e-01 5.642853e-02 8.305324e-02 1.193777e-01 1.630040e-01 2.288787e-01 2.495593e-01 2.831231e-01 3.602900e-01 3.375971e-01 3.269162e-01 3.176185e-01 2.786138e-01 2.569660e-02
<GCONST> 8.020641e+01
<STATE> 7
<MEAN> 39
 -9.436945e+00 -6.996085e+00 -4.210677e+00 3.373228e+00 -1.012489e+00 -4.709256e+00 -5.728364e-03 -1.845587e+00 -8.033413e+00 -4.176047e+00 -5.277115e+00 -5.873871e+00 5.117796e+01 -7.115139e-02 2.496917e-02 -1.982953e-02 -9.410413e-03 3.729361e-02 -6.832051e-03 -9.110728e-02 3.706940e-02 -1.945986e-02 -1.322317e-01 -4.225757e-02 6.925286e-02 5.929751e-02 -2.569330e-02 5.295032e-02 -4.192295e-03 4.126245e-02 6.922608e-03 -7.338335e-03 -2.392289e-02 -3.722622e-02 4.070888e-03 -3.295704e-02 -1.604155e-02 -3.612976e-03 2.964480e-02
<VARIANCE> 39
 6.242328e+00 9.078609e+00 6.208774e+00 1.209299e+01 1.075410e+01 1.551454e+01 1.360030e+01 1.733463e+01 1.484928e+01 1.695584e+01 1.304700e+01 1.408016e+01 3.070164e+01 4.375488e-01 4.960028e-01 5.461999e-01 8.584211e-01 1.047838e+00 1.173728e+00 1.569073e+00 1.799732e+00 1.689845e+00 1.519114e+00 1.497181e+00 1.424074e+00 2.823083e-01 8.880394e-02 1.069068e-01 1.188588e-01 1.744263e-01 2.209113e-01 2.222032e-01 3.122787e-01 3.804098e-01 3.542853e-01 3.193249e-01 2.830482e-01 3.050921e-01 4.978911e-02
<GCONST> 8.286797e+01
<STATE> 8
<MEAN> 39
 -9.795797e+00 -6.632375e+00 -4.304439e+00 3.433325e+00 -1.105240e+00 -4.406967e+00 -4.286997e-01 -1.940257e+00 -8.089593e+00 -4.141294e+00 -5.263057e+00 -6.038853e+00 5.085321e+01 -1.542061e-01 1.340425e-01 -1.258142e-02 1.203900e-01 1.838417e-02 -6.124806e-02 -1.734951e-01 5.100277e-03 -6.566584e-03 -2.497709e-01 -5.248639e-02 1.005401e-01 1.448501e-01 -1.897968e-02 1.219951e-01 7.115446e-03 5.509409e-02 8.123114e-03 -7.311116e-02 1.684975e-02 -2.808372e-02 9.616880e-03 -2.308178e-03 8.402122e-03 1.915957e-02 8.270983e-02
<VARIANCE> 39
 7.075459e+00 8.177071e+00 7.085383e+00 1.099467e+01 1.006450e+01 1.536642e+01 1.513731e+01 1.818008e+01 1.550277e+01 2.016423e+01 1.355984e+01 1.451157e+01 3.149218e+01 5.216393e-01 5.474699e-01 6.718074e-01 9.366349e-01 1.039077e+00 1.196884e+00 1.625851e+00 1.780304e+00 1.610404e+00 1.715739e+00 1.425401e+00 1.465430e+00 4.664039e-01 1.140720e-01 1.471252e-01 1.492730e-01 1.894403e-01 2.468147e-01 2.636633e-01 3.539188e-01 3.882864e-01 3.423308e-01 3.638195e-01 3.199353e-01 3.229229e-01 9.222714e-02
<GCONST> 8.667414e+01
<STATE> 9
<MEAN> 39
 -1.027539e+01 -6.596168e+00 -4.352520e+00 3.628604e+00 -1.045873e+00 -4.779079e+00 -6.914508e-01 -1.816012e+00 -7.967997e+00 -4.991856e+00 -5.244075e+00 -5.794842e+00 5.217142e+01 -1.966146e-01 4.294082e-01 1.063912e-02 2.366843e-01 5.579370e-02 -2.250533e-01 -1.004636e-01 -6.741736e-02 2.400957e-03 -2.478756e-01 -5.550363e-02 8.415031e-02 3.941080e-01 -3.163989e-02 1.498125e-01 -1.132455e-02 5.631894e-04 2.916556e-02 -1.122268e-01 3.889136e-02 -4.942527e-02 2.740416e-02 2.355725e-02 3.191039e-02 3.862806e-02 1.621256e-01
<VARIANCE> 39
 1.170148e+01 7.974073e+00 7.659247e+00 1.146108e+01 1.030256e+01 1.612817e+01 1.614295e+01 1.932837e+01 1.660127e+01 1.983181e+01 1.404453e+01 1.547880e+01 3.808568e+01 9.882486e-01 9.614384e-01 9.506431e-01 9.744867e-01 1.260816e+00 1.288085e+00 1.918710e+00 1.998962e+00 1.745743e+00 1.729860e+00 1.447929e+00 1.497223e+00 7.727075e-01 1.613698e-01 2.168892e-01 1.721743e-01 2.182170e-01 2.865575e-01 3.032874e-01 3.912508e-01 3.997571e-01 3.947539e-01 3.791468e-01 3.754143e-01 3.362258e-01 1.160016e-01
<GCONST> 9.262971e+01
<STATE> 10
<MEAN> 39
 -1.097805e+01 -4.194834e+00 -4.359014e+00 4.104365e+00 -1.583357e-01 -6.649456e+00 -7.006475e-01 -2.666930e+00 -7.686250e+00 -5.793355e+00 -5.375385e+00 -5.126840e+00 5.533004e+01 -3.453203e-01 9.280332e-01 -8.155330e-02 2.176146e-01 2.834398e-01 -4.809863e-01 -1.513585e-01 -1.388361e-01 4.566541e-02 -3.928899e-01 7.797360e-02 2.762000e-01 9.948542e-01 -1.702745e-02 -3.386563e-02 -2.989578e-02 -9.792695e-02 -2.834599e-02 2.134641e-02 -1.562171e-02 4.009334e-02 4.072221e-02 -9.853363e-04 6.834392e-02 3.449760e-02 7.606403e-02
<VARIANCE> 39
 2.701977e+01 2.494871e+01 1.548065e+01 1.384784e+01 1.975845e+01 2.453339e+01 2.330373e+01 2.420381e+01 2.199220e+01 2.598639e+01 1.624899e+01 1.744874e+01 6.293304e+01 2.232787e+00 2.729517e+00 1.327588e+00 1.391947e+00 2.110340e+00 1.806964e+00 2.538341e+00 2.194882e+00 2.293907e+00 2.308552e+00 2.047022e+00 1.769255e+00 1.678251e+00 2.302390e-01 3.373137e-01 2.117148e-01 2.256384e-01 3.090859e-01 3.416199e-01 4.081896e-01 4.220057e-01 4.384645e-01 3.651930e-01 3.443676e-01 3.326444e-01 1.622995e-01
<GCONST> 1.057433e+02
<STATE> 11
<MEAN> 39
 -1.048940e+01 -4.711432e+00 -4.291908e+00 4.097813e+00 -5.097084e-01 -6.122094e+00 -1.178462e+00 -2.367136e+00 -8.057751e+00 -5.600649e+00 -5.131575e+00 -5.268169e+00 5.428137e+01 -2.014313e-01 3.703797e-01 -1.077312e-01 -8.765607e-02 7.036921e-03 -2.113211e-01 -7.025307e-02 -9.522644e-02 1.032528e-01 -1.371444e-01 1.232927e-01 1.880809e-01 5.310386e-01 -6.556550e-02 1.665777e-02 -1.760300e-02 -1.095767e-01 -7.253063e-02 -1.099772e-02 8.436392e-02 3.986859e-02 7.815628e-02 3.983128e-03 5.071930e-02 8.684172e-02 7.276513e-02
<VARIANCE> 39
 2.984031e+01 2.357845e+01 1.565737e+01 1.511646e+01 2.178710e+01 2.246952e+01 2.250927e+01 2.315301e+01 2.263614e+01 2.919274e+01 1.773706e+01 1.630242e+01 8.267352e+01 1.372383e+00 1.426363e+00 1.093882e+00 1.411283e+00 1.855783e+00 1.577592e+00 2.255818e+00 2.093128e+00 2.320878e+00 2.225644e+00 2.145174e+00 1.788755e+00 9.763746e-01 2.249960e-01 2.273759e-01 2.153587e-01 1.793647e-01 2.813731e-01 3.037354e-01 3.164908e-01 3.117468e-01 3.488147e-01 2.835669e-01 3.008511e-01 2.610976e-01 1.660911e-01
<GCONST> 1.017651e+02
<TRANSP> 12
 0.000000e+00 1.000000e+00 0.000000e+00 0.000000e+00 0.000000e+00 0.000000e+00 0.000000e+00 0.000000e+00 0.000000e+00 0.000000e+00 0.000000e+00 0.000000e+00
 0.000000e+00 8.057311e-01 1.942689e-01 0.000000e+00 0.000000e+00 0.000000e+00 0.000000e+00 0.000000e+00 0.000000e+00 0.000000e+00 0.000000e+00 0.000000e+00
 0.000000e+00 0.000000e+00 6.668177e-01 3.331823e-01 0.000000e+00 0.000000e+00 0.000000e+00 0.000000e+00 0.000000e+00 0.000000e+00 0.000000e+00 0.000000e+00
 0.000000e+00 0.000000e+00 0.000000e+00 9.364401e-01 6.355987e-02 0.000000e+00 0.000000e+00 0.000000e+00 0.000000e+00 0.000000e+00 0.000000e+00 0.000000e+00
 0.000000e+00 0.000000e+00 0.000000e+00 0.000000e+00 9.547899e-01 4.521009e-02 0.000000e+00 0.000000e+00 0.000000e+00 0.000000e+00 0.000000e+00 0.000000e+00
 0.000000e+00 0.000000e+00 0.000000e+00 0.000000e+00 0.000000e+00 6.668085e-01 3.331915e-01 0.000000e+00 0.000000e+00 0.000000e+00 0.000000e+00 0.000000e+00
 0.000000e+00 0.000000e+00 0.000000e+00 0.000000e+00 0.000000e+00 0.000000e+00 5.119368e-01 4.880632e-01 0.000000e+00 0.000000e+00 0.000000e+00 0.000000e+00
 0.000000e+00 0.000000e+00 0.000000e+00 0.000000e+00 0.000000e+00 0.000000e+00 0.000000e+00 3.310997e-01 6.689002e-01 0.000000e+00 0.000000e+00 0.000000e+00
 0.000000e+00 0.000000e+00 0.000000e+00 0.000000e+00 0.000000e+00 0.000000e+00 0.000000e+00 0.000000e+00 2.455786e-01 7.544214e-01 0.000000e+00 0.000000e+00
 0.000000e+00 0.000000e+00 0.000000e+00 0.000000e+00 0.000000e+00 0.000000e+00 0.000000e+00 0.000000e+00 0.000000e+00 3.774897e-01 6.225104e-01 0.000000e+00
 0.000000e+00 0.000000e+00 0.000000e+00 0.000000e+00 0.000000e+00 0.000000e+00 0.000000e+00 0.000000e+00 0.000000e+00 0.000000e+00 1.485996e-01 8.514004e-01
 0.000000e+00 0.000000e+00 0.000000e+00 0.000000e+00 0.000000e+00 0.000000e+00 0.000000e+00 0.000000e+00 0.000000e+00 0.000000e+00 0.000000e+00 0.000000e+00
<ENDHMM>
~h "SIX"
<BEGINHMM>
<NUMSTATES> 12
<STATE> 2
<MEAN> 39
 -1.367272e+01 -2.787893e+00 -4.161001e+00 2.040845e+00 -5.261789e+00 -1.549292e+01 -3.153706e+00 6.140321e+00 -6.128441e+00 -1.249705e+01 1.291713e+00 -5.290769e+00 7.014108e+01 -1.651397e-01 1.383950e-01 -4.935201e-02 9.517507e-02 -1.283634e-01 -2.395730e-01 -7.894579e-02 2.260973e-01 7.676639e-02 -2.209342e-01 1.738177e-01 -3.890472e-03 3.565006e-01 2.238543e-02 -2.117452e-02 3.472850e-02 -4.408686e-03 3.220003e-03 3.055198e-02 5.270251e-03 -6.861980e-03 -2.648737e-02 1.863938e-02 2.906617e-03 -2.925815e-02 -3.592109e-02
<VARIANCE> 39
 8.169559e+01 6.721786e+01 5.207909e+01 1.554568e+01 8.463600e+01 2.506013e+01 5.013989e+01 1.143152e+02 2.575587e+01 5.321294e+01 3.851664e+01 3.398277e+01 3.763556e+01 4.788753e+00 3.625440e+00 2.678391e+00 1.859947e+00 3.374100e+00 2.070371e+00 3.277183e+00 4.824797e+00 2.465118e+00 3.449567e+00 2.341772e+00 2.236592e+00 1.803575e+00 4.781723e-01 3.148192e-01 2.931351e-01 3.712952e-01 4.082351e-01 3.572141e-01 5.490534e-01 6.275624e-01 4.641353e-01 5.065370e-01 4.145100e-01 3.684646e-01 1.753359e-01
<GCONST> 1.227066e+02
<STATE> 3
<MEAN> 39
 -1.427689e+01 -2.255960e+00 -6.185946e+00 3.451203e+00 -3.626626e+00 -1.399659e+01 -2.857713e-01 1.665951e+00 -5.503819e+00 -8.996850e+00 -3.456801e-01 -5.468112e+00 6.676613e+01 -1.215401e+00 1.069846e+00 -8.710740e-01 1.800627e-01 9.552230e-01 9.864739e-02 6.376531e-01 -7.548611e-01 3.248898e-01 6.248868e-02 -3.033650e-01 5.088300e-01 -1.178690e-01 5.763115e-02 -6.695453e-02 3.710129e-02 -3.777864e-02 -3.053761e-02 -2.361149e-02 -2.138069e-02 8.838964e-02 -1.012144e-02 -4.385124e-02 1.820474e-02 -1.789444e-02 4.659845e-02
<VARIANCE> 39
 9.047345e+01 6.140267e+01 6.924172e+01 1.870126e+01 5.513805e+01 2.324446e+01 3.225169e+01 4.543105e+01 3.203301e+01 4.301267e+01 2.497329e+01 3.866656e+01 1.965305e+01 2.498162e+00 2.319826e+00 2.377634e+00 1.421130e+00 1.280311e+00 2.212258e+00 2.166584e+00 3.027130e+00 2.601683e+00 3.659879e+00 2.083601e+00 2.052034e+00 1.767088e+00 4.097996e-01 3.973263e-01 4.110167e-01 2.469609e-01 2.086483e-01 3.960342e-01 4.339457e-01 4.656512e-01 4.997017e-01 5.586322e-01 3.409290e-01 3.846110e-01 2.039827e-01
<GCONST> 1.160706e+02
<STATE> 4
<MEAN> 39
 -2.415414e+01 6.140512e+00 -1.239141e+01 4.585453e+00 3.393717e+00 -1.573477e+01 4.512290e+00 -1.357131e+00 -2.903240e+00 -1.090877e+01 -1.786162e+00 -1.177527e+00 6.829436e+01 -3.189401e-02 -3.583706e-02 -5.243029e-02 -4.893213e-01 5.287324e-01 -3.907398e-01 3.864743e-01 2.549279e-02 9.846706e-02 2.698581e-02 -3.565774e-01 1.675240e-01 -5.034760e-03 2.671123e-01 -2.773767e-01 8.134467e-02 -3.078880e-02 -6.423186e-02 4.881419e-02 -1.289380e-01 1.161520e-02 -5.917671e-02 6.343967e-02 -1.134606e-01 -6.555797e-02 -7.055836e-02
<VARIANCE> 39
 3.060793e+01 2.539575e+01 1.878036e+01 1.768262e+01 2.111842e+01 1.910300e+01 1.826837e+01 1.493443e+01 1.652381e+01 2.153355e+01 2.253480e+01 2.552681e+01 4.585241e+00 1.449852e+00 1.783832e+00 1.222704e+00 1.346551e+00 1.146724e+00 1.527745e+00 1.294948e+00 1.702063e+00 1.696555e+00 1.517316e+00 1.927161e+00 1.996006e+00 3.357668e-01 1.334277e-01 1.739814e-01 1.801670e-01 2.467530e-01 2.211569e-01 3.669232e-01 2.268520e-01 3.729839e-01 3.353706e-01 2.833971e-01 3.520177e-01 3.843924e-01 5.678735e-02
<GCONST> 9.442111e+01
<STATE> 5
<MEAN> 39
 -2.378386e+01 5.294206e+00 -1.218435e+01 2.306118e+00 5.904656e+00 -1.755297e+01 5.705811e+00 -8.837456e-01 -2.826965e+00 -1.048752e+01 -4.283309e+00 -7.644157e-01 6.833022e+01 1.055653e+00 -1.094440e+00 4.130871e-01 -4.837195e-01 2.360360e-02 -1.388259e-03 -1.312634e-01 -6.792714e-02 -3.086995e-01 4.363046e-01 -5.018713e-01 -2.342350e-01 -4.507236e-01 2.214271e-01 -1.656420e-01 5.247064e-02 1.583792e-01 -1.888448e-01 2.398211e-01 -1.035151e-01 -1.871722e-01 -7.429906e-02 1.382353e-01 3.327059e-02 -6.758798e-02 -1.652317e-01
<VARIANCE> 39
 9.195435e+00 1.443372e+01 6.383015e+00 1.858744e+01 1.087281e+01 1.563049e+01 1.469843e+01 1.800819e+01 1.329938e+01 1.437739e+01 2.110872e+01 1.667291e+01 2.107985e+00 7.932101e-01 9.498215e-01 4.100885e-01 1.493003e+00 1.242442e+00 2.105285e+00 1.455511e+00 2.511694e+00 1.544646e+00 1.449637e+00 1.882135e+00 1.894957e+00 4.113635e-01 5.265681e-02 1.177507e-01 7.996660e-02 3.015145e-01 2.064887e-01 3.739008e-01 2.494190e-01 5.272611e-01 3.279137e-01 2.711331e-01 3.756331e-01 3.810433e-01 3.960716e-02
<GCONST> 8.560072e+01
<STATE> 6
<MEAN> 39
 -1.771243e+01 -6.385894e-01 -1.025458e+01 1.035720e+00 4.623181e+00 -1.607766e+01 4.264160e+00 -2.506318e+00 -4.707908e+00 -7.826960e+00 -5.838012e+00 -2.602760e+00 6.520457e+01 1.862186e+00 -1.333075e+00 6.755056e-01 6.007957e-01 -8.574222e-01 1.407046e+00 -3.967254e-01 -1.358655e+00 -5.907597e-01 1.176943e+00 -2.475389e-01 -5.693273e-01 -1.186639e+00 -7.894698e-02 1.775733e-01 6.936857e-02 6.507634e-02 -4.210821e-02 1.737636e-01 7.829778e-02 -1.056906e-01 7.950346e-02 -4.965435e-02 9.307814e-02 4.971828e-02 2.349990e-02
<VARIANCE> 39
 1.093343e+01 8.702688e+00 4.911631e+00 1.137971e+01 9.299952e+00 1.502094e+01 1.181658e+01 1.922203e+01 1.452719e+01 2.345206e+01 1.576647e+01 1.411780e+01 3.859126e+00 3.159270e-01 3.220329e-01 4.516932e-01 1.041487e+00 8.989934e-01 1.772679e+00 1.274455e+00 2.181896e+00 1.763231e+00 1.864944e+00 1.344564e+00 1.230228e+00 1.652318e-01 8.670665e-02 6.471715e-02 8.402766e-02 2.586655e-01 1.877419e-01 3.230574e-01 2.804839e-01 4.820623e-01 4.054669e-01 4.508205e-01 3.487266e-01 3.031554e-01 5.056585e-02
<GCONST> 8.080421e+01
<STATE> 7
<MEAN> 39
 -1.368917e+01 -3.258040e+00 -8.468925e+00 2.365862e+00 2.464984e+00 -1.258482e+01 3.720457e+00 -5.573429e+00 -5.668747e+00 -5.406508e+00 -6.546144e+00 -3.616651e+00 6.268571e+01 1.375294e+00 -9.329785e-01 7.624801e-01 3.076560e-01 -6.943041e-01 1.499902e+00 -2.461438e-01 -1.131506e+00 -4.012218e-01 6.251469e-01 -1.328422e-01 -5.384421e-01 -8.680816e-01 -2.588122e-01 1.347890e-01 -2.699733e-02 -2.492844e-01 1.222799e-01 -1.658451e-01 2.078437e-02 3.462074e-01 7.489813e-02 -3.147894e-01 9.103543e-02 4.907523e-02 1.965176e-01
<VARIANCE> 39
 4.116138e+00 4.238945e+00 4.269278e+00 8.355407e+00 8.023959e+00 1.299586e+01 1.235321e+01 2.098371e+01 1.784766e+01 1.390880e+01 1.480385e+01 1.156446e+01 1.655464e+00 3.124273e-01 2.210700e-01 4.715002e-01 9.641004e-01 1.105684e+00 1.410694e+00 1.282063e+00 2.197404e+00 1.651022e+00 2.344268e+00 1.558179e+00 1.298892e+00 1.504193e-01 5.546249e-02 4.933283e-02 9.022185e-02 1.604285e-01 1.920765e-01 2.607142e-01 2.834493e-01 5.043281e-01 4.246345e-01 3.421248e-01 3.190865e-01 2.062924e-01 1.648417e-02
<GCONST> 7.382886e+01
<STATE> 8
<MEAN> 39
 -1.140798e+01 -5.229921e+00 -6.816826e+00 2.146145e+00 1.490902e+00 -1.005159e+01 2.739547e+00 -6.784698e+00 -6.831149e+00 -4.959781e+00 -6.297660e+00 -4.865096e+00 6.140962e+01 9.103726e-01 -6.263819e-01 6.653545e-01 -1.315209e-01 -3.601114e-01 9.460287e-01 -2.588307e-01 -1.789388e-01 -2.323708e-01 1.206192e-01 1.394918e-01 -3.725379e-01 -4.621637e-01 -1.344021e-01 1.263997e-01 2.384035e-02 -1.028362e-01 1.168137e-01 -1.979558e-01 2.690506e-02 3.072909e-01 7.613699e-02 -8.824527e-02 1.130738e-01 5.597985e-02 1.237212e-01
<VARIANCE> 39
 4.087963e+00 5.073207e+00 6.473376e+00 6.347613e+00 9.578165e+00 1.495935e+01 1.419539e+01 1.377167e+01 1.703194e+01 1.111171e+01 1.348721e+01 1.324670e+01 1.445124e+00 3.843772e-01 3.957214e-01 5.075001e-01 7.775491e-01 1.132749e+00 1.488485e+00 1.511392e+00 2.444343e+00 1.805679e+00 1.437541e+00 1.588929e+00 9.796099e-01 1.492912e-01 8.249826e-02 5.535568e-02 1.163025e-01 1.981186e-01 2.480105e-01 3.319223e-01 3.625510e-01 3.960370e-01 3.180719e-01 3.547531e-01 3.470780e-01 2.274340e-01 2.666929e-02
<GCONST> 7.603022e+01
<STATE> 9
<MEAN> 39
 -9.354146e+00 -6.376744e+00 -4.735241e+00 1.550522e+00 8.109959e-01 -8.416306e+00 1.886061e+00 -5.861633e+00 -7.039410e+00 -4.337617e+00 -5.273906e+00 -5.361261e+00 6.063300e+01 5.466869e-01 -3.506876e-01 6.747499e-01 -1.835626e-01 -1.500822e-01 4.410603e-01 -1.830867e-01 2.720835e-01 -8.374380e-02 2.623827e-01 3.147250e-01 -1.675100e-01 -2.381887e-01 -1.228487e-01 6.172323e-02 -5.180614e-02 1.458673e-02 8.226683e-02 -1.258167e-01 1.066649e-02 9.387686e-02 3.229516e-02 4.390112e-03 -1.133855e-02 3.465480e-02 5.600045e-02
<VARIANCE> 39
 3.937039e+00 4.430121e+00 7.189661e+00 6.620050e+00 9.091618e+00 1.335905e+01 1.382154e+01 1.277045e+01 1.140491e+01 1.159335e+01 1.310294e+01 1.339026e+01 1.015027e+00 4.199484e-01 3.735496e-01 5.988910e-01 8.867391e-01 1.329227e+00 1.821586e+00 1.401814e+00 1.410999e+00 1.514787e+00 1.217434e+00 1.563218e+00 1.207913e+00 1.155730e-01 7.749087e-02 7.490793e-02 1.212135e-01 1.971457e-01 2.765897e-01 3.756099e-01 3.015829e-01 3.127448e-01 3.168984e-01 2.204176e-01 3.399317e-01 2.552461e-01 2.052442e-02
<GCONST> 7.410879e+01
<STATE> 10
<MEAN> 39
 -7.085613e+00 -6.703515e+00 -2.570405e+00 1.418427e+00 1.527814e-01 -7.424485e+00 9.650990e-01 -4.468274e+00 -7.828451e+00 -3.138165e+00 -3.725889e+00 -5.343270e+00 5.883379e+01 1.425488e-01 -1.379938e-01 1.263428e-01 -2.885190e-02 -4.645499e-02 9.622587e-02 -9.290541e-02 1.073366e-01 -9.382240e-02 3.311856e-02 1.221191e-02 -9.084063e-02 -1.231562e-01 -3.361706e-02 1.961515e-02 -5.158893e-02 1.171748e-02 1.798274e-03 -2.873375e-02 -1.846830e-03 -1.516112e-02 -1.029232e-02 -2.114183e-02 -1.607730e-02 9.656047e-03 8.967700e-03
<VARIANCE> 39
 4.181082e+00 8.370842e+00 6.349750e+00 8.081992e+00 9.969634e+00 1.231326e+01 1.713243e+01 1.348664e+01 1.122777e+01 1.388584e+01 1.556899e+01 1.328402e+01 3.262676e+00 2.118168e-01 3.709660e-01 6.952887e-01 9.299188e-01 1.061914e+00 1.245965e+00 1.409134e+00 1.216378e+00 1.326697e+00 1.275218e+00 1.538006e+00 1.116934e+00 6.692059e-02 4.455099e-02 7.222598e-02 1.406090e-01 1.931862e-01 2.340146e-01 2.600698e-01 2.666411e-01 2.523735e-01 2.799619e-01 2.560257e-01 3.315114e-01 2.332780e-01 1.183896e-02
<GCONST> 7.271445e+01
<STATE> 11
<MEAN> 39
 -6.852554e+00 -6.829671e+00 -3.501561e+00 2.757824e+00 -1.126319e+00 -4.790991e+00 -3.183461e-01 -2.842826e+00 -9.325598e+00 -2.716618e+00 -4.946084e+00 -6.344173e+00 5.151640e+01 1.095669e-02 2.972776e-02 -2.686463e-02 2.923827e-02 -2.708501e-02 3.646681e-02 -3.729811e-02 4.404904e-02 -2.987074e-03 2.255136e-02 -8.352425e-03 7.363241e-03 -1.473574e-01 -4.414164e-03 8.568058e-04 -3.880861e-03 3.063093e-04 -1.933083e-03 -2.023154e-03 1.647521e-04 -6.113508e-03 2.855794e-03 -5.988291e-04 1.962059e-03 1.935881e-03 2.593223e-03
<VARIANCE> 39
 2.245379e+00 5.096834e+00 5.555862e+00 7.647798e+00 9.580363e+00 1.119516e+01 1.328202e+01 1.348507e+01 1.424039e+01 1.401704e+01 1.485058e+01 1.173766e+01 2.014948e+01 1.621944e-01 3.088162e-01 5.394230e-01 7.236431e-01 9.783369e-01 1.112744e+00 1.444891e+00 1.341794e+00 1.486594e+00 1.497555e+00 1.664307e+00 1.242290e+00 8.265088e-02 3.366402e-02 6.418859e-02 1.156753e-01 1.569894e-01 2.095717e-01 2.374132e-01 2.971053e-01 2.705666e-01 3.084020e-01 3.089684e-01 3.587369e-01 2.552171e-01 1.314652e-02
<GCONST> 7.229274e+01
<TRANSP> 12
 0.000000e+00 1.000000e+00 0.000000e+00 0.000000e+00 0.000000e+00 0.000000e+00 0.000000e+00 0.000000e+00 0.000000e+00 0.000000e+00 0.000000e+00 0.000000e+00
 0.000000e+00 9.710445e-01 2.895550e-02 0.000000e+00 0.000000e+00 0.000000e+00 0.000000e+00 0.000000e+00 0.000000e+00 0.000000e+00 0.000000e+00 0.000000e+00
 0.000000e+00 0.000000e+00 8.635510e-01 1.364490e-01 0.000000e+00 0.000000e+00 0.000000e+00 0.000000e+00 0.000000e+00 0.000000e+00 0.000000e+00 0.000000e+00
 0.000000e+00 0.000000e+00 0.000000e+00 8.162973e-01 1.837027e-01 0.000000e+00 0.000000e+00 0.000000e+00 0.000000e+00 0.000000e+00 0.000000e+00 0.000000e+00
 0.000000e+00 0.000000e+00 0.000000e+00 0.000000e+00 7.985731e-01 2.014269e-01 0.000000e+00 0.000000e+00 0.000000e+00 0.000000e+00 0.000000e+00 0.000000e+00
 0.000000e+00 0.000000e+00 0.000000e+00 0.000000e+00 0.000000e+00 5.280080e-01 4.719920e-01 0.000000e+00 0.000000e+00 0.000000e+00 0.000000e+00 0.000000e+00
 0.000000e+00 0.000000e+00 0.000000e+00 0.000000e+00 0.000000e+00 0.000000e+00 4.525189e-01 5.474811e-01 0.000000e+00 0.000000e+00 0.000000e+00 0.000000e+00
 0.000000e+00 0.000000e+00 0.000000e+00 0.000000e+00 0.000000e+00 0.000000e+00 0.000000e+00 5.646147e-01 4.353853e-01 0.000000e+00 0.000000e+00 0.000000e+00
 0.000000e+00 0.000000e+00 0.000000e+00 0.000000e+00 0.000000e+00 0.000000e+00 0.000000e+00 0.000000e+00 6.877366e-01 3.122634e-01 0.000000e+00 0.000000e+00
 0.000000e+00 0.000000e+00 0.000000e+00 0.000000e+00 0.000000e+00 0.000000e+00 0.000000e+00 0.000000e+00 0.000000e+00 8.970515e-01 1.029485e-01 0.000000e+00
 0.000000e+00 0.000000e+00 0.000000e+00 0.000000e+00 0.000000e+00 0.000000e+00 0.000000e+00 0.000000e+00 0.000000e+00 0.000000e+00 9.866058e-01 1.339424e-02
 0.000000e+00 0.000000e+00 0.000000e+00 0.000000e+00 0.000000e+00 0.000000e+00 0.000000e+00 0.000000e+00 0.000000e+00 0.000000e+00 0.000000e+00 0.000000e+00
<ENDHMM>
~h "TWO"
<BEGINHMM>
<NUMSTATES> 12
<STATE> 2
<MEAN> 39
 -4.201870e+00 -3.627064e+00 -5.624029e+00 -6.331656e+00 -1.023361e+01 -3.551691e+00 -1.641951e+01 -9.511472e+00 -2.684673e+00 -1.168039e+01 -1.195611e-01 -5.066730e+00 7.187376e+01 3.835095e-01 3.084789e-01 -1.044467e-01 -5.211167e-01 -6.906651e-01 3.411205e-01 -5.343732e-01 -3.673378e-01 1.279010e-01 -1.972008e-01 4.323530e-01 2.458516e-01 6.534234e-01 5.771384e-02 -3.496162e-03 -8.455389e-03 1.662059e-02 -4.599521e-02 2.087845e-03 5.983641e-02 6.409441e-04 -4.647447e-02 4.279444e-02 -1.579383e-02 -2.828101e-02 -9.133634e-02
<VARIANCE> 39
 3.073906e+01 1.136897e+01 2.413338e+01 3.600817e+01 6.145197e+01 8.805861e+01 6.706438e+01 3.834912e+01 3.356694e+01 2.368051e+01 4.161236e+01 4.277833e+01 2.990922e+01 2.388381e+00 8.711270e-01 1.677614e+00 1.334976e+00 2.725085e+00 6.026799e+00 5.781220e+00 2.526968e+00 1.994230e+00 2.632514e+00 2.181742e+00 4.532382e+00 3.261416e+00 4.618913e-01 1.674835e-01 2.735222e-01 2.572545e-01 5.134215e-01 1.048595e+00 8.144808e-01 4.602324e-01 3.321969e-01 4.912937e-01 4.330142e-01 9.004512e-01 4.254623e-01
<GCONST> 1.200385e+02
<STATE> 3
<MEAN> 39
 7.772717e-01 -9.679050e-01 -4.957192e+00 -1.103664e+01 -1.621362e+01 -3.700562e-01 -1.151723e+01 -1.132752e+01 -5.989840e+00 -9.385121e+00 3.044421e+00 1.021037e+00 7.060279e+01 7.159020e-02 9.004468e-02 1.513363e-01 3.430623e-01 4.373564e-01 -8.388686e-01 8.645865e-01 2.962945e-01 -7.517824e-01 2.542363e-01 -5.764053e-01 3.574327e-01 -4.342491e-01 -6.878068e-02 -7.946508e-02 -5.220275e-02 9.978323e-02 2.379858e-01 -2.239615e-02 4.549884e-02 1.652381e-02 -1.534746e-02 1.355948e-02 -1.190925e-01 -7.113127e-02 -3.288944e-02
<VARIANCE> 39
 2.969204e+00 7.045649e+00 1.136134e+01 1.471526e+01 1.402203e+01 2.312169e+01 2.673600e+01 1.781089e+01 2.556318e+01 2.605648e+01 2.604901e+01 2.959999e+01 3.357109e+00 2.011876e-01 3.535319e-01 7.153295e-01 1.334518e+00 2.133068e+00 2.164109e+00 1.287955e+00 1.399377e+00 1.691726e+00 1.943146e+00 2.262382e+00 2.020603e+00 8.267435e-02 3.085031e-02 6.394867e-02 1.303912e-01 2.299406e-01 3.410177e-01 3.566378e-01 2.408184e-01 2.803985e-01 2.900200e-01 3.795064e-01 3.556252e-01 4.181656e-01 9.158292e-03
<GCONST> 8.244735e+01
<STATE> 4
<MEAN> 39
 1.267233e-01 -1.760256e+00 -4.817922e+00 -8.112553e+00 -1.054948e+01 -6.328211e+00 -4.750813e+00 -8.989697e+00 -1.086319e+01 -6.265467e+00 -2.373600e-01 3.226674e+00 6.694160e+01 -4.896369e-01 -4.424374e-01 -9.521504e-02 5.599523e-01 1.243038e+00 -8.784977e-01 1.017828e+00 4.180159e-01 -4.068414e-01 5.730785e-01 -7.758692e-01 1.427572e-01 -7.165353e-01 -8.818899e-02 -8.055652e-02 -5.378533e-03 -1.761939e-02 -3.459518e-02 1.618337e-01 -4.035017e-02 1.930773e-02 1.436038e-01 1.277898e-02 6.531908e-02 -7.807859e-02 -2.925782e-02
<VARIANCE> 39
 3.898581e+00 6.886814e+00 4.527203e+00 6.983597e+00 1.791309e+01 1.606389e+01 1.978935e+01 1.147303e+01 1.605842e+01 2.123070e+01 1.877078e+01 1.538536e+01 4.441296e+00 2.145823e-01 3.697426e-01 4.091134e-01 6.268936e-01 1.058213e+00 1.047424e+00 1.139285e+00 7.806790e-01 1.369790e+00 1.425836e+00 1.693641e+00 1.730189e+00 7.509357e-02 2.687476e-02 5.608383e-02 8.278418e-02 1.334227e-01 2.174090e-01 2.114747e-01 2.295671e-01 1.779988e-01 2.270232e-01 2.982747e-01 3.420969e-01 3.632024e-01 1.109731e-02
<GCONST> 7.118383e+01
<STATE> 5
<MEAN> 39
 -2.405475e+00 -3.721622e+00 -5.171235e+00 -6.031727e+00 -5.971871e+00 -8.690223e+00 -7.832403e-01 -7.031455e+00 -1.163205e+01 -3.840599e+00 -3.199506e+00 3.314286e+00 6.390261e+01 -6.883261e-01 -7.200431e-01 -1.499188e-01 7.007271e-01 8.492980e-01 3.580689e-03 6.572512e-01 5.320389e-01 2.678304e-01 5.166184e-01 -3.742163e-01 -5.755398e-01 -7.312917e-01 1.074892e-02 -2.838016e-02 4.022520e-02 9.759167e-02 -1.037572e-01 1.942251e-01 -1.499127e-01 5.368596e-02 1.740468e-01 -1.028979e-01 8.907133e-02 -2.899777e-01 2.148497e-02
<VARIANCE> 39
 4.991918e+00 8.276997e+00 5.031003e+00 9.301762e+00 1.133034e+01 1.202775e+01 1.415299e+01 1.210102e+01 1.557516e+01 2.002624e+01 1.979106e+01 1.962109e+01 3.908808e+00 1.530643e-01 4.349769e-01 4.281434e-01 6.456333e-01 9.567215e-01 1.430896e+00 1.309228e+00 1.198198e+00 1.563486e+00 1.498986e+00 2.231697e+00 2.234368e+00 7.711524e-02 3.246780e-02 9.042035e-02 9.741079e-02 1.140292e-01 1.975165e-01 2.700523e-01 2.127506e-01 2.125021e-01 2.565020e-01 2.612324e-01 4.418719e-01 3.765391e-01 1.639248e-02
<GCONST> 7.406931e+01
<STATE> 6
<MEAN> 39
 -5.262957e+00 -6.908357e+00 -5.165141e+00 -2.324865e+00 -3.013091e+00 -7.470437e+00 2.243781e-02 -5.332915e+00 -9.714707e+00 -2.956314e+00 -4.033690e+00 -1.645763e+00 6.116323e+01 -5.198907e-01 -5.649040e-01 1.918138e-01 8.779883e-01 5.413368e-01 2.409855e-01 -2.118528e-02 4.323685e-01 4.940285e-01 -3.299107e-02 -1.300176e-01 -1.245723e+00 -5.190737e-01 6.199031e-02 7.995895e-02 1.213566e-01 -2.085147e-02 -9.188215e-02 -9.101700e-02 -1.142449e-01 -9.401223e-02 -1.113677e-02 -5.742232e-02 1.163116e-01 6.037885e-02 4.244467e-02
<VARIANCE> 39
 4.928696e+00 7.171645e+00 5.741906e+00 1.217365e+01 1.404959e+01 1.293422e+01 1.378126e+01 1.386713e+01 1.658381e+01 1.504705e+01 1.367727e+01 2.597411e+01 2.402725e+00 2.214199e-01 5.013438e-01 6.199128e-01 1.290846e+00 1.407673e+00 1.887769e+00 1.963448e+00 1.924170e+00 2.194422e+00 1.699194e+00 1.250890e+00 2.258424e+00 1.615862e-01 4.460005e-02 1.000146e-01 1.269508e-01 2.636998e-01 2.875065e-01 3.751591e-01 4.157152e-01 3.562024e-01 4.312840e-01 3.392817e-01 2.812531e-01 4.001161e-01 2.126462e-02
<GCONST> 8.172779e+01
<STATE> 7
<MEAN> 39
 -6.714526e+00 -8.662524e+00 -4.202183e+00 4.014042e-01 -1.792411e+00 -7.068882e+00 -1.015121e-01 -4.345548e+00 -8.092599e+00 -3.765976e+00 -4.295672e+00 -5.231883e+00 5.971556e+01 -2.765536e-01 -2.639671e-01 2.689371e-01 4.541717e-01 2.050344e-01 8.938970e-02 2.493852e-02 2.036634e-01 1.888398e-01 -1.185308e-01 -2.683711e-02 -5.955671e-01 -2.569471e-01 4.418558e-02 5.701049e-02 -2.479691e-02 -1.183454e-01 -7.702812e-02 -1.717270e-02 2.800821e-02 -7.703086e-02 -1.164922e-01 -3.958306e-02 -1.988109e-02 1.260594e-01 4.906831e-02
<VARIANCE> 39
 2.017396e+00 3.897500e+00 5.133662e+00 8.368956e+00 7.864618e+00 9.404314e+00 1.281172e+01 1.422298e+01 1.680637e+01 1.351947e+01 1.138012e+01 1.403907e+01 2.054646e+00 2.100600e-01 4.828956e-01 6.607146e-01 1.414908e+00 1.092294e+00 1.357041e+00 1.624447e+00 1.606260e+00 1.778004e+00 1.206568e+00 1.216989e+00 1.806352e+00 2.545735e-01 3.141033e-02 8.563511e-02 1.318896e-01 2.465641e-01 2.066825e-01 2.950013e-01 3.561496e-01 3.248184e-01 3.836370e-01 2.359441e-01 2.640167e-01 3.954245e-01 4.093096e-02
<GCONST> 7.525188e+01
<STATE> 8
<MEAN> 39
 -7.280179e+00 -9.673334e+00 -3.738662e+00 9.472808e-01 -1.590290e+00 -6.766005e+00 -9.015489e-02 -3.998694e+00 -7.927614e+00 -4.296361e+00 -4.812448e+00 -6.682097e+00 5.851862e+01 -5.311666e-02 -8.118106e-02 2.507071e-02 2.711557e-02 8.129977e-03 3.715079e-03 -2.332136e-03 -3.136555e-02 -4.854439e-03 -6.322373e-02 -7.942277e-02 -1.300428e-01 -1.307777e-01 1.797512e-02 2.142747e-02 -2.353793e-02 -3.157612e-02 -1.209459e-02 -4.298068e-03 4.656597e-03 -1.127659e-02 -4.969271e-03 2.252229e-02 5.980145e-03 5.108893e-02 1.053216e-02
<VARIANCE> 39
 1.585176e+00 2.728083e+00 4.822852e+00 6.435521e+00 8.305140e+00 8.906445e+00 1.161399e+01 1.300439e+01 1.406442e+01 1.212604e+01 1.322539e+01 1.191442e+01 1.344900e+00 1.561487e-01 3.331015e-01 6.265652e-01 8.181425e-01 1.016511e+00 9.849035e-01 1.296037e+00 1.524503e+00 1.699850e+00 1.300621e+00 1.668550e+00 1.606549e+00 9.147826e-02 3.039360e-02 6.705427e-02 1.333507e-01 1.843640e-01 2.103604e-01 2.036181e-01 2.521947e-01 3.255419e-01 3.553588e-01 2.625603e-01 3.776642e-01 3.545556e-01 1.641490e-02
<GCONST> 6.879473e+01
<STATE> 9
<MEAN> 39
 -7.736970e+00 -9.465335e+00 -3.764298e+00 1.438120e+00 -1.311478e+00 -6.621760e+00 -2.023604e-01 -4.023093e+00 -7.977557e+00 -3.896098e+00 -4.931092e+00 -6.748137e+00 5.633306e+01 -5.011376e-02 1.848146e-02 -2.884966e-02 4.726740e-02 1.496700e-02 6.127234e-02 -3.897426e-02 3.447928e-02 -2.289491e-02 1.673545e-02 5.712278e-03 2.286297e-02 -2.828384e-01 -1.560881e-03 3.769780e-03 -3.472408e-03 -1.494159e-04 -7.179010e-03 4.308605e-03 -6.011679e-03 1.153260e-03 -9.810443e-03 1.393978e-03 1.963283e-03 5.101321e-04 -1.419123e-02
<VARIANCE> 39
 1.918396e+00 2.380541e+00 4.705248e+00 6.803474e+00 8.652908e+00 8.001397e+00 1.072191e+01 1.196492e+01 1.154079e+01 1.174998e+01 1.288861e+01 1.128405e+01 5.818897e+00 1.684286e-01 2.843872e-01 4.310182e-01 7.819557e-01 9.663911e-01 8.817880e-01 1.117794e+00 1.437034e+00 1.251166e+00 1.361070e+00 1.368897e+00 1.379359e+00 1.041891e-01 3.325434e-02 6.130072e-02 8.477131e-02 1.664426e-01 2.013019e-01 1.823480e-01 2.266705e-01 2.969795e-01 2.599689e-01 2.727476e-01 2.798841e-01 2.989312e-01 1.281996e-02
<GCONST> 6.655500e+01
<STATE> 10
<MEAN> 39
 -8.736667e+00 -8.934742e+00 -3.888469e+00 2.526865e+00 -1.696147e+00 -5.367995e+00 -1.057349e+00 -3.825597e+00 -8.783957e+00 -4.122035e+00 -5.717134e+00 -6.922710e+00 5.155532e+01 -3.613250e-02 3.752552e-02 -3.135145e-02 8.586752e-02 -1.096696e-01 8.016893e-02 -4.230967e-02 -2.097382e-02 -4.662172e-02 8.336870e-02 -5.888987e-02 -4.218762e-02 -3.222537e-01 7.018566e-03 1.304802e-03 1.317916e-03 1.162296e-02 6.984611e-04 -3.302792e-03 2.262672e-03 3.185777e-03 5.407860e-05 4.450031e-03 1.668034e-03 5.650931e-03 1.494800e-02
<VARIANCE> 39
 2.216660e+00 2.883150e+00 5.293162e+00 6.927331e+00 8.233623e+00 8.041525e+00 1.176441e+01 1.353369e+01 1.326449e+01 1.544878e+01 1.296544e+01 1.182460e+01 4.425565e+00 1.876279e-01 3.387647e-01 3.872972e-01 7.506837e-01 8.392121e-01 9.395842e-01 1.458617e+00 1.371204e+00 1.261268e+00 1.582439e+00 1.213111e+00 1.360584e+00 9.262004e-02 3.828176e-02 7.403093e-02 7.389197e-02 1.522701e-01 1.680721e-01 1.945683e-01 3.155833e-01 2.743038e-01 2.470888e-01 3.040037e-01 2.372103e-01 2.805090e-01 1.350123e-02
<GCONST> 6.769286e+01
<STATE> 11
<MEAN> 39
 -9.727705e+00 -7.925827e+00 -5.005586e+00 5.001569e+00 -3.301730e+00 -3.296385e+00 -1.596569e+00 -1.776666e+00 -9.226130e+00 -2.679492e+00 -5.380219e+00 -6.723079e+00 4.526937e+01 -1.378269e-02 1.086497e-02 -8.850953e-03 3.715189e-02 -3.000926e-04 2.700947e-02 -1.195190e-02 1.643639e-02 4.713554e-04 4.778536e-03 -5.306197e-03 2.812195e-03 -5.919769e-02 -2.896845e-03 -2.193532e-04 -9.313606e-06 -4.219281e-03 6.594414e-03 2.804233e-04 8.388109e-04 -2.907139e-03 2.700475e-03 -1.414472e-03 -2.132186e-04 2.497144e-03 5.625073e-03
<VARIANCE> 39
 1.933177e+00 3.025802e+00 5.497046e+00 7.711973e+00 9.849565e+00 1.069664e+01 1.351204e+01 1.352394e+01 1.321414e+01 1.266439e+01 1.320207e+01 1.096787e+01 5.603143e+00 1.562282e-01 2.797396e-01 5.239736e-01 8.332800e-01 9.764783e-01 1.171389e+00 1.329096e+00 1.503083e+00 1.424219e+00 1.393267e+00 1.478065e+00 1.208012e+00 6.675477e-02 3.336878e-02 5.804064e-02 1.084354e-01 1.799738e-01 2.005947e-01 2.434166e-01 2.710165e-01 3.180376e-01 2.901334e-01 2.949793e-01 3.064327e-01 2.511041e-01 1.334056e-02
<GCONST> 6.930656e+01
<TRANSP> 12
 0.000000e+00 1.000000e+00 0.000000e+00 0.000000e+00 0.000000e+00 0.000000e+00 0.000000e+00 0.000000e+00 0.000000e+00 0.000000e+00 0.000000e+00 0.000000e+00
 0.000000e+00 9.585657e-01 4.143434e-02 0.000000e+00 0.000000e+00 0.000000e+00 0.000000e+00 0.000000e+00 0.000000e+00 0.000000e+00 0.000000e+00 0.000000e+00
 0.000000e+00 0.000000e+00 8.399005e-01 1.600996e-01 0.000000e+00 0.000000e+00 0.000000e+00 0.000000e+00 0.000000e+00 0.000000e+00 0.000000e+00 0.000000e+00
 0.000000e+00 0.000000e+00 0.000000e+00 8.028988e-01 1.971012e-01 0.000000e+00 0.000000e+00 0.000000e+00 0.000000e+00 0.000000e+00 0.000000e+00 0.000000e+00
 0.000000e+00 0.000000e+00 0.000000e+00 0.000000e+00 7.628015e-01 2.371985e-01 0.000000e+00 0.000000e+00 0.000000e+00 0.000000e+00 0.000000e+00 0.000000e+00
 0.000000e+00 0.000000e+00 0.000000e+00 0.000000e+00 0.000000e+00 6.571528e-01 3.428472e-01 0.000000e+00 0.000000e+00 0.000000e+00 0.000000e+00 0.000000e+00
 0.000000e+00 0.000000e+00 0.000000e+00 0.000000e+00 0.000000e+00 0.000000e+00 7.423018e-01 2.576982e-01 0.000000e+00 0.000000e+00 0.000000e+00 0.000000e+00
 0.000000e+00 0.000000e+00 0.000000e+00 0.000000e+00 0.000000e+00 0.000000e+00 0.000000e+00 9.213631e-01 7.863691e-02 0.000000e+00 0.000000e+00 0.000000e+00
 0.000000e+00 0.000000e+00 0.000000e+00 0.000000e+00 0.000000e+00 0.000000e+00 0.000000e+00 0.000000e+00 9.416084e-01 5.839156e-02 0.000000e+00 0.000000e+00
 0.000000e+00 0.000000e+00 0.000000e+00 0.000000e+00 0.000000e+00 0.000000e+00 0.000000e+00 0.000000e+00 0.000000e+00 8.982521e-01 1.017480e-01 0.000000e+00
 0.000000e+00 0.000000e+00 0.000000e+00 0.000000e+00 0.000000e+00 0.000000e+00 0.000000e+00 0.000000e+00 0.000000e+00 0.000000e+00 9.897096e-01 1.029045e-02
 0.000000e+00 0.000000e+00 0.000000e+00 0.000000e+00 0.000000e+00 0.000000e+00 0.000000e+00 0.000000e+00 0.000000e+00 0.000000e+00 0.000000e+00 0.000000e+00
<ENDHMM>
~h "NINE"
<BEGINHMM>
<NUMSTATES> 12
<STATE> 2
<MEAN> 39
 -1.480109e+00 -1.085845e+01 -8.721354e+00 -4.908729e-01 -6.006353e+00 -3.336881e+00 -6.047884e+00 -2.744613e+00 -7.069828e+00 -1.171021e+01 1.396006e+00 -1.065336e+01 7.363640e+01 -1.358553e-02 -2.593589e-01 -1.648970e-01 9.554353e-02 -5.414281e-01 -1.612588e-01 1.740250e-01 4.750670e-01 4.034534e-01 -2.015633e-01 1.269002e-03 1.378142e-01 2.162653e-01 -3.147354e-02 3.848957e-02 4.631195e-02 2.021740e-02 9.366451e-03 -2.943360e-02 5.812155e-02 2.067525e-02 -2.294744e-03 4.086297e-03 -3.907643e-02 6.010806e-02 -7.173806e-02
<VARIANCE> 39
 2.067602e+00 1.998309e+01 4.634205e+01 5.470337e+01 3.097517e+01 8.378664e+01 2.974124e+01 4.621743e+01 4.893817e+01 1.959394e+01 3.436487e+01 2.421625e+01 7.687189e+00 1.550274e-01 7.191960e-01 2.046786e+00 3.313939e+00 1.652682e+00 4.173707e+00 1.884481e+00 3.636252e+00 2.762755e+00 1.435309e+00 2.521152e+00 2.001920e+00 4.239035e-01 3.158328e-02 9.597604e-02 1.967963e-01 3.909442e-01 2.528023e-01 4.178505e-01 3.443894e-01 7.085258e-01 4.860080e-01 2.821811e-01 4.181199e-01 3.336220e-01 2.981975e-02
<GCONST> 1.001769e+02
<STATE> 3
<MEAN> 39
 -3.832650e+00 -9.200308e+00 1.755395e+00 1.050608e+01 -1.365066e+01 -1.813576e+01 -3.920287e+00 5.987379e+00 -9.331340e+00 -1.321774e+01 2.257219e+00 -3.424797e+00 7.092078e+01 -2.069190e-01 5.566801e-01 7.046574e-01 -5.243529e-02 5.686114e-01 1.523488e-01 9.274186e-02 -1.378405e-01 -7.050734e-01 1.500951e-01 9.360530e-02 1.434156e-01 -6.192501e-01 9.722901e-03 -7.207827e-03 -1.477343e-01 -1.319465e-01 1.920558e-01 2.476421e-01 3.933908e-02 -1.881920e-01 6.286965e-02 5.083037e-02 -1.830618e-01 -1.750799e-01 -3.085570e-02
<VARIANCE> 39
 2.723884e+00 1.549564e+01 2.317197e+01 1.644345e+01 2.389329e+01 4.007993e+01 2.175267e+01 2.604542e+01 2.106643e+01 2.139175e+01 3.118870e+01 2.107298e+01 6.464485e+00 1.906933e-01 4.774725e-01 8.501271e-01 1.594234e+00 2.015920e+00 2.342956e+00 1.440029e+00 2.653939e+00 1.397101e+00 1.297763e+00 2.550302e+00 2.097220e+00 1.170344e-01 3.433831e-02 8.673026e-02 1.012763e-01 2.395241e-01 2.088806e-01 1.859903e-01 2.911349e-01 4.637034e-01 2.490239e-01 2.499429e-01 3.024333e-01 2.529320e-01 1.567565e-02
<GCONST> 8.567038e+01
<STATE> 4
<MEAN> 39
 -4.779792e+00 -5.718418e+00 3.016366e+00 9.280377e+00 -8.921021e+00 -1.330477e+01 -2.345524e+00 2.962123e+00 -1.143764e+01 -1.083955e+01 -2.484944e-01 -4.831339e+00 6.735045e+01 -1.183302e-01 5.265448e-01 2.856640e-02 -3.768560e-01 1.244226e+00 8.508013e-01 2.205304e-01 -1.029413e+00 -3.808580e-01 1.878034e-01 -7.718887e-01 -4.668437e-01 -6.487768e-01 2.399800e-02 -1.757619e-02 -1.277951e-01 -1.154296e-02 8.164025e-02 5.775964e-02 1.253884e-04 -6.510306e-02 3.333481e-02 -2.089614e-03 -4.640852e-02 -3.908437e-02 1.290776e-02
<VARIANCE> 39
 2.214218e+00 1.045740e+01 9.927406e+00 1.102217e+01 2.478990e+01 1.977228e+01 1.925586e+01 3.210715e+01 1.394542e+01 1.482695e+01 2.277060e+01 1.626085e+01 4.615886e+00 2.306945e-01 5.764128e-01 1.061527e+00 8.797508e-01 1.740471e+00 1.562090e+00 1.119727e+00 3.039299e+00 1.348739e+00 1.069945e+00 1.960611e+00 1.411585e+00 1.625865e-01 4.280514e-02 1.078551e-01 1.210349e-01 1.635595e-01 2.773684e-01 2.206126e-01 1.873167e-01 6.098982e-01 2.661800e-01 2.144428e-01 2.453120e-01 2.168790e-01 2.839416e-02
<GCONST> 8.099665e+01
<STATE> 5
<MEAN> 39
 -4.959822e+00 -3.497344e+00 2.293769e+00 7.545195e+00 -2.239794e+00 -9.233579e+00 -1.741542e+00 -2.257044e+00 -1.289200e+01 -1.067216e+01 -4.362708e+00 -7.326111e+00 6.444877e+01 -7.222393e-02 2.746500e-01 -4.382690e-01 -3.487762e-01 1.045705e+00 7.738586e-01 4.381802e-01 -1.024548e+00 -1.392601e-01 3.975492e-01 -6.780970e-01 -1.567636e-01 -5.136117e-01 -6.429507e-02 -2.060192e-01 -1.256216e-02 5.553104e-05 -3.353316e-01 -1.915619e-01 -2.290043e-02 3.498610e-01 1.373621e-01 1.665031e-01 2.855687e-01 2.183694e-01 9.888553e-02
<VARIANCE> 39
 1.528938e+00 6.067383e+00 4.237986e+00 7.420179e+00 1.915575e+01 1.075343e+01 1.337965e+01 2.432832e+01 1.521380e+01 1.150616e+01 1.551223e+01 1.770713e+01 2.607331e+00 1.564066e-01 5.615010e-01 4.702803e-01 7.458470e-01 1.325048e+00 9.032952e-01 1.393934e+00 3.364176e+00 1.553591e+00 1.296387e+00 1.520689e+00 1.500265e+00 1.296439e-01 2.815359e-02 9.797859e-02 9.468298e-02 1.265305e-01 2.357415e-01 1.990843e-01 2.097501e-01 6.265826e-01 2.933756e-01 2.597848e-01 2.950375e-01 2.963915e-01 2.624311e-02
<GCONST> 7.387495e+01
<STATE> 6
<MEAN> 39
 -5.436672e+00 -4.149646e+00 8.028643e-01 6.550161e+00 -1.720800e-01 -7.720462e+00 -2.797295e-01 -4.006646e+00 -1.278449e+01 -8.996288e+00 -5.442897e+00 -6.755073e+00 6.296721e+01 -2.480532e-01 -2.819496e-01 -5.379303e-01 -2.743789e-01 8.195549e-02 3.917923e-01 3.032696e-01 -1.306573e-02 3.962407e-01 7.622144e-01 1.123178e-01 2.079300e-01 -3.264856e-01 -4.588635e-02 -1.192211e-01 -2.486991e-02 -3.676095e-02 -1.701182e-01 -5.121837e-02 -4.744561e-02 1.435101e-01 1.430142e-01 8.237561e-02 1.364329e-01 -1.066013e-02 1.629298e-02
<VARIANCE> 39
 1.779897e+00 6.021489e+00 4.997371e+00 7.769433e+00 1.139176e+01 1.029837e+01 1.102314e+01 1.311207e+01 1.151077e+01 1.900669e+01 1.342649e+01 1.583820e+01 1.610050e+00 1.073886e-01 2.925844e-01 4.266572e-01 7.726742e-01 8.617015e-01 1.005575e+00 1.233531e+00 1.880123e+00 1.212311e+00 1.957109e+00 1.430643e+00 1.359702e+00 9.915349e-02 2.076716e-02 5.647381e-02 6.704196e-02 1.463951e-01 1.944375e-01 2.038695e-01 2.301867e-01 4.340914e-01 2.375951e-01 4.486842e-01 2.926658e-01 2.963302e-01 2.169342e-02
<GCONST> 6.859895e+01
<STATE> 7
<MEAN> 39
 -6.425814e+00 -5.549911e+00 -1.156944e+00 5.197089e+00 -5.600258e-01 -6.177960e+00 5.733008e-01 -3.810792e+00 -1.050503e+01 -5.892187e+00 -4.858471e+00 -6.965757e+00 6.172166e+01 -2.959450e-01 -4.264874e-01 -5.899143e-01 -5.466062e-01 -2.930430e-02 3.766993e-01 3.229253e-01 8.833460e-02 7.563320e-01 7.678352e-01 1.707747e-01 -2.023198e-02 -3.192803e-01 3.464547e-03 -2.608624e-02 3.494402e-02 -6.206102e-02 -9.855922e-03 -4.724157e-02 1.546612e-02 4.482181e-03 5.721336e-02 -7.965982e-02 -6.403752e-03 1.129661e-02 1.824271e-02
<VARIANCE> 39
 2.207077e+00 5.573298e+00 7.697942e+00 1.043274e+01 1.097573e+01 1.352404e+01 1.143350e+01 1.590983e+01 1.575698e+01 1.658224e+01 1.431142e+01 1.382251e+01 1.680453e+00 1.226549e-01 3.375606e-01 5.698259e-01 7.908314e-01 9.650211e-01 1.204921e+00 1.450036e+00 1.513958e+00 1.600889e+00 1.670551e+00 1.164542e+00 1.259231e+00 9.157281e-02 1.868596e-02 6.340341e-02 1.094151e-01 1.392018e-01 1.882422e-01 2.639854e-01 2.987848e-01 3.463251e-01 3.342845e-01 3.709718e-01 2.542534e-01 2.710631e-01 1.620169e-02
<GCONST> 7.100217e+01
<STATE> 8
<MEAN> 39
 -7.856807e+00 -8.457542e+00 -3.466315e+00 1.707338e+00 -9.130236e-01 -6.463580e+00 1.232194e+00 -4.072672e+00 -8.243656e+00 -3.778770e+00 -4.315106e+00 -7.057553e+00 6.018933e+01 -1.431383e-01 -2.195197e-01 -1.841521e-01 -3.210615e-01 -7.119806e-02 -1.042118e-01 -2.121435e-02 -1.094806e-01 1.774152e-01 1.400404e-01 -7.829133e-03 -1.881322e-02 -1.577437e-01 2.519160e-02 3.279439e-02 4.883275e-02 4.850005e-02 -2.904624e-03 -3.892277e-02 -5.963513e-02 -4.079214e-02 -9.393913e-02 -7.503226e-02 -2.705366e-02 -7.172075e-03 1.116767e-02
<VARIANCE> 39
 2.684078e+00 6.717987e+00 6.620812e+00 1.035679e+01 8.460764e+00 1.306561e+01 1.399085e+01 1.550980e+01 2.071788e+01 1.352921e+01 1.489848e+01 1.236005e+01 1.707337e+00 1.561679e-01 3.530072e-01 6.503672e-01 8.843783e-01 9.045504e-01 1.188053e+00 1.374981e+00 1.635461e+00 2.164545e+00 1.459928e+00 1.382335e+00 1.246961e+00 6.721871e-02 3.075898e-02 7.301287e-02 1.373190e-01 1.648155e-01 1.766460e-01 2.261292e-01 2.777196e-01 3.089170e-01 4.156069e-01 2.755836e-01 2.811006e-01 2.465153e-01 1.117696e-02
<GCONST> 7.180216e+01
<STATE> 9
<MEAN> 39
 -8.396721e+00 -8.559318e+00 -4.421517e+00 6.322366e-01 -1.318081e+00 -6.238280e+00 1.411551e-01 -5.299735e+00 -7.863794e+00 -4.119892e+00 -5.276834e+00 -7.222840e+00 5.910604e+01 -3.280265e-02 -2.302288e-02 -3.886908e-02 -1.927980e-02 -2.472235e-02 -3.571175e-03 -6.207068e-02 -3.762162e-02 -1.590492e-02 -4.182377e-02 -6.810662e-02 1.114473e-02 -1.637672e-01 4.698110e-03 1.403797e-02 1.238898e-02 2.208839e-02 4.281112e-03 8.057855e-03 1.238257e-02 2.304008e-02 -7.880778e-03 -3.036385e-03 6.284091e-03 2.318887e-03 -6.427274e-03
<VARIANCE> 39
 2.317300e+00 3.587818e+00 5.971349e+00 7.272046e+00 9.055223e+00 1.022134e+01 1.361318e+01 1.275642e+01 1.503118e+01 1.492509e+01 1.411215e+01 1.269198e+01 3.433360e+00 1.721458e-01 3.011940e-01 5.020682e-01 7.136292e-01 8.418116e-01 9.635001e-01 1.233153e+00 1.354684e+00 1.564641e+00 1.480969e+00 1.292808e+00 1.222549e+00 8.154640e-02 3.350732e-02 5.764175e-02 1.033183e-01 1.468189e-01 1.608821e-01 1.941568e-01 2.593672e-01 2.717975e-01 3.231462e-01 3.128334e-01 2.560834e-01 2.362460e-01 1.129807e-02
<GCONST> 6.805885e+01
<STATE> 10
<MEAN> 39
